# LAMMPS SNAP coefficients for Li3N
# generated by pymacy.potential.snap.SNAPotential

2 31
Li 0.5 0.1
-41.97323930758951
-0.006975291543708552
1.9434438303637722
1.9439606652091586
1.8963721272975047
0.8184150253310739
-0.11552574562753412
0.024662060558673055
0.645913664832655
0.029473213939390678
-0.8355694040515903
0.26042157703949004
-0.5318774132868211
0.2979554491697543
0.10023866910294173
-0.5692975828766904
-0.6836106218130198
0.07683922184552483
0.15747793760306317
0.24539614677129887
0.2189952475964869
-0.20326553979631898
-0.23272661308601275
-0.3528380317030206
0.112930317776087
0.537951697554698
0.08228478406496283
-0.1789667225760126
-0.2836764164156765
0.08901293984293195
0.044042461635336136
N 0.7 -0.1
5.070489350565292
1.456429449741217
-0.7417518951788988
1.391487252718133
-0.05799391981425649
4.490489555500009
1.038809274414984
2.017342084202995
0.2977526383647907
2.234672087302177
0.8642128029636933
2.0279416008181443
0.5344950927985814
0.29943675723907504
-0.14945337171905423
0.5412801525545897
0.1814464847359337
0.32453496880994626
-0.11236523983947481
0.14314633605288057
0.008000929122986318
-0.1912670516117714
-0.16715285409415928
-0.3697173126253156
-0.12303505777195632
0.5597456490031791
0.2904966729321746
-0.02909290591797242
-0.18013437424998538
0.2523311830460235
0.008318824055866198