# LAMMPS SNAP coefficients for Ta-W-Nb-Mo
# generated by pymacy.potential.snap.SNAPotential

4 31
Ta 0.489 0.8
-1.425109684260578
0.05044506979910916
0.1449574749052033
1.0670061695028303
0.08835574861819201
1.0091130598473406
0.0036650093926857696
0.20964097166522078
0.027932575440179207
0.22963708003947503
-0.12847119843372223
0.00030024745127657515
-0.13468637024590582
-0.007981276930546451
-0.014405098123407893
0.17846475358239833
-0.0859772211353582
-0.008756843306830419
-0.040877748648188335
0.07376556334297912
-0.029246356137059636
0.03598447349482439
-0.0352277596323274
-0.003930723814269409
0.023065271885315274
-0.06175022826179577
-0.04469023362685083
-0.006488080091133344
0.06171927791526725
0.033014192344766255
0.011402709319943728
Nb 0.511 0.7
-1.4956456721567826
0.05612130673255633
0.1502059130083596
1.1765970981344198
0.09138677115524516
1.0893224938097958
0.07116057752471085
0.29643896578953877
0.005917067856183067
0.22943045948782287
0.05120162692800945
-0.11410328847254875
-0.03518353952849171
-0.02723043677972764
0.007082433891911488
0.10469188998010706
-0.14411573137255962
0.011938606596523203
-0.12556281025512428
0.03301632129224241
-0.08909986972846293
0.017935188428179857
-0.054454727413837424
-0.0433903076638232
0.025536416668651654
-0.0239815972348659
0.034221871817031534
-0.008323616081167884
0.02563216390951105
-0.00042023441146921137
0.013456804789307497
Mo 0.5 0.5
-5.332775538023719
0.15674126073329253
0.015395641264471807
0.7791458291136816
0.06757535917316412
0.6810570537109905
0.07959640495755643
0.17892885206043524
-0.09889209577892899
0.5959585651636085
-0.007871724339218691
-0.12618022623106998
0.07716807502575751
0.035708703224163474
0.020263110501164583
0.16664544292354017
0.05964025625144153
0.03811975065430609
-0.005472739018676759
0.011923522896261987
-0.1913922461503378
-0.01714921484058099
0.13973572865725772
0.15724490604740066
0.13480633068516545
-0.04995662933129731
-0.09740354664413556
-0.02512020698717432
0.22885239620797626
-0.013055058833242927
-0.03939990040049368
W 0.489 0.6
5.7029676093982005
0.11853512186639753
0.2567164809376236
1.0832713883093203
0.019530402078965114
0.7464016286516474
0.013848807116599113
-0.10236298932931918
-0.0642024450789832
0.2562948462745133
-0.447096465838605
-0.0019873338805882768
-0.20397449941118037
-0.04160992790666708
-0.011681892166092313
0.0022127135637891133
-0.1570300376751524
-0.10148288310873241
-0.05873051411860312
0.06069251303373516
-0.237457141471944
0.021297299380757514
0.06635798980874233
0.014581887658784987
-0.06896060186462204
-0.07999004096468468
-0.11227718040417425
-0.013953913002948445
0.22636172122049372
0.050407379980334094
0.049903565483977536