<GAP_2018_8_12_-420_0_32_38_161>
<Potential init_args="IP GAP label=GAP_2018_8_12_-420_0_32_38_161" label="GAP_2018_8_12_-420_0_32_38_161" />
<GAP_params gap_version="1525123159" label="GAP_2018_8_12_-420_0_32_38_161">
  <GAP_data do_core="F">
    <e0 Z="1" value="-.96999999999999997" />
    <e0 Z="2" value="-.96999999999999997" />
    <e0 Z="3" value="-.96999999999999997" />
    <e0 Z="4" value="-.96999999999999997" />
    <e0 Z="5" value="-.96999999999999997" />
    <e0 Z="6" value="-.96999999999999997" />
    <e0 Z="7" value="-.96999999999999997" />
    <e0 Z="8" value="-.96999999999999997" />
    <e0 Z="9" value="-.96999999999999997" />
    <e0 Z="10" value="-.96999999999999997" />
    <e0 Z="11" value="-.96999999999999997" />
    <e0 Z="12" value="-.96999999999999997" />
    <e0 Z="13" value="-.96999999999999997" />
    <e0 Z="14" value="-.96999999999999997" />
    <e0 Z="15" value="-.96999999999999997" />
    <e0 Z="16" value="-.96999999999999997" />
    <e0 Z="17" value="-.96999999999999997" />
    <e0 Z="18" value="-.96999999999999997" />
    <e0 Z="19" value="-.96999999999999997" />
    <e0 Z="20" value="-.96999999999999997" />
    <e0 Z="21" value="-.96999999999999997" />
    <e0 Z="22" value="-.96999999999999997" />
    <e0 Z="23" value="-.96999999999999997" />
    <e0 Z="24" value="-.96999999999999997" />
    <e0 Z="25" value="-.96999999999999997" />
    <e0 Z="26" value="-.96999999999999997" />
    <e0 Z="27" value="-.96999999999999997" />
    <e0 Z="28" value="-.96999999999999997" />
    <e0 Z="29" value="-.96999999999999997" />
    <e0 Z="30" value="-.96999999999999997" />
    <e0 Z="31" value="-.96999999999999997" />
    <e0 Z="32" value="-.96999999999999997" />
    <e0 Z="33" value="-.96999999999999997" />
    <e0 Z="34" value="-.96999999999999997" />
    <e0 Z="35" value="-.96999999999999997" />
    <e0 Z="36" value="-.96999999999999997" />
    <e0 Z="37" value="-.96999999999999997" />
    <e0 Z="38" value="-.96999999999999997" />
    <e0 Z="39" value="-.96999999999999997" />
    <e0 Z="40" value="-.96999999999999997" />
    <e0 Z="41" value="-.96999999999999997" />
    <e0 Z="42" value="-.96999999999999997" />
    <e0 Z="43" value="-.96999999999999997" />
    <e0 Z="44" value="-.96999999999999997" />
    <e0 Z="45" value="-.96999999999999997" />
    <e0 Z="46" value="-.96999999999999997" />
    <e0 Z="47" value="-.96999999999999997" />
    <e0 Z="48" value="-.96999999999999997" />
    <e0 Z="49" value="-.96999999999999997" />
    <e0 Z="50" value="-.96999999999999997" />
    <e0 Z="51" value="-.96999999999999997" />
    <e0 Z="52" value="-.96999999999999997" />
    <e0 Z="53" value="-.96999999999999997" />
    <e0 Z="54" value="-.96999999999999997" />
    <e0 Z="55" value="-.96999999999999997" />
    <e0 Z="56" value="-.96999999999999997" />
    <e0 Z="57" value="-.96999999999999997" />
    <e0 Z="58" value="-.96999999999999997" />
    <e0 Z="59" value="-.96999999999999997" />
    <e0 Z="60" value="-.96999999999999997" />
    <e0 Z="61" value="-.96999999999999997" />
    <e0 Z="62" value="-.96999999999999997" />
    <e0 Z="63" value="-.96999999999999997" />
    <e0 Z="64" value="-.96999999999999997" />
    <e0 Z="65" value="-.96999999999999997" />
    <e0 Z="66" value="-.96999999999999997" />
    <e0 Z="67" value="-.96999999999999997" />
    <e0 Z="68" value="-.96999999999999997" />
    <e0 Z="69" value="-.96999999999999997" />
    <e0 Z="70" value="-.96999999999999997" />
    <e0 Z="71" value="-.96999999999999997" />
    <e0 Z="72" value="-.96999999999999997" />
    <e0 Z="73" value="-.96999999999999997" />
    <e0 Z="74" value="-.96999999999999997" />
    <e0 Z="75" value="-.96999999999999997" />
    <e0 Z="76" value="-.96999999999999997" />
    <e0 Z="77" value="-.96999999999999997" />
    <e0 Z="78" value="-.96999999999999997" />
    <e0 Z="79" value="-.96999999999999997" />
    <e0 Z="80" value="-.96999999999999997" />
    <e0 Z="81" value="-.96999999999999997" />
    <e0 Z="82" value="-.96999999999999997" />
    <e0 Z="83" value="-.96999999999999997" />
    <e0 Z="84" value="-.96999999999999997" />
    <e0 Z="85" value="-.96999999999999997" />
    <e0 Z="86" value="-.96999999999999997" />
    <e0 Z="87" value="-.96999999999999997" />
    <e0 Z="88" value="-.96999999999999997" />
    <e0 Z="89" value="-.96999999999999997" />
    <e0 Z="90" value="-.96999999999999997" />
    <e0 Z="91" value="-.96999999999999997" />
    <e0 Z="92" value="-.96999999999999997" />
    <e0 Z="93" value="-.96999999999999997" />
    <e0 Z="94" value="-.96999999999999997" />
    <e0 Z="95" value="-.96999999999999997" />
    <e0 Z="96" value="-.96999999999999997" />
    <e0 Z="97" value="-.96999999999999997" />
    <e0 Z="98" value="-.96999999999999997" />
    <e0 Z="99" value="-.96999999999999997" />
    <e0 Z="100" value="-.96999999999999997" />
    <e0 Z="101" value="-.96999999999999997" />
    <e0 Z="102" value="-.96999999999999997" />
    <e0 Z="103" value="-.96999999999999997" />
    <e0 Z="104" value="-.96999999999999997" />
    <e0 Z="105" value="-.96999999999999997" />
    <e0 Z="106" value="-.96999999999999997" />
    <e0 Z="107" value="-.96999999999999997" />
    <e0 Z="108" value="-.96999999999999997" />
    <e0 Z="109" value="-.96999999999999997" />
    <e0 Z="110" value="-.96999999999999997" />
    <e0 Z="111" value="-.96999999999999997" />
    <e0 Z="112" value="-.96999999999999997" />
    <e0 Z="113" value="-.96999999999999997" />
    <e0 Z="114" value="-.96999999999999997" />
    <e0 Z="115" value="-.96999999999999997" />
    <e0 Z="116" value="-.96999999999999997" />
  </GAP_data>
  <gpSparse label="GAP_2018_8_12_-420_0_32_38_161" n_coordinate="1">
    <gpCoordinates covariance_type="2" dimensions="325" label="GAP_2018_8_12_-420_0_32_38_1611" n_permutations="1" n_sparseX="4000" signal_mean=".00000000000000000E+000" signal_variance="1.0000000000000000" sparseX_filename="GAPotential.soapparam" sparsified="T" zeta="4.0000000000000000">
      <descriptor>soap l_max=8 n_max=8 atom_sigma=0.5 zeta=4 cutoff=3.9 cutoff_transition_width=0.5 delta=1.0 f0=0.0 n_sparse=4000 covariance_type=dot_product sparse_method=cur_points</descriptor>
      <permutation i="1">1  </permutation>
      <sparseX alpha="760.01025299678997" i="1" sparseCutoff="1.0000000000000000" />
      <sparseX alpha="-270.33318031473675" i="2" sparseCutoff="1.0000000000000000" />
      <sparseX alpha="1051.2854726386606" i="3" sparseCutoff="1.0000000000000000" />
      <sparseX alpha="-710.62296577170332" i="4" sparseCutoff="1.0000000000000000" />
      <sparseX alpha="364.13823004290293" i="5" sparseCutoff="1.0000000000000000" />
      <sparseX alpha="-630.22912062602995" i="6" sparseCutoff="1.0000000000000000" />
      <sparseX alpha="-1464.7090464441062" i="7" sparseCutoff="1.0000000000000000" />
      <sparseX alpha="48.812852196687508" i="8" sparseCutoff="1.0000000000000000" />
      <sparseX alpha="129.00621745061275" i="9" sparseCutoff="1.0000000000000000" />
      <sparseX alpha="-1067.7886164042491" i="10" sparseCutoff="1.0000000000000000" />
      <sparseX alpha="-1618.5376194417518" i="11" sparseCutoff="1.0000000000000000" />
      <sparseX alpha="-593.27823359366027" i="12" sparseCutoff="1.0000000000000000" />
      <sparseX alpha="824.68610257841601" i="13" sparseCutoff="1.0000000000000000" />
      <sparseX alpha="375.64315421321794" i="14" sparseCutoff="1.0000000000000000" />
      <sparseX alpha="-1794.8181544455188" i="15" sparseCutoff="1.0000000000000000" />
      <sparseX alpha="-733.62478017353715" i="16" sparseCutoff="1.0000000000000000" />
      <sparseX alpha="1320.8205694363621" i="17" sparseCutoff="1.0000000000000000" />
      <sparseX alpha="-12.713973613866063" i="18" sparseCutoff="1.0000000000000000" />
      <sparseX alpha="750.11282551778766" i="19" sparseCutoff="1.0000000000000000" />
      <sparseX alpha="-400.42121430000805" i="20" sparseCutoff="1.0000000000000000" />
      <sparseX alpha="-1324.3968025396389" i="21" sparseCutoff="1.0000000000000000" />
      <sparseX alpha="-2761.8357620012116" i="22" sparseCutoff="1.0000000000000000" />
      <sparseX alpha="-1176.1712269798213" i="23" sparseCutoff="1.0000000000000000" />
      <sparseX alpha="-1545.6214026484224" i="24" sparseCutoff="1.0000000000000000" />
      <sparseX alpha="313.97211892513479" i="25" sparseCutoff="1.0000000000000000" />
      <sparseX alpha="5.3726814933453895" i="26" sparseCutoff="1.0000000000000000" />
      <sparseX alpha="-229.80585323991750" i="27" sparseCutoff="1.0000000000000000" />
      <sparseX alpha="-1666.1808699076305" i="28" sparseCutoff="1.0000000000000000" />
      <sparseX alpha="542.47263483545987" i="29" sparseCutoff="1.0000000000000000" />
      <sparseX alpha="-563.30738092477270" i="30" sparseCutoff="1.0000000000000000" />
      <sparseX alpha="-51.842178005445795" i="31" sparseCutoff="1.0000000000000000" />
      <sparseX alpha="563.22539995859313" i="32" sparseCutoff="1.0000000000000000" />
      <sparseX alpha="1236.3867761951333" i="33" sparseCutoff="1.0000000000000000" />
      <sparseX alpha="-749.69073068602347" i="34" sparseCutoff="1.0000000000000000" />
      <sparseX alpha="137.36954951680241" i="35" sparseCutoff="1.0000000000000000" />
      <sparseX alpha="449.88277649792735" i="36" sparseCutoff="1.0000000000000000" />
      <sparseX alpha="-190.31242959616489" i="37" sparseCutoff="1.0000000000000000" />
      <sparseX alpha="-769.90722696828414" i="38" sparseCutoff="1.0000000000000000" />
      <sparseX alpha="1162.7690664276786" i="39" sparseCutoff="1.0000000000000000" />
      <sparseX alpha="-960.72668887600673" i="40" sparseCutoff="1.0000000000000000" />
      <sparseX alpha="603.52721245508349" i="41" sparseCutoff="1.0000000000000000" />
      <sparseX alpha="2542.6068029437483" i="42" sparseCutoff="1.0000000000000000" />
      <sparseX alpha="564.46446035442705" i="43" sparseCutoff="1.0000000000000000" />
      <sparseX alpha="-766.13590345729574" i="44" sparseCutoff="1.0000000000000000" />
      <sparseX alpha="572.74193437985332" i="45" sparseCutoff="1.0000000000000000" />
      <sparseX alpha="736.47820122969199" i="46" sparseCutoff="1.0000000000000000" />
      <sparseX alpha="985.07832911833225" i="47" sparseCutoff="1.0000000000000000" />
      <sparseX alpha="-488.72299340419676" i="48" sparseCutoff="1.0000000000000000" />
      <sparseX alpha="311.06765449803368" i="49" sparseCutoff="1.0000000000000000" />
      <sparseX alpha="198.87139878036956" i="50" sparseCutoff="1.0000000000000000" />
      <sparseX alpha="776.84273736249065" i="51" sparseCutoff="1.0000000000000000" />
      <sparseX alpha="-691.30584741212692" i="52" sparseCutoff="1.0000000000000000" />
      <sparseX alpha="-508.67579897174920" i="53" sparseCutoff="1.0000000000000000" />
      <sparseX alpha="-973.67442212717572" i="54" sparseCutoff="1.0000000000000000" />
      <sparseX alpha="163.57740831062998" i="55" sparseCutoff="1.0000000000000000" />
      <sparseX alpha="306.35327907318077" i="56" sparseCutoff="1.0000000000000000" />
      <sparseX alpha="-1676.6765888748773" i="57" sparseCutoff="1.0000000000000000" />
      <sparseX alpha="-708.82809412865424" i="58" sparseCutoff="1.0000000000000000" />
      <sparseX alpha="677.14941839258438" i="59" sparseCutoff="1.0000000000000000" />
      <sparseX alpha="1317.9499896712559" i="60" sparseCutoff="1.0000000000000000" />
      <sparseX alpha="1199.0224004076977" i="61" sparseCutoff="1.0000000000000000" />
      <sparseX alpha="375.62224495602305" i="62" sparseCutoff="1.0000000000000000" />
      <sparseX alpha="-2087.6425081505868" i="63" sparseCutoff="1.0000000000000000" />
      <sparseX alpha="243.17799028618489" i="64" sparseCutoff="1.0000000000000000" />
      <sparseX alpha="-147.34611631002673" i="65" sparseCutoff="1.0000000000000000" />
      <sparseX alpha="-362.19853972923295" i="66" sparseCutoff="1.0000000000000000" />
      <sparseX alpha="-275.76248545636400" i="67" sparseCutoff="1.0000000000000000" />
      <sparseX alpha="-27.151366351575163" i="68" sparseCutoff="1.0000000000000000" />
      <sparseX alpha="-1347.8111524264552" i="69" sparseCutoff="1.0000000000000000" />
      <sparseX alpha="13.813838998647455" i="70" sparseCutoff="1.0000000000000000" />
      <sparseX alpha="59.210230029993049" i="71" sparseCutoff="1.0000000000000000" />
      <sparseX alpha="562.64985547182255" i="72" sparseCutoff="1.0000000000000000" />
      <sparseX alpha="-708.41781274900609" i="73" sparseCutoff="1.0000000000000000" />
      <sparseX alpha="605.82560337791222" i="74" sparseCutoff="1.0000000000000000" />
      <sparseX alpha="288.99553978964224" i="75" sparseCutoff="1.0000000000000000" />
      <sparseX alpha="-3524.9290288875673" i="76" sparseCutoff="1.0000000000000000" />
      <sparseX alpha="639.44724135099102" i="77" sparseCutoff="1.0000000000000000" />
      <sparseX alpha="-186.03069125933257" i="78" sparseCutoff="1.0000000000000000" />
      <sparseX alpha="889.60440472559605" i="79" sparseCutoff="1.0000000000000000" />
      <sparseX alpha="136.60544573747995" i="80" sparseCutoff="1.0000000000000000" />
      <sparseX alpha="-693.17109342403228" i="81" sparseCutoff="1.0000000000000000" />
      <sparseX alpha="-1188.8540450738740" i="82" sparseCutoff="1.0000000000000000" />
      <sparseX alpha="664.06659452743554" i="83" sparseCutoff="1.0000000000000000" />
      <sparseX alpha="-2140.3778038661012" i="84" sparseCutoff="1.0000000000000000" />
      <sparseX alpha="1426.0666546528191" i="85" sparseCutoff="1.0000000000000000" />
      <sparseX alpha="-3330.7509217374472" i="86" sparseCutoff="1.0000000000000000" />
      <sparseX alpha="-1057.9514906155555" i="87" sparseCutoff="1.0000000000000000" />
      <sparseX alpha="-2174.8094219323193" i="88" sparseCutoff="1.0000000000000000" />
      <sparseX alpha="-561.65197996284303" i="89" sparseCutoff="1.0000000000000000" />
      <sparseX alpha="-2840.6850971929407" i="90" sparseCutoff="1.0000000000000000" />
      <sparseX alpha="-1918.3815328649953" i="91" sparseCutoff="1.0000000000000000" />
      <sparseX alpha="-872.29888634421900" i="92" sparseCutoff="1.0000000000000000" />
      <sparseX alpha="271.06002508934586" i="93" sparseCutoff="1.0000000000000000" />
      <sparseX alpha="753.17603702957445" i="94" sparseCutoff="1.0000000000000000" />
      <sparseX alpha="341.88703732327815" i="95" sparseCutoff="1.0000000000000000" />
      <sparseX alpha="955.96544612927983" i="96" sparseCutoff="1.0000000000000000" />
      <sparseX alpha="920.73912819986845" i="97" sparseCutoff="1.0000000000000000" />
      <sparseX alpha="116.53524175787321" i="98" sparseCutoff="1.0000000000000000" />
      <sparseX alpha="-30.828677570957741" i="99" sparseCutoff="1.0000000000000000" />
      <sparseX alpha="394.56272770773654" i="100" sparseCutoff="1.0000000000000000" />
      <sparseX alpha="-137.62147054456040" i="101" sparseCutoff="1.0000000000000000" />
      <sparseX alpha="-929.87757819470414" i="102" sparseCutoff="1.0000000000000000" />
      <sparseX alpha="-757.57315124304762" i="103" sparseCutoff="1.0000000000000000" />
      <sparseX alpha="-629.24534684503487" i="104" sparseCutoff="1.0000000000000000" />
      <sparseX alpha="-1033.7038459021699" i="105" sparseCutoff="1.0000000000000000" />
      <sparseX alpha="61.289108921332556" i="106" sparseCutoff="1.0000000000000000" />
      <sparseX alpha="-1273.1406475251058" i="107" sparseCutoff="1.0000000000000000" />
      <sparseX alpha="-688.69757533510813" i="108" sparseCutoff="1.0000000000000000" />
      <sparseX alpha="-422.82356596758729" i="109" sparseCutoff="1.0000000000000000" />
      <sparseX alpha="620.27393495627541" i="110" sparseCutoff="1.0000000000000000" />
      <sparseX alpha="493.38021054617070" i="111" sparseCutoff="1.0000000000000000" />
      <sparseX alpha="-1854.4723314039738" i="112" sparseCutoff="1.0000000000000000" />
      <sparseX alpha="-175.20591124641837" i="113" sparseCutoff="1.0000000000000000" />
      <sparseX alpha="-1764.6311829579529" i="114" sparseCutoff="1.0000000000000000" />
      <sparseX alpha="-830.49803553994752" i="115" sparseCutoff="1.0000000000000000" />
      <sparseX alpha="-496.22454401512192" i="116" sparseCutoff="1.0000000000000000" />
      <sparseX alpha="-1481.7688114591108" i="117" sparseCutoff="1.0000000000000000" />
      <sparseX alpha="271.61677001879536" i="118" sparseCutoff="1.0000000000000000" />
      <sparseX alpha="960.34151403447220" i="119" sparseCutoff="1.0000000000000000" />
      <sparseX alpha="1289.4223852895166" i="120" sparseCutoff="1.0000000000000000" />
      <sparseX alpha="1230.9448599621601" i="121" sparseCutoff="1.0000000000000000" />
      <sparseX alpha="1761.0463882771614" i="122" sparseCutoff="1.0000000000000000" />
      <sparseX alpha="-278.38840154966283" i="123" sparseCutoff="1.0000000000000000" />
      <sparseX alpha="1408.9430706375367" i="124" sparseCutoff="1.0000000000000000" />
      <sparseX alpha="1643.8899337258151" i="125" sparseCutoff="1.0000000000000000" />
      <sparseX alpha="-579.49263254014534" i="126" sparseCutoff="1.0000000000000000" />
      <sparseX alpha="-1239.7687870702014" i="127" sparseCutoff="1.0000000000000000" />
      <sparseX alpha="-785.53221250424349" i="128" sparseCutoff="1.0000000000000000" />
      <sparseX alpha="-1164.1809473029284" i="129" sparseCutoff="1.0000000000000000" />
      <sparseX alpha="451.82332842012357" i="130" sparseCutoff="1.0000000000000000" />
      <sparseX alpha="-97.913955946330503" i="131" sparseCutoff="1.0000000000000000" />
      <sparseX alpha="-447.25030949321564" i="132" sparseCutoff="1.0000000000000000" />
      <sparseX alpha="940.57214261768218" i="133" sparseCutoff="1.0000000000000000" />
      <sparseX alpha="-1414.2510829641908" i="134" sparseCutoff="1.0000000000000000" />
      <sparseX alpha="1000.2987389431469" i="135" sparseCutoff="1.0000000000000000" />
      <sparseX alpha="-122.72709054514502" i="136" sparseCutoff="1.0000000000000000" />
      <sparseX alpha="354.26490681814556" i="137" sparseCutoff="1.0000000000000000" />
      <sparseX alpha="224.90428126679257" i="138" sparseCutoff="1.0000000000000000" />
      <sparseX alpha="-190.08537747755025" i="139" sparseCutoff="1.0000000000000000" />
      <sparseX alpha="556.30372253681276" i="140" sparseCutoff="1.0000000000000000" />
      <sparseX alpha="-1539.2779181332999" i="141" sparseCutoff="1.0000000000000000" />
      <sparseX alpha="-1501.9391577522069" i="142" sparseCutoff="1.0000000000000000" />
      <sparseX alpha="1148.3288298312129" i="143" sparseCutoff="1.0000000000000000" />
      <sparseX alpha="-523.45406208187819" i="144" sparseCutoff="1.0000000000000000" />
      <sparseX alpha="-992.58148699068056" i="145" sparseCutoff="1.0000000000000000" />
      <sparseX alpha="-1974.4194147188427" i="146" sparseCutoff="1.0000000000000000" />
      <sparseX alpha="2620.1967017731322" i="147" sparseCutoff="1.0000000000000000" />
      <sparseX alpha="845.58484392789967" i="148" sparseCutoff="1.0000000000000000" />
      <sparseX alpha="-1283.0581842928107" i="149" sparseCutoff="1.0000000000000000" />
      <sparseX alpha="955.65348656477215" i="150" sparseCutoff="1.0000000000000000" />
      <sparseX alpha="-194.44856959039839" i="151" sparseCutoff="1.0000000000000000" />
      <sparseX alpha="316.08769856418274" i="152" sparseCutoff="1.0000000000000000" />
      <sparseX alpha="1608.7334466747320" i="153" sparseCutoff="1.0000000000000000" />
      <sparseX alpha="-251.23890673134258" i="154" sparseCutoff="1.0000000000000000" />
      <sparseX alpha="-1006.7925344097971" i="155" sparseCutoff="1.0000000000000000" />
      <sparseX alpha="310.09013131479207" i="156" sparseCutoff="1.0000000000000000" />
      <sparseX alpha="1607.3965430007715" i="157" sparseCutoff="1.0000000000000000" />
      <sparseX alpha="-1356.7248244148768" i="158" sparseCutoff="1.0000000000000000" />
      <sparseX alpha="-310.18723195781263" i="159" sparseCutoff="1.0000000000000000" />
      <sparseX alpha="1151.6485583437932" i="160" sparseCutoff="1.0000000000000000" />
      <sparseX alpha="2484.4457756657139" i="161" sparseCutoff="1.0000000000000000" />
      <sparseX alpha="-1195.9048320844254" i="162" sparseCutoff="1.0000000000000000" />
      <sparseX alpha="-1592.0700725054658" i="163" sparseCutoff="1.0000000000000000" />
      <sparseX alpha="427.83496325523686" i="164" sparseCutoff="1.0000000000000000" />
      <sparseX alpha="890.34978570241822" i="165" sparseCutoff="1.0000000000000000" />
      <sparseX alpha="2478.7405434927832" i="166" sparseCutoff="1.0000000000000000" />
      <sparseX alpha="339.96360571366000" i="167" sparseCutoff="1.0000000000000000" />
      <sparseX alpha="751.59704459474619" i="168" sparseCutoff="1.0000000000000000" />
      <sparseX alpha="-505.80700290162940" i="169" sparseCutoff="1.0000000000000000" />
      <sparseX alpha="-2276.4448098749931" i="170" sparseCutoff="1.0000000000000000" />
      <sparseX alpha="334.95758314451535" i="171" sparseCutoff="1.0000000000000000" />
      <sparseX alpha="343.65305967249810" i="172" sparseCutoff="1.0000000000000000" />
      <sparseX alpha="296.63907382197345" i="173" sparseCutoff="1.0000000000000000" />
      <sparseX alpha="1759.7716056760755" i="174" sparseCutoff="1.0000000000000000" />
      <sparseX alpha="-854.11984706503097" i="175" sparseCutoff="1.0000000000000000" />
      <sparseX alpha="582.27230650006788" i="176" sparseCutoff="1.0000000000000000" />
      <sparseX alpha="-544.72147428197536" i="177" sparseCutoff="1.0000000000000000" />
      <sparseX alpha="346.60426017081716" i="178" sparseCutoff="1.0000000000000000" />
      <sparseX alpha="-606.37109449767365" i="179" sparseCutoff="1.0000000000000000" />
      <sparseX alpha="197.55870878303040" i="180" sparseCutoff="1.0000000000000000" />
      <sparseX alpha="-557.85132203130388" i="181" sparseCutoff="1.0000000000000000" />
      <sparseX alpha="-159.21599581967070" i="182" sparseCutoff="1.0000000000000000" />
      <sparseX alpha="1.4434230007764886" i="183" sparseCutoff="1.0000000000000000" />
      <sparseX alpha="646.95981063627084" i="184" sparseCutoff="1.0000000000000000" />
      <sparseX alpha="741.27003747907122" i="185" sparseCutoff="1.0000000000000000" />
      <sparseX alpha="544.46092226589019" i="186" sparseCutoff="1.0000000000000000" />
      <sparseX alpha="2317.8127737569957" i="187" sparseCutoff="1.0000000000000000" />
      <sparseX alpha="165.23444168404740" i="188" sparseCutoff="1.0000000000000000" />
      <sparseX alpha="-688.06812753028680" i="189" sparseCutoff="1.0000000000000000" />
      <sparseX alpha="682.81624892142077" i="190" sparseCutoff="1.0000000000000000" />
      <sparseX alpha="-418.30987818505497" i="191" sparseCutoff="1.0000000000000000" />
      <sparseX alpha="-635.79609280608474" i="192" sparseCutoff="1.0000000000000000" />
      <sparseX alpha="-691.69366657391151" i="193" sparseCutoff="1.0000000000000000" />
      <sparseX alpha="2631.3255751683669" i="194" sparseCutoff="1.0000000000000000" />
      <sparseX alpha="821.21307258002332" i="195" sparseCutoff="1.0000000000000000" />
      <sparseX alpha="-562.61996798628763" i="196" sparseCutoff="1.0000000000000000" />
      <sparseX alpha="2513.7361237294299" i="197" sparseCutoff="1.0000000000000000" />
      <sparseX alpha="-47.333130522346458" i="198" sparseCutoff="1.0000000000000000" />
      <sparseX alpha="-821.27709917744824" i="199" sparseCutoff="1.0000000000000000" />
      <sparseX alpha="243.26442231986823" i="200" sparseCutoff="1.0000000000000000" />
      <sparseX alpha="-1540.9728438526079" i="201" sparseCutoff="1.0000000000000000" />
      <sparseX alpha="2213.4309020438254" i="202" sparseCutoff="1.0000000000000000" />
      <sparseX alpha="-175.96681390641146" i="203" sparseCutoff="1.0000000000000000" />
      <sparseX alpha="689.78232805707216" i="204" sparseCutoff="1.0000000000000000" />
      <sparseX alpha="-252.03112205640139" i="205" sparseCutoff="1.0000000000000000" />
      <sparseX alpha="1016.5549426821474" i="206" sparseCutoff="1.0000000000000000" />
      <sparseX alpha="-109.77762830412421" i="207" sparseCutoff="1.0000000000000000" />
      <sparseX alpha="1712.6684793667960" i="208" sparseCutoff="1.0000000000000000" />
      <sparseX alpha="-3242.9749189544646" i="209" sparseCutoff="1.0000000000000000" />
      <sparseX alpha="-245.57357394179527" i="210" sparseCutoff="1.0000000000000000" />
      <sparseX alpha="584.74601209350521" i="211" sparseCutoff="1.0000000000000000" />
      <sparseX alpha="56.595434605610905" i="212" sparseCutoff="1.0000000000000000" />
      <sparseX alpha="2277.2208386449506" i="213" sparseCutoff="1.0000000000000000" />
      <sparseX alpha="-393.99865692364619" i="214" sparseCutoff="1.0000000000000000" />
      <sparseX alpha="1557.9355667453967" i="215" sparseCutoff="1.0000000000000000" />
      <sparseX alpha="-931.10619196382697" i="216" sparseCutoff="1.0000000000000000" />
      <sparseX alpha="-724.97287721418991" i="217" sparseCutoff="1.0000000000000000" />
      <sparseX alpha="-965.21379014400202" i="218" sparseCutoff="1.0000000000000000" />
      <sparseX alpha="673.99757542663792" i="219" sparseCutoff="1.0000000000000000" />
      <sparseX alpha="595.97183633052987" i="220" sparseCutoff="1.0000000000000000" />
      <sparseX alpha="214.00771472100325" i="221" sparseCutoff="1.0000000000000000" />
      <sparseX alpha="1796.7036547159410" i="222" sparseCutoff="1.0000000000000000" />
      <sparseX alpha="312.50830248828015" i="223" sparseCutoff="1.0000000000000000" />
      <sparseX alpha="1018.4326156482224" i="224" sparseCutoff="1.0000000000000000" />
      <sparseX alpha="733.92685601454389" i="225" sparseCutoff="1.0000000000000000" />
      <sparseX alpha="-269.07912595444964" i="226" sparseCutoff="1.0000000000000000" />
      <sparseX alpha="-443.83765573301025" i="227" sparseCutoff="1.0000000000000000" />
      <sparseX alpha="-131.17262568285344" i="228" sparseCutoff="1.0000000000000000" />
      <sparseX alpha="-132.79325636520022" i="229" sparseCutoff="1.0000000000000000" />
      <sparseX alpha="1986.3953370813288" i="230" sparseCutoff="1.0000000000000000" />
      <sparseX alpha="298.16097091943516" i="231" sparseCutoff="1.0000000000000000" />
      <sparseX alpha="-2004.7995003769547" i="232" sparseCutoff="1.0000000000000000" />
      <sparseX alpha="175.43344435841828" i="233" sparseCutoff="1.0000000000000000" />
      <sparseX alpha="999.61096395326297" i="234" sparseCutoff="1.0000000000000000" />
      <sparseX alpha="-1107.0471159796236" i="235" sparseCutoff="1.0000000000000000" />
      <sparseX alpha="-2340.2250643437660" i="236" sparseCutoff="1.0000000000000000" />
      <sparseX alpha="293.85998450095781" i="237" sparseCutoff="1.0000000000000000" />
      <sparseX alpha="-39.730825894276187" i="238" sparseCutoff="1.0000000000000000" />
      <sparseX alpha="649.32528217734841" i="239" sparseCutoff="1.0000000000000000" />
      <sparseX alpha="-285.04405904180038" i="240" sparseCutoff="1.0000000000000000" />
      <sparseX alpha="-179.70960458041930" i="241" sparseCutoff="1.0000000000000000" />
      <sparseX alpha="1411.9064216549609" i="242" sparseCutoff="1.0000000000000000" />
      <sparseX alpha="-126.76923552479174" i="243" sparseCutoff="1.0000000000000000" />
      <sparseX alpha="-1553.3214529279060" i="244" sparseCutoff="1.0000000000000000" />
      <sparseX alpha="388.89166869742161" i="245" sparseCutoff="1.0000000000000000" />
      <sparseX alpha="-1386.0790097535510" i="246" sparseCutoff="1.0000000000000000" />
      <sparseX alpha="527.39910408308583" i="247" sparseCutoff="1.0000000000000000" />
      <sparseX alpha="3241.5268144348288" i="248" sparseCutoff="1.0000000000000000" />
      <sparseX alpha="-538.59511897710024" i="249" sparseCutoff="1.0000000000000000" />
      <sparseX alpha="-1477.8494219875229" i="250" sparseCutoff="1.0000000000000000" />
      <sparseX alpha="2013.9920540630546" i="251" sparseCutoff="1.0000000000000000" />
      <sparseX alpha="59.038652616408370" i="252" sparseCutoff="1.0000000000000000" />
      <sparseX alpha="229.18869290129831" i="253" sparseCutoff="1.0000000000000000" />
      <sparseX alpha="-445.72363613616062" i="254" sparseCutoff="1.0000000000000000" />
      <sparseX alpha="-346.60223316802916" i="255" sparseCutoff="1.0000000000000000" />
      <sparseX alpha="-1371.8378054337072" i="256" sparseCutoff="1.0000000000000000" />
      <sparseX alpha="1533.3145868309780" i="257" sparseCutoff="1.0000000000000000" />
      <sparseX alpha="1317.1063350580152" i="258" sparseCutoff="1.0000000000000000" />
      <sparseX alpha="124.52393821963828" i="259" sparseCutoff="1.0000000000000000" />
      <sparseX alpha="-978.40984126912383" i="260" sparseCutoff="1.0000000000000000" />
      <sparseX alpha="-230.36916797768123" i="261" sparseCutoff="1.0000000000000000" />
      <sparseX alpha="-1125.7206270598251" i="262" sparseCutoff="1.0000000000000000" />
      <sparseX alpha="-50.961913844434719" i="263" sparseCutoff="1.0000000000000000" />
      <sparseX alpha="-103.08050941314093" i="264" sparseCutoff="1.0000000000000000" />
      <sparseX alpha="-1109.7168362375023" i="265" sparseCutoff="1.0000000000000000" />
      <sparseX alpha="-591.63994350673238" i="266" sparseCutoff="1.0000000000000000" />
      <sparseX alpha="-734.59634428342565" i="267" sparseCutoff="1.0000000000000000" />
      <sparseX alpha="-1267.0010719303848" i="268" sparseCutoff="1.0000000000000000" />
      <sparseX alpha="2522.8259371933186" i="269" sparseCutoff="1.0000000000000000" />
      <sparseX alpha="-501.59409378743800" i="270" sparseCutoff="1.0000000000000000" />
      <sparseX alpha="419.33524513494285" i="271" sparseCutoff="1.0000000000000000" />
      <sparseX alpha="-155.00172242494392" i="272" sparseCutoff="1.0000000000000000" />
      <sparseX alpha="436.00528023643875" i="273" sparseCutoff="1.0000000000000000" />
      <sparseX alpha="142.31952221745556" i="274" sparseCutoff="1.0000000000000000" />
      <sparseX alpha="-386.20157194878703" i="275" sparseCutoff="1.0000000000000000" />
      <sparseX alpha="136.41160344149441" i="276" sparseCutoff="1.0000000000000000" />
      <sparseX alpha="-549.28452683497949" i="277" sparseCutoff="1.0000000000000000" />
      <sparseX alpha="-381.11236875831463" i="278" sparseCutoff="1.0000000000000000" />
      <sparseX alpha="3719.8001669063315" i="279" sparseCutoff="1.0000000000000000" />
      <sparseX alpha="889.17919614158166" i="280" sparseCutoff="1.0000000000000000" />
      <sparseX alpha="-806.52778271130740" i="281" sparseCutoff="1.0000000000000000" />
      <sparseX alpha="2729.6868473244976" i="282" sparseCutoff="1.0000000000000000" />
      <sparseX alpha="320.37168379488583" i="283" sparseCutoff="1.0000000000000000" />
      <sparseX alpha="-1234.5747670188266" i="284" sparseCutoff="1.0000000000000000" />
      <sparseX alpha="90.482893503979469" i="285" sparseCutoff="1.0000000000000000" />
      <sparseX alpha="-154.21246760977428" i="286" sparseCutoff="1.0000000000000000" />
      <sparseX alpha="-770.54177829880530" i="287" sparseCutoff="1.0000000000000000" />
      <sparseX alpha="-1940.8802413160004" i="288" sparseCutoff="1.0000000000000000" />
      <sparseX alpha="-1305.9605869809373" i="289" sparseCutoff="1.0000000000000000" />
      <sparseX alpha="163.09098227500482" i="290" sparseCutoff="1.0000000000000000" />
      <sparseX alpha="849.72989939764000" i="291" sparseCutoff="1.0000000000000000" />
      <sparseX alpha="-455.12507901776974" i="292" sparseCutoff="1.0000000000000000" />
      <sparseX alpha="265.46439264971565" i="293" sparseCutoff="1.0000000000000000" />
      <sparseX alpha="-164.93446741659633" i="294" sparseCutoff="1.0000000000000000" />
      <sparseX alpha="102.94902826567544" i="295" sparseCutoff="1.0000000000000000" />
      <sparseX alpha="1399.4775117806812" i="296" sparseCutoff="1.0000000000000000" />
      <sparseX alpha="-3197.1474752162799" i="297" sparseCutoff="1.0000000000000000" />
      <sparseX alpha="2831.7739357711312" i="298" sparseCutoff="1.0000000000000000" />
      <sparseX alpha="-389.67126501252733" i="299" sparseCutoff="1.0000000000000000" />
      <sparseX alpha="-859.42735145735094" i="300" sparseCutoff="1.0000000000000000" />
      <sparseX alpha="-911.20489072830117" i="301" sparseCutoff="1.0000000000000000" />
      <sparseX alpha="-335.62264918738310" i="302" sparseCutoff="1.0000000000000000" />
      <sparseX alpha="2502.1074598679093" i="303" sparseCutoff="1.0000000000000000" />
      <sparseX alpha="-648.24675328720764" i="304" sparseCutoff="1.0000000000000000" />
      <sparseX alpha="800.32493670785516" i="305" sparseCutoff="1.0000000000000000" />
      <sparseX alpha="559.18351692891849" i="306" sparseCutoff="1.0000000000000000" />
      <sparseX alpha="-606.79511731716934" i="307" sparseCutoff="1.0000000000000000" />
      <sparseX alpha="-619.02038081392902" i="308" sparseCutoff="1.0000000000000000" />
      <sparseX alpha="955.57385822442779" i="309" sparseCutoff="1.0000000000000000" />
      <sparseX alpha="-1362.9381890436275" i="310" sparseCutoff="1.0000000000000000" />
      <sparseX alpha="339.24561585359453" i="311" sparseCutoff="1.0000000000000000" />
      <sparseX alpha="-684.54749279477949" i="312" sparseCutoff="1.0000000000000000" />
      <sparseX alpha="-1396.1661617681225" i="313" sparseCutoff="1.0000000000000000" />
      <sparseX alpha="1839.9431633593747" i="314" sparseCutoff="1.0000000000000000" />
      <sparseX alpha="-1339.2978676243920" i="315" sparseCutoff="1.0000000000000000" />
      <sparseX alpha="126.79208332471995" i="316" sparseCutoff="1.0000000000000000" />
      <sparseX alpha="1437.6083834876436" i="317" sparseCutoff="1.0000000000000000" />
      <sparseX alpha="838.21371521357344" i="318" sparseCutoff="1.0000000000000000" />
      <sparseX alpha="-1106.4931391642274" i="319" sparseCutoff="1.0000000000000000" />
      <sparseX alpha="1993.1970348614514" i="320" sparseCutoff="1.0000000000000000" />
      <sparseX alpha="119.25734592081240" i="321" sparseCutoff="1.0000000000000000" />
      <sparseX alpha="-131.75649839693398" i="322" sparseCutoff="1.0000000000000000" />
      <sparseX alpha="-1974.9924919296175" i="323" sparseCutoff="1.0000000000000000" />
      <sparseX alpha="156.28357820784601" i="324" sparseCutoff="1.0000000000000000" />
      <sparseX alpha="-96.077571940078968" i="325" sparseCutoff="1.0000000000000000" />
      <sparseX alpha="856.99436462778590" i="326" sparseCutoff="1.0000000000000000" />
      <sparseX alpha="98.975097718645685" i="327" sparseCutoff="1.0000000000000000" />
      <sparseX alpha="533.71796145825988" i="328" sparseCutoff="1.0000000000000000" />
      <sparseX alpha="-783.05658072716597" i="329" sparseCutoff="1.0000000000000000" />
      <sparseX alpha="24.449580626681485" i="330" sparseCutoff="1.0000000000000000" />
      <sparseX alpha="-672.91001762028031" i="331" sparseCutoff="1.0000000000000000" />
      <sparseX alpha="-268.95994461618858" i="332" sparseCutoff="1.0000000000000000" />
      <sparseX alpha="-846.11438457604970" i="333" sparseCutoff="1.0000000000000000" />
      <sparseX alpha="-1071.6093789670399" i="334" sparseCutoff="1.0000000000000000" />
      <sparseX alpha="-1641.7715782675623" i="335" sparseCutoff="1.0000000000000000" />
      <sparseX alpha="411.40733127282459" i="336" sparseCutoff="1.0000000000000000" />
      <sparseX alpha="170.42087186005421" i="337" sparseCutoff="1.0000000000000000" />
      <sparseX alpha="-231.63166758085120" i="338" sparseCutoff="1.0000000000000000" />
      <sparseX alpha="159.34721707836150" i="339" sparseCutoff="1.0000000000000000" />
      <sparseX alpha="-664.18266820691588" i="340" sparseCutoff="1.0000000000000000" />
      <sparseX alpha="-940.51642445987000" i="341" sparseCutoff="1.0000000000000000" />
      <sparseX alpha="-35.311742629978497" i="342" sparseCutoff="1.0000000000000000" />
      <sparseX alpha="-656.94300805795103" i="343" sparseCutoff="1.0000000000000000" />
      <sparseX alpha="-1451.6260900667771" i="344" sparseCutoff="1.0000000000000000" />
      <sparseX alpha="-576.26453163163580" i="345" sparseCutoff="1.0000000000000000" />
      <sparseX alpha="566.85910353742520" i="346" sparseCutoff="1.0000000000000000" />
      <sparseX alpha="-414.47125973719864" i="347" sparseCutoff="1.0000000000000000" />
      <sparseX alpha="758.49964403443062" i="348" sparseCutoff="1.0000000000000000" />
      <sparseX alpha="1234.3755526646853" i="349" sparseCutoff="1.0000000000000000" />
      <sparseX alpha="-416.10677892921365" i="350" sparseCutoff="1.0000000000000000" />
      <sparseX alpha="-44.920912526855204" i="351" sparseCutoff="1.0000000000000000" />
      <sparseX alpha="381.48900535551678" i="352" sparseCutoff="1.0000000000000000" />
      <sparseX alpha="540.77905908195021" i="353" sparseCutoff="1.0000000000000000" />
      <sparseX alpha="-484.80364616228047" i="354" sparseCutoff="1.0000000000000000" />
      <sparseX alpha="-2310.3306067470862" i="355" sparseCutoff="1.0000000000000000" />
      <sparseX alpha="-328.48036855786421" i="356" sparseCutoff="1.0000000000000000" />
      <sparseX alpha="-1090.7216174244195" i="357" sparseCutoff="1.0000000000000000" />
      <sparseX alpha="-1490.8595189724833" i="358" sparseCutoff="1.0000000000000000" />
      <sparseX alpha="358.77540846625959" i="359" sparseCutoff="1.0000000000000000" />
      <sparseX alpha="-541.45588188686122" i="360" sparseCutoff="1.0000000000000000" />
      <sparseX alpha="-384.71249142886165" i="361" sparseCutoff="1.0000000000000000" />
      <sparseX alpha="-2107.3750399598575" i="362" sparseCutoff="1.0000000000000000" />
      <sparseX alpha="1023.3060329458042" i="363" sparseCutoff="1.0000000000000000" />
      <sparseX alpha="172.14640250417500" i="364" sparseCutoff="1.0000000000000000" />
      <sparseX alpha="211.61634856257666" i="365" sparseCutoff="1.0000000000000000" />
      <sparseX alpha="-1321.7309167644310" i="366" sparseCutoff="1.0000000000000000" />
      <sparseX alpha="-190.27125415821189" i="367" sparseCutoff="1.0000000000000000" />
      <sparseX alpha="727.37432094006965" i="368" sparseCutoff="1.0000000000000000" />
      <sparseX alpha="1132.3777695670276" i="369" sparseCutoff="1.0000000000000000" />
      <sparseX alpha="-302.85849920869015" i="370" sparseCutoff="1.0000000000000000" />
      <sparseX alpha="734.16253763609473" i="371" sparseCutoff="1.0000000000000000" />
      <sparseX alpha="-269.13987881336499" i="372" sparseCutoff="1.0000000000000000" />
      <sparseX alpha="707.53504366835523" i="373" sparseCutoff="1.0000000000000000" />
      <sparseX alpha="-1872.3268846305618" i="374" sparseCutoff="1.0000000000000000" />
      <sparseX alpha="2306.2947589806349" i="375" sparseCutoff="1.0000000000000000" />
      <sparseX alpha="510.84280044858173" i="376" sparseCutoff="1.0000000000000000" />
      <sparseX alpha="1041.8657487535786" i="377" sparseCutoff="1.0000000000000000" />
      <sparseX alpha="700.17486543668338" i="378" sparseCutoff="1.0000000000000000" />
      <sparseX alpha="419.60636760039137" i="379" sparseCutoff="1.0000000000000000" />
      <sparseX alpha="-1326.7696017075507" i="380" sparseCutoff="1.0000000000000000" />
      <sparseX alpha="308.73273444761327" i="381" sparseCutoff="1.0000000000000000" />
      <sparseX alpha="-355.66784053317645" i="382" sparseCutoff="1.0000000000000000" />
      <sparseX alpha="666.23324814391481" i="383" sparseCutoff="1.0000000000000000" />
      <sparseX alpha="-4.4755278822655322" i="384" sparseCutoff="1.0000000000000000" />
      <sparseX alpha="928.90706077469770" i="385" sparseCutoff="1.0000000000000000" />
      <sparseX alpha="3826.6932495088199" i="386" sparseCutoff="1.0000000000000000" />
      <sparseX alpha="-3632.7928293421096" i="387" sparseCutoff="1.0000000000000000" />
      <sparseX alpha="1115.7984898881348" i="388" sparseCutoff="1.0000000000000000" />
      <sparseX alpha="-2439.6585141092937" i="389" sparseCutoff="1.0000000000000000" />
      <sparseX alpha="491.21848901163651" i="390" sparseCutoff="1.0000000000000000" />
      <sparseX alpha="245.95485740618344" i="391" sparseCutoff="1.0000000000000000" />
      <sparseX alpha="652.99913347349354" i="392" sparseCutoff="1.0000000000000000" />
      <sparseX alpha="-949.73365521388166" i="393" sparseCutoff="1.0000000000000000" />
      <sparseX alpha="-807.23824002351546" i="394" sparseCutoff="1.0000000000000000" />
      <sparseX alpha="614.79019225797822" i="395" sparseCutoff="1.0000000000000000" />
      <sparseX alpha="162.64215331977692" i="396" sparseCutoff="1.0000000000000000" />
      <sparseX alpha="1114.6342098245022" i="397" sparseCutoff="1.0000000000000000" />
      <sparseX alpha="-1765.9481726039025" i="398" sparseCutoff="1.0000000000000000" />
      <sparseX alpha="1228.4583413271155" i="399" sparseCutoff="1.0000000000000000" />
      <sparseX alpha="55.193123707635351" i="400" sparseCutoff="1.0000000000000000" />
      <sparseX alpha="-3845.1839978612384" i="401" sparseCutoff="1.0000000000000000" />
      <sparseX alpha="-1305.3459389828809" i="402" sparseCutoff="1.0000000000000000" />
      <sparseX alpha="-661.14749088772135" i="403" sparseCutoff="1.0000000000000000" />
      <sparseX alpha="166.43266667951690" i="404" sparseCutoff="1.0000000000000000" />
      <sparseX alpha="-1649.7981159000349" i="405" sparseCutoff="1.0000000000000000" />
      <sparseX alpha="-1123.8314043326218" i="406" sparseCutoff="1.0000000000000000" />
      <sparseX alpha="-1488.3848844836211" i="407" sparseCutoff="1.0000000000000000" />
      <sparseX alpha="-2051.6154115358072" i="408" sparseCutoff="1.0000000000000000" />
      <sparseX alpha="926.92969331150698" i="409" sparseCutoff="1.0000000000000000" />
      <sparseX alpha="188.99383233762580" i="410" sparseCutoff="1.0000000000000000" />
      <sparseX alpha="2356.1835757321955" i="411" sparseCutoff="1.0000000000000000" />
      <sparseX alpha="1033.0466958832578" i="412" sparseCutoff="1.0000000000000000" />
      <sparseX alpha="-1000.0557798307756" i="413" sparseCutoff="1.0000000000000000" />
      <sparseX alpha="-1076.8627790372950" i="414" sparseCutoff="1.0000000000000000" />
      <sparseX alpha="579.62992662469014" i="415" sparseCutoff="1.0000000000000000" />
      <sparseX alpha="-1600.5529017443707" i="416" sparseCutoff="1.0000000000000000" />
      <sparseX alpha="-632.53592339910335" i="417" sparseCutoff="1.0000000000000000" />
      <sparseX alpha="-1162.4193252658210" i="418" sparseCutoff="1.0000000000000000" />
      <sparseX alpha="-3451.0254424808713" i="419" sparseCutoff="1.0000000000000000" />
      <sparseX alpha="-195.81596356867871" i="420" sparseCutoff="1.0000000000000000" />
      <sparseX alpha="260.41513306765785" i="421" sparseCutoff="1.0000000000000000" />
      <sparseX alpha="-580.04917131494642" i="422" sparseCutoff="1.0000000000000000" />
      <sparseX alpha="-27.481687858173128" i="423" sparseCutoff="1.0000000000000000" />
      <sparseX alpha="-1132.2569196209538" i="424" sparseCutoff="1.0000000000000000" />
      <sparseX alpha="862.25665108407293" i="425" sparseCutoff="1.0000000000000000" />
      <sparseX alpha="744.31580546186331" i="426" sparseCutoff="1.0000000000000000" />
      <sparseX alpha="-5745.0569796820027" i="427" sparseCutoff="1.0000000000000000" />
      <sparseX alpha="270.53392325750860" i="428" sparseCutoff="1.0000000000000000" />
      <sparseX alpha="-701.00945790857725" i="429" sparseCutoff="1.0000000000000000" />
      <sparseX alpha="1279.5331381392555" i="430" sparseCutoff="1.0000000000000000" />
      <sparseX alpha="-236.14833685564255" i="431" sparseCutoff="1.0000000000000000" />
      <sparseX alpha="376.27058557363557" i="432" sparseCutoff="1.0000000000000000" />
      <sparseX alpha="4240.3219580739851" i="433" sparseCutoff="1.0000000000000000" />
      <sparseX alpha="-804.48512210315937" i="434" sparseCutoff="1.0000000000000000" />
      <sparseX alpha="-649.25679662163566" i="435" sparseCutoff="1.0000000000000000" />
      <sparseX alpha="-28.239659049373238" i="436" sparseCutoff="1.0000000000000000" />
      <sparseX alpha="172.44884006551268" i="437" sparseCutoff="1.0000000000000000" />
      <sparseX alpha="761.48041120005360" i="438" sparseCutoff="1.0000000000000000" />
      <sparseX alpha="1356.0630043912993" i="439" sparseCutoff="1.0000000000000000" />
      <sparseX alpha="912.74970436471619" i="440" sparseCutoff="1.0000000000000000" />
      <sparseX alpha="-1154.4554914476273" i="441" sparseCutoff="1.0000000000000000" />
      <sparseX alpha="-104.35237736219445" i="442" sparseCutoff="1.0000000000000000" />
      <sparseX alpha="188.75385569562414" i="443" sparseCutoff="1.0000000000000000" />
      <sparseX alpha="271.41508796847535" i="444" sparseCutoff="1.0000000000000000" />
      <sparseX alpha="735.01368586443755" i="445" sparseCutoff="1.0000000000000000" />
      <sparseX alpha="-1033.5232477242428" i="446" sparseCutoff="1.0000000000000000" />
      <sparseX alpha="-1221.7091924414960" i="447" sparseCutoff="1.0000000000000000" />
      <sparseX alpha="1890.2944722763207" i="448" sparseCutoff="1.0000000000000000" />
      <sparseX alpha="545.69506474026844" i="449" sparseCutoff="1.0000000000000000" />
      <sparseX alpha="1202.4666676724357" i="450" sparseCutoff="1.0000000000000000" />
      <sparseX alpha="1868.8056284586321" i="451" sparseCutoff="1.0000000000000000" />
      <sparseX alpha="-285.41381909928373" i="452" sparseCutoff="1.0000000000000000" />
      <sparseX alpha="851.62309744132983" i="453" sparseCutoff="1.0000000000000000" />
      <sparseX alpha="-2422.0678311255433" i="454" sparseCutoff="1.0000000000000000" />
      <sparseX alpha="1640.8901477142947" i="455" sparseCutoff="1.0000000000000000" />
      <sparseX alpha="108.69547840754076" i="456" sparseCutoff="1.0000000000000000" />
      <sparseX alpha="243.63731868444734" i="457" sparseCutoff="1.0000000000000000" />
      <sparseX alpha="-305.87957752706103" i="458" sparseCutoff="1.0000000000000000" />
      <sparseX alpha="1716.3754748871099" i="459" sparseCutoff="1.0000000000000000" />
      <sparseX alpha="-1519.4701207068504" i="460" sparseCutoff="1.0000000000000000" />
      <sparseX alpha="-155.79967109386857" i="461" sparseCutoff="1.0000000000000000" />
      <sparseX alpha="-288.24459673618844" i="462" sparseCutoff="1.0000000000000000" />
      <sparseX alpha="-388.97245836201932" i="463" sparseCutoff="1.0000000000000000" />
      <sparseX alpha="-493.96285963667759" i="464" sparseCutoff="1.0000000000000000" />
      <sparseX alpha="-2443.8942236536323" i="465" sparseCutoff="1.0000000000000000" />
      <sparseX alpha="1455.3186878998561" i="466" sparseCutoff="1.0000000000000000" />
      <sparseX alpha="97.505428766245274" i="467" sparseCutoff="1.0000000000000000" />
      <sparseX alpha="9.1116289247450482" i="468" sparseCutoff="1.0000000000000000" />
      <sparseX alpha="609.34768616915233" i="469" sparseCutoff="1.0000000000000000" />
      <sparseX alpha="-3.7115752978504402" i="470" sparseCutoff="1.0000000000000000" />
      <sparseX alpha="-245.29677602676776" i="471" sparseCutoff="1.0000000000000000" />
      <sparseX alpha="-2185.6917862821733" i="472" sparseCutoff="1.0000000000000000" />
      <sparseX alpha="-1233.9130469799495" i="473" sparseCutoff="1.0000000000000000" />
      <sparseX alpha="882.88299834480074" i="474" sparseCutoff="1.0000000000000000" />
      <sparseX alpha="849.61542752717912" i="475" sparseCutoff="1.0000000000000000" />
      <sparseX alpha="364.42319330782539" i="476" sparseCutoff="1.0000000000000000" />
      <sparseX alpha="-322.36471048226775" i="477" sparseCutoff="1.0000000000000000" />
      <sparseX alpha="-3035.5762534891041" i="478" sparseCutoff="1.0000000000000000" />
      <sparseX alpha="-114.60705984580393" i="479" sparseCutoff="1.0000000000000000" />
      <sparseX alpha="520.57710332871079" i="480" sparseCutoff="1.0000000000000000" />
      <sparseX alpha="-1839.8537240325022" i="481" sparseCutoff="1.0000000000000000" />
      <sparseX alpha="588.70019862842855" i="482" sparseCutoff="1.0000000000000000" />
      <sparseX alpha="229.63967527410989" i="483" sparseCutoff="1.0000000000000000" />
      <sparseX alpha="-330.66318144283798" i="484" sparseCutoff="1.0000000000000000" />
      <sparseX alpha="394.11729240923370" i="485" sparseCutoff="1.0000000000000000" />
      <sparseX alpha="778.18708244588618" i="486" sparseCutoff="1.0000000000000000" />
      <sparseX alpha="764.00519149166178" i="487" sparseCutoff="1.0000000000000000" />
      <sparseX alpha="-182.18248024079318" i="488" sparseCutoff="1.0000000000000000" />
      <sparseX alpha="-193.51666009356435" i="489" sparseCutoff="1.0000000000000000" />
      <sparseX alpha="-1235.6814937715365" i="490" sparseCutoff="1.0000000000000000" />
      <sparseX alpha="-388.24444170251616" i="491" sparseCutoff="1.0000000000000000" />
      <sparseX alpha="-378.37574427380628" i="492" sparseCutoff="1.0000000000000000" />
      <sparseX alpha="-722.92246479410846" i="493" sparseCutoff="1.0000000000000000" />
      <sparseX alpha="112.54468615557604" i="494" sparseCutoff="1.0000000000000000" />
      <sparseX alpha="-648.78041056049483" i="495" sparseCutoff="1.0000000000000000" />
      <sparseX alpha="3185.9178053975020" i="496" sparseCutoff="1.0000000000000000" />
      <sparseX alpha="-436.67803228194248" i="497" sparseCutoff="1.0000000000000000" />
      <sparseX alpha="2634.6382643468287" i="498" sparseCutoff="1.0000000000000000" />
      <sparseX alpha="-452.17306540149713" i="499" sparseCutoff="1.0000000000000000" />
      <sparseX alpha="-63.126711277826644" i="500" sparseCutoff="1.0000000000000000" />
      <sparseX alpha="387.37005931702498" i="501" sparseCutoff="1.0000000000000000" />
      <sparseX alpha="-374.50708471377561" i="502" sparseCutoff="1.0000000000000000" />
      <sparseX alpha="-135.52137292821988" i="503" sparseCutoff="1.0000000000000000" />
      <sparseX alpha="361.01967876719539" i="504" sparseCutoff="1.0000000000000000" />
      <sparseX alpha="-222.29245555880757" i="505" sparseCutoff="1.0000000000000000" />
      <sparseX alpha="1813.8679235993200" i="506" sparseCutoff="1.0000000000000000" />
      <sparseX alpha="-28.265093623516393" i="507" sparseCutoff="1.0000000000000000" />
      <sparseX alpha="-804.00390247074404" i="508" sparseCutoff="1.0000000000000000" />
      <sparseX alpha="1431.5395452540504" i="509" sparseCutoff="1.0000000000000000" />
      <sparseX alpha="321.26654891019189" i="510" sparseCutoff="1.0000000000000000" />
      <sparseX alpha="-745.29494244673128" i="511" sparseCutoff="1.0000000000000000" />
      <sparseX alpha="-653.92802652146702" i="512" sparseCutoff="1.0000000000000000" />
      <sparseX alpha="-542.11947630608768" i="513" sparseCutoff="1.0000000000000000" />
      <sparseX alpha="2657.5524990335139" i="514" sparseCutoff="1.0000000000000000" />
      <sparseX alpha="-423.78091455004414" i="515" sparseCutoff="1.0000000000000000" />
      <sparseX alpha="-165.55751359579804" i="516" sparseCutoff="1.0000000000000000" />
      <sparseX alpha="341.62865377470541" i="517" sparseCutoff="1.0000000000000000" />
      <sparseX alpha="1051.6257667867435" i="518" sparseCutoff="1.0000000000000000" />
      <sparseX alpha="-861.93012103848230" i="519" sparseCutoff="1.0000000000000000" />
      <sparseX alpha="972.68281467083943" i="520" sparseCutoff="1.0000000000000000" />
      <sparseX alpha="-1623.5729215077702" i="521" sparseCutoff="1.0000000000000000" />
      <sparseX alpha="-1537.6345539256590" i="522" sparseCutoff="1.0000000000000000" />
      <sparseX alpha="-532.96620640633262" i="523" sparseCutoff="1.0000000000000000" />
      <sparseX alpha="-1290.6966541989466" i="524" sparseCutoff="1.0000000000000000" />
      <sparseX alpha="459.83297758135240" i="525" sparseCutoff="1.0000000000000000" />
      <sparseX alpha="-106.97899106722713" i="526" sparseCutoff="1.0000000000000000" />
      <sparseX alpha="17.997688409052095" i="527" sparseCutoff="1.0000000000000000" />
      <sparseX alpha="626.72009286711329" i="528" sparseCutoff="1.0000000000000000" />
      <sparseX alpha="438.98520254381191" i="529" sparseCutoff="1.0000000000000000" />
      <sparseX alpha="510.47111873959358" i="530" sparseCutoff="1.0000000000000000" />
      <sparseX alpha="-31.660434255164581" i="531" sparseCutoff="1.0000000000000000" />
      <sparseX alpha="-1610.9218997409371" i="532" sparseCutoff="1.0000000000000000" />
      <sparseX alpha="-538.49199594297238" i="533" sparseCutoff="1.0000000000000000" />
      <sparseX alpha="-1057.2658958714530" i="534" sparseCutoff="1.0000000000000000" />
      <sparseX alpha="-306.92229952559779" i="535" sparseCutoff="1.0000000000000000" />
      <sparseX alpha="582.47093273210407" i="536" sparseCutoff="1.0000000000000000" />
      <sparseX alpha="128.80433956185689" i="537" sparseCutoff="1.0000000000000000" />
      <sparseX alpha="-850.07264609653964" i="538" sparseCutoff="1.0000000000000000" />
      <sparseX alpha="59.922419584792934" i="539" sparseCutoff="1.0000000000000000" />
      <sparseX alpha="-331.07753447459481" i="540" sparseCutoff="1.0000000000000000" />
      <sparseX alpha="752.74465000308260" i="541" sparseCutoff="1.0000000000000000" />
      <sparseX alpha="-401.54485912450173" i="542" sparseCutoff="1.0000000000000000" />
      <sparseX alpha="592.84606103785165" i="543" sparseCutoff="1.0000000000000000" />
      <sparseX alpha="1375.9969343350415" i="544" sparseCutoff="1.0000000000000000" />
      <sparseX alpha="26.847089906323038" i="545" sparseCutoff="1.0000000000000000" />
      <sparseX alpha="-163.70964237592554" i="546" sparseCutoff="1.0000000000000000" />
      <sparseX alpha="-243.60406212368397" i="547" sparseCutoff="1.0000000000000000" />
      <sparseX alpha="-965.34119380661423" i="548" sparseCutoff="1.0000000000000000" />
      <sparseX alpha="-1921.4675789029045" i="549" sparseCutoff="1.0000000000000000" />
      <sparseX alpha="759.92933734176631" i="550" sparseCutoff="1.0000000000000000" />
      <sparseX alpha="-850.75522342393253" i="551" sparseCutoff="1.0000000000000000" />
      <sparseX alpha="1312.4856348441704" i="552" sparseCutoff="1.0000000000000000" />
      <sparseX alpha="203.70355690205449" i="553" sparseCutoff="1.0000000000000000" />
      <sparseX alpha="1668.1019282136592" i="554" sparseCutoff="1.0000000000000000" />
      <sparseX alpha="417.73898946096489" i="555" sparseCutoff="1.0000000000000000" />
      <sparseX alpha="-2454.0158797549007" i="556" sparseCutoff="1.0000000000000000" />
      <sparseX alpha="191.94041657221496" i="557" sparseCutoff="1.0000000000000000" />
      <sparseX alpha="-2.1600701913815481" i="558" sparseCutoff="1.0000000000000000" />
      <sparseX alpha="-590.76112187371200" i="559" sparseCutoff="1.0000000000000000" />
      <sparseX alpha="1189.5909007725129" i="560" sparseCutoff="1.0000000000000000" />
      <sparseX alpha="-27.985980538840700" i="561" sparseCutoff="1.0000000000000000" />
      <sparseX alpha="844.59982927529018" i="562" sparseCutoff="1.0000000000000000" />
      <sparseX alpha="-451.71004482735526" i="563" sparseCutoff="1.0000000000000000" />
      <sparseX alpha="-214.31778231013999" i="564" sparseCutoff="1.0000000000000000" />
      <sparseX alpha="1511.1263689876678" i="565" sparseCutoff="1.0000000000000000" />
      <sparseX alpha="-56.430195057552822" i="566" sparseCutoff="1.0000000000000000" />
      <sparseX alpha="-295.69714509473806" i="567" sparseCutoff="1.0000000000000000" />
      <sparseX alpha="384.20058603890959" i="568" sparseCutoff="1.0000000000000000" />
      <sparseX alpha="1031.4442849305951" i="569" sparseCutoff="1.0000000000000000" />
      <sparseX alpha="-1367.6933916441499" i="570" sparseCutoff="1.0000000000000000" />
      <sparseX alpha="-642.15046483406513" i="571" sparseCutoff="1.0000000000000000" />
      <sparseX alpha="-647.57603403809765" i="572" sparseCutoff="1.0000000000000000" />
      <sparseX alpha="-16.202299534537289" i="573" sparseCutoff="1.0000000000000000" />
      <sparseX alpha="1523.9732971071976" i="574" sparseCutoff="1.0000000000000000" />
      <sparseX alpha="164.34554293810083" i="575" sparseCutoff="1.0000000000000000" />
      <sparseX alpha="1772.9473023277317" i="576" sparseCutoff="1.0000000000000000" />
      <sparseX alpha="995.51051065552952" i="577" sparseCutoff="1.0000000000000000" />
      <sparseX alpha="-356.62718109496552" i="578" sparseCutoff="1.0000000000000000" />
      <sparseX alpha="539.85372838805631" i="579" sparseCutoff="1.0000000000000000" />
      <sparseX alpha="-685.70211745822792" i="580" sparseCutoff="1.0000000000000000" />
      <sparseX alpha="1661.9580741535042" i="581" sparseCutoff="1.0000000000000000" />
      <sparseX alpha="1248.3033506651177" i="582" sparseCutoff="1.0000000000000000" />
      <sparseX alpha="-1641.5606830994418" i="583" sparseCutoff="1.0000000000000000" />
      <sparseX alpha="1137.6791446704935" i="584" sparseCutoff="1.0000000000000000" />
      <sparseX alpha="596.28923553784205" i="585" sparseCutoff="1.0000000000000000" />
      <sparseX alpha="164.33129839241815" i="586" sparseCutoff="1.0000000000000000" />
      <sparseX alpha="197.26719539617750" i="587" sparseCutoff="1.0000000000000000" />
      <sparseX alpha="-243.73774931969689" i="588" sparseCutoff="1.0000000000000000" />
      <sparseX alpha="-962.44033931895149" i="589" sparseCutoff="1.0000000000000000" />
      <sparseX alpha="-1819.3719831740636" i="590" sparseCutoff="1.0000000000000000" />
      <sparseX alpha="179.20808727102022" i="591" sparseCutoff="1.0000000000000000" />
      <sparseX alpha="174.89846876629522" i="592" sparseCutoff="1.0000000000000000" />
      <sparseX alpha="3644.3184046964516" i="593" sparseCutoff="1.0000000000000000" />
      <sparseX alpha="-116.42082476377736" i="594" sparseCutoff="1.0000000000000000" />
      <sparseX alpha="687.19951966102849" i="595" sparseCutoff="1.0000000000000000" />
      <sparseX alpha="-598.58823697457740" i="596" sparseCutoff="1.0000000000000000" />
      <sparseX alpha="3454.2689945240727" i="597" sparseCutoff="1.0000000000000000" />
      <sparseX alpha="1070.7901580175333" i="598" sparseCutoff="1.0000000000000000" />
      <sparseX alpha="2851.7521782248687" i="599" sparseCutoff="1.0000000000000000" />
      <sparseX alpha="335.25248321124292" i="600" sparseCutoff="1.0000000000000000" />
      <sparseX alpha="40.660033943712911" i="601" sparseCutoff="1.0000000000000000" />
      <sparseX alpha="1556.2294613997572" i="602" sparseCutoff="1.0000000000000000" />
      <sparseX alpha="1730.1457239485596" i="603" sparseCutoff="1.0000000000000000" />
      <sparseX alpha="3383.8518308129937" i="604" sparseCutoff="1.0000000000000000" />
      <sparseX alpha="-763.40925733546305" i="605" sparseCutoff="1.0000000000000000" />
      <sparseX alpha="-135.29159740527368" i="606" sparseCutoff="1.0000000000000000" />
      <sparseX alpha="270.38191575593817" i="607" sparseCutoff="1.0000000000000000" />
      <sparseX alpha="862.77206131940432" i="608" sparseCutoff="1.0000000000000000" />
      <sparseX alpha="1048.1563630632108" i="609" sparseCutoff="1.0000000000000000" />
      <sparseX alpha="1901.1464509773079" i="610" sparseCutoff="1.0000000000000000" />
      <sparseX alpha="2600.6028545075033" i="611" sparseCutoff="1.0000000000000000" />
      <sparseX alpha="-2403.4679317879586" i="612" sparseCutoff="1.0000000000000000" />
      <sparseX alpha="2431.5578168603511" i="613" sparseCutoff="1.0000000000000000" />
      <sparseX alpha="-64.175377644106632" i="614" sparseCutoff="1.0000000000000000" />
      <sparseX alpha="-536.99042618173974" i="615" sparseCutoff="1.0000000000000000" />
      <sparseX alpha="484.27179919535450" i="616" sparseCutoff="1.0000000000000000" />
      <sparseX alpha="-27.902117744807907" i="617" sparseCutoff="1.0000000000000000" />
      <sparseX alpha="827.76926781913915" i="618" sparseCutoff="1.0000000000000000" />
      <sparseX alpha="974.64242384626255" i="619" sparseCutoff="1.0000000000000000" />
      <sparseX alpha="-44.705014740404408" i="620" sparseCutoff="1.0000000000000000" />
      <sparseX alpha="190.34046582262016" i="621" sparseCutoff="1.0000000000000000" />
      <sparseX alpha="-549.88791506455004" i="622" sparseCutoff="1.0000000000000000" />
      <sparseX alpha="96.143236156319432" i="623" sparseCutoff="1.0000000000000000" />
      <sparseX alpha="-1033.5727905315487" i="624" sparseCutoff="1.0000000000000000" />
      <sparseX alpha="501.08506131001752" i="625" sparseCutoff="1.0000000000000000" />
      <sparseX alpha="912.99898400189045" i="626" sparseCutoff="1.0000000000000000" />
      <sparseX alpha="-1134.8071972370667" i="627" sparseCutoff="1.0000000000000000" />
      <sparseX alpha="306.78370299247354" i="628" sparseCutoff="1.0000000000000000" />
      <sparseX alpha="-291.98693246040267" i="629" sparseCutoff="1.0000000000000000" />
      <sparseX alpha="1499.2819052895002" i="630" sparseCutoff="1.0000000000000000" />
      <sparseX alpha="786.02772500278525" i="631" sparseCutoff="1.0000000000000000" />
      <sparseX alpha="902.00370197377811" i="632" sparseCutoff="1.0000000000000000" />
      <sparseX alpha="-1015.3261041273653" i="633" sparseCutoff="1.0000000000000000" />
      <sparseX alpha="-894.77387016852106" i="634" sparseCutoff="1.0000000000000000" />
      <sparseX alpha="472.88748645375904" i="635" sparseCutoff="1.0000000000000000" />
      <sparseX alpha="644.93062601796566" i="636" sparseCutoff="1.0000000000000000" />
      <sparseX alpha="-260.47167341176970" i="637" sparseCutoff="1.0000000000000000" />
      <sparseX alpha="-609.31648265424258" i="638" sparseCutoff="1.0000000000000000" />
      <sparseX alpha="-495.60012838339361" i="639" sparseCutoff="1.0000000000000000" />
      <sparseX alpha="-647.26324497614894" i="640" sparseCutoff="1.0000000000000000" />
      <sparseX alpha="-246.32759283517800" i="641" sparseCutoff="1.0000000000000000" />
      <sparseX alpha="1887.2234931386774" i="642" sparseCutoff="1.0000000000000000" />
      <sparseX alpha="1291.2909189117609" i="643" sparseCutoff="1.0000000000000000" />
      <sparseX alpha="-84.334556063310643" i="644" sparseCutoff="1.0000000000000000" />
      <sparseX alpha="110.50514112496732" i="645" sparseCutoff="1.0000000000000000" />
      <sparseX alpha="807.38948311031038" i="646" sparseCutoff="1.0000000000000000" />
      <sparseX alpha="-1274.5558548287522" i="647" sparseCutoff="1.0000000000000000" />
      <sparseX alpha="-100.69250592536160" i="648" sparseCutoff="1.0000000000000000" />
      <sparseX alpha="-116.74412425180488" i="649" sparseCutoff="1.0000000000000000" />
      <sparseX alpha="889.28897382822868" i="650" sparseCutoff="1.0000000000000000" />
      <sparseX alpha="-175.38398221354106" i="651" sparseCutoff="1.0000000000000000" />
      <sparseX alpha="835.76258319608587" i="652" sparseCutoff="1.0000000000000000" />
      <sparseX alpha="335.15677236684030" i="653" sparseCutoff="1.0000000000000000" />
      <sparseX alpha="1613.7928037823901" i="654" sparseCutoff="1.0000000000000000" />
      <sparseX alpha="979.75597253159560" i="655" sparseCutoff="1.0000000000000000" />
      <sparseX alpha="-974.35514737809581" i="656" sparseCutoff="1.0000000000000000" />
      <sparseX alpha="1057.1554811689430" i="657" sparseCutoff="1.0000000000000000" />
      <sparseX alpha="-983.93401784611899" i="658" sparseCutoff="1.0000000000000000" />
      <sparseX alpha="139.14591986550363" i="659" sparseCutoff="1.0000000000000000" />
      <sparseX alpha="23.632329746662773" i="660" sparseCutoff="1.0000000000000000" />
      <sparseX alpha="-303.41533220593152" i="661" sparseCutoff="1.0000000000000000" />
      <sparseX alpha="813.75966380776163" i="662" sparseCutoff="1.0000000000000000" />
      <sparseX alpha="-1554.0918966963352" i="663" sparseCutoff="1.0000000000000000" />
      <sparseX alpha="179.47826372698546" i="664" sparseCutoff="1.0000000000000000" />
      <sparseX alpha="1749.6776075639339" i="665" sparseCutoff="1.0000000000000000" />
      <sparseX alpha="-657.19132101636205" i="666" sparseCutoff="1.0000000000000000" />
      <sparseX alpha="-609.13183769508942" i="667" sparseCutoff="1.0000000000000000" />
      <sparseX alpha="552.38695028495681" i="668" sparseCutoff="1.0000000000000000" />
      <sparseX alpha="-2919.4702024919516" i="669" sparseCutoff="1.0000000000000000" />
      <sparseX alpha="-1008.6980563070987" i="670" sparseCutoff="1.0000000000000000" />
      <sparseX alpha="527.85043826213655" i="671" sparseCutoff="1.0000000000000000" />
      <sparseX alpha="-360.19950866153533" i="672" sparseCutoff="1.0000000000000000" />
      <sparseX alpha="818.09574581084632" i="673" sparseCutoff="1.0000000000000000" />
      <sparseX alpha="989.14558508116602" i="674" sparseCutoff="1.0000000000000000" />
      <sparseX alpha="636.09075795856108" i="675" sparseCutoff="1.0000000000000000" />
      <sparseX alpha="114.25306603826954" i="676" sparseCutoff="1.0000000000000000" />
      <sparseX alpha="-2000.1927690521079" i="677" sparseCutoff="1.0000000000000000" />
      <sparseX alpha="1294.7224345143616" i="678" sparseCutoff="1.0000000000000000" />
      <sparseX alpha="-2639.2493283754752" i="679" sparseCutoff="1.0000000000000000" />
      <sparseX alpha="1843.4254716791556" i="680" sparseCutoff="1.0000000000000000" />
      <sparseX alpha="2312.3596030101999" i="681" sparseCutoff="1.0000000000000000" />
      <sparseX alpha="763.91625415650253" i="682" sparseCutoff="1.0000000000000000" />
      <sparseX alpha="-360.35213446058469" i="683" sparseCutoff="1.0000000000000000" />
      <sparseX alpha="-834.08777017156581" i="684" sparseCutoff="1.0000000000000000" />
      <sparseX alpha="46.389655555853835" i="685" sparseCutoff="1.0000000000000000" />
      <sparseX alpha="-411.22273136129985" i="686" sparseCutoff="1.0000000000000000" />
      <sparseX alpha="214.21052829334988" i="687" sparseCutoff="1.0000000000000000" />
      <sparseX alpha="230.20778230916449" i="688" sparseCutoff="1.0000000000000000" />
      <sparseX alpha="-1033.8450928701025" i="689" sparseCutoff="1.0000000000000000" />
      <sparseX alpha="-1249.1814706153793" i="690" sparseCutoff="1.0000000000000000" />
      <sparseX alpha="-236.80917918004928" i="691" sparseCutoff="1.0000000000000000" />
      <sparseX alpha="-1770.5049254925480" i="692" sparseCutoff="1.0000000000000000" />
      <sparseX alpha="-1429.5807860338314" i="693" sparseCutoff="1.0000000000000000" />
      <sparseX alpha="378.34240512603776" i="694" sparseCutoff="1.0000000000000000" />
      <sparseX alpha="-599.97283032235305" i="695" sparseCutoff="1.0000000000000000" />
      <sparseX alpha="-677.80674656949179" i="696" sparseCutoff="1.0000000000000000" />
      <sparseX alpha="-1069.5941423651282" i="697" sparseCutoff="1.0000000000000000" />
      <sparseX alpha="-1177.6516070629045" i="698" sparseCutoff="1.0000000000000000" />
      <sparseX alpha="523.47358497774871" i="699" sparseCutoff="1.0000000000000000" />
      <sparseX alpha="-1741.0358452777602" i="700" sparseCutoff="1.0000000000000000" />
      <sparseX alpha="2396.2387654961658" i="701" sparseCutoff="1.0000000000000000" />
      <sparseX alpha="877.78313568087879" i="702" sparseCutoff="1.0000000000000000" />
      <sparseX alpha="-899.17433320279599" i="703" sparseCutoff="1.0000000000000000" />
      <sparseX alpha="722.14279106690083" i="704" sparseCutoff="1.0000000000000000" />
      <sparseX alpha="597.45870273282719" i="705" sparseCutoff="1.0000000000000000" />
      <sparseX alpha="94.315345616981446" i="706" sparseCutoff="1.0000000000000000" />
      <sparseX alpha="-256.89795213451418" i="707" sparseCutoff="1.0000000000000000" />
      <sparseX alpha="-309.25179902183862" i="708" sparseCutoff="1.0000000000000000" />
      <sparseX alpha="1510.2480860471330" i="709" sparseCutoff="1.0000000000000000" />
      <sparseX alpha="-1066.9908010417626" i="710" sparseCutoff="1.0000000000000000" />
      <sparseX alpha="248.16694455924653" i="711" sparseCutoff="1.0000000000000000" />
      <sparseX alpha="-1570.3373223077976" i="712" sparseCutoff="1.0000000000000000" />
      <sparseX alpha="-1728.0237366840490" i="713" sparseCutoff="1.0000000000000000" />
      <sparseX alpha="-933.89353146170436" i="714" sparseCutoff="1.0000000000000000" />
      <sparseX alpha="-2126.1563359450402" i="715" sparseCutoff="1.0000000000000000" />
      <sparseX alpha="493.94081985000611" i="716" sparseCutoff="1.0000000000000000" />
      <sparseX alpha="-543.42262936002714" i="717" sparseCutoff="1.0000000000000000" />
      <sparseX alpha="205.28987396999906" i="718" sparseCutoff="1.0000000000000000" />
      <sparseX alpha="131.65718665598075" i="719" sparseCutoff="1.0000000000000000" />
      <sparseX alpha="-244.73091160545437" i="720" sparseCutoff="1.0000000000000000" />
      <sparseX alpha="1102.8448073621114" i="721" sparseCutoff="1.0000000000000000" />
      <sparseX alpha="1193.3883854541152" i="722" sparseCutoff="1.0000000000000000" />
      <sparseX alpha="1876.5021663247769" i="723" sparseCutoff="1.0000000000000000" />
      <sparseX alpha="195.18695466603964" i="724" sparseCutoff="1.0000000000000000" />
      <sparseX alpha="228.13004064133756" i="725" sparseCutoff="1.0000000000000000" />
      <sparseX alpha="604.70088649993045" i="726" sparseCutoff="1.0000000000000000" />
      <sparseX alpha="-511.77468581926786" i="727" sparseCutoff="1.0000000000000000" />
      <sparseX alpha="687.35449495280818" i="728" sparseCutoff="1.0000000000000000" />
      <sparseX alpha="-144.72769619958640" i="729" sparseCutoff="1.0000000000000000" />
      <sparseX alpha="316.41496391173331" i="730" sparseCutoff="1.0000000000000000" />
      <sparseX alpha="765.61341492429335" i="731" sparseCutoff="1.0000000000000000" />
      <sparseX alpha="-177.72410278374778" i="732" sparseCutoff="1.0000000000000000" />
      <sparseX alpha="1188.7267683824032" i="733" sparseCutoff="1.0000000000000000" />
      <sparseX alpha="716.88433097926509" i="734" sparseCutoff="1.0000000000000000" />
      <sparseX alpha="-69.832189118990570" i="735" sparseCutoff="1.0000000000000000" />
      <sparseX alpha="684.10378349818802" i="736" sparseCutoff="1.0000000000000000" />
      <sparseX alpha="-231.09799367929915" i="737" sparseCutoff="1.0000000000000000" />
      <sparseX alpha="-1270.5255362106375" i="738" sparseCutoff="1.0000000000000000" />
      <sparseX alpha="-267.27019761185687" i="739" sparseCutoff="1.0000000000000000" />
      <sparseX alpha="325.05263615181894" i="740" sparseCutoff="1.0000000000000000" />
      <sparseX alpha="-887.12095565107131" i="741" sparseCutoff="1.0000000000000000" />
      <sparseX alpha="182.46112906333104" i="742" sparseCutoff="1.0000000000000000" />
      <sparseX alpha="527.80194137072556" i="743" sparseCutoff="1.0000000000000000" />
      <sparseX alpha="-246.73013337587426" i="744" sparseCutoff="1.0000000000000000" />
      <sparseX alpha="1619.1188736904382" i="745" sparseCutoff="1.0000000000000000" />
      <sparseX alpha="601.13380711414175" i="746" sparseCutoff="1.0000000000000000" />
      <sparseX alpha="-1970.6319427488536" i="747" sparseCutoff="1.0000000000000000" />
      <sparseX alpha="-1215.2944828335526" i="748" sparseCutoff="1.0000000000000000" />
      <sparseX alpha="523.95547961697196" i="749" sparseCutoff="1.0000000000000000" />
      <sparseX alpha="-1216.4609176337838" i="750" sparseCutoff="1.0000000000000000" />
      <sparseX alpha="3836.3836022004180" i="751" sparseCutoff="1.0000000000000000" />
      <sparseX alpha="1043.2444588501444" i="752" sparseCutoff="1.0000000000000000" />
      <sparseX alpha="-448.01535538887833" i="753" sparseCutoff="1.0000000000000000" />
      <sparseX alpha="630.21302318841026" i="754" sparseCutoff="1.0000000000000000" />
      <sparseX alpha="351.59615679568157" i="755" sparseCutoff="1.0000000000000000" />
      <sparseX alpha="-1288.1029624330529" i="756" sparseCutoff="1.0000000000000000" />
      <sparseX alpha="-3316.1482957052285" i="757" sparseCutoff="1.0000000000000000" />
      <sparseX alpha="1066.9638431370247" i="758" sparseCutoff="1.0000000000000000" />
      <sparseX alpha="26.749414361492423" i="759" sparseCutoff="1.0000000000000000" />
      <sparseX alpha="334.65456951785262" i="760" sparseCutoff="1.0000000000000000" />
      <sparseX alpha="-2728.7222001189512" i="761" sparseCutoff="1.0000000000000000" />
      <sparseX alpha="57.164342131573292" i="762" sparseCutoff="1.0000000000000000" />
      <sparseX alpha="-2061.3144358428754" i="763" sparseCutoff="1.0000000000000000" />
      <sparseX alpha="1909.5769524774862" i="764" sparseCutoff="1.0000000000000000" />
      <sparseX alpha="3240.1530171238928" i="765" sparseCutoff="1.0000000000000000" />
      <sparseX alpha="239.08193106923270" i="766" sparseCutoff="1.0000000000000000" />
      <sparseX alpha="-494.74585352387243" i="767" sparseCutoff="1.0000000000000000" />
      <sparseX alpha="327.58967109812772" i="768" sparseCutoff="1.0000000000000000" />
      <sparseX alpha="1906.8829875319861" i="769" sparseCutoff="1.0000000000000000" />
      <sparseX alpha="1717.3377708779160" i="770" sparseCutoff="1.0000000000000000" />
      <sparseX alpha="-354.84094568723344" i="771" sparseCutoff="1.0000000000000000" />
      <sparseX alpha="-1259.1599581652747" i="772" sparseCutoff="1.0000000000000000" />
      <sparseX alpha="8.7134561719174961" i="773" sparseCutoff="1.0000000000000000" />
      <sparseX alpha="-1852.9965808695015" i="774" sparseCutoff="1.0000000000000000" />
      <sparseX alpha="143.11265340886618" i="775" sparseCutoff="1.0000000000000000" />
      <sparseX alpha="2032.1377331713265" i="776" sparseCutoff="1.0000000000000000" />
      <sparseX alpha="805.70657170740708" i="777" sparseCutoff="1.0000000000000000" />
      <sparseX alpha="-748.66608822521732" i="778" sparseCutoff="1.0000000000000000" />
      <sparseX alpha="835.91187501982381" i="779" sparseCutoff="1.0000000000000000" />
      <sparseX alpha="386.28376429190649" i="780" sparseCutoff="1.0000000000000000" />
      <sparseX alpha="-346.18414753662819" i="781" sparseCutoff="1.0000000000000000" />
      <sparseX alpha="-826.33045881959913" i="782" sparseCutoff="1.0000000000000000" />
      <sparseX alpha="360.76577091034773" i="783" sparseCutoff="1.0000000000000000" />
      <sparseX alpha="-1259.4168451698738" i="784" sparseCutoff="1.0000000000000000" />
      <sparseX alpha="-793.22383398582713" i="785" sparseCutoff="1.0000000000000000" />
      <sparseX alpha="-405.30687865309955" i="786" sparseCutoff="1.0000000000000000" />
      <sparseX alpha="-69.818412287601234" i="787" sparseCutoff="1.0000000000000000" />
      <sparseX alpha="-33.829305959087272" i="788" sparseCutoff="1.0000000000000000" />
      <sparseX alpha="103.33645999793323" i="789" sparseCutoff="1.0000000000000000" />
      <sparseX alpha="1263.9044371434243" i="790" sparseCutoff="1.0000000000000000" />
      <sparseX alpha="-742.80002781667861" i="791" sparseCutoff="1.0000000000000000" />
      <sparseX alpha="315.27802463306637" i="792" sparseCutoff="1.0000000000000000" />
      <sparseX alpha="124.50752106744558" i="793" sparseCutoff="1.0000000000000000" />
      <sparseX alpha="-1034.3392187112736" i="794" sparseCutoff="1.0000000000000000" />
      <sparseX alpha="1293.4745625184230" i="795" sparseCutoff="1.0000000000000000" />
      <sparseX alpha="-1741.0339838488421" i="796" sparseCutoff="1.0000000000000000" />
      <sparseX alpha="-857.48550512699876" i="797" sparseCutoff="1.0000000000000000" />
      <sparseX alpha="-2434.9820554240018" i="798" sparseCutoff="1.0000000000000000" />
      <sparseX alpha="-1226.2263154562179" i="799" sparseCutoff="1.0000000000000000" />
      <sparseX alpha="720.49277345540224" i="800" sparseCutoff="1.0000000000000000" />
      <sparseX alpha="1055.9535398302721" i="801" sparseCutoff="1.0000000000000000" />
      <sparseX alpha="600.43199235399663" i="802" sparseCutoff="1.0000000000000000" />
      <sparseX alpha="1557.7342398990220" i="803" sparseCutoff="1.0000000000000000" />
      <sparseX alpha="-78.835058459691382" i="804" sparseCutoff="1.0000000000000000" />
      <sparseX alpha="288.14086343242411" i="805" sparseCutoff="1.0000000000000000" />
      <sparseX alpha="-1600.1339953236684" i="806" sparseCutoff="1.0000000000000000" />
      <sparseX alpha="4455.2076041941882" i="807" sparseCutoff="1.0000000000000000" />
      <sparseX alpha="112.96237627234687" i="808" sparseCutoff="1.0000000000000000" />
      <sparseX alpha="-102.33645401955093" i="809" sparseCutoff="1.0000000000000000" />
      <sparseX alpha="1532.5429623403209" i="810" sparseCutoff="1.0000000000000000" />
      <sparseX alpha="-653.83365551222676" i="811" sparseCutoff="1.0000000000000000" />
      <sparseX alpha="356.45985820268231" i="812" sparseCutoff="1.0000000000000000" />
      <sparseX alpha="642.59289499102601" i="813" sparseCutoff="1.0000000000000000" />
      <sparseX alpha="627.02529187770381" i="814" sparseCutoff="1.0000000000000000" />
      <sparseX alpha="-177.32746734624300" i="815" sparseCutoff="1.0000000000000000" />
      <sparseX alpha="1897.8758389159491" i="816" sparseCutoff="1.0000000000000000" />
      <sparseX alpha="273.23241455998550" i="817" sparseCutoff="1.0000000000000000" />
      <sparseX alpha="206.46537455768421" i="818" sparseCutoff="1.0000000000000000" />
      <sparseX alpha="-112.24353174938477" i="819" sparseCutoff="1.0000000000000000" />
      <sparseX alpha="-376.13613567651299" i="820" sparseCutoff="1.0000000000000000" />
      <sparseX alpha="-350.93588715616232" i="821" sparseCutoff="1.0000000000000000" />
      <sparseX alpha="48.549894766507691" i="822" sparseCutoff="1.0000000000000000" />
      <sparseX alpha="430.16774476572806" i="823" sparseCutoff="1.0000000000000000" />
      <sparseX alpha="1092.9201423580330" i="824" sparseCutoff="1.0000000000000000" />
      <sparseX alpha="-488.42420300021553" i="825" sparseCutoff="1.0000000000000000" />
      <sparseX alpha="1124.8690861373229" i="826" sparseCutoff="1.0000000000000000" />
      <sparseX alpha="-998.11998694078943" i="827" sparseCutoff="1.0000000000000000" />
      <sparseX alpha="-28.880861076557000" i="828" sparseCutoff="1.0000000000000000" />
      <sparseX alpha="-356.85760935164421" i="829" sparseCutoff="1.0000000000000000" />
      <sparseX alpha="3314.6619784037293" i="830" sparseCutoff="1.0000000000000000" />
      <sparseX alpha="1438.7247721762326" i="831" sparseCutoff="1.0000000000000000" />
      <sparseX alpha="567.24995990022501" i="832" sparseCutoff="1.0000000000000000" />
      <sparseX alpha="-288.52608739854276" i="833" sparseCutoff="1.0000000000000000" />
      <sparseX alpha="-1499.5476253594334" i="834" sparseCutoff="1.0000000000000000" />
      <sparseX alpha="-2998.1468394406902" i="835" sparseCutoff="1.0000000000000000" />
      <sparseX alpha="-1755.6993941496260" i="836" sparseCutoff="1.0000000000000000" />
      <sparseX alpha="-1082.2191327242301" i="837" sparseCutoff="1.0000000000000000" />
      <sparseX alpha="-256.03197686616500" i="838" sparseCutoff="1.0000000000000000" />
      <sparseX alpha="-1153.8761645738000" i="839" sparseCutoff="1.0000000000000000" />
      <sparseX alpha="74.721803638278431" i="840" sparseCutoff="1.0000000000000000" />
      <sparseX alpha="-371.09728935497247" i="841" sparseCutoff="1.0000000000000000" />
      <sparseX alpha="-642.37057144778862" i="842" sparseCutoff="1.0000000000000000" />
      <sparseX alpha="-39.557512110753699" i="843" sparseCutoff="1.0000000000000000" />
      <sparseX alpha="-110.70739971728925" i="844" sparseCutoff="1.0000000000000000" />
      <sparseX alpha="-281.44983506105172" i="845" sparseCutoff="1.0000000000000000" />
      <sparseX alpha="474.89216854464837" i="846" sparseCutoff="1.0000000000000000" />
      <sparseX alpha="362.51210103644848" i="847" sparseCutoff="1.0000000000000000" />
      <sparseX alpha="-363.12627006512429" i="848" sparseCutoff="1.0000000000000000" />
      <sparseX alpha="-1113.9272955970096" i="849" sparseCutoff="1.0000000000000000" />
      <sparseX alpha="1764.1861452852422" i="850" sparseCutoff="1.0000000000000000" />
      <sparseX alpha="277.92612467955865" i="851" sparseCutoff="1.0000000000000000" />
      <sparseX alpha="315.96093140142290" i="852" sparseCutoff="1.0000000000000000" />
      <sparseX alpha="1335.3680325162854" i="853" sparseCutoff="1.0000000000000000" />
      <sparseX alpha="-232.02893564877417" i="854" sparseCutoff="1.0000000000000000" />
      <sparseX alpha="71.582758280084207" i="855" sparseCutoff="1.0000000000000000" />
      <sparseX alpha="1095.0894769477777" i="856" sparseCutoff="1.0000000000000000" />
      <sparseX alpha="-196.43682920339535" i="857" sparseCutoff="1.0000000000000000" />
      <sparseX alpha="-1295.5752729341616" i="858" sparseCutoff="1.0000000000000000" />
      <sparseX alpha="178.06897773926246" i="859" sparseCutoff="1.0000000000000000" />
      <sparseX alpha="-200.74969073910745" i="860" sparseCutoff="1.0000000000000000" />
      <sparseX alpha="-2776.5545888078777" i="861" sparseCutoff="1.0000000000000000" />
      <sparseX alpha="436.16850457719721" i="862" sparseCutoff="1.0000000000000000" />
      <sparseX alpha="1618.4795609209143" i="863" sparseCutoff="1.0000000000000000" />
      <sparseX alpha="-2523.7051543409139" i="864" sparseCutoff="1.0000000000000000" />
      <sparseX alpha="2193.5273566714482" i="865" sparseCutoff="1.0000000000000000" />
      <sparseX alpha="-1591.6440823509038" i="866" sparseCutoff="1.0000000000000000" />
      <sparseX alpha="2038.3653673850495" i="867" sparseCutoff="1.0000000000000000" />
      <sparseX alpha="-783.66228486358125" i="868" sparseCutoff="1.0000000000000000" />
      <sparseX alpha="-443.22637462143774" i="869" sparseCutoff="1.0000000000000000" />
      <sparseX alpha="322.84790517192323" i="870" sparseCutoff="1.0000000000000000" />
      <sparseX alpha="500.35005560364840" i="871" sparseCutoff="1.0000000000000000" />
      <sparseX alpha="1636.2899206345460" i="872" sparseCutoff="1.0000000000000000" />
      <sparseX alpha="-9.3170903018298628" i="873" sparseCutoff="1.0000000000000000" />
      <sparseX alpha="320.48360831465988" i="874" sparseCutoff="1.0000000000000000" />
      <sparseX alpha="-1336.5762524849474" i="875" sparseCutoff="1.0000000000000000" />
      <sparseX alpha="895.62220147943458" i="876" sparseCutoff="1.0000000000000000" />
      <sparseX alpha="-3068.8558599182343" i="877" sparseCutoff="1.0000000000000000" />
      <sparseX alpha="-1717.0649193681927" i="878" sparseCutoff="1.0000000000000000" />
      <sparseX alpha="-1002.3038838280244" i="879" sparseCutoff="1.0000000000000000" />
      <sparseX alpha="1439.1936023111236" i="880" sparseCutoff="1.0000000000000000" />
      <sparseX alpha="-291.13944340154865" i="881" sparseCutoff="1.0000000000000000" />
      <sparseX alpha="-210.30263534488228" i="882" sparseCutoff="1.0000000000000000" />
      <sparseX alpha="278.07982618028689" i="883" sparseCutoff="1.0000000000000000" />
      <sparseX alpha="941.88559115658700" i="884" sparseCutoff="1.0000000000000000" />
      <sparseX alpha="754.75601643401035" i="885" sparseCutoff="1.0000000000000000" />
      <sparseX alpha="-59.587155976042368" i="886" sparseCutoff="1.0000000000000000" />
      <sparseX alpha="-4.0268676238774743" i="887" sparseCutoff="1.0000000000000000" />
      <sparseX alpha="-1019.1059489075528" i="888" sparseCutoff="1.0000000000000000" />
      <sparseX alpha="1022.9978864615230" i="889" sparseCutoff="1.0000000000000000" />
      <sparseX alpha="-2845.8908648960237" i="890" sparseCutoff="1.0000000000000000" />
      <sparseX alpha="-1097.2111861823996" i="891" sparseCutoff="1.0000000000000000" />
      <sparseX alpha="-1307.0494711569258" i="892" sparseCutoff="1.0000000000000000" />
      <sparseX alpha="-254.44047376164022" i="893" sparseCutoff="1.0000000000000000" />
      <sparseX alpha="-239.58794715180912" i="894" sparseCutoff="1.0000000000000000" />
      <sparseX alpha="2071.1640366484344" i="895" sparseCutoff="1.0000000000000000" />
      <sparseX alpha="-110.39841023232498" i="896" sparseCutoff="1.0000000000000000" />
      <sparseX alpha="248.40957302758935" i="897" sparseCutoff="1.0000000000000000" />
      <sparseX alpha="-734.47219317065071" i="898" sparseCutoff="1.0000000000000000" />
      <sparseX alpha="35.575703796759072" i="899" sparseCutoff="1.0000000000000000" />
      <sparseX alpha="633.50649141557938" i="900" sparseCutoff="1.0000000000000000" />
      <sparseX alpha="948.01251585741068" i="901" sparseCutoff="1.0000000000000000" />
      <sparseX alpha="1055.2340380772132" i="902" sparseCutoff="1.0000000000000000" />
      <sparseX alpha="-209.16287747167306" i="903" sparseCutoff="1.0000000000000000" />
      <sparseX alpha="-524.85446264930977" i="904" sparseCutoff="1.0000000000000000" />
      <sparseX alpha="-790.69517413550591" i="905" sparseCutoff="1.0000000000000000" />
      <sparseX alpha="-140.31176645429514" i="906" sparseCutoff="1.0000000000000000" />
      <sparseX alpha="-360.73744212280207" i="907" sparseCutoff="1.0000000000000000" />
      <sparseX alpha="967.54335640973488" i="908" sparseCutoff="1.0000000000000000" />
      <sparseX alpha="-1984.9377543898602" i="909" sparseCutoff="1.0000000000000000" />
      <sparseX alpha="1140.2843461354116" i="910" sparseCutoff="1.0000000000000000" />
      <sparseX alpha="-598.12536911912241" i="911" sparseCutoff="1.0000000000000000" />
      <sparseX alpha="-37.838052777486070" i="912" sparseCutoff="1.0000000000000000" />
      <sparseX alpha="586.67804674223294" i="913" sparseCutoff="1.0000000000000000" />
      <sparseX alpha="-2452.8095959249686" i="914" sparseCutoff="1.0000000000000000" />
      <sparseX alpha="-1337.2316265741840" i="915" sparseCutoff="1.0000000000000000" />
      <sparseX alpha="-1015.7818213815348" i="916" sparseCutoff="1.0000000000000000" />
      <sparseX alpha="-2342.4771661650857" i="917" sparseCutoff="1.0000000000000000" />
      <sparseX alpha="-3826.5870350916439" i="918" sparseCutoff="1.0000000000000000" />
      <sparseX alpha="-472.85479210078108" i="919" sparseCutoff="1.0000000000000000" />
      <sparseX alpha="641.81629392707680" i="920" sparseCutoff="1.0000000000000000" />
      <sparseX alpha="211.49941717682438" i="921" sparseCutoff="1.0000000000000000" />
      <sparseX alpha="-1214.8216184475948" i="922" sparseCutoff="1.0000000000000000" />
      <sparseX alpha="-823.73073612460337" i="923" sparseCutoff="1.0000000000000000" />
      <sparseX alpha="-801.04176696174113" i="924" sparseCutoff="1.0000000000000000" />
      <sparseX alpha="1280.2833278435908" i="925" sparseCutoff="1.0000000000000000" />
      <sparseX alpha="31.743839150494427" i="926" sparseCutoff="1.0000000000000000" />
      <sparseX alpha="-830.59103359125379" i="927" sparseCutoff="1.0000000000000000" />
      <sparseX alpha="77.392145219788148" i="928" sparseCutoff="1.0000000000000000" />
      <sparseX alpha="1436.5225441644302" i="929" sparseCutoff="1.0000000000000000" />
      <sparseX alpha="-284.38556186387825" i="930" sparseCutoff="1.0000000000000000" />
      <sparseX alpha="-1721.2571916056272" i="931" sparseCutoff="1.0000000000000000" />
      <sparseX alpha="-367.10012731001484" i="932" sparseCutoff="1.0000000000000000" />
      <sparseX alpha="-819.80928497179809" i="933" sparseCutoff="1.0000000000000000" />
      <sparseX alpha="508.82811476197770" i="934" sparseCutoff="1.0000000000000000" />
      <sparseX alpha="-2090.0320949038774" i="935" sparseCutoff="1.0000000000000000" />
      <sparseX alpha="437.95297196387270" i="936" sparseCutoff="1.0000000000000000" />
      <sparseX alpha="-991.65753762988345" i="937" sparseCutoff="1.0000000000000000" />
      <sparseX alpha="876.55387171069572" i="938" sparseCutoff="1.0000000000000000" />
      <sparseX alpha="-605.42875810556768" i="939" sparseCutoff="1.0000000000000000" />
      <sparseX alpha="255.18651084530771" i="940" sparseCutoff="1.0000000000000000" />
      <sparseX alpha="1664.6783888170096" i="941" sparseCutoff="1.0000000000000000" />
      <sparseX alpha="1212.5855979885905" i="942" sparseCutoff="1.0000000000000000" />
      <sparseX alpha="419.20711280176175" i="943" sparseCutoff="1.0000000000000000" />
      <sparseX alpha="316.47564550271420" i="944" sparseCutoff="1.0000000000000000" />
      <sparseX alpha="-1375.1044134151937" i="945" sparseCutoff="1.0000000000000000" />
      <sparseX alpha="621.44927839381910" i="946" sparseCutoff="1.0000000000000000" />
      <sparseX alpha="-330.68808288023462" i="947" sparseCutoff="1.0000000000000000" />
      <sparseX alpha="-2641.1299583542586" i="948" sparseCutoff="1.0000000000000000" />
      <sparseX alpha="-1355.9157988715940" i="949" sparseCutoff="1.0000000000000000" />
      <sparseX alpha="653.11654169271321" i="950" sparseCutoff="1.0000000000000000" />
      <sparseX alpha="731.59694607755853" i="951" sparseCutoff="1.0000000000000000" />
      <sparseX alpha="-1994.7851258699152" i="952" sparseCutoff="1.0000000000000000" />
      <sparseX alpha="-11.994565231440079" i="953" sparseCutoff="1.0000000000000000" />
      <sparseX alpha="598.54315924911020" i="954" sparseCutoff="1.0000000000000000" />
      <sparseX alpha="437.82472170231557" i="955" sparseCutoff="1.0000000000000000" />
      <sparseX alpha="757.01134950234746" i="956" sparseCutoff="1.0000000000000000" />
      <sparseX alpha="-1920.6908661467023" i="957" sparseCutoff="1.0000000000000000" />
      <sparseX alpha="976.61962993609541" i="958" sparseCutoff="1.0000000000000000" />
      <sparseX alpha="25.968167083014588" i="959" sparseCutoff="1.0000000000000000" />
      <sparseX alpha="-1534.7049187407811" i="960" sparseCutoff="1.0000000000000000" />
      <sparseX alpha="-3221.9439438883401" i="961" sparseCutoff="1.0000000000000000" />
      <sparseX alpha="210.64347927500344" i="962" sparseCutoff="1.0000000000000000" />
      <sparseX alpha="-516.80783744812095" i="963" sparseCutoff="1.0000000000000000" />
      <sparseX alpha="1510.3671768702238" i="964" sparseCutoff="1.0000000000000000" />
      <sparseX alpha="-2060.8164686100145" i="965" sparseCutoff="1.0000000000000000" />
      <sparseX alpha="205.00216691022518" i="966" sparseCutoff="1.0000000000000000" />
      <sparseX alpha="-189.07756554718048" i="967" sparseCutoff="1.0000000000000000" />
      <sparseX alpha="-190.38704027279823" i="968" sparseCutoff="1.0000000000000000" />
      <sparseX alpha="1605.8840453650073" i="969" sparseCutoff="1.0000000000000000" />
      <sparseX alpha="-1712.5208403983911" i="970" sparseCutoff="1.0000000000000000" />
      <sparseX alpha="-1250.1955205391037" i="971" sparseCutoff="1.0000000000000000" />
      <sparseX alpha="-86.988793129462678" i="972" sparseCutoff="1.0000000000000000" />
      <sparseX alpha="-3713.2297200439939" i="973" sparseCutoff="1.0000000000000000" />
      <sparseX alpha="911.49814358385208" i="974" sparseCutoff="1.0000000000000000" />
      <sparseX alpha="-700.93930287026240" i="975" sparseCutoff="1.0000000000000000" />
      <sparseX alpha="-20.016160822743540" i="976" sparseCutoff="1.0000000000000000" />
      <sparseX alpha="702.51030158625167" i="977" sparseCutoff="1.0000000000000000" />
      <sparseX alpha="-371.78485689773953" i="978" sparseCutoff="1.0000000000000000" />
      <sparseX alpha="133.03238127590876" i="979" sparseCutoff="1.0000000000000000" />
      <sparseX alpha="2116.0537177799797" i="980" sparseCutoff="1.0000000000000000" />
      <sparseX alpha="-405.49657337474861" i="981" sparseCutoff="1.0000000000000000" />
      <sparseX alpha="-359.20735149652364" i="982" sparseCutoff="1.0000000000000000" />
      <sparseX alpha="-1263.5675504657077" i="983" sparseCutoff="1.0000000000000000" />
      <sparseX alpha="1874.8172853828551" i="984" sparseCutoff="1.0000000000000000" />
      <sparseX alpha="2803.4327122477789" i="985" sparseCutoff="1.0000000000000000" />
      <sparseX alpha="-1249.8883944391946" i="986" sparseCutoff="1.0000000000000000" />
      <sparseX alpha="521.89877168302633" i="987" sparseCutoff="1.0000000000000000" />
      <sparseX alpha="1589.7906386300269" i="988" sparseCutoff="1.0000000000000000" />
      <sparseX alpha="-70.856793275071809" i="989" sparseCutoff="1.0000000000000000" />
      <sparseX alpha="-202.62203953357175" i="990" sparseCutoff="1.0000000000000000" />
      <sparseX alpha="-1595.7542884801521" i="991" sparseCutoff="1.0000000000000000" />
      <sparseX alpha="442.22930597072235" i="992" sparseCutoff="1.0000000000000000" />
      <sparseX alpha="-225.56581472699810" i="993" sparseCutoff="1.0000000000000000" />
      <sparseX alpha="3.3721020196768974" i="994" sparseCutoff="1.0000000000000000" />
      <sparseX alpha="486.59184259297501" i="995" sparseCutoff="1.0000000000000000" />
      <sparseX alpha="-390.01825794285122" i="996" sparseCutoff="1.0000000000000000" />
      <sparseX alpha="250.02527834419445" i="997" sparseCutoff="1.0000000000000000" />
      <sparseX alpha="620.09699209940925" i="998" sparseCutoff="1.0000000000000000" />
      <sparseX alpha="1106.4225968599756" i="999" sparseCutoff="1.0000000000000000" />
      <sparseX alpha="57.527575948737784" i="1000" sparseCutoff="1.0000000000000000" />
      <sparseX alpha="-890.68545897785179" i="1001" sparseCutoff="1.0000000000000000" />
      <sparseX alpha="-781.46890009635320" i="1002" sparseCutoff="1.0000000000000000" />
      <sparseX alpha="-697.62897808567095" i="1003" sparseCutoff="1.0000000000000000" />
      <sparseX alpha="3430.4370478601450" i="1004" sparseCutoff="1.0000000000000000" />
      <sparseX alpha="2905.4619058072176" i="1005" sparseCutoff="1.0000000000000000" />
      <sparseX alpha="539.60864894938004" i="1006" sparseCutoff="1.0000000000000000" />
      <sparseX alpha="469.72620226751150" i="1007" sparseCutoff="1.0000000000000000" />
      <sparseX alpha="-485.97172774444249" i="1008" sparseCutoff="1.0000000000000000" />
      <sparseX alpha="-204.12435192462394" i="1009" sparseCutoff="1.0000000000000000" />
      <sparseX alpha="2619.6139216072306" i="1010" sparseCutoff="1.0000000000000000" />
      <sparseX alpha="770.13848758709503" i="1011" sparseCutoff="1.0000000000000000" />
      <sparseX alpha="-284.81146562567886" i="1012" sparseCutoff="1.0000000000000000" />
      <sparseX alpha="879.84623596061886" i="1013" sparseCutoff="1.0000000000000000" />
      <sparseX alpha="-567.44632272011449" i="1014" sparseCutoff="1.0000000000000000" />
      <sparseX alpha="74.447815029865438" i="1015" sparseCutoff="1.0000000000000000" />
      <sparseX alpha="-77.527846123218936" i="1016" sparseCutoff="1.0000000000000000" />
      <sparseX alpha="1026.7335454394242" i="1017" sparseCutoff="1.0000000000000000" />
      <sparseX alpha="-178.33876414377062" i="1018" sparseCutoff="1.0000000000000000" />
      <sparseX alpha="246.40538010231134" i="1019" sparseCutoff="1.0000000000000000" />
      <sparseX alpha="215.82324070237667" i="1020" sparseCutoff="1.0000000000000000" />
      <sparseX alpha="-157.05341060553758" i="1021" sparseCutoff="1.0000000000000000" />
      <sparseX alpha="-141.07751164987872" i="1022" sparseCutoff="1.0000000000000000" />
      <sparseX alpha="-13.946745010399058" i="1023" sparseCutoff="1.0000000000000000" />
      <sparseX alpha="134.36023615971570" i="1024" sparseCutoff="1.0000000000000000" />
      <sparseX alpha="3952.0436956674293" i="1025" sparseCutoff="1.0000000000000000" />
      <sparseX alpha="-493.41701154150400" i="1026" sparseCutoff="1.0000000000000000" />
      <sparseX alpha="-1040.8599570463291" i="1027" sparseCutoff="1.0000000000000000" />
      <sparseX alpha="2034.1150274140125" i="1028" sparseCutoff="1.0000000000000000" />
      <sparseX alpha="4.0639657740338802" i="1029" sparseCutoff="1.0000000000000000" />
      <sparseX alpha="620.16175451890570" i="1030" sparseCutoff="1.0000000000000000" />
      <sparseX alpha="-689.37534490880807" i="1031" sparseCutoff="1.0000000000000000" />
      <sparseX alpha="540.42542478273936" i="1032" sparseCutoff="1.0000000000000000" />
      <sparseX alpha="-543.10198459602702" i="1033" sparseCutoff="1.0000000000000000" />
      <sparseX alpha="1123.8353299384617" i="1034" sparseCutoff="1.0000000000000000" />
      <sparseX alpha="-459.06303715036677" i="1035" sparseCutoff="1.0000000000000000" />
      <sparseX alpha="45.614197823331651" i="1036" sparseCutoff="1.0000000000000000" />
      <sparseX alpha="551.76782052019769" i="1037" sparseCutoff="1.0000000000000000" />
      <sparseX alpha="-544.49129898341926" i="1038" sparseCutoff="1.0000000000000000" />
      <sparseX alpha="-1617.9049580752942" i="1039" sparseCutoff="1.0000000000000000" />
      <sparseX alpha="-394.03595632441244" i="1040" sparseCutoff="1.0000000000000000" />
      <sparseX alpha="2420.5572875213347" i="1041" sparseCutoff="1.0000000000000000" />
      <sparseX alpha="457.82114611546422" i="1042" sparseCutoff="1.0000000000000000" />
      <sparseX alpha="-1228.2629092116877" i="1043" sparseCutoff="1.0000000000000000" />
      <sparseX alpha="1762.1996547200613" i="1044" sparseCutoff="1.0000000000000000" />
      <sparseX alpha="1011.2937728843428" i="1045" sparseCutoff="1.0000000000000000" />
      <sparseX alpha="203.49467070563026" i="1046" sparseCutoff="1.0000000000000000" />
      <sparseX alpha="2697.1152135398470" i="1047" sparseCutoff="1.0000000000000000" />
      <sparseX alpha="1693.6622011093805" i="1048" sparseCutoff="1.0000000000000000" />
      <sparseX alpha="-267.09278963489226" i="1049" sparseCutoff="1.0000000000000000" />
      <sparseX alpha="325.73813489118163" i="1050" sparseCutoff="1.0000000000000000" />
      <sparseX alpha="1486.9920213281177" i="1051" sparseCutoff="1.0000000000000000" />
      <sparseX alpha="-691.59902086536692" i="1052" sparseCutoff="1.0000000000000000" />
      <sparseX alpha="-325.63787647826348" i="1053" sparseCutoff="1.0000000000000000" />
      <sparseX alpha="203.32898060968103" i="1054" sparseCutoff="1.0000000000000000" />
      <sparseX alpha="-1268.6978322956211" i="1055" sparseCutoff="1.0000000000000000" />
      <sparseX alpha="2970.6563099817890" i="1056" sparseCutoff="1.0000000000000000" />
      <sparseX alpha="-489.43592718798578" i="1057" sparseCutoff="1.0000000000000000" />
      <sparseX alpha="-211.02658798963526" i="1058" sparseCutoff="1.0000000000000000" />
      <sparseX alpha="2942.6117135569975" i="1059" sparseCutoff="1.0000000000000000" />
      <sparseX alpha="-525.46161031203962" i="1060" sparseCutoff="1.0000000000000000" />
      <sparseX alpha="53.869143530740715" i="1061" sparseCutoff="1.0000000000000000" />
      <sparseX alpha="-697.97920635733590" i="1062" sparseCutoff="1.0000000000000000" />
      <sparseX alpha="-383.81071818264292" i="1063" sparseCutoff="1.0000000000000000" />
      <sparseX alpha="-15.681704700185925" i="1064" sparseCutoff="1.0000000000000000" />
      <sparseX alpha="126.27919464753123" i="1065" sparseCutoff="1.0000000000000000" />
      <sparseX alpha="799.61295517128508" i="1066" sparseCutoff="1.0000000000000000" />
      <sparseX alpha="-2309.9147595278937" i="1067" sparseCutoff="1.0000000000000000" />
      <sparseX alpha="-877.00952356208711" i="1068" sparseCutoff="1.0000000000000000" />
      <sparseX alpha="-1331.2052500048849" i="1069" sparseCutoff="1.0000000000000000" />
      <sparseX alpha="-31.097560713174474" i="1070" sparseCutoff="1.0000000000000000" />
      <sparseX alpha="1128.1291466419291" i="1071" sparseCutoff="1.0000000000000000" />
      <sparseX alpha="1109.8204964684460" i="1072" sparseCutoff="1.0000000000000000" />
