# LAMMPS SNAP coefficients for Ni_Mo
# generated by pymacy.potential.snap.SNAPotential
2 31
Ni 0.575 0.5
-5.74137597148
0.00261516042413
-0.009699168626
0.0818951233671
-0.0569299158728
0.300080068305
0.0752233805991
0.147857919016
0.0221085009743
0.131302557568
0.14467283511
0.0531194735283
-0.0708752194168
-0.0386225752369
0.0230915952873
0.0643797269545
-0.00309279910187
0.055335750844
-0.101194753284
-0.0788356620704
-0.01485153828
0.0144374653104
-0.00207986530203
0.0333887815654
-0.0639521013963
-0.0306755928606
0.000464150398115
0.00714699762365
0.0199617506567
-0.0108048397609
0.00604686131228
Mo 0.575 1.0
-11.1413071988
0.00192312103792
0.021374495125
0.050856734008
0.0122594678199
0.337635694818
0.0659367410297
0.175561579396
0.00127883428484
0.0676248614536
0.0299955866199
0.00903307768795
-0.00936459285804
0.00300577725833
0.0233490189313
0.00309233746324
0.0323573241607
0.0632850422634
-0.0621491501344
-0.0210252233996
-0.0357231556094
0.0147004224035
0.00378753597796
0.0235912050139
-0.022833337709
-0.0269919600435
0.00847966833367
0.00318728648989
0.0380433712112
-0.000450141523948
-0.00371851801313
