# LAMMPS SNAP coefficients for Cu
# generated by pymacy.potential.snap.SNAPotential

1 31
Cu 0.5 1.0
-6.12504445402
0.0170339591761
0.018791727619
0.213133266867
0.0607119024338
0.163794802565
-0.0479404407441
0.0149630865808
0.0244640634017
0.103081548545
-0.0729564871532
0.057008096796
-0.000515616922693
-0.0109511390916
0.0144624411802
0.114025473695
-0.00751444068581
-0.00426417155673
0.047086996016
0.0126808290667
-0.0011322857993
-0.0116089436873
0.120609416506
0.0299664295467
0.0202376248034
0.0202344867868
0.0137888798179
-0.00022212683053
0.0246304219645
-0.00366294171114
0.00813829979942
