MTP
version = 1.1.0
potential_name = MTP1m
scaling = 1.480467843156920e-01
species_count = 2
potential_tag =
radial_basis_type = RBChebyshev
	min_dist = 1.680520000000000e+00
	max_dist = 4.800000000000000e+00
	radial_basis_size = 8
	radial_funcs_count = 6
	radial_coeffs
		0-0
			{2.090087647896041e-01, -5.023495045739228e-02, 2.193562426414184e-01, 2.967753003297921e-01, 9.220247498000958e-02, -1.035462395258804e-02, -8.861146879089340e-03, -1.405092807307344e-02}
			{-3.117683324946668e-01, -1.443064924731515e-01, -2.803987510966655e-01, -1.982490617907436e-02, 1.049649482618219e-01, 2.444018469722746e-02, 2.881508168577102e-02, 1.159450668616805e-03}
			{2.519101030317525e-02, 2.921148648387092e-01, 4.691747421237791e-01, 3.580680444805665e-01, 1.902981133699606e-01, 7.908631554905575e-02, 3.907934747122839e-02, 1.189273841559686e-02}
			{-2.220997338749602e-01, -6.559906777186016e-01, 1.129156870841465e-02, 1.544248793207230e-01, 1.177369825001622e-01, 6.380302655127747e-02, -1.025229097593972e-03, 4.271676539312320e-02}
			{-1.138695266322821e-01, 8.885231239225728e-03, -3.090732529537468e-01, 7.902358875470390e-02, -6.289093987093887e-02, 1.120758116898648e-01, -8.839008343490116e-02, -6.044108753787567e-02}
			{-3.798958225723377e-02, -2.041377238507401e-01, 3.285957786865707e-01, -1.956748151105197e-01, 1.461541560874993e-01, -8.199473935106844e-02, 1.232405888200115e-01, 2.627987382874745e-02}
		0-1
			{-2.561648182977055e-02, -3.583654542629033e-01, -1.092084841200238e-01, -6.502997881187660e-02, -9.371148621933063e-02, -4.391080992602360e-03, -3.492954060598615e-04, 1.047910170995658e-02}
			{-1.086451968420594e-01, 3.302361046167007e-01, -1.004903520659562e-01, 1.501710523062482e-01, -8.096537615064381e-02, 3.381013180851321e-03, -4.560112844820461e-02, -7.534390254549987e-03}
			{-5.841002389171248e-02, 5.623295008534092e-01, 3.084042811497243e-01, 2.028873572991793e-01, -2.834141330526420e-02, 8.818609044982965e-02, 1.781199673719242e-02, 5.633455947297165e-02}
			{-3.436818172570965e-01, 3.111105403511838e-02, -1.034033014585226e-01, 1.857185975014994e-01, -1.261246161694612e-01, 3.068012475307251e-02, -2.456337696949301e-02, 1.654249765084555e-02}
			{2.795765780622187e-01, 1.298548625178763e-01, 3.649031445750026e-01, -2.861535517640739e-02, 3.116424341472355e-01, -1.519712815314677e-01, -1.036062304654780e-01, -1.834316087671739e-01}
			{1.984461000904592e-01, -2.053187607096013e-01, 3.722847771507872e-01, 3.283314938808905e-02, 1.671658833322883e-01, 2.377550549463586e-01, 4.329880106027598e-02, 8.916529447654831e-02}
		1-0
			{1.258199347500739e-01, 7.140527766559361e-01, 2.113760682144832e-01, 2.742009351252663e-03, -8.783364525258788e-02, 4.569530337588044e-02, 1.384866336307392e-03, 1.807239023105323e-02}
			{2.674663722607962e-01, 1.464646970268733e-01, 5.923426427167920e-01, 3.421378970352907e-01, 1.656933411608461e-01, 8.078910928932670e-02, 6.462052970980355e-02, 2.724550354219512e-02}
			{-1.007313498248869e-01, 4.694178009922320e-02, 4.651326882837997e-02, -6.012505444396741e-02, -5.225136611258913e-02, 3.864327113531898e-03, 6.252695889023155e-03, 2.624197487381635e-03}
			{-1.525815384096821e-01, -1.081344246543853e-01, -6.090765007753882e-02, -3.599971288027543e-01, -1.293246741062609e-01, -8.513496110592265e-02, -2.244020598257067e-02, -2.621882128952139e-02}
			{1.233459543614682e-01, 2.677388769619071e-01, -5.623482177139179e-03, -3.634890630923602e-01, -1.161779745434270e-01, -2.347237436952848e-01, -6.828743464091146e-02, -4.594735982217214e-02}
			{8.175028464881536e-02, -2.448784280607566e-01, 1.999539903727912e-01, 1.286105011340756e-01, -1.079124918078205e-01, 1.121455178613892e-01, 6.472192436495287e-02, 9.322128051478197e-02}
		1-1
			{1.280137843223275e-01, -1.736136344346493e-01, -1.386282093454781e-01, -8.722720793623640e-02, -5.761327158900520e-03, -2.333460351875382e-02, -2.077680380688882e-03, -1.038273759372277e-02}
			{4.153233302093123e-03, 6.905254366394577e-02, 1.476687834066096e-01, -1.903004406601379e-02, -7.882965089303317e-03, 2.896333186460263e-02, 1.904558571221376e-02, 1.629694647121424e-02}
			{-1.132366042152726e-01, 6.814734332669620e-02, -7.351833442781558e-02, -9.028600300733897e-02, -1.093607481236859e-02, -3.114270237556413e-02, -1.804547294093900e-02, -1.510918037050787e-02}
			{-1.043153261865624e-01, -1.967358584258585e-01, -7.776936059885318e-02, -2.089812595641621e-01, 3.696584425082113e-02, -1.675467323679874e-02, 4.088648636027607e-03, -1.424263221258495e-02}
			{1.286501491391573e-03, -1.586928532497974e-01, 2.702247871660896e-01, -8.573912373434260e-02, 1.998017967818893e-01, 1.381181573790309e-01, 6.292456417504731e-02, 2.587805871265442e-02}
			{3.120197555716118e-01, -2.738875355566900e-01, 2.738322662607285e-01, -1.573805479832280e-01, 9.582702179363885e-03, -1.284943190164266e-01, -4.294881458798450e-02, -1.753881080134115e-02}
alpha_moments_count = 2621
alpha_index_basic_count = 421
alpha_index_basic = {{0, 0, 0, 0}, {0, 1, 0, 0}, {0, 0, 1, 0}, {0, 0, 0, 1}, {0, 2, 0, 0}, {0, 1, 1, 0}, {0, 1, 0, 1}, {0, 0, 2, 0}, {0, 0, 1, 1}, {0, 0, 0, 2}, {0, 3, 0, 0}, {0, 2, 1, 0}, {0, 2, 0, 1}, {0, 1, 2, 0}, {0, 1, 1, 1}, {0, 1, 0, 2}, {0, 0, 3, 0}, {0, 0, 2, 1}, {0, 0, 1, 2}, {0, 0, 0, 3}, {0, 4, 0, 0}, {0, 3, 1, 0}, {0, 3, 0, 1}, {0, 2, 2, 0}, {0, 2, 1, 1}, {0, 2, 0, 2}, {0, 1, 3, 0}, {0, 1, 2, 1}, {0, 1, 1, 2}, {0, 1, 0, 3}, {0, 0, 4, 0}, {0, 0, 3, 1}, {0, 0, 2, 2}, {0, 0, 1, 3}, {0, 0, 0, 4}, {0, 5, 0, 0}, {0, 4, 1, 0}, {0, 4, 0, 1}, {0, 3, 2, 0}, {0, 3, 1, 1}, {0, 3, 0, 2}, {0, 2, 3, 0}, {0, 2, 2, 1}, {0, 2, 1, 2}, {0, 2, 0, 3}, {0, 1, 4, 0}, {0, 1, 3, 1}, {0, 1, 2, 2}, {0, 1, 1, 3}, {0, 1, 0, 4}, {0, 0, 5, 0}, {0, 0, 4, 1}, {0, 0, 3, 2}, {0, 0, 2, 3}, {0, 0, 1, 4}, {0, 0, 0, 5}, {0, 6, 0, 0}, {0, 5, 1, 0}, {0, 5, 0, 1}, {0, 4, 2, 0}, {0, 4, 1, 1}, {0, 4, 0, 2}, {0, 3, 3, 0}, {0, 3, 2, 1}, {0, 3, 1, 2}, {0, 3, 0, 3}, {0, 2, 4, 0}, {0, 2, 3, 1}, {0, 2, 2, 2}, {0, 2, 1, 3}, {0, 2, 0, 4}, {0, 1, 5, 0}, {0, 1, 4, 1}, {0, 1, 3, 2}, {0, 1, 2, 3}, {0, 1, 1, 4}, {0, 1, 0, 5}, {0, 0, 6, 0}, {0, 0, 5, 1}, {0, 0, 4, 2}, {0, 0, 3, 3}, {0, 0, 2, 4}, {0, 0, 1, 5}, {0, 0, 0, 6}, {0, 7, 0, 0}, {0, 6, 1, 0}, {0, 6, 0, 1}, {0, 5, 2, 0}, {0, 5, 1, 1}, {0, 5, 0, 2}, {0, 4, 3, 0}, {0, 4, 2, 1}, {0, 4, 1, 2}, {0, 4, 0, 3}, {0, 3, 4, 0}, {0, 3, 3, 1}, {0, 3, 2, 2}, {0, 3, 1, 3}, {0, 3, 0, 4}, {0, 2, 5, 0}, {0, 2, 4, 1}, {0, 2, 3, 2}, {0, 2, 2, 3}, {0, 2, 1, 4}, {0, 2, 0, 5}, {0, 1, 6, 0}, {0, 1, 5, 1}, {0, 1, 4, 2}, {0, 1, 3, 3}, {0, 1, 2, 4}, {0, 1, 1, 5}, {0, 1, 0, 6}, {0, 0, 7, 0}, {0, 0, 6, 1}, {0, 0, 5, 2}, {0, 0, 4, 3}, {0, 0, 3, 4}, {0, 0, 2, 5}, {0, 0, 1, 6}, {0, 0, 0, 7}, {0, 8, 0, 0}, {0, 7, 1, 0}, {0, 7, 0, 1}, {0, 6, 2, 0}, {0, 6, 1, 1}, {0, 6, 0, 2}, {0, 5, 3, 0}, {0, 5, 2, 1}, {0, 5, 1, 2}, {0, 5, 0, 3}, {0, 4, 4, 0}, {0, 4, 3, 1}, {0, 4, 2, 2}, {0, 4, 1, 3}, {0, 4, 0, 4}, {0, 3, 5, 0}, {0, 3, 4, 1}, {0, 3, 3, 2}, {0, 3, 2, 3}, {0, 3, 1, 4}, {0, 3, 0, 5}, {0, 2, 6, 0}, {0, 2, 5, 1}, {0, 2, 4, 2}, {0, 2, 3, 3}, {0, 2, 2, 4}, {0, 2, 1, 5}, {0, 2, 0, 6}, {0, 1, 7, 0}, {0, 1, 6, 1}, {0, 1, 5, 2}, {0, 1, 4, 3}, {0, 1, 3, 4}, {0, 1, 2, 5}, {0, 1, 1, 6}, {0, 1, 0, 7}, {0, 0, 8, 0}, {0, 0, 7, 1}, {0, 0, 6, 2}, {0, 0, 5, 3}, {0, 0, 4, 4}, {0, 0, 3, 5}, {0, 0, 2, 6}, {0, 0, 1, 7}, {0, 0, 0, 8}, {0, 9, 0, 0}, {0, 8, 1, 0}, {0, 8, 0, 1}, {0, 7, 2, 0}, {0, 7, 1, 1}, {0, 7, 0, 2}, {0, 6, 3, 0}, {0, 6, 2, 1}, {0, 6, 1, 2}, {0, 6, 0, 3}, {0, 5, 4, 0}, {0, 5, 3, 1}, {0, 5, 2, 2}, {0, 5, 1, 3}, {0, 5, 0, 4}, {0, 4, 5, 0}, {0, 4, 4, 1}, {0, 4, 3, 2}, {0, 4, 2, 3}, {0, 4, 1, 4}, {0, 4, 0, 5}, {0, 3, 6, 0}, {0, 3, 5, 1}, {0, 3, 4, 2}, {0, 3, 3, 3}, {0, 3, 2, 4}, {0, 3, 1, 5}, {0, 3, 0, 6}, {0, 2, 7, 0}, {0, 2, 6, 1}, {0, 2, 5, 2}, {0, 2, 4, 3}, {0, 2, 3, 4}, {0, 2, 2, 5}, {0, 2, 1, 6}, {0, 2, 0, 7}, {0, 1, 8, 0}, {0, 1, 7, 1}, {0, 1, 6, 2}, {0, 1, 5, 3}, {0, 1, 4, 4}, {0, 1, 3, 5}, {0, 1, 2, 6}, {0, 1, 1, 7}, {0, 1, 0, 8}, {0, 0, 9, 0}, {0, 0, 8, 1}, {0, 0, 7, 2}, {0, 0, 6, 3}, {0, 0, 5, 4}, {0, 0, 4, 5}, {0, 0, 3, 6}, {0, 0, 2, 7}, {0, 0, 1, 8}, {0, 0, 0, 9}, {1, 0, 0, 0}, {1, 1, 0, 0}, {1, 0, 1, 0}, {1, 0, 0, 1}, {1, 2, 0, 0}, {1, 1, 1, 0}, {1, 1, 0, 1}, {1, 0, 2, 0}, {1, 0, 1, 1}, {1, 0, 0, 2}, {1, 3, 0, 0}, {1, 2, 1, 0}, {1, 2, 0, 1}, {1, 1, 2, 0}, {1, 1, 1, 1}, {1, 1, 0, 2}, {1, 0, 3, 0}, {1, 0, 2, 1}, {1, 0, 1, 2}, {1, 0, 0, 3}, {1, 4, 0, 0}, {1, 3, 1, 0}, {1, 3, 0, 1}, {1, 2, 2, 0}, {1, 2, 1, 1}, {1, 2, 0, 2}, {1, 1, 3, 0}, {1, 1, 2, 1}, {1, 1, 1, 2}, {1, 1, 0, 3}, {1, 0, 4, 0}, {1, 0, 3, 1}, {1, 0, 2, 2}, {1, 0, 1, 3}, {1, 0, 0, 4}, {1, 5, 0, 0}, {1, 4, 1, 0}, {1, 4, 0, 1}, {1, 3, 2, 0}, {1, 3, 1, 1}, {1, 3, 0, 2}, {1, 2, 3, 0}, {1, 2, 2, 1}, {1, 2, 1, 2}, {1, 2, 0, 3}, {1, 1, 4, 0}, {1, 1, 3, 1}, {1, 1, 2, 2}, {1, 1, 1, 3}, {1, 1, 0, 4}, {1, 0, 5, 0}, {1, 0, 4, 1}, {1, 0, 3, 2}, {1, 0, 2, 3}, {1, 0, 1, 4}, {1, 0, 0, 5}, {1, 6, 0, 0}, {1, 5, 1, 0}, {1, 5, 0, 1}, {1, 4, 2, 0}, {1, 4, 1, 1}, {1, 4, 0, 2}, {1, 3, 3, 0}, {1, 3, 2, 1}, {1, 3, 1, 2}, {1, 3, 0, 3}, {1, 2, 4, 0}, {1, 2, 3, 1}, {1, 2, 2, 2}, {1, 2, 1, 3}, {1, 2, 0, 4}, {1, 1, 5, 0}, {1, 1, 4, 1}, {1, 1, 3, 2}, {1, 1, 2, 3}, {1, 1, 1, 4}, {1, 1, 0, 5}, {1, 0, 6, 0}, {1, 0, 5, 1}, {1, 0, 4, 2}, {1, 0, 3, 3}, {1, 0, 2, 4}, {1, 0, 1, 5}, {1, 0, 0, 6}, {1, 7, 0, 0}, {1, 6, 1, 0}, {1, 6, 0, 1}, {1, 5, 2, 0}, {1, 5, 1, 1}, {1, 5, 0, 2}, {1, 4, 3, 0}, {1, 4, 2, 1}, {1, 4, 1, 2}, {1, 4, 0, 3}, {1, 3, 4, 0}, {1, 3, 3, 1}, {1, 3, 2, 2}, {1, 3, 1, 3}, {1, 3, 0, 4}, {1, 2, 5, 0}, {1, 2, 4, 1}, {1, 2, 3, 2}, {1, 2, 2, 3}, {1, 2, 1, 4}, {1, 2, 0, 5}, {1, 1, 6, 0}, {1, 1, 5, 1}, {1, 1, 4, 2}, {1, 1, 3, 3}, {1, 1, 2, 4}, {1, 1, 1, 5}, {1, 1, 0, 6}, {1, 0, 7, 0}, {1, 0, 6, 1}, {1, 0, 5, 2}, {1, 0, 4, 3}, {1, 0, 3, 4}, {1, 0, 2, 5}, {1, 0, 1, 6}, {1, 0, 0, 7}, {2, 0, 0, 0}, {2, 1, 0, 0}, {2, 0, 1, 0}, {2, 0, 0, 1}, {2, 2, 0, 0}, {2, 1, 1, 0}, {2, 1, 0, 1}, {2, 0, 2, 0}, {2, 0, 1, 1}, {2, 0, 0, 2}, {2, 3, 0, 0}, {2, 2, 1, 0}, {2, 2, 0, 1}, {2, 1, 2, 0}, {2, 1, 1, 1}, {2, 1, 0, 2}, {2, 0, 3, 0}, {2, 0, 2, 1}, {2, 0, 1, 2}, {2, 0, 0, 3}, {2, 4, 0, 0}, {2, 3, 1, 0}, {2, 3, 0, 1}, {2, 2, 2, 0}, {2, 2, 1, 1}, {2, 2, 0, 2}, {2, 1, 3, 0}, {2, 1, 2, 1}, {2, 1, 1, 2}, {2, 1, 0, 3}, {2, 0, 4, 0}, {2, 0, 3, 1}, {2, 0, 2, 2}, {2, 0, 1, 3}, {2, 0, 0, 4}, {2, 5, 0, 0}, {2, 4, 1, 0}, {2, 4, 0, 1}, {2, 3, 2, 0}, {2, 3, 1, 1}, {2, 3, 0, 2}, {2, 2, 3, 0}, {2, 2, 2, 1}, {2, 2, 1, 2}, {2, 2, 0, 3}, {2, 1, 4, 0}, {2, 1, 3, 1}, {2, 1, 2, 2}, {2, 1, 1, 3}, {2, 1, 0, 4}, {2, 0, 5, 0}, {2, 0, 4, 1}, {2, 0, 3, 2}, {2, 0, 2, 3}, {2, 0, 1, 4}, {2, 0, 0, 5}, {3, 0, 0, 0}, {3, 1, 0, 0}, {3, 0, 1, 0}, {3, 0, 0, 1}, {3, 2, 0, 0}, {3, 1, 1, 0}, {3, 1, 0, 1}, {3, 0, 2, 0}, {3, 0, 1, 1}, {3, 0, 0, 2}, {3, 3, 0, 0}, {3, 2, 1, 0}, {3, 2, 0, 1}, {3, 1, 2, 0}, {3, 1, 1, 1}, {3, 1, 0, 2}, {3, 0, 3, 0}, {3, 0, 2, 1}, {3, 0, 1, 2}, {3, 0, 0, 3}, {4, 0, 0, 0}, {4, 1, 0, 0}, {4, 0, 1, 0}, {4, 0, 0, 1}, {5, 0, 0, 0}}
alpha_index_times_count = 15431
alpha_index_times = {{0, 0, 1, 421}, {1, 1, 1, 422}, {2, 2, 1, 422}, {3, 3, 1, 422}, {1, 4, 1, 423}, {2, 5, 1, 423}, {3, 6, 1, 423}, {1, 5, 1, 424}, {2, 7, 1, 424}, {3, 8, 1, 424}, {1, 6, 1, 425}, {2, 8, 1, 425}, {3, 9, 1, 425}, {1, 10, 1, 426}, {2, 11, 1, 426}, {3, 12, 1, 426}, {1, 11, 1, 427}, {2, 13, 1, 427}, {3, 14, 1, 427}, {1, 12, 1, 428}, {2, 14, 1, 428}, {3, 15, 1, 428}, {1, 13, 1, 429}, {2, 16, 1, 429}, {3, 17, 1, 429}, {1, 14, 1, 430}, {2, 17, 1, 430}, {3, 18, 1, 430}, {1, 15, 1, 431}, {2, 18, 1, 431}, {3, 19, 1, 431}, {4, 4, 1, 432}, {5, 5, 1, 432}, {6, 6, 1, 432}, {4, 5, 1, 433}, {5, 7, 1, 433}, {6, 8, 1, 433}, {4, 6, 1, 434}, {5, 8, 1, 434}, {6, 9, 1, 434}, {5, 5, 1, 435}, {7, 7, 1, 435}, {8, 8, 1, 435}, {5, 6, 1, 436}, {7, 8, 1, 436}, {8, 9, 1, 436}, {6, 6, 1, 437}, {8, 8, 1, 437}, {9, 9, 1, 437}, {4, 10, 1, 438}, {5, 11, 1, 438}, {6, 12, 1, 438}, {4, 11, 1, 439}, {5, 13, 1, 439}, {6, 14, 1, 439}, {4, 12, 1, 440}, {5, 14, 1, 440}, {6, 15, 1, 440}, {4, 13, 1, 441}, {5, 16, 1, 441}, {6, 17, 1, 441}, {4, 14, 1, 442}, {5, 17, 1, 442}, {6, 18, 1, 442}, {4, 15, 1, 443}, {5, 18, 1, 443}, {6, 19, 1, 443}, {5, 10, 1, 444}, {7, 11, 1, 444}, {8, 12, 1, 444}, {5, 11, 1, 445}, {7, 13, 1, 445}, {8, 14, 1, 445}, {5, 12, 1, 446}, {7, 14, 1, 446}, {8, 15, 1, 446}, {5, 13, 1, 447}, {7, 16, 1, 447}, {8, 17, 1, 447}, {5, 14, 1, 448}, {7, 17, 1, 448}, {8, 18, 1, 448}, {5, 15, 1, 449}, {7, 18, 1, 449}, {8, 19, 1, 449}, {6, 10, 1, 450}, {8, 11, 1, 450}, {9, 12, 1, 450}, {6, 11, 1, 451}, {8, 13, 1, 451}, {9, 14, 1, 451}, {6, 12, 1, 452}, {8, 14, 1, 452}, {9, 15, 1, 452}, {6, 13, 1, 453}, {8, 16, 1, 453}, {9, 17, 1, 453}, {6, 14, 1, 454}, {8, 17, 1, 454}, {9, 18, 1, 454}, {6, 15, 1, 455}, {8, 18, 1, 455}, {9, 19, 1, 455}, {4, 20, 1, 456}, {5, 21, 1, 456}, {6, 22, 1, 456}, {4, 21, 1, 457}, {5, 23, 1, 457}, {6, 24, 1, 457}, {4, 22, 1, 458}, {5, 24, 1, 458}, {6, 25, 1, 458}, {4, 23, 1, 459}, {5, 26, 1, 459}, {6, 27, 1, 459}, {4, 24, 1, 460}, {5, 27, 1, 460}, {6, 28, 1, 460}, {4, 25, 1, 461}, {5, 28, 1, 461}, {6, 29, 1, 461}, {4, 26, 1, 462}, {5, 30, 1, 462}, {6, 31, 1, 462}, {4, 27, 1, 463}, {5, 31, 1, 463}, {6, 32, 1, 463}, {4, 28, 1, 464}, {5, 32, 1, 464}, {6, 33, 1, 464}, {4, 29, 1, 465}, {5, 33, 1, 465}, {6, 34, 1, 465}, {5, 20, 1, 466}, {7, 21, 1, 466}, {8, 22, 1, 466}, {5, 21, 1, 467}, {7, 23, 1, 467}, {8, 24, 1, 467}, {5, 22, 1, 468}, {7, 24, 1, 468}, {8, 25, 1, 468}, {5, 23, 1, 469}, {7, 26, 1, 469}, {8, 27, 1, 469}, {5, 24, 1, 470}, {7, 27, 1, 470}, {8, 28, 1, 470}, {5, 25, 1, 471}, {7, 28, 1, 471}, {8, 29, 1, 471}, {5, 26, 1, 472}, {7, 30, 1, 472}, {8, 31, 1, 472}, {5, 27, 1, 473}, {7, 31, 1, 473}, {8, 32, 1, 473}, {5, 28, 1, 474}, {7, 32, 1, 474}, {8, 33, 1, 474}, {5, 29, 1, 475}, {7, 33, 1, 475}, {8, 34, 1, 475}, {6, 20, 1, 476}, {8, 21, 1, 476}, {9, 22, 1, 476}, {6, 21, 1, 477}, {8, 23, 1, 477}, {9, 24, 1, 477}, {6, 22, 1, 478}, {8, 24, 1, 478}, {9, 25, 1, 478}, {6, 23, 1, 479}, {8, 26, 1, 479}, {9, 27, 1, 479}, {6, 24, 1, 480}, {8, 27, 1, 480}, {9, 28, 1, 480}, {6, 25, 1, 481}, {8, 28, 1, 481}, {9, 29, 1, 481}, {6, 26, 1, 482}, {8, 30, 1, 482}, {9, 31, 1, 482}, {6, 27, 1, 483}, {8, 31, 1, 483}, {9, 32, 1, 483}, {6, 28, 1, 484}, {8, 32, 1, 484}, {9, 33, 1, 484}, {6, 29, 1, 485}, {8, 33, 1, 485}, {9, 34, 1, 485}, {4, 4, 1, 486}, {5, 5, 2, 486}, {6, 6, 2, 486}, {7, 7, 1, 486}, {8, 8, 2, 486}, {9, 9, 1, 486}, {4, 10, 1, 487}, {5, 11, 2, 487}, {6, 12, 2, 487}, {7, 13, 1, 487}, {8, 14, 2, 487}, {9, 15, 1, 487}, {4, 11, 1, 488}, {5, 13, 2, 488}, {6, 14, 2, 488}, {7, 16, 1, 488}, {8, 17, 2, 488}, {9, 18, 1, 488}, {4, 12, 1, 489}, {5, 14, 2, 489}, {6, 15, 2, 489}, {7, 17, 1, 489}, {8, 18, 2, 489}, {9, 19, 1, 489}, {4, 20, 1, 490}, {5, 21, 2, 490}, {6, 22, 2, 490}, {7, 23, 1, 490}, {8, 24, 2, 490}, {9, 25, 1, 490}, {4, 21, 1, 491}, {5, 23, 2, 491}, {6, 24, 2, 491}, {7, 26, 1, 491}, {8, 27, 2, 491}, {9, 28, 1, 491}, {4, 22, 1, 492}, {5, 24, 2, 492}, {6, 25, 2, 492}, {7, 27, 1, 492}, {8, 28, 2, 492}, {9, 29, 1, 492}, {4, 23, 1, 493}, {5, 26, 2, 493}, {6, 27, 2, 493}, {7, 30, 1, 493}, {8, 31, 2, 493}, {9, 32, 1, 493}, {4, 24, 1, 494}, {5, 27, 2, 494}, {6, 28, 2, 494}, {7, 31, 1, 494}, {8, 32, 2, 494}, {9, 33, 1, 494}, {4, 25, 1, 495}, {5, 28, 2, 495}, {6, 29, 2, 495}, {7, 32, 1, 495}, {8, 33, 2, 495}, {9, 34, 1, 495}, {4, 35, 1, 496}, {5, 36, 2, 496}, {6, 37, 2, 496}, {7, 38, 1, 496}, {8, 39, 2, 496}, {9, 40, 1, 496}, {4, 36, 1, 497}, {5, 38, 2, 497}, {6, 39, 2, 497}, {7, 41, 1, 497}, {8, 42, 2, 497}, {9, 43, 1, 497}, {4, 37, 1, 498}, {5, 39, 2, 498}, {6, 40, 2, 498}, {7, 42, 1, 498}, {8, 43, 2, 498}, {9, 44, 1, 498}, {4, 38, 1, 499}, {5, 41, 2, 499}, {6, 42, 2, 499}, {7, 45, 1, 499}, {8, 46, 2, 499}, {9, 47, 1, 499}, {4, 39, 1, 500}, {5, 42, 2, 500}, {6, 43, 2, 500}, {7, 46, 1, 500}, {8, 47, 2, 500}, {9, 48, 1, 500}, {4, 40, 1, 501}, {5, 43, 2, 501}, {6, 44, 2, 501}, {7, 47, 1, 501}, {8, 48, 2, 501}, {9, 49, 1, 501}, {4, 41, 1, 502}, {5, 45, 2, 502}, {6, 46, 2, 502}, {7, 50, 1, 502}, {8, 51, 2, 502}, {9, 52, 1, 502}, {4, 42, 1, 503}, {5, 46, 2, 503}, {6, 47, 2, 503}, {7, 51, 1, 503}, {8, 52, 2, 503}, {9, 53, 1, 503}, {4, 43, 1, 504}, {5, 47, 2, 504}, {6, 48, 2, 504}, {7, 52, 1, 504}, {8, 53, 2, 504}, {9, 54, 1, 504}, {4, 44, 1, 505}, {5, 48, 2, 505}, {6, 49, 2, 505}, {7, 53, 1, 505}, {8, 54, 2, 505}, {9, 55, 1, 505}, {4, 56, 1, 506}, {5, 57, 2, 506}, {6, 58, 2, 506}, {7, 59, 1, 506}, {8, 60, 2, 506}, {9, 61, 1, 506}, {4, 57, 1, 507}, {5, 59, 2, 507}, {6, 60, 2, 507}, {7, 62, 1, 507}, {8, 63, 2, 507}, {9, 64, 1, 507}, {4, 58, 1, 508}, {5, 60, 2, 508}, {6, 61, 2, 508}, {7, 63, 1, 508}, {8, 64, 2, 508}, {9, 65, 1, 508}, {4, 59, 1, 509}, {5, 62, 2, 509}, {6, 63, 2, 509}, {7, 66, 1, 509}, {8, 67, 2, 509}, {9, 68, 1, 509}, {4, 60, 1, 510}, {5, 63, 2, 510}, {6, 64, 2, 510}, {7, 67, 1, 510}, {8, 68, 2, 510}, {9, 69, 1, 510}, {4, 61, 1, 511}, {5, 64, 2, 511}, {6, 65, 2, 511}, {7, 68, 1, 511}, {8, 69, 2, 511}, {9, 70, 1, 511}, {4, 62, 1, 512}, {5, 66, 2, 512}, {6, 67, 2, 512}, {7, 71, 1, 512}, {8, 72, 2, 512}, {9, 73, 1, 512}, {4, 63, 1, 513}, {5, 67, 2, 513}, {6, 68, 2, 513}, {7, 72, 1, 513}, {8, 73, 2, 513}, {9, 74, 1, 513}, {4, 64, 1, 514}, {5, 68, 2, 514}, {6, 69, 2, 514}, {7, 73, 1, 514}, {8, 74, 2, 514}, {9, 75, 1, 514}, {4, 65, 1, 515}, {5, 69, 2, 515}, {6, 70, 2, 515}, {7, 74, 1, 515}, {8, 75, 2, 515}, {9, 76, 1, 515}, {4, 66, 1, 516}, {5, 71, 2, 516}, {6, 72, 2, 516}, {7, 77, 1, 516}, {8, 78, 2, 516}, {9, 79, 1, 516}, {4, 67, 1, 517}, {5, 72, 2, 517}, {6, 73, 2, 517}, {7, 78, 1, 517}, {8, 79, 2, 517}, {9, 80, 1, 517}, {4, 68, 1, 518}, {5, 73, 2, 518}, {6, 74, 2, 518}, {7, 79, 1, 518}, {8, 80, 2, 518}, {9, 81, 1, 518}, {4, 69, 1, 519}, {5, 74, 2, 519}, {6, 75, 2, 519}, {7, 80, 1, 519}, {8, 81, 2, 519}, {9, 82, 1, 519}, {4, 70, 1, 520}, {5, 75, 2, 520}, {6, 76, 2, 520}, {7, 81, 1, 520}, {8, 82, 2, 520}, {9, 83, 1, 520}, {10, 10, 1, 521}, {11, 11, 1, 521}, {12, 12, 1, 521}, {10, 11, 1, 522}, {11, 13, 1, 522}, {12, 14, 1, 522}, {10, 12, 1, 523}, {11, 14, 1, 523}, {12, 15, 1, 523}, {10, 13, 1, 524}, {11, 16, 1, 524}, {12, 17, 1, 524}, {10, 14, 1, 525}, {11, 17, 1, 525}, {12, 18, 1, 525}, {10, 15, 1, 526}, {11, 18, 1, 526}, {12, 19, 1, 526}, {11, 11, 1, 527}, {13, 13, 1, 527}, {14, 14, 1, 527}, {11, 12, 1, 528}, {13, 14, 1, 528}, {14, 15, 1, 528}, {11, 13, 1, 529}, {13, 16, 1, 529}, {14, 17, 1, 529}, {11, 14, 1, 530}, {13, 17, 1, 530}, {14, 18, 1, 530}, {11, 15, 1, 531}, {13, 18, 1, 531}, {14, 19, 1, 531}, {12, 12, 1, 532}, {14, 14, 1, 532}, {15, 15, 1, 532}, {12, 13, 1, 533}, {14, 16, 1, 533}, {15, 17, 1, 533}, {12, 14, 1, 534}, {14, 17, 1, 534}, {15, 18, 1, 534}, {12, 15, 1, 535}, {14, 18, 1, 535}, {15, 19, 1, 535}, {13, 13, 1, 536}, {16, 16, 1, 536}, {17, 17, 1, 536}, {13, 14, 1, 537}, {16, 17, 1, 537}, {17, 18, 1, 537}, {13, 15, 1, 538}, {16, 18, 1, 538}, {17, 19, 1, 538}, {14, 14, 1, 539}, {17, 17, 1, 539}, {18, 18, 1, 539}, {14, 15, 1, 540}, {17, 18, 1, 540}, {18, 19, 1, 540}, {15, 15, 1, 541}, {18, 18, 1, 541}, {19, 19, 1, 541}, {10, 10, 1, 542}, {11, 11, 2, 542}, {12, 12, 2, 542}, {13, 13, 1, 542}, {14, 14, 2, 542}, {15, 15, 1, 542}, {10, 11, 1, 543}, {11, 13, 2, 543}, {12, 14, 2, 543}, {13, 16, 1, 543}, {14, 17, 2, 543}, {15, 18, 1, 543}, {10, 12, 1, 544}, {11, 14, 2, 544}, {12, 15, 2, 544}, {13, 17, 1, 544}, {14, 18, 2, 544}, {15, 19, 1, 544}, {11, 11, 1, 545}, {13, 13, 2, 545}, {14, 14, 2, 545}, {16, 16, 1, 545}, {17, 17, 2, 545}, {18, 18, 1, 545}, {11, 12, 1, 546}, {13, 14, 2, 546}, {14, 15, 2, 546}, {16, 17, 1, 546}, {17, 18, 2, 546}, {18, 19, 1, 546}, {12, 12, 1, 547}, {14, 14, 2, 547}, {15, 15, 2, 547}, {17, 17, 1, 547}, {18, 18, 2, 547}, {19, 19, 1, 547}, {10, 20, 1, 548}, {11, 21, 2, 548}, {12, 22, 2, 548}, {13, 23, 1, 548}, {14, 24, 2, 548}, {15, 25, 1, 548}, {10, 21, 1, 549}, {11, 23, 2, 549}, {12, 24, 2, 549}, {13, 26, 1, 549}, {14, 27, 2, 549}, {15, 28, 1, 549}, {10, 22, 1, 550}, {11, 24, 2, 550}, {12, 25, 2, 550}, {13, 27, 1, 550}, {14, 28, 2, 550}, {15, 29, 1, 550}, {10, 23, 1, 551}, {11, 26, 2, 551}, {12, 27, 2, 551}, {13, 30, 1, 551}, {14, 31, 2, 551}, {15, 32, 1, 551}, {10, 24, 1, 552}, {11, 27, 2, 552}, {12, 28, 2, 552}, {13, 31, 1, 552}, {14, 32, 2, 552}, {15, 33, 1, 552}, {10, 25, 1, 553}, {11, 28, 2, 553}, {12, 29, 2, 553}, {13, 32, 1, 553}, {14, 33, 2, 553}, {15, 34, 1, 553}, {11, 20, 1, 554}, {13, 21, 2, 554}, {14, 22, 2, 554}, {16, 23, 1, 554}, {17, 24, 2, 554}, {18, 25, 1, 554}, {11, 21, 1, 555}, {13, 23, 2, 555}, {14, 24, 2, 555}, {16, 26, 1, 555}, {17, 27, 2, 555}, {18, 28, 1, 555}, {11, 22, 1, 556}, {13, 24, 2, 556}, {14, 25, 2, 556}, {16, 27, 1, 556}, {17, 28, 2, 556}, {18, 29, 1, 556}, {11, 23, 1, 557}, {13, 26, 2, 557}, {14, 27, 2, 557}, {16, 30, 1, 557}, {17, 31, 2, 557}, {18, 32, 1, 557}, {11, 24, 1, 558}, {13, 27, 2, 558}, {14, 28, 2, 558}, {16, 31, 1, 558}, {17, 32, 2, 558}, {18, 33, 1, 558}, {11, 25, 1, 559}, {13, 28, 2, 559}, {14, 29, 2, 559}, {16, 32, 1, 559}, {17, 33, 2, 559}, {18, 34, 1, 559}, {12, 20, 1, 560}, {14, 21, 2, 560}, {15, 22, 2, 560}, {17, 23, 1, 560}, {18, 24, 2, 560}, {19, 25, 1, 560}, {12, 21, 1, 561}, {14, 23, 2, 561}, {15, 24, 2, 561}, {17, 26, 1, 561}, {18, 27, 2, 561}, {19, 28, 1, 561}, {12, 22, 1, 562}, {14, 24, 2, 562}, {15, 25, 2, 562}, {17, 27, 1, 562}, {18, 28, 2, 562}, {19, 29, 1, 562}, {12, 23, 1, 563}, {14, 26, 2, 563}, {15, 27, 2, 563}, {17, 30, 1, 563}, {18, 31, 2, 563}, {19, 32, 1, 563}, {12, 24, 1, 564}, {14, 27, 2, 564}, {15, 28, 2, 564}, {17, 31, 1, 564}, {18, 32, 2, 564}, {19, 33, 1, 564}, {12, 25, 1, 565}, {14, 28, 2, 565}, {15, 29, 2, 565}, {17, 32, 1, 565}, {18, 33, 2, 565}, {19, 34, 1, 565}, {10, 35, 1, 566}, {11, 36, 2, 566}, {12, 37, 2, 566}, {13, 38, 1, 566}, {14, 39, 2, 566}, {15, 40, 1, 566}, {10, 36, 1, 567}, {11, 38, 2, 567}, {12, 39, 2, 567}, {13, 41, 1, 567}, {14, 42, 2, 567}, {15, 43, 1, 567}, {10, 37, 1, 568}, {11, 39, 2, 568}, {12, 40, 2, 568}, {13, 42, 1, 568}, {14, 43, 2, 568}, {15, 44, 1, 568}, {10, 38, 1, 569}, {11, 41, 2, 569}, {12, 42, 2, 569}, {13, 45, 1, 569}, {14, 46, 2, 569}, {15, 47, 1, 569}, {10, 39, 1, 570}, {11, 42, 2, 570}, {12, 43, 2, 570}, {13, 46, 1, 570}, {14, 47, 2, 570}, {15, 48, 1, 570}, {10, 40, 1, 571}, {11, 43, 2, 571}, {12, 44, 2, 571}, {13, 47, 1, 571}, {14, 48, 2, 571}, {15, 49, 1, 571}, {10, 41, 1, 572}, {11, 45, 2, 572}, {12, 46, 2, 572}, {13, 50, 1, 572}, {14, 51, 2, 572}, {15, 52, 1, 572}, {10, 42, 1, 573}, {11, 46, 2, 573}, {12, 47, 2, 573}, {13, 51, 1, 573}, {14, 52, 2, 573}, {15, 53, 1, 573}, {10, 43, 1, 574}, {11, 47, 2, 574}, {12, 48, 2, 574}, {13, 52, 1, 574}, {14, 53, 2, 574}, {15, 54, 1, 574}, {10, 44, 1, 575}, {11, 48, 2, 575}, {12, 49, 2, 575}, {13, 53, 1, 575}, {14, 54, 2, 575}, {15, 55, 1, 575}, {11, 35, 1, 576}, {13, 36, 2, 576}, {14, 37, 2, 576}, {16, 38, 1, 576}, {17, 39, 2, 576}, {18, 40, 1, 576}, {11, 36, 1, 577}, {13, 38, 2, 577}, {14, 39, 2, 577}, {16, 41, 1, 577}, {17, 42, 2, 577}, {18, 43, 1, 577}, {11, 37, 1, 578}, {13, 39, 2, 578}, {14, 40, 2, 578}, {16, 42, 1, 578}, {17, 43, 2, 578}, {18, 44, 1, 578}, {11, 38, 1, 579}, {13, 41, 2, 579}, {14, 42, 2, 579}, {16, 45, 1, 579}, {17, 46, 2, 579}, {18, 47, 1, 579}, {11, 39, 1, 580}, {13, 42, 2, 580}, {14, 43, 2, 580}, {16, 46, 1, 580}, {17, 47, 2, 580}, {18, 48, 1, 580}, {11, 40, 1, 581}, {13, 43, 2, 581}, {14, 44, 2, 581}, {16, 47, 1, 581}, {17, 48, 2, 581}, {18, 49, 1, 581}, {11, 41, 1, 582}, {13, 45, 2, 582}, {14, 46, 2, 582}, {16, 50, 1, 582}, {17, 51, 2, 582}, {18, 52, 1, 582}, {11, 42, 1, 583}, {13, 46, 2, 583}, {14, 47, 2, 583}, {16, 51, 1, 583}, {17, 52, 2, 583}, {18, 53, 1, 583}, {11, 43, 1, 584}, {13, 47, 2, 584}, {14, 48, 2, 584}, {16, 52, 1, 584}, {17, 53, 2, 584}, {18, 54, 1, 584}, {11, 44, 1, 585}, {13, 48, 2, 585}, {14, 49, 2, 585}, {16, 53, 1, 585}, {17, 54, 2, 585}, {18, 55, 1, 585}, {12, 35, 1, 586}, {14, 36, 2, 586}, {15, 37, 2, 586}, {17, 38, 1, 586}, {18, 39, 2, 586}, {19, 40, 1, 586}, {12, 36, 1, 587}, {14, 38, 2, 587}, {15, 39, 2, 587}, {17, 41, 1, 587}, {18, 42, 2, 587}, {19, 43, 1, 587}, {12, 37, 1, 588}, {14, 39, 2, 588}, {15, 40, 2, 588}, {17, 42, 1, 588}, {18, 43, 2, 588}, {19, 44, 1, 588}, {12, 38, 1, 589}, {14, 41, 2, 589}, {15, 42, 2, 589}, {17, 45, 1, 589}, {18, 46, 2, 589}, {19, 47, 1, 589}, {12, 39, 1, 590}, {14, 42, 2, 590}, {15, 43, 2, 590}, {17, 46, 1, 590}, {18, 47, 2, 590}, {19, 48, 1, 590}, {12, 40, 1, 591}, {14, 43, 2, 591}, {15, 44, 2, 591}, {17, 47, 1, 591}, {18, 48, 2, 591}, {19, 49, 1, 591}, {12, 41, 1, 592}, {14, 45, 2, 592}, {15, 46, 2, 592}, {17, 50, 1, 592}, {18, 51, 2, 592}, {19, 52, 1, 592}, {12, 42, 1, 593}, {14, 46, 2, 593}, {15, 47, 2, 593}, {17, 51, 1, 593}, {18, 52, 2, 593}, {19, 53, 1, 593}, {12, 43, 1, 594}, {14, 47, 2, 594}, {15, 48, 2, 594}, {17, 52, 1, 594}, {18, 53, 2, 594}, {19, 54, 1, 594}, {12, 44, 1, 595}, {14, 48, 2, 595}, {15, 49, 2, 595}, {17, 53, 1, 595}, {18, 54, 2, 595}, {19, 55, 1, 595}, {10, 56, 1, 596}, {11, 57, 2, 596}, {12, 58, 2, 596}, {13, 59, 1, 596}, {14, 60, 2, 596}, {15, 61, 1, 596}, {10, 57, 1, 597}, {11, 59, 2, 597}, {12, 60, 2, 597}, {13, 62, 1, 597}, {14, 63, 2, 597}, {15, 64, 1, 597}, {10, 58, 1, 598}, {11, 60, 2, 598}, {12, 61, 2, 598}, {13, 63, 1, 598}, {14, 64, 2, 598}, {15, 65, 1, 598}, {10, 59, 1, 599}, {11, 62, 2, 599}, {12, 63, 2, 599}, {13, 66, 1, 599}, {14, 67, 2, 599}, {15, 68, 1, 599}, {10, 60, 1, 600}, {11, 63, 2, 600}, {12, 64, 2, 600}, {13, 67, 1, 600}, {14, 68, 2, 600}, {15, 69, 1, 600}, {10, 61, 1, 601}, {11, 64, 2, 601}, {12, 65, 2, 601}, {13, 68, 1, 601}, {14, 69, 2, 601}, {15, 70, 1, 601}, {10, 62, 1, 602}, {11, 66, 2, 602}, {12, 67, 2, 602}, {13, 71, 1, 602}, {14, 72, 2, 602}, {15, 73, 1, 602}, {10, 63, 1, 603}, {11, 67, 2, 603}, {12, 68, 2, 603}, {13, 72, 1, 603}, {14, 73, 2, 603}, {15, 74, 1, 603}, {10, 64, 1, 604}, {11, 68, 2, 604}, {12, 69, 2, 604}, {13, 73, 1, 604}, {14, 74, 2, 604}, {15, 75, 1, 604}, {10, 65, 1, 605}, {11, 69, 2, 605}, {12, 70, 2, 605}, {13, 74, 1, 605}, {14, 75, 2, 605}, {15, 76, 1, 605}, {10, 66, 1, 606}, {11, 71, 2, 606}, {12, 72, 2, 606}, {13, 77, 1, 606}, {14, 78, 2, 606}, {15, 79, 1, 606}, {10, 67, 1, 607}, {11, 72, 2, 607}, {12, 73, 2, 607}, {13, 78, 1, 607}, {14, 79, 2, 607}, {15, 80, 1, 607}, {10, 68, 1, 608}, {11, 73, 2, 608}, {12, 74, 2, 608}, {13, 79, 1, 608}, {14, 80, 2, 608}, {15, 81, 1, 608}, {10, 69, 1, 609}, {11, 74, 2, 609}, {12, 75, 2, 609}, {13, 80, 1, 609}, {14, 81, 2, 609}, {15, 82, 1, 609}, {10, 70, 1, 610}, {11, 75, 2, 610}, {12, 76, 2, 610}, {13, 81, 1, 610}, {14, 82, 2, 610}, {15, 83, 1, 610}, {11, 56, 1, 611}, {13, 57, 2, 611}, {14, 58, 2, 611}, {16, 59, 1, 611}, {17, 60, 2, 611}, {18, 61, 1, 611}, {11, 57, 1, 612}, {13, 59, 2, 612}, {14, 60, 2, 612}, {16, 62, 1, 612}, {17, 63, 2, 612}, {18, 64, 1, 612}, {11, 58, 1, 613}, {13, 60, 2, 613}, {14, 61, 2, 613}, {16, 63, 1, 613}, {17, 64, 2, 613}, {18, 65, 1, 613}, {11, 59, 1, 614}, {13, 62, 2, 614}, {14, 63, 2, 614}, {16, 66, 1, 614}, {17, 67, 2, 614}, {18, 68, 1, 614}, {11, 60, 1, 615}, {13, 63, 2, 615}, {14, 64, 2, 615}, {16, 67, 1, 615}, {17, 68, 2, 615}, {18, 69, 1, 615}, {11, 61, 1, 616}, {13, 64, 2, 616}, {14, 65, 2, 616}, {16, 68, 1, 616}, {17, 69, 2, 616}, {18, 70, 1, 616}, {11, 62, 1, 617}, {13, 66, 2, 617}, {14, 67, 2, 617}, {16, 71, 1, 617}, {17, 72, 2, 617}, {18, 73, 1, 617}, {11, 63, 1, 618}, {13, 67, 2, 618}, {14, 68, 2, 618}, {16, 72, 1, 618}, {17, 73, 2, 618}, {18, 74, 1, 618}, {11, 64, 1, 619}, {13, 68, 2, 619}, {14, 69, 2, 619}, {16, 73, 1, 619}, {17, 74, 2, 619}, {18, 75, 1, 619}, {11, 65, 1, 620}, {13, 69, 2, 620}, {14, 70, 2, 620}, {16, 74, 1, 620}, {17, 75, 2, 620}, {18, 76, 1, 620}, {11, 66, 1, 621}, {13, 71, 2, 621}, {14, 72, 2, 621}, {16, 77, 1, 621}, {17, 78, 2, 621}, {18, 79, 1, 621}, {11, 67, 1, 622}, {13, 72, 2, 622}, {14, 73, 2, 622}, {16, 78, 1, 622}, {17, 79, 2, 622}, {18, 80, 1, 622}, {11, 68, 1, 623}, {13, 73, 2, 623}, {14, 74, 2, 623}, {16, 79, 1, 623}, {17, 80, 2, 623}, {18, 81, 1, 623}, {11, 69, 1, 624}, {13, 74, 2, 624}, {14, 75, 2, 624}, {16, 80, 1, 624}, {17, 81, 2, 624}, {18, 82, 1, 624}, {11, 70, 1, 625}, {13, 75, 2, 625}, {14, 76, 2, 625}, {16, 81, 1, 625}, {17, 82, 2, 625}, {18, 83, 1, 625}, {12, 56, 1, 626}, {14, 57, 2, 626}, {15, 58, 2, 626}, {17, 59, 1, 626}, {18, 60, 2, 626}, {19, 61, 1, 626}, {12, 57, 1, 627}, {14, 59, 2, 627}, {15, 60, 2, 627}, {17, 62, 1, 627}, {18, 63, 2, 627}, {19, 64, 1, 627}, {12, 58, 1, 628}, {14, 60, 2, 628}, {15, 61, 2, 628}, {17, 63, 1, 628}, {18, 64, 2, 628}, {19, 65, 1, 628}, {12, 59, 1, 629}, {14, 62, 2, 629}, {15, 63, 2, 629}, {17, 66, 1, 629}, {18, 67, 2, 629}, {19, 68, 1, 629}, {12, 60, 1, 630}, {14, 63, 2, 630}, {15, 64, 2, 630}, {17, 67, 1, 630}, {18, 68, 2, 630}, {19, 69, 1, 630}, {12, 61, 1, 631}, {14, 64, 2, 631}, {15, 65, 2, 631}, {17, 68, 1, 631}, {18, 69, 2, 631}, {19, 70, 1, 631}, {12, 62, 1, 632}, {14, 66, 2, 632}, {15, 67, 2, 632}, {17, 71, 1, 632}, {18, 72, 2, 632}, {19, 73, 1, 632}, {12, 63, 1, 633}, {14, 67, 2, 633}, {15, 68, 2, 633}, {17, 72, 1, 633}, {18, 73, 2, 633}, {19, 74, 1, 633}, {12, 64, 1, 634}, {14, 68, 2, 634}, {15, 69, 2, 634}, {17, 73, 1, 634}, {18, 74, 2, 634}, {19, 75, 1, 634}, {12, 65, 1, 635}, {14, 69, 2, 635}, {15, 70, 2, 635}, {17, 74, 1, 635}, {18, 75, 2, 635}, {19, 76, 1, 635}, {12, 66, 1, 636}, {14, 71, 2, 636}, {15, 72, 2, 636}, {17, 77, 1, 636}, {18, 78, 2, 636}, {19, 79, 1, 636}, {12, 67, 1, 637}, {14, 72, 2, 637}, {15, 73, 2, 637}, {17, 78, 1, 637}, {18, 79, 2, 637}, {19, 80, 1, 637}, {12, 68, 1, 638}, {14, 73, 2, 638}, {15, 74, 2, 638}, {17, 79, 1, 638}, {18, 80, 2, 638}, {19, 81, 1, 638}, {12, 69, 1, 639}, {14, 74, 2, 639}, {15, 75, 2, 639}, {17, 80, 1, 639}, {18, 81, 2, 639}, {19, 82, 1, 639}, {12, 70, 1, 640}, {14, 75, 2, 640}, {15, 76, 2, 640}, {17, 81, 1, 640}, {18, 82, 2, 640}, {19, 83, 1, 640}, {10, 10, 1, 641}, {11, 11, 3, 641}, {12, 12, 3, 641}, {13, 13, 3, 641}, {14, 14, 6, 641}, {15, 15, 3, 641}, {16, 16, 1, 641}, {17, 17, 3, 641}, {18, 18, 3, 641}, {19, 19, 1, 641}, {10, 20, 1, 642}, {11, 21, 3, 642}, {12, 22, 3, 642}, {13, 23, 3, 642}, {14, 24, 6, 642}, {15, 25, 3, 642}, {16, 26, 1, 642}, {17, 27, 3, 642}, {18, 28, 3, 642}, {19, 29, 1, 642}, {10, 21, 1, 643}, {11, 23, 3, 643}, {12, 24, 3, 643}, {13, 26, 3, 643}, {14, 27, 6, 643}, {15, 28, 3, 643}, {16, 30, 1, 643}, {17, 31, 3, 643}, {18, 32, 3, 643}, {19, 33, 1, 643}, {10, 22, 1, 644}, {11, 24, 3, 644}, {12, 25, 3, 644}, {13, 27, 3, 644}, {14, 28, 6, 644}, {15, 29, 3, 644}, {16, 31, 1, 644}, {17, 32, 3, 644}, {18, 33, 3, 644}, {19, 34, 1, 644}, {10, 35, 1, 645}, {11, 36, 3, 645}, {12, 37, 3, 645}, {13, 38, 3, 645}, {14, 39, 6, 645}, {15, 40, 3, 645}, {16, 41, 1, 645}, {17, 42, 3, 645}, {18, 43, 3, 645}, {19, 44, 1, 645}, {10, 36, 1, 646}, {11, 38, 3, 646}, {12, 39, 3, 646}, {13, 41, 3, 646}, {14, 42, 6, 646}, {15, 43, 3, 646}, {16, 45, 1, 646}, {17, 46, 3, 646}, {18, 47, 3, 646}, {19, 48, 1, 646}, {10, 37, 1, 647}, {11, 39, 3, 647}, {12, 40, 3, 647}, {13, 42, 3, 647}, {14, 43, 6, 647}, {15, 44, 3, 647}, {16, 46, 1, 647}, {17, 47, 3, 647}, {18, 48, 3, 647}, {19, 49, 1, 647}, {10, 38, 1, 648}, {11, 41, 3, 648}, {12, 42, 3, 648}, {13, 45, 3, 648}, {14, 46, 6, 648}, {15, 47, 3, 648}, {16, 50, 1, 648}, {17, 51, 3, 648}, {18, 52, 3, 648}, {19, 53, 1, 648}, {10, 39, 1, 649}, {11, 42, 3, 649}, {12, 43, 3, 649}, {13, 46, 3, 649}, {14, 47, 6, 649}, {15, 48, 3, 649}, {16, 51, 1, 649}, {17, 52, 3, 649}, {18, 53, 3, 649}, {19, 54, 1, 649}, {10, 40, 1, 650}, {11, 43, 3, 650}, {12, 44, 3, 650}, {13, 47, 3, 650}, {14, 48, 6, 650}, {15, 49, 3, 650}, {16, 52, 1, 650}, {17, 53, 3, 650}, {18, 54, 3, 650}, {19, 55, 1, 650}, {10, 56, 1, 651}, {11, 57, 3, 651}, {12, 58, 3, 651}, {13, 59, 3, 651}, {14, 60, 6, 651}, {15, 61, 3, 651}, {16, 62, 1, 651}, {17, 63, 3, 651}, {18, 64, 3, 651}, {19, 65, 1, 651}, {10, 57, 1, 652}, {11, 59, 3, 652}, {12, 60, 3, 652}, {13, 62, 3, 652}, {14, 63, 6, 652}, {15, 64, 3, 652}, {16, 66, 1, 652}, {17, 67, 3, 652}, {18, 68, 3, 652}, {19, 69, 1, 652}, {10, 58, 1, 653}, {11, 60, 3, 653}, {12, 61, 3, 653}, {13, 63, 3, 653}, {14, 64, 6, 653}, {15, 65, 3, 653}, {16, 67, 1, 653}, {17, 68, 3, 653}, {18, 69, 3, 653}, {19, 70, 1, 653}, {10, 59, 1, 654}, {11, 62, 3, 654}, {12, 63, 3, 654}, {13, 66, 3, 654}, {14, 67, 6, 654}, {15, 68, 3, 654}, {16, 71, 1, 654}, {17, 72, 3, 654}, {18, 73, 3, 654}, {19, 74, 1, 654}, {10, 60, 1, 655}, {11, 63, 3, 655}, {12, 64, 3, 655}, {13, 67, 3, 655}, {14, 68, 6, 655}, {15, 69, 3, 655}, {16, 72, 1, 655}, {17, 73, 3, 655}, {18, 74, 3, 655}, {19, 75, 1, 655}, {10, 61, 1, 656}, {11, 64, 3, 656}, {12, 65, 3, 656}, {13, 68, 3, 656}, {14, 69, 6, 656}, {15, 70, 3, 656}, {16, 73, 1, 656}, {17, 74, 3, 656}, {18, 75, 3, 656}, {19, 76, 1, 656}, {10, 62, 1, 657}, {11, 66, 3, 657}, {12, 67, 3, 657}, {13, 71, 3, 657}, {14, 72, 6, 657}, {15, 73, 3, 657}, {16, 77, 1, 657}, {17, 78, 3, 657}, {18, 79, 3, 657}, {19, 80, 1, 657}, {10, 63, 1, 658}, {11, 67, 3, 658}, {12, 68, 3, 658}, {13, 72, 3, 658}, {14, 73, 6, 658}, {15, 74, 3, 658}, {16, 78, 1, 658}, {17, 79, 3, 658}, {18, 80, 3, 658}, {19, 81, 1, 658}, {10, 64, 1, 659}, {11, 68, 3, 659}, {12, 69, 3, 659}, {13, 73, 3, 659}, {14, 74, 6, 659}, {15, 75, 3, 659}, {16, 79, 1, 659}, {17, 80, 3, 659}, {18, 81, 3, 659}, {19, 82, 1, 659}, {10, 65, 1, 660}, {11, 69, 3, 660}, {12, 70, 3, 660}, {13, 74, 3, 660}, {14, 75, 6, 660}, {15, 76, 3, 660}, {16, 80, 1, 660}, {17, 81, 3, 660}, {18, 82, 3, 660}, {19, 83, 1, 660}, {10, 84, 1, 661}, {11, 85, 3, 661}, {12, 86, 3, 661}, {13, 87, 3, 661}, {14, 88, 6, 661}, {15, 89, 3, 661}, {16, 90, 1, 661}, {17, 91, 3, 661}, {18, 92, 3, 661}, {19, 93, 1, 661}, {10, 85, 1, 662}, {11, 87, 3, 662}, {12, 88, 3, 662}, {13, 90, 3, 662}, {14, 91, 6, 662}, {15, 92, 3, 662}, {16, 94, 1, 662}, {17, 95, 3, 662}, {18, 96, 3, 662}, {19, 97, 1, 662}, {10, 86, 1, 663}, {11, 88, 3, 663}, {12, 89, 3, 663}, {13, 91, 3, 663}, {14, 92, 6, 663}, {15, 93, 3, 663}, {16, 95, 1, 663}, {17, 96, 3, 663}, {18, 97, 3, 663}, {19, 98, 1, 663}, {10, 87, 1, 664}, {11, 90, 3, 664}, {12, 91, 3, 664}, {13, 94, 3, 664}, {14, 95, 6, 664}, {15, 96, 3, 664}, {16, 99, 1, 664}, {17, 100, 3, 664}, {18, 101, 3, 664}, {19, 102, 1, 664}, {10, 88, 1, 665}, {11, 91, 3, 665}, {12, 92, 3, 665}, {13, 95, 3, 665}, {14, 96, 6, 665}, {15, 97, 3, 665}, {16, 100, 1, 665}, {17, 101, 3, 665}, {18, 102, 3, 665}, {19, 103, 1, 665}, {10, 89, 1, 666}, {11, 92, 3, 666}, {12, 93, 3, 666}, {13, 96, 3, 666}, {14, 97, 6, 666}, {15, 98, 3, 666}, {16, 101, 1, 666}, {17, 102, 3, 666}, {18, 103, 3, 666}, {19, 104, 1, 666}, {10, 90, 1, 667}, {11, 94, 3, 667}, {12, 95, 3, 667}, {13, 99, 3, 667}, {14, 100, 6, 667}, {15, 101, 3, 667}, {16, 105, 1, 667}, {17, 106, 3, 667}, {18, 107, 3, 667}, {19, 108, 1, 667}, {10, 91, 1, 668}, {11, 95, 3, 668}, {12, 96, 3, 668}, {13, 100, 3, 668}, {14, 101, 6, 668}, {15, 102, 3, 668}, {16, 106, 1, 668}, {17, 107, 3, 668}, {18, 108, 3, 668}, {19, 109, 1, 668}, {10, 92, 1, 669}, {11, 96, 3, 669}, {12, 97, 3, 669}, {13, 101, 3, 669}, {14, 102, 6, 669}, {15, 103, 3, 669}, {16, 107, 1, 669}, {17, 108, 3, 669}, {18, 109, 3, 669}, {19, 110, 1, 669}, {10, 93, 1, 670}, {11, 97, 3, 670}, {12, 98, 3, 670}, {13, 102, 3, 670}, {14, 103, 6, 670}, {15, 104, 3, 670}, {16, 108, 1, 670}, {17, 109, 3, 670}, {18, 110, 3, 670}, {19, 111, 1, 670}, {10, 94, 1, 671}, {11, 99, 3, 671}, {12, 100, 3, 671}, {13, 105, 3, 671}, {14, 106, 6, 671}, {15, 107, 3, 671}, {16, 112, 1, 671}, {17, 113, 3, 671}, {18, 114, 3, 671}, {19, 115, 1, 671}, {10, 95, 1, 672}, {11, 100, 3, 672}, {12, 101, 3, 672}, {13, 106, 3, 672}, {14, 107, 6, 672}, {15, 108, 3, 672}, {16, 113, 1, 672}, {17, 114, 3, 672}, {18, 115, 3, 672}, {19, 116, 1, 672}, {10, 96, 1, 673}, {11, 101, 3, 673}, {12, 102, 3, 673}, {13, 107, 3, 673}, {14, 108, 6, 673}, {15, 109, 3, 673}, {16, 114, 1, 673}, {17, 115, 3, 673}, {18, 116, 3, 673}, {19, 117, 1, 673}, {10, 97, 1, 674}, {11, 102, 3, 674}, {12, 103, 3, 674}, {13, 108, 3, 674}, {14, 109, 6, 674}, {15, 110, 3, 674}, {16, 115, 1, 674}, {17, 116, 3, 674}, {18, 117, 3, 674}, {19, 118, 1, 674}, {10, 98, 1, 675}, {11, 103, 3, 675}, {12, 104, 3, 675}, {13, 109, 3, 675}, {14, 110, 6, 675}, {15, 111, 3, 675}, {16, 116, 1, 675}, {17, 117, 3, 675}, {18, 118, 3, 675}, {19, 119, 1, 675}, {20, 20, 1, 676}, {21, 21, 2, 676}, {22, 22, 2, 676}, {23, 23, 1, 676}, {24, 24, 2, 676}, {25, 25, 1, 676}, {20, 21, 1, 677}, {21, 23, 2, 677}, {22, 24, 2, 677}, {23, 26, 1, 677}, {24, 27, 2, 677}, {25, 28, 1, 677}, {20, 22, 1, 678}, {21, 24, 2, 678}, {22, 25, 2, 678}, {23, 27, 1, 678}, {24, 28, 2, 678}, {25, 29, 1, 678}, {20, 23, 1, 679}, {21, 26, 2, 679}, {22, 27, 2, 679}, {23, 30, 1, 679}, {24, 31, 2, 679}, {25, 32, 1, 679}, {20, 24, 1, 680}, {21, 27, 2, 680}, {22, 28, 2, 680}, {23, 31, 1, 680}, {24, 32, 2, 680}, {25, 33, 1, 680}, {20, 25, 1, 681}, {21, 28, 2, 681}, {22, 29, 2, 681}, {23, 32, 1, 681}, {24, 33, 2, 681}, {25, 34, 1, 681}, {21, 21, 1, 682}, {23, 23, 2, 682}, {24, 24, 2, 682}, {26, 26, 1, 682}, {27, 27, 2, 682}, {28, 28, 1, 682}, {21, 22, 1, 683}, {23, 24, 2, 683}, {24, 25, 2, 683}, {26, 27, 1, 683}, {27, 28, 2, 683}, {28, 29, 1, 683}, {21, 23, 1, 684}, {23, 26, 2, 684}, {24, 27, 2, 684}, {26, 30, 1, 684}, {27, 31, 2, 684}, {28, 32, 1, 684}, {21, 24, 1, 685}, {23, 27, 2, 685}, {24, 28, 2, 685}, {26, 31, 1, 685}, {27, 32, 2, 685}, {28, 33, 1, 685}, {21, 25, 1, 686}, {23, 28, 2, 686}, {24, 29, 2, 686}, {26, 32, 1, 686}, {27, 33, 2, 686}, {28, 34, 1, 686}, {22, 22, 1, 687}, {24, 24, 2, 687}, {25, 25, 2, 687}, {27, 27, 1, 687}, {28, 28, 2, 687}, {29, 29, 1, 687}, {22, 23, 1, 688}, {24, 26, 2, 688}, {25, 27, 2, 688}, {27, 30, 1, 688}, {28, 31, 2, 688}, {29, 32, 1, 688}, {22, 24, 1, 689}, {24, 27, 2, 689}, {25, 28, 2, 689}, {27, 31, 1, 689}, {28, 32, 2, 689}, {29, 33, 1, 689}, {22, 25, 1, 690}, {24, 28, 2, 690}, {25, 29, 2, 690}, {27, 32, 1, 690}, {28, 33, 2, 690}, {29, 34, 1, 690}, {23, 23, 1, 691}, {26, 26, 2, 691}, {27, 27, 2, 691}, {30, 30, 1, 691}, {31, 31, 2, 691}, {32, 32, 1, 691}, {23, 24, 1, 692}, {26, 27, 2, 692}, {27, 28, 2, 692}, {30, 31, 1, 692}, {31, 32, 2, 692}, {32, 33, 1, 692}, {23, 25, 1, 693}, {26, 28, 2, 693}, {27, 29, 2, 693}, {30, 32, 1, 693}, {31, 33, 2, 693}, {32, 34, 1, 693}, {24, 24, 1, 694}, {27, 27, 2, 694}, {28, 28, 2, 694}, {31, 31, 1, 694}, {32, 32, 2, 694}, {33, 33, 1, 694}, {24, 25, 1, 695}, {27, 28, 2, 695}, {28, 29, 2, 695}, {31, 32, 1, 695}, {32, 33, 2, 695}, {33, 34, 1, 695}, {25, 25, 1, 696}, {28, 28, 2, 696}, {29, 29, 2, 696}, {32, 32, 1, 696}, {33, 33, 2, 696}, {34, 34, 1, 696}, {20, 35, 1, 697}, {21, 36, 2, 697}, {22, 37, 2, 697}, {23, 38, 1, 697}, {24, 39, 2, 697}, {25, 40, 1, 697}, {20, 36, 1, 698}, {21, 38, 2, 698}, {22, 39, 2, 698}, {23, 41, 1, 698}, {24, 42, 2, 698}, {25, 43, 1, 698}, {20, 37, 1, 699}, {21, 39, 2, 699}, {22, 40, 2, 699}, {23, 42, 1, 699}, {24, 43, 2, 699}, {25, 44, 1, 699}, {20, 38, 1, 700}, {21, 41, 2, 700}, {22, 42, 2, 700}, {23, 45, 1, 700}, {24, 46, 2, 700}, {25, 47, 1, 700}, {20, 39, 1, 701}, {21, 42, 2, 701}, {22, 43, 2, 701}, {23, 46, 1, 701}, {24, 47, 2, 701}, {25, 48, 1, 701}, {20, 40, 1, 702}, {21, 43, 2, 702}, {22, 44, 2, 702}, {23, 47, 1, 702}, {24, 48, 2, 702}, {25, 49, 1, 702}, {20, 41, 1, 703}, {21, 45, 2, 703}, {22, 46, 2, 703}, {23, 50, 1, 703}, {24, 51, 2, 703}, {25, 52, 1, 703}, {20, 42, 1, 704}, {21, 46, 2, 704}, {22, 47, 2, 704}, {23, 51, 1, 704}, {24, 52, 2, 704}, {25, 53, 1, 704}, {20, 43, 1, 705}, {21, 47, 2, 705}, {22, 48, 2, 705}, {23, 52, 1, 705}, {24, 53, 2, 705}, {25, 54, 1, 705}, {20, 44, 1, 706}, {21, 48, 2, 706}, {22, 49, 2, 706}, {23, 53, 1, 706}, {24, 54, 2, 706}, {25, 55, 1, 706}, {21, 35, 1, 707}, {23, 36, 2, 707}, {24, 37, 2, 707}, {26, 38, 1, 707}, {27, 39, 2, 707}, {28, 40, 1, 707}, {21, 36, 1, 708}, {23, 38, 2, 708}, {24, 39, 2, 708}, {26, 41, 1, 708}, {27, 42, 2, 708}, {28, 43, 1, 708}, {21, 37, 1, 709}, {23, 39, 2, 709}, {24, 40, 2, 709}, {26, 42, 1, 709}, {27, 43, 2, 709}, {28, 44, 1, 709}, {21, 38, 1, 710}, {23, 41, 2, 710}, {24, 42, 2, 710}, {26, 45, 1, 710}, {27, 46, 2, 710}, {28, 47, 1, 710}, {21, 39, 1, 711}, {23, 42, 2, 711}, {24, 43, 2, 711}, {26, 46, 1, 711}, {27, 47, 2, 711}, {28, 48, 1, 711}, {21, 40, 1, 712}, {23, 43, 2, 712}, {24, 44, 2, 712}, {26, 47, 1, 712}, {27, 48, 2, 712}, {28, 49, 1, 712}, {21, 41, 1, 713}, {23, 45, 2, 713}, {24, 46, 2, 713}, {26, 50, 1, 713}, {27, 51, 2, 713}, {28, 52, 1, 713}, {21, 42, 1, 714}, {23, 46, 2, 714}, {24, 47, 2, 714}, {26, 51, 1, 714}, {27, 52, 2, 714}, {28, 53, 1, 714}, {21, 43, 1, 715}, {23, 47, 2, 715}, {24, 48, 2, 715}, {26, 52, 1, 715}, {27, 53, 2, 715}, {28, 54, 1, 715}, {21, 44, 1, 716}, {23, 48, 2, 716}, {24, 49, 2, 716}, {26, 53, 1, 716}, {27, 54, 2, 716}, {28, 55, 1, 716}, {22, 35, 1, 717}, {24, 36, 2, 717}, {25, 37, 2, 717}, {27, 38, 1, 717}, {28, 39, 2, 717}, {29, 40, 1, 717}, {22, 36, 1, 718}, {24, 38, 2, 718}, {25, 39, 2, 718}, {27, 41, 1, 718}, {28, 42, 2, 718}, {29, 43, 1, 718}, {22, 37, 1, 719}, {24, 39, 2, 719}, {25, 40, 2, 719}, {27, 42, 1, 719}, {28, 43, 2, 719}, {29, 44, 1, 719}, {22, 38, 1, 720}, {24, 41, 2, 720}, {25, 42, 2, 720}, {27, 45, 1, 720}, {28, 46, 2, 720}, {29, 47, 1, 720}, {22, 39, 1, 721}, {24, 42, 2, 721}, {25, 43, 2, 721}, {27, 46, 1, 721}, {28, 47, 2, 721}, {29, 48, 1, 721}, {22, 40, 1, 722}, {24, 43, 2, 722}, {25, 44, 2, 722}, {27, 47, 1, 722}, {28, 48, 2, 722}, {29, 49, 1, 722}, {22, 41, 1, 723}, {24, 45, 2, 723}, {25, 46, 2, 723}, {27, 50, 1, 723}, {28, 51, 2, 723}, {29, 52, 1, 723}, {22, 42, 1, 724}, {24, 46, 2, 724}, {25, 47, 2, 724}, {27, 51, 1, 724}, {28, 52, 2, 724}, {29, 53, 1, 724}, {22, 43, 1, 725}, {24, 47, 2, 725}, {25, 48, 2, 725}, {27, 52, 1, 725}, {28, 53, 2, 725}, {29, 54, 1, 725}, {22, 44, 1, 726}, {24, 48, 2, 726}, {25, 49, 2, 726}, {27, 53, 1, 726}, {28, 54, 2, 726}, {29, 55, 1, 726}, {23, 35, 1, 727}, {26, 36, 2, 727}, {27, 37, 2, 727}, {30, 38, 1, 727}, {31, 39, 2, 727}, {32, 40, 1, 727}, {23, 36, 1, 728}, {26, 38, 2, 728}, {27, 39, 2, 728}, {30, 41, 1, 728}, {31, 42, 2, 728}, {32, 43, 1, 728}, {23, 37, 1, 729}, {26, 39, 2, 729}, {27, 40, 2, 729}, {30, 42, 1, 729}, {31, 43, 2, 729}, {32, 44, 1, 729}, {23, 38, 1, 730}, {26, 41, 2, 730}, {27, 42, 2, 730}, {30, 45, 1, 730}, {31, 46, 2, 730}, {32, 47, 1, 730}, {23, 39, 1, 731}, {26, 42, 2, 731}, {27, 43, 2, 731}, {30, 46, 1, 731}, {31, 47, 2, 731}, {32, 48, 1, 731}, {23, 40, 1, 732}, {26, 43, 2, 732}, {27, 44, 2, 732}, {30, 47, 1, 732}, {31, 48, 2, 732}, {32, 49, 1, 732}, {23, 41, 1, 733}, {26, 45, 2, 733}, {27, 46, 2, 733}, {30, 50, 1, 733}, {31, 51, 2, 733}, {32, 52, 1, 733}, {23, 42, 1, 734}, {26, 46, 2, 734}, {27, 47, 2, 734}, {30, 51, 1, 734}, {31, 52, 2, 734}, {32, 53, 1, 734}, {23, 43, 1, 735}, {26, 47, 2, 735}, {27, 48, 2, 735}, {30, 52, 1, 735}, {31, 53, 2, 735}, {32, 54, 1, 735}, {23, 44, 1, 736}, {26, 48, 2, 736}, {27, 49, 2, 736}, {30, 53, 1, 736}, {31, 54, 2, 736}, {32, 55, 1, 736}, {24, 35, 1, 737}, {27, 36, 2, 737}, {28, 37, 2, 737}, {31, 38, 1, 737}, {32, 39, 2, 737}, {33, 40, 1, 737}, {24, 36, 1, 738}, {27, 38, 2, 738}, {28, 39, 2, 738}, {31, 41, 1, 738}, {32, 42, 2, 738}, {33, 43, 1, 738}, {24, 37, 1, 739}, {27, 39, 2, 739}, {28, 40, 2, 739}, {31, 42, 1, 739}, {32, 43, 2, 739}, {33, 44, 1, 739}, {24, 38, 1, 740}, {27, 41, 2, 740}, {28, 42, 2, 740}, {31, 45, 1, 740}, {32, 46, 2, 740}, {33, 47, 1, 740}, {24, 39, 1, 741}, {27, 42, 2, 741}, {28, 43, 2, 741}, {31, 46, 1, 741}, {32, 47, 2, 741}, {33, 48, 1, 741}, {24, 40, 1, 742}, {27, 43, 2, 742}, {28, 44, 2, 742}, {31, 47, 1, 742}, {32, 48, 2, 742}, {33, 49, 1, 742}, {24, 41, 1, 743}, {27, 45, 2, 743}, {28, 46, 2, 743}, {31, 50, 1, 743}, {32, 51, 2, 743}, {33, 52, 1, 743}, {24, 42, 1, 744}, {27, 46, 2, 744}, {28, 47, 2, 744}, {31, 51, 1, 744}, {32, 52, 2, 744}, {33, 53, 1, 744}, {24, 43, 1, 745}, {27, 47, 2, 745}, {28, 48, 2, 745}, {31, 52, 1, 745}, {32, 53, 2, 745}, {33, 54, 1, 745}, {24, 44, 1, 746}, {27, 48, 2, 746}, {28, 49, 2, 746}, {31, 53, 1, 746}, {32, 54, 2, 746}, {33, 55, 1, 746}, {25, 35, 1, 747}, {28, 36, 2, 747}, {29, 37, 2, 747}, {32, 38, 1, 747}, {33, 39, 2, 747}, {34, 40, 1, 747}, {25, 36, 1, 748}, {28, 38, 2, 748}, {29, 39, 2, 748}, {32, 41, 1, 748}, {33, 42, 2, 748}, {34, 43, 1, 748}, {25, 37, 1, 749}, {28, 39, 2, 749}, {29, 40, 2, 749}, {32, 42, 1, 749}, {33, 43, 2, 749}, {34, 44, 1, 749}, {25, 38, 1, 750}, {28, 41, 2, 750}, {29, 42, 2, 750}, {32, 45, 1, 750}, {33, 46, 2, 750}, {34, 47, 1, 750}, {25, 39, 1, 751}, {28, 42, 2, 751}, {29, 43, 2, 751}, {32, 46, 1, 751}, {33, 47, 2, 751}, {34, 48, 1, 751}, {25, 40, 1, 752}, {28, 43, 2, 752}, {29, 44, 2, 752}, {32, 47, 1, 752}, {33, 48, 2, 752}, {34, 49, 1, 752}, {25, 41, 1, 753}, {28, 45, 2, 753}, {29, 46, 2, 753}, {32, 50, 1, 753}, {33, 51, 2, 753}, {34, 52, 1, 753}, {25, 42, 1, 754}, {28, 46, 2, 754}, {29, 47, 2, 754}, {32, 51, 1, 754}, {33, 52, 2, 754}, {34, 53, 1, 754}, {25, 43, 1, 755}, {28, 47, 2, 755}, {29, 48, 2, 755}, {32, 52, 1, 755}, {33, 53, 2, 755}, {34, 54, 1, 755}, {25, 44, 1, 756}, {28, 48, 2, 756}, {29, 49, 2, 756}, {32, 53, 1, 756}, {33, 54, 2, 756}, {34, 55, 1, 756}, {20, 20, 1, 757}, {21, 21, 3, 757}, {22, 22, 3, 757}, {23, 23, 3, 757}, {24, 24, 6, 757}, {25, 25, 3, 757}, {26, 26, 1, 757}, {27, 27, 3, 757}, {28, 28, 3, 757}, {29, 29, 1, 757}, {20, 21, 1, 758}, {21, 23, 3, 758}, {22, 24, 3, 758}, {23, 26, 3, 758}, {24, 27, 6, 758}, {25, 28, 3, 758}, {26, 30, 1, 758}, {27, 31, 3, 758}, {28, 32, 3, 758}, {29, 33, 1, 758}, {20, 22, 1, 759}, {21, 24, 3, 759}, {22, 25, 3, 759}, {23, 27, 3, 759}, {24, 28, 6, 759}, {25, 29, 3, 759}, {26, 31, 1, 759}, {27, 32, 3, 759}, {28, 33, 3, 759}, {29, 34, 1, 759}, {21, 21, 1, 760}, {23, 23, 3, 760}, {24, 24, 3, 760}, {26, 26, 3, 760}, {27, 27, 6, 760}, {28, 28, 3, 760}, {30, 30, 1, 760}, {31, 31, 3, 760}, {32, 32, 3, 760}, {33, 33, 1, 760}, {21, 22, 1, 761}, {23, 24, 3, 761}, {24, 25, 3, 761}, {26, 27, 3, 761}, {27, 28, 6, 761}, {28, 29, 3, 761}, {30, 31, 1, 761}, {31, 32, 3, 761}, {32, 33, 3, 761}, {33, 34, 1, 761}, {22, 22, 1, 762}, {24, 24, 3, 762}, {25, 25, 3, 762}, {27, 27, 3, 762}, {28, 28, 6, 762}, {29, 29, 3, 762}, {31, 31, 1, 762}, {32, 32, 3, 762}, {33, 33, 3, 762}, {34, 34, 1, 762}, {20, 35, 1, 763}, {21, 36, 3, 763}, {22, 37, 3, 763}, {23, 38, 3, 763}, {24, 39, 6, 763}, {25, 40, 3, 763}, {26, 41, 1, 763}, {27, 42, 3, 763}, {28, 43, 3, 763}, {29, 44, 1, 763}, {20, 36, 1, 764}, {21, 38, 3, 764}, {22, 39, 3, 764}, {23, 41, 3, 764}, {24, 42, 6, 764}, {25, 43, 3, 764}, {26, 45, 1, 764}, {27, 46, 3, 764}, {28, 47, 3, 764}, {29, 48, 1, 764}, {20, 37, 1, 765}, {21, 39, 3, 765}, {22, 40, 3, 765}, {23, 42, 3, 765}, {24, 43, 6, 765}, {25, 44, 3, 765}, {26, 46, 1, 765}, {27, 47, 3, 765}, {28, 48, 3, 765}, {29, 49, 1, 765}, {20, 38, 1, 766}, {21, 41, 3, 766}, {22, 42, 3, 766}, {23, 45, 3, 766}, {24, 46, 6, 766}, {25, 47, 3, 766}, {26, 50, 1, 766}, {27, 51, 3, 766}, {28, 52, 3, 766}, {29, 53, 1, 766}, {20, 39, 1, 767}, {21, 42, 3, 767}, {22, 43, 3, 767}, {23, 46, 3, 767}, {24, 47, 6, 767}, {25, 48, 3, 767}, {26, 51, 1, 767}, {27, 52, 3, 767}, {28, 53, 3, 767}, {29, 54, 1, 767}, {20, 40, 1, 768}, {21, 43, 3, 768}, {22, 44, 3, 768}, {23, 47, 3, 768}, {24, 48, 6, 768}, {25, 49, 3, 768}, {26, 52, 1, 768}, {27, 53, 3, 768}, {28, 54, 3, 768}, {29, 55, 1, 768}, {21, 35, 1, 769}, {23, 36, 3, 769}, {24, 37, 3, 769}, {26, 38, 3, 769}, {27, 39, 6, 769}, {28, 40, 3, 769}, {30, 41, 1, 769}, {31, 42, 3, 769}, {32, 43, 3, 769}, {33, 44, 1, 769}, {21, 36, 1, 770}, {23, 38, 3, 770}, {24, 39, 3, 770}, {26, 41, 3, 770}, {27, 42, 6, 770}, {28, 43, 3, 770}, {30, 45, 1, 770}, {31, 46, 3, 770}, {32, 47, 3, 770}, {33, 48, 1, 770}, {21, 37, 1, 771}, {23, 39, 3, 771}, {24, 40, 3, 771}, {26, 42, 3, 771}, {27, 43, 6, 771}, {28, 44, 3, 771}, {30, 46, 1, 771}, {31, 47, 3, 771}, {32, 48, 3, 771}, {33, 49, 1, 771}, {21, 38, 1, 772}, {23, 41, 3, 772}, {24, 42, 3, 772}, {26, 45, 3, 772}, {27, 46, 6, 772}, {28, 47, 3, 772}, {30, 50, 1, 772}, {31, 51, 3, 772}, {32, 52, 3, 772}, {33, 53, 1, 772}, {21, 39, 1, 773}, {23, 42, 3, 773}, {24, 43, 3, 773}, {26, 46, 3, 773}, {27, 47, 6, 773}, {28, 48, 3, 773}, {30, 51, 1, 773}, {31, 52, 3, 773}, {32, 53, 3, 773}, {33, 54, 1, 773}, {21, 40, 1, 774}, {23, 43, 3, 774}, {24, 44, 3, 774}, {26, 47, 3, 774}, {27, 48, 6, 774}, {28, 49, 3, 774}, {30, 52, 1, 774}, {31, 53, 3, 774}, {32, 54, 3, 774}, {33, 55, 1, 774}, {22, 35, 1, 775}, {24, 36, 3, 775}, {25, 37, 3, 775}, {27, 38, 3, 775}, {28, 39, 6, 775}, {29, 40, 3, 775}, {31, 41, 1, 775}, {32, 42, 3, 775}, {33, 43, 3, 775}, {34, 44, 1, 775}, {22, 36, 1, 776}, {24, 38, 3, 776}, {25, 39, 3, 776}, {27, 41, 3, 776}, {28, 42, 6, 776}, {29, 43, 3, 776}, {31, 45, 1, 776}, {32, 46, 3, 776}, {33, 47, 3, 776}, {34, 48, 1, 776}, {22, 37, 1, 777}, {24, 39, 3, 777}, {25, 40, 3, 777}, {27, 42, 3, 777}, {28, 43, 6, 777}, {29, 44, 3, 777}, {31, 46, 1, 777}, {32, 47, 3, 777}, {33, 48, 3, 777}, {34, 49, 1, 777}, {22, 38, 1, 778}, {24, 41, 3, 778}, {25, 42, 3, 778}, {27, 45, 3, 778}, {28, 46, 6, 778}, {29, 47, 3, 778}, {31, 50, 1, 778}, {32, 51, 3, 778}, {33, 52, 3, 778}, {34, 53, 1, 778}, {22, 39, 1, 779}, {24, 42, 3, 779}, {25, 43, 3, 779}, {27, 46, 3, 779}, {28, 47, 6, 779}, {29, 48, 3, 779}, {31, 51, 1, 779}, {32, 52, 3, 779}, {33, 53, 3, 779}, {34, 54, 1, 779}, {22, 40, 1, 780}, {24, 43, 3, 780}, {25, 44, 3, 780}, {27, 47, 3, 780}, {28, 48, 6, 780}, {29, 49, 3, 780}, {31, 52, 1, 780}, {32, 53, 3, 780}, {33, 54, 3, 780}, {34, 55, 1, 780}, {20, 56, 1, 781}, {21, 57, 3, 781}, {22, 58, 3, 781}, {23, 59, 3, 781}, {24, 60, 6, 781}, {25, 61, 3, 781}, {26, 62, 1, 781}, {27, 63, 3, 781}, {28, 64, 3, 781}, {29, 65, 1, 781}, {20, 57, 1, 782}, {21, 59, 3, 782}, {22, 60, 3, 782}, {23, 62, 3, 782}, {24, 63, 6, 782}, {25, 64, 3, 782}, {26, 66, 1, 782}, {27, 67, 3, 782}, {28, 68, 3, 782}, {29, 69, 1, 782}, {20, 58, 1, 783}, {21, 60, 3, 783}, {22, 61, 3, 783}, {23, 63, 3, 783}, {24, 64, 6, 783}, {25, 65, 3, 783}, {26, 67, 1, 783}, {27, 68, 3, 783}, {28, 69, 3, 783}, {29, 70, 1, 783}, {20, 59, 1, 784}, {21, 62, 3, 784}, {22, 63, 3, 784}, {23, 66, 3, 784}, {24, 67, 6, 784}, {25, 68, 3, 784}, {26, 71, 1, 784}, {27, 72, 3, 784}, {28, 73, 3, 784}, {29, 74, 1, 784}, {20, 60, 1, 785}, {21, 63, 3, 785}, {22, 64, 3, 785}, {23, 67, 3, 785}, {24, 68, 6, 785}, {25, 69, 3, 785}, {26, 72, 1, 785}, {27, 73, 3, 785}, {28, 74, 3, 785}, {29, 75, 1, 785}, {20, 61, 1, 786}, {21, 64, 3, 786}, {22, 65, 3, 786}, {23, 68, 3, 786}, {24, 69, 6, 786}, {25, 70, 3, 786}, {26, 73, 1, 786}, {27, 74, 3, 786}, {28, 75, 3, 786}, {29, 76, 1, 786}, {20, 62, 1, 787}, {21, 66, 3, 787}, {22, 67, 3, 787}, {23, 71, 3, 787}, {24, 72, 6, 787}, {25, 73, 3, 787}, {26, 77, 1, 787}, {27, 78, 3, 787}, {28, 79, 3, 787}, {29, 80, 1, 787}, {20, 63, 1, 788}, {21, 67, 3, 788}, {22, 68, 3, 788}, {23, 72, 3, 788}, {24, 73, 6, 788}, {25, 74, 3, 788}, {26, 78, 1, 788}, {27, 79, 3, 788}, {28, 80, 3, 788}, {29, 81, 1, 788}, {20, 64, 1, 789}, {21, 68, 3, 789}, {22, 69, 3, 789}, {23, 73, 3, 789}, {24, 74, 6, 789}, {25, 75, 3, 789}, {26, 79, 1, 789}, {27, 80, 3, 789}, {28, 81, 3, 789}, {29, 82, 1, 789}, {20, 65, 1, 790}, {21, 69, 3, 790}, {22, 70, 3, 790}, {23, 74, 3, 790}, {24, 75, 6, 790}, {25, 76, 3, 790}, {26, 80, 1, 790}, {27, 81, 3, 790}, {28, 82, 3, 790}, {29, 83, 1, 790}, {21, 56, 1, 791}, {23, 57, 3, 791}, {24, 58, 3, 791}, {26, 59, 3, 791}, {27, 60, 6, 791}, {28, 61, 3, 791}, {30, 62, 1, 791}, {31, 63, 3, 791}, {32, 64, 3, 791}, {33, 65, 1, 791}, {21, 57, 1, 792}, {23, 59, 3, 792}, {24, 60, 3, 792}, {26, 62, 3, 792}, {27, 63, 6, 792}, {28, 64, 3, 792}, {30, 66, 1, 792}, {31, 67, 3, 792}, {32, 68, 3, 792}, {33, 69, 1, 792}, {21, 58, 1, 793}, {23, 60, 3, 793}, {24, 61, 3, 793}, {26, 63, 3, 793}, {27, 64, 6, 793}, {28, 65, 3, 793}, {30, 67, 1, 793}, {31, 68, 3, 793}, {32, 69, 3, 793}, {33, 70, 1, 793}, {21, 59, 1, 794}, {23, 62, 3, 794}, {24, 63, 3, 794}, {26, 66, 3, 794}, {27, 67, 6, 794}, {28, 68, 3, 794}, {30, 71, 1, 794}, {31, 72, 3, 794}, {32, 73, 3, 794}, {33, 74, 1, 794}, {21, 60, 1, 795}, {23, 63, 3, 795}, {24, 64, 3, 795}, {26, 67, 3, 795}, {27, 68, 6, 795}, {28, 69, 3, 795}, {30, 72, 1, 795}, {31, 73, 3, 795}, {32, 74, 3, 795}, {33, 75, 1, 795}, {21, 61, 1, 796}, {23, 64, 3, 796}, {24, 65, 3, 796}, {26, 68, 3, 796}, {27, 69, 6, 796}, {28, 70, 3, 796}, {30, 73, 1, 796}, {31, 74, 3, 796}, {32, 75, 3, 796}, {33, 76, 1, 796}, {21, 62, 1, 797}, {23, 66, 3, 797}, {24, 67, 3, 797}, {26, 71, 3, 797}, {27, 72, 6, 797}, {28, 73, 3, 797}, {30, 77, 1, 797}, {31, 78, 3, 797}, {32, 79, 3, 797}, {33, 80, 1, 797}, {21, 63, 1, 798}, {23, 67, 3, 798}, {24, 68, 3, 798}, {26, 72, 3, 798}, {27, 73, 6, 798}, {28, 74, 3, 798}, {30, 78, 1, 798}, {31, 79, 3, 798}, {32, 80, 3, 798}, {33, 81, 1, 798}, {21, 64, 1, 799}, {23, 68, 3, 799}, {24, 69, 3, 799}, {26, 73, 3, 799}, {27, 74, 6, 799}, {28, 75, 3, 799}, {30, 79, 1, 799}, {31, 80, 3, 799}, {32, 81, 3, 799}, {33, 82, 1, 799}, {21, 65, 1, 800}, {23, 69, 3, 800}, {24, 70, 3, 800}, {26, 74, 3, 800}, {27, 75, 6, 800}, {28, 76, 3, 800}, {30, 80, 1, 800}, {31, 81, 3, 800}, {32, 82, 3, 800}, {33, 83, 1, 800}, {22, 56, 1, 801}, {24, 57, 3, 801}, {25, 58, 3, 801}, {27, 59, 3, 801}, {28, 60, 6, 801}, {29, 61, 3, 801}, {31, 62, 1, 801}, {32, 63, 3, 801}, {33, 64, 3, 801}, {34, 65, 1, 801}, {22, 57, 1, 802}, {24, 59, 3, 802}, {25, 60, 3, 802}, {27, 62, 3, 802}, {28, 63, 6, 802}, {29, 64, 3, 802}, {31, 66, 1, 802}, {32, 67, 3, 802}, {33, 68, 3, 802}, {34, 69, 1, 802}, {22, 58, 1, 803}, {24, 60, 3, 803}, {25, 61, 3, 803}, {27, 63, 3, 803}, {28, 64, 6, 803}, {29, 65, 3, 803}, {31, 67, 1, 803}, {32, 68, 3, 803}, {33, 69, 3, 803}, {34, 70, 1, 803}, {22, 59, 1, 804}, {24, 62, 3, 804}, {25, 63, 3, 804}, {27, 66, 3, 804}, {28, 67, 6, 804}, {29, 68, 3, 804}, {31, 71, 1, 804}, {32, 72, 3, 804}, {33, 73, 3, 804}, {34, 74, 1, 804}, {22, 60, 1, 805}, {24, 63, 3, 805}, {25, 64, 3, 805}, {27, 67, 3, 805}, {28, 68, 6, 805}, {29, 69, 3, 805}, {31, 72, 1, 805}, {32, 73, 3, 805}, {33, 74, 3, 805}, {34, 75, 1, 805}, {22, 61, 1, 806}, {24, 64, 3, 806}, {25, 65, 3, 806}, {27, 68, 3, 806}, {28, 69, 6, 806}, {29, 70, 3, 806}, {31, 73, 1, 806}, {32, 74, 3, 806}, {33, 75, 3, 806}, {34, 76, 1, 806}, {22, 62, 1, 807}, {24, 66, 3, 807}, {25, 67, 3, 807}, {27, 71, 3, 807}, {28, 72, 6, 807}, {29, 73, 3, 807}, {31, 77, 1, 807}, {32, 78, 3, 807}, {33, 79, 3, 807}, {34, 80, 1, 807}, {22, 63, 1, 808}, {24, 67, 3, 808}, {25, 68, 3, 808}, {27, 72, 3, 808}, {28, 73, 6, 808}, {29, 74, 3, 808}, {31, 78, 1, 808}, {32, 79, 3, 808}, {33, 80, 3, 808}, {34, 81, 1, 808}, {22, 64, 1, 809}, {24, 68, 3, 809}, {25, 69, 3, 809}, {27, 73, 3, 809}, {28, 74, 6, 809}, {29, 75, 3, 809}, {31, 79, 1, 809}, {32, 80, 3, 809}, {33, 81, 3, 809}, {34, 82, 1, 809}, {22, 65, 1, 810}, {24, 69, 3, 810}, {25, 70, 3, 810}, {27, 74, 3, 810}, {28, 75, 6, 810}, {29, 76, 3, 810}, {31, 80, 1, 810}, {32, 81, 3, 810}, {33, 82, 3, 810}, {34, 83, 1, 810}, {20, 20, 1, 811}, {21, 21, 4, 811}, {22, 22, 4, 811}, {23, 23, 6, 811}, {24, 24, 12, 811}, {25, 25, 6, 811}, {26, 26, 4, 811}, {27, 27, 12, 811}, {28, 28, 12, 811}, {29, 29, 4, 811}, {30, 30, 1, 811}, {31, 31, 4, 811}, {32, 32, 6, 811}, {33, 33, 4, 811}, {34, 34, 1, 811}, {20, 35, 1, 812}, {21, 36, 4, 812}, {22, 37, 4, 812}, {23, 38, 6, 812}, {24, 39, 12, 812}, {25, 40, 6, 812}, {26, 41, 4, 812}, {27, 42, 12, 812}, {28, 43, 12, 812}, {29, 44, 4, 812}, {30, 45, 1, 812}, {31, 46, 4, 812}, {32, 47, 6, 812}, {33, 48, 4, 812}, {34, 49, 1, 812}, {20, 36, 1, 813}, {21, 38, 4, 813}, {22, 39, 4, 813}, {23, 41, 6, 813}, {24, 42, 12, 813}, {25, 43, 6, 813}, {26, 45, 4, 813}, {27, 46, 12, 813}, {28, 47, 12, 813}, {29, 48, 4, 813}, {30, 50, 1, 813}, {31, 51, 4, 813}, {32, 52, 6, 813}, {33, 53, 4, 813}, {34, 54, 1, 813}, {20, 37, 1, 814}, {21, 39, 4, 814}, {22, 40, 4, 814}, {23, 42, 6, 814}, {24, 43, 12, 814}, {25, 44, 6, 814}, {26, 46, 4, 814}, {27, 47, 12, 814}, {28, 48, 12, 814}, {29, 49, 4, 814}, {30, 51, 1, 814}, {31, 52, 4, 814}, {32, 53, 6, 814}, {33, 54, 4, 814}, {34, 55, 1, 814}, {20, 56, 1, 815}, {21, 57, 4, 815}, {22, 58, 4, 815}, {23, 59, 6, 815}, {24, 60, 12, 815}, {25, 61, 6, 815}, {26, 62, 4, 815}, {27, 63, 12, 815}, {28, 64, 12, 815}, {29, 65, 4, 815}, {30, 66, 1, 815}, {31, 67, 4, 815}, {32, 68, 6, 815}, {33, 69, 4, 815}, {34, 70, 1, 815}, {20, 57, 1, 816}, {21, 59, 4, 816}, {22, 60, 4, 816}, {23, 62, 6, 816}, {24, 63, 12, 816}, {25, 64, 6, 816}, {26, 66, 4, 816}, {27, 67, 12, 816}, {28, 68, 12, 816}, {29, 69, 4, 816}, {30, 71, 1, 816}, {31, 72, 4, 816}, {32, 73, 6, 816}, {33, 74, 4, 816}, {34, 75, 1, 816}, {20, 58, 1, 817}, {21, 60, 4, 817}, {22, 61, 4, 817}, {23, 63, 6, 817}, {24, 64, 12, 817}, {25, 65, 6, 817}, {26, 67, 4, 817}, {27, 68, 12, 817}, {28, 69, 12, 817}, {29, 70, 4, 817}, {30, 72, 1, 817}, {31, 73, 4, 817}, {32, 74, 6, 817}, {33, 75, 4, 817}, {34, 76, 1, 817}, {20, 59, 1, 818}, {21, 62, 4, 818}, {22, 63, 4, 818}, {23, 66, 6, 818}, {24, 67, 12, 818}, {25, 68, 6, 818}, {26, 71, 4, 818}, {27, 72, 12, 818}, {28, 73, 12, 818}, {29, 74, 4, 818}, {30, 77, 1, 818}, {31, 78, 4, 818}, {32, 79, 6, 818}, {33, 80, 4, 818}, {34, 81, 1, 818}, {20, 60, 1, 819}, {21, 63, 4, 819}, {22, 64, 4, 819}, {23, 67, 6, 819}, {24, 68, 12, 819}, {25, 69, 6, 819}, {26, 72, 4, 819}, {27, 73, 12, 819}, {28, 74, 12, 819}, {29, 75, 4, 819}, {30, 78, 1, 819}, {31, 79, 4, 819}, {32, 80, 6, 819}, {33, 81, 4, 819}, {34, 82, 1, 819}, {20, 61, 1, 820}, {21, 64, 4, 820}, {22, 65, 4, 820}, {23, 68, 6, 820}, {24, 69, 12, 820}, {25, 70, 6, 820}, {26, 73, 4, 820}, {27, 74, 12, 820}, {28, 75, 12, 820}, {29, 76, 4, 820}, {30, 79, 1, 820}, {31, 80, 4, 820}, {32, 81, 6, 820}, {33, 82, 4, 820}, {34, 83, 1, 820}, {20, 84, 1, 821}, {21, 85, 4, 821}, {22, 86, 4, 821}, {23, 87, 6, 821}, {24, 88, 12, 821}, {25, 89, 6, 821}, {26, 90, 4, 821}, {27, 91, 12, 821}, {28, 92, 12, 821}, {29, 93, 4, 821}, {30, 94, 1, 821}, {31, 95, 4, 821}, {32, 96, 6, 821}, {33, 97, 4, 821}, {34, 98, 1, 821}, {20, 85, 1, 822}, {21, 87, 4, 822}, {22, 88, 4, 822}, {23, 90, 6, 822}, {24, 91, 12, 822}, {25, 92, 6, 822}, {26, 94, 4, 822}, {27, 95, 12, 822}, {28, 96, 12, 822}, {29, 97, 4, 822}, {30, 99, 1, 822}, {31, 100, 4, 822}, {32, 101, 6, 822}, {33, 102, 4, 822}, {34, 103, 1, 822}, {20, 86, 1, 823}, {21, 88, 4, 823}, {22, 89, 4, 823}, {23, 91, 6, 823}, {24, 92, 12, 823}, {25, 93, 6, 823}, {26, 95, 4, 823}, {27, 96, 12, 823}, {28, 97, 12, 823}, {29, 98, 4, 823}, {30, 100, 1, 823}, {31, 101, 4, 823}, {32, 102, 6, 823}, {33, 103, 4, 823}, {34, 104, 1, 823}, {20, 87, 1, 824}, {21, 90, 4, 824}, {22, 91, 4, 824}, {23, 94, 6, 824}, {24, 95, 12, 824}, {25, 96, 6, 824}, {26, 99, 4, 824}, {27, 100, 12, 824}, {28, 101, 12, 824}, {29, 102, 4, 824}, {30, 105, 1, 824}, {31, 106, 4, 824}, {32, 107, 6, 824}, {33, 108, 4, 824}, {34, 109, 1, 824}, {20, 88, 1, 825}, {21, 91, 4, 825}, {22, 92, 4, 825}, {23, 95, 6, 825}, {24, 96, 12, 825}, {25, 97, 6, 825}, {26, 100, 4, 825}, {27, 101, 12, 825}, {28, 102, 12, 825}, {29, 103, 4, 825}, {30, 106, 1, 825}, {31, 107, 4, 825}, {32, 108, 6, 825}, {33, 109, 4, 825}, {34, 110, 1, 825}, {20, 89, 1, 826}, {21, 92, 4, 826}, {22, 93, 4, 826}, {23, 96, 6, 826}, {24, 97, 12, 826}, {25, 98, 6, 826}, {26, 101, 4, 826}, {27, 102, 12, 826}, {28, 103, 12, 826}, {29, 104, 4, 826}, {30, 107, 1, 826}, {31, 108, 4, 826}, {32, 109, 6, 826}, {33, 110, 4, 826}, {34, 111, 1, 826}, {20, 90, 1, 827}, {21, 94, 4, 827}, {22, 95, 4, 827}, {23, 99, 6, 827}, {24, 100, 12, 827}, {25, 101, 6, 827}, {26, 105, 4, 827}, {27, 106, 12, 827}, {28, 107, 12, 827}, {29, 108, 4, 827}, {30, 112, 1, 827}, {31, 113, 4, 827}, {32, 114, 6, 827}, {33, 115, 4, 827}, {34, 116, 1, 827}, {20, 91, 1, 828}, {21, 95, 4, 828}, {22, 96, 4, 828}, {23, 100, 6, 828}, {24, 101, 12, 828}, {25, 102, 6, 828}, {26, 106, 4, 828}, {27, 107, 12, 828}, {28, 108, 12, 828}, {29, 109, 4, 828}, {30, 113, 1, 828}, {31, 114, 4, 828}, {32, 115, 6, 828}, {33, 116, 4, 828}, {34, 117, 1, 828}, {20, 92, 1, 829}, {21, 96, 4, 829}, {22, 97, 4, 829}, {23, 101, 6, 829}, {24, 102, 12, 829}, {25, 103, 6, 829}, {26, 107, 4, 829}, {27, 108, 12, 829}, {28, 109, 12, 829}, {29, 110, 4, 829}, {30, 114, 1, 829}, {31, 115, 4, 829}, {32, 116, 6, 829}, {33, 117, 4, 829}, {34, 118, 1, 829}, {20, 93, 1, 830}, {21, 97, 4, 830}, {22, 98, 4, 830}, {23, 102, 6, 830}, {24, 103, 12, 830}, {25, 104, 6, 830}, {26, 108, 4, 830}, {27, 109, 12, 830}, {28, 110, 12, 830}, {29, 111, 4, 830}, {30, 115, 1, 830}, {31, 116, 4, 830}, {32, 117, 6, 830}, {33, 118, 4, 830}, {34, 119, 1, 830}, {20, 120, 1, 831}, {21, 121, 4, 831}, {22, 122, 4, 831}, {23, 123, 6, 831}, {24, 124, 12, 831}, {25, 125, 6, 831}, {26, 126, 4, 831}, {27, 127, 12, 831}, {28, 128, 12, 831}, {29, 129, 4, 831}, {30, 130, 1, 831}, {31, 131, 4, 831}, {32, 132, 6, 831}, {33, 133, 4, 831}, {34, 134, 1, 831}, {20, 121, 1, 832}, {21, 123, 4, 832}, {22, 124, 4, 832}, {23, 126, 6, 832}, {24, 127, 12, 832}, {25, 128, 6, 832}, {26, 130, 4, 832}, {27, 131, 12, 832}, {28, 132, 12, 832}, {29, 133, 4, 832}, {30, 135, 1, 832}, {31, 136, 4, 832}, {32, 137, 6, 832}, {33, 138, 4, 832}, {34, 139, 1, 832}, {20, 122, 1, 833}, {21, 124, 4, 833}, {22, 125, 4, 833}, {23, 127, 6, 833}, {24, 128, 12, 833}, {25, 129, 6, 833}, {26, 131, 4, 833}, {27, 132, 12, 833}, {28, 133, 12, 833}, {29, 134, 4, 833}, {30, 136, 1, 833}, {31, 137, 4, 833}, {32, 138, 6, 833}, {33, 139, 4, 833}, {34, 140, 1, 833}, {20, 123, 1, 834}, {21, 126, 4, 834}, {22, 127, 4, 834}, {23, 130, 6, 834}, {24, 131, 12, 834}, {25, 132, 6, 834}, {26, 135, 4, 834}, {27, 136, 12, 834}, {28, 137, 12, 834}, {29, 138, 4, 834}, {30, 141, 1, 834}, {31, 142, 4, 834}, {32, 143, 6, 834}, {33, 144, 4, 834}, {34, 145, 1, 834}, {20, 124, 1, 835}, {21, 127, 4, 835}, {22, 128, 4, 835}, {23, 131, 6, 835}, {24, 132, 12, 835}, {25, 133, 6, 835}, {26, 136, 4, 835}, {27, 137, 12, 835}, {28, 138, 12, 835}, {29, 139, 4, 835}, {30, 142, 1, 835}, {31, 143, 4, 835}, {32, 144, 6, 835}, {33, 145, 4, 835}, {34, 146, 1, 835}, {20, 125, 1, 836}, {21, 128, 4, 836}, {22, 129, 4, 836}, {23, 132, 6, 836}, {24, 133, 12, 836}, {25, 134, 6, 836}, {26, 137, 4, 836}, {27, 138, 12, 836}, {28, 139, 12, 836}, {29, 140, 4, 836}, {30, 143, 1, 836}, {31, 144, 4, 836}, {32, 145, 6, 836}, {33, 146, 4, 836}, {34, 147, 1, 836}, {20, 126, 1, 837}, {21, 130, 4, 837}, {22, 131, 4, 837}, {23, 135, 6, 837}, {24, 136, 12, 837}, {25, 137, 6, 837}, {26, 141, 4, 837}, {27, 142, 12, 837}, {28, 143, 12, 837}, {29, 144, 4, 837}, {30, 148, 1, 837}, {31, 149, 4, 837}, {32, 150, 6, 837}, {33, 151, 4, 837}, {34, 152, 1, 837}, {20, 127, 1, 838}, {21, 131, 4, 838}, {22, 132, 4, 838}, {23, 136, 6, 838}, {24, 137, 12, 838}, {25, 138, 6, 838}, {26, 142, 4, 838}, {27, 143, 12, 838}, {28, 144, 12, 838}, {29, 145, 4, 838}, {30, 149, 1, 838}, {31, 150, 4, 838}, {32, 151, 6, 838}, {33, 152, 4, 838}, {34, 153, 1, 838}, {20, 128, 1, 839}, {21, 132, 4, 839}, {22, 133, 4, 839}, {23, 137, 6, 839}, {24, 138, 12, 839}, {25, 139, 6, 839}, {26, 143, 4, 839}, {27, 144, 12, 839}, {28, 145, 12, 839}, {29, 146, 4, 839}, {30, 150, 1, 839}, {31, 151, 4, 839}, {32, 152, 6, 839}, {33, 153, 4, 839}, {34, 154, 1, 839}, {20, 129, 1, 840}, {21, 133, 4, 840}, {22, 134, 4, 840}, {23, 138, 6, 840}, {24, 139, 12, 840}, {25, 140, 6, 840}, {26, 144, 4, 840}, {27, 145, 12, 840}, {28, 146, 12, 840}, {29, 147, 4, 840}, {30, 151, 1, 840}, {31, 152, 4, 840}, {32, 153, 6, 840}, {33, 154, 4, 840}, {34, 155, 1, 840}, {20, 130, 1, 841}, {21, 135, 4, 841}, {22, 136, 4, 841}, {23, 141, 6, 841}, {24, 142, 12, 841}, {25, 143, 6, 841}, {26, 148, 4, 841}, {27, 149, 12, 841}, {28, 150, 12, 841}, {29, 151, 4, 841}, {30, 156, 1, 841}, {31, 157, 4, 841}, {32, 158, 6, 841}, {33, 159, 4, 841}, {34, 160, 1, 841}, {20, 131, 1, 842}, {21, 136, 4, 842}, {22, 137, 4, 842}, {23, 142, 6, 842}, {24, 143, 12, 842}, {25, 144, 6, 842}, {26, 149, 4, 842}, {27, 150, 12, 842}, {28, 151, 12, 842}, {29, 152, 4, 842}, {30, 157, 1, 842}, {31, 158, 4, 842}, {32, 159, 6, 842}, {33, 160, 4, 842}, {34, 161, 1, 842}, {20, 132, 1, 843}, {21, 137, 4, 843}, {22, 138, 4, 843}, {23, 143, 6, 843}, {24, 144, 12, 843}, {25, 145, 6, 843}, {26, 150, 4, 843}, {27, 151, 12, 843}, {28, 152, 12, 843}, {29, 153, 4, 843}, {30, 158, 1, 843}, {31, 159, 4, 843}, {32, 160, 6, 843}, {33, 161, 4, 843}, {34, 162, 1, 843}, {20, 133, 1, 844}, {21, 138, 4, 844}, {22, 139, 4, 844}, {23, 144, 6, 844}, {24, 145, 12, 844}, {25, 146, 6, 844}, {26, 151, 4, 844}, {27, 152, 12, 844}, {28, 153, 12, 844}, {29, 154, 4, 844}, {30, 159, 1, 844}, {31, 160, 4, 844}, {32, 161, 6, 844}, {33, 162, 4, 844}, {34, 163, 1, 844}, {20, 134, 1, 845}, {21, 139, 4, 845}, {22, 140, 4, 845}, {23, 145, 6, 845}, {24, 146, 12, 845}, {25, 147, 6, 845}, {26, 152, 4, 845}, {27, 153, 12, 845}, {28, 154, 12, 845}, {29, 155, 4, 845}, {30, 160, 1, 845}, {31, 161, 4, 845}, {32, 162, 6, 845}, {33, 163, 4, 845}, {34, 164, 1, 845}, {35, 35, 1, 846}, {36, 36, 3, 846}, {37, 37, 3, 846}, {38, 38, 3, 846}, {39, 39, 6, 846}, {40, 40, 3, 846}, {41, 41, 1, 846}, {42, 42, 3, 846}, {43, 43, 3, 846}, {44, 44, 1, 846}, {35, 36, 1, 847}, {36, 38, 3, 847}, {37, 39, 3, 847}, {38, 41, 3, 847}, {39, 42, 6, 847}, {40, 43, 3, 847}, {41, 45, 1, 847}, {42, 46, 3, 847}, {43, 47, 3, 847}, {44, 48, 1, 847}, {35, 37, 1, 848}, {36, 39, 3, 848}, {37, 40, 3, 848}, {38, 42, 3, 848}, {39, 43, 6, 848}, {40, 44, 3, 848}, {41, 46, 1, 848}, {42, 47, 3, 848}, {43, 48, 3, 848}, {44, 49, 1, 848}, {35, 38, 1, 849}, {36, 41, 3, 849}, {37, 42, 3, 849}, {38, 45, 3, 849}, {39, 46, 6, 849}, {40, 47, 3, 849}, {41, 50, 1, 849}, {42, 51, 3, 849}, {43, 52, 3, 849}, {44, 53, 1, 849}, {35, 39, 1, 850}, {36, 42, 3, 850}, {37, 43, 3, 850}, {38, 46, 3, 850}, {39, 47, 6, 850}, {40, 48, 3, 850}, {41, 51, 1, 850}, {42, 52, 3, 850}, {43, 53, 3, 850}, {44, 54, 1, 850}, {35, 40, 1, 851}, {36, 43, 3, 851}, {37, 44, 3, 851}, {38, 47, 3, 851}, {39, 48, 6, 851}, {40, 49, 3, 851}, {41, 52, 1, 851}, {42, 53, 3, 851}, {43, 54, 3, 851}, {44, 55, 1, 851}, {36, 36, 1, 852}, {38, 38, 3, 852}, {39, 39, 3, 852}, {41, 41, 3, 852}, {42, 42, 6, 852}, {43, 43, 3, 852}, {45, 45, 1, 852}, {46, 46, 3, 852}, {47, 47, 3, 852}, {48, 48, 1, 852}, {36, 37, 1, 853}, {38, 39, 3, 853}, {39, 40, 3, 853}, {41, 42, 3, 853}, {42, 43, 6, 853}, {43, 44, 3, 853}, {45, 46, 1, 853}, {46, 47, 3, 853}, {47, 48, 3, 853}, {48, 49, 1, 853}, {36, 38, 1, 854}, {38, 41, 3, 854}, {39, 42, 3, 854}, {41, 45, 3, 854}, {42, 46, 6, 854}, {43, 47, 3, 854}, {45, 50, 1, 854}, {46, 51, 3, 854}, {47, 52, 3, 854}, {48, 53, 1, 854}, {36, 39, 1, 855}, {38, 42, 3, 855}, {39, 43, 3, 855}, {41, 46, 3, 855}, {42, 47, 6, 855}, {43, 48, 3, 855}, {45, 51, 1, 855}, {46, 52, 3, 855}, {47, 53, 3, 855}, {48, 54, 1, 855}, {36, 40, 1, 856}, {38, 43, 3, 856}, {39, 44, 3, 856}, {41, 47, 3, 856}, {42, 48, 6, 856}, {43, 49, 3, 856}, {45, 52, 1, 856}, {46, 53, 3, 856}, {47, 54, 3, 856}, {48, 55, 1, 856}, {37, 37, 1, 857}, {39, 39, 3, 857}, {40, 40, 3, 857}, {42, 42, 3, 857}, {43, 43, 6, 857}, {44, 44, 3, 857}, {46, 46, 1, 857}, {47, 47, 3, 857}, {48, 48, 3, 857}, {49, 49, 1, 857}, {37, 38, 1, 858}, {39, 41, 3, 858}, {40, 42, 3, 858}, {42, 45, 3, 858}, {43, 46, 6, 858}, {44, 47, 3, 858}, {46, 50, 1, 858}, {47, 51, 3, 858}, {48, 52, 3, 858}, {49, 53, 1, 858}, {37, 39, 1, 859}, {39, 42, 3, 859}, {40, 43, 3, 859}, {42, 46, 3, 859}, {43, 47, 6, 859}, {44, 48, 3, 859}, {46, 51, 1, 859}, {47, 52, 3, 859}, {48, 53, 3, 859}, {49, 54, 1, 859}, {37, 40, 1, 860}, {39, 43, 3, 860}, {40, 44, 3, 860}, {42, 47, 3, 860}, {43, 48, 6, 860}, {44, 49, 3, 860}, {46, 52, 1, 860}, {47, 53, 3, 860}, {48, 54, 3, 860}, {49, 55, 1, 860}, {38, 38, 1, 861}, {41, 41, 3, 861}, {42, 42, 3, 861}, {45, 45, 3, 861}, {46, 46, 6, 861}, {47, 47, 3, 861}, {50, 50, 1, 861}, {51, 51, 3, 861}, {52, 52, 3, 861}, {53, 53, 1, 861}, {38, 39, 1, 862}, {41, 42, 3, 862}, {42, 43, 3, 862}, {45, 46, 3, 862}, {46, 47, 6, 862}, {47, 48, 3, 862}, {50, 51, 1, 862}, {51, 52, 3, 862}, {52, 53, 3, 862}, {53, 54, 1, 862}, {38, 40, 1, 863}, {41, 43, 3, 863}, {42, 44, 3, 863}, {45, 47, 3, 863}, {46, 48, 6, 863}, {47, 49, 3, 863}, {50, 52, 1, 863}, {51, 53, 3, 863}, {52, 54, 3, 863}, {53, 55, 1, 863}, {39, 39, 1, 864}, {42, 42, 3, 864}, {43, 43, 3, 864}, {46, 46, 3, 864}, {47, 47, 6, 864}, {48, 48, 3, 864}, {51, 51, 1, 864}, {52, 52, 3, 864}, {53, 53, 3, 864}, {54, 54, 1, 864}, {39, 40, 1, 865}, {42, 43, 3, 865}, {43, 44, 3, 865}, {46, 47, 3, 865}, {47, 48, 6, 865}, {48, 49, 3, 865}, {51, 52, 1, 865}, {52, 53, 3, 865}, {53, 54, 3, 865}, {54, 55, 1, 865}, {40, 40, 1, 866}, {43, 43, 3, 866}, {44, 44, 3, 866}, {47, 47, 3, 866}, {48, 48, 6, 866}, {49, 49, 3, 866}, {52, 52, 1, 866}, {53, 53, 3, 866}, {54, 54, 3, 866}, {55, 55, 1, 866}, {35, 56, 1, 867}, {36, 57, 3, 867}, {37, 58, 3, 867}, {38, 59, 3, 867}, {39, 60, 6, 867}, {40, 61, 3, 867}, {41, 62, 1, 867}, {42, 63, 3, 867}, {43, 64, 3, 867}, {44, 65, 1, 867}, {35, 57, 1, 868}, {36, 59, 3, 868}, {37, 60, 3, 868}, {38, 62, 3, 868}, {39, 63, 6, 868}, {40, 64, 3, 868}, {41, 66, 1, 868}, {42, 67, 3, 868}, {43, 68, 3, 868}, {44, 69, 1, 868}, {35, 58, 1, 869}, {36, 60, 3, 869}, {37, 61, 3, 869}, {38, 63, 3, 869}, {39, 64, 6, 869}, {40, 65, 3, 869}, {41, 67, 1, 869}, {42, 68, 3, 869}, {43, 69, 3, 869}, {44, 70, 1, 869}, {35, 59, 1, 870}, {36, 62, 3, 870}, {37, 63, 3, 870}, {38, 66, 3, 870}, {39, 67, 6, 870}, {40, 68, 3, 870}, {41, 71, 1, 870}, {42, 72, 3, 870}, {43, 73, 3, 870}, {44, 74, 1, 870}, {35, 60, 1, 871}, {36, 63, 3, 871}, {37, 64, 3, 871}, {38, 67, 3, 871}, {39, 68, 6, 871}, {40, 69, 3, 871}, {41, 72, 1, 871}, {42, 73, 3, 871}, {43, 74, 3, 871}, {44, 75, 1, 871}, {35, 61, 1, 872}, {36, 64, 3, 872}, {37, 65, 3, 872}, {38, 68, 3, 872}, {39, 69, 6, 872}, {40, 70, 3, 872}, {41, 73, 1, 872}, {42, 74, 3, 872}, {43, 75, 3, 872}, {44, 76, 1, 872}, {35, 62, 1, 873}, {36, 66, 3, 873}, {37, 67, 3, 873}, {38, 71, 3, 873}, {39, 72, 6, 873}, {40, 73, 3, 873}, {41, 77, 1, 873}, {42, 78, 3, 873}, {43, 79, 3, 873}, {44, 80, 1, 873}, {35, 63, 1, 874}, {36, 67, 3, 874}, {37, 68, 3, 874}, {38, 72, 3, 874}, {39, 73, 6, 874}, {40, 74, 3, 874}, {41, 78, 1, 874}, {42, 79, 3, 874}, {43, 80, 3, 874}, {44, 81, 1, 874}, {35, 64, 1, 875}, {36, 68, 3, 875}, {37, 69, 3, 875}, {38, 73, 3, 875}, {39, 74, 6, 875}, {40, 75, 3, 875}, {41, 79, 1, 875}, {42, 80, 3, 875}, {43, 81, 3, 875}, {44, 82, 1, 875}, {35, 65, 1, 876}, {36, 69, 3, 876}, {37, 70, 3, 876}, {38, 74, 3, 876}, {39, 75, 6, 876}, {40, 76, 3, 876}, {41, 80, 1, 876}, {42, 81, 3, 876}, {43, 82, 3, 876}, {44, 83, 1, 876}, {36, 56, 1, 877}, {38, 57, 3, 877}, {39, 58, 3, 877}, {41, 59, 3, 877}, {42, 60, 6, 877}, {43, 61, 3, 877}, {45, 62, 1, 877}, {46, 63, 3, 877}, {47, 64, 3, 877}, {48, 65, 1, 877}, {36, 57, 1, 878}, {38, 59, 3, 878}, {39, 60, 3, 878}, {41, 62, 3, 878}, {42, 63, 6, 878}, {43, 64, 3, 878}, {45, 66, 1, 878}, {46, 67, 3, 878}, {47, 68, 3, 878}, {48, 69, 1, 878}, {36, 58, 1, 879}, {38, 60, 3, 879}, {39, 61, 3, 879}, {41, 63, 3, 879}, {42, 64, 6, 879}, {43, 65, 3, 879}, {45, 67, 1, 879}, {46, 68, 3, 879}, {47, 69, 3, 879}, {48, 70, 1, 879}, {36, 59, 1, 880}, {38, 62, 3, 880}, {39, 63, 3, 880}, {41, 66, 3, 880}, {42, 67, 6, 880}, {43, 68, 3, 880}, {45, 71, 1, 880}, {46, 72, 3, 880}, {47, 73, 3, 880}, {48, 74, 1, 880}, {36, 60, 1, 881}, {38, 63, 3, 881}, {39, 64, 3, 881}, {41, 67, 3, 881}, {42, 68, 6, 881}, {43, 69, 3, 881}, {45, 72, 1, 881}, {46, 73, 3, 881}, {47, 74, 3, 881}, {48, 75, 1, 881}, {36, 61, 1, 882}, {38, 64, 3, 882}, {39, 65, 3, 882}, {41, 68, 3, 882}, {42, 69, 6, 882}, {43, 70, 3, 882}, {45, 73, 1, 882}, {46, 74, 3, 882}, {47, 75, 3, 882}, {48, 76, 1, 882}, {36, 62, 1, 883}, {38, 66, 3, 883}, {39, 67, 3, 883}, {41, 71, 3, 883}, {42, 72, 6, 883}, {43, 73, 3, 883}, {45, 77, 1, 883}, {46, 78, 3, 883}, {47, 79, 3, 883}, {48, 80, 1, 883}, {36, 63, 1, 884}, {38, 67, 3, 884}, {39, 68, 3, 884}, {41, 72, 3, 884}, {42, 73, 6, 884}, {43, 74, 3, 884}, {45, 78, 1, 884}, {46, 79, 3, 884}, {47, 80, 3, 884}, {48, 81, 1, 884}, {36, 64, 1, 885}, {38, 68, 3, 885}, {39, 69, 3, 885}, {41, 73, 3, 885}, {42, 74, 6, 885}, {43, 75, 3, 885}, {45, 79, 1, 885}, {46, 80, 3, 885}, {47, 81, 3, 885}, {48, 82, 1, 885}, {36, 65, 1, 886}, {38, 69, 3, 886}, {39, 70, 3, 886}, {41, 74, 3, 886}, {42, 75, 6, 886}, {43, 76, 3, 886}, {45, 80, 1, 886}, {46, 81, 3, 886}, {47, 82, 3, 886}, {48, 83, 1, 886}, {37, 56, 1, 887}, {39, 57, 3, 887}, {40, 58, 3, 887}, {42, 59, 3, 887}, {43, 60, 6, 887}, {44, 61, 3, 887}, {46, 62, 1, 887}, {47, 63, 3, 887}, {48, 64, 3, 887}, {49, 65, 1, 887}, {37, 57, 1, 888}, {39, 59, 3, 888}, {40, 60, 3, 888}, {42, 62, 3, 888}, {43, 63, 6, 888}, {44, 64, 3, 888}, {46, 66, 1, 888}, {47, 67, 3, 888}, {48, 68, 3, 888}, {49, 69, 1, 888}, {37, 58, 1, 889}, {39, 60, 3, 889}, {40, 61, 3, 889}, {42, 63, 3, 889}, {43, 64, 6, 889}, {44, 65, 3, 889}, {46, 67, 1, 889}, {47, 68, 3, 889}, {48, 69, 3, 889}, {49, 70, 1, 889}, {37, 59, 1, 890}, {39, 62, 3, 890}, {40, 63, 3, 890}, {42, 66, 3, 890}, {43, 67, 6, 890}, {44, 68, 3, 890}, {46, 71, 1, 890}, {47, 72, 3, 890}, {48, 73, 3, 890}, {49, 74, 1, 890}, {37, 60, 1, 891}, {39, 63, 3, 891}, {40, 64, 3, 891}, {42, 67, 3, 891}, {43, 68, 6, 891}, {44, 69, 3, 891}, {46, 72, 1, 891}, {47, 73, 3, 891}, {48, 74, 3, 891}, {49, 75, 1, 891}, {37, 61, 1, 892}, {39, 64, 3, 892}, {40, 65, 3, 892}, {42, 68, 3, 892}, {43, 69, 6, 892}, {44, 70, 3, 892}, {46, 73, 1, 892}, {47, 74, 3, 892}, {48, 75, 3, 892}, {49, 76, 1, 892}, {37, 62, 1, 893}, {39, 66, 3, 893}, {40, 67, 3, 893}, {42, 71, 3, 893}, {43, 72, 6, 893}, {44, 73, 3, 893}, {46, 77, 1, 893}, {47, 78, 3, 893}, {48, 79, 3, 893}, {49, 80, 1, 893}, {37, 63, 1, 894}, {39, 67, 3, 894}, {40, 68, 3, 894}, {42, 72, 3, 894}, {43, 73, 6, 894}, {44, 74, 3, 894}, {46, 78, 1, 894}, {47, 79, 3, 894}, {48, 80, 3, 894}, {49, 81, 1, 894}, {37, 64, 1, 895}, {39, 68, 3, 895}, {40, 69, 3, 895}, {42, 73, 3, 895}, {43, 74, 6, 895}, {44, 75, 3, 895}, {46, 79, 1, 895}, {47, 80, 3, 895}, {48, 81, 3, 895}, {49, 82, 1, 895}, {37, 65, 1, 896}, {39, 69, 3, 896}, {40, 70, 3, 896}, {42, 74, 3, 896}, {43, 75, 6, 896}, {44, 76, 3, 896}, {46, 80, 1, 896}, {47, 81, 3, 896}, {48, 82, 3, 896}, {49, 83, 1, 896}, {38, 56, 1, 897}, {41, 57, 3, 897}, {42, 58, 3, 897}, {45, 59, 3, 897}, {46, 60, 6, 897}, {47, 61, 3, 897}, {50, 62, 1, 897}, {51, 63, 3, 897}, {52, 64, 3, 897}, {53, 65, 1, 897}, {38, 57, 1, 898}, {41, 59, 3, 898}, {42, 60, 3, 898}, {45, 62, 3, 898}, {46, 63, 6, 898}, {47, 64, 3, 898}, {50, 66, 1, 898}, {51, 67, 3, 898}, {52, 68, 3, 898}, {53, 69, 1, 898}, {38, 58, 1, 899}, {41, 60, 3, 899}, {42, 61, 3, 899}, {45, 63, 3, 899}, {46, 64, 6, 899}, {47, 65, 3, 899}, {50, 67, 1, 899}, {51, 68, 3, 899}, {52, 69, 3, 899}, {53, 70, 1, 899}, {38, 59, 1, 900}, {41, 62, 3, 900}, {42, 63, 3, 900}, {45, 66, 3, 900}, {46, 67, 6, 900}, {47, 68, 3, 900}, {50, 71, 1, 900}, {51, 72, 3, 900}, {52, 73, 3, 900}, {53, 74, 1, 900}, {38, 60, 1, 901}, {41, 63, 3, 901}, {42, 64, 3, 901}, {45, 67, 3, 901}, {46, 68, 6, 901}, {47, 69, 3, 901}, {50, 72, 1, 901}, {51, 73, 3, 901}, {52, 74, 3, 901}, {53, 75, 1, 901}, {38, 61, 1, 902}, {41, 64, 3, 902}, {42, 65, 3, 902}, {45, 68, 3, 902}, {46, 69, 6, 902}, {47, 70, 3, 902}, {50, 73, 1, 902}, {51, 74, 3, 902}, {52, 75, 3, 902}, {53, 76, 1, 902}, {38, 62, 1, 903}, {41, 66, 3, 903}, {42, 67, 3, 903}, {45, 71, 3, 903}, {46, 72, 6, 903}, {47, 73, 3, 903}, {50, 77, 1, 903}, {51, 78, 3, 903}, {52, 79, 3, 903}, {53, 80, 1, 903}, {38, 63, 1, 904}, {41, 67, 3, 904}, {42, 68, 3, 904}, {45, 72, 3, 904}, {46, 73, 6, 904}, {47, 74, 3, 904}, {50, 78, 1, 904}, {51, 79, 3, 904}, {52, 80, 3, 904}, {53, 81, 1, 904}, {38, 64, 1, 905}, {41, 68, 3, 905}, {42, 69, 3, 905}, {45, 73, 3, 905}, {46, 74, 6, 905}, {47, 75, 3, 905}, {50, 79, 1, 905}, {51, 80, 3, 905}, {52, 81, 3, 905}, {53, 82, 1, 905}, {38, 65, 1, 906}, {41, 69, 3, 906}, {42, 70, 3, 906}, {45, 74, 3, 906}, {46, 75, 6, 906}, {47, 76, 3, 906}, {50, 80, 1, 906}, {51, 81, 3, 906}, {52, 82, 3, 906}, {53, 83, 1, 906}, {39, 56, 1, 907}, {42, 57, 3, 907}, {43, 58, 3, 907}, {46, 59, 3, 907}, {47, 60, 6, 907}, {48, 61, 3, 907}, {51, 62, 1, 907}, {52, 63, 3, 907}, {53, 64, 3, 907}, {54, 65, 1, 907}, {39, 57, 1, 908}, {42, 59, 3, 908}, {43, 60, 3, 908}, {46, 62, 3, 908}, {47, 63, 6, 908}, {48, 64, 3, 908}, {51, 66, 1, 908}, {52, 67, 3, 908}, {53, 68, 3, 908}, {54, 69, 1, 908}, {39, 58, 1, 909}, {42, 60, 3, 909}, {43, 61, 3, 909}, {46, 63, 3, 909}, {47, 64, 6, 909}, {48, 65, 3, 909}, {51, 67, 1, 909}, {52, 68, 3, 909}, {53, 69, 3, 909}, {54, 70, 1, 909}, {39, 59, 1, 910}, {42, 62, 3, 910}, {43, 63, 3, 910}, {46, 66, 3, 910}, {47, 67, 6, 910}, {48, 68, 3, 910}, {51, 71, 1, 910}, {52, 72, 3, 910}, {53, 73, 3, 910}, {54, 74, 1, 910}, {39, 60, 1, 911}, {42, 63, 3, 911}, {43, 64, 3, 911}, {46, 67, 3, 911}, {47, 68, 6, 911}, {48, 69, 3, 911}, {51, 72, 1, 911}, {52, 73, 3, 911}, {53, 74, 3, 911}, {54, 75, 1, 911}, {39, 61, 1, 912}, {42, 64, 3, 912}, {43, 65, 3, 912}, {46, 68, 3, 912}, {47, 69, 6, 912}, {48, 70, 3, 912}, {51, 73, 1, 912}, {52, 74, 3, 912}, {53, 75, 3, 912}, {54, 76, 1, 912}, {39, 62, 1, 913}, {42, 66, 3, 913}, {43, 67, 3, 913}, {46, 71, 3, 913}, {47, 72, 6, 913}, {48, 73, 3, 913}, {51, 77, 1, 913}, {52, 78, 3, 913}, {53, 79, 3, 913}, {54, 80, 1, 913}, {39, 63, 1, 914}, {42, 67, 3, 914}, {43, 68, 3, 914}, {46, 72, 3, 914}, {47, 73, 6, 914}, {48, 74, 3, 914}, {51, 78, 1, 914}, {52, 79, 3, 914}, {53, 80, 3, 914}, {54, 81, 1, 914}, {39, 64, 1, 915}, {42, 68, 3, 915}, {43, 69, 3, 915}, {46, 73, 3, 915}, {47, 74, 6, 915}, {48, 75, 3, 915}, {51, 79, 1, 915}, {52, 80, 3, 915}, {53, 81, 3, 915}, {54, 82, 1, 915}, {39, 65, 1, 916}, {42, 69, 3, 916}, {43, 70, 3, 916}, {46, 74, 3, 916}, {47, 75, 6, 916}, {48, 76, 3, 916}, {51, 80, 1, 916}, {52, 81, 3, 916}, {53, 82, 3, 916}, {54, 83, 1, 916}, {40, 56, 1, 917}, {43, 57, 3, 917}, {44, 58, 3, 917}, {47, 59, 3, 917}, {48, 60, 6, 917}, {49, 61, 3, 917}, {52, 62, 1, 917}, {53, 63, 3, 917}, {54, 64, 3, 917}, {55, 65, 1, 917}, {40, 57, 1, 918}, {43, 59, 3, 918}, {44, 60, 3, 918}, {47, 62, 3, 918}, {48, 63, 6, 918}, {49, 64, 3, 918}, {52, 66, 1, 918}, {53, 67, 3, 918}, {54, 68, 3, 918}, {55, 69, 1, 918}, {40, 58, 1, 919}, {43, 60, 3, 919}, {44, 61, 3, 919}, {47, 63, 3, 919}, {48, 64, 6, 919}, {49, 65, 3, 919}, {52, 67, 1, 919}, {53, 68, 3, 919}, {54, 69, 3, 919}, {55, 70, 1, 919}, {40, 59, 1, 920}, {43, 62, 3, 920}, {44, 63, 3, 920}, {47, 66, 3, 920}, {48, 67, 6, 920}, {49, 68, 3, 920}, {52, 71, 1, 920}, {53, 72, 3, 920}, {54, 73, 3, 920}, {55, 74, 1, 920}, {40, 60, 1, 921}, {43, 63, 3, 921}, {44, 64, 3, 921}, {47, 67, 3, 921}, {48, 68, 6, 921}, {49, 69, 3, 921}, {52, 72, 1, 921}, {53, 73, 3, 921}, {54, 74, 3, 921}, {55, 75, 1, 921}, {40, 61, 1, 922}, {43, 64, 3, 922}, {44, 65, 3, 922}, {47, 68, 3, 922}, {48, 69, 6, 922}, {49, 70, 3, 922}, {52, 73, 1, 922}, {53, 74, 3, 922}, {54, 75, 3, 922}, {55, 76, 1, 922}, {40, 62, 1, 923}, {43, 66, 3, 923}, {44, 67, 3, 923}, {47, 71, 3, 923}, {48, 72, 6, 923}, {49, 73, 3, 923}, {52, 77, 1, 923}, {53, 78, 3, 923}, {54, 79, 3, 923}, {55, 80, 1, 923}, {40, 63, 1, 924}, {43, 67, 3, 924}, {44, 68, 3, 924}, {47, 72, 3, 924}, {48, 73, 6, 924}, {49, 74, 3, 924}, {52, 78, 1, 924}, {53, 79, 3, 924}, {54, 80, 3, 924}, {55, 81, 1, 924}, {40, 64, 1, 925}, {43, 68, 3, 925}, {44, 69, 3, 925}, {47, 73, 3, 925}, {48, 74, 6, 925}, {49, 75, 3, 925}, {52, 79, 1, 925}, {53, 80, 3, 925}, {54, 81, 3, 925}, {55, 82, 1, 925}, {40, 65, 1, 926}, {43, 69, 3, 926}, {44, 70, 3, 926}, {47, 74, 3, 926}, {48, 75, 6, 926}, {49, 76, 3, 926}, {52, 80, 1, 926}, {53, 81, 3, 926}, {54, 82, 3, 926}, {55, 83, 1, 926}, {35, 35, 1, 927}, {36, 36, 4, 927}, {37, 37, 4, 927}, {38, 38, 6, 927}, {39, 39, 12, 927}, {40, 40, 6, 927}, {41, 41, 4, 927}, {42, 42, 12, 927}, {43, 43, 12, 927}, {44, 44, 4, 927}, {45, 45, 1, 927}, {46, 46, 4, 927}, {47, 47, 6, 927}, {48, 48, 4, 927}, {49, 49, 1, 927}, {35, 36, 1, 928}, {36, 38, 4, 928}, {37, 39, 4, 928}, {38, 41, 6, 928}, {39, 42, 12, 928}, {40, 43, 6, 928}, {41, 45, 4, 928}, {42, 46, 12, 928}, {43, 47, 12, 928}, {44, 48, 4, 928}, {45, 50, 1, 928}, {46, 51, 4, 928}, {47, 52, 6, 928}, {48, 53, 4, 928}, {49, 54, 1, 928}, {35, 37, 1, 929}, {36, 39, 4, 929}, {37, 40, 4, 929}, {38, 42, 6, 929}, {39, 43, 12, 929}, {40, 44, 6, 929}, {41, 46, 4, 929}, {42, 47, 12, 929}, {43, 48, 12, 929}, {44, 49, 4, 929}, {45, 51, 1, 929}, {46, 52, 4, 929}, {47, 53, 6, 929}, {48, 54, 4, 929}, {49, 55, 1, 929}, {36, 36, 1, 930}, {38, 38, 4, 930}, {39, 39, 4, 930}, {41, 41, 6, 930}, {42, 42, 12, 930}, {43, 43, 6, 930}, {45, 45, 4, 930}, {46, 46, 12, 930}, {47, 47, 12, 930}, {48, 48, 4, 930}, {50, 50, 1, 930}, {51, 51, 4, 930}, {52, 52, 6, 930}, {53, 53, 4, 930}, {54, 54, 1, 930}, {36, 37, 1, 931}, {38, 39, 4, 931}, {39, 40, 4, 931}, {41, 42, 6, 931}, {42, 43, 12, 931}, {43, 44, 6, 931}, {45, 46, 4, 931}, {46, 47, 12, 931}, {47, 48, 12, 931}, {48, 49, 4, 931}, {50, 51, 1, 931}, {51, 52, 4, 931}, {52, 53, 6, 931}, {53, 54, 4, 931}, {54, 55, 1, 931}, {37, 37, 1, 932}, {39, 39, 4, 932}, {40, 40, 4, 932}, {42, 42, 6, 932}, {43, 43, 12, 932}, {44, 44, 6, 932}, {46, 46, 4, 932}, {47, 47, 12, 932}, {48, 48, 12, 932}, {49, 49, 4, 932}, {51, 51, 1, 932}, {52, 52, 4, 932}, {53, 53, 6, 932}, {54, 54, 4, 932}, {55, 55, 1, 932}, {35, 56, 1, 933}, {36, 57, 4, 933}, {37, 58, 4, 933}, {38, 59, 6, 933}, {39, 60, 12, 933}, {40, 61, 6, 933}, {41, 62, 4, 933}, {42, 63, 12, 933}, {43, 64, 12, 933}, {44, 65, 4, 933}, {45, 66, 1, 933}, {46, 67, 4, 933}, {47, 68, 6, 933}, {48, 69, 4, 933}, {49, 70, 1, 933}, {35, 57, 1, 934}, {36, 59, 4, 934}, {37, 60, 4, 934}, {38, 62, 6, 934}, {39, 63, 12, 934}, {40, 64, 6, 934}, {41, 66, 4, 934}, {42, 67, 12, 934}, {43, 68, 12, 934}, {44, 69, 4, 934}, {45, 71, 1, 934}, {46, 72, 4, 934}, {47, 73, 6, 934}, {48, 74, 4, 934}, {49, 75, 1, 934}, {35, 58, 1, 935}, {36, 60, 4, 935}, {37, 61, 4, 935}, {38, 63, 6, 935}, {39, 64, 12, 935}, {40, 65, 6, 935}, {41, 67, 4, 935}, {42, 68, 12, 935}, {43, 69, 12, 935}, {44, 70, 4, 935}, {45, 72, 1, 935}, {46, 73, 4, 935}, {47, 74, 6, 935}, {48, 75, 4, 935}, {49, 76, 1, 935}, {35, 59, 1, 936}, {36, 62, 4, 936}, {37, 63, 4, 936}, {38, 66, 6, 936}, {39, 67, 12, 936}, {40, 68, 6, 936}, {41, 71, 4, 936}, {42, 72, 12, 936}, {43, 73, 12, 936}, {44, 74, 4, 936}, {45, 77, 1, 936}, {46, 78, 4, 936}, {47, 79, 6, 936}, {48, 80, 4, 936}, {49, 81, 1, 936}, {35, 60, 1, 937}, {36, 63, 4, 937}, {37, 64, 4, 937}, {38, 67, 6, 937}, {39, 68, 12, 937}, {40, 69, 6, 937}, {41, 72, 4, 937}, {42, 73, 12, 937}, {43, 74, 12, 937}, {44, 75, 4, 937}, {45, 78, 1, 937}, {46, 79, 4, 937}, {47, 80, 6, 937}, {48, 81, 4, 937}, {49, 82, 1, 937}, {35, 61, 1, 938}, {36, 64, 4, 938}, {37, 65, 4, 938}, {38, 68, 6, 938}, {39, 69, 12, 938}, {40, 70, 6, 938}, {41, 73, 4, 938}, {42, 74, 12, 938}, {43, 75, 12, 938}, {44, 76, 4, 938}, {45, 79, 1, 938}, {46, 80, 4, 938}, {47, 81, 6, 938}, {48, 82, 4, 938}, {49, 83, 1, 938}, {36, 56, 1, 939}, {38, 57, 4, 939}, {39, 58, 4, 939}, {41, 59, 6, 939}, {42, 60, 12, 939}, {43, 61, 6, 939}, {45, 62, 4, 939}, {46, 63, 12, 939}, {47, 64, 12, 939}, {48, 65, 4, 939}, {50, 66, 1, 939}, {51, 67, 4, 939}, {52, 68, 6, 939}, {53, 69, 4, 939}, {54, 70, 1, 939}, {36, 57, 1, 940}, {38, 59, 4, 940}, {39, 60, 4, 940}, {41, 62, 6, 940}, {42, 63, 12, 940}, {43, 64, 6, 940}, {45, 66, 4, 940}, {46, 67, 12, 940}, {47, 68, 12, 940}, {48, 69, 4, 940}, {50, 71, 1, 940}, {51, 72, 4, 940}, {52, 73, 6, 940}, {53, 74, 4, 940}, {54, 75, 1, 940}, {36, 58, 1, 941}, {38, 60, 4, 941}, {39, 61, 4, 941}, {41, 63, 6, 941}, {42, 64, 12, 941}, {43, 65, 6, 941}, {45, 67, 4, 941}, {46, 68, 12, 941}, {47, 69, 12, 941}, {48, 70, 4, 941}, {50, 72, 1, 941}, {51, 73, 4, 941}, {52, 74, 6, 941}, {53, 75, 4, 941}, {54, 76, 1, 941}, {36, 59, 1, 942}, {38, 62, 4, 942}, {39, 63, 4, 942}, {41, 66, 6, 942}, {42, 67, 12, 942}, {43, 68, 6, 942}, {45, 71, 4, 942}, {46, 72, 12, 942}, {47, 73, 12, 942}, {48, 74, 4, 942}, {50, 77, 1, 942}, {51, 78, 4, 942}, {52, 79, 6, 942}, {53, 80, 4, 942}, {54, 81, 1, 942}, {36, 60, 1, 943}, {38, 63, 4, 943}, {39, 64, 4, 943}, {41, 67, 6, 943}, {42, 68, 12, 943}, {43, 69, 6, 943}, {45, 72, 4, 943}, {46, 73, 12, 943}, {47, 74, 12, 943}, {48, 75, 4, 943}, {50, 78, 1, 943}, {51, 79, 4, 943}, {52, 80, 6, 943}, {53, 81, 4, 943}, {54, 82, 1, 943}, {36, 61, 1, 944}, {38, 64, 4, 944}, {39, 65, 4, 944}, {41, 68, 6, 944}, {42, 69, 12, 944}, {43, 70, 6, 944}, {45, 73, 4, 944}, {46, 74, 12, 944}, {47, 75, 12, 944}, {48, 76, 4, 944}, {50, 79, 1, 944}, {51, 80, 4, 944}, {52, 81, 6, 944}, {53, 82, 4, 944}, {54, 83, 1, 944}, {37, 56, 1, 945}, {39, 57, 4, 945}, {40, 58, 4, 945}, {42, 59, 6, 945}, {43, 60, 12, 945}, {44, 61, 6, 945}, {46, 62, 4, 945}, {47, 63, 12, 945}, {48, 64, 12, 945}, {49, 65, 4, 945}, {51, 66, 1, 945}, {52, 67, 4, 945}, {53, 68, 6, 945}, {54, 69, 4, 945}, {55, 70, 1, 945}, {37, 57, 1, 946}, {39, 59, 4, 946}, {40, 60, 4, 946}, {42, 62, 6, 946}, {43, 63, 12, 946}, {44, 64, 6, 946}, {46, 66, 4, 946}, {47, 67, 12, 946}, {48, 68, 12, 946}, {49, 69, 4, 946}, {51, 71, 1, 946}, {52, 72, 4, 946}, {53, 73, 6, 946}, {54, 74, 4, 946}, {55, 75, 1, 946}, {37, 58, 1, 947}, {39, 60, 4, 947}, {40, 61, 4, 947}, {42, 63, 6, 947}, {43, 64, 12, 947}, {44, 65, 6, 947}, {46, 67, 4, 947}, {47, 68, 12, 947}, {48, 69, 12, 947}, {49, 70, 4, 947}, {51, 72, 1, 947}, {52, 73, 4, 947}, {53, 74, 6, 947}, {54, 75, 4, 947}, {55, 76, 1, 947}, {37, 59, 1, 948}, {39, 62, 4, 948}, {40, 63, 4, 948}, {42, 66, 6, 948}, {43, 67, 12, 948}, {44, 68, 6, 948}, {46, 71, 4, 948}, {47, 72, 12, 948}, {48, 73, 12, 948}, {49, 74, 4, 948}, {51, 77, 1, 948}, {52, 78, 4, 948}, {53, 79, 6, 948}, {54, 80, 4, 948}, {55, 81, 1, 948}, {37, 60, 1, 949}, {39, 63, 4, 949}, {40, 64, 4, 949}, {42, 67, 6, 949}, {43, 68, 12, 949}, {44, 69, 6, 949}, {46, 72, 4, 949}, {47, 73, 12, 949}, {48, 74, 12, 949}, {49, 75, 4, 949}, {51, 78, 1, 949}, {52, 79, 4, 949}, {53, 80, 6, 949}, {54, 81, 4, 949}, {55, 82, 1, 949}, {37, 61, 1, 950}, {39, 64, 4, 950}, {40, 65, 4, 950}, {42, 68, 6, 950}, {43, 69, 12, 950}, {44, 70, 6, 950}, {46, 73, 4, 950}, {47, 74, 12, 950}, {48, 75, 12, 950}, {49, 76, 4, 950}, {51, 79, 1, 950}, {52, 80, 4, 950}, {53, 81, 6, 950}, {54, 82, 4, 950}, {55, 83, 1, 950}, {35, 84, 1, 951}, {36, 85, 4, 951}, {37, 86, 4, 951}, {38, 87, 6, 951}, {39, 88, 12, 951}, {40, 89, 6, 951}, {41, 90, 4, 951}, {42, 91, 12, 951}, {43, 92, 12, 951}, {44, 93, 4, 951}, {45, 94, 1, 951}, {46, 95, 4, 951}, {47, 96, 6, 951}, {48, 97, 4, 951}, {49, 98, 1, 951}, {35, 85, 1, 952}, {36, 87, 4, 952}, {37, 88, 4, 952}, {38, 90, 6, 952}, {39, 91, 12, 952}, {40, 92, 6, 952}, {41, 94, 4, 952}, {42, 95, 12, 952}, {43, 96, 12, 952}, {44, 97, 4, 952}, {45, 99, 1, 952}, {46, 100, 4, 952}, {47, 101, 6, 952}, {48, 102, 4, 952}, {49, 103, 1, 952}, {35, 86, 1, 953}, {36, 88, 4, 953}, {37, 89, 4, 953}, {38, 91, 6, 953}, {39, 92, 12, 953}, {40, 93, 6, 953}, {41, 95, 4, 953}, {42, 96, 12, 953}, {43, 97, 12, 953}, {44, 98, 4, 953}, {45, 100, 1, 953}, {46, 101, 4, 953}, {47, 102, 6, 953}, {48, 103, 4, 953}, {49, 104, 1, 953}, {35, 87, 1, 954}, {36, 90, 4, 954}, {37, 91, 4, 954}, {38, 94, 6, 954}, {39, 95, 12, 954}, {40, 96, 6, 954}, {41, 99, 4, 954}, {42, 100, 12, 954}, {43, 101, 12, 954}, {44, 102, 4, 954}, {45, 105, 1, 954}, {46, 106, 4, 954}, {47, 107, 6, 954}, {48, 108, 4, 954}, {49, 109, 1, 954}, {35, 88, 1, 955}, {36, 91, 4, 955}, {37, 92, 4, 955}, {38, 95, 6, 955}, {39, 96, 12, 955}, {40, 97, 6, 955}, {41, 100, 4, 955}, {42, 101, 12, 955}, {43, 102, 12, 955}, {44, 103, 4, 955}, {45, 106, 1, 955}, {46, 107, 4, 955}, {47, 108, 6, 955}, {48, 109, 4, 955}, {49, 110, 1, 955}, {35, 89, 1, 956}, {36, 92, 4, 956}, {37, 93, 4, 956}, {38, 96, 6, 956}, {39, 97, 12, 956}, {40, 98, 6, 956}, {41, 101, 4, 956}, {42, 102, 12, 956}, {43, 103, 12, 956}, {44, 104, 4, 956}, {45, 107, 1, 956}, {46, 108, 4, 956}, {47, 109, 6, 956}, {48, 110, 4, 956}, {49, 111, 1, 956}, {35, 90, 1, 957}, {36, 94, 4, 957}, {37, 95, 4, 957}, {38, 99, 6, 957}, {39, 100, 12, 957}, {40, 101, 6, 957}, {41, 105, 4, 957}, {42, 106, 12, 957}, {43, 107, 12, 957}, {44, 108, 4, 957}, {45, 112, 1, 957}, {46, 113, 4, 957}, {47, 114, 6, 957}, {48, 115, 4, 957}, {49, 116, 1, 957}, {35, 91, 1, 958}, {36, 95, 4, 958}, {37, 96, 4, 958}, {38, 100, 6, 958}, {39, 101, 12, 958}, {40, 102, 6, 958}, {41, 106, 4, 958}, {42, 107, 12, 958}, {43, 108, 12, 958}, {44, 109, 4, 958}, {45, 113, 1, 958}, {46, 114, 4, 958}, {47, 115, 6, 958}, {48, 116, 4, 958}, {49, 117, 1, 958}, {35, 92, 1, 959}, {36, 96, 4, 959}, {37, 97, 4, 959}, {38, 101, 6, 959}, {39, 102, 12, 959}, {40, 103, 6, 959}, {41, 107, 4, 959}, {42, 108, 12, 959}, {43, 109, 12, 959}, {44, 110, 4, 959}, {45, 114, 1, 959}, {46, 115, 4, 959}, {47, 116, 6, 959}, {48, 117, 4, 959}, {49, 118, 1, 959}, {35, 93, 1, 960}, {36, 97, 4, 960}, {37, 98, 4, 960}, {38, 102, 6, 960}, {39, 103, 12, 960}, {40, 104, 6, 960}, {41, 108, 4, 960}, {42, 109, 12, 960}, {43, 110, 12, 960}, {44, 111, 4, 960}, {45, 115, 1, 960}, {46, 116, 4, 960}, {47, 117, 6, 960}, {48, 118, 4, 960}, {49, 119, 1, 960}, {36, 84, 1, 961}, {38, 85, 4, 961}, {39, 86, 4, 961}, {41, 87, 6, 961}, {42, 88, 12, 961}, {43, 89, 6, 961}, {45, 90, 4, 961}, {46, 91, 12, 961}, {47, 92, 12, 961}, {48, 93, 4, 961}, {50, 94, 1, 961}, {51, 95, 4, 961}, {52, 96, 6, 961}, {53, 97, 4, 961}, {54, 98, 1, 961}, {36, 85, 1, 962}, {38, 87, 4, 962}, {39, 88, 4, 962}, {41, 90, 6, 962}, {42, 91, 12, 962}, {43, 92, 6, 962}, {45, 94, 4, 962}, {46, 95, 12, 962}, {47, 96, 12, 962}, {48, 97, 4, 962}, {50, 99, 1, 962}, {51, 100, 4, 962}, {52, 101, 6, 962}, {53, 102, 4, 962}, {54, 103, 1, 962}, {36, 86, 1, 963}, {38, 88, 4, 963}, {39, 89, 4, 963}, {41, 91, 6, 963}, {42, 92, 12, 963}, {43, 93, 6, 963}, {45, 95, 4, 963}, {46, 96, 12, 963}, {47, 97, 12, 963}, {48, 98, 4, 963}, {50, 100, 1, 963}, {51, 101, 4, 963}, {52, 102, 6, 963}, {53, 103, 4, 963}, {54, 104, 1, 963}, {36, 87, 1, 964}, {38, 90, 4, 964}, {39, 91, 4, 964}, {41, 94, 6, 964}, {42, 95, 12, 964}, {43, 96, 6, 964}, {45, 99, 4, 964}, {46, 100, 12, 964}, {47, 101, 12, 964}, {48, 102, 4, 964}, {50, 105, 1, 964}, {51, 106, 4, 964}, {52, 107, 6, 964}, {53, 108, 4, 964}, {54, 109, 1, 964}, {36, 88, 1, 965}, {38, 91, 4, 965}, {39, 92, 4, 965}, {41, 95, 6, 965}, {42, 96, 12, 965}, {43, 97, 6, 965}, {45, 100, 4, 965}, {46, 101, 12, 965}, {47, 102, 12, 965}, {48, 103, 4, 965}, {50, 106, 1, 965}, {51, 107, 4, 965}, {52, 108, 6, 965}, {53, 109, 4, 965}, {54, 110, 1, 965}, {36, 89, 1, 966}, {38, 92, 4, 966}, {39, 93, 4, 966}, {41, 96, 6, 966}, {42, 97, 12, 966}, {43, 98, 6, 966}, {45, 101, 4, 966}, {46, 102, 12, 966}, {47, 103, 12, 966}, {48, 104, 4, 966}, {50, 107, 1, 966}, {51, 108, 4, 966}, {52, 109, 6, 966}, {53, 110, 4, 966}, {54, 111, 1, 966}, {36, 90, 1, 967}, {38, 94, 4, 967}, {39, 95, 4, 967}, {41, 99, 6, 967}, {42, 100, 12, 967}, {43, 101, 6, 967}, {45, 105, 4, 967}, {46, 106, 12, 967}, {47, 107, 12, 967}, {48, 108, 4, 967}, {50, 112, 1, 967}, {51, 113, 4, 967}, {52, 114, 6, 967}, {53, 115, 4, 967}, {54, 116, 1, 967}, {36, 91, 1, 968}, {38, 95, 4, 968}, {39, 96, 4, 968}, {41, 100, 6, 968}, {42, 101, 12, 968}, {43, 102, 6, 968}, {45, 106, 4, 968}, {46, 107, 12, 968}, {47, 108, 12, 968}, {48, 109, 4, 968}, {50, 113, 1, 968}, {51, 114, 4, 968}, {52, 115, 6, 968}, {53, 116, 4, 968}, {54, 117, 1, 968}, {36, 92, 1, 969}, {38, 96, 4, 969}, {39, 97, 4, 969}, {41, 101, 6, 969}, {42, 102, 12, 969}, {43, 103, 6, 969}, {45, 107, 4, 969}, {46, 108, 12, 969}, {47, 109, 12, 969}, {48, 110, 4, 969}, {50, 114, 1, 969}, {51, 115, 4, 969}, {52, 116, 6, 969}, {53, 117, 4, 969}, {54, 118, 1, 969}, {36, 93, 1, 970}, {38, 97, 4, 970}, {39, 98, 4, 970}, {41, 102, 6, 970}, {42, 103, 12, 970}, {43, 104, 6, 970}, {45, 108, 4, 970}, {46, 109, 12, 970}, {47, 110, 12, 970}, {48, 111, 4, 970}, {50, 115, 1, 970}, {51, 116, 4, 970}, {52, 117, 6, 970}, {53, 118, 4, 970}, {54, 119, 1, 970}, {37, 84, 1, 971}, {39, 85, 4, 971}, {40, 86, 4, 971}, {42, 87, 6, 971}, {43, 88, 12, 971}, {44, 89, 6, 971}, {46, 90, 4, 971}, {47, 91, 12, 971}, {48, 92, 12, 971}, {49, 93, 4, 971}, {51, 94, 1, 971}, {52, 95, 4, 971}, {53, 96, 6, 971}, {54, 97, 4, 971}, {55, 98, 1, 971}, {37, 85, 1, 972}, {39, 87, 4, 972}, {40, 88, 4, 972}, {42, 90, 6, 972}, {43, 91, 12, 972}, {44, 92, 6, 972}, {46, 94, 4, 972}, {47, 95, 12, 972}, {48, 96, 12, 972}, {49, 97, 4, 972}, {51, 99, 1, 972}, {52, 100, 4, 972}, {53, 101, 6, 972}, {54, 102, 4, 972}, {55, 103, 1, 972}, {37, 86, 1, 973}, {39, 88, 4, 973}, {40, 89, 4, 973}, {42, 91, 6, 973}, {43, 92, 12, 973}, {44, 93, 6, 973}, {46, 95, 4, 973}, {47, 96, 12, 973}, {48, 97, 12, 973}, {49, 98, 4, 973}, {51, 100, 1, 973}, {52, 101, 4, 973}, {53, 102, 6, 973}, {54, 103, 4, 973}, {55, 104, 1, 973}, {37, 87, 1, 974}, {39, 90, 4, 974}, {40, 91, 4, 974}, {42, 94, 6, 974}, {43, 95, 12, 974}, {44, 96, 6, 974}, {46, 99, 4, 974}, {47, 100, 12, 974}, {48, 101, 12, 974}, {49, 102, 4, 974}, {51, 105, 1, 974}, {52, 106, 4, 974}, {53, 107, 6, 974}, {54, 108, 4, 974}, {55, 109, 1, 974}, {37, 88, 1, 975}, {39, 91, 4, 975}, {40, 92, 4, 975}, {42, 95, 6, 975}, {43, 96, 12, 975}, {44, 97, 6, 975}, {46, 100, 4, 975}, {47, 101, 12, 975}, {48, 102, 12, 975}, {49, 103, 4, 975}, {51, 106, 1, 975}, {52, 107, 4, 975}, {53, 108, 6, 975}, {54, 109, 4, 975}, {55, 110, 1, 975}, {37, 89, 1, 976}, {39, 92, 4, 976}, {40, 93, 4, 976}, {42, 96, 6, 976}, {43, 97, 12, 976}, {44, 98, 6, 976}, {46, 101, 4, 976}, {47, 102, 12, 976}, {48, 103, 12, 976}, {49, 104, 4, 976}, {51, 107, 1, 976}, {52, 108, 4, 976}, {53, 109, 6, 976}, {54, 110, 4, 976}, {55, 111, 1, 976}, {37, 90, 1, 977}, {39, 94, 4, 977}, {40, 95, 4, 977}, {42, 99, 6, 977}, {43, 100, 12, 977}, {44, 101, 6, 977}, {46, 105, 4, 977}, {47, 106, 12, 977}, {48, 107, 12, 977}, {49, 108, 4, 977}, {51, 112, 1, 977}, {52, 113, 4, 977}, {53, 114, 6, 977}, {54, 115, 4, 977}, {55, 116, 1, 977}, {37, 91, 1, 978}, {39, 95, 4, 978}, {40, 96, 4, 978}, {42, 100, 6, 978}, {43, 101, 12, 978}, {44, 102, 6, 978}, {46, 106, 4, 978}, {47, 107, 12, 978}, {48, 108, 12, 978}, {49, 109, 4, 978}, {51, 113, 1, 978}, {52, 114, 4, 978}, {53, 115, 6, 978}, {54, 116, 4, 978}, {55, 117, 1, 978}, {37, 92, 1, 979}, {39, 96, 4, 979}, {40, 97, 4, 979}, {42, 101, 6, 979}, {43, 102, 12, 979}, {44, 103, 6, 979}, {46, 107, 4, 979}, {47, 108, 12, 979}, {48, 109, 12, 979}, {49, 110, 4, 979}, {51, 114, 1, 979}, {52, 115, 4, 979}, {53, 116, 6, 979}, {54, 117, 4, 979}, {55, 118, 1, 979}, {37, 93, 1, 980}, {39, 97, 4, 980}, {40, 98, 4, 980}, {42, 102, 6, 980}, {43, 103, 12, 980}, {44, 104, 6, 980}, {46, 108, 4, 980}, {47, 109, 12, 980}, {48, 110, 12, 980}, {49, 111, 4, 980}, {51, 115, 1, 980}, {52, 116, 4, 980}, {53, 117, 6, 980}, {54, 118, 4, 980}, {55, 119, 1, 980}, {35, 35, 1, 981}, {36, 36, 5, 981}, {37, 37, 5, 981}, {38, 38, 10, 981}, {39, 39, 20, 981}, {40, 40, 10, 981}, {41, 41, 10, 981}, {42, 42, 30, 981}, {43, 43, 30, 981}, {44, 44, 10, 981}, {45, 45, 5, 981}, {46, 46, 20, 981}, {47, 47, 30, 981}, {48, 48, 20, 981}, {49, 49, 5, 981}, {50, 50, 1, 981}, {51, 51, 5, 981}, {52, 52, 10, 981}, {53, 53, 10, 981}, {54, 54, 5, 981}, {55, 55, 1, 981}, {35, 56, 1, 982}, {36, 57, 5, 982}, {37, 58, 5, 982}, {38, 59, 10, 982}, {39, 60, 20, 982}, {40, 61, 10, 982}, {41, 62, 10, 982}, {42, 63, 30, 982}, {43, 64, 30, 982}, {44, 65, 10, 982}, {45, 66, 5, 982}, {46, 67, 20, 982}, {47, 68, 30, 982}, {48, 69, 20, 982}, {49, 70, 5, 982}, {50, 71, 1, 982}, {51, 72, 5, 982}, {52, 73, 10, 982}, {53, 74, 10, 982}, {54, 75, 5, 982}, {55, 76, 1, 982}, {35, 57, 1, 983}, {36, 59, 5, 983}, {37, 60, 5, 983}, {38, 62, 10, 983}, {39, 63, 20, 983}, {40, 64, 10, 983}, {41, 66, 10, 983}, {42, 67, 30, 983}, {43, 68, 30, 983}, {44, 69, 10, 983}, {45, 71, 5, 983}, {46, 72, 20, 983}, {47, 73, 30, 983}, {48, 74, 20, 983}, {49, 75, 5, 983}, {50, 77, 1, 983}, {51, 78, 5, 983}, {52, 79, 10, 983}, {53, 80, 10, 983}, {54, 81, 5, 983}, {55, 82, 1, 983}, {35, 58, 1, 984}, {36, 60, 5, 984}, {37, 61, 5, 984}, {38, 63, 10, 984}, {39, 64, 20, 984}, {40, 65, 10, 984}, {41, 67, 10, 984}, {42, 68, 30, 984}, {43, 69, 30, 984}, {44, 70, 10, 984}, {45, 72, 5, 984}, {46, 73, 20, 984}, {47, 74, 30, 984}, {48, 75, 20, 984}, {49, 76, 5, 984}, {50, 78, 1, 984}, {51, 79, 5, 984}, {52, 80, 10, 984}, {53, 81, 10, 984}, {54, 82, 5, 984}, {55, 83, 1, 984}, {35, 84, 1, 985}, {36, 85, 5, 985}, {37, 86, 5, 985}, {38, 87, 10, 985}, {39, 88, 20, 985}, {40, 89, 10, 985}, {41, 90, 10, 985}, {42, 91, 30, 985}, {43, 92, 30, 985}, {44, 93, 10, 985}, {45, 94, 5, 985}, {46, 95, 20, 985}, {47, 96, 30, 985}, {48, 97, 20, 985}, {49, 98, 5, 985}, {50, 99, 1, 985}, {51, 100, 5, 985}, {52, 101, 10, 985}, {53, 102, 10, 985}, {54, 103, 5, 985}, {55, 104, 1, 985}, {35, 85, 1, 986}, {36, 87, 5, 986}, {37, 88, 5, 986}, {38, 90, 10, 986}, {39, 91, 20, 986}, {40, 92, 10, 986}, {41, 94, 10, 986}, {42, 95, 30, 986}, {43, 96, 30, 986}, {44, 97, 10, 986}, {45, 99, 5, 986}, {46, 100, 20, 986}, {47, 101, 30, 986}, {48, 102, 20, 986}, {49, 103, 5, 986}, {50, 105, 1, 986}, {51, 106, 5, 986}, {52, 107, 10, 986}, {53, 108, 10, 986}, {54, 109, 5, 986}, {55, 110, 1, 986}, {35, 86, 1, 987}, {36, 88, 5, 987}, {37, 89, 5, 987}, {38, 91, 10, 987}, {39, 92, 20, 987}, {40, 93, 10, 987}, {41, 95, 10, 987}, {42, 96, 30, 987}, {43, 97, 30, 987}, {44, 98, 10, 987}, {45, 100, 5, 987}, {46, 101, 20, 987}, {47, 102, 30, 987}, {48, 103, 20, 987}, {49, 104, 5, 987}, {50, 106, 1, 987}, {51, 107, 5, 987}, {52, 108, 10, 987}, {53, 109, 10, 987}, {54, 110, 5, 987}, {55, 111, 1, 987}, {35, 87, 1, 988}, {36, 90, 5, 988}, {37, 91, 5, 988}, {38, 94, 10, 988}, {39, 95, 20, 988}, {40, 96, 10, 988}, {41, 99, 10, 988}, {42, 100, 30, 988}, {43, 101, 30, 988}, {44, 102, 10, 988}, {45, 105, 5, 988}, {46, 106, 20, 988}, {47, 107, 30, 988}, {48, 108, 20, 988}, {49, 109, 5, 988}, {50, 112, 1, 988}, {51, 113, 5, 988}, {52, 114, 10, 988}, {53, 115, 10, 988}, {54, 116, 5, 988}, {55, 117, 1, 988}, {35, 88, 1, 989}, {36, 91, 5, 989}, {37, 92, 5, 989}, {38, 95, 10, 989}, {39, 96, 20, 989}, {40, 97, 10, 989}, {41, 100, 10, 989}, {42, 101, 30, 989}, {43, 102, 30, 989}, {44, 103, 10, 989}, {45, 106, 5, 989}, {46, 107, 20, 989}, {47, 108, 30, 989}, {48, 109, 20, 989}, {49, 110, 5, 989}, {50, 113, 1, 989}, {51, 114, 5, 989}, {52, 115, 10, 989}, {53, 116, 10, 989}, {54, 117, 5, 989}, {55, 118, 1, 989}, {35, 89, 1, 990}, {36, 92, 5, 990}, {37, 93, 5, 990}, {38, 96, 10, 990}, {39, 97, 20, 990}, {40, 98, 10, 990}, {41, 101, 10, 990}, {42, 102, 30, 990}, {43, 103, 30, 990}, {44, 104, 10, 990}, {45, 107, 5, 990}, {46, 108, 20, 990}, {47, 109, 30, 990}, {48, 110, 20, 990}, {49, 111, 5, 990}, {50, 114, 1, 990}, {51, 115, 5, 990}, {52, 116, 10, 990}, {53, 117, 10, 990}, {54, 118, 5, 990}, {55, 119, 1, 990}, {35, 120, 1, 991}, {36, 121, 5, 991}, {37, 122, 5, 991}, {38, 123, 10, 991}, {39, 124, 20, 991}, {40, 125, 10, 991}, {41, 126, 10, 991}, {42, 127, 30, 991}, {43, 128, 30, 991}, {44, 129, 10, 991}, {45, 130, 5, 991}, {46, 131, 20, 991}, {47, 132, 30, 991}, {48, 133, 20, 991}, {49, 134, 5, 991}, {50, 135, 1, 991}, {51, 136, 5, 991}, {52, 137, 10, 991}, {53, 138, 10, 991}, {54, 139, 5, 991}, {55, 140, 1, 991}, {35, 121, 1, 992}, {36, 123, 5, 992}, {37, 124, 5, 992}, {38, 126, 10, 992}, {39, 127, 20, 992}, {40, 128, 10, 992}, {41, 130, 10, 992}, {42, 131, 30, 992}, {43, 132, 30, 992}, {44, 133, 10, 992}, {45, 135, 5, 992}, {46, 136, 20, 992}, {47, 137, 30, 992}, {48, 138, 20, 992}, {49, 139, 5, 992}, {50, 141, 1, 992}, {51, 142, 5, 992}, {52, 143, 10, 992}, {53, 144, 10, 992}, {54, 145, 5, 992}, {55, 146, 1, 992}, {35, 122, 1, 993}, {36, 124, 5, 993}, {37, 125, 5, 993}, {38, 127, 10, 993}, {39, 128, 20, 993}, {40, 129, 10, 993}, {41, 131, 10, 993}, {42, 132, 30, 993}, {43, 133, 30, 993}, {44, 134, 10, 993}, {45, 136, 5, 993}, {46, 137, 20, 993}, {47, 138, 30, 993}, {48, 139, 20, 993}, {49, 140, 5, 993}, {50, 142, 1, 993}, {51, 143, 5, 993}, {52, 144, 10, 993}, {53, 145, 10, 993}, {54, 146, 5, 993}, {55, 147, 1, 993}, {35, 123, 1, 994}, {36, 126, 5, 994}, {37, 127, 5, 994}, {38, 130, 10, 994}, {39, 131, 20, 994}, {40, 132, 10, 994}, {41, 135, 10, 994}, {42, 136, 30, 994}, {43, 137, 30, 994}, {44, 138, 10, 994}, {45, 141, 5, 994}, {46, 142, 20, 994}, {47, 143, 30, 994}, {48, 144, 20, 994}, {49, 145, 5, 994}, {50, 148, 1, 994}, {51, 149, 5, 994}, {52, 150, 10, 994}, {53, 151, 10, 994}, {54, 152, 5, 994}, {55, 153, 1, 994}, {35, 124, 1, 995}, {36, 127, 5, 995}, {37, 128, 5, 995}, {38, 131, 10, 995}, {39, 132, 20, 995}, {40, 133, 10, 995}, {41, 136, 10, 995}, {42, 137, 30, 995}, {43, 138, 30, 995}, {44, 139, 10, 995}, {45, 142, 5, 995}, {46, 143, 20, 995}, {47, 144, 30, 995}, {48, 145, 20, 995}, {49, 146, 5, 995}, {50, 149, 1, 995}, {51, 150, 5, 995}, {52, 151, 10, 995}, {53, 152, 10, 995}, {54, 153, 5, 995}, {55, 154, 1, 995}, {35, 125, 1, 996}, {36, 128, 5, 996}, {37, 129, 5, 996}, {38, 132, 10, 996}, {39, 133, 20, 996}, {40, 134, 10, 996}, {41, 137, 10, 