MTP
version = 1.1.0
potential_name = MTP1m
scaling = 2.534449283073764e-05
species_count = 1
potential_tag =
radial_basis_type = RBChebyshev
	min_dist = 4.000000000000000e+00
	max_dist = 4.800000000000000e+00
	radial_basis_size = 8
	radial_funcs_count = 2
	radial_coeffs
		0-0
			{-3.074273115545924e-01, 2.882601891394607e-01, 8.150666680790396e-01, 3.875236137716018e-01, 8.808343088447364e-02, 1.126911704308915e-02, 7.757164367872305e-04, 2.218621414534599e-05}
			{-8.486652709485728e-01, -5.127026907134158e-01, -9.605142630789194e-02, -8.490468330412992e-02, -2.157212942171788e-02, -1.780222553862820e-03, -1.766427372904702e-05, 2.469614181449542e-06}
alpha_moments_count = 18
alpha_index_basic_count = 11
alpha_index_basic = {{0, 0, 0, 0}, {0, 1, 0, 0}, {0, 0, 1, 0}, {0, 0, 0, 1}, {0, 2, 0, 0}, {0, 1, 1, 0}, {0, 1, 0, 1}, {0, 0, 2, 0}, {0, 0, 1, 1}, {0, 0, 0, 2}, {1, 0, 0, 0}}
alpha_index_times_count = 14
alpha_index_times = {{0, 0, 1, 11}, {1, 1, 1, 12}, {2, 2, 1, 12}, {3, 3, 1, 12}, {4, 4, 1, 13}, {5, 5, 2, 13}, {6, 6, 2, 13}, {7, 7, 1, 13}, {8, 8, 2, 13}, {9, 9, 1, 13}, {0, 10, 1, 14}, {0, 11, 1, 15}, {0, 12, 1, 16}, {0, 15, 1, 17}}
alpha_scalar_moments = 9
alpha_moment_mapping = {0, 10, 11, 12, 13, 14, 15, 16, 17}
species_coeffs = {-9.118920883237898}
moment_coeffs = {2908.950684137425, -6373.545494579279, -31084.60707670654, -108682.0964447198, -2108.129666763489, 1763.307660079842, 45.35075603718427, 49.41497079311257, -0.0441503140502638}