<GAP_2019_6_6_-420_19_43_54_990>
<Potential init_args="IP GAP label=GAP_2019_6_6_-420_19_43_54_990" label="GAP_2019_6_6_-420_19_43_54_990" />
<GAP_params gap_version="1525123159" label="GAP_2019_6_6_-420_19_43_54_990">
  <GAP_data do_core="F">
    <e0 Z="1" value="-.79000000000000004" />
    <e0 Z="2" value="-.79000000000000004" />
    <e0 Z="3" value="-.79000000000000004" />
    <e0 Z="4" value="-.79000000000000004" />
    <e0 Z="5" value="-.79000000000000004" />
    <e0 Z="6" value="-.79000000000000004" />
    <e0 Z="7" value="-.79000000000000004" />
    <e0 Z="8" value="-.79000000000000004" />
    <e0 Z="9" value="-.79000000000000004" />
    <e0 Z="10" value="-.79000000000000004" />
    <e0 Z="11" value="-.79000000000000004" />
    <e0 Z="12" value="-.79000000000000004" />
    <e0 Z="13" value="-.79000000000000004" />
    <e0 Z="14" value="-.79000000000000004" />
    <e0 Z="15" value="-.79000000000000004" />
    <e0 Z="16" value="-.79000000000000004" />
    <e0 Z="17" value="-.79000000000000004" />
    <e0 Z="18" value="-.79000000000000004" />
    <e0 Z="19" value="-.79000000000000004" />
    <e0 Z="20" value="-.79000000000000004" />
    <e0 Z="21" value="-.79000000000000004" />
    <e0 Z="22" value="-.79000000000000004" />
    <e0 Z="23" value="-.79000000000000004" />
    <e0 Z="24" value="-.79000000000000004" />
    <e0 Z="25" value="-.79000000000000004" />
    <e0 Z="26" value="-.79000000000000004" />
    <e0 Z="27" value="-.79000000000000004" />
    <e0 Z="28" value="-.79000000000000004" />
    <e0 Z="29" value="-.79000000000000004" />
    <e0 Z="30" value="-.79000000000000004" />
    <e0 Z="31" value="-.79000000000000004" />
    <e0 Z="32" value="-.79000000000000004" />
    <e0 Z="33" value="-.79000000000000004" />
    <e0 Z="34" value="-.79000000000000004" />
    <e0 Z="35" value="-.79000000000000004" />
    <e0 Z="36" value="-.79000000000000004" />
    <e0 Z="37" value="-.79000000000000004" />
    <e0 Z="38" value="-.79000000000000004" />
    <e0 Z="39" value="-.79000000000000004" />
    <e0 Z="40" value="-.79000000000000004" />
    <e0 Z="41" value="-.79000000000000004" />
    <e0 Z="42" value="-.79000000000000004" />
    <e0 Z="43" value="-.79000000000000004" />
    <e0 Z="44" value="-.79000000000000004" />
    <e0 Z="45" value="-.79000000000000004" />
    <e0 Z="46" value="-.79000000000000004" />
    <e0 Z="47" value="-.79000000000000004" />
    <e0 Z="48" value="-.79000000000000004" />
    <e0 Z="49" value="-.79000000000000004" />
    <e0 Z="50" value="-.79000000000000004" />
    <e0 Z="51" value="-.79000000000000004" />
    <e0 Z="52" value="-.79000000000000004" />
    <e0 Z="53" value="-.79000000000000004" />
    <e0 Z="54" value="-.79000000000000004" />
    <e0 Z="55" value="-.79000000000000004" />
    <e0 Z="56" value="-.79000000000000004" />
    <e0 Z="57" value="-.79000000000000004" />
    <e0 Z="58" value="-.79000000000000004" />
    <e0 Z="59" value="-.79000000000000004" />
    <e0 Z="60" value="-.79000000000000004" />
    <e0 Z="61" value="-.79000000000000004" />
    <e0 Z="62" value="-.79000000000000004" />
    <e0 Z="63" value="-.79000000000000004" />
    <e0 Z="64" value="-.79000000000000004" />
    <e0 Z="65" value="-.79000000000000004" />
    <e0 Z="66" value="-.79000000000000004" />
    <e0 Z="67" value="-.79000000000000004" />
    <e0 Z="68" value="-.79000000000000004" />
    <e0 Z="69" value="-.79000000000000004" />
    <e0 Z="70" value="-.79000000000000004" />
    <e0 Z="71" value="-.79000000000000004" />
    <e0 Z="72" value="-.79000000000000004" />
    <e0 Z="73" value="-.79000000000000004" />
    <e0 Z="74" value="-.79000000000000004" />
    <e0 Z="75" value="-.79000000000000004" />
    <e0 Z="76" value="-.79000000000000004" />
    <e0 Z="77" value="-.79000000000000004" />
    <e0 Z="78" value="-.79000000000000004" />
    <e0 Z="79" value="-.79000000000000004" />
    <e0 Z="80" value="-.79000000000000004" />
    <e0 Z="81" value="-.79000000000000004" />
    <e0 Z="82" value="-.79000000000000004" />
    <e0 Z="83" value="-.79000000000000004" />
    <e0 Z="84" value="-.79000000000000004" />
    <e0 Z="85" value="-.79000000000000004" />
    <e0 Z="86" value="-.79000000000000004" />
    <e0 Z="87" value="-.79000000000000004" />
    <e0 Z="88" value="-.79000000000000004" />
    <e0 Z="89" value="-.79000000000000004" />
    <e0 Z="90" value="-.79000000000000004" />
    <e0 Z="91" value="-.79000000000000004" />
    <e0 Z="92" value="-.79000000000000004" />
    <e0 Z="93" value="-.79000000000000004" />
    <e0 Z="94" value="-.79000000000000004" />
    <e0 Z="95" value="-.79000000000000004" />
    <e0 Z="96" value="-.79000000000000004" />
    <e0 Z="97" value="-.79000000000000004" />
    <e0 Z="98" value="-.79000000000000004" />
    <e0 Z="99" value="-.79000000000000004" />
    <e0 Z="100" value="-.79000000000000004" />
    <e0 Z="101" value="-.79000000000000004" />
    <e0 Z="102" value="-.79000000000000004" />
    <e0 Z="103" value="-.79000000000000004" />
    <e0 Z="104" value="-.79000000000000004" />
    <e0 Z="105" value="-.79000000000000004" />
    <e0 Z="106" value="-.79000000000000004" />
    <e0 Z="107" value="-.79000000000000004" />
    <e0 Z="108" value="-.79000000000000004" />
    <e0 Z="109" value="-.79000000000000004" />
    <e0 Z="110" value="-.79000000000000004" />
    <e0 Z="111" value="-.79000000000000004" />
    <e0 Z="112" value="-.79000000000000004" />
    <e0 Z="113" value="-.79000000000000004" />
    <e0 Z="114" value="-.79000000000000004" />
    <e0 Z="115" value="-.79000000000000004" />
    <e0 Z="116" value="-.79000000000000004" />
  </GAP_data>
  <gpSparse label="GAP_2019_6_6_-420_19_43_54_990" n_coordinate="1">
    <gpCoordinates covariance_type="2" dimensions="325" label="GAP_2019_6_6_-420_19_43_54_9901" n_permutations="1" n_sparseX="1000" signal_mean=".00000000000000000E+000" signal_variance="1.0000000000000000" sparseX_filename="GAPotential.soapparam" sparsified="T" zeta="4.0000000000000000">
      <descriptor>soap l_max=8 n_max=8 atom_sigma=0.5 zeta=4 cutoff=5.4 cutoff_transition_width=0.5 delta=1.0 f0=0.0 n_sparse=1000 covariance_type=dot_product sparse_method=cur_points</descriptor>
      <permutation i="1">1  </permutation>
      <sparseX alpha="-15.314018663889966" i="1" sparseCutoff="1.0000000000000000" />
      <sparseX alpha="293.17297542460290" i="2" sparseCutoff="1.0000000000000000" />
      <sparseX alpha="-2420.6092004665816" i="3" sparseCutoff="1.0000000000000000" />
      <sparseX alpha="-252.94797029218037" i="4" sparseCutoff="1.0000000000000000" />
      <sparseX alpha="-101.40651030739704" i="5" sparseCutoff="1.0000000000000000" />
      <sparseX alpha="293.17928583290762" i="6" sparseCutoff="1.0000000000000000" />
      <sparseX alpha="293.17972505801168" i="7" sparseCutoff="1.0000000000000000" />
      <sparseX alpha="-2420.6109208745088" i="8" sparseCutoff="1.0000000000000000" />
      <sparseX alpha="2540.3563052638933" i="9" sparseCutoff="1.0000000000000000" />
      <sparseX alpha="203.34539340739468" i="10" sparseCutoff="1.0000000000000000" />
      <sparseX alpha="-101.40235849993333" i="11" sparseCutoff="1.0000000000000000" />
      <sparseX alpha="-15.320522759141307" i="12" sparseCutoff="1.0000000000000000" />
      <sparseX alpha="293.17419342247763" i="13" sparseCutoff="1.0000000000000000" />
      <sparseX alpha="213.05179239067624" i="14" sparseCutoff="1.0000000000000000" />
      <sparseX alpha="-252.94764952131902" i="15" sparseCutoff="1.0000000000000000" />
      <sparseX alpha="-270.88315184229947" i="16" sparseCutoff="1.0000000000000000" />
      <sparseX alpha="-485.75556577250336" i="17" sparseCutoff="1.0000000000000000" />
      <sparseX alpha="-447.49837298165994" i="18" sparseCutoff="1.0000000000000000" />
      <sparseX alpha="70.636761164070379" i="19" sparseCutoff="1.0000000000000000" />
      <sparseX alpha="436.17089842060733" i="20" sparseCutoff="1.0000000000000000" />
      <sparseX alpha="728.95318649105559" i="21" sparseCutoff="1.0000000000000000" />
      <sparseX alpha="-2972.7061486725765" i="22" sparseCutoff="1.0000000000000000" />
      <sparseX alpha="-1032.8979522320142" i="23" sparseCutoff="1.0000000000000000" />
      <sparseX alpha="2295.1125096598453" i="24" sparseCutoff="1.0000000000000000" />
      <sparseX alpha="-2806.8818689884774" i="25" sparseCutoff="1.0000000000000000" />
      <sparseX alpha="-4307.9103547647837" i="26" sparseCutoff="1.0000000000000000" />
      <sparseX alpha="632.08058656689855" i="27" sparseCutoff="1.0000000000000000" />
      <sparseX alpha="309.55519604712703" i="28" sparseCutoff="1.0000000000000000" />
      <sparseX alpha="5583.1133849322132" i="29" sparseCutoff="1.0000000000000000" />
      <sparseX alpha="-125.99538232192833" i="30" sparseCutoff="1.0000000000000000" />
      <sparseX alpha="-1240.1681976960090" i="31" sparseCutoff="1.0000000000000000" />
      <sparseX alpha="489.72562924365087" i="32" sparseCutoff="1.0000000000000000" />
      <sparseX alpha="-371.53412084554111" i="33" sparseCutoff="1.0000000000000000" />
      <sparseX alpha="3205.2816306245668" i="34" sparseCutoff="1.0000000000000000" />
      <sparseX alpha="361.75667658367581" i="35" sparseCutoff="1.0000000000000000" />
      <sparseX alpha="-1025.1029427490334" i="36" sparseCutoff="1.0000000000000000" />
      <sparseX alpha="177.02623079777354" i="37" sparseCutoff="1.0000000000000000" />
      <sparseX alpha="-2767.4891650274640" i="38" sparseCutoff="1.0000000000000000" />
      <sparseX alpha="1155.3573813479975" i="39" sparseCutoff="1.0000000000000000" />
      <sparseX alpha="374.30256122514680" i="40" sparseCutoff="1.0000000000000000" />
      <sparseX alpha="984.68754692352968" i="41" sparseCutoff="1.0000000000000000" />
      <sparseX alpha="-1182.4607108108089" i="42" sparseCutoff="1.0000000000000000" />
      <sparseX alpha="612.63683613653211" i="43" sparseCutoff="1.0000000000000000" />
      <sparseX alpha="750.41176024285710" i="44" sparseCutoff="1.0000000000000000" />
      <sparseX alpha="-782.77950470655855" i="45" sparseCutoff="1.0000000000000000" />
      <sparseX alpha="-130.22401664111240" i="46" sparseCutoff="1.0000000000000000" />
      <sparseX alpha="-1075.2160801620300" i="47" sparseCutoff="1.0000000000000000" />
      <sparseX alpha="-2370.7294563978699" i="48" sparseCutoff="1.0000000000000000" />
      <sparseX alpha="471.20169117769098" i="49" sparseCutoff="1.0000000000000000" />
      <sparseX alpha="965.25283412246438" i="50" sparseCutoff="1.0000000000000000" />
      <sparseX alpha="1924.4359390263214" i="51" sparseCutoff="1.0000000000000000" />
      <sparseX alpha="-438.83001866049568" i="52" sparseCutoff="1.0000000000000000" />
      <sparseX alpha="513.13983752586182" i="53" sparseCutoff="1.0000000000000000" />
      <sparseX alpha="188.21921282991286" i="54" sparseCutoff="1.0000000000000000" />
      <sparseX alpha="643.46120791631222" i="55" sparseCutoff="1.0000000000000000" />
      <sparseX alpha="-1036.5669576641130" i="56" sparseCutoff="1.0000000000000000" />
      <sparseX alpha="1443.2177007397297" i="57" sparseCutoff="1.0000000000000000" />
      <sparseX alpha="-2099.5387896527200" i="58" sparseCutoff="1.0000000000000000" />
      <sparseX alpha="1004.2182792491454" i="59" sparseCutoff="1.0000000000000000" />
      <sparseX alpha="-1573.1148925086768" i="60" sparseCutoff="1.0000000000000000" />
      <sparseX alpha="445.82584808396530" i="61" sparseCutoff="1.0000000000000000" />
      <sparseX alpha="-182.72495095501472" i="62" sparseCutoff="1.0000000000000000" />
      <sparseX alpha="623.59599459535514" i="63" sparseCutoff="1.0000000000000000" />
      <sparseX alpha="-39.921676961586058" i="64" sparseCutoff="1.0000000000000000" />
      <sparseX alpha="-2032.1015010301967" i="65" sparseCutoff="1.0000000000000000" />
      <sparseX alpha="1095.2678017957103" i="66" sparseCutoff="1.0000000000000000" />
      <sparseX alpha="1967.4963679154996" i="67" sparseCutoff="1.0000000000000000" />
      <sparseX alpha="-923.02548481863153" i="68" sparseCutoff="1.0000000000000000" />
      <sparseX alpha="5857.9412295819584" i="69" sparseCutoff="1.0000000000000000" />
      <sparseX alpha="-269.41473790153856" i="70" sparseCutoff="1.0000000000000000" />
      <sparseX alpha="-365.67269892810418" i="71" sparseCutoff="1.0000000000000000" />
      <sparseX alpha="-294.14237908881620" i="72" sparseCutoff="1.0000000000000000" />
      <sparseX alpha="-55.660118977020666" i="73" sparseCutoff="1.0000000000000000" />
      <sparseX alpha="163.60319889521753" i="74" sparseCutoff="1.0000000000000000" />
      <sparseX alpha="73.937695685021211" i="75" sparseCutoff="1.0000000000000000" />
      <sparseX alpha="-48.737861487567116" i="76" sparseCutoff="1.0000000000000000" />
      <sparseX alpha="343.51215908489309" i="77" sparseCutoff="1.0000000000000000" />
      <sparseX alpha="-663.80478200460209" i="78" sparseCutoff="1.0000000000000000" />
      <sparseX alpha="-47.303288473510570" i="79" sparseCutoff="1.0000000000000000" />
      <sparseX alpha="-224.02478423483620" i="80" sparseCutoff="1.0000000000000000" />
      <sparseX alpha="345.68990547273768" i="81" sparseCutoff="1.0000000000000000" />
      <sparseX alpha="10.491687003321500" i="82" sparseCutoff="1.0000000000000000" />
      <sparseX alpha="209.23295091703508" i="83" sparseCutoff="1.0000000000000000" />
      <sparseX alpha="-59.635463012220150" i="84" sparseCutoff="1.0000000000000000" />
      <sparseX alpha="-62.532873935350231" i="85" sparseCutoff="1.0000000000000000" />
      <sparseX alpha="-67.356881594427506" i="86" sparseCutoff="1.0000000000000000" />
      <sparseX alpha="145.86191146220071" i="87" sparseCutoff="1.0000000000000000" />
      <sparseX alpha="-424.99786430377731" i="88" sparseCutoff="1.0000000000000000" />
      <sparseX alpha="-252.75744721738542" i="89" sparseCutoff="1.0000000000000000" />
      <sparseX alpha="-854.03444105885421" i="90" sparseCutoff="1.0000000000000000" />
      <sparseX alpha="-1.1996289098258384" i="91" sparseCutoff="1.0000000000000000" />
      <sparseX alpha="-205.76887407864049" i="92" sparseCutoff="1.0000000000000000" />
      <sparseX alpha="782.29589416266128" i="93" sparseCutoff="1.0000000000000000" />
      <sparseX alpha="160.94129663869884" i="94" sparseCutoff="1.0000000000000000" />
      <sparseX alpha="82.729572404691069" i="95" sparseCutoff="1.0000000000000000" />
      <sparseX alpha="376.31340925262970" i="96" sparseCutoff="1.0000000000000000" />
      <sparseX alpha="-169.20190153266867" i="97" sparseCutoff="1.0000000000000000" />
      <sparseX alpha="-308.63587568165775" i="98" sparseCutoff="1.0000000000000000" />
      <sparseX alpha="-162.71249164342652" i="99" sparseCutoff="1.0000000000000000" />
      <sparseX alpha="388.64958155581479" i="100" sparseCutoff="1.0000000000000000" />
      <sparseX alpha="-296.46448076959382" i="101" sparseCutoff="1.0000000000000000" />
      <sparseX alpha="6.1386107418652642" i="102" sparseCutoff="1.0000000000000000" />
      <sparseX alpha="859.66515507067834" i="103" sparseCutoff="1.0000000000000000" />
      <sparseX alpha="12.376093017538295" i="104" sparseCutoff="1.0000000000000000" />
      <sparseX alpha="-102.70881147521899" i="105" sparseCutoff="1.0000000000000000" />
      <sparseX alpha="-172.92816238202576" i="106" sparseCutoff="1.0000000000000000" />
      <sparseX alpha="-427.01226160378502" i="107" sparseCutoff="1.0000000000000000" />
      <sparseX alpha="-40.821550520090717" i="108" sparseCutoff="1.0000000000000000" />
      <sparseX alpha="-553.03715420258993" i="109" sparseCutoff="1.0000000000000000" />
      <sparseX alpha="516.77190565456181" i="110" sparseCutoff="1.0000000000000000" />
      <sparseX alpha="415.25965777222274" i="111" sparseCutoff="1.0000000000000000" />
      <sparseX alpha="5.3295872578299557" i="112" sparseCutoff="1.0000000000000000" />
      <sparseX alpha="642.16806293986133" i="113" sparseCutoff="1.0000000000000000" />
      <sparseX alpha="52.641794385349847" i="114" sparseCutoff="1.0000000000000000" />
      <sparseX alpha="165.49082898130013" i="115" sparseCutoff="1.0000000000000000" />
      <sparseX alpha="21.583559575384704" i="116" sparseCutoff="1.0000000000000000" />
      <sparseX alpha="-253.55685763582582" i="117" sparseCutoff="1.0000000000000000" />
      <sparseX alpha="225.25012045537827" i="118" sparseCutoff="1.0000000000000000" />
      <sparseX alpha="640.71310259742813" i="119" sparseCutoff="1.0000000000000000" />
      <sparseX alpha="399.62247285655712" i="120" sparseCutoff="1.0000000000000000" />
      <sparseX alpha="-144.09157557263450" i="121" sparseCutoff="1.0000000000000000" />
      <sparseX alpha="501.27602399353157" i="122" sparseCutoff="1.0000000000000000" />
      <sparseX alpha="282.72412037531899" i="123" sparseCutoff="1.0000000000000000" />
      <sparseX alpha="183.86032812126325" i="124" sparseCutoff="1.0000000000000000" />
      <sparseX alpha="212.01704428391093" i="125" sparseCutoff="1.0000000000000000" />
      <sparseX alpha="-116.01744080789196" i="126" sparseCutoff="1.0000000000000000" />
      <sparseX alpha="25.752596736862863" i="127" sparseCutoff="1.0000000000000000" />
      <sparseX alpha="-463.97747299977806" i="128" sparseCutoff="1.0000000000000000" />
      <sparseX alpha="19.945153701537251" i="129" sparseCutoff="1.0000000000000000" />
      <sparseX alpha="135.03885167124864" i="130" sparseCutoff="1.0000000000000000" />
      <sparseX alpha="-3.8009581873697309" i="131" sparseCutoff="1.0000000000000000" />
      <sparseX alpha="-629.61543024357707" i="132" sparseCutoff="1.0000000000000000" />
      <sparseX alpha="1308.5504149362907" i="133" sparseCutoff="1.0000000000000000" />
      <sparseX alpha="340.06467894741695" i="134" sparseCutoff="1.0000000000000000" />
      <sparseX alpha="-1.3802151726152332" i="135" sparseCutoff="1.0000000000000000" />
      <sparseX alpha="-718.36357249588639" i="136" sparseCutoff="1.0000000000000000" />
      <sparseX alpha="476.91129327003142" i="137" sparseCutoff="1.0000000000000000" />
      <sparseX alpha="-8.5757796518442788" i="138" sparseCutoff="1.0000000000000000" />
      <sparseX alpha="61.152739994599536" i="139" sparseCutoff="1.0000000000000000" />
      <sparseX alpha="361.16749574822381" i="140" sparseCutoff="1.0000000000000000" />
      <sparseX alpha="-400.76287455264190" i="141" sparseCutoff="1.0000000000000000" />
      <sparseX alpha="50.708547839401540" i="142" sparseCutoff="1.0000000000000000" />
      <sparseX alpha="-529.97688654494243" i="143" sparseCutoff="1.0000000000000000" />
      <sparseX alpha="221.78251124422411" i="144" sparseCutoff="1.0000000000000000" />
      <sparseX alpha="-850.34315619987217" i="145" sparseCutoff="1.0000000000000000" />
      <sparseX alpha="-107.40398402981410" i="146" sparseCutoff="1.0000000000000000" />
      <sparseX alpha="472.57471061911275" i="147" sparseCutoff="1.0000000000000000" />
      <sparseX alpha="-28.362127917128188" i="148" sparseCutoff="1.0000000000000000" />
      <sparseX alpha="-375.55844452383474" i="149" sparseCutoff="1.0000000000000000" />
      <sparseX alpha="516.52413137339738" i="150" sparseCutoff="1.0000000000000000" />
      <sparseX alpha="335.93270048679454" i="151" sparseCutoff="1.0000000000000000" />
      <sparseX alpha="39.156023339407561" i="152" sparseCutoff="1.0000000000000000" />
      <sparseX alpha="35.396580492187809" i="153" sparseCutoff="1.0000000000000000" />
      <sparseX alpha="-232.97869649099528" i="154" sparseCutoff="1.0000000000000000" />
      <sparseX alpha="214.52619444977896" i="155" sparseCutoff="1.0000000000000000" />
      <sparseX alpha="67.370556823307780" i="156" sparseCutoff="1.0000000000000000" />
      <sparseX alpha="236.67802010815024" i="157" sparseCutoff="1.0000000000000000" />
      <sparseX alpha="-534.12182071997938" i="158" sparseCutoff="1.0000000000000000" />
      <sparseX alpha="-227.54949116320935" i="159" sparseCutoff="1.0000000000000000" />
      <sparseX alpha="-56.011561069376121" i="160" sparseCutoff="1.0000000000000000" />
      <sparseX alpha="-589.88348673609187" i="161" sparseCutoff="1.0000000000000000" />
      <sparseX alpha="-519.92866906405743" i="162" sparseCutoff="1.0000000000000000" />
      <sparseX alpha="-52.246960199291223" i="163" sparseCutoff="1.0000000000000000" />
      <sparseX alpha="-232.00866883445624" i="164" sparseCutoff="1.0000000000000000" />
      <sparseX alpha="248.11851001961762" i="165" sparseCutoff="1.0000000000000000" />
      <sparseX alpha="-280.17666403797506" i="166" sparseCutoff="1.0000000000000000" />
      <sparseX alpha="30.227910810478665" i="167" sparseCutoff="1.0000000000000000" />
      <sparseX alpha="216.44858887542139" i="168" sparseCutoff="1.0000000000000000" />
      <sparseX alpha="358.58218238068787" i="169" sparseCutoff="1.0000000000000000" />
      <sparseX alpha="-178.47362127026548" i="170" sparseCutoff="1.0000000000000000" />
      <sparseX alpha="-173.62138733437746" i="171" sparseCutoff="1.0000000000000000" />
      <sparseX alpha="-607.60440286511573" i="172" sparseCutoff="1.0000000000000000" />
      <sparseX alpha="767.95104330850415" i="173" sparseCutoff="1.0000000000000000" />
      <sparseX alpha="-201.55281220303618" i="174" sparseCutoff="1.0000000000000000" />
      <sparseX alpha="355.44333012705226" i="175" sparseCutoff="1.0000000000000000" />
      <sparseX alpha="-20.084163464411830" i="176" sparseCutoff="1.0000000000000000" />
      <sparseX alpha="-49.543839323848893" i="177" sparseCutoff="1.0000000000000000" />
      <sparseX alpha="639.50987138013511" i="178" sparseCutoff="1.0000000000000000" />
      <sparseX alpha="-295.26013785010770" i="179" sparseCutoff="1.0000000000000000" />
      <sparseX alpha="-295.79949795361318" i="180" sparseCutoff="1.0000000000000000" />
      <sparseX alpha="-134.67466879607449" i="181" sparseCutoff="1.0000000000000000" />
      <sparseX alpha="-178.35359724204153" i="182" sparseCutoff="1.0000000000000000" />
      <sparseX alpha="-124.42804348581083" i="183" sparseCutoff="1.0000000000000000" />
      <sparseX alpha="6.6553796792932074" i="184" sparseCutoff="1.0000000000000000" />
      <sparseX alpha="-293.17389175092495" i="185" sparseCutoff="1.0000000000000000" />
      <sparseX alpha="702.31053511883613" i="186" sparseCutoff="1.0000000000000000" />
      <sparseX alpha="-44.357825432129182" i="187" sparseCutoff="1.0000000000000000" />
      <sparseX alpha="151.18947668307410" i="188" sparseCutoff="1.0000000000000000" />
      <sparseX alpha="-273.18743397924101" i="189" sparseCutoff="1.0000000000000000" />
      <sparseX alpha="-110.13707081767259" i="190" sparseCutoff="1.0000000000000000" />
      <sparseX alpha="99.920209415866637" i="191" sparseCutoff="1.0000000000000000" />
      <sparseX alpha="-145.47634091604576" i="192" sparseCutoff="1.0000000000000000" />
      <sparseX alpha="-152.16982331152587" i="193" sparseCutoff="1.0000000000000000" />
      <sparseX alpha="353.28703498659684" i="194" sparseCutoff="1.0000000000000000" />
      <sparseX alpha="470.76738171652215" i="195" sparseCutoff="1.0000000000000000" />
      <sparseX alpha="-8.5397229927399643" i="196" sparseCutoff="1.0000000000000000" />
      <sparseX alpha="138.98786450538373" i="197" sparseCutoff="1.0000000000000000" />
      <sparseX alpha="108.15691761318892" i="198" sparseCutoff="1.0000000000000000" />
      <sparseX alpha="31.594409547538898" i="199" sparseCutoff="1.0000000000000000" />
      <sparseX alpha="395.55163890330056" i="200" sparseCutoff="1.0000000000000000" />
      <sparseX alpha="49.950013917249379" i="201" sparseCutoff="1.0000000000000000" />
      <sparseX alpha="468.20111292311083" i="202" sparseCutoff="1.0000000000000000" />
      <sparseX alpha="277.71308078329378" i="203" sparseCutoff="1.0000000000000000" />
      <sparseX alpha="-352.77125113410489" i="204" sparseCutoff="1.0000000000000000" />
      <sparseX alpha="-567.62150171030510" i="205" sparseCutoff="1.0000000000000000" />
      <sparseX alpha="198.59355717051150" i="206" sparseCutoff="1.0000000000000000" />
      <sparseX alpha="53.242242725489774" i="207" sparseCutoff="1.0000000000000000" />
      <sparseX alpha="63.352172475483940" i="208" sparseCutoff="1.0000000000000000" />
      <sparseX alpha="-544.53371541300487" i="209" sparseCutoff="1.0000000000000000" />
      <sparseX alpha="426.98430470383295" i="210" sparseCutoff="1.0000000000000000" />
      <sparseX alpha="-57.121496593230802" i="211" sparseCutoff="1.0000000000000000" />
      <sparseX alpha="-297.47500624950220" i="212" sparseCutoff="1.0000000000000000" />
      <sparseX alpha="-301.04979020141559" i="213" sparseCutoff="1.0000000000000000" />
      <sparseX alpha="762.31423044667758" i="214" sparseCutoff="1.0000000000000000" />
      <sparseX alpha="55.113591286000847" i="215" sparseCutoff="1.0000000000000000" />
      <sparseX alpha="25.695599009402965" i="216" sparseCutoff="1.0000000000000000" />
      <sparseX alpha="-450.65277776546947" i="217" sparseCutoff="1.0000000000000000" />
      <sparseX alpha="-46.642089542559511" i="218" sparseCutoff="1.0000000000000000" />
      <sparseX alpha="-172.88348107013397" i="219" sparseCutoff="1.0000000000000000" />
      <sparseX alpha="157.87363492963999" i="220" sparseCutoff="1.0000000000000000" />
      <sparseX alpha="76.283996867085918" i="221" sparseCutoff="1.0000000000000000" />
      <sparseX alpha="232.93303979533709" i="222" sparseCutoff="1.0000000000000000" />
      <sparseX alpha="-431.11949063361095" i="223" sparseCutoff="1.0000000000000000" />
      <sparseX alpha="-340.07276292407613" i="224" sparseCutoff="1.0000000000000000" />
      <sparseX alpha="-98.339040031614829" i="225" sparseCutoff="1.0000000000000000" />
      <sparseX alpha="87.124045498883788" i="226" sparseCutoff="1.0000000000000000" />
      <sparseX alpha="-122.66647132088619" i="227" sparseCutoff="1.0000000000000000" />
      <sparseX alpha="236.18569324455390" i="228" sparseCutoff="1.0000000000000000" />
      <sparseX alpha="-151.84197158439949" i="229" sparseCutoff="1.0000000000000000" />
      <sparseX alpha="-109.57618655660579" i="230" sparseCutoff="1.0000000000000000" />
      <sparseX alpha="670.08339603738807" i="231" sparseCutoff="1.0000000000000000" />
      <sparseX alpha="177.30745761516903" i="232" sparseCutoff="1.0000000000000000" />
      <sparseX alpha="58.313171123290843" i="233" sparseCutoff="1.0000000000000000" />
      <sparseX alpha="104.68810343837059" i="234" sparseCutoff="1.0000000000000000" />
      <sparseX alpha="155.18287949060306" i="235" sparseCutoff="1.0000000000000000" />
      <sparseX alpha="113.43202970348094" i="236" sparseCutoff="1.0000000000000000" />
      <sparseX alpha="192.87365890184390" i="237" sparseCutoff="1.0000000000000000" />
      <sparseX alpha="204.37045867447523" i="238" sparseCutoff="1.0000000000000000" />
      <sparseX alpha="212.60875007857481" i="239" sparseCutoff="1.0000000000000000" />
      <sparseX alpha="-37.636621262870179" i="240" sparseCutoff="1.0000000000000000" />
      <sparseX alpha="56.126463886580886" i="241" sparseCutoff="1.0000000000000000" />
      <sparseX alpha="-244.11226619952396" i="242" sparseCutoff="1.0000000000000000" />
      <sparseX alpha="-349.04464020632429" i="243" sparseCutoff="1.0000000000000000" />
      <sparseX alpha="-397.49478533012945" i="244" sparseCutoff="1.0000000000000000" />
      <sparseX alpha="-4.4024048061414760" i="245" sparseCutoff="1.0000000000000000" />
      <sparseX alpha="326.49063140905571" i="246" sparseCutoff="1.0000000000000000" />
      <sparseX alpha="-106.82047938975137" i="247" sparseCutoff="1.0000000000000000" />
      <sparseX alpha="77.891044427096915" i="248" sparseCutoff="1.0000000000000000" />
      <sparseX alpha="824.35502255435483" i="249" sparseCutoff="1.0000000000000000" />
      <sparseX alpha="-237.76367675556432" i="250" sparseCutoff="1.0000000000000000" />
      <sparseX alpha="-227.56445189033420" i="251" sparseCutoff="1.0000000000000000" />
      <sparseX alpha="-105.75421164906714" i="252" sparseCutoff="1.0000000000000000" />
      <sparseX alpha="54.147940227958735" i="253" sparseCutoff="1.0000000000000000" />
      <sparseX alpha="36.486013246361352" i="254" sparseCutoff="1.0000000000000000" />
      <sparseX alpha="498.96487860107231" i="255" sparseCutoff="1.0000000000000000" />
      <sparseX alpha="129.21681538717056" i="256" sparseCutoff="1.0000000000000000" />
      <sparseX alpha="-307.35076226670560" i="257" sparseCutoff="1.0000000000000000" />
      <sparseX alpha="166.27617807029236" i="258" sparseCutoff="1.0000000000000000" />
      <sparseX alpha="224.79886517672878" i="259" sparseCutoff="1.0000000000000000" />
      <sparseX alpha="-280.07251313634214" i="260" sparseCutoff="1.0000000000000000" />
      <sparseX alpha="195.19532522952235" i="261" sparseCutoff="1.0000000000000000" />
      <sparseX alpha="90.302164191222090" i="262" sparseCutoff="1.0000000000000000" />
      <sparseX alpha="188.04349395689238" i="263" sparseCutoff="1.0000000000000000" />
      <sparseX alpha="221.49982494618402" i="264" sparseCutoff="1.0000000000000000" />
      <sparseX alpha="342.42313462848023" i="265" sparseCutoff="1.0000000000000000" />
      <sparseX alpha="-391.28611750413575" i="266" sparseCutoff="1.0000000000000000" />
      <sparseX alpha="-284.16323431075000" i="267" sparseCutoff="1.0000000000000000" />
      <sparseX alpha="305.40528362324136" i="268" sparseCutoff="1.0000000000000000" />
      <sparseX alpha="-376.81943868825914" i="269" sparseCutoff="1.0000000000000000" />
      <sparseX alpha="864.91399430355966" i="270" sparseCutoff="1.0000000000000000" />
      <sparseX alpha="-296.57958715410786" i="271" sparseCutoff="1.0000000000000000" />
      <sparseX alpha="762.13835580663522" i="272" sparseCutoff="1.0000000000000000" />
      <sparseX alpha="187.40217026097568" i="273" sparseCutoff="1.0000000000000000" />
      <sparseX alpha="123.43260828427564" i="274" sparseCutoff="1.0000000000000000" />
      <sparseX alpha="-729.78163219353371" i="275" sparseCutoff="1.0000000000000000" />
      <sparseX alpha="-480.96650899933127" i="276" sparseCutoff="1.0000000000000000" />
      <sparseX alpha="251.08277054203921" i="277" sparseCutoff="1.0000000000000000" />
      <sparseX alpha="87.288479228907036" i="278" sparseCutoff="1.0000000000000000" />
      <sparseX alpha="420.23103190586926" i="279" sparseCutoff="1.0000000000000000" />
      <sparseX alpha="389.90267491008143" i="280" sparseCutoff="1.0000000000000000" />
      <sparseX alpha="251.19560217861130" i="281" sparseCutoff="1.0000000000000000" />
      <sparseX alpha="-557.87271258734029" i="282" sparseCutoff="1.0000000000000000" />
      <sparseX alpha="-224.75520863713476" i="283" sparseCutoff="1.0000000000000000" />
      <sparseX alpha="-7.2157969678352956" i="284" sparseCutoff="1.0000000000000000" />
      <sparseX alpha="-263.02999854460290" i="285" sparseCutoff="1.0000000000000000" />
      <sparseX alpha="-385.35000945167644" i="286" sparseCutoff="1.0000000000000000" />
      <sparseX alpha="92.530458565661945" i="287" sparseCutoff="1.0000000000000000" />
      <sparseX alpha="-198.38179611583459" i="288" sparseCutoff="1.0000000000000000" />
      <sparseX alpha="9.6521301735460430" i="289" sparseCutoff="1.0000000000000000" />
      <sparseX alpha="27.246174239095783" i="290" sparseCutoff="1.0000000000000000" />
      <sparseX alpha="-98.898857181511190" i="291" sparseCutoff="1.0000000000000000" />
      <sparseX alpha="-153.10327025625421" i="292" sparseCutoff="1.0000000000000000" />
      <sparseX alpha="-731.22326535651939" i="293" sparseCutoff="1.0000000000000000" />
      <sparseX alpha="958.13258363939929" i="294" sparseCutoff="1.0000000000000000" />
      <sparseX alpha="172.67561327817467" i="295" sparseCutoff="1.0000000000000000" />
      <sparseX alpha="-220.30766756345730" i="296" sparseCutoff="1.0000000000000000" />
      <sparseX alpha="-35.944234064587938" i="297" sparseCutoff="1.0000000000000000" />
      <sparseX alpha="-143.52092015565739" i="298" sparseCutoff="1.0000000000000000" />
      <sparseX alpha="67.090260210444484" i="299" sparseCutoff="1.0000000000000000" />
      <sparseX alpha="-65.470663723450770" i="300" sparseCutoff="1.0000000000000000" />
      <sparseX alpha="-136.17621237477121" i="301" sparseCutoff="1.0000000000000000" />
      <sparseX alpha="217.65381563644948" i="302" sparseCutoff="1.0000000000000000" />
      <sparseX alpha="230.39266866313798" i="303" sparseCutoff="1.0000000000000000" />
      <sparseX alpha="390.33472554692128" i="304" sparseCutoff="1.0000000000000000" />
      <sparseX alpha="321.23009290700389" i="305" sparseCutoff="1.0000000000000000" />
      <sparseX alpha="-146.10524624700577" i="306" sparseCutoff="1.0000000000000000" />
      <sparseX alpha="76.338852065671418" i="307" sparseCutoff="1.0000000000000000" />
      <sparseX alpha="-290.33038456570478" i="308" sparseCutoff="1.0000000000000000" />
      <sparseX alpha="-9.5780791123206637" i="309" sparseCutoff="1.0000000000000000" />
      <sparseX alpha="313.49552193632638" i="310" sparseCutoff="1.0000000000000000" />
      <sparseX alpha="-93.215384618273617" i="311" sparseCutoff="1.0000000000000000" />
      <sparseX alpha="-31.446481130868701" i="312" sparseCutoff="1.0000000000000000" />
      <sparseX alpha="-310.34207021451329" i="313" sparseCutoff="1.0000000000000000" />
      <sparseX alpha="-351.16958919820894" i="314" sparseCutoff="1.0000000000000000" />
      <sparseX alpha="-80.605349398960541" i="315" sparseCutoff="1.0000000000000000" />
      <sparseX alpha="-88.370032355930519" i="316" sparseCutoff="1.0000000000000000" />
      <sparseX alpha="-164.67204179939324" i="317" sparseCutoff="1.0000000000000000" />
      <sparseX alpha="-1.1243271577560536" i="318" sparseCutoff="1.0000000000000000" />
      <sparseX alpha="-277.66202399447303" i="319" sparseCutoff="1.0000000000000000" />
      <sparseX alpha="-258.07944312909143" i="320" sparseCutoff="1.0000000000000000" />
      <sparseX alpha="-718.31809907186368" i="321" sparseCutoff="1.0000000000000000" />
      <sparseX alpha="18.581320953607008" i="322" sparseCutoff="1.0000000000000000" />
      <sparseX alpha="-380.82684793472703" i="323" sparseCutoff="1.0000000000000000" />
      <sparseX alpha="60.848827022181041" i="324" sparseCutoff="1.0000000000000000" />
      <sparseX alpha="691.63032292334879" i="325" sparseCutoff="1.0000000000000000" />
      <sparseX alpha="-413.89956731314697" i="326" sparseCutoff="1.0000000000000000" />
      <sparseX alpha="156.83468439227269" i="327" sparseCutoff="1.0000000000000000" />
      <sparseX alpha="404.34161469673933" i="328" sparseCutoff="1.0000000000000000" />
      <sparseX alpha="-289.60356290302968" i="329" sparseCutoff="1.0000000000000000" />
      <sparseX alpha="226.25844479765490" i="330" sparseCutoff="1.0000000000000000" />
      <sparseX alpha="604.02182881342515" i="331" sparseCutoff="1.0000000000000000" />
      <sparseX alpha="265.59111270010607" i="332" sparseCutoff="1.0000000000000000" />
      <sparseX alpha="-36.524389237236967" i="333" sparseCutoff="1.0000000000000000" />
      <sparseX alpha="-237.71154774839366" i="334" sparseCutoff="1.0000000000000000" />
      <sparseX alpha="260.18987994215502" i="335" sparseCutoff="1.0000000000000000" />
      <sparseX alpha="258.05924826896739" i="336" sparseCutoff="1.0000000000000000" />
      <sparseX alpha="115.30505281882502" i="337" sparseCutoff="1.0000000000000000" />
      <sparseX alpha="206.94809669403190" i="338" sparseCutoff="1.0000000000000000" />
      <sparseX alpha="-49.360631607751074" i="339" sparseCutoff="1.0000000000000000" />
      <sparseX alpha="-193.59756505460265" i="340" sparseCutoff="1.0000000000000000" />
      <sparseX alpha="-190.69025696675675" i="341" sparseCutoff="1.0000000000000000" />
      <sparseX alpha="-272.41382560839315" i="342" sparseCutoff="1.0000000000000000" />
      <sparseX alpha="908.13461595979584" i="343" sparseCutoff="1.0000000000000000" />
      <sparseX alpha="-174.53558227605529" i="344" sparseCutoff="1.0000000000000000" />
      <sparseX alpha="-339.85372891176917" i="345" sparseCutoff="1.0000000000000000" />
      <sparseX alpha="654.13307360546457" i="346" sparseCutoff="1.0000000000000000" />
      <sparseX alpha="-522.26799753417026" i="347" sparseCutoff="1.0000000000000000" />
      <sparseX alpha="186.09572010958874" i="348" sparseCutoff="1.0000000000000000" />
      <sparseX alpha="476.94115336546446" i="349" sparseCutoff="1.0000000000000000" />
      <sparseX alpha="80.889232124309629" i="350" sparseCutoff="1.0000000000000000" />
      <sparseX alpha="560.00074981513615" i="351" sparseCutoff="1.0000000000000000" />
      <sparseX alpha="268.82312963559724" i="352" sparseCutoff="1.0000000000000000" />
      <sparseX alpha="-105.24553264920296" i="353" sparseCutoff="1.0000000000000000" />
      <sparseX alpha="363.74903819901965" i="354" sparseCutoff="1.0000000000000000" />
      <sparseX alpha="52.967556905235035" i="355" sparseCutoff="1.0000000000000000" />
      <sparseX alpha="-146.53780828985157" i="356" sparseCutoff="1.0000000000000000" />
      <sparseX alpha="185.96212995333340" i="357" sparseCutoff="1.0000000000000000" />
      <sparseX alpha="111.43391648554031" i="358" sparseCutoff="1.0000000000000000" />
      <sparseX alpha="-290.72779175197593" i="359" sparseCutoff="1.0000000000000000" />
      <sparseX alpha="78.591420653386180" i="360" sparseCutoff="1.0000000000000000" />
      <sparseX alpha="-370.80911844209521" i="361" sparseCutoff="1.0000000000000000" />
      <sparseX alpha="434.51560881922052" i="362" sparseCutoff="1.0000000000000000" />
      <sparseX alpha="-108.01049742504202" i="363" sparseCutoff="1.0000000000000000" />
      <sparseX alpha="-81.792650626507722" i="364" sparseCutoff="1.0000000000000000" />
      <sparseX alpha="523.55832346498926" i="365" sparseCutoff="1.0000000000000000" />
      <sparseX alpha="-91.587949639835173" i="366" sparseCutoff="1.0000000000000000" />
      <sparseX alpha="-89.114964101731871" i="367" sparseCutoff="1.0000000000000000" />
      <sparseX alpha="-427.70390820881192" i="368" sparseCutoff="1.0000000000000000" />
      <sparseX alpha="-176.85058660464446" i="369" sparseCutoff="1.0000000000000000" />
      <sparseX alpha="207.12105672601442" i="370" sparseCutoff="1.0000000000000000" />
      <sparseX alpha="248.77998403569865" i="371" sparseCutoff="1.0000000000000000" />
      <sparseX alpha="-32.549858514921809" i="372" sparseCutoff="1.0000000000000000" />
      <sparseX alpha="50.515294436001824" i="373" sparseCutoff="1.0000000000000000" />
      <sparseX alpha="-638.13613860786563" i="374" sparseCutoff="1.0000000000000000" />
      <sparseX alpha="-16.823553759090082" i="375" sparseCutoff="1.0000000000000000" />
      <sparseX alpha="35.397209116015745" i="376" sparseCutoff="1.0000000000000000" />
      <sparseX alpha="-479.35149066931825" i="377" sparseCutoff="1.0000000000000000" />
      <sparseX alpha="332.63737343242616" i="378" sparseCutoff="1.0000000000000000" />
      <sparseX alpha="-20.627282049841938" i="379" sparseCutoff="1.0000000000000000" />
      <sparseX alpha="5.5764152740085384" i="380" sparseCutoff="1.0000000000000000" />
      <sparseX alpha="730.49188774814695" i="381" sparseCutoff="1.0000000000000000" />
      <sparseX alpha="286.36471035318249" i="382" sparseCutoff="1.0000000000000000" />
      <sparseX alpha="-452.23598881387977" i="383" sparseCutoff="1.0000000000000000" />
      <sparseX alpha="-108.23148747052798" i="384" sparseCutoff="1.0000000000000000" />
      <sparseX alpha="-79.661720933108697" i="385" sparseCutoff="1.0000000000000000" />
      <sparseX alpha="68.709041565377490" i="386" sparseCutoff="1.0000000000000000" />
      <sparseX alpha="-268.92765432298097" i="387" sparseCutoff="1.0000000000000000" />
      <sparseX alpha="-133.24399135017239" i="388" sparseCutoff="1.0000000000000000" />
      <sparseX alpha="555.25044611690578" i="389" sparseCutoff="1.0000000000000000" />
      <sparseX alpha="10.719464014399342" i="390" sparseCutoff="1.0000000000000000" />
      <sparseX alpha="-27.176045450819203" i="391" sparseCutoff="1.0000000000000000" />
      <sparseX alpha="-207.18837674231062" i="392" sparseCutoff="1.0000000000000000" />
      <sparseX alpha="-77.275851880619882" i="393" sparseCutoff="1.0000000000000000" />
      <sparseX alpha="550.51986698152257" i="394" sparseCutoff="1.0000000000000000" />
      <sparseX alpha="166.97170229906436" i="395" sparseCutoff="1.0000000000000000" />
      <sparseX alpha="255.11208089157157" i="396" sparseCutoff="1.0000000000000000" />
      <sparseX alpha="95.715983548828632" i="397" sparseCutoff="1.0000000000000000" />
      <sparseX alpha="-270.70490372494845" i="398" sparseCutoff="1.0000000000000000" />
      <sparseX alpha="73.020644328831182" i="399" sparseCutoff="1.0000000000000000" />
      <sparseX alpha="446.78614896870721" i="400" sparseCutoff="1.0000000000000000" />
      <sparseX alpha="-141.40386197876509" i="401" sparseCutoff="1.0000000000000000" />
      <sparseX alpha="-12.100346782093208" i="402" sparseCutoff="1.0000000000000000" />
      <sparseX alpha="113.66017602148104" i="403" sparseCutoff="1.0000000000000000" />
      <sparseX alpha="-134.99669482086270" i="404" sparseCutoff="1.0000000000000000" />
      <sparseX alpha="-76.309432907301485" i="405" sparseCutoff="1.0000000000000000" />
      <sparseX alpha="-299.09615750066610" i="406" sparseCutoff="1.0000000000000000" />
      <sparseX alpha="649.89325029285078" i="407" sparseCutoff="1.0000000000000000" />
      <sparseX alpha="176.14945181829080" i="408" sparseCutoff="1.0000000000000000" />
      <sparseX alpha="212.40698959830183" i="409" sparseCutoff="1.0000000000000000" />
      <sparseX alpha="187.49629988156283" i="410" sparseCutoff="1.0000000000000000" />
      <sparseX alpha="-430.41947981732773" i="411" sparseCutoff="1.0000000000000000" />
      <sparseX alpha="714.61944406803025" i="412" sparseCutoff="1.0000000000000000" />
      <sparseX alpha="55.748648347606213" i="413" sparseCutoff="1.0000000000000000" />
      <sparseX alpha="-118.25437650518475" i="414" sparseCutoff="1.0000000000000000" />
      <sparseX alpha="260.65875390265273" i="415" sparseCutoff="1.0000000000000000" />
      <sparseX alpha="1.7187613359182790" i="416" sparseCutoff="1.0000000000000000" />
      <sparseX alpha="330.24070520356753" i="417" sparseCutoff="1.0000000000000000" />
      <sparseX alpha="-141.81531820091342" i="418" sparseCutoff="1.0000000000000000" />
      <sparseX alpha="-953.11012527256469" i="419" sparseCutoff="1.0000000000000000" />
      <sparseX alpha="220.15873576731218" i="420" sparseCutoff="1.0000000000000000" />
      <sparseX alpha="370.39406415982552" i="421" sparseCutoff="1.0000000000000000" />
      <sparseX alpha="-133.96827748009960" i="422" sparseCutoff="1.0000000000000000" />
      <sparseX alpha="355.25740018093927" i="423" sparseCutoff="1.0000000000000000" />
      <sparseX alpha="203.52457278977954" i="424" sparseCutoff="1.0000000000000000" />
      <sparseX alpha="216.13424985663627" i="425" sparseCutoff="1.0000000000000000" />
      <sparseX alpha="-86.317796381375317" i="426" sparseCutoff="1.0000000000000000" />
      <sparseX alpha="241.39014013484640" i="427" sparseCutoff="1.0000000000000000" />
      <sparseX alpha="-104.81690639574725" i="428" sparseCutoff="1.0000000000000000" />
      <sparseX alpha="99.879671831989683" i="429" sparseCutoff="1.0000000000000000" />
      <sparseX alpha=".28795585073855617" i="430" sparseCutoff="1.0000000000000000" />
      <sparseX alpha="71.730514191252254" i="431" sparseCutoff="1.0000000000000000" />
      <sparseX alpha="-131.74613857738072" i="432" sparseCutoff="1.0000000000000000" />
      <sparseX alpha="-275.61830020572916" i="433" sparseCutoff="1.0000000000000000" />
      <sparseX alpha="-351.77042945078750" i="434" sparseCutoff="1.0000000000000000" />
      <sparseX alpha="-40.286121102140079" i="435" sparseCutoff="1.0000000000000000" />
      <sparseX alpha="6.0668563431859805" i="436" sparseCutoff="1.0000000000000000" />
      <sparseX alpha="99.628212766872352" i="437" sparseCutoff="1.0000000000000000" />
      <sparseX alpha="551.57087186686613" i="438" sparseCutoff="1.0000000000000000" />
      <sparseX alpha="155.38008003316958" i="439" sparseCutoff="1.0000000000000000" />
      <sparseX alpha="267.22069990618269" i="440" sparseCutoff="1.0000000000000000" />
      <sparseX alpha="-147.20566029879001" i="441" sparseCutoff="1.0000000000000000" />
      <sparseX alpha="-103.74743835819612" i="442" sparseCutoff="1.0000000000000000" />
      <sparseX alpha="75.459032338610825" i="443" sparseCutoff="1.0000000000000000" />
      <sparseX alpha="-271.59577116708465" i="444" sparseCutoff="1.0000000000000000" />
      <sparseX alpha="-11.953187654798082" i="445" sparseCutoff="1.0000000000000000" />
      <sparseX alpha="-108.99651465408911" i="446" sparseCutoff="1.0000000000000000" />
      <sparseX alpha="438.22580163815553" i="447" sparseCutoff="1.0000000000000000" />
      <sparseX alpha="421.75959855231326" i="448" sparseCutoff="1.0000000000000000" />
      <sparseX alpha="323.17438368821990" i="449" sparseCutoff="1.0000000000000000" />
      <sparseX alpha="234.07479944723315" i="450" sparseCutoff="1.0000000000000000" />
      <sparseX alpha="338.13862874249065" i="451" sparseCutoff="1.0000000000000000" />
      <sparseX alpha="-84.129172281436084" i="452" sparseCutoff="1.0000000000000000" />
      <sparseX alpha="-45.715940070103301" i="453" sparseCutoff="1.0000000000000000" />
      <sparseX alpha="253.82842764552367" i="454" sparseCutoff="1.0000000000000000" />
      <sparseX alpha="562.68539742939606" i="455" sparseCutoff="1.0000000000000000" />
      <sparseX alpha="373.24361187568491" i="456" sparseCutoff="1.0000000000000000" />
      <sparseX alpha="71.068758109147467" i="457" sparseCutoff="1.0000000000000000" />
      <sparseX alpha="250.41749641746051" i="458" sparseCutoff="1.0000000000000000" />
      <sparseX alpha="-42.580977742124624" i="459" sparseCutoff="1.0000000000000000" />
      <sparseX alpha="-192.98725139905642" i="460" sparseCutoff="1.0000000000000000" />
      <sparseX alpha="36.445540613656839" i="461" sparseCutoff="1.0000000000000000" />
      <sparseX alpha="-415.82798021091480" i="462" sparseCutoff="1.0000000000000000" />
      <sparseX alpha="358.93766453763516" i="463" sparseCutoff="1.0000000000000000" />
      <sparseX alpha="-333.92117919708494" i="464" sparseCutoff="1.0000000000000000" />
      <sparseX alpha="766.72662572439049" i="465" sparseCutoff="1.0000000000000000" />
      <sparseX alpha="-101.34348842557112" i="466" sparseCutoff="1.0000000000000000" />
      <sparseX alpha="-93.822125634830485" i="467" sparseCutoff="1.0000000000000000" />
      <sparseX alpha="573.53675862705086" i="468" sparseCutoff="1.0000000000000000" />
      <sparseX alpha="-738.92227203289053" i="469" sparseCutoff="1.0000000000000000" />
      <sparseX alpha="-19.464454791063744" i="470" sparseCutoff="1.0000000000000000" />
      <sparseX alpha="340.02170487301350" i="471" sparseCutoff="1.0000000000000000" />
      <sparseX alpha="-66.028894477610976" i="472" sparseCutoff="1.0000000000000000" />
      <sparseX alpha="-22.182126200291052" i="473" sparseCutoff="1.0000000000000000" />
      <sparseX alpha="59.262411534483974" i="474" sparseCutoff="1.0000000000000000" />
      <sparseX alpha="-27.539679906865651" i="475" sparseCutoff="1.0000000000000000" />
      <sparseX alpha="-408.65278998611279" i="476" sparseCutoff="1.0000000000000000" />
      <sparseX alpha="360.58339043580185" i="477" sparseCutoff="1.0000000000000000" />
      <sparseX alpha="1242.2089087441116" i="478" sparseCutoff="1.0000000000000000" />
      <sparseX alpha="223.23184270681901" i="479" sparseCutoff="1.0000000000000000" />
      <sparseX alpha="201.20934073813928" i="480" sparseCutoff="1.0000000000000000" />
      <sparseX alpha="-27.541039794837413" i="481" sparseCutoff="1.0000000000000000" />
      <sparseX alpha="8.3113592863865087" i="482" sparseCutoff="1.0000000000000000" />
      <sparseX alpha="-131.54345696834568" i="483" sparseCutoff="1.0000000000000000" />
      <sparseX alpha="387.30925930634146" i="484" sparseCutoff="1.0000000000000000" />
      <sparseX alpha="-210.35227726656962" i="485" sparseCutoff="1.0000000000000000" />
      <sparseX alpha="264.68090313392719" i="486" sparseCutoff="1.0000000000000000" />
      <sparseX alpha="60.314880973982135" i="487" sparseCutoff="1.0000000000000000" />
      <sparseX alpha="-358.81622305720231" i="488" sparseCutoff="1.0000000000000000" />
      <sparseX alpha="180.58504409815740" i="489" sparseCutoff="1.0000000000000000" />
      <sparseX alpha="-307.27190818293997" i="490" sparseCutoff="1.0000000000000000" />
      <sparseX alpha="-319.78293272825618" i="491" sparseCutoff="1.0000000000000000" />
      <sparseX alpha="29.906328904709209" i="492" sparseCutoff="1.0000000000000000" />
      <sparseX alpha="-255.08261709069080" i="493" sparseCutoff="1.0000000000000000" />
      <sparseX alpha="220.46622118244059" i="494" sparseCutoff="1.0000000000000000" />
      <sparseX alpha="-214.33649786767145" i="495" sparseCutoff="1.0000000000000000" />
      <sparseX alpha="-331.64516585891039" i="496" sparseCutoff="1.0000000000000000" />
      <sparseX alpha="284.47536560627628" i="497" sparseCutoff="1.0000000000000000" />
      <sparseX alpha="-203.32997538181178" i="498" sparseCutoff="1.0000000000000000" />
      <sparseX alpha="280.02147691907305" i="499" sparseCutoff="1.0000000000000000" />
      <sparseX alpha="-.20935910112919279" i="500" sparseCutoff="1.0000000000000000" />
      <sparseX alpha="-70.497695387867495" i="501" sparseCutoff="1.0000000000000000" />
      <sparseX alpha="176.57622343222593" i="502" sparseCutoff="1.0000000000000000" />
      <sparseX alpha="-135.04978144320714" i="503" sparseCutoff="1.0000000000000000" />
      <sparseX alpha="-338.49296743739768" i="504" sparseCutoff="1.0000000000000000" />
      <sparseX alpha="-156.44402344111884" i="505" sparseCutoff="1.0000000000000000" />
      <sparseX alpha="-71.380809548400137" i="506" sparseCutoff="1.0000000000000000" />
      <sparseX alpha="135.01845387576245" i="507" sparseCutoff="1.0000000000000000" />
      <sparseX alpha="-14.421536329768770" i="508" sparseCutoff="1.0000000000000000" />
      <sparseX alpha="-220.10900650829035" i="509" sparseCutoff="1.0000000000000000" />
      <sparseX alpha="-119.98112286148771" i="510" sparseCutoff="1.0000000000000000" />
      <sparseX alpha="-249.96461547148965" i="511" sparseCutoff="1.0000000000000000" />
      <sparseX alpha="270.68756295965761" i="512" sparseCutoff="1.0000000000000000" />
      <sparseX alpha="-351.65810949533318" i="513" sparseCutoff="1.0000000000000000" />
      <sparseX alpha="-98.586874505750728" i="514" sparseCutoff="1.0000000000000000" />
      <sparseX alpha="-206.56969539559944" i="515" sparseCutoff="1.0000000000000000" />
      <sparseX alpha="-131.42950060994289" i="516" sparseCutoff="1.0000000000000000" />
      <sparseX alpha="-176.56550813025885" i="517" sparseCutoff="1.0000000000000000" />
      <sparseX alpha="-84.446780170443162" i="518" sparseCutoff="1.0000000000000000" />
      <sparseX alpha="-774.53033326131538" i="519" sparseCutoff="1.0000000000000000" />
      <sparseX alpha="-344.32944245940439" i="520" sparseCutoff="1.0000000000000000" />
      <sparseX alpha="-225.74091148650328" i="521" sparseCutoff="1.0000000000000000" />
      <sparseX alpha="-697.34255549012789" i="522" sparseCutoff="1.0000000000000000" />
      <sparseX alpha="-60.111582925079780" i="523" sparseCutoff="1.0000000000000000" />
      <sparseX alpha="187.00056338468360" i="524" sparseCutoff="1.0000000000000000" />
      <sparseX alpha="-279.61189036090138" i="525" sparseCutoff="1.0000000000000000" />
      <sparseX alpha="-176.43470016331116" i="526" sparseCutoff="1.0000000000000000" />
      <sparseX alpha="-38.954552180245052" i="527" sparseCutoff="1.0000000000000000" />
      <sparseX alpha="-175.00087455971951" i="528" sparseCutoff="1.0000000000000000" />
      <sparseX alpha="73.289598649263411" i="529" sparseCutoff="1.0000000000000000" />
      <sparseX alpha="393.21844928427458" i="530" sparseCutoff="1.0000000000000000" />
      <sparseX alpha="152.03024154843561" i="531" sparseCutoff="1.0000000000000000" />
      <sparseX alpha="22.470211651414473" i="532" sparseCutoff="1.0000000000000000" />
      <sparseX alpha="6.2672421824561981" i="533" sparseCutoff="1.0000000000000000" />
      <sparseX alpha="-234.05481764517538" i="534" sparseCutoff="1.0000000000000000" />
      <sparseX alpha="244.55012877132467" i="535" sparseCutoff="1.0000000000000000" />
      <sparseX alpha="-309.58980628798560" i="536" sparseCutoff="1.0000000000000000" />
      <sparseX alpha="-323.28602791698728" i="537" sparseCutoff="1.0000000000000000" />
      <sparseX alpha="189.30102055868034" i="538" sparseCutoff="1.0000000000000000" />
      <sparseX alpha="-180.17579343393928" i="539" sparseCutoff="1.0000000000000000" />
      <sparseX alpha="394.55011124364410" i="540" sparseCutoff="1.0000000000000000" />
      <sparseX alpha="-8.3998100055175549" i="541" sparseCutoff="1.0000000000000000" />
      <sparseX alpha="-242.68313205099898" i="542" sparseCutoff="1.0000000000000000" />
      <sparseX alpha="-18.551298758047867" i="543" sparseCutoff="1.0000000000000000" />
      <sparseX alpha="-96.081324360204007" i="544" sparseCutoff="1.0000000000000000" />
      <sparseX alpha="-162.41850876722401" i="545" sparseCutoff="1.0000000000000000" />
      <sparseX alpha="-335.86868359521281" i="546" sparseCutoff="1.0000000000000000" />
      <sparseX alpha="386.76956336681627" i="547" sparseCutoff="1.0000000000000000" />
      <sparseX alpha="-203.49580593942639" i="548" sparseCutoff="1.0000000000000000" />
      <sparseX alpha="-63.226705664183662" i="549" sparseCutoff="1.0000000000000000" />
      <sparseX alpha="-268.18773035821806" i="550" sparseCutoff="1.0000000000000000" />
      <sparseX alpha="-10.357389387743067" i="551" sparseCutoff="1.0000000000000000" />
      <sparseX alpha="-156.76375598343697" i="552" sparseCutoff="1.0000000000000000" />
      <sparseX alpha="293.07343043842695" i="553" sparseCutoff="1.0000000000000000" />
      <sparseX alpha="-229.78946684657842" i="554" sparseCutoff="1.0000000000000000" />
      <sparseX alpha="274.19852021435258" i="555" sparseCutoff="1.0000000000000000" />
      <sparseX alpha="88.345738822242410" i="556" sparseCutoff="1.0000000000000000" />
      <sparseX alpha="-207.04405068540416" i="557" sparseCutoff="1.0000000000000000" />
      <sparseX alpha="-4.6552444506511641" i="558" sparseCutoff="1.0000000000000000" />
      <sparseX alpha="-125.13359659996340" i="559" sparseCutoff="1.0000000000000000" />
      <sparseX alpha="-18.210600413496532" i="560" sparseCutoff="1.0000000000000000" />
      <sparseX alpha="236.37649804231913" i="561" sparseCutoff="1.0000000000000000" />
      <sparseX alpha="-62.146311011593880" i="562" sparseCutoff="1.0000000000000000" />
      <sparseX alpha="-387.07301505364018" i="563" sparseCutoff="1.0000000000000000" />
      <sparseX alpha="-381.84214764439378" i="564" sparseCutoff="1.0000000000000000" />
      <sparseX alpha="-103.83912157276076" i="565" sparseCutoff="1.0000000000000000" />
      <sparseX alpha="662.75660933735730" i="566" sparseCutoff="1.0000000000000000" />
      <sparseX alpha="-479.16883538000485" i="567" sparseCutoff="1.0000000000000000" />
      <sparseX alpha="-342.12316504259036" i="568" sparseCutoff="1.0000000000000000" />
      <sparseX alpha="-15.236414401695766" i="569" sparseCutoff="1.0000000000000000" />
      <sparseX alpha="864.08405374708605" i="570" sparseCutoff="1.0000000000000000" />
      <sparseX alpha="-406.10587923203650" i="571" sparseCutoff="1.0000000000000000" />
      <sparseX alpha="-37.377450366342863" i="572" sparseCutoff="1.0000000000000000" />
      <sparseX alpha="-206.95968382400136" i="573" sparseCutoff="1.0000000000000000" />
      <sparseX alpha="-44.060033727167628" i="574" sparseCutoff="1.0000000000000000" />
      <sparseX alpha="44.846644884683258" i="575" sparseCutoff="1.0000000000000000" />
      <sparseX alpha="48.150828029287140" i="576" sparseCutoff="1.0000000000000000" />
      <sparseX alpha="-135.50926966648424" i="577" sparseCutoff="1.0000000000000000" />
      <sparseX alpha="-151.69533180309247" i="578" sparseCutoff="1.0000000000000000" />
      <sparseX alpha="435.64966997707637" i="579" sparseCutoff="1.0000000000000000" />
      <sparseX alpha="-659.00644301807620" i="580" sparseCutoff="1.0000000000000000" />
      <sparseX alpha="-215.20826104045031" i="581" sparseCutoff="1.0000000000000000" />
      <sparseX alpha="-101.56712220163810" i="582" sparseCutoff="1.0000000000000000" />
      <sparseX alpha="-255.30501710330205" i="583" sparseCutoff="1.0000000000000000" />
      <sparseX alpha="-210.34448003989192" i="584" sparseCutoff="1.0000000000000000" />
      <sparseX alpha="-432.54316244286883" i="585" sparseCutoff="1.0000000000000000" />
      <sparseX alpha="232.47266550203480" i="586" sparseCutoff="1.0000000000000000" />
      <sparseX alpha="-140.82923019498645" i="587" sparseCutoff="1.0000000000000000" />
      <sparseX alpha="116.71686380762458" i="588" sparseCutoff="1.0000000000000000" />
      <sparseX alpha="-23.136528750092289" i="589" sparseCutoff="1.0000000000000000" />
      <sparseX alpha="253.76615097225513" i="590" sparseCutoff="1.0000000000000000" />
      <sparseX alpha="152.23442966221575" i="591" sparseCutoff="1.0000000000000000" />
      <sparseX alpha="-167.44362027031809" i="592" sparseCutoff="1.0000000000000000" />
      <sparseX alpha="267.70356989424323" i="593" sparseCutoff="1.0000000000000000" />
      <sparseX alpha="40.394942259277300" i="594" sparseCutoff="1.0000000000000000" />
      <sparseX alpha="-66.246586817462415" i="595" sparseCutoff="1.0000000000000000" />
      <sparseX alpha="42.809858584166513" i="596" sparseCutoff="1.0000000000000000" />
      <sparseX alpha="-8.7989493630002400" i="597" sparseCutoff="1.0000000000000000" />
      <sparseX alpha="217.61815089623980" i="598" sparseCutoff="1.0000000000000000" />
      <sparseX alpha="582.33119605131117" i="599" sparseCutoff="1.0000000000000000" />
      <sparseX alpha="249.27917857392140" i="600" sparseCutoff="1.0000000000000000" />
      <sparseX alpha="-74.978144634757555" i="601" sparseCutoff="1.0000000000000000" />
      <sparseX alpha="41.766676054428636" i="602" sparseCutoff="1.0000000000000000" />
      <sparseX alpha="-372.71375703782559" i="603" sparseCutoff="1.0000000000000000" />
      <sparseX alpha="240.42928845161700" i="604" sparseCutoff="1.0000000000000000" />
      <sparseX alpha="333.86628710350317" i="605" sparseCutoff="1.0000000000000000" />
      <sparseX alpha="-57.864632013694994" i="606" sparseCutoff="1.0000000000000000" />
      <sparseX alpha="-370.13325985983647" i="607" sparseCutoff="1.0000000000000000" />
      <sparseX alpha="-70.772235298460032" i="608" sparseCutoff="1.0000000000000000" />
      <sparseX alpha="5.2911126828142852" i="609" sparseCutoff="1.0000000000000000" />
      <sparseX alpha="27.741021594802085" i="610" sparseCutoff="1.0000000000000000" />
      <sparseX alpha="-152.73892523946753" i="611" sparseCutoff="1.0000000000000000" />
      <sparseX alpha="-430.99947893855961" i="612" sparseCutoff="1.0000000000000000" />
      <sparseX alpha="197.05987461350770" i="613" sparseCutoff="1.0000000000000000" />
      <sparseX alpha="451.53365480855661" i="614" sparseCutoff="1.0000000000000000" />
      <sparseX alpha="-38.899070704446132" i="615" sparseCutoff="1.0000000000000000" />
      <sparseX alpha="1629.3310025329317" i="616" sparseCutoff="1.0000000000000000" />
      <sparseX alpha="-26.144572349080224" i="617" sparseCutoff="1.0000000000000000" />
      <sparseX alpha="-1035.9412089536961" i="618" sparseCutoff="1.0000000000000000" />
      <sparseX alpha="-128.97589313311414" i="619" sparseCutoff="1.0000000000000000" />
      <sparseX alpha="-405.00606054718332" i="620" sparseCutoff="1.0000000000000000" />
      <sparseX alpha="299.76225468743121" i="621" sparseCutoff="1.0000000000000000" />
      <sparseX alpha="311.59642733738713" i="622" sparseCutoff="1.0000000000000000" />
      <sparseX alpha="28.311510522574746" i="623" sparseCutoff="1.0000000000000000" />
      <sparseX alpha="-18.114534924436537" i="624" sparseCutoff="1.0000000000000000" />
      <sparseX alpha="-81.265063363644146" i="625" sparseCutoff="1.0000000000000000" />
      <sparseX alpha="-68.387849358201066" i="626" sparseCutoff="1.0000000000000000" />
      <sparseX alpha="-195.13494655774713" i="627" sparseCutoff="1.0000000000000000" />
      <sparseX alpha="72.411969356096137" i="628" sparseCutoff="1.0000000000000000" />
      <sparseX alpha="-357.85079793195086" i="629" sparseCutoff="1.0000000000000000" />
      <sparseX alpha="6.9087659965097599" i="630" sparseCutoff="1.0000000000000000" />
      <sparseX alpha="48.957921639469319" i="631" sparseCutoff="1.0000000000000000" />
      <sparseX alpha="-62.194731329895781" i="632" sparseCutoff="1.0000000000000000" />
      <sparseX alpha="21.547385503680832" i="633" sparseCutoff="1.0000000000000000" />
      <sparseX alpha="188.22570636695937" i="634" sparseCutoff="1.0000000000000000" />
      <sparseX alpha="-2.9971572574078258" i="635" sparseCutoff="1.0000000000000000" />
      <sparseX alpha="44.816500737142022" i="636" sparseCutoff="1.0000000000000000" />
      <sparseX alpha="88.106991208351772" i="637" sparseCutoff="1.0000000000000000" />
      <sparseX alpha="-120.40928178389861" i="638" sparseCutoff="1.0000000000000000" />
      <sparseX alpha="222.21042400527065" i="639" sparseCutoff="1.0000000000000000" />
      <sparseX alpha="-85.990695179847776" i="640" sparseCutoff="1.0000000000000000" />
      <sparseX alpha="29592.054047452966" i="641" sparseCutoff="1.0000000000000000" />
      <sparseX alpha="106.99251935209939" i="642" sparseCutoff="1.0000000000000000" />
      <sparseX alpha="-699.87507030492134" i="643" sparseCutoff="1.0000000000000000" />
      <sparseX alpha="267.55161064860687" i="644" sparseCutoff="1.0000000000000000" />
      <sparseX alpha="-10861.186049360622" i="645" sparseCutoff="1.0000000000000000" />
      <sparseX alpha="-46274.676804685114" i="646" sparseCutoff="1.0000000000000000" />
      <sparseX alpha="514.60116751698774" i="647" sparseCutoff="1.0000000000000000" />
      <sparseX alpha="46244.827437841850" i="648" sparseCutoff="1.0000000000000000" />
      <sparseX alpha="10815.644407373480" i="649" sparseCutoff="1.0000000000000000" />
      <sparseX alpha="-29654.017749266386" i="650" sparseCutoff="1.0000000000000000" />
      <sparseX alpha="567.51311491642571" i="651" sparseCutoff="1.0000000000000000" />
      <sparseX alpha="-56.583354037738033" i="652" sparseCutoff="1.0000000000000000" />
      <sparseX alpha="-450.83010108996973" i="653" sparseCutoff="1.0000000000000000" />
      <sparseX alpha="231.02231786478458" i="654" sparseCutoff="1.0000000000000000" />
      <sparseX alpha="-62.202934974812621" i="655" sparseCutoff="1.0000000000000000" />
      <sparseX alpha="-33.812683300825732" i="656" sparseCutoff="1.0000000000000000" />
      <sparseX alpha="-160.31862437467547" i="657" sparseCutoff="1.0000000000000000" />
      <sparseX alpha="-44.878986911029315" i="658" sparseCutoff="1.0000000000000000" />
      <sparseX alpha="-16.887102171677554" i="659" sparseCutoff="1.0000000000000000" />
      <sparseX alpha="-107.28785058431178" i="660" sparseCutoff="1.0000000000000000" />
      <sparseX alpha="70.459527820169583" i="661" sparseCutoff="1.0000000000000000" />
      <sparseX alpha="121.27750182510825" i="662" sparseCutoff="1.0000000000000000" />
      <sparseX alpha="-7.5453489661129876" i="663" sparseCutoff="1.0000000000000000" />
      <sparseX alpha="25.568712564453186" i="664" sparseCutoff="1.0000000000000000" />
      <sparseX alpha="-175.58073689449748" i="665" sparseCutoff="1.0000000000000000" />
      <sparseX alpha="-127.07894094702367" i="666" sparseCutoff="1.0000000000000000" />
      <sparseX alpha="67.501243127029056" i="667" sparseCutoff="1.0000000000000000" />
      <sparseX alpha="156.00114207373269" i="668" sparseCutoff="1.0000000000000000" />
      <sparseX alpha="-301.25086309210934" i="669" sparseCutoff="1.0000000000000000" />
      <sparseX alpha="-457.84593927100275" i="670" sparseCutoff="1.0000000000000000" />
      <sparseX alpha="32.963569964599792" i="671" sparseCutoff="1.0000000000000000" />
      <sparseX alpha="-16.261325191714711" i="672" sparseCutoff="1.0000000000000000" />
      <sparseX alpha="282.06336868512705" i="673" sparseCutoff="1.0000000000000000" />
      <sparseX alpha="58.273152415334515" i="674" sparseCutoff="1.0000000000000000" />
      <sparseX alpha="-306.44485348118383" i="675" sparseCutoff="1.0000000000000000" />
      <sparseX alpha="263.80172458798631" i="676" sparseCutoff="1.0000000000000000" />
      <sparseX alpha="196.77104376743955" i="677" sparseCutoff="1.0000000000000000" />
      <sparseX alpha="-119.71656208560162" i="678" sparseCutoff="1.0000000000000000" />
      <sparseX alpha="-102.63516814434632" i="679" sparseCutoff="1.0000000000000000" />
      <sparseX alpha="-98.869720850459970" i="680" sparseCutoff="1.0000000000000000" />
      <sparseX alpha="-325.41651094663132" i="681" sparseCutoff="1.0000000000000000" />
      <sparseX alpha="-439.35357789175396" i="682" sparseCutoff="1.0000000000000000" />
      <sparseX alpha="-164.84771009987787" i="683" sparseCutoff="1.0000000000000000" />
      <sparseX alpha="-679.18096534684537" i="684" sparseCutoff="1.0000000000000000" />
      <sparseX alpha="-381.01849135565590" i="685" sparseCutoff="1.0000000000000000" />
      <sparseX alpha="646.45273568372795" i="686" sparseCutoff="1.0000000000000000" />
      <sparseX alpha="37.692593574547054" i="687" sparseCutoff="1.0000000000000000" />
      <sparseX alpha="742.42764843806026" i="688" sparseCutoff="1.0000000000000000" />
      <sparseX alpha="-1082.0387021224594" i="689" sparseCutoff="1.0000000000000000" />
      <sparseX alpha="-638.98295723772242" i="690" sparseCutoff="1.0000000000000000" />
      <sparseX alpha="10.433910406340516" i="691" sparseCutoff="1.0000000000000000" />
      <sparseX alpha="-119.59365974550904" i="692" sparseCutoff="1.0000000000000000" />
      <sparseX alpha="-182.25166773166995" i="693" sparseCutoff="1.0000000000000000" />
      <sparseX alpha="-564.71318505064926" i="694" sparseCutoff="1.0000000000000000" />
      <sparseX alpha="102.01713849879032" i="695" sparseCutoff="1.0000000000000000" />
      <sparseX alpha="-223.36184201710719" i="696" sparseCutoff="1.0000000000000000" />
      <sparseX alpha="-25.819543088798742" i="697" sparseCutoff="1.0000000000000000" />
      <sparseX alpha="125.56260278998900" i="698" sparseCutoff="1.0000000000000000" />
      <sparseX alpha="292.21401465905444" i="699" sparseCutoff="1.0000000000000000" />
      <sparseX alpha="323.22595683218293" i="700" sparseCutoff="1.0000000000000000" />
      <sparseX alpha="-76.624858352797702" i="701" sparseCutoff="1.0000000000000000" />
      <sparseX alpha="252.92828323257186" i="702" sparseCutoff="1.0000000000000000" />
      <sparseX alpha="136.48235549631858" i="703" sparseCutoff="1.0000000000000000" />
      <sparseX alpha="-47.945999977681346" i="704" sparseCutoff="1.0000000000000000" />
      <sparseX alpha="372.34283142506860" i="705" sparseCutoff="1.0000000000000000" />
      <sparseX alpha="46.191198835385300" i="706" sparseCutoff="1.0000000000000000" />
      <sparseX alpha="-227.81302388549364" i="707" sparseCutoff="1.0000000000000000" />
      <sparseX alpha="-82.172366369462353" i="708" sparseCutoff="1.0000000000000000" />
      <sparseX alpha="-320.15909009493424" i="709" sparseCutoff="1.0000000000000000" />
      <sparseX alpha="-186.97848756039866" i="710" sparseCutoff="1.0000000000000000" />
      <sparseX alpha="-197.39425546660178" i="711" sparseCutoff="1.0000000000000000" />
      <sparseX alpha="66.699917939146417" i="712" sparseCutoff="1.0000000000000000" />
      <sparseX alpha="72.638194320410591" i="713" sparseCutoff="1.0000000000000000" />
      <sparseX alpha="-223.37909950320659" i="714" sparseCutoff="1.0000000000000000" />
      <sparseX alpha="-389.04162730544374" i="715" sparseCutoff="1.0000000000000000" />
      <sparseX alpha="-78.118654045850676" i="716" sparseCutoff="1.0000000000000000" />
      <sparseX alpha="203.26527965661134" i="717" sparseCutoff="1.0000000000000000" />
      <sparseX alpha="-208.37800306392344" i="718" sparseCutoff="1.0000000000000000" />
      <sparseX alpha="932.82291181050368" i="719" sparseCutoff="1.0000000000000000" />
      <sparseX alpha="-432.26537002796670" i="720" sparseCutoff="1.0000000000000000" />
      <sparseX alpha="-229.11246885445595" i="721" sparseCutoff="1.0000000000000000" />
      <sparseX alpha="-278.92615135187657" i="722" sparseCutoff="1.0000000000000000" />
      <sparseX alpha="-34.649899274163133" i="723" sparseCutoff="1.0000000000000000" />
      <sparseX alpha="309.82211907373596" i="724" sparseCutoff="1.0000000000000000" />
      <sparseX alpha="96.544567509757343" i="725" sparseCutoff="1.0000000000000000" />
      <sparseX alpha="40.047740462341835" i="726" sparseCutoff="1.0000000000000000" />
      <sparseX alpha="-458.69625456499233" i="727" sparseCutoff="1.0000000000000000" />
      <sparseX alpha="221.45624459807081" i="728" sparseCutoff="1.0000000000000000" />
      <sparseX alpha="-189.44965022612743" i="729" sparseCutoff="1.0000000000000000" />
      <sparseX alpha="-58.947265055637928" i="730" sparseCutoff="1.0000000000000000" />
      <sparseX alpha="-395.76080703591487" i="731" sparseCutoff="1.0000000000000000" />
      <sparseX alpha="-454.54789344133087" i="732" sparseCutoff="1.0000000000000000" />
      <sparseX alpha="378.32671584147022" i="733" sparseCutoff="1.0000000000000000" />
      <sparseX alpha="-1199.2679487007620" i="734" sparseCutoff="1.0000000000000000" />
      <sparseX alpha="-425.87561072214885" i="735" sparseCutoff="1.0000000000000000" />
      <sparseX alpha="204.37971691289252" i="736" sparseCutoff="1.0000000000000000" />
      <sparseX alpha="337.23953718712971" i="737" sparseCutoff="1.0000000000000000" />
      <sparseX alpha="-62.641820959710110" i="738" sparseCutoff="1.0000000000000000" />
      <sparseX alpha="25.611906203950422" i="739" sparseCutoff="1.0000000000000000" />
      <sparseX alpha="-134.98517429802791" i="740" sparseCutoff="1.0000000000000000" />
      <sparseX alpha="-968.69312221935979" i="741" sparseCutoff="1.0000000000000000" />
      <sparseX alpha="197.65358106842672" i="742" sparseCutoff="1.0000000000000000" />
      <sparseX alpha="164.08020005771112" i="743" sparseCutoff="1.0000000000000000" />
      <sparseX alpha="-61.052242422827582" i="744" sparseCutoff="1.0000000000000000" />
      <sparseX alpha="-497.69060180310026" i="745" sparseCutoff="1.0000000000000000" />
      <sparseX alpha="-109.63333050038560" i="746" sparseCutoff="1.0000000000000000" />
      <sparseX alpha="-69.038480535754459" i="747" sparseCutoff="1.0000000000000000" />
      <sparseX alpha="-302.57251848860886" i="748" sparseCutoff="1.0000000000000000" />
      <sparseX alpha="17.441211397610861" i="749" sparseCutoff="1.0000000000000000" />
      <sparseX alpha="74.041075889719465" i="750" sparseCutoff="1.0000000000000000" />
      <sparseX alpha="-371.83913403184846" i="751" sparseCutoff="1.0000000000000000" />
      <sparseX alpha="-185.91852853328771" i="752" sparseCutoff="1.0000000000000000" />
      <sparseX alpha="10.657055215031994" i="753" sparseCutoff="1.0000000000000000" />
      <sparseX alpha="-242.06978709893997" i="754" sparseCutoff="1.0000000000000000" />
      <sparseX alpha="-236.88757326200408" i="755" sparseCutoff="1.0000000000000000" />
      <sparseX alpha="-555.74223124273522" i="756" sparseCutoff="1.0000000000000000" />
      <sparseX alpha="-114.14377996013411" i="757" sparseCutoff="1.0000000000000000" />
      <sparseX alpha="-241.63005114604121" i="758" sparseCutoff="1.0000000000000000" />
      <sparseX alpha="-80.556474825278841" i="759" sparseCutoff="1.0000000000000000" />
      <sparseX alpha="-5.4573756461489600" i="760" sparseCutoff="1.0000000000000000" />
      <sparseX alpha="-9.2959093041208174" i="761" sparseCutoff="1.0000000000000000" />
      <sparseX alpha="-888.43119739802569" i="762" sparseCutoff="1.0000000000000000" />
      <sparseX alpha="266.83128074485040" i="763" sparseCutoff="1.0000000000000000" />
      <sparseX alpha="329.16611583989868" i="764" sparseCutoff="1.0000000000000000" />
      <sparseX alpha="207.32395720836104" i="765" sparseCutoff="1.0000000000000000" />
      <sparseX alpha="181.03111452937836" i="766" sparseCutoff="1.0000000000000000" />
      <sparseX alpha="-332.42433630144319" i="767" sparseCutoff="1.0000000000000000" />
      <sparseX alpha="389.87569826669471" i="768" sparseCutoff="1.0000000000000000" />
      <sparseX alpha="147.75926526663176" i="769" sparseCutoff="1.0000000000000000" />
      <sparseX alpha="-318.62545254716792" i="770" sparseCutoff="1.0000000000000000" />
      <sparseX alpha="-263.93077806415687" i="771" sparseCutoff="1.0000000000000000" />
      <sparseX alpha="-8.5566840862921865" i="772" sparseCutoff="1.0000000000000000" />
      <sparseX alpha="-426.12024607664813" i="773" sparseCutoff="1.0000000000000000" />
      <sparseX alpha="87.668354539060147" i="774" sparseCutoff="1.0000000000000000" />
      <sparseX alpha="614.40866882965031" i="775" sparseCutoff="1.0000000000000000" />
      <sparseX alpha="-313.06688734871562" i="776" sparseCutoff="1.0000000000000000" />
      <sparseX alpha="97.741320910910318" i="777" sparseCutoff="1.0000000000000000" />
      <sparseX alpha="268.52982477750248" i="778" sparseCutoff="1.0000000000000000" />
      <sparseX alpha="572.46669886546795" i="779" sparseCutoff="1.0000000000000000" />
      <sparseX alpha="-127.57270587177209" i="780" sparseCutoff="1.0000000000000000" />
      <sparseX alpha="213.67700617877455" i="781" sparseCutoff="1.0000000000000000" />
      <sparseX alpha="34.979673267710062" i="782" sparseCutoff="1.0000000000000000" />
      <sparseX alpha="178.59432631519778" i="783" sparseCutoff="1.0000000000000000" />
      <sparseX alpha="160.14124589988759" i="784" sparseCutoff="1.0000000000000000" />
      <sparseX alpha="147.30092492890128" i="785" sparseCutoff="1.0000000000000000" />
      <sparseX alpha="36.499335928908359" i="786" sparseCutoff="1.0000000000000000" />
      <sparseX alpha="-803.63290906094676" i="787" sparseCutoff="1.0000000000000000" />
      <sparseX alpha="-63.560829715596583" i="788" sparseCutoff="1.0000000000000000" />
      <sparseX alpha="-126.33371712607456" i="789" sparseCutoff="1.0000000000000000" />
      <sparseX alpha="289.48824872981271" i="790" sparseCutoff="1.0000000000000000" />
      <sparseX alpha="-179.47269328167181" i="791" sparseCutoff="1.0000000000000000" />
      <sparseX alpha="94.022973044506571" i="792" sparseCutoff="1.0000000000000000" />
      <sparseX alpha="-245.92309820697685" i="793" sparseCutoff="1.0000000000000000" />
      <sparseX alpha="517.40867868426983" i="794" sparseCutoff="1.0000000000000000" />
      <sparseX alpha="-358.32527318658413" i="795" sparseCutoff="1.0000000000000000" />
      <sparseX alpha="-44.347873723789924" i="796" sparseCutoff="1.0000000000000000" />
      <sparseX alpha="154.91038976274402" i="797" sparseCutoff="1.0000000000000000" />
      <sparseX alpha="-306.01548493370842" i="798" sparseCutoff="1.0000000000000000" />
      <sparseX alpha="14.974598311683060" i="799" sparseCutoff="1.0000000000000000" />
      <sparseX alpha="172.45141267726402" i="800" sparseCutoff="1.0000000000000000" />
      <sparseX alpha="-24.060778261093084" i="801" sparseCutoff="1.0000000000000000" />
      <sparseX alpha="438.45665044002629" i="802" sparseCutoff="1.0000000000000000" />
      <sparseX alpha="-132.62929488471659" i="803" sparseCutoff="1.0000000000000000" />
      <sparseX alpha="53.649696107109463" i="804" sparseCutoff="1.0000000000000000" />
      <sparseX alpha="24.786167075242105" i="805" sparseCutoff="1.0000000000000000" />
      <sparseX alpha="332.65428180515107" i="806" sparseCutoff="1.0000000000000000" />
      <sparseX alpha="-78.999650107047387" i="807" sparseCutoff="1.0000000000000000" />
      <sparseX alpha="274.75080346832607" i="808" sparseCutoff="1.0000000000000000" />
      <sparseX alpha="401.52173815965557" i="809" sparseCutoff="1.0000000000000000" />
      <sparseX alpha="-754.41005805764451" i="810" sparseCutoff="1.0000000000000000" />
      <sparseX alpha="595.07318594518085" i="811" sparseCutoff="1.0000000000000000" />
      <sparseX alpha="1242.8872567878368" i="812" sparseCutoff="1.0000000000000000" />
      <sparseX alpha="-1140.6325177758774" i="813" sparseCutoff="1.0000000000000000" />
      <sparseX alpha="-350.81501925969428" i="814" sparseCutoff="1.0000000000000000" />
      <sparseX alpha="-438.33123990195560" i="815" sparseCutoff="1.0000000000000000" />
      <sparseX alpha="-360.93904257228553" i="816" sparseCutoff="1.0000000000000000" />
      <sparseX alpha="116.39882580639019" i="817" sparseCutoff="1.0000000000000000" />
      <sparseX alpha="136.55830129291078" i="818" sparseCutoff="1.0000000000000000" />
      <sparseX alpha="-284.50908663846309" i="819" sparseCutoff="1.0000000000000000" />
      <sparseX alpha="372.53096468313390" i="820" sparseCutoff="1.0000000000000000" />
      <sparseX alpha="634.56871293381619" i="821" sparseCutoff="1.0000000000000000" />
      <sparseX alpha="530.05978487193670" i="822" sparseCutoff="1.0000000000000000" />
      <sparseX alpha="-533.18491771198262" i="823" sparseCutoff="1.0000000000000000" />
      <sparseX alpha="-180.73286714012869" i="824" sparseCutoff="1.0000000000000000" />
      <sparseX alpha="-251.37135289848854" i="825" sparseCutoff="1.0000000000000000" />
      <sparseX alpha="-344.66013357418126" i="826" sparseCutoff="1.0000000000000000" />
      <sparseX alpha="-575.70800330034751" i="827" sparseCutoff="1.0000000000000000" />
      <sparseX alpha="660.03290676499466" i="828" sparseCutoff="1.0000000000000000" />
      <sparseX alpha="219.94224354214049" i="829" sparseCutoff="1.0000000000000000" />
      <sparseX alpha="-365.48219314691198" i="830" sparseCutoff="1.0000000000000000" />
      <sparseX alpha="-146.76789361523410" i="831" sparseCutoff="1.0000000000000000" />
      <sparseX alpha="-62.331672367855752" i="832" sparseCutoff="1.0000000000000000" />
      <sparseX alpha="450.29828532917458" i="833" sparseCutoff="1.0000000000000000" />
      <sparseX alpha="-665.69333297121955" i="834" sparseCutoff="1.0000000000000000" />
      <sparseX alpha="109.94981218727318" i="835" sparseCutoff="1.0000000000000000" />
      <sparseX alpha="-122.28425921564646" i="836" sparseCutoff="1.0000000000000000" />
      <sparseX alpha="-166.35240625958889" i="837" sparseCutoff="1.0000000000000000" />
      <sparseX alpha="477.91636633164023" i="838" sparseCutoff="1.0000000000000000" />
      <sparseX alpha="82.925681170673329" i="839" sparseCutoff="1.0000000000000000" />
      <sparseX alpha="144.94283068413574" i="840" sparseCutoff="1.0000000000000000" />
      <sparseX alpha="91.443511070897088" i="841" sparseCutoff="1.0000000000000000" />
      <sparseX alpha="-436.71877275172341" i="842" sparseCutoff="1.0000000000000000" />
      <sparseX alpha="-90.645945341536546" i="843" sparseCutoff="1.0000000000000000" />
      <sparseX alpha="-362.46660086642657" i="844" sparseCutoff="1.0000000000000000" />
      <sparseX alpha="-351.56525046278063" i="845" sparseCutoff="1.0000000000000000" />
      <sparseX alpha="-139.74850196275514" i="846" sparseCutoff="1.0000000000000000" />
      <sparseX alpha="233.10851205347589" i="847" sparseCutoff="1.0000000000000000" />
      <sparseX alpha="-75.874324629836693" i="848" sparseCutoff="1.0000000000000000" />
      <sparseX alpha="-219.49316723457684" i="849" sparseCutoff="1.0000000000000000" />
      <sparseX alpha="-118.49830499473354" i="850" sparseCutoff="1.0000000000000000" />
      <sparseX alpha="185.76859549563429" i="851" sparseCutoff="1.0000000000000000" />
      <sparseX alpha="56.574383497894239" i="852" sparseCutoff="1.0000000000000000" />
      <sparseX alpha="733.06808324795077" i="853" sparseCutoff="1.0000000000000000" />
      <sparseX alpha="-145.56262930033279" i="854" sparseCutoff="1.0000000000000000" />
      <sparseX alpha="-221.99473729834838" i="855" sparseCutoff="1.0000000000000000" />
      <sparseX alpha="-424.03635774835675" i="856" sparseCutoff="1.0000000000000000" />
      <sparseX alpha="-279.56034777491323" i="857" sparseCutoff="1.0000000000000000" />
      <sparseX alpha="-631.39402279461331" i="858" sparseCutoff="1.0000000000000000" />
      <sparseX alpha="14.722763545065211" i="859" sparseCutoff="1.0000000000000000" />
      <sparseX alpha="-303.38385218021529" i="860" sparseCutoff="1.0000000000000000" />
      <sparseX alpha="-436.07147601942148" i="861" sparseCutoff="1.0000000000000000" />
      <sparseX alpha="104.40053250972792" i="862" sparseCutoff="1.0000000000000000" />
      <sparseX alpha="-159.99993293615981" i="863" sparseCutoff="1.0000000000000000" />
      <sparseX alpha="-223.34453740860801" i="864" sparseCutoff="1.0000000000000000" />
      <sparseX alpha="-113.08150507744153" i="865" sparseCutoff="1.0000000000000000" />
      <sparseX alpha="264.33993654871210" i="866" sparseCutoff="1.0000000000000000" />
      <sparseX alpha="-259.35524861842390" i="867" sparseCutoff="1.0000000000000000" />
      <sparseX alpha="-607.17678961162210" i="868" sparseCutoff="1.0000000000000000" />
      <sparseX alpha="201.11299781149896" i="869" sparseCutoff="1.0000000000000000" />
      <sparseX alpha="1006.5285318061758" i="870" sparseCutoff="1.0000000000000000" />
      <sparseX alpha="-312.63011382375288" i="871" sparseCutoff="1.0000000000000000" />
      <sparseX alpha="420.91369890271511" i="872" sparseCutoff="1.0000000000000000" />
      <sparseX alpha="225.72455690003571" i="873" sparseCutoff="1.0000000000000000" />
      <sparseX alpha="-214.43176053428391" i="874" sparseCutoff="1.0000000000000000" />
      <sparseX alpha="153.36284209726844" i="875" sparseCutoff="1.0000000000000000" />
      <sparseX alpha="-270.05699314705265" i="876" sparseCutoff="1.0000000000000000" />
      <sparseX alpha="289.01372272163923" i="877" sparseCutoff="1.0000000000000000" />
      <sparseX alpha="12.863027044644058" i="878" sparseCutoff="1.0000000000000000" />
      <sparseX alpha="-261.52247674112863" i="879" sparseCutoff="1.0000000000000000" />
      <sparseX alpha="-505.11754962987959" i="880" sparseCutoff="1.0000000000000000" />
      <sparseX alpha="-62.816383778392918" i="881" sparseCutoff="1.0000000000000000" />
      <sparseX alpha="754.39017436947870" i="882" sparseCutoff="1.0000000000000000" />
      <sparseX alpha="-173.63938857568542" i="883" sparseCutoff="1.0000000000000000" />
      <sparseX alpha="50.428304583908108" i="884" sparseCutoff="1.0000000000000000" />
      <sparseX alpha="530.24143865583528" i="885" sparseCutoff="1.0000000000000000" />
      <sparseX alpha="-94.736483723364302" i="886" sparseCutoff="1.0000000000000000" />
      <sparseX alpha="-123.03789647953734" i="887" sparseCutoff="1.0000000000000000" />
      <sparseX alpha="72.627964117583090" i="888" sparseCutoff="1.0000000000000000" />
      <sparseX alpha="64.875885412670826" i="889" sparseCutoff="1.0000000000000000" />
      <sparseX alpha="223.31037162259673" i="890" sparseCutoff="1.0000000000000000" />
      <sparseX alpha="-13.421310963268665" i="891" sparseCutoff="1.0000000000000000" />
      <sparseX alpha="459.19128425443563" i="892" sparseCutoff="1.0000000000000000" />
      <sparseX alpha="-292.15256679585463" i="893" sparseCutoff="1.0000000000000000" />
      <sparseX alpha="665.14677396923685" i="894" sparseCutoff="1.0000000000000000" />
      <sparseX alpha="9.7269726001646646" i="895" sparseCutoff="1.0000000000000000" />
      <sparseX alpha="123.84253697707996" i="896" sparseCutoff="1.0000000000000000" />
      <sparseX alpha="533.70455821117605" i="897" sparseCutoff="1.0000000000000000" />
      <sparseX alpha="-584.81831575558351" i="898" sparseCutoff="1.0000000000000000" />
      <sparseX alpha="636.88197319916469" i="899" sparseCutoff="1.0000000000000000" />
      <sparseX alpha="-320.71754936059324" i="900" sparseCutoff="1.0000000000000000" />
      <sparseX alpha="-19.272638870387766" i="901" sparseCutoff="1.0000000000000000" />
      <sparseX alpha="378.13345557598933" i="902" sparseCutoff="1.0000000000000000" />
      <sparseX alpha="-669.66607828738984" i="903" sparseCutoff="1.0000000000000000" />
      <sparseX alpha="460.38306842913323" i="904" sparseCutoff="1.0000000000000000" />
      <sparseX alpha="71.568987858171425" i="905" sparseCutoff="1.0000000000000000" />
      <sparseX alpha="570.90430544829974" i="906" sparseCutoff="1.0000000000000000" />
      <sparseX alpha="166.73110488668485" i="907" sparseCutoff="1.0000000000000000" />
      <sparseX alpha="-173.48598304904641" i="908" sparseCutoff="1.0000000000000000" />
      <sparseX alpha="492.41270512420374" i="909" sparseCutoff="1.0000000000000000" />
      <sparseX alpha="277.65803081659271" i="910" sparseCutoff="1.0000000000000000" />
      <sparseX alpha="-466.07821044299271" i="911" sparseCutoff="1.0000000000000000" />
      <sparseX alpha="286.03575090278747" i="912" sparseCutoff="1.0000000000000000" />
      <sparseX alpha="-69.883690035659484" i="913" sparseCutoff="1.0000000000000000" />
      <sparseX alpha="-23.539310848883940" i="914" sparseCutoff="1.0000000000000000" />
      <sparseX alpha="24.998034056624633" i="915" sparseCutoff="1.0000000000000000" />
      <sparseX alpha="-40.660068470690724" i="916" sparseCutoff="1.0000000000000000" />
      <sparseX alpha="-360.88768508001527" i="917" sparseCutoff="1.0000000000000000" />
      <sparseX alpha="396.82553680295121" i="918" sparseCutoff="1.0000000000000000" />
      <sparseX alpha="-402.73978794083166" i="919" sparseCutoff="1.0000000000000000" />
      <sparseX alpha="378.39059262765386" i="920" sparseCutoff="1.0000000000000000" />
      <sparseX alpha="-331.92762971207401" i="921" sparseCutoff="1.0000000000000000" />
      <sparseX alpha="475.17643639512528" i="922" sparseCutoff="1.0000000000000000" />
      <sparseX alpha="-22.784690716605649" i="923" sparseCutoff="1.0000000000000000" />
      <sparseX alpha="216.81059517619977" i="924" sparseCutoff="1.0000000000000000" />
      <sparseX alpha="1061.7760678087591" i="925" sparseCutoff="1.0000000000000000" />
      <sparseX alpha="-1111.8300176037053" i="926" sparseCutoff="1.0000000000000000" />
      <sparseX alpha="-241.98701674639454" i="927" sparseCutoff="1.0000000000000000" />
      <sparseX alpha="-402.06995186038984" i="928" sparseCutoff="1.0000000000000000" />
      <sparseX alpha="-248.53331933722666" i="929" sparseCutoff="1.0000000000000000" />
      <sparseX alpha="138.57423565820537" i="930" sparseCutoff="1.0000000000000000" />
      <sparseX alpha="113.99827752898713" i="931" sparseCutoff="1.0000000000000000" />
      <sparseX alpha="464.14247122437916" i="932" sparseCutoff="1.0000000000000000" />
      <sparseX alpha="127.90017979557548" i="933" sparseCutoff="1.0000000000000000" />
      <sparseX alpha="650.15703730427686" i="934" sparseCutoff="1.0000000000000000" />
      <sparseX alpha="237.89011197076584" i="935" sparseCutoff="1.0000000000000000" />
      <sparseX alpha="208.21966347580070" i="936" sparseCutoff="1.0000000000000000" />
      <sparseX alpha="73.573540820514253" i="937" sparseCutoff="1.0000000000000000" />
      <sparseX alpha="430.01500896846875" i="938" sparseCutoff="1.0000000000000000" />
      <sparseX alpha="-202.60950328756607" i="939" sparseCutoff="1.0000000000000000" />
      <sparseX alpha="203.69397710513940" i="940" sparseCutoff="1.0000000000000000" />
      <sparseX alpha="129.63321880045700" i="941" sparseCutoff="1.0000000000000000" />
      <sparseX alpha="-657.53319249127480" i="942" sparseCutoff="1.0000000000000000" />
      <sparseX alpha="161.20258683400996" i="943" sparseCutoff="1.0000000000000000" />
      <sparseX alpha="60.808634668658385" i="944" sparseCutoff="1.0000000000000000" />
      <sparseX alpha="154.65156591139234" i="945" sparseCutoff="1.0000000000000000" />
      <sparseX alpha="204.15416075356399" i="946" sparseCutoff="1.0000000000000000" />
      <sparseX alpha="614.82534949577735" i="947" sparseCutoff="1.0000000000000000" />
      <sparseX alpha="298.75833718115240" i="948" sparseCutoff="1.0000000000000000" />
      <sparseX alpha="247.27368459877138" i="949" sparseCutoff="1.0000000000000000" />
      <sparseX alpha="-41.468039861472398" i="950" sparseCutoff="1.0000000000000000" />
      <sparseX alpha="389.58000692981273" i="951" sparseCutoff="1.0000000000000000" />
      <sparseX alpha="493.97682560446469" i="952" sparseCutoff="1.0000000000000000" />
      <sparseX alpha="520.20821920279525" i="953" sparseCutoff="1.0000000000000000" />
      <sparseX alpha="291.49000370544405" i="954" sparseCutoff="1.0000000000000000" />
      <sparseX alpha="341.50616016163008" i="955" sparseCutoff="1.0000000000000000" />
      <sparseX alpha="230.51984817313956" i="956" sparseCutoff="1.0000000000000000" />
      <sparseX alpha="-305.16252681720346" i="957" sparseCutoff="1.0000000000000000" />
      <sparseX alpha="-507.32337900352911" i="958" sparseCutoff="1.0000000000000000" />
      <sparseX alpha="-320.55289772719334" i="959" sparseCutoff="1.0000000000000000" />
      <sparseX alpha="-57.258983353857033" i="960" sparseCutoff="1.0000000000000000" />
      <sparseX alpha="-500.84446329191013" i="961" sparseCutoff="1.0000000000000000" />
      <sparseX alpha="-356.78082310198033" i="962" sparseCutoff="1.0000000000000000" />
      <sparseX alpha="-17.810563782933187" i="963" sparseCutoff="1.0000000000000000" />
      <sparseX alpha="172.46658270229412" i="964" sparseCutoff="1.0000000000000000" />
      <sparseX alpha="-116.26420117734607" i="965" sparseCutoff="1.0000000000000000" />
      <sparseX alpha="-566.77288463323623" i="966" sparseCutoff="1.0000000000000000" />
      <sparseX alpha="-237.47712465056057" i="967" sparseCutoff="1.0000000000000000" />
      <sparseX alpha="393.78717129617974" i="968" sparseCutoff="1.0000000000000000" />
      <sparseX alpha="177.20183766663092" i="969" sparseCutoff="1.0000000000000000" />
      <sparseX alpha="1100.5243817529279" i="970" sparseCutoff="1.0000000000000000" />
      <sparseX alpha="293.88317255522855" i="971" sparseCutoff="1.0000000000000000" />
      <sparseX alpha="201.32140632420558" i="972" sparseCutoff="1.0000000000000000" />
      <sparseX alpha="-733.92135163405214" i="973" sparseCutoff="1.0000000000000000" />
      <sparseX alpha="-2846.9102285392842" i="974" sparseCutoff="1.0000000000000000" />
      <sparseX alpha="1464.4005512079373" i="975" sparseCutoff="1.0000000000000000" />
      <sparseX alpha="1822.4819603032677" i="976" sparseCutoff="1.0000000000000000" />
      <sparseX alpha="-3861.2171400070165" i="977" sparseCutoff="1.0000000000000000" />
      <sparseX alpha="-1040.1953254126863" i="978" sparseCutoff="1.0000000000000000" />
      <sparseX alpha="1273.5691387521197" i="979" sparseCutoff="1.0000000000000000" />
      <sparseX alpha="11.259633748678846" i="980" sparseCutoff="1.0000000000000000" />
      <sparseX alpha="10.676317988999935" i="981" sparseCutoff="1.0000000000000000" />
      <sparseX alpha="-6027.2762609827460" i="982" sparseCutoff="1.0000000000000000" />
      <sparseX alpha="-1043.2975191933147" i="983" sparseCutoff="1.0000000000000000" />
      <sparseX alpha="2754.8551345646492" i="984" sparseCutoff="1.0000000000000000" />
      <sparseX alpha="-92.069582868045813" i="985" sparseCutoff="1.0000000000000000" />
      <sparseX alpha="-1549.7017613826506" i="986" sparseCutoff="1.0000000000000000" />
      <sparseX alpha="420.12461032794937" i="987" sparseCutoff="1.0000000000000000" />
      <sparseX alpha="802.82334249675591" i="988" sparseCutoff="1.0000000000000000" />
      <sparseX alpha="529.37163675372267" i="989" sparseCutoff="1.0000000000000000" />
      <sparseX alpha="-2815.0303775718244" i="990" sparseCutoff="1.0000000000000000" />
      <sparseX alpha="773.07854813711629" i="991" sparseCutoff="1.0000000000000000" />
      <sparseX alpha="282.66690451449654" i="992" sparseCutoff="1.0000000000000000" />
      <sparseX alpha="597.26192547188305" i="993" sparseCutoff="1.0000000000000000" />
      <sparseX alpha="-630.78456509414036" i="994" sparseCutoff="1.0000000000000000" />
      <sparseX alpha="-1116.5825105256711" i="995" sparseCutoff="1.0000000000000000" />
      <sparseX alpha="3387.6676377310750" i="996" sparseCutoff="1.0000000000000000" />
      <sparseX alpha="1105.3292860276272" i="997" sparseCutoff="1.0000000000000000" />
      <sparseX alpha="772.31151364086793" i="998" sparseCutoff="1.0000000000000000" />
      <sparseX alpha="882.25229876474964" i="999" sparseCutoff="1.0000000000000000" />
      <sparseX alpha="-11.663768238677177" i="1000" sparseCutoff="1.0000000000000000" />
    </gpCoordinates>
  </gpSparse>
  <command_line> at_file=train.xyz gap={soap l_max=8 n_max=8 atom_sigma=0.5 zeta=4 cutoff=5.4 cutoff_transition_width=0.5 delta=1.0 f0=0.0 n_sparse=1000 covariance_type=dot_product sparse_method=cur_points} sparse_jitter=1e-08 e0=-0.79 e0_offset=0.0 default_sigma={0.01 0.05 0.01 1} energy_parameter_name=dft_energy force_parameter_name=dft_force gp_file=train.xml</command_line>
  <XYZ_data>
    64
    dft_energy=-339.96179476 dft_virial={169.41226465	0.0	0.0	0.0	92.75068024	0.0	0.0	0.0	92.75068024} Lattice="9.782758     0.0     0.0     0.0     10.937456     0.0     0.0     0.0     10.937456" Properties=species:S:1:pos:R:3:Z:I:1:dft_force:R:3
    Si                0.000000        0.000000        0.000000      14        0.000000        0.000000        0.000000
    Si                0.000000        0.000000        5.468728      14       -0.000000       -0.000000        0.000000
    Si                0.000000        5.468728        0.000000      14        0.000000       -0.000000       -0.000000
    Si                0.000000        5.468728        5.468728      14       -0.000000        0.000000       -0.000000
    Si                4.891379        0.000000        0.000000      14        0.000000        0.000000       -0.000000
    Si                4.891379        0.000000        5.468728      14        0.000000       -0.000000        0.000000
    Si                4.891379        5.468728        0.000000      14       -0.000000        0.000000       -0.000000
    Si                4.891379        5.468728        5.468728      14        0.000000       -0.000000        0.000000
    Si                1.222845        4.101546        4.101546      14        0.000000       -0.000000       -0.000000
    Si                1.222845        4.101546        9.570274      14       -0.000000       -0.000000        0.000000
    Si                1.222845        9.570274        4.101546      14       -0.000000       -0.000000       -0.000000
    Si                1.222845        9.570274        9.570274      14       -0.000000       -0.000000       -0.000000
    Si                6.114224        4.101546        4.101546      14       -0.000000        0.000000       -0.000000
    Si                6.114224        4.101546        9.570274      14       -0.000000        0.000000       -0.000000
    Si                6.114224        9.570274        4.101546      14        0.000000       -0.000000       -0.000000
    Si                6.114224        9.570274        9.570274      14       -0.000000        0.000000       -0.000000
    Si                2.445689        0.000000        2.734364      14       -0.000000        0.000000       -0.000000
    Si                2.445689        0.000000        8.203092      14        0.000000       -0.000000        0.000000
    Si                2.445689        5.468728        2.734364      14       -0.000000        0.000000       -0.000000
    Si                2.445689        5.468728        8.203092      14        0.000000       -0.000000        0.000000
    Si                7.337068        0.000000        2.734364      14        0.000000        0.000000        0.000000
    Si                7.337068        0.000000        8.203092      14       -0.000000       -0.000000        0.000000
    Si                7.337068        5.468728        2.734364      14       -0.000000        0.000000       -0.000000
    Si                7.337068        5.468728        8.203092      14       -0.000000        0.000000       -0.000000
    Si                0.000000        2.734364        2.734364      14        0.000000       -0.000000       -0.000000
    Si                0.000000        2.734364        8.203092      14        0.000000       -0.000000        0.000000
    Si                0.000000        8.203092        2.734364      14       -0.000000       -0.000000       -0.000000
    Si                0.000000        8.203092        8.203092      14       -0.000000        0.000000        0.000000
    Si                4.891379        2.734364        2.734364      14        0.000000       -0.000000        0.000000
    Si                4.891379        2.734364        8.203092      14       -0.000000       -0.000000        0.000000
    Si                4.891379        8.203092        2.734364      14        0.000000        0.000000        0.000000
    Si                4.891379        8.203092        8.203092      14        0.000000       -0.000000        0.000000
    Si                2.445689        2.734364        0.000000      14       -0.000000        0.000000       -0.000000
    Si                2.445689        2.734364        5.468728      14       -0.000000       -0.000000        0.000000
    Si                2.445689        8.203092        0.000000      14        0.000000       -0.000000       -0.000000
    Si                2.445689        8.203092        5.468728      14       -0.000000        0.000000       -0.000000
    Si                7.337068        2.734364        0.000000      14       -0.000000       -0.000000        0.000000
    Si                7.337068        2.734364        5.468728      14       -0.000000        0.000000        0.000000
    Si                7.337068        8.203092        0.000000      14       -0.000000        0.000000        0.000000
    Si                7.337068        8.203092        5.468728      14        0.000000       -0.000000       -0.000000
    Si                3.668534        1.367182        4.101546      14       -0.000000        0.000000       -0.000000
    Si                3.668534        1.367182        9.570274      14        0.000000        0.000000       -0.000000
    Si                3.668534        6.835910        4.101546      14        0.000000       -0.000000       -0.000000
    Si                3.668534        6.835910        9.570274      14       -0.000000        0.000000        0.000000
    Si                8.559913        1.367182        4.101546      14        0.000000        0.000000       -0.000000
    Si                8.559913        1.367182        9.570274      14       -0.000000        0.000000       -0.000000
    Si                8.559913        6.835910        4.101546      14        0.000000       -0.000000       -0.000000
