<GAP_2018_8_20_-420_22_8_49_73>
<Potential init_args="IP GAP label=GAP_2018_8_20_-420_22_8_49_73" label="GAP_2018_8_20_-420_22_8_49_73" />
<GAP_params gap_version="1525123159" label="GAP_2018_8_20_-420_22_8_49_73">
  <GAP_data do_core="F">
    <e0 Z="1" value="-.20999999999999999" />
    <e0 Z="2" value="-.20999999999999999" />
    <e0 Z="3" value="-.20999999999999999" />
    <e0 Z="4" value="-.20999999999999999" />
    <e0 Z="5" value="-.20999999999999999" />
    <e0 Z="6" value="-.20999999999999999" />
    <e0 Z="7" value="-.20999999999999999" />
    <e0 Z="8" value="-.20999999999999999" />
    <e0 Z="9" value="-.20999999999999999" />
    <e0 Z="10" value="-.20999999999999999" />
    <e0 Z="11" value="-.20999999999999999" />
    <e0 Z="12" value="-.20999999999999999" />
    <e0 Z="13" value="-.20999999999999999" />
    <e0 Z="14" value="-.20999999999999999" />
    <e0 Z="15" value="-.20999999999999999" />
    <e0 Z="16" value="-.20999999999999999" />
    <e0 Z="17" value="-.20999999999999999" />
    <e0 Z="18" value="-.20999999999999999" />
    <e0 Z="19" value="-.20999999999999999" />
    <e0 Z="20" value="-.20999999999999999" />
    <e0 Z="21" value="-.20999999999999999" />
    <e0 Z="22" value="-.20999999999999999" />
    <e0 Z="23" value="-.20999999999999999" />
    <e0 Z="24" value="-.20999999999999999" />
    <e0 Z="25" value="-.20999999999999999" />
    <e0 Z="26" value="-.20999999999999999" />
    <e0 Z="27" value="-.20999999999999999" />
    <e0 Z="28" value="-.20999999999999999" />
    <e0 Z="29" value="-.20999999999999999" />
    <e0 Z="30" value="-.20999999999999999" />
    <e0 Z="31" value="-.20999999999999999" />
    <e0 Z="32" value="-.20999999999999999" />
    <e0 Z="33" value="-.20999999999999999" />
    <e0 Z="34" value="-.20999999999999999" />
    <e0 Z="35" value="-.20999999999999999" />
    <e0 Z="36" value="-.20999999999999999" />
    <e0 Z="37" value="-.20999999999999999" />
    <e0 Z="38" value="-.20999999999999999" />
    <e0 Z="39" value="-.20999999999999999" />
    <e0 Z="40" value="-.20999999999999999" />
    <e0 Z="41" value="-.20999999999999999" />
    <e0 Z="42" value="-.20999999999999999" />
    <e0 Z="43" value="-.20999999999999999" />
    <e0 Z="44" value="-.20999999999999999" />
    <e0 Z="45" value="-.20999999999999999" />
    <e0 Z="46" value="-.20999999999999999" />
    <e0 Z="47" value="-.20999999999999999" />
    <e0 Z="48" value="-.20999999999999999" />
    <e0 Z="49" value="-.20999999999999999" />
    <e0 Z="50" value="-.20999999999999999" />
    <e0 Z="51" value="-.20999999999999999" />
    <e0 Z="52" value="-.20999999999999999" />
    <e0 Z="53" value="-.20999999999999999" />
    <e0 Z="54" value="-.20999999999999999" />
    <e0 Z="55" value="-.20999999999999999" />
    <e0 Z="56" value="-.20999999999999999" />
    <e0 Z="57" value="-.20999999999999999" />
    <e0 Z="58" value="-.20999999999999999" />
    <e0 Z="59" value="-.20999999999999999" />
    <e0 Z="60" value="-.20999999999999999" />
    <e0 Z="61" value="-.20999999999999999" />
    <e0 Z="62" value="-.20999999999999999" />
    <e0 Z="63" value="-.20999999999999999" />
    <e0 Z="64" value="-.20999999999999999" />
    <e0 Z="65" value="-.20999999999999999" />
    <e0 Z="66" value="-.20999999999999999" />
    <e0 Z="67" value="-.20999999999999999" />
    <e0 Z="68" value="-.20999999999999999" />
    <e0 Z="69" value="-.20999999999999999" />
    <e0 Z="70" value="-.20999999999999999" />
    <e0 Z="71" value="-.20999999999999999" />
    <e0 Z="72" value="-.20999999999999999" />
    <e0 Z="73" value="-.20999999999999999" />
    <e0 Z="74" value="-.20999999999999999" />
    <e0 Z="75" value="-.20999999999999999" />
    <e0 Z="76" value="-.20999999999999999" />
    <e0 Z="77" value="-.20999999999999999" />
    <e0 Z="78" value="-.20999999999999999" />
    <e0 Z="79" value="-.20999999999999999" />
    <e0 Z="80" value="-.20999999999999999" />
    <e0 Z="81" value="-.20999999999999999" />
    <e0 Z="82" value="-.20999999999999999" />
    <e0 Z="83" value="-.20999999999999999" />
    <e0 Z="84" value="-.20999999999999999" />
    <e0 Z="85" value="-.20999999999999999" />
    <e0 Z="86" value="-.20999999999999999" />
    <e0 Z="87" value="-.20999999999999999" />
    <e0 Z="88" value="-.20999999999999999" />
    <e0 Z="89" value="-.20999999999999999" />
    <e0 Z="90" value="-.20999999999999999" />
    <e0 Z="91" value="-.20999999999999999" />
    <e0 Z="92" value="-.20999999999999999" />
    <e0 Z="93" value="-.20999999999999999" />
    <e0 Z="94" value="-.20999999999999999" />
    <e0 Z="95" value="-.20999999999999999" />
    <e0 Z="96" value="-.20999999999999999" />
    <e0 Z="97" value="-.20999999999999999" />
    <e0 Z="98" value="-.20999999999999999" />
    <e0 Z="99" value="-.20999999999999999" />
    <e0 Z="100" value="-.20999999999999999" />
    <e0 Z="101" value="-.20999999999999999" />
    <e0 Z="102" value="-.20999999999999999" />
    <e0 Z="103" value="-.20999999999999999" />
    <e0 Z="104" value="-.20999999999999999" />
    <e0 Z="105" value="-.20999999999999999" />
    <e0 Z="106" value="-.20999999999999999" />
    <e0 Z="107" value="-.20999999999999999" />
    <e0 Z="108" value="-.20999999999999999" />
    <e0 Z="109" value="-.20999999999999999" />
    <e0 Z="110" value="-.20999999999999999" />
    <e0 Z="111" value="-.20999999999999999" />
    <e0 Z="112" value="-.20999999999999999" />
    <e0 Z="113" value="-.20999999999999999" />
    <e0 Z="114" value="-.20999999999999999" />
    <e0 Z="115" value="-.20999999999999999" />
    <e0 Z="116" value="-.20999999999999999" />
  </GAP_data>
  <gpSparse label="GAP_2018_8_20_-420_22_8_49_73" n_coordinate="1">
    <gpCoordinates covariance_type="2" dimensions="325" label="GAP_2018_8_20_-420_22_8_49_731" n_permutations="1" n_sparseX="4000" signal_mean=".00000000000000000E+000" signal_variance="1.0000000000000000" sparseX_filename="GAPotential.soapparam" sparsified="T" zeta="4.0000000000000000">
      <descriptor>soap l_max=8 n_max=8 atom_sigma=0.5 zeta=4 cutoff=4.8 cutoff_transition_width=0.5 delta=1.0 f0=0.0 n_sparse=4000 covariance_type=dot_product sparse_method=cur_points</descriptor>
      <permutation i="1">1  </permutation>
      <sparseX alpha="55.890468444523741" i="1" sparseCutoff="1.0000000000000000" />
      <sparseX alpha="382.14756910335905" i="2" sparseCutoff="1.0000000000000000" />
      <sparseX alpha="110.05348894720291" i="3" sparseCutoff="1.0000000000000000" />
      <sparseX alpha="45.054350756039035" i="4" sparseCutoff="1.0000000000000000" />
      <sparseX alpha="55.619283302871693" i="5" sparseCutoff="1.0000000000000000" />
      <sparseX alpha="9.2526329030422261" i="6" sparseCutoff="1.0000000000000000" />
      <sparseX alpha="-51.396760022193483" i="7" sparseCutoff="1.0000000000000000" />
      <sparseX alpha="37.760751753493260" i="8" sparseCutoff="1.0000000000000000" />
      <sparseX alpha="102.77464044887932" i="9" sparseCutoff="1.0000000000000000" />
      <sparseX alpha="22.112882426143070" i="10" sparseCutoff="1.0000000000000000" />
      <sparseX alpha="20.164353585476242" i="11" sparseCutoff="1.0000000000000000" />
      <sparseX alpha="-5.4738211326798192" i="12" sparseCutoff="1.0000000000000000" />
      <sparseX alpha="-41.926695637666384" i="13" sparseCutoff="1.0000000000000000" />
      <sparseX alpha="-40.156611618106446" i="14" sparseCutoff="1.0000000000000000" />
      <sparseX alpha="29.967242199194303" i="15" sparseCutoff="1.0000000000000000" />
      <sparseX alpha="-138.12793799448596" i="16" sparseCutoff="1.0000000000000000" />
      <sparseX alpha="-267.41059313897836" i="17" sparseCutoff="1.0000000000000000" />
      <sparseX alpha="-205.06561930185859" i="18" sparseCutoff="1.0000000000000000" />
      <sparseX alpha="-36.135517773245049" i="19" sparseCutoff="1.0000000000000000" />
      <sparseX alpha="211.23138456491208" i="20" sparseCutoff="1.0000000000000000" />
      <sparseX alpha="-67.055086640502907" i="21" sparseCutoff="1.0000000000000000" />
      <sparseX alpha="-122.21834943277683" i="22" sparseCutoff="1.0000000000000000" />
      <sparseX alpha="2.0370172372831448" i="23" sparseCutoff="1.0000000000000000" />
      <sparseX alpha="165.18219530167275" i="24" sparseCutoff="1.0000000000000000" />
      <sparseX alpha="-150.90596383916204" i="25" sparseCutoff="1.0000000000000000" />
      <sparseX alpha="-32.047377212085301" i="26" sparseCutoff="1.0000000000000000" />
      <sparseX alpha="-48.559442024444209" i="27" sparseCutoff="1.0000000000000000" />
      <sparseX alpha="-418.40187794549740" i="28" sparseCutoff="1.0000000000000000" />
      <sparseX alpha="-55.074788728124751" i="29" sparseCutoff="1.0000000000000000" />
      <sparseX alpha="-35.104322929745820" i="30" sparseCutoff="1.0000000000000000" />
      <sparseX alpha="34.321586791106483" i="31" sparseCutoff="1.0000000000000000" />
      <sparseX alpha="159.03606356363471" i="32" sparseCutoff="1.0000000000000000" />
      <sparseX alpha="-328.92960737433071" i="33" sparseCutoff="1.0000000000000000" />
      <sparseX alpha="464.60802285183331" i="34" sparseCutoff="1.0000000000000000" />
      <sparseX alpha="219.18940091003671" i="35" sparseCutoff="1.0000000000000000" />
      <sparseX alpha="146.10044354426913" i="36" sparseCutoff="1.0000000000000000" />
      <sparseX alpha="660.36180780294274" i="37" sparseCutoff="1.0000000000000000" />
      <sparseX alpha="-132.87486526682315" i="38" sparseCutoff="1.0000000000000000" />
      <sparseX alpha="34.761226281258331" i="39" sparseCutoff="1.0000000000000000" />
      <sparseX alpha="-152.03104105903867" i="40" sparseCutoff="1.0000000000000000" />
      <sparseX alpha="135.37741392255086" i="41" sparseCutoff="1.0000000000000000" />
      <sparseX alpha="541.60220286887977" i="42" sparseCutoff="1.0000000000000000" />
      <sparseX alpha="-300.65774963230427" i="43" sparseCutoff="1.0000000000000000" />
      <sparseX alpha="134.74797853613174" i="44" sparseCutoff="1.0000000000000000" />
      <sparseX alpha="-77.402838981705884" i="45" sparseCutoff="1.0000000000000000" />
      <sparseX alpha="407.42083240144524" i="46" sparseCutoff="1.0000000000000000" />
      <sparseX alpha="-440.96724250897898" i="47" sparseCutoff="1.0000000000000000" />
      <sparseX alpha="816.88033199539041" i="48" sparseCutoff="1.0000000000000000" />
      <sparseX alpha="539.02211769357814" i="49" sparseCutoff="1.0000000000000000" />
      <sparseX alpha="-1231.5341701064447" i="50" sparseCutoff="1.0000000000000000" />
      <sparseX alpha="-672.53423272041596" i="51" sparseCutoff="1.0000000000000000" />
      <sparseX alpha="476.28277813215379" i="52" sparseCutoff="1.0000000000000000" />
      <sparseX alpha="183.91666078533416" i="53" sparseCutoff="1.0000000000000000" />
      <sparseX alpha="372.29198812659956" i="54" sparseCutoff="1.0000000000000000" />
      <sparseX alpha="197.73996032194401" i="55" sparseCutoff="1.0000000000000000" />
      <sparseX alpha="-76.403128739398113" i="56" sparseCutoff="1.0000000000000000" />
      <sparseX alpha="107.11741460097539" i="57" sparseCutoff="1.0000000000000000" />
      <sparseX alpha="-37.683145441258453" i="58" sparseCutoff="1.0000000000000000" />
      <sparseX alpha="23.965437569786104" i="59" sparseCutoff="1.0000000000000000" />
      <sparseX alpha="-109.17321299498508" i="60" sparseCutoff="1.0000000000000000" />
      <sparseX alpha="-344.09678427874553" i="61" sparseCutoff="1.0000000000000000" />
      <sparseX alpha="-53.942791483476768" i="62" sparseCutoff="1.0000000000000000" />
      <sparseX alpha="-46.764766320943700" i="63" sparseCutoff="1.0000000000000000" />
      <sparseX alpha="-101.64547381839957" i="64" sparseCutoff="1.0000000000000000" />
      <sparseX alpha="-17.164914705184096" i="65" sparseCutoff="1.0000000000000000" />
      <sparseX alpha="-54.356485444833687" i="66" sparseCutoff="1.0000000000000000" />
      <sparseX alpha="-124.62753654873228" i="67" sparseCutoff="1.0000000000000000" />
      <sparseX alpha="37.570340068056765" i="68" sparseCutoff="1.0000000000000000" />
      <sparseX alpha="95.538920992121660" i="69" sparseCutoff="1.0000000000000000" />
      <sparseX alpha="82.920027850963990" i="70" sparseCutoff="1.0000000000000000" />
      <sparseX alpha="-76.848777846307641" i="71" sparseCutoff="1.0000000000000000" />
      <sparseX alpha="15.472099617230255" i="72" sparseCutoff="1.0000000000000000" />
      <sparseX alpha="-139.59649773773302" i="73" sparseCutoff="1.0000000000000000" />
      <sparseX alpha="-68.432265453463330" i="74" sparseCutoff="1.0000000000000000" />
      <sparseX alpha="-18.271245195032769" i="75" sparseCutoff="1.0000000000000000" />
      <sparseX alpha="-150.26801123519948" i="76" sparseCutoff="1.0000000000000000" />
      <sparseX alpha="70.337382985899268" i="77" sparseCutoff="1.0000000000000000" />
      <sparseX alpha="-47.296960739009585" i="78" sparseCutoff="1.0000000000000000" />
      <sparseX alpha="-162.57628000529715" i="79" sparseCutoff="1.0000000000000000" />
      <sparseX alpha="119.08220059064033" i="80" sparseCutoff="1.0000000000000000" />
      <sparseX alpha="-26.538047601650561" i="81" sparseCutoff="1.0000000000000000" />
      <sparseX alpha="128.75686356707337" i="82" sparseCutoff="1.0000000000000000" />
      <sparseX alpha="-353.20053410047103" i="83" sparseCutoff="1.0000000000000000" />
      <sparseX alpha="-17.155937971457959" i="84" sparseCutoff="1.0000000000000000" />
      <sparseX alpha="-5.2880528957500923" i="85" sparseCutoff="1.0000000000000000" />
      <sparseX alpha="113.18217469826480" i="86" sparseCutoff="1.0000000000000000" />
      <sparseX alpha="-76.339518752200391" i="87" sparseCutoff="1.0000000000000000" />
      <sparseX alpha="284.70335771755691" i="88" sparseCutoff="1.0000000000000000" />
      <sparseX alpha="-83.716165649535952" i="89" sparseCutoff="1.0000000000000000" />
      <sparseX alpha="106.75596033198298" i="90" sparseCutoff="1.0000000000000000" />
      <sparseX alpha="-85.040302721508837" i="91" sparseCutoff="1.0000000000000000" />
      <sparseX alpha="-132.80392291302311" i="92" sparseCutoff="1.0000000000000000" />
      <sparseX alpha="117.84187547960939" i="93" sparseCutoff="1.0000000000000000" />
      <sparseX alpha="74.678058493901673" i="94" sparseCutoff="1.0000000000000000" />
      <sparseX alpha="-214.59334820220957" i="95" sparseCutoff="1.0000000000000000" />
      <sparseX alpha="49.213020267442396" i="96" sparseCutoff="1.0000000000000000" />
      <sparseX alpha="-127.96667970392812" i="97" sparseCutoff="1.0000000000000000" />
      <sparseX alpha="5.6533549361949902" i="98" sparseCutoff="1.0000000000000000" />
      <sparseX alpha="-50.978528806682490" i="99" sparseCutoff="1.0000000000000000" />
      <sparseX alpha="75.239431541422206" i="100" sparseCutoff="1.0000000000000000" />
      <sparseX alpha="117.04809953008953" i="101" sparseCutoff="1.0000000000000000" />
      <sparseX alpha="-39.613840876622483" i="102" sparseCutoff="1.0000000000000000" />
      <sparseX alpha="84.447034787849148" i="103" sparseCutoff="1.0000000000000000" />
      <sparseX alpha="-46.304135598399377" i="104" sparseCutoff="1.0000000000000000" />
      <sparseX alpha="-66.778473182588840" i="105" sparseCutoff="1.0000000000000000" />
      <sparseX alpha="-39.491108603927394" i="106" sparseCutoff="1.0000000000000000" />
      <sparseX alpha="-147.37618654481690" i="107" sparseCutoff="1.0000000000000000" />
      <sparseX alpha="56.935016270793440" i="108" sparseCutoff="1.0000000000000000" />
      <sparseX alpha="7.5544115715433993" i="109" sparseCutoff="1.0000000000000000" />
      <sparseX alpha="143.93332401245090" i="110" sparseCutoff="1.0000000000000000" />
      <sparseX alpha="54.188799895588438" i="111" sparseCutoff="1.0000000000000000" />
      <sparseX alpha="-41.389529627408827" i="112" sparseCutoff="1.0000000000000000" />
      <sparseX alpha="-133.94962297701898" i="113" sparseCutoff="1.0000000000000000" />
      <sparseX alpha="-46.078148004766390" i="114" sparseCutoff="1.0000000000000000" />
      <sparseX alpha="-123.73555687493239" i="115" sparseCutoff="1.0000000000000000" />
      <sparseX alpha="78.978066109110586" i="116" sparseCutoff="1.0000000000000000" />
      <sparseX alpha="56.004463129503975" i="117" sparseCutoff="1.0000000000000000" />
      <sparseX alpha="28.068408438583123" i="118" sparseCutoff="1.0000000000000000" />
      <sparseX alpha="99.207137806168319" i="119" sparseCutoff="1.0000000000000000" />
      <sparseX alpha="-112.53787230561953" i="120" sparseCutoff="1.0000000000000000" />
      <sparseX alpha="-48.945105524206120" i="121" sparseCutoff="1.0000000000000000" />
      <sparseX alpha="-3.5827941920848292" i="122" sparseCutoff="1.0000000000000000" />
      <sparseX alpha="102.26604965218051" i="123" sparseCutoff="1.0000000000000000" />
      <sparseX alpha="245.04745832665657" i="124" sparseCutoff="1.0000000000000000" />
      <sparseX alpha="91.795658122958031" i="125" sparseCutoff="1.0000000000000000" />
      <sparseX alpha="37.970106369619188" i="126" sparseCutoff="1.0000000000000000" />
      <sparseX alpha="63.772027585727905" i="127" sparseCutoff="1.0000000000000000" />
      <sparseX alpha="-283.72143242525613" i="128" sparseCutoff="1.0000000000000000" />
      <sparseX alpha="-59.391058951159316" i="129" sparseCutoff="1.0000000000000000" />
      <sparseX alpha="8.9384845084339570" i="130" sparseCutoff="1.0000000000000000" />
      <sparseX alpha="358.44909840907445" i="131" sparseCutoff="1.0000000000000000" />
      <sparseX alpha="46.064372105250655" i="132" sparseCutoff="1.0000000000000000" />
      <sparseX alpha="-219.32330492497954" i="133" sparseCutoff="1.0000000000000000" />
      <sparseX alpha="-55.600525407546314" i="134" sparseCutoff="1.0000000000000000" />
      <sparseX alpha="-65.046776091768493" i="135" sparseCutoff="1.0000000000000000" />
      <sparseX alpha="-234.42221714893262" i="136" sparseCutoff="1.0000000000000000" />
      <sparseX alpha="266.98481068670117" i="137" sparseCutoff="1.0000000000000000" />
      <sparseX alpha="-115.96004925672393" i="138" sparseCutoff="1.0000000000000000" />
      <sparseX alpha="28.994333718037410" i="139" sparseCutoff="1.0000000000000000" />
      <sparseX alpha="47.642625842930443" i="140" sparseCutoff="1.0000000000000000" />
      <sparseX alpha="-249.15348402248722" i="141" sparseCutoff="1.0000000000000000" />
      <sparseX alpha="-56.563169348978676" i="142" sparseCutoff="1.0000000000000000" />
      <sparseX alpha="-100.71375618381123" i="143" sparseCutoff="1.0000000000000000" />
      <sparseX alpha="-76.071378754190818" i="144" sparseCutoff="1.0000000000000000" />
      <sparseX alpha="-141.97853012426825" i="145" sparseCutoff="1.0000000000000000" />
      <sparseX alpha="66.409744550090139" i="146" sparseCutoff="1.0000000000000000" />
      <sparseX alpha="254.28451224246598" i="147" sparseCutoff="1.0000000000000000" />
      <sparseX alpha="-72.254979204264032" i="148" sparseCutoff="1.0000000000000000" />
      <sparseX alpha="266.42046458871732" i="149" sparseCutoff="1.0000000000000000" />
      <sparseX alpha="-203.49408332502657" i="150" sparseCutoff="1.0000000000000000" />
      <sparseX alpha="-396.59773810019379" i="151" sparseCutoff="1.0000000000000000" />
      <sparseX alpha="72.151064152719087" i="152" sparseCutoff="1.0000000000000000" />
      <sparseX alpha="-46.658547000698917" i="153" sparseCutoff="1.0000000000000000" />
      <sparseX alpha="-94.897475692457590" i="154" sparseCutoff="1.0000000000000000" />
      <sparseX alpha="-22.020262951745423" i="155" sparseCutoff="1.0000000000000000" />
      <sparseX alpha="358.24304161211876" i="156" sparseCutoff="1.0000000000000000" />
      <sparseX alpha="2.4967183043070262" i="157" sparseCutoff="1.0000000000000000" />
      <sparseX alpha=".62929155433107353" i="158" sparseCutoff="1.0000000000000000" />
      <sparseX alpha="63.076722952737477" i="159" sparseCutoff="1.0000000000000000" />
      <sparseX alpha="104.53375689423238" i="160" sparseCutoff="1.0000000000000000" />
      <sparseX alpha="224.83433321214517" i="161" sparseCutoff="1.0000000000000000" />
      <sparseX alpha="-38.498432846311111" i="162" sparseCutoff="1.0000000000000000" />
      <sparseX alpha="65.122122345964684" i="163" sparseCutoff="1.0000000000000000" />
      <sparseX alpha="-93.410865290230532" i="164" sparseCutoff="1.0000000000000000" />
      <sparseX alpha="-122.18649206065410" i="165" sparseCutoff="1.0000000000000000" />
      <sparseX alpha="-11.852918864781383" i="166" sparseCutoff="1.0000000000000000" />
      <sparseX alpha="-26.277747450180239" i="167" sparseCutoff="1.0000000000000000" />
      <sparseX alpha="-309.44649801679986" i="168" sparseCutoff="1.0000000000000000" />
      <sparseX alpha="-140.06828875317098" i="169" sparseCutoff="1.0000000000000000" />
      <sparseX alpha="2.2921959553088054" i="170" sparseCutoff="1.0000000000000000" />
      <sparseX alpha="92.698098126977783" i="171" sparseCutoff="1.0000000000000000" />
      <sparseX alpha="163.44435243026209" i="172" sparseCutoff="1.0000000000000000" />
      <sparseX alpha="34.174336420501611" i="173" sparseCutoff="1.0000000000000000" />
      <sparseX alpha="49.458078044688683" i="174" sparseCutoff="1.0000000000000000" />
      <sparseX alpha="-69.098787376586941" i="175" sparseCutoff="1.0000000000000000" />
      <sparseX alpha="-47.549014987020001" i="176" sparseCutoff="1.0000000000000000" />
      <sparseX alpha="49.193394761444900" i="177" sparseCutoff="1.0000000000000000" />
      <sparseX alpha="-128.54941624015643" i="178" sparseCutoff="1.0000000000000000" />
      <sparseX alpha="-142.11214725177712" i="179" sparseCutoff="1.0000000000000000" />
      <sparseX alpha="-87.355654664695038" i="180" sparseCutoff="1.0000000000000000" />
      <sparseX alpha="55.731897696204797" i="181" sparseCutoff="1.0000000000000000" />
      <sparseX alpha="-79.781385160662722" i="182" sparseCutoff="1.0000000000000000" />
      <sparseX alpha="197.47313194515127" i="183" sparseCutoff="1.0000000000000000" />
      <sparseX alpha="-8.2412933514413869" i="184" sparseCutoff="1.0000000000000000" />
      <sparseX alpha="33.164431038341469" i="185" sparseCutoff="1.0000000000000000" />
      <sparseX alpha="78.235291464035456" i="186" sparseCutoff="1.0000000000000000" />
      <sparseX alpha="252.45728390940599" i="187" sparseCutoff="1.0000000000000000" />
      <sparseX alpha="307.47975349745502" i="188" sparseCutoff="1.0000000000000000" />
      <sparseX alpha="319.85572802194469" i="189" sparseCutoff="1.0000000000000000" />
      <sparseX alpha="-159.41939016254247" i="190" sparseCutoff="1.0000000000000000" />
      <sparseX alpha="7.7658452567770535" i="191" sparseCutoff="1.0000000000000000" />
      <sparseX alpha="-71.281563880613191" i="192" sparseCutoff="1.0000000000000000" />
      <sparseX alpha="72.612703278538277" i="193" sparseCutoff="1.0000000000000000" />
      <sparseX alpha="-309.50390843521626" i="194" sparseCutoff="1.0000000000000000" />
      <sparseX alpha="-25.554230657725039" i="195" sparseCutoff="1.0000000000000000" />
      <sparseX alpha="-425.04433225115503" i="196" sparseCutoff="1.0000000000000000" />
      <sparseX alpha="33.079570467228002" i="197" sparseCutoff="1.0000000000000000" />
      <sparseX alpha="459.50715872281177" i="198" sparseCutoff="1.0000000000000000" />
      <sparseX alpha="115.16111095362881" i="199" sparseCutoff="1.0000000000000000" />
      <sparseX alpha="-101.69693343391624" i="200" sparseCutoff="1.0000000000000000" />
      <sparseX alpha="10.404226412493346" i="201" sparseCutoff="1.0000000000000000" />
      <sparseX alpha="-555.13657893412062" i="202" sparseCutoff="1.0000000000000000" />
      <sparseX alpha="-97.852571756269342" i="203" sparseCutoff="1.0000000000000000" />
      <sparseX alpha="54.782639452316594" i="204" sparseCutoff="1.0000000000000000" />
      <sparseX alpha="-81.997324411616120" i="205" sparseCutoff="1.0000000000000000" />
      <sparseX alpha="-46.258910955196171" i="206" sparseCutoff="1.0000000000000000" />
      <sparseX alpha="148.50408749743170" i="207" sparseCutoff="1.0000000000000000" />
      <sparseX alpha="-394.21286832549339" i="208" sparseCutoff="1.0000000000000000" />
      <sparseX alpha="-295.34372235864709" i="209" sparseCutoff="1.0000000000000000" />
      <sparseX alpha="-119.37067423400887" i="210" sparseCutoff="1.0000000000000000" />
      <sparseX alpha="45.536976871586013" i="211" sparseCutoff="1.0000000000000000" />
      <sparseX alpha="222.02620719144531" i="212" sparseCutoff="1.0000000000000000" />
      <sparseX alpha="-73.558574161168067" i="213" sparseCutoff="1.0000000000000000" />
      <sparseX alpha="-644.71994709785679" i="214" sparseCutoff="1.0000000000000000" />
      <sparseX alpha="177.55852738264824" i="215" sparseCutoff="1.0000000000000000" />
      <sparseX alpha="-273.58900251832443" i="216" sparseCutoff="1.0000000000000000" />
      <sparseX alpha="-631.75762120436764" i="217" sparseCutoff="1.0000000000000000" />
      <sparseX alpha="361.71678604606439" i="218" sparseCutoff="1.0000000000000000" />
      <sparseX alpha="-408.90378452927717" i="219" sparseCutoff="1.0000000000000000" />
      <sparseX alpha="-335.54056361508276" i="220" sparseCutoff="1.0000000000000000" />
      <sparseX alpha="461.20423577551139" i="221" sparseCutoff="1.0000000000000000" />
      <sparseX alpha="67.132990124485858" i="222" sparseCutoff="1.0000000000000000" />
      <sparseX alpha="-103.39254064130954" i="223" sparseCutoff="1.0000000000000000" />
      <sparseX alpha="832.54555280139391" i="224" sparseCutoff="1.0000000000000000" />
      <sparseX alpha="-62.826129354952251" i="225" sparseCutoff="1.0000000000000000" />
      <sparseX alpha="126.55270631135951" i="226" sparseCutoff="1.0000000000000000" />
      <sparseX alpha="214.57772316777408" i="227" sparseCutoff="1.0000000000000000" />
      <sparseX alpha="65.227187075589384" i="228" sparseCutoff="1.0000000000000000" />
      <sparseX alpha="-87.128779057336004" i="229" sparseCutoff="1.0000000000000000" />
      <sparseX alpha="-344.21231406293418" i="230" sparseCutoff="1.0000000000000000" />
      <sparseX alpha="88.396948210605316" i="231" sparseCutoff="1.0000000000000000" />
      <sparseX alpha="354.89595098684271" i="232" sparseCutoff="1.0000000000000000" />
      <sparseX alpha="-97.057078986084676" i="233" sparseCutoff="1.0000000000000000" />
      <sparseX alpha="-307.71033585035997" i="234" sparseCutoff="1.0000000000000000" />
      <sparseX alpha="-264.66971283614561" i="235" sparseCutoff="1.0000000000000000" />
      <sparseX alpha="-435.77146767326110" i="236" sparseCutoff="1.0000000000000000" />
      <sparseX alpha="262.82823348420840" i="237" sparseCutoff="1.0000000000000000" />
      <sparseX alpha="307.62861627924121" i="238" sparseCutoff="1.0000000000000000" />
      <sparseX alpha="-1048.4150084403093" i="239" sparseCutoff="1.0000000000000000" />
      <sparseX alpha="-209.67889867018400" i="240" sparseCutoff="1.0000000000000000" />
      <sparseX alpha="-19.948815709222220" i="241" sparseCutoff="1.0000000000000000" />
      <sparseX alpha="-495.42901432076530" i="242" sparseCutoff="1.0000000000000000" />
      <sparseX alpha="-638.53879022512490" i="243" sparseCutoff="1.0000000000000000" />
      <sparseX alpha="56.634596381378635" i="244" sparseCutoff="1.0000000000000000" />
      <sparseX alpha="-18.244613058887371" i="245" sparseCutoff="1.0000000000000000" />
      <sparseX alpha="382.48910078306199" i="246" sparseCutoff="1.0000000000000000" />
      <sparseX alpha="-6.2969730311382444" i="247" sparseCutoff="1.0000000000000000" />
      <sparseX alpha="106.46019481055455" i="248" sparseCutoff="1.0000000000000000" />
      <sparseX alpha="40.042384587311957" i="249" sparseCutoff="1.0000000000000000" />
      <sparseX alpha="119.57476596799749" i="250" sparseCutoff="1.0000000000000000" />
      <sparseX alpha="-460.92782187820717" i="251" sparseCutoff="1.0000000000000000" />
      <sparseX alpha="227.82751582310416" i="252" sparseCutoff="1.0000000000000000" />
      <sparseX alpha="36.535010112776305" i="253" sparseCutoff="1.0000000000000000" />
      <sparseX alpha="62.746223297506631" i="254" sparseCutoff="1.0000000000000000" />
      <sparseX alpha="46.774916609507478" i="255" sparseCutoff="1.0000000000000000" />
      <sparseX alpha="230.30746246457929" i="256" sparseCutoff="1.0000000000000000" />
      <sparseX alpha="-87.092699432012623" i="257" sparseCutoff="1.0000000000000000" />
      <sparseX alpha="-1058.4202160050443" i="258" sparseCutoff="1.0000000000000000" />
      <sparseX alpha="-353.18349199647804" i="259" sparseCutoff="1.0000000000000000" />
      <sparseX alpha="505.99706397588653" i="260" sparseCutoff="1.0000000000000000" />
      <sparseX alpha="81.770413568659151" i="261" sparseCutoff="1.0000000000000000" />
      <sparseX alpha="331.73695984618689" i="262" sparseCutoff="1.0000000000000000" />
      <sparseX alpha="479.77493732873018" i="263" sparseCutoff="1.0000000000000000" />
      <sparseX alpha="-372.63473307213332" i="264" sparseCutoff="1.0000000000000000" />
      <sparseX alpha="-79.141508621981600" i="265" sparseCutoff="1.0000000000000000" />
      <sparseX alpha="-132.09356676932146" i="266" sparseCutoff="1.0000000000000000" />
      <sparseX alpha="-15.712050659863886" i="267" sparseCutoff="1.0000000000000000" />
      <sparseX alpha="-39.549824932502020" i="268" sparseCutoff="1.0000000000000000" />
      <sparseX alpha="82.279461674766722" i="269" sparseCutoff="1.0000000000000000" />
      <sparseX alpha="12.423342325875778" i="270" sparseCutoff="1.0000000000000000" />
      <sparseX alpha="177.92916965423277" i="271" sparseCutoff="1.0000000000000000" />
      <sparseX alpha="86.081460382545075" i="272" sparseCutoff="1.0000000000000000" />
      <sparseX alpha="-15.729763468588272" i="273" sparseCutoff="1.0000000000000000" />
      <sparseX alpha="92.815935919914921" i="274" sparseCutoff="1.0000000000000000" />
      <sparseX alpha="225.73727927349748" i="275" sparseCutoff="1.0000000000000000" />
      <sparseX alpha="58.545828349418557" i="276" sparseCutoff="1.0000000000000000" />
      <sparseX alpha="34.085910856374035" i="277" sparseCutoff="1.0000000000000000" />
      <sparseX alpha="-129.12091966092802" i="278" sparseCutoff="1.0000000000000000" />
      <sparseX alpha="97.902820210929121" i="279" sparseCutoff="1.0000000000000000" />
      <sparseX alpha="-86.603053369196218" i="280" sparseCutoff="1.0000000000000000" />
      <sparseX alpha="15.888045122440161" i="281" sparseCutoff="1.0000000000000000" />
      <sparseX alpha="-71.096805042946073" i="282" sparseCutoff="1.0000000000000000" />
      <sparseX alpha="-196.62537766428949" i="283" sparseCutoff="1.0000000000000000" />
      <sparseX alpha="58.253396678185013" i="284" sparseCutoff="1.0000000000000000" />
      <sparseX alpha="-197.26542607376172" i="285" sparseCutoff="1.0000000000000000" />
      <sparseX alpha="17.125811516232702" i="286" sparseCutoff="1.0000000000000000" />
      <sparseX alpha="-6.9365952218388793" i="287" sparseCutoff="1.0000000000000000" />
      <sparseX alpha="-1.0939173349827913" i="288" sparseCutoff="1.0000000000000000" />
      <sparseX alpha="-76.955432864191152" i="289" sparseCutoff="1.0000000000000000" />
      <sparseX alpha="139.08295759332998" i="290" sparseCutoff="1.0000000000000000" />
      <sparseX alpha="77.159348531872809" i="291" sparseCutoff="1.0000000000000000" />
      <sparseX alpha="13.085397896725839" i="292" sparseCutoff="1.0000000000000000" />
      <sparseX alpha="78.496340362366439" i="293" sparseCutoff="1.0000000000000000" />
      <sparseX alpha="29.404585687034519" i="294" sparseCutoff="1.0000000000000000" />
      <sparseX alpha="121.12097567287471" i="295" sparseCutoff="1.0000000000000000" />
      <sparseX alpha="67.018966096720476" i="296" sparseCutoff="1.0000000000000000" />
      <sparseX alpha="-78.183671045708678" i="297" sparseCutoff="1.0000000000000000" />
      <sparseX alpha="358.58506385611872" i="298" sparseCutoff="1.0000000000000000" />
      <sparseX alpha="-61.829254757763465" i="299" sparseCutoff="1.0000000000000000" />
      <sparseX alpha="-98.270326360111142" i="300" sparseCutoff="1.0000000000000000" />
      <sparseX alpha="92.517984092051890" i="301" sparseCutoff="1.0000000000000000" />
      <sparseX alpha="5.1063751009149270" i="302" sparseCutoff="1.0000000000000000" />
      <sparseX alpha="-23.348465750281967" i="303" sparseCutoff="1.0000000000000000" />
      <sparseX alpha="39.759703468681650" i="304" sparseCutoff="1.0000000000000000" />
      <sparseX alpha="92.500063843922604" i="305" sparseCutoff="1.0000000000000000" />
      <sparseX alpha="-4.5568724591875860" i="306" sparseCutoff="1.0000000000000000" />
      <sparseX alpha="-242.97607744870453" i="307" sparseCutoff="1.0000000000000000" />
      <sparseX alpha="63.946728187174351" i="308" sparseCutoff="1.0000000000000000" />
      <sparseX alpha=".76217748919180262" i="309" sparseCutoff="1.0000000000000000" />
      <sparseX alpha="171.30185854755652" i="310" sparseCutoff="1.0000000000000000" />
      <sparseX alpha="266.01990455541568" i="311" sparseCutoff="1.0000000000000000" />
      <sparseX alpha="-239.54037433368038" i="312" sparseCutoff="1.0000000000000000" />
      <sparseX alpha="65.268053999613485" i="313" sparseCutoff="1.0000000000000000" />
      <sparseX alpha="79.219242155995786" i="314" sparseCutoff="1.0000000000000000" />
      <sparseX alpha="119.47821086808028" i="315" sparseCutoff="1.0000000000000000" />
      <sparseX alpha="-11.317189829535128" i="316" sparseCutoff="1.0000000000000000" />
      <sparseX alpha="55.854339406728471" i="317" sparseCutoff="1.0000000000000000" />
      <sparseX alpha="-7.6591716904721574" i="318" sparseCutoff="1.0000000000000000" />
      <sparseX alpha="54.497022286576382" i="319" sparseCutoff="1.0000000000000000" />
      <sparseX alpha="-156.91473882257711" i="320" sparseCutoff="1.0000000000000000" />
      <sparseX alpha="-122.50368503740982" i="321" sparseCutoff="1.0000000000000000" />
      <sparseX alpha="-306.53410883285966" i="322" sparseCutoff="1.0000000000000000" />
      <sparseX alpha="-166.26884829697832" i="323" sparseCutoff="1.0000000000000000" />
      <sparseX alpha="-39.153281916430650" i="324" sparseCutoff="1.0000000000000000" />
      <sparseX alpha="114.01932982913559" i="325" sparseCutoff="1.0000000000000000" />
      <sparseX alpha="67.830982798429858" i="326" sparseCutoff="1.0000000000000000" />
      <sparseX alpha="-22.499721905776248" i="327" sparseCutoff="1.0000000000000000" />
      <sparseX alpha="-75.765994818728728" i="328" sparseCutoff="1.0000000000000000" />
      <sparseX alpha="-208.12569998373829" i="329" sparseCutoff="1.0000000000000000" />
      <sparseX alpha="-81.013730855773971" i="330" sparseCutoff="1.0000000000000000" />
      <sparseX alpha="293.35772409383162" i="331" sparseCutoff="1.0000000000000000" />
      <sparseX alpha="357.91465803364457" i="332" sparseCutoff="1.0000000000000000" />
      <sparseX alpha="-107.49994241197190" i="333" sparseCutoff="1.0000000000000000" />
      <sparseX alpha="1.6705075888257435" i="334" sparseCutoff="1.0000000000000000" />
      <sparseX alpha="102.88057674024691" i="335" sparseCutoff="1.0000000000000000" />
      <sparseX alpha="-53.473156385767226" i="336" sparseCutoff="1.0000000000000000" />
      <sparseX alpha="-13.080988029115723" i="337" sparseCutoff="1.0000000000000000" />
      <sparseX alpha="43.724342168196046" i="338" sparseCutoff="1.0000000000000000" />
      <sparseX alpha="-74.220728553517745" i="339" sparseCutoff="1.0000000000000000" />
      <sparseX alpha="-64.344006188060789" i="340" sparseCutoff="1.0000000000000000" />
      <sparseX alpha="17.889734271119785" i="341" sparseCutoff="1.0000000000000000" />
      <sparseX alpha="-278.63550760277616" i="342" sparseCutoff="1.0000000000000000" />
      <sparseX alpha="-113.90582352496587" i="343" sparseCutoff="1.0000000000000000" />
      <sparseX alpha="-312.73970872154086" i="344" sparseCutoff="1.0000000000000000" />
      <sparseX alpha="-284.60110301375789" i="345" sparseCutoff="1.0000000000000000" />
      <sparseX alpha="-29.254051162202458" i="346" sparseCutoff="1.0000000000000000" />
      <sparseX alpha="-7.5441605713735571" i="347" sparseCutoff="1.0000000000000000" />
      <sparseX alpha="-6.8313446655455330" i="348" sparseCutoff="1.0000000000000000" />
      <sparseX alpha="210.29036673646129" i="349" sparseCutoff="1.0000000000000000" />
      <sparseX alpha="-64.267584072252589" i="350" sparseCutoff="1.0000000000000000" />
      <sparseX alpha="-47.110099552439280" i="351" sparseCutoff="1.0000000000000000" />
      <sparseX alpha="18.991566825139845" i="352" sparseCutoff="1.0000000000000000" />
      <sparseX alpha="-41.657056062381322" i="353" sparseCutoff="1.0000000000000000" />
      <sparseX alpha="-63.034116068969695" i="354" sparseCutoff="1.0000000000000000" />
      <sparseX alpha="29.504424222578482" i="355" sparseCutoff="1.0000000000000000" />
      <sparseX alpha="38.112637285339076" i="356" sparseCutoff="1.0000000000000000" />
      <sparseX alpha="-24.796336581887012" i="357" sparseCutoff="1.0000000000000000" />
      <sparseX alpha="-22.167957301789333" i="358" sparseCutoff="1.0000000000000000" />
      <sparseX alpha="-123.63241183739748" i="359" sparseCutoff="1.0000000000000000" />
      <sparseX alpha="8.2409229650042981" i="360" sparseCutoff="1.0000000000000000" />
      <sparseX alpha="115.62641101183917" i="361" sparseCutoff="1.0000000000000000" />
      <sparseX alpha="-42.841038366632290" i="362" sparseCutoff="1.0000000000000000" />
      <sparseX alpha="-19.397985096202699" i="363" sparseCutoff="1.0000000000000000" />
      <sparseX alpha="-50.526801766072822" i="364" sparseCutoff="1.0000000000000000" />
      <sparseX alpha="214.24028647203002" i="365" sparseCutoff="1.0000000000000000" />
      <sparseX alpha="34.104279979992718" i="366" sparseCutoff="1.0000000000000000" />
      <sparseX alpha="-71.407664666280525" i="367" sparseCutoff="1.0000000000000000" />
      <sparseX alpha="-68.269976401294755" i="368" sparseCutoff="1.0000000000000000" />
      <sparseX alpha="164.22264378398788" i="369" sparseCutoff="1.0000000000000000" />
      <sparseX alpha="-8.2167376708000663" i="370" sparseCutoff="1.0000000000000000" />
      <sparseX alpha="113.69429586664154" i="371" sparseCutoff="1.0000000000000000" />
      <sparseX alpha="-43.796275119475290" i="372" sparseCutoff="1.0000000000000000" />
      <sparseX alpha="-1.7254935259616380" i="373" sparseCutoff="1.0000000000000000" />
      <sparseX alpha="49.087370720567463" i="374" sparseCutoff="1.0000000000000000" />
      <sparseX alpha="-74.991355728515117" i="375" sparseCutoff="1.0000000000000000" />
      <sparseX alpha="-77.910993812885664" i="376" sparseCutoff="1.0000000000000000" />
      <sparseX alpha="-16.134003308721329" i="377" sparseCutoff="1.0000000000000000" />
      <sparseX alpha="14.498772973467799" i="378" sparseCutoff="1.0000000000000000" />
      <sparseX alpha="32.185040242698101" i="379" sparseCutoff="1.0000000000000000" />
      <sparseX alpha="-183.36288815547027" i="380" sparseCutoff="1.0000000000000000" />
      <sparseX alpha="38.559689962127941" i="381" sparseCutoff="1.0000000000000000" />
      <sparseX alpha="-142.03894809939769" i="382" sparseCutoff="1.0000000000000000" />
      <sparseX alpha="-21.949185908156881" i="383" sparseCutoff="1.0000000000000000" />
      <sparseX alpha="-222.46812652182655" i="384" sparseCutoff="1.0000000000000000" />
      <sparseX alpha="-52.595120627962793" i="385" sparseCutoff="1.0000000000000000" />
      <sparseX alpha="-235.85026837719465" i="386" sparseCutoff="1.0000000000000000" />
      <sparseX alpha="38.412241712158554" i="387" sparseCutoff="1.0000000000000000" />
      <sparseX alpha="-63.201545707233052" i="388" sparseCutoff="1.0000000000000000" />
      <sparseX alpha="-75.364934631382098" i="389" sparseCutoff="1.0000000000000000" />
      <sparseX alpha="631.95490954650074" i="390" sparseCutoff="1.0000000000000000" />
      <sparseX alpha="309.54240621107562" i="391" sparseCutoff="1.0000000000000000" />
      <sparseX alpha="-72.838740386804389" i="392" sparseCutoff="1.0000000000000000" />
      <sparseX alpha="-531.27754692975225" i="393" sparseCutoff="1.0000000000000000" />
      <sparseX alpha="-60.016230891365616" i="394" sparseCutoff="1.0000000000000000" />
      <sparseX alpha="-.68558580450459639" i="395" sparseCutoff="1.0000000000000000" />
      <sparseX alpha="-629.60139827365322" i="396" sparseCutoff="1.0000000000000000" />
      <sparseX alpha="16.030271373234672" i="397" sparseCutoff="1.0000000000000000" />
      <sparseX alpha="-5.2780665200885872" i="398" sparseCutoff="1.0000000000000000" />
      <sparseX alpha="66.535446830456252" i="399" sparseCutoff="1.0000000000000000" />
      <sparseX alpha="232.48268487669802" i="400" sparseCutoff="1.0000000000000000" />
      <sparseX alpha="-196.60429828100527" i="401" sparseCutoff="1.0000000000000000" />
      <sparseX alpha="-121.96913229075584" i="402" sparseCutoff="1.0000000000000000" />
      <sparseX alpha="-201.89489573637343" i="403" sparseCutoff="1.0000000000000000" />
      <sparseX alpha="-72.003106180705572" i="404" sparseCutoff="1.0000000000000000" />
      <sparseX alpha="-212.55804316370180" i="405" sparseCutoff="1.0000000000000000" />
      <sparseX alpha="-22.545619179548655" i="406" sparseCutoff="1.0000000000000000" />
      <sparseX alpha="41.520177136763131" i="407" sparseCutoff="1.0000000000000000" />
      <sparseX alpha="119.40276138248545" i="408" sparseCutoff="1.0000000000000000" />
      <sparseX alpha="285.89780979226066" i="409" sparseCutoff="1.0000000000000000" />
      <sparseX alpha="204.16908374892714" i="410" sparseCutoff="1.0000000000000000" />
      <sparseX alpha="42.201329091175324" i="411" sparseCutoff="1.0000000000000000" />
      <sparseX alpha="-100.18884307093950" i="412" sparseCutoff="1.0000000000000000" />
      <sparseX alpha="-52.023307712530091" i="413" sparseCutoff="1.0000000000000000" />
      <sparseX alpha="-10.660897529017491" i="414" sparseCutoff="1.0000000000000000" />
      <sparseX alpha="-60.696065041962676" i="415" sparseCutoff="1.0000000000000000" />
      <sparseX alpha="217.67553767364450" i="416" sparseCutoff="1.0000000000000000" />
      <sparseX alpha="-196.65316771760698" i="417" sparseCutoff="1.0000000000000000" />
      <sparseX alpha="133.28397229378149" i="418" sparseCutoff="1.0000000000000000" />
      <sparseX alpha="-174.29165534166120" i="419" sparseCutoff="1.0000000000000000" />
      <sparseX alpha="50.879828175657337" i="420" sparseCutoff="1.0000000000000000" />
      <sparseX alpha="-47.706099210724574" i="421" sparseCutoff="1.0000000000000000" />
      <sparseX alpha="5.3184188879949357" i="422" sparseCutoff="1.0000000000000000" />
      <sparseX alpha="-100.04064327686669" i="423" sparseCutoff="1.0000000000000000" />
      <sparseX alpha="30.532467084285773" i="424" sparseCutoff="1.0000000000000000" />
      <sparseX alpha="-227.47134453607856" i="425" sparseCutoff="1.0000000000000000" />
      <sparseX alpha="-20.095544520986550" i="426" sparseCutoff="1.0000000000000000" />
      <sparseX alpha="42.940862209580423" i="427" sparseCutoff="1.0000000000000000" />
      <sparseX alpha="-187.02561450544948" i="428" sparseCutoff="1.0000000000000000" />
      <sparseX alpha="-10.695839108635079" i="429" sparseCutoff="1.0000000000000000" />
      <sparseX alpha="135.66318118048613" i="430" sparseCutoff="1.0000000000000000" />
      <sparseX alpha="70.814991456743314" i="431" sparseCutoff="1.0000000000000000" />
      <sparseX alpha="-153.64750604959451" i="432" sparseCutoff="1.0000000000000000" />
      <sparseX alpha="-193.60512162013202" i="433" sparseCutoff="1.0000000000000000" />
      <sparseX alpha="57.737905950941048" i="434" sparseCutoff="1.0000000000000000" />
      <sparseX alpha="-284.20024159080100" i="435" sparseCutoff="1.0000000000000000" />
      <sparseX alpha="127.73620621106951" i="436" sparseCutoff="1.0000000000000000" />
      <sparseX alpha="193.50944524940945" i="437" sparseCutoff="1.0000000000000000" />
      <sparseX alpha="74.653790228831738" i="438" sparseCutoff="1.0000000000000000" />
      <sparseX alpha="-205.79412675287398" i="439" sparseCutoff="1.0000000000000000" />
      <sparseX alpha="-76.428198343653378" i="440" sparseCutoff="1.0000000000000000" />
      <sparseX alpha="-124.13917400391966" i="441" sparseCutoff="1.0000000000000000" />
      <sparseX alpha="-6.8240604650617573" i="442" sparseCutoff="1.0000000000000000" />
      <sparseX alpha="-147.22500153180820" i="443" sparseCutoff="1.0000000000000000" />
      <sparseX alpha="61.987884808105171" i="444" sparseCutoff="1.0000000000000000" />
      <sparseX alpha="-60.009861464885482" i="445" sparseCutoff="1.0000000000000000" />
      <sparseX alpha="-261.42500918152047" i="446" sparseCutoff="1.0000000000000000" />
      <sparseX alpha="64.272808741905266" i="447" sparseCutoff="1.0000000000000000" />
      <sparseX alpha="-204.44276060223112" i="448" sparseCutoff="1.0000000000000000" />
      <sparseX alpha="44.132826780326631" i="449" sparseCutoff="1.0000000000000000" />
      <sparseX alpha="23.371906940262267" i="450" sparseCutoff="1.0000000000000000" />
      <sparseX alpha="-36.175658175684475" i="451" sparseCutoff="1.0000000000000000" />
      <sparseX alpha="-266.55574116713348" i="452" sparseCutoff="1.0000000000000000" />
      <sparseX alpha="-45.084119969488079" i="453" sparseCutoff="1.0000000000000000" />
      <sparseX alpha="-37.719927115097086" i="454" sparseCutoff="1.0000000000000000" />
      <sparseX alpha="109.11586534733631" i="455" sparseCutoff="1.0000000000000000" />
      <sparseX alpha="38.233388007844489" i="456" sparseCutoff="1.0000000000000000" />
      <sparseX alpha="71.964220787854785" i="457" sparseCutoff="1.0000000000000000" />
      <sparseX alpha="-17.778934576441078" i="458" sparseCutoff="1.0000000000000000" />
      <sparseX alpha="83.754700296573944" i="459" sparseCutoff="1.0000000000000000" />
      <sparseX alpha="-19.883544293963340" i="460" sparseCutoff="1.0000000000000000" />
      <sparseX alpha="50.005883831036734" i="461" sparseCutoff="1.0000000000000000" />
      <sparseX alpha="53.050005838752611" i="462" sparseCutoff="1.0000000000000000" />
      <sparseX alpha="-65.608706701518784" i="463" sparseCutoff="1.0000000000000000" />
      <sparseX alpha="157.51447747579354" i="464" sparseCutoff="1.0000000000000000" />
      <sparseX alpha="115.33086341588705" i="465" sparseCutoff="1.0000000000000000" />
      <sparseX alpha="102.42198655417116" i="466" sparseCutoff="1.0000000000000000" />
      <sparseX alpha="24.462890728877728" i="467" sparseCutoff="1.0000000000000000" />
      <sparseX alpha="-114.24004625703175" i="468" sparseCutoff="1.0000000000000000" />
      <sparseX alpha="166.92685204241266" i="469" sparseCutoff="1.0000000000000000" />
      <sparseX alpha="-61.058060282841893" i="470" sparseCutoff="1.0000000000000000" />
      <sparseX alpha="175.52503720678592" i="471" sparseCutoff="1.0000000000000000" />
      <sparseX alpha="-107.27807618152364" i="472" sparseCutoff="1.0000000000000000" />
      <sparseX alpha="-25.156622716536969" i="473" sparseCutoff="1.0000000000000000" />
      <sparseX alpha="136.40260485948289" i="474" sparseCutoff="1.0000000000000000" />
      <sparseX alpha="14.038347478397950" i="475" sparseCutoff="1.0000000000000000" />
      <sparseX alpha="-15.196382396116681" i="476" sparseCutoff="1.0000000000000000" />
      <sparseX alpha="30.883862017608173" i="477" sparseCutoff="1.0000000000000000" />
      <sparseX alpha="17.829708614406105" i="478" sparseCutoff="1.0000000000000000" />
      <sparseX alpha="64.199473540519051" i="479" sparseCutoff="1.0000000000000000" />
      <sparseX alpha="-302.67227660167947" i="480" sparseCutoff="1.0000000000000000" />
      <sparseX alpha="-8.1999712543335121" i="481" sparseCutoff="1.0000000000000000" />
      <sparseX alpha="-45.833718926583259" i="482" sparseCutoff="1.0000000000000000" />
      <sparseX alpha="52.997243441628584" i="483" sparseCutoff="1.0000000000000000" />
      <sparseX alpha="62.434870271653516" i="484" sparseCutoff="1.0000000000000000" />
      <sparseX alpha="5.5245323127185815" i="485" sparseCutoff="1.0000000000000000" />
      <sparseX alpha="78.828072212908268" i="486" sparseCutoff="1.0000000000000000" />
      <sparseX alpha="27.072761331355700" i="487" sparseCutoff="1.0000000000000000" />
      <sparseX alpha="-26.310593631030240" i="488" sparseCutoff="1.0000000000000000" />
      <sparseX alpha="-247.22597313000739" i="489" sparseCutoff="1.0000000000000000" />
      <sparseX alpha="-5.6853279717847105" i="490" sparseCutoff="1.0000000000000000" />
      <sparseX alpha="-62.539716066785729" i="491" sparseCutoff="1.0000000000000000" />
      <sparseX alpha="-59.360827119901892" i="492" sparseCutoff="1.0000000000000000" />
      <sparseX alpha="109.93650380312236" i="493" sparseCutoff="1.0000000000000000" />
      <sparseX alpha="197.15110387338333" i="494" sparseCutoff="1.0000000000000000" />
      <sparseX alpha="123.37547436184489" i="495" sparseCutoff="1.0000000000000000" />
      <sparseX alpha="-28.554220362009435" i="496" sparseCutoff="1.0000000000000000" />
      <sparseX alpha="-282.22351013413618" i="497" sparseCutoff="1.0000000000000000" />
      <sparseX alpha="-385.42363478757437" i="498" sparseCutoff="1.0000000000000000" />
      <sparseX alpha="-67.228934566114887" i="499" sparseCutoff="1.0000000000000000" />
      <sparseX alpha="-79.202638907029026" i="500" sparseCutoff="1.0000000000000000" />
      <sparseX alpha="-259.90926141178818" i="501" sparseCutoff="1.0000000000000000" />
      <sparseX alpha="-88.686113760899204" i="502" sparseCutoff="1.0000000000000000" />
      <sparseX alpha="-144.42045086027872" i="503" sparseCutoff="1.0000000000000000" />
      <sparseX alpha="-33.556664151701995" i="504" sparseCutoff="1.0000000000000000" />
      <sparseX alpha="60.378122115926601" i="505" sparseCutoff="1.0000000000000000" />
      <sparseX alpha="-163.89308465527492" i="506" sparseCutoff="1.0000000000000000" />
      <sparseX alpha="69.116927877999245" i="507" sparseCutoff="1.0000000000000000" />
      <sparseX alpha="-1.7849326643333445" i="508" sparseCutoff="1.0000000000000000" />
      <sparseX alpha="-153.56652589497580" i="509" sparseCutoff="1.0000000000000000" />
      <sparseX alpha="-16.339894117360927" i="510" sparseCutoff="1.0000000000000000" />
      <sparseX alpha="-66.009786853252294" i="511" sparseCutoff="1.0000000000000000" />
      <sparseX alpha=".44744237229434825" i="512" sparseCutoff="1.0000000000000000" />
      <sparseX alpha="-10.439665212866526" i="513" sparseCutoff="1.0000000000000000" />
      <sparseX alpha="-39.534152712932169" i="514" sparseCutoff="1.0000000000000000" />
      <sparseX alpha="56.318305536117315" i="515" sparseCutoff="1.0000000000000000" />
      <sparseX alpha="198.59990022487167" i="516" sparseCutoff="1.0000000000000000" />
      <sparseX alpha="-152.05227100905753" i="517" sparseCutoff="1.0000000000000000" />
      <sparseX alpha="-100.04087009654677" i="518" sparseCutoff="1.0000000000000000" />
      <sparseX alpha="18.243993249319349" i="519" sparseCutoff="1.0000000000000000" />
      <sparseX alpha="78.426895802338450" i="520" sparseCutoff="1.0000000000000000" />
      <sparseX alpha="-82.057174571796637" i="521" sparseCutoff="1.0000000000000000" />
      <sparseX alpha="53.426060292334220" i="522" sparseCutoff="1.0000000000000000" />
      <sparseX alpha="-12.764846913823732" i="523" sparseCutoff="1.0000000000000000" />
      <sparseX alpha="-264.53939219300975" i="524" sparseCutoff="1.0000000000000000" />
      <sparseX alpha="-156.39960280304001" i="525" sparseCutoff="1.0000000000000000" />
      <sparseX alpha="39.277531095337096" i="526" sparseCutoff="1.0000000000000000" />
      <sparseX alpha="34.137324255579813" i="527" sparseCutoff="1.0000000000000000" />
      <sparseX alpha="1.9066233035921960" i="528" sparseCutoff="1.0000000000000000" />
      <sparseX alpha="-45.383388567689160" i="529" sparseCutoff="1.0000000000000000" />
      <sparseX alpha="-47.434131505749818" i="530" sparseCutoff="1.0000000000000000" />
      <sparseX alpha="-37.180988198366776" i="531" sparseCutoff="1.0000000000000000" />
      <sparseX alpha="-246.95709403085931" i="532" sparseCutoff="1.0000000000000000" />
      <sparseX alpha="-36.203341368233325" i="533" sparseCutoff="1.0000000000000000" />
      <sparseX alpha="-13.547088669945238" i="534" sparseCutoff="1.0000000000000000" />
      <sparseX alpha="56.462144446860208" i="535" sparseCutoff="1.0000000000000000" />
      <sparseX alpha="11.136023328449181" i="536" sparseCutoff="1.0000000000000000" />
      <sparseX alpha="-63.223222903323332" i="537" sparseCutoff="1.0000000000000000" />
      <sparseX alpha="-44.787395123942481" i="538" sparseCutoff="1.0000000000000000" />
      <sparseX alpha="-103.18337549668027" i="539" sparseCutoff="1.0000000000000000" />
      <sparseX alpha="130.29446825306235" i="540" sparseCutoff="1.0000000000000000" />
      <sparseX alpha="24.089814492960631" i="541" sparseCutoff="1.0000000000000000" />
      <sparseX alpha="-25.568061340110749" i="542" sparseCutoff="1.0000000000000000" />
      <sparseX alpha="39.113406521755394" i="543" sparseCutoff="1.0000000000000000" />
      <sparseX alpha="110.46564873514376" i="544" sparseCutoff="1.0000000000000000" />
      <sparseX alpha="-2.5442120236392629" i="545" sparseCutoff="1.0000000000000000" />
      <sparseX alpha="-49.564821210182728" i="546" sparseCutoff="1.0000000000000000" />
      <sparseX alpha="66.259897598719277" i="547" sparseCutoff="1.0000000000000000" />
      <sparseX alpha="50.303935619731234" i="548" sparseCutoff="1.0000000000000000" />
      <sparseX alpha="21.716731600616800" i="549" sparseCutoff="1.0000000000000000" />
      <sparseX alpha="-120.69957789490347" i="550" sparseCutoff="1.0000000000000000" />
      <sparseX alpha="-53.766608058776633" i="551" sparseCutoff="1.0000000000000000" />
      <sparseX alpha="-72.482732666311321" i="552" sparseCutoff="1.0000000000000000" />
      <sparseX alpha="49.266684236115118" i="553" sparseCutoff="1.0000000000000000" />
      <sparseX alpha="24.164255840269320" i="554" sparseCutoff="1.0000000000000000" />
      <sparseX alpha="-62.012287242095383" i="555" sparseCutoff="1.0000000000000000" />
      <sparseX alpha="-327.80507027425011" i="556" sparseCutoff="1.0000000000000000" />
      <sparseX alpha="141.96227135109186" i="557" sparseCutoff="1.0000000000000000" />
      <sparseX alpha="40.310270127139901" i="558" sparseCutoff="1.0000000000000000" />
      <sparseX alpha="-158.54179551696558" i="559" sparseCutoff="1.0000000000000000" />
      <sparseX alpha="37.597859386885155" i="560" sparseCutoff="1.0000000000000000" />
      <sparseX alpha="120.45268484033922" i="561" sparseCutoff="1.0000000000000000" />
      <sparseX alpha="105.34844395642486" i="562" sparseCutoff="1.0000000000000000" />
      <sparseX alpha="-56.613553536439589" i="563" sparseCutoff="1.0000000000000000" />
      <sparseX alpha="-5.5042602150603646" i="564" sparseCutoff="1.0000000000000000" />
      <sparseX alpha="146.49061821204296" i="565" sparseCutoff="1.0000000000000000" />
      <sparseX alpha="58.685730614243887" i="566" sparseCutoff="1.0000000000000000" />
      <sparseX alpha="-39.744851125316906" i="567" sparseCutoff="1.0000000000000000" />
      <sparseX alpha="-99.157468850147580" i="568" sparseCutoff="1.0000000000000000" />
      <sparseX alpha="-95.977404569190085" i="569" sparseCutoff="1.0000000000000000" />
      <sparseX alpha="-4.4534927882603004" i="570" sparseCutoff="1.0000000000000000" />
      <sparseX alpha="25.927685222127128" i="571" sparseCutoff="1.0000000000000000" />
      <sparseX alpha="57.643160309092508" i="572" sparseCutoff="1.0000000000000000" />
      <sparseX alpha="-62.039451490932677" i="573" sparseCutoff="1.0000000000000000" />
      <sparseX alpha="6.8766611649678451" i="574" sparseCutoff="1.0000000000000000" />
      <sparseX alpha="3.1229702340724916" i="575" sparseCutoff="1.0000000000000000" />
      <sparseX alpha="-189.93402024194944" i="576" sparseCutoff="1.0000000000000000" />
      <sparseX alpha="75.827297361566167" i="577" sparseCutoff="1.0000000000000000" />
      <sparseX alpha="131.97468966104014" i="578" sparseCutoff="1.0000000000000000" />
      <sparseX alpha="-114.19721885689911" i="579" sparseCutoff="1.0000000000000000" />
      <sparseX alpha="-174.11200281616917" i="580" sparseCutoff="1.0000000000000000" />
      <sparseX alpha="-142.71559543012387" i="581" sparseCutoff="1.0000000000000000" />
      <sparseX alpha="13.937053267717159" i="582" sparseCutoff="1.0000000000000000" />
      <sparseX alpha="-27.923621523607327" i="583" sparseCutoff="1.0000000000000000" />
      <sparseX alpha="-223.47682024698852" i="584" sparseCutoff="1.0000000000000000" />
      <sparseX alpha="198.80928367914674" i="585" sparseCutoff="1.0000000000000000" />
      <sparseX alpha="-38.781459053498281" i="586" sparseCutoff="1.0000000000000000" />
      <sparseX alpha="61.593598500096007" i="587" sparseCutoff="1.0000000000000000" />
      <sparseX alpha="36.241487525021263" i="588" sparseCutoff="1.0000000000000000" />
      <sparseX alpha="79.068805668687162" i="589" sparseCutoff="1.0000000000000000" />
      <sparseX alpha="52.784911489847559" i="590" sparseCutoff="1.0000000000000000" />
      <sparseX alpha="-144.84795737853659" i="591" sparseCutoff="1.0000000000000000" />
      <sparseX alpha="9.9522800289566486" i="592" sparseCutoff="1.0000000000000000" />
      <sparseX alpha="98.493272241524878" i="593" sparseCutoff="1.0000000000000000" />
      <sparseX alpha="145.85108190017229" i="594" sparseCutoff="1.0000000000000000" />
      <sparseX alpha="456.13531006801060" i="595" sparseCutoff="1.0000000000000000" />
      <sparseX alpha="-122.12566595504757" i="596" sparseCutoff="1.0000000000000000" />
      <sparseX alpha="-128.37006238587023" i="597" sparseCutoff="1.0000000000000000" />
      <sparseX alpha="269.06587315128326" i="598" sparseCutoff="1.0000000000000000" />
      <sparseX alpha="-193.66829140838848" i="599" sparseCutoff="1.0000000000000000" />
      <sparseX alpha="-358.86693641600721" i="600" sparseCutoff="1.0000000000000000" />
      <sparseX alpha="-98.680008185897734" i="601" sparseCutoff="1.0000000000000000" />
      <sparseX alpha="-.20467898842777957E-001" i="602" sparseCutoff="1.0000000000000000" />
      <sparseX alpha="-136.28274876901040" i="603" sparseCutoff="1.0000000000000000" />
      <sparseX alpha="-64.339407660018495" i="604" sparseCutoff="1.0000000000000000" />
      <sparseX alpha="-14.994270860837736" i="605" sparseCutoff="1.0000000000000000" />
      <sparseX alpha="381.31361362826937" i="606" sparseCutoff="1.0000000000000000" />
      <sparseX alpha="-633.35557285022719" i="607" sparseCutoff="1.0000000000000000" />
      <sparseX alpha="426.83570387473600" i="608" sparseCutoff="1.0000000000000000" />
      <sparseX alpha="-24.836640845830392" i="609" sparseCutoff="1.0000000000000000" />
      <sparseX alpha="112.55604255251852" i="610" sparseCutoff="1.0000000000000000" />
      <sparseX alpha="-165.42478661241913" i="611" sparseCutoff="1.0000000000000000" />
      <sparseX alpha="400.56557323930656" i="612" sparseCutoff="1.0000000000000000" />
      <sparseX alpha="205.06519442316733" i="613" sparseCutoff="1.0000000000000000" />
      <sparseX alpha="-66.215709656013942" i="614" sparseCutoff="1.0000000000000000" />
      <sparseX alpha="-387.45039191018230" i="615" sparseCutoff="1.0000000000000000" />
      <sparseX alpha="-372.01348507116791" i="616" sparseCutoff="1.0000000000000000" />
      <sparseX alpha="257.49125218473921" i="617" sparseCutoff="1.0000000000000000" />
      <sparseX alpha="61.821646421380684" i="618" sparseCutoff="1.0000000000000000" />
      <sparseX alpha="347.45903817211820" i="619" sparseCutoff="1.0000000000000000" />
      <sparseX alpha="-449.14359710752859" i="620" sparseCutoff="1.0000000000000000" />
      <sparseX alpha="-613.17746900403415" i="621" sparseCutoff="1.0000000000000000" />
      <sparseX alpha="-652.99214853403384" i="622" sparseCutoff="1.0000000000000000" />
      <sparseX alpha="21.379541664216859" i="623" sparseCutoff="1.0000000000000000" />
      <sparseX alpha="-151.69932447362174" i="624" sparseCutoff="1.0000000000000000" />
      <sparseX alpha="363.36589202781244" i="625" sparseCutoff="1.0000000000000000" />
      <sparseX alpha="-707.48240385474901" i="626" sparseCutoff="1.0000000000000000" />
      <sparseX alpha="740.92925428150500" i="627" sparseCutoff="1.0000000000000000" />
      <sparseX alpha="90.916079151314435" i="628" sparseCutoff="1.0000000000000000" />
      <sparseX alpha="-526.77660850694713" i="629" sparseCutoff="1.0000000000000000" />
      <sparseX alpha="-60.424877248235184" i="630" sparseCutoff="1.0000000000000000" />
      <sparseX alpha="321.27160751408400" i="631" sparseCutoff="1.0000000000000000" />
      <sparseX alpha="-4.6771314430429731" i="632" sparseCutoff="1.0000000000000000" />
      <sparseX alpha="38.407197508592454" i="633" sparseCutoff="1.0000000000000000" />
      <sparseX alpha="-41.294352485440683" i="634" sparseCutoff="1.0000000000000000" />
      <sparseX alpha="124.97736179579906" i="635" sparseCutoff="1.0000000000000000" />
      <sparseX alpha="42.872239927406341" i="636" sparseCutoff="1.0000000000000000" />
      <sparseX alpha="57.237370452511293" i="637" sparseCutoff="1.0000000000000000" />
      <sparseX alpha="37.854238380714598" i="638" sparseCutoff="1.0000000000000000" />
      <sparseX alpha="-119.58611425443262" i="639" sparseCutoff="1.0000000000000000" />
      <sparseX alpha="15.025277543890128" i="640" sparseCutoff="1.0000000000000000" />
      <sparseX alpha="-76.087661227838879" i="641" sparseCutoff="1.0000000000000000" />
      <sparseX alpha="74.119061038546903" i="642" sparseCutoff="1.0000000000000000" />
      <sparseX alpha="-80.336273288804662" i="643" sparseCutoff="1.0000000000000000" />
      <sparseX alpha="10.739492938023016" i="644" sparseCutoff="1.0000000000000000" />
      <sparseX alpha="5.5555182240027134" i="645" sparseCutoff="1.0000000000000000" />
      <sparseX alpha="216.12180973061601" i="646" sparseCutoff="1.0000000000000000" />
      <sparseX alpha="-38.890744703273462" i="647" sparseCutoff="1.0000000000000000" />
      <sparseX alpha="151.60158256067658" i="648" sparseCutoff="1.0000000000000000" />
      <sparseX alpha="111.70970235390928" i="649" sparseCutoff="1.0000000000000000" />
      <sparseX alpha="5.6749173230679020" i="650" sparseCutoff="1.0000000000000000" />
      <sparseX alpha="136.93461935174500" i="651" sparseCutoff="1.0000000000000000" />
      <sparseX alpha="-128.78016660215661" i="652" sparseCutoff="1.0000000000000000" />
      <sparseX alpha="-10.161385852094678" i="653" sparseCutoff="1.0000000000000000" />
      <sparseX alpha="-35.930332347578180" i="654" sparseCutoff="1.0000000000000000" />
      <sparseX alpha="173.63076682731085" i="655" sparseCutoff="1.0000000000000000" />
      <sparseX alpha="-21.634924570227312" i="656" sparseCutoff="1.0000000000000000" />
      <sparseX alpha="31.907161416432835" i="657" sparseCutoff="1.0000000000000000" />
      <sparseX alpha="-8.2029567354031911" i="658" sparseCutoff="1.0000000000000000" />
      <sparseX alpha="122.32481536022563" i="659" sparseCutoff="1.0000000000000000" />
      <sparseX alpha="115.97126290039706" i="660" sparseCutoff="1.0000000000000000" />
      <sparseX alpha="-146.07732005947210" i="661" sparseCutoff="1.0000000000000000" />
      <sparseX alpha="207.34134655137467" i="662" sparseCutoff="1.0000000000000000" />
      <sparseX alpha="-.26665345296976017" i="663" sparseCutoff="1.0000000000000000" />
      <sparseX alpha="53.344432489956311" i="664" sparseCutoff="1.0000000000000000" />
      <sparseX alpha="81.250894979856383" i="665" sparseCutoff="1.0000000000000000" />
      <sparseX alpha="53.607639183295582" i="666" sparseCutoff="1.0000000000000000" />
      <sparseX alpha="-.54924424277242208E-001" i="667" sparseCutoff="1.0000000000000000" />
      <sparseX alpha="60.742122107430397" i="668" sparseCutoff="1.0000000000000000" />
      <sparseX alpha="-134.26111954387795" i="669" sparseCutoff="1.0000000000000000" />
      <sparseX alpha="-170.80871860888359" i="670" sparseCutoff="1.0000000000000000" />
      <sparseX alpha="-16.232436674160148" i="671" sparseCutoff="1.0000000000000000" />
      <sparseX alpha="7.6814052815670699" i="672" sparseCutoff="1.0000000000000000" />
      <sparseX alpha="-66.312207343315876" i="673" sparseCutoff="1.0000000000000000" />
      <sparseX alpha="109.90859096169991" i="674" sparseCutoff="1.0000000000000000" />
      <sparseX alpha="95.722509746912479" i="675" sparseCutoff="1.0000000000000000" />
      <sparseX alpha="-80.436584442220649" i="676" sparseCutoff="1.0000000000000000" />
      <sparseX alpha="-114.03248358435609" i="677" sparseCutoff="1.0000000000000000" />
      <sparseX alpha="-116.97317581565481" i="678" sparseCutoff="1.0000000000000000" />
      <sparseX alpha="174.85578371042376" i="679" sparseCutoff="1.0000000000000000" />
      <sparseX alpha="-59.842865592214096" i="680" sparseCutoff="1.0000000000000000" />
      <sparseX alpha="65.998557689837611" i="681" sparseCutoff="1.0000000000000000" />
      <sparseX alpha="80.008070615881692" i="682" sparseCutoff="1.0000000000000000" />
      <sparseX alpha="-170.78594288448346" i="683" sparseCutoff="1.0000000000000000" />
      <sparseX alpha="207.44296175958104" i="684" sparseCutoff="1.0000000000000000" />
      <sparseX alpha="-154.27088806170269" i="685" sparseCutoff="1.0000000000000000" />
      <sparseX alpha="-351.21375505537515" i="686" sparseCutoff="1.0000000000000000" />
      <sparseX alpha="102.16787387893940" i="687" sparseCutoff="1.0000000000000000" />
      <sparseX alpha="120.56422789522003" i="688" sparseCutoff="1.0000000000000000" />
      <sparseX alpha="110.82822958468425" i="689" sparseCutoff="1.0000000000000000" />
      <sparseX alpha="371.69675428530246" i="690" sparseCutoff="1.0000000000000000" />
      <sparseX alpha="-326.24018761652417" i="691" sparseCutoff="1.0000000000000000" />
      <sparseX alpha="-126.12139074559650" i="692" sparseCutoff="1.0000000000000000" />
      <sparseX alpha="436.89119165828805" i="693" sparseCutoff="1.0000000000000000" />
      <sparseX alpha="-270.24417675176056" i="694" sparseCutoff="1.0000000000000000" />
      <sparseX alpha="-896.25904260095035" i="695" sparseCutoff="1.0000000000000000" />
      <sparseX alpha="-114.68384975075050" i="696" sparseCutoff="1.0000000000000000" />
      <sparseX alpha="111.96022401758222" i="697" sparseCutoff="1.0000000000000000" />
      <sparseX alpha="51.971975795139905" i="698" sparseCutoff="1.0000000000000000" />
      <sparseX alpha="-155.07554470141960" i="699" sparseCutoff="1.0000000000000000" />
      <sparseX alpha="-134.00855462354264" i="700" sparseCutoff="1.0000000000000000" />
      <sparseX alpha="-135.72498659078840" i="701" sparseCutoff="1.0000000000000000" />
      <sparseX alpha="71.967451181481081" i="702" sparseCutoff="1.0000000000000000" />
      <sparseX alpha="-150.24899801195252" i="703" sparseCutoff="1.0000000000000000" />
      <sparseX alpha="9.2738217874649482" i="704" sparseCutoff="1.0000000000000000" />
      <sparseX alpha="-208.74742801223229" i="705" sparseCutoff="1.0000000000000000" />
      <sparseX alpha="-73.864978341695561" i="706" sparseCutoff="1.0000000000000000" />
      <sparseX alpha="13.794440759919729" i="707" sparseCutoff="1.0000000000000000" />
      <sparseX alpha="-47.466146289231013" i="708" sparseCutoff="1.0000000000000000" />
      <sparseX alpha="34.832597630198777" i="709" sparseCutoff="1.0000000000000000" />
      <sparseX alpha="44.761829504686148" i="710" sparseCutoff="1.0000000000000000" />
      <sparseX alpha="7.0123519714013041" i="711" sparseCutoff="1.0000000000000000" />
      <sparseX alpha="-6.1813279443527875" i="712" sparseCutoff="1.0000000000000000" />
      <sparseX alpha="87.816384020776638" i="713" sparseCutoff="1.0000000000000000" />
      <sparseX alpha="-232.29111069236129" i="714" sparseCutoff="1.0000000000000000" />
      <sparseX alpha="59.920781946746686" i="715" sparseCutoff="1.0000000000000000" />
      <sparseX alpha="61.802089880362786" i="716" sparseCutoff="1.0000000000000000" />
      <sparseX alpha="133.29625901038187" i="717" sparseCutoff="1.0000000000000000" />
      <sparseX alpha="122.90922463934677" i="718" sparseCutoff="1.0000000000000000" />
      <sparseX alpha="32.947387139159588" i="719" sparseCutoff="1.0000000000000000" />
      <sparseX alpha="26.593966611302996" i="720" sparseCutoff="1.0000000000000000" />
      <sparseX alpha="61.431498446311522" i="721" sparseCutoff="1.0000000000000000" />
      <sparseX alpha="-28.050572868563062" i="722" sparseCutoff="1.0000000000000000" />
      <sparseX alpha="3.0717720528351053" i="723" sparseCutoff="1.0000000000000000" />
      <sparseX alpha="87.556700880853100" i="724" sparseCutoff="1.0000000000000000" />
      <sparseX alpha="-115.61025131815160" i="725" sparseCutoff="1.0000000000000000" />
      <sparseX alpha="-59.268718645768494" i="726" sparseCutoff="1.0000000000000000" />
      <sparseX alpha="63.048127641622791" i="727" sparseCutoff="1.0000000000000000" />
      <sparseX alpha="-152.57001633615329" i="728" sparseCutoff="1.0000000000000000" />
      <sparseX alpha="241.25205622645370" i="729" sparseCutoff="1.0000000000000000" />
      <sparseX alpha="-283.13990845322775" i="730" sparseCutoff="1.0000000000000000" />
      <sparseX alpha="34.851261096001103" i="731" sparseCutoff="1.0000000000000000" />
      <sparseX alpha="-80.954711587314563" i="732" sparseCutoff="1.0000000000000000" />
      <sparseX alpha="-95.444573815808809" i="733" sparseCutoff="1.0000000000000000" />
      <sparseX alpha="123.76146715398643" i="734" sparseCutoff="1.0000000000000000" />
      <sparseX alpha="-83.766538789202954" i="735" sparseCutoff="1.0000000000000000" />
      <sparseX alpha="-144.34469916557708" i="736" sparseCutoff="1.0000000000000000" />
      <sparseX alpha="28.342020042389393" i="737" sparseCutoff="1.0000000000000000" />
      <sparseX alpha="-102.47115060169165" i="738" sparseCutoff="1.0000000000000000" />
      <sparseX alpha="-343.56425296913142" i="739" sparseCutoff="1.0000000000000000" />
      <sparseX alpha="28.279935611026854" i="740" sparseCutoff="1.0000000000000000" />
      <sparseX alpha="-546.09532440068574" i="741" sparseCutoff="1.0000000000000000" />
      <sparseX alpha="528.11945053334807" i="742" sparseCutoff="1.0000000000000000" />
      <sparseX alpha="-226.57870318863684" i="743" sparseCutoff="1.0000000000000000" />
      <sparseX alpha="24.320863705956263" i="744" sparseCutoff="1.0000000000000000" />
      <sparseX alpha="66.478152812572802" i="745" sparseCutoff="1.0000000000000000" />
      <sparseX alpha="-874.89994138365205" i="746" sparseCutoff="1.0000000000000000" />
      <sparseX alpha="2.9006780404313246" i="747" sparseCutoff="1.0000000000000000" />
      <sparseX alpha="-258.69208732051976" i="748" sparseCutoff="1.0000000000000000" />
      <sparseX alpha="289.59878695523236" i="749" sparseCutoff="1.0000000000000000" />
      <sparseX alpha="-1052.6595870719036" i="750" sparseCutoff="1.0000000000000000" />
      <sparseX alpha="-650.66908455200735" i="751" sparseCutoff="1.0000000000000000" />
      <sparseX alpha="378.47708510015542" i="752" sparseCutoff="1.0000000000000000" />
      <sparseX alpha="324.63218057061260" i="753" sparseCutoff="1.0000000000000000" />
      <sparseX alpha="-116.97263758565938" i="754" sparseCutoff="1.0000000000000000" />
      <sparseX alpha="339.65416509890787" i="755" sparseCutoff="1.0000000000000000" />
      <sparseX alpha="108.27935791252051" i="756" sparseCutoff="1.0000000000000000" />
      <sparseX alpha="251.30002704646111" i="757" sparseCutoff="1.0000000000000000" />
      <sparseX alpha="92.031089788910251" i="758" sparseCutoff="1.0000000000000000" />
      <sparseX alpha="142.54637132981028" i="759" sparseCutoff="1.0000000000000000" />
      <sparseX alpha="424.05654518119201" i="760" sparseCutoff="1.0000000000000000" />
      <sparseX alpha="-875.20340863894648" i="761" sparseCutoff="1.0000000000000000" />
      <sparseX alpha="-68.829683948547881" i="762" sparseCutoff="1.0000000000000000" />
      <sparseX alpha="4.5504095266894673" i="763" sparseCutoff="1.0000000000000000" />
      <sparseX alpha="470.30755161544005" i="764" sparseCutoff="1.0000000000000000" />
      <sparseX alpha="141.83815656597980" i="765" sparseCutoff="1.0000000000000000" />
      <sparseX alpha="-71.050451741337383" i="766" sparseCutoff="1.0000000000000000" />
      <sparseX alpha="527.40677721592351" i="767" sparseCutoff="1.0000000000000000" />
      <sparseX alpha="-228.20975290897081" i="768" sparseCutoff="1.0000000000000000" />
      <sparseX alpha="-925.54098732697821" i="769" sparseCutoff="1.0000000000000000" />
      <sparseX alpha="-6.9562050259652928" i="770" sparseCutoff="1.0000000000000000" />
      <sparseX alpha="524.15774993885577" i="771" sparseCutoff="1.0000000000000000" />
      <sparseX alpha="-135.49192398320068" i="772" sparseCutoff="1.0000000000000000" />
      <sparseX alpha="-241.92991625393634" i="773" sparseCutoff="1.0000000000000000" />
      <sparseX alpha="27.366863234792195" i="774" sparseCutoff="1.0000000000000000" />
      <sparseX alpha="30.686509241101870" i="775" sparseCutoff="1.0000000000000000" />
      <sparseX alpha="17.188822656299699" i="776" sparseCutoff="1.0000000000000000" />
      <sparseX alpha=".67328273058937937" i="777" sparseCutoff="1.0000000000000000" />
      <sparseX alpha="15.030651019272716" i="778" sparseCutoff="1.0000000000000000" />
      <sparseX alpha="5.7741130433273362" i="779" sparseCutoff="1.0000000000000000" />
      <sparseX alpha="181.21649386631267" i="780" sparseCutoff="1.0000000000000000" />
      <sparseX alpha="80.077243681059599" i="781" sparseCutoff="1.0000000000000000" />
      <sparseX alpha="1.5598292058479903" i="782" sparseCutoff="1.0000000000000000" />
      <sparseX alpha="4.6955550030971098" i="783" sparseCutoff="1.0000000000000000" />
      <sparseX alpha="-68.164846460454172" i="784" sparseCutoff="1.0000000000000000" />
      <sparseX alpha="86.582602725999251" i="785" sparseCutoff="1.0000000000000000" />
      <sparseX alpha="32.838865090881086" i="786" sparseCutoff="1.0000000000000000" />
      <sparseX alpha="-114.10883238780478" i="787" sparseCutoff="1.0000000000000000" />
      <sparseX alpha="-138.55070409729456" i="788" sparseCutoff="1.0000000000000000" />
      <sparseX alpha="135.15389374803257" i="789" sparseCutoff="1.0000000000000000" />
      <sparseX alpha="-121.25254948565090" i="790" sparseCutoff="1.0000000000000000" />
      <sparseX alpha="-225.76726661548489" i="791" sparseCutoff="1.0000000000000000" />
      <sparseX alpha="-38.701079501914684" i="792" sparseCutoff="1.0000000000000000" />
      <sparseX alpha="-77.758670009587206" i="793" sparseCutoff="1.0000000000000000" />
      <sparseX alpha="-70.488203763906625" i="794" sparseCutoff="1.0000000000000000" />
      <sparseX alpha="48.573350572671167" i="795" sparseCutoff="1.0000000000000000" />
      <sparseX alpha="60.488325142385698" i="796" sparseCutoff="1.0000000000000000" />
      <sparseX alpha="-69.644359979390401" i="797" sparseCutoff="1.0000000000000000" />
      <sparseX alpha="-23.217380895573829" i="798" sparseCutoff="1.0000000000000000" />
      <sparseX alpha="-83.726753523184342" i="799" sparseCutoff="1.0000000000000000" />
      <sparseX alpha="-82.902530365259068" i="800" sparseCutoff="1.0000000000000000" />
      <sparseX alpha="22.299532580932119" i="801" sparseCutoff="1.0000000000000000" />
      <sparseX alpha="-64.689632208321115" i="802" sparseCutoff="1.0000000000000000" />
      <sparseX alpha="17.516224651591138" i="803" sparseCutoff="1.0000000000000000" />
      <sparseX alpha="52.543950433329648" i="804" sparseCutoff="1.0000000000000000" />
      <sparseX alpha="-50.447095481559934" i="805" sparseCutoff="1.0000000000000000" />
      <sparseX alpha="-107.66533375238414" i="806" sparseCutoff="1.0000000000000000" />
      <sparseX alpha="91.596952244877372" i="807" sparseCutoff="1.0000000000000000" />
      <sparseX alpha="275.56838027754685" i="808" sparseCutoff="1.0000000000000000" />
      <sparseX alpha="-781.95924572377862" i="809" sparseCutoff="1.0000000000000000" />
      <sparseX alpha="-96.052690735003964" i="810" sparseCutoff="1.0000000000000000" />
      <sparseX alpha="616.68286646995284" i="811" sparseCutoff="1.0000000000000000" />
      <sparseX alpha="381.41350743009480" i="812" sparseCutoff="1.0000000000000000" />
      <sparseX alpha="-225.93522012747974" i="813" sparseCutoff="1.0000000000000000" />
      <sparseX alpha="581.41260890789010" i="814" sparseCutoff="1.0000000000000000" />
      <sparseX alpha="-492.00085316727126" i="815" sparseCutoff="1.0000000000000000" />
      <sparseX alpha="3.7276480198637358" i="816" sparseCutoff="1.0000000000000000" />
      <sparseX alpha="216.02487527909651" i="817" sparseCutoff="1.0000000000000000" />
      <sparseX alpha="-382.61863755183606" i="818" sparseCutoff="1.0000000000000000" />
      <sparseX alpha="-625.40929664190276" i="819" sparseCutoff="1.0000000000000000" />
      <sparseX alpha="535.34036931822220" i="820" sparseCutoff="1.0000000000000000" />
      <sparseX alpha="-4.0823744864799405" i="821" sparseCutoff="1.0000000000000000" />
      <sparseX alpha="-105.22563560305694" i="822" sparseCutoff="1.0000000000000000" />
      <sparseX alpha="430.44207864439807" i="823" sparseCutoff="1.0000000000000000" />
      <sparseX alpha="-434.36798267114165" i="824" sparseCutoff="1.0000000000000000" />
      <sparseX alpha="178.34402082048425" i="825" sparseCutoff="1.0000000000000000" />
      <sparseX alpha="-145.48739928779040" i="826" sparseCutoff="1.0000000000000000" />
      <sparseX alpha="-169.26732879566336" i="827" sparseCutoff="1.0000000000000000" />
      <sparseX alpha="-21.393511156251069" i="828" sparseCutoff="1.0000000000000000" />
      <sparseX alpha="-430.50119312717584" i="829" sparseCutoff="1.0000000000000000" />
      <sparseX alpha="-677.63634897363750" i="830" sparseCutoff="1.0000000000000000" />
      <sparseX alpha="38.693539416875304" i="831" sparseCutoff="1.0000000000000000" />
      <sparseX alpha="-31.938720919093900" i="832" sparseCutoff="1.0000000000000000" />
      <sparseX alpha="-42.090760551996055" i="833" sparseCutoff="1.0000000000000000" />
      <sparseX alpha="47.131132118847852" i="834" sparseCutoff="1.0000000000000000" />
      <sparseX alpha="-84.559175864774346" i="835" sparseCutoff="1.0000000000000000" />
      <sparseX alpha="-56.081617370437677" i="836" sparseCutoff="1.0000000000000000" />
      <sparseX alpha="-125.73922676134369" i="837" sparseCutoff="1.0000000000000000" />
      <sparseX alpha="35.167339366388610" i="838" sparseCutoff="1.0000000000000000" />
      <sparseX alpha="-81.366266707036175" i="839" sparseCutoff="1.0000000000000000" />
      <sparseX alpha="-75.628474484550210" i="840" sparseCutoff="1.0000000000000000" />
      <sparseX alpha="77.694579109395818" i="841" sparseCutoff="1.0000000000000000" />
      <sparseX alpha="39.816514431575804" i="842" sparseCutoff="1.0000000000000000" />
      <sparseX alpha="-55.404637142319793" i="843" sparseCutoff="1.0000000000000000" />
      <sparseX alpha="-149.56333644350636" i="844" sparseCutoff="1.0000000000000000" />
      <sparseX alpha="-165.84931731301606" i="845" sparseCutoff="1.0000000000000000" />
      <sparseX alpha="-13.731219105131833" i="846" sparseCutoff="1.0000000000000000" />
      <sparseX alpha="-352.30848646028812" i="847" sparseCutoff="1.0000000000000000" />
      <sparseX alpha="108.92248939576933" i="848" sparseCutoff="1.0000000000000000" />
      <sparseX alpha="-49.982788343792762" i="849" sparseCutoff="1.0000000000000000" />
      <sparseX alpha=".46081320920539504" i="850" sparseCutoff="1.0000000000000000" />
      <sparseX alpha="-105.96644101544247" i="851" sparseCutoff="1.0000000000000000" />
      <sparseX alpha="-100.95832871693915" i="852" sparseCutoff="1.0000000000000000" />
      <sparseX alpha="124.01911753109013" i="853" sparseCutoff="1.0000000000000000" />
      <sparseX alpha="10.497837510855755" i="854" sparseCutoff="1.0000000000000000" />
      <sparseX alpha="-162.76217661485069" i="855" sparseCutoff="1.0000000000000000" />
      <sparseX alpha="215.40739590758449" i="856" sparseCutoff="1.0000000000000000" />
      <sparseX alpha="-96.548231314299542" i="857" sparseCutoff="1.0000000000000000" />
      <sparseX alpha="-38.268507097859519" i="858" sparseCutoff="1.0000000000000000" />
      <sparseX alpha="-119.20332229221970" i="859" sparseCutoff="1.0000000000000000" />
      <sparseX alpha="-98.187879849298909" i="860" sparseCutoff="1.0000000000000000" />
      <sparseX alpha="151.20800010071014" i="861" sparseCutoff="1.0000000000000000" />
      <sparseX alpha="70.654748952454554" i="862" sparseCutoff="1.0000000000000000" />
      <sparseX alpha="68.387127784157755" i="863" sparseCutoff="1.0000000000000000" />
      <sparseX alpha="-199.78480382918005" i="864" sparseCutoff="1.0000000000000000" />
      <sparseX alpha="21.079418107235941" i="865" sparseCutoff="1.0000000000000000" />
      <sparseX alpha="-56.551098606080046" i="866" sparseCutoff="1.0000000000000000" />
      <sparseX alpha="26.621250076971165" i="867" sparseCutoff="1.0000000000000000" />
      <sparseX alpha="43.877453565546361" i="868" sparseCutoff="1.0000000000000000" />
      <sparseX alpha="-44.946196932853518" i="869" sparseCutoff="1.0000000000000000" />
      <sparseX alpha="-120.30066167537153" i="870" sparseCutoff="1.0000000000000000" />
      <sparseX alpha="-182.57489382095542" i="871" sparseCutoff="1.0000000000000000" />
      <sparseX alpha="-247.01562277299254" i="872" sparseCutoff="1.0000000000000000" />
      <sparseX alpha="152.55242949140759" i="873" sparseCutoff="1.0000000000000000" />
      <sparseX alpha="-709.22518779766574" i="874" sparseCutoff="1.0000000000000000" />
      <sparseX alpha="-38.582825845765669" i="875" sparseCutoff="1.0000000000000000" />
      <sparseX alpha="570.47931179035470" i="876" sparseCutoff="1.0000000000000000" />
      <sparseX alpha="123.42642827019255" i="877" sparseCutoff="1.0000000000000000" />
      <sparseX alpha="190.92373268320426" i="878" sparseCutoff="1.0000000000000000" />
      <sparseX alpha="-46.239368066498656" i="879" sparseCutoff="1.0000000000000000" />
      <sparseX alpha="662.11281566420269" i="880" sparseCutoff="1.0000000000000000" />
      <sparseX alpha="113.41945716709155" i="881" sparseCutoff="1.0000000000000000" />
      <sparseX alpha="-147.92368751342781" i="882" sparseCutoff="1.0000000000000000" />
      <sparseX alpha="-419.56994825341491" i="883" sparseCutoff="1.0000000000000000" />
      <sparseX alpha="-138.98096889030634" i="884" sparseCutoff="1.0000000000000000" />
      <sparseX alpha="161.33470911288921" i="885" sparseCutoff="1.0000000000000000" />
      <sparseX alpha="-81.391741493688087" i="886" sparseCutoff="1.0000000000000000" />
      <sparseX alpha="318.89888764174253" i="887" sparseCutoff="1.0000000000000000" />
      <sparseX alpha="-557.71312091774541" i="888" sparseCutoff="1.0000000000000000" />
      <sparseX alpha="-523.78801866608717" i="889" sparseCutoff="1.0000000000000000" />
      <sparseX alpha="-979.06849564952927" i="890" sparseCutoff="1.0000000000000000" />
      <sparseX alpha="337.36431780117420" i="891" sparseCutoff="1.0000000000000000" />
      <sparseX alpha="-154.47940277061736" i="892" sparseCutoff="1.0000000000000000" />
      <sparseX alpha="81.050319933063591" i="893" sparseCutoff="1.0000000000000000" />
      <sparseX alpha="-249.63182468130776" i="894" sparseCutoff="1.0000000000000000" />
      <sparseX alpha="-507.77022054288722" i="895" sparseCutoff="1.0000000000000000" />
      <sparseX alpha="1018.1876062021837" i="896" sparseCutoff="1.0000000000000000" />
      <sparseX alpha="430.98208742750001" i="897" sparseCutoff="1.0000000000000000" />
      <sparseX alpha="-361.37991145830586" i="898" sparseCutoff="1.0000000000000000" />
      <sparseX alpha="-185.51151174185350" i="899" sparseCutoff="1.0000000000000000" />
      <sparseX alpha="203.68260618927420" i="900" sparseCutoff="1.0000000000000000" />
      <sparseX alpha="526.52489252929843" i="901" sparseCutoff="1.0000000000000000" />
      <sparseX alpha="-242.07871468982538" i="902" sparseCutoff="1.0000000000000000" />
      <sparseX alpha="-545.78615923131940" i="903" sparseCutoff="1.0000000000000000" />
      <sparseX alpha="-43.318569026206617" i="904" sparseCutoff="1.0000000000000000" />
      <sparseX alpha="-863.86916286671044" i="905" sparseCutoff="1.0000000000000000" />
      <sparseX alpha="-346.38401100589959" i="906" sparseCutoff="1.0000000000000000" />
      <sparseX alpha="710.42141032787777" i="907" sparseCutoff="1.0000000000000000" />
      <sparseX alpha="-168.80904215144713" i="908" sparseCutoff="1.0000000000000000" />
      <sparseX alpha="-440.35603701846986" i="909" sparseCutoff="1.0000000000000000" />
      <sparseX alpha="382.64208471184742" i="910" sparseCutoff="1.0000000000000000" />
      <sparseX alpha="827.61814529438857" i="911" sparseCutoff="1.0000000000000000" />
      <sparseX alpha="195.23407672382049" i="912" sparseCutoff="1.0000000000000000" />
      <sparseX alpha="-556.38919399145584" i="913" sparseCutoff="1.0000000000000000" />
      <sparseX alpha="186.81969372116771" i="914" sparseCutoff="1.0000000000000000" />
      <sparseX alpha="547.66676853492481" i="915" sparseCutoff="1.0000000000000000" />
      <sparseX alpha="-303.49749160530558" i="916" sparseCutoff="1.0000000000000000" />
      <sparseX alpha="-253.58607458858924" i="917" sparseCutoff="1.0000000000000000" />
      <sparseX alpha="430.95965452244229" i="918" sparseCutoff="1.0000000000000000" />
      <sparseX alpha="742.83670243753068" i="919" sparseCutoff="1.0000000000000000" />
      <sparseX alpha="93.918868490400584" i="920" sparseCutoff="1.0000000000000000" />
      <sparseX alpha=".41172524604481503" i="921" sparseCutoff="1.0000000000000000" />
      <sparseX alpha="-105.11898931531465" i="922" sparseCutoff="1.0000000000000000" />
      <sparseX alpha="133.18053157478758" i="923" sparseCutoff="1.0000000000000000" />
      <sparseX alpha="-230.83951044762054" i="924" sparseCutoff="1.0000000000000000" />
      <sparseX alpha="-46.375274836739976" i="925" sparseCutoff="1.0000000000000000" />
      <sparseX alpha="-55.622524994194848" i="926" sparseCutoff="1.0000000000000000" />
      <sparseX alpha="84.383234881867779" i="927" sparseCutoff="1.0000000000000000" />
      <sparseX alpha="52.670797153826435" i="928" sparseCutoff="1.0000000000000000" />
      <sparseX alpha="-2.2716831422173844" i="929" sparseCutoff="1.0000000000000000" />
      <sparseX alpha="-3.8871309899867823" i="930" sparseCutoff="1.0000000000000000" />
      <sparseX alpha="-111.75696822454780" i="931" sparseCutoff="1.0000000000000000" />
      <sparseX alpha="161.39991370959072" i="932" sparseCutoff="1.0000000000000000" />
      <sparseX alpha="-94.995122360424972" i="933" sparseCutoff="1.0000000000000000" />
      <sparseX alpha="147.98762596812239" i="934" sparseCutoff="1.0000000000000000" />
      <sparseX alpha="-313.97931471884897" i="935" sparseCutoff="1.0000000000000000" />
      <sparseX alpha="-35.452342055593284" i="936" sparseCutoff="1.0000000000000000" />
      <sparseX alpha="150.50634821241403" i="937" sparseCutoff="1.0000000000000000" />
      <sparseX alpha="-73.397523985881733" i="938" sparseCutoff="1.0000000000000000" />
      <sparseX alpha="-222.58722651164840" i="939" sparseCutoff="1.0000000000000000" />
      <sparseX alpha="-10.291113500520181" i="940" sparseCutoff="1.0000000000000000" />
      <sparseX alpha="318.95729505452539" i="941" sparseCutoff="1.0000000000000000" />
      <sparseX alpha="-71.588302457764655" i="942" sparseCutoff="1.0000000000000000" />
      <sparseX alpha="-15.699816548992906" i="943" sparseCutoff="1.0000000000000000" />
      <sparseX alpha="40.513973518293852" i="944" sparseCutoff="1.0000000000000000" />
      <sparseX alpha="40.796489473092940" i="945" sparseCutoff="1.0000000000000000" />
      <sparseX alpha="-157.74213338498345" i="946" sparseCutoff="1.0000000000000000" />
      <sparseX alpha="-106.52496541685498" i="947" sparseCutoff="1.0000000000000000" />
      <sparseX alpha="144.84323807293507" i="948" sparseCutoff="1.0000000000000000" />
      <sparseX alpha="-171.55922177707384" i="949" sparseCutoff="1.0000000000000000" />
      <sparseX alpha="-192.19634338651957" i="950" sparseCutoff="1.0000000000000000" />
      <sparseX alpha="-154.69367682212336" i="951" sparseCutoff="1.0000000000000000" />
      <sparseX alpha="-752.03162214313738" i="952" sparseCutoff="1.0000000000000000" />
      <sparseX alpha="151.97745371135292" i="953" sparseCutoff="1.0000000000000000" />
      <sparseX alpha="-272.71812698342882" i="954" sparseCutoff="1.0000000000000000" />
      <sparseX alpha="313.85074391433938" i="955" sparseCutoff="1.0000000000000000" />
      <sparseX alpha="313.83472787802822" i="956" sparseCutoff="1.0000000000000000" />
      <sparseX alpha="-358.05039946840782" i="957" sparseCutoff="1.0000000000000000" />
      <sparseX alpha="225.87113284233669" i="958" sparseCutoff="1.0000000000000000" />
      <sparseX alpha="-120.59158919966610" i="959" sparseCutoff="1.0000000000000000" />
      <sparseX alpha="272.19743258286019" i="960" sparseCutoff="1.0000000000000000" />
      <sparseX alpha="198.00272052722909" i="961" sparseCutoff="1.0000000000000000" />
      <sparseX alpha="47.626250731799658" i="962" sparseCutoff="1.0000000000000000" />
      <sparseX alpha="514.19831566928269" i="963" sparseCutoff="1.0000000000000000" />
      <sparseX alpha="-165.92757404729880" i="964" sparseCutoff="1.0000000000000000" />
      <sparseX alpha="612.37241074678923" i="965" sparseCutoff="1.0000000000000000" />
      <sparseX alpha="87.771207847358696" i="966" sparseCutoff="1.0000000000000000" />
      <sparseX alpha="-9.7811578433409316" i="967" sparseCutoff="1.0000000000000000" />
      <sparseX alpha="-51.465580785765958" i="968" sparseCutoff="1.0000000000000000" />
      <sparseX alpha="-43.935505052399826" i="969" sparseCutoff="1.0000000000000000" />
      <sparseX alpha="-260.94071446163986" i="970" sparseCutoff="1.0000000000000000" />
      <sparseX alpha="45.101224109076476" i="971" sparseCutoff="1.0000000000000000" />
      <sparseX alpha="72.814019311076891" i="972" sparseCutoff="1.0000000000000000" />
      <sparseX alpha="-189.60290716021183" i="973" sparseCutoff="1.0000000000000000" />
      <sparseX alpha="25.116147256128109" i="974" sparseCutoff="1.0000000000000000" />
      <sparseX alpha="-255.36905971936889" i="975" sparseCutoff="1.0000000000000000" />
      <sparseX alpha="-142.70689640108967" i="976" sparseCutoff="1.0000000000000000" />
      <sparseX alpha="-177.15214253224241" i="977" sparseCutoff="1.0000000000000000" />
      <sparseX alpha="104.29685381336795" i="978" sparseCutoff="1.0000000000000000" />
      <sparseX alpha="97.423683222187194" i="979" sparseCutoff="1.0000000000000000" />
      <sparseX alpha="-143.21566508959566" i="980" sparseCutoff="1.0000000000000000" />
      <sparseX alpha="45.044824789465387" i="981" sparseCutoff="1.0000000000000000" />
      <sparseX alpha="84.675882758513183" i="982" sparseCutoff="1.0000000000000000" />
      <sparseX alpha="127.66852449826683" i="983" sparseCutoff="1.0000000000000000" />
      <sparseX alpha="-63.322365062847211" i="984" sparseCutoff="1.0000000000000000" />
      <sparseX alpha="63.193241564220955" i="985" sparseCutoff="1.0000000000000000" />
      <sparseX alpha="-180.94582925152380" i="986" sparseCutoff="1.0000000000000000" />
      <sparseX alpha="72.807157837493449" i="987" sparseCutoff="1.0000000000000000" />
      <sparseX alpha="169.53149714395016" i="988" sparseCutoff="1.0000000000000000" />
      <sparseX alpha="474.03229596443833" i="989" sparseCutoff="1.0000000000000000" />
      <sparseX alpha="-58.888876219172062" i="990" sparseCutoff="1.0000000000000000" />
      <sparseX alpha="256.93549598757170" i="991" sparseCutoff="1.0000000000000000" />
      <sparseX alpha="-355.09761394213461" i="992" sparseCutoff="1.0000000000000000" />
      <sparseX alpha="-72.452529295449708" i="993" sparseCutoff="1.0000000000000000" />
      <sparseX alpha="-286.53245100626953" i="994" sparseCutoff="1.0000000000000000" />
      <sparseX alpha="-59.363553107113361" i="995" sparseCutoff="1.0000000000000000" />
      <sparseX alpha="-146.95774384274327" i="996" sparseCutoff="1.0000000000000000" />
      <sparseX alpha="16.934545747811420" i="997" sparseCutoff="1.0000000000000000" />
      <sparseX alpha="6.0370402676824932" i="998" sparseCutoff="1.0000000000000000" />
      <sparseX alpha="125.29965785827733" i="999" sparseCutoff="1.0000000000000000" />
      <sparseX alpha="2.5007253080440988" i="1000" sparseCutoff="1.0000000000000000" />
      <sparseX alpha="192.85346460048083" i="1001" sparseCutoff="1.0000000000000000" />
      <sparseX alpha="57.823726373946556" i="1002" sparseCutoff="1.0000000000000000" />
      <sparseX alpha="-81.421598317358004" i="1003" sparseCutoff="1.0000000000000000" />
      <sparseX alpha="317.52886989498273" i="1004" sparseCutoff="1.0000000000000000" />
      <sparseX alpha="87.096568863111699" i="1005" sparseCutoff="1.0000000000000000" />
      <sparseX alpha="-95.401813674366437" i="1006" sparseCutoff="1.0000000000000000" />
      <sparseX alpha="217.24856148249847" i="1007" sparseCutoff="1.0000000000000000" />
      <sparseX alpha="-174.25400149711493" i="1008" sparseCutoff="1.0000000000000000" />
      <sparseX alpha="-64.311994399363172" i="1009" sparseCutoff="1.0000000000000000" />
      <sparseX alpha="58.879713880497214" i="1010" sparseCutoff="1.0000000000000000" />
      <sparseX alpha="53.709500700494175" i="1011" sparseCutoff="1.0000000000000000" />
      <sparseX alpha="199.90686465435766" i="1012" sparseCutoff="1.0000000000000000" />
      <sparseX alpha="260.84560246757019" i="1013" sparseCutoff="1.0000000000000000" />
      <sparseX alpha="76.832654271054025" i="1014" sparseCutoff="1.0000000000000000" />
      <sparseX alpha="112.53245498622978" i="1015" sparseCutoff="1.0000000000000000" />
      <sparseX alpha="92.384945806257278" i="1016" sparseCutoff="1.0000000000000000" />
      <sparseX alpha="-46.017215536516581" i="1017" sparseCutoff="1.0000000000000000" />
      <sparseX alpha="18.010579113083033" i="1018" sparseCutoff="1.0000000000000000" />
      <sparseX alpha="-215.25196724618183" i="1019" sparseCutoff="1.0000000000000000" />
      <sparseX alpha="-151.54006269241137" i="1020" sparseCutoff="1.0000000000000000" />
      <sparseX alpha="-428.79924961371921" i="1021" sparseCutoff="1.0000000000000000" />
      <sparseX alpha="83.154821768601437" i="1022" sparseCutoff="1.0000000000000000" />
      <sparseX alpha="-32.797715242989845" i="1023" sparseCutoff="1.0000000000000000" />
      <sparseX alpha="300.22381366098625" i="1024" sparseCutoff="1.0000000000000000" />
      <sparseX alpha="-103.37889806992176" i="1025" sparseCutoff="1.0000000000000000" />
      <sparseX alpha="68.402980222675325" i="1026" sparseCutoff="1.0000000000000000" />
      <sparseX alpha="-55.170655689955076" i="1027" sparseCutoff="1.0000000000000000" />
      <sparseX alpha="-69.550883312658414" i="1028" sparseCutoff="1.0000000000000000" />
      <sparseX alpha="-2.8038538259142793" i="1029" sparseCutoff="1.0000000000000000" />
      <sparseX alpha="-66.420623183202551" i="1030" sparseCutoff="1.0000000000000000" />
      <sparseX alpha="167.38563929911572" i="1031" sparseCutoff="1.0000000000000000" />
      <sparseX alpha="6.1589254665570028" i="1032" sparseCutoff="1.0000000000000000" />
      <sparseX alpha="50.277384320418570" i="1033" sparseCutoff="1.0000000000000000" />
      <sparseX alpha="-4.8070901022574777" i="1034" sparseCutoff="1.0000000000000000" />
      <sparseX alpha="11.093884223384032" i="1035" sparseCutoff="1.0000000000000000" />
      <sparseX alpha="30.221438308917151" i="1036" sparseCutoff="1.0000000000000000" />
      <sparseX alpha="-6.7554486906739974" i="1037" sparseCutoff="1.0000000000000000" />
      <sparseX alpha="-127.89827518113989" i="1038" sparseCutoff="1.0000000000000000" />
      <sparseX alpha="-108.32037389512270" i="1039" sparseCutoff="1.0000000000000000" />
      <sparseX alpha="-16.814798912533604" i="1040" sparseCutoff="1.0000000000000000" />
      <sparseX alpha="-406.86724528142457" i="1041" sparseCutoff="1.0000000000000000" />
      <sparseX alpha="-81.721652178514390" i="1042" sparseCutoff="1.0000000000000000" />
      <sparseX alpha="-55.214022168973614" i="1043" sparseCutoff="1.0000000000000000" />
      <sparseX alpha="6.2535190384241304" i="1044" sparseCutoff="1.0000000000000000" />
      <sparseX alpha="-38.702376557388831" i="1045" sparseCutoff="1.0000000000000000" />
      <sparseX alpha="-34.260488720754687" i="1046" sparseCutoff="1.0000000000000000" />
      <sparseX alpha="-23.488141604850437" i="1047" sparseCutoff="1.0000000000000000" />
      <sparseX alpha="-99.690816378449682" i="1048" sparseCutoff="1.0000000000000000" />
      <sparseX alpha="3.3822987996698264" i="1049" sparseCutoff="1.0000000000000000" />
      <sparseX alpha="126.15499137580107" i="1050" sparseCutoff="1.0000000000000000" />
      <sparseX alpha="86.327941722271120" i="1051" sparseCutoff="1.0000000000000000" />
      <sparseX alpha="-97.057888521762834" i="1052" sparseCutoff="1.0000000000000000" />
      <sparseX alpha="175.08161130231031" i="1053" sparseCutoff="1.0000000000000000" />
      <sparseX alpha="-27.508458854752671" i="1054" sparseCutoff="1.0000000000000000" />
      <sparseX alpha="-200.63024713913555" i="1055" sparseCutoff="1.0000000000000000" />
      <sparseX alpha="141.36363372839125" i="1056" sparseCutoff="1.0000000000000000" />
      <sparseX alpha="173.16856317919343" i="1057" sparseCutoff="1.0000000000000000" />
      <sparseX alpha="-42.358496125739244" i="1058" sparseCutoff="1.0000000000000000" />
      <sparseX alpha="41.337305439774283" i="1059" sparseCutoff="1.0000000000000000" />
      <sparseX alpha="-100.97057623437716" i="1060" sparseCutoff="1.0000000000000000" />
      <sparseX alpha="-16.809077612660079" i="1061" sparseCutoff="1.0000000000000000" />
      <sparseX alpha="-431.83637623826894" i="1062" sparseCutoff="1.0000000000000000" />
      <sparseX alpha="80.861776173678578" i="1063" sparseCutoff="1.0000000000000000" />
      <sparseX alpha="18.757268880865418" i="1064" sparseCutoff="1.0000000000000000" />
      <sparseX alpha="254.21506187676451" i="1065" sparseCutoff="1.0000000000000000" />
      <sparseX alpha="2.3661466428634363" i="1066" sparseCutoff="1.0000000000000000" />
      <sparseX alpha="-173.31961841688624" i="1067" sparseCutoff="1.0000000000000000" />
      <sparseX alpha="-68.221914926273556" i="1068" sparseCutoff="1.0000000000000000" />
      <sparseX alpha="417.47726510546721" i="1069" sparseCutoff="1.0000000000000000" />
      <sparseX alpha="38.770364574362041" i="1070" sparseCutoff="1.0000000000000000" />
      <sparseX alpha="142.01538343348054" i="1071" sparseCutoff="1.0000000000000000" />
      <sparseX alpha="-99.971696593791719" i="1072" sparseCutoff="1.0000000000000000" />
