# LAMMPS SNAP coefficients for Ni
# generated by pymacy.potential.snap.SNAPotential

1 31
Ni 0.5 1.0
-9.91671474359
0.00781991474169
0.046585005432
0.197329374995
0.0323391405206
0.317054017673
0.0861929766181
0.0744345550377
0.0249956556105
0.146882240782
0.0498114600916
0.0852648800679
0.0185269869953
0.00795087307619
0.0157902736601
0.047788117794
0.0214484359448
0.0841001653161
0.0477991214477
-0.00606616418849
0.0180053698392
0.000627976855351
0.045574281612
0.0255736787933
0.0237355373884
0.017684575357
-0.0104123071669
-0.00067224052877
0.0215960322169
-0.000416651145044
-0.00912068611489