MTP
version = 1.1.0
potential_name = MTP1m
scaling = 9.015777610818936e-01
species_count = 4
potential_tag =
radial_basis_type = RBChebyshev
	min_dist = 1.999174760608409e+00
	max_dist = 5.000000000000000e+00
	radial_basis_size = 8
	radial_funcs_count = 4
	radial_coeffs
		0-0
			{-7.699631384696158e-03, -1.060958576057760e-02, -6.848054456780083e-03, -4.534529487302774e-03, -2.435347917059654e-03, -1.171179545094711e-03, -4.694181099455341e-04, -1.129105258258003e-04}
			{2.296613544244678e-01, 2.855098491449704e-01, 1.788224869320080e-01, 1.211771753231166e-01, 5.579853466084810e-02, 2.867896480049541e-02, 9.821460914949291e-03, -9.376674695917092e-04}
			{-5.914949759404862e-02, -4.649324224834214e-02, -1.503230798122101e-02, -1.758149579168104e-02, 6.576567697843492e-03, -1.681721613670449e-03, 4.086964648030740e-03, 6.200402333946265e-03}
			{-1.115730046413060e-01, -8.169787332334306e-02, -5.708839444266527e-02, -3.757374398597225e-02, -7.634365141974947e-03, -7.117436733615153e-03, 5.710003537055342e-04, 4.781770914821366e-03}
		0-1
			{-3.942676538834399e-03, -1.591149376996713e-02, 5.602526443066577e-03, -8.049965677264416e-03, 5.615079106798393e-03, -3.742310562774920e-03, 2.408916474796736e-03, -6.146718507730168e-04}
			{3.676654726985210e-01, 2.483331633077173e-01, 1.349636902125936e-01, 5.818292744445541e-03, -5.857136595225138e-02, -1.032744462750646e-03, -5.838474456887896e-02, -7.782536600315843e-03}
			{-1.998034207395775e-01, -2.025441083448598e-01, -3.850240291535378e-02, 7.532633285429015e-02, 7.529969215438029e-02, 8.433811255949616e-02, 4.783209067875185e-02, 3.743996533270359e-02}
			{-7.063254659690425e-02, -4.534415519755803e-02, 6.765161257237889e-03, 1.812110139126791e-02, 2.801825694668588e-02, 2.593294764771916e-02, 9.840695218240568e-03, 1.361780495507148e-02}
		0-2
			{-1.241127583781813e-02, -2.048503042171021e-02, -9.394092566016697e-03, -1.027400826827521e-02, -2.326112218924908e-03, -6.198793320010962e-03, 5.238981128926492e-04, -2.201981346565871e-03}
			{1.108704110531183e-01, 2.199886642534683e-01, 6.653243806485920e-02, 6.840585270060656e-02, 2.505114203504473e-02, 8.793655151870924e-02, -1.924941045823433e-02, 4.867052267864874e-02}
			{3.636197403621951e-01, 5.110509431003925e-01, 2.658851557030263e-01, 3.402654256660512e-01, 4.192347035543729e-02, 1.036539154853293e-01, 1.038854536457324e-02, 7.819498479852190e-04}
			{1.196165401488725e-01, 5.819692572915928e-02, 7.057366316469310e-02, -2.374115970150224e-02, 1.883990876212324e-02, -1.664728431570009e-02, 1.741584937426478e-03, -8.516058620698578e-03}
		0-3
			{7.745127374575082e-03, 6.510439593146463e-03, 4.626963608600960e-03, 3.161671885352923e-03, 1.515054975865923e-03, 7.287354648808424e-04, 2.615868722660563e-04, 7.727574077082666e-05}
			{-2.873867733964679e-01, -2.620162786102967e-01, -1.770842112325564e-01, -1.159466418119225e-01, -5.486732388454047e-02, -2.466253538040017e-02, -8.160304404687639e-03, -2.129691520316984e-03}
			{1.947293023926821e-01, 2.275894704756599e-01, 1.290502550031789e-01, 7.678136140068839e-02, 3.655766487518677e-02, 1.315710897520589e-02, 3.498662528141648e-03, 1.256134954896792e-04}
			{-1.066721053616411e-03, -2.135235639840277e-02, -3.601915021029010e-02, -9.920399189338219e-03, -8.506561648493607e-03, 1.046297166497054e-03, -8.522201788868246e-04, 1.016443134721218e-03}
		1-0
			{5.870975181301189e-03, -1.575766036497807e-01, 2.822652902946740e-02, -9.273668569179316e-02, 8.141209032217154e-03, -3.260902397224949e-02, -7.316840025073300e-04, -6.505854479990809e-03}
			{2.668648278860312e-02, -5.395147264332681e-02, 5.387081401079545e-02, -1.872823149537003e-02, 2.177020315737356e-02, 2.783883620679142e-03, 3.156123675361232e-03, 3.255886914914993e-03}
			{9.618413442992909e-03, -6.863398056909405e-02, 4.361201909244884e-02, -1.679915132326687e-02, 1.079184466707410e-02, 6.198607595621813e-03, -8.752685636727636e-04, 3.372609365135458e-03}
			{-2.036542000232750e-01, -1.549514492223567e-01, -9.385559175935883e-02, -3.839161821975749e-02, 5.852599300809370e-02, -1.085535798724196e-02, 4.720664311075245e-02, 4.651374820136330e-03}
		1-1
			{-1.008595043569168e-01, -2.468641798913626e-01, -2.749448393063665e-01, -4.203401456891614e-02, -7.954656966809535e-02, -2.306857719726157e-01, 1.150386277449977e-01, -1.160976885769332e-01}
			{-1.220841797195358e-01, -9.433095309983437e-02, -1.001591406178044e-01, -9.640265341846438e-02, -1.613631125576961e-02, 5.954381912399961e-02, -5.210171211251108e-02, 6.360403916750842e-02}
			{-1.157507535270700e-01, -7.169142011163983e-02, -7.400607348255583e-02, -9.668944735903939e-02, -2.480489537574020e-02, 2.600640317485388e-02, -2.222642732405481e-02, 2.771905146809421e-02}
			{-1.401464610440857e-01, -9.745088337198637e-02, -9.053496735879736e-02, -1.018281459073271e-01, 1.593032865535540e-02, 7.069645277520184e-02, -1.040809454687604e-01, 8.377766695863177e-02}
		1-2
			{-2.157796952208182e-01, -2.662696656849195e-01, -3.165836182500920e-01, -2.217448012473129e-01, -9.896910231936917e-02, -1.914674891361446e-01, 8.014063698905543e-03, -7.663643507752267e-02}
			{-8.847400084565277e-02, -5.161131503125477e-02, -3.295035508123050e-02, -2.515000149383878e-02, -5.336475735972987e-03, 7.623195647516291e-02, -1.636790756160606e-02, 4.647834360425679e-02}
			{7.111894088877901e-03, 1.128351065092739e-01, 1.014959448597992e-01, 1.502537603711040e-02, 1.136330569742382e-01, 3.374866465052195e-03, 4.285120933003692e-02, 2.771517154385007e-04}
			{-1.932065680995206e-01, -3.599863117383750e-02, -3.979965715915219e-03, -1.578847457863224e-01, 4.000428933037231e-02, 1.776448296524097e-01, -4.821426943080292e-02, 1.419931236381280e-01}
		1-3
			{3.596393193544884e-02, 1.045836321627638e-02, 1.048228891951608e-02, 1.314895406887241e-02, 2.588926105157035e-03, 3.180545430503145e-03, -2.249824669476772e-04, 8.857650165305634e-04}
			{3.642280492581955e-03, 3.225269969637201e-02, 1.547862184531268e-02, 2.318994373500649e-02, 1.681751104199960e-02, 1.000377612946241e-02, 5.613532619674034e-03, 1.660621972441236e-03}
			{3.574986494017775e-02, 6.348927325688671e-02, 2.551885249663685e-02, 4.388553635042793e-02, 2.361205801148700e-02, 1.603781432879353e-02, 5.802608121931884e-03, 2.682072185927131e-03}
			{-1.833074712661868e-01, -1.505188341163134e-01, -1.555587791362968e-01, -8.666822958453770e-02, -6.037275488153374e-02, -2.910857039706412e-02, -8.537643386197134e-03, -4.543622488703654e-03}
		2-0
			{-1.482873487138622e-02, -1.172874441521748e-01, 1.414168297334041e-03, -6.558352925124554e-02, -1.766952417374197e-04, -2.051940552323428e-02, -1.453881557365238e-03, -3.082840385310352e-03}
			{4.187008844479415e-02, -8.253885020883704e-02, 7.257519172495172e-02, -5.524087683804980e-02, 3.608050673031916e-02, -2.657141251172421e-02, 9.388102850081813e-03, -6.459037728474496e-03}
			{4.475413173382489e-02, 1.339846121643587e-02, 8.766955582534082e-02, 1.822712388898857e-02, 3.333523021906130e-02, 1.135216581360094e-02, 5.029414077746693e-03, 2.773072948847174e-03}
			{-7.303777647492377e-03, -4.332668380470598e-02, 1.207318396414099e-02, -2.606485120134766e-02, 1.266957320754021e-02, -6.639407493705253e-02, 2.409935330921021e-02, -3.259157236384373e-02}
		2-1
			{-9.990413274041259e-02, -3.008940310189907e-02, -1.139342489307793e-02, -4.674470151361057e-02, 6.591319119986937e-02, -4.170418268492761e-02, 3.043445534240842e-02, 1.212748199721878e-03}
			{1.245008995503638e-01, 2.554436702636287e-01, 2.424019089750408e-01, 1.050076812049938e-01, 1.273634925439694e-01, 9.771849641889835e-02, -1.901225638562439e-03, 4.602058376842076e-02}
			{2.262829218601729e-02, 8.322118704651461e-02, 7.410140264751437e-02, 2.951045341482672e-02, 3.699889690157324e-02, -5.952981877450376e-02, 1.244699477362603e-02, -4.274246795476707e-02}
			{-1.514703007510712e-01, -1.350229792476174e-02, -1.778830564197782e-02, -1.475034703086803e-01, 9.637257460595791e-02, 1.859787547850266e-01, -7.155054324699556e-02, 1.766442702189214e-01}
		2-2
			{-1.990420176542504e-01, -2.562122128332580e-01, -2.512339588520479e-01, -1.501121329543609e-01, -1.022427163430120e-01, -1.296299030042468e-01, -1.651696022625510e-03, -6.411874334445680e-02}
			{8.563820248219768e-02, 8.672251706563684e-02, 1.868769550358451e-02, 1.064942357474870e-02, 3.113373628825875e-02, 7.729233272175427e-03, -2.866381265685853e-02, 4.431059090877876e-02}
			{8.721635490886358e-02, 4.887563094759757e-02, -5.482822179541370e-02, -6.958758647422905e-02, -7.673281262820196e-02, -1.048369539263777e-01, -7.077724514036594e-02, -1.081015333939886e-02}
			{-2.125450272197886e-01, -1.574256949983228e-01, -3.839139992371068e-02, 1.107285666468193e-01, 1.942269826201801e-01, 2.050411509970255e-01, 1.517110135282418e-01, 8.616553571686747e-02}
		2-3
			{2.714754939620843e-02, -7.170727827527856e-03, 9.154082011232407e-03, 8.562846481830273e-03, 1.411276627741450e-03, 3.051465934211926e-04, -9.944006553379524e-04, -2.361570026565576e-04}
			{-1.965459464354033e-02, -6.864476764157062e-03, -2.452967417535615e-02, -8.620650944659688e-03, -6.823671419580433e-03, -3.841863970193336e-03, -2.024612796560128e-03, -1.114720890769770e-03}
			{-4.137971693161629e-03, -7.459880547222771e-03, -2.838734087017386e-02, -2.090294672082068e-03, -6.447580263617997e-03, -1.897247121329706e-03, -3.529134738694997e-03, -1.846634937262065e-03}
			{-1.317324487764102e-01, -9.653013339413194e-02, -1.068702181048391e-01, -6.760383694357627e-02, -4.101849318106301e-02, -1.482831831798036e-02, 6.088847178982909e-03, 4.904497757144196e-03}
		3-0
			{6.985300410069643e-02, 8.567322165012488e-02, 5.850399130251867e-02, 3.479455129525999e-02, 1.816540250308356e-02, 7.344648303990825e-03, 2.489001628413463e-03, 2.564810126038461e-04}
			{-1.664763824412208e-02, -3.069763528335537e-02, -2.291871848808080e-02, -1.587642315201394e-02, -9.615053388295814e-03, -5.748624361823134e-03, -2.381348569828752e-03, -9.821049612552804e-04}
			{-6.623520827253591e-03, -1.315759932630720e-02, -1.082008446093218e-02, -1.114196352791000e-02, -6.759022855868198e-03, -5.391799966317272e-03, -2.187609508672133e-03, -1.267342238626840e-03}
			{8.132576935664877e-02, 9.280970076596812e-02, 4.977971480665764e-02, 4.418528997348142e-02, 1.177954737265897e-02, 6.437169804895014e-03, 1.580710119679048e-03, 3.312929051936046e-04}
		3-1
			{1.229903746154486e-01, 1.103506028287384e-01, 9.546877110390306e-02, 6.228778172542752e-02, 3.866094648608170e-02, 1.995219587902673e-02, 7.306733216394494e-03, 1.254767170672843e-03}
			{3.419872600728466e-02, 4.421340781889013e-02, 4.473268074125195e-02, 3.126586068287707e-02, 1.964894487718916e-02, 1.466711208552111e-02, 4.603644175784951e-03, 1.758932338664508e-03}
			{6.936879968397441e-02, 4.741515588224163e-02, 8.022150492083618e-02, 3.956826576283506e-02, 2.863905974125110e-02, 1.830056865264079e-02, 5.572749822665047e-03, 1.238210566804825e-03}
			{-1.387192158649324e-01, -1.774036810495255e-01, -1.215963090918420e-01, -8.060972742341706e-02, -6.578885357930706e-02, -2.954274842516418e-02, -1.107575887082422e-02, -3.695116116529287e-04}
		3-2
			{1.583282940694776e-01, 1.564347522596637e-01, 1.339282041800169e-01, 8.696704761814512e-02, 5.154486189865424e-02, 2.537143939507974e-02, 6.061651429960222e-03, 6.188371499965745e-04}
			{1.319645973592169e-03, -2.116503593089051e-02, -1.508337584284351e-02, -1.088443883155914e-02, -6.188472106348556e-03, -1.615214804307063e-03, -4.712783688566778e-03, -2.357926436682841e-03}
			{2.430729087736114e-02, -4.093821723272418e-02, 6.037633706094121e-03, -1.090532738920098e-02, -6.472816516347430e-03, 1.307271802074414e-04, -9.908237098385189e-03, -3.089269160553374e-03}
			{-1.251860820612561e-01, -1.862762152637122e-01, -1.082284650974204e-01, -6.632347627271705e-02, -5.594499910338614e-02, -2.472585420766727e-02, -5.719464380843147e-03, 1.602111130379074e-04}
		3-3
			{-3.736850811156964e-02, -5.826340500394600e-02, -3.043341312705151e-02, -3.457663284218199e-02, -1.160432660714100e-02, -1.343571780805255e-02, -2.134206802139456e-03, -2.739297210221551e-03}
			{-1.748715651608223e-02, 2.506184085396464e-02, -8.272637762151792e-03, 1.052749586601986e-02, -3.469818729775884e-03, 3.745871088561679e-03, -9.186429085372861e-04, 7.391637952877091e-04}
			{-1.747606694950197e-02, 2.844808402079324e-03, -1.632506929283960e-02, 1.341801720980408e-03, -8.492626457435901e-03, 3.570495082077597e-04, -2.062407345572896e-03, 1.258909182377788e-04}
			{4.766702641472066e-02, 1.590263973608018e-01, 4.272359267033250e-02, 7.656902785899738e-02, 2.417073116809972e-02, 2.658790002108723e-02, 5.289513782868343e-03, 5.158880522627122e-03}
alpha_moments_count = 174
alpha_index_basic_count = 81
alpha_index_basic = {{0, 0, 0, 0}, {0, 1, 0, 0}, {0, 0, 1, 0}, {0, 0, 0, 1}, {0, 2, 0, 0}, {0, 1, 1, 0}, {0, 1, 0, 1}, {0, 0, 2, 0}, {0, 0, 1, 1}, {0, 0, 0, 2}, {0, 3, 0, 0}, {0, 2, 1, 0}, {0, 2, 0, 1}, {0, 1, 2, 0}, {0, 1, 1, 1}, {0, 1, 0, 2}, {0, 0, 3, 0}, {0, 0, 2, 1}, {0, 0, 1, 2}, {0, 0, 0, 3}, {0, 4, 0, 0}, {0, 3, 1, 0}, {0, 3, 0, 1}, {0, 2, 2, 0}, {0, 2, 1, 1}, {0, 2, 0, 2}, {0, 1, 3, 0}, {0, 1, 2, 1}, {0, 1, 1, 2}, {0, 1, 0, 3}, {0, 0, 4, 0}, {0, 0, 3, 1}, {0, 0, 2, 2}, {0, 0, 1, 3}, {0, 0, 0, 4}, {0, 5, 0, 0}, {0, 4, 1, 0}, {0, 4, 0, 1}, {0, 3, 2, 0}, {0, 3, 1, 1}, {0, 3, 0, 2}, {0, 2, 3, 0}, {0, 2, 2, 1}, {0, 2, 1, 2}, {0, 2, 0, 3}, {0, 1, 4, 0}, {0, 1, 3, 1}, {0, 1, 2, 2}, {0, 1, 1, 3}, {0, 1, 0, 4}, {0, 0, 5, 0}, {0, 0, 4, 1}, {0, 0, 3, 2}, {0, 0, 2, 3}, {0, 0, 1, 4}, {0, 0, 0, 5}, {1, 0, 0, 0}, {1, 1, 0, 0}, {1, 0, 1, 0}, {1, 0, 0, 1}, {1, 2, 0, 0}, {1, 1, 1, 0}, {1, 1, 0, 1}, {1, 0, 2, 0}, {1, 0, 1, 1}, {1, 0, 0, 2}, {1, 3, 0, 0}, {1, 2, 1, 0}, {1, 2, 0, 1}, {1, 1, 2, 0}, {1, 1, 1, 1}, {1, 1, 0, 2}, {1, 0, 3, 0}, {1, 0, 2, 1}, {1, 0, 1, 2}, {1, 0, 0, 3}, {2, 0, 0, 0}, {2, 1, 0, 0}, {2, 0, 1, 0}, {2, 0, 0, 1}, {3, 0, 0, 0}}
alpha_index_times_count = 348
alpha_index_times = {{0, 0, 1, 81}, {1, 1, 1, 82}, {2, 2, 1, 82}, {3, 3, 1, 82}, {1, 4, 1, 83}, {2, 5, 1, 83}, {3, 6, 1, 83}, {1, 5, 1, 84}, {2, 7, 1, 84}, {3, 8, 1, 84}, {1, 6, 1, 85}, {2, 8, 1, 85}, {3, 9, 1, 85}, {1, 10, 1, 86}, {2, 11, 1, 86}, {3, 12, 1, 86}, {1, 11, 1, 87}, {2, 13, 1, 87}, {3, 14, 1, 87}, {1, 12, 1, 88}, {2, 14, 1, 88}, {3, 15, 1, 88}, {1, 13, 1, 89}, {2, 16, 1, 89}, {3, 17, 1, 89}, {1, 14, 1, 90}, {2, 17, 1, 90}, {3, 18, 1, 90}, {1, 15, 1, 91}, {2, 18, 1, 91}, {3, 19, 1, 91}, {4, 4, 1, 92}, {5, 5, 1, 92}, {6, 6, 1, 92}, {4, 5, 1, 93}, {5, 7, 1, 93}, {6, 8, 1, 93}, {4, 6, 1, 94}, {5, 8, 1, 94}, {6, 9, 1, 94}, {5, 5, 1, 95}, {7, 7, 1, 95}, {8, 8, 1, 95}, {5, 6, 1, 96}, {7, 8, 1, 96}, {8, 9, 1, 96}, {6, 6, 1, 97}, {8, 8, 1, 97}, {9, 9, 1, 97}, {4, 4, 1, 98}, {5, 5, 2, 98}, {6, 6, 2, 98}, {7, 7, 1, 98}, {8, 8, 2, 98}, {9, 9, 1, 98}, {4, 10, 1, 99}, {5, 11, 2, 99}, {6, 12, 2, 99}, {7, 13, 1, 99}, {8, 14, 2, 99}, {9, 15, 1, 99}, {4, 11, 1, 100}, {5, 13, 2, 100}, {6, 14, 2, 100}, {7, 16, 1, 100}, {8, 17, 2, 100}, {9, 18, 1, 100}, {4, 12, 1, 101}, {5, 14, 2, 101}, {6, 15, 2, 101}, {7, 17, 1, 101}, {8, 18, 2, 101}, {9, 19, 1, 101}, {4, 20, 1, 102}, {5, 21, 2, 102}, {6, 22, 2, 102}, {7, 23, 1, 102}, {8, 24, 2, 102}, {9, 25, 1, 102}, {4, 21, 1, 103}, {5, 23, 2, 103}, {6, 24, 2, 103}, {7, 26, 1, 103}, {8, 27, 2, 103}, {9, 28, 1, 103}, {4, 22, 1, 104}, {5, 24, 2, 104}, {6, 25, 2, 104}, {7, 27, 1, 104}, {8, 28, 2, 104}, {9, 29, 1, 104}, {4, 23, 1, 105}, {5, 26, 2, 105}, {6, 27, 2, 105}, {7, 30, 1, 105}, {8, 31, 2, 105}, {9, 32, 1, 105}, {4, 24, 1, 106}, {5, 27, 2, 106}, {6, 28, 2, 106}, {7, 31, 1, 106}, {8, 32, 2, 106}, {9, 33, 1, 106}, {4, 25, 1, 107}, {5, 28, 2, 107}, {6, 29, 2, 107}, {7, 32, 1, 107}, {8, 33, 2, 107}, {9, 34, 1, 107}, {10, 10, 1, 108}, {11, 11, 2, 108}, {12, 12, 2, 108}, {13, 13, 1, 108}, {14, 14, 2, 108}, {15, 15, 1, 108}, {10, 11, 1, 109}, {11, 13, 2, 109}, {12, 14, 2, 109}, {13, 16, 1, 109}, {14, 17, 2, 109}, {15, 18, 1, 109}, {10, 12, 1, 110}, {11, 14, 2, 110}, {12, 15, 2, 110}, {13, 17, 1, 110}, {14, 18, 2, 110}, {15, 19, 1, 110}, {11, 11, 1, 111}, {13, 13, 2, 111}, {14, 14, 2, 111}, {16, 16, 1, 111}, {17, 17, 2, 111}, {18, 18, 1, 111}, {11, 12, 1, 112}, {13, 14, 2, 112}, {14, 15, 2, 112}, {16, 17, 1, 112}, {17, 18, 2, 112}, {18, 19, 1, 112}, {12, 12, 1, 113}, {14, 14, 2, 113}, {15, 15, 2, 113}, {17, 17, 1, 113}, {18, 18, 2, 113}, {19, 19, 1, 113}, {10, 10, 1, 114}, {11, 11, 3, 114}, {12, 12, 3, 114}, {13, 13, 3, 114}, {14, 14, 6, 114}, {15, 15, 3, 114}, {16, 16, 1, 114}, {17, 17, 3, 114}, {18, 18, 3, 114}, {19, 19, 1, 114}, {10, 20, 1, 115}, {11, 21, 3, 115}, {12, 22, 3, 115}, {13, 23, 3, 115}, {14, 24, 6, 115}, {15, 25, 3, 115}, {16, 26, 1, 115}, {17, 27, 3, 115}, {18, 28, 3, 115}, {19, 29, 1, 115}, {10, 21, 1, 116}, {11, 23, 3, 116}, {12, 24, 3, 116}, {13, 26, 3, 116}, {14, 27, 6, 116}, {15, 28, 3, 116}, {16, 30, 1, 116}, {17, 31, 3, 116}, {18, 32, 3, 116}, {19, 33, 1, 116}, {10, 22, 1, 117}, {11, 24, 3, 117}, {12, 25, 3, 117}, {13, 27, 3, 117}, {14, 28, 6, 117}, {15, 29, 3, 117}, {16, 31, 1, 117}, {17, 32, 3, 117}, {18, 33, 3, 117}, {19, 34, 1, 117}, {20, 20, 1, 118}, {21, 21, 4, 118}, {22, 22, 4, 118}, {23, 23, 6, 118}, {24, 24, 12, 118}, {25, 25, 6, 118}, {26, 26, 4, 118}, {27, 27, 12, 118}, {28, 28, 12, 118}, {29, 29, 4, 118}, {30, 30, 1, 118}, {31, 31, 4, 118}, {32, 32, 6, 118}, {33, 33, 4, 118}, {34, 34, 1, 118}, {35, 35, 1, 119}, {36, 36, 5, 119}, {37, 37, 5, 119}, {38, 38, 10, 119}, {39, 39, 20, 119}, {40, 40, 10, 119}, {41, 41, 10, 119}, {42, 42, 30, 119}, {43, 43, 30, 119}, {44, 44, 10, 119}, {45, 45, 5, 119}, {46, 46, 20, 119}, {47, 47, 30, 119}, {48, 48, 20, 119}, {49, 49, 5, 119}, {50, 50, 1, 119}, {51, 51, 5, 119}, {52, 52, 10, 119}, {53, 53, 10, 119}, {54, 54, 5, 119}, {55, 55, 1, 119}, {0, 56, 1, 120}, {1, 57, 1, 121}, {2, 58, 1, 121}, {3, 59, 1, 121}, {1, 60, 1, 122}, {2, 61, 1, 122}, {3, 62, 1, 122}, {1, 61, 1, 123}, {2, 63, 1, 123}, {3, 64, 1, 123}, {1, 62, 1, 124}, {2, 64, 1, 124}, {3, 65, 1, 124}, {4, 57, 1, 125}, {5, 58, 1, 125}, {6, 59, 1, 125}, {5, 57, 1, 126}, {7, 58, 1, 126}, {8, 59, 1, 126}, {6, 57, 1, 127}, {8, 58, 1, 127}, {9, 59, 1, 127}, {4, 60, 1, 128}, {5, 61, 2, 128}, {6, 62, 2, 128}, {7, 63, 1, 128}, {8, 64, 2, 128}, {9, 65, 1, 128}, {10, 66, 1, 129}, {11, 67, 3, 129}, {12, 68, 3, 129}, {13, 69, 3, 129}, {14, 70, 6, 129}, {15, 71, 3, 129}, {16, 72, 1, 129}, {17, 73, 3, 129}, {18, 74, 3, 129}, {19, 75, 1, 129}, {0, 76, 1, 130}, {1, 77, 1, 131}, {2, 78, 1, 131}, {3, 79, 1, 131}, {56, 56, 1, 132}, {57, 57, 1, 133}, {58, 58, 1, 133}, {59, 59, 1, 133}, {0, 81, 1, 134}, {0, 82, 1, 135}, {0, 98, 1, 136}, {0, 114, 1, 137}, {0, 118, 1, 138}, {1, 83, 1, 139}, {2, 84, 1, 139}, {3, 85, 1, 139}, {1, 86, 1, 140}, {2, 87, 1, 140}, {3, 88, 1, 140}, {1, 87, 1, 141}, {2, 89, 1, 141}, {3, 90, 1, 141}, {1, 88, 1, 142}, {2, 90, 1, 142}, {3, 91, 1, 142}, {1, 92, 1, 143}, {2, 93, 1, 143}, {3, 94, 1, 143}, {1, 93, 1, 144}, {2, 95, 1, 144}, {3, 96, 1, 144}, {1, 94, 1, 145}, {2, 96, 1, 145}, {3, 97, 1, 145}, {1, 99, 1, 146}, {2, 100, 1, 146}, {3, 101, 1, 146}, {1, 115, 1, 147}, {2, 116, 1, 147}, {3, 117, 1, 147}, {4, 102, 1, 148}, {5, 103, 2, 148}, {6, 104, 2, 148}, {7, 105, 1, 148}, {8, 106, 2, 148}, {9, 107, 1, 148}, {4, 92, 1, 149}, {5, 93, 2, 149}, {6, 94, 2, 149}, {7, 95, 1, 149}, {8, 96, 2, 149}, {9, 97, 1, 149}, {4, 108, 1, 150}, {5, 109, 2, 150}, {6, 110, 2, 150}, {7, 111, 1, 150}, {8, 112, 2, 150}, {9, 113, 1, 150}, {0, 120, 1, 151}, {0, 121, 1, 152}, {0, 128, 1, 153}, {1, 122, 1, 154}, {2, 123, 1, 154}, {3, 124, 1, 154}, {56, 82, 1, 155}, {1, 125, 1, 156}, {2, 126, 1, 156}, {3, 127, 1, 156}, {56, 98, 1, 157}, {0, 130, 1, 158}, {0, 132, 1, 159}, {82, 82, 1, 160}, {82, 98, 1, 161}, {0, 134, 1, 162}, {0, 135, 1, 163}, {0, 136, 1, 164}, {0, 137, 1, 165}, {0, 139, 1, 166}, {0, 146, 1, 167}, {0, 149, 1, 168}, {1, 140, 1, 169}, {2, 141, 1, 169}, {3, 142, 1, 169}, {1, 143, 1, 170}, {2, 144, 1, 170}, {3, 145, 1, 170}, {0, 151, 1, 171}, {0, 152, 1, 172}, {0, 155, 1, 173}}
alpha_scalar_moments = 52
alpha_moment_mapping = {0, 56, 76, 80, 81, 82, 98, 114, 118, 119, 120, 121, 128, 129, 130, 131, 132, 133, 134, 135, 136, 137, 138, 139, 146, 147, 148, 149, 150, 151, 152, 153, 154, 155, 156, 157, 158, 159, 162, 163, 164, 165, 166, 167, 168, 169, 160, 170, 161, 171, 172, 173}
species_coeffs = {-1.459673751341944e+00, -1.196784936542452e+01, -4.348593669769173e+00, -5.435742087211463e-01}
moment_coeffs = {-1.225957492328600e+01, 6.240410347141118e-01, 2.607607784209400e+00, -2.787240566422069e+00, 9.023817330640997e+00, -1.372313317070968e+00, -5.259871698116361e+00, -5.105697179375831e+00, -5.249437032906273e-01, 3.475864246382775e-01, -4.689287536836946e+00, -1.962482790325999e+01, -1.856743499775032e+00, -8.466982039776269e-01, -1.667635633610816e+01, 8.155598798072932e+00, 4.389527425789420e-01, -5.121565959637057e-01, -3.928927914065760e+00, 4.556454033209461e+00, 1.922794007718189e+01, 1.804806661182404e+01, 5.840734160425562e+00, -4.136310956717166e+00, 3.072489805990394e+00, -7.095083873081960e+00, -1.914908297157041e-02, 9.310040460917597e-01, 3.408669498456980e-01, 2.131085285686808e+01, 3.110177374509539e+01, -5.307751111539917e+00, -5.255848310615000e-01, -1.722512810769404e+00, -4.016423607928470e+00, -3.873982456663985e-01, 6.172378825248278e+00, -5.535231371738346e-01, 1.141072668146719e+00, -2.824880522571519e+00, -7.410483360614696e+00, -6.913371317386074e+00, -1.089475992982281e+00, -1.246269848680338e+01, -5.470743846933619e+00, -1.752485609217529e+00, 1.929669952159591e+00, 1.670210080520023e-01, -3.128166487097245e+00, -7.755205867197922e+00, -1.931383990125213e+01, -1.538510326506265e+00}
