MTP
version = 1.1.0
potential_name = MTP1m
scaling = 4.544885447791563e-02
species_count = 1
potential_tag =
radial_basis_type = RBChebyshev
	min_dist = 2.072950000000000e+00
	max_dist = 5.100000000000000e+00
	radial_basis_size = 8
	radial_funcs_count = 6
	radial_coeffs
		0-0
			{6.490263130525897e-01, 5.831135703808619e-01, 4.486810022603885e-01, 1.859645147199321e-01, 4.999092856386823e-02, 1.716892039256725e-02, 7.173393932321953e-03, 8.020798006556878e-04}
			{-4.131177474993646e-01, 8.059192808431568e-01, -4.145497147459978e-01, -8.633994097949231e-02, 1.010451474341825e-02, -1.887401110662168e-02, 7.937885168530482e-03, 6.691244790937398e-04}
			{-6.382116751737406e-01, 7.194532002580697e-02, 7.270100027312514e-01, 2.266693311939972e-01, 5.524817817794055e-02, 6.651678729158288e-02, 4.883810556555722e-04, 1.049358487141218e-02}
			{-6.648749016159195e-03, -6.941803706845714e-02, -3.069793586247133e-01, 8.850925230057215e-01, 3.125151196916966e-01, 8.855350724631038e-02, 1.091882384228297e-01, 9.073779388440499e-03}
			{1.549417686042308e-02, -1.907672348899201e-02, 3.254903004768178e-02, -3.376694820690135e-01, 9.131325279389066e-01, 1.869862024503481e-01, 4.258924794628323e-02, 1.171631012691755e-01}
			{2.019775593101620e-02, 1.019030911878522e-02, -5.418445860655539e-02, 1.327032371493323e-02, -1.698591743531958e-01, 8.425983231402794e-01, -4.660826910092612e-01, 2.007959219711285e-01}
alpha_moments_count = 4991
alpha_index_basic_count = 581
alpha_index_basic = {{0, 0, 0, 0}, {0, 1, 0, 0}, {0, 0, 1, 0}, {0, 0, 0, 1}, {0, 2, 0, 0}, {0, 1, 1, 0}, {0, 1, 0, 1}, {0, 0, 2, 0}, {0, 0, 1, 1}, {0, 0, 0, 2}, {0, 3, 0, 0}, {0, 2, 1, 0}, {0, 2, 0, 1}, {0, 1, 2, 0}, {0, 1, 1, 1}, {0, 1, 0, 2}, {0, 0, 3, 0}, {0, 0, 2, 1}, {0, 0, 1, 2}, {0, 0, 0, 3}, {0, 4, 0, 0}, {0, 3, 1, 0}, {0, 3, 0, 1}, {0, 2, 2, 0}, {0, 2, 1, 1}, {0, 2, 0, 2}, {0, 1, 3, 0}, {0, 1, 2, 1}, {0, 1, 1, 2}, {0, 1, 0, 3}, {0, 0, 4, 0}, {0, 0, 3, 1}, {0, 0, 2, 2}, {0, 0, 1, 3}, {0, 0, 0, 4}, {0, 5, 0, 0}, {0, 4, 1, 0}, {0, 4, 0, 1}, {0, 3, 2, 0}, {0, 3, 1, 1}, {0, 3, 0, 2}, {0, 2, 3, 0}, {0, 2, 2, 1}, {0, 2, 1, 2}, {0, 2, 0, 3}, {0, 1, 4, 0}, {0, 1, 3, 1}, {0, 1, 2, 2}, {0, 1, 1, 3}, {0, 1, 0, 4}, {0, 0, 5, 0}, {0, 0, 4, 1}, {0, 0, 3, 2}, {0, 0, 2, 3}, {0, 0, 1, 4}, {0, 0, 0, 5}, {0, 6, 0, 0}, {0, 5, 1, 0}, {0, 5, 0, 1}, {0, 4, 2, 0}, {0, 4, 1, 1}, {0, 4, 0, 2}, {0, 3, 3, 0}, {0, 3, 2, 1}, {0, 3, 1, 2}, {0, 3, 0, 3}, {0, 2, 4, 0}, {0, 2, 3, 1}, {0, 2, 2, 2}, {0, 2, 1, 3}, {0, 2, 0, 4}, {0, 1, 5, 0}, {0, 1, 4, 1}, {0, 1, 3, 2}, {0, 1, 2, 3}, {0, 1, 1, 4}, {0, 1, 0, 5}, {0, 0, 6, 0}, {0, 0, 5, 1}, {0, 0, 4, 2}, {0, 0, 3, 3}, {0, 0, 2, 4}, {0, 0, 1, 5}, {0, 0, 0, 6}, {0, 7, 0, 0}, {0, 6, 1, 0}, {0, 6, 0, 1}, {0, 5, 2, 0}, {0, 5, 1, 1}, {0, 5, 0, 2}, {0, 4, 3, 0}, {0, 4, 2, 1}, {0, 4, 1, 2}, {0, 4, 0, 3}, {0, 3, 4, 0}, {0, 3, 3, 1}, {0, 3, 2, 2}, {0, 3, 1, 3}, {0, 3, 0, 4}, {0, 2, 5, 0}, {0, 2, 4, 1}, {0, 2, 3, 2}, {0, 2, 2, 3}, {0, 2, 1, 4}, {0, 2, 0, 5}, {0, 1, 6, 0}, {0, 1, 5, 1}, {0, 1, 4, 2}, {0, 1, 3, 3}, {0, 1, 2, 4}, {0, 1, 1, 5}, {0, 1, 0, 6}, {0, 0, 7, 0}, {0, 0, 6, 1}, {0, 0, 5, 2}, {0, 0, 4, 3}, {0, 0, 3, 4}, {0, 0, 2, 5}, {0, 0, 1, 6}, {0, 0, 0, 7}, {0, 8, 0, 0}, {0, 7, 1, 0}, {0, 7, 0, 1}, {0, 6, 2, 0}, {0, 6, 1, 1}, {0, 6, 0, 2}, {0, 5, 3, 0}, {0, 5, 2, 1}, {0, 5, 1, 2}, {0, 5, 0, 3}, {0, 4, 4, 0}, {0, 4, 3, 1}, {0, 4, 2, 2}, {0, 4, 1, 3}, {0, 4, 0, 4}, {0, 3, 5, 0}, {0, 3, 4, 1}, {0, 3, 3, 2}, {0, 3, 2, 3}, {0, 3, 1, 4}, {0, 3, 0, 5}, {0, 2, 6, 0}, {0, 2, 5, 1}, {0, 2, 4, 2}, {0, 2, 3, 3}, {0, 2, 2, 4}, {0, 2, 1, 5}, {0, 2, 0, 6}, {0, 1, 7, 0}, {0, 1, 6, 1}, {0, 1, 5, 2}, {0, 1, 4, 3}, {0, 1, 3, 4}, {0, 1, 2, 5}, {0, 1, 1, 6}, {0, 1, 0, 7}, {0, 0, 8, 0}, {0, 0, 7, 1}, {0, 0, 6, 2}, {0, 0, 5, 3}, {0, 0, 4, 4}, {0, 0, 3, 5}, {0, 0, 2, 6}, {0, 0, 1, 7}, {0, 0, 0, 8}, {0, 9, 0, 0}, {0, 8, 1, 0}, {0, 8, 0, 1}, {0, 7, 2, 0}, {0, 7, 1, 1}, {0, 7, 0, 2}, {0, 6, 3, 0}, {0, 6, 2, 1}, {0, 6, 1, 2}, {0, 6, 0, 3}, {0, 5, 4, 0}, {0, 5, 3, 1}, {0, 5, 2, 2}, {0, 5, 1, 3}, {0, 5, 0, 4}, {0, 4, 5, 0}, {0, 4, 4, 1}, {0, 4, 3, 2}, {0, 4, 2, 3}, {0, 4, 1, 4}, {0, 4, 0, 5}, {0, 3, 6, 0}, {0, 3, 5, 1}, {0, 3, 4, 2}, {0, 3, 3, 3}, {0, 3, 2, 4}, {0, 3, 1, 5}, {0, 3, 0, 6}, {0, 2, 7, 0}, {0, 2, 6, 1}, {0, 2, 5, 2}, {0, 2, 4, 3}, {0, 2, 3, 4}, {0, 2, 2, 5}, {0, 2, 1, 6}, {0, 2, 0, 7}, {0, 1, 8, 0}, {0, 1, 7, 1}, {0, 1, 6, 2}, {0, 1, 5, 3}, {0, 1, 4, 4}, {0, 1, 3, 5}, {0, 1, 2, 6}, {0, 1, 1, 7}, {0, 1, 0, 8}, {0, 0, 9, 0}, {0, 0, 8, 1}, {0, 0, 7, 2}, {0, 0, 6, 3}, {0, 0, 5, 4}, {0, 0, 4, 5}, {0, 0, 3, 6}, {0, 0, 2, 7}, {0, 0, 1, 8}, {0, 0, 0, 9}, {0, 10, 0, 0}, {0, 9, 1, 0}, {0, 9, 0, 1}, {0, 8, 2, 0}, {0, 8, 1, 1}, {0, 8, 0, 2}, {0, 7, 3, 0}, {0, 7, 2, 1}, {0, 7, 1, 2}, {0, 7, 0, 3}, {0, 6, 4, 0}, {0, 6, 3, 1}, {0, 6, 2, 2}, {0, 6, 1, 3}, {0, 6, 0, 4}, {0, 5, 5, 0}, {0, 5, 4, 1}, {0, 5, 3, 2}, {0, 5, 2, 3}, {0, 5, 1, 4}, {0, 5, 0, 5}, {0, 4, 6, 0}, {0, 4, 5, 1}, {0, 4, 4, 2}, {0, 4, 3, 3}, {0, 4, 2, 4}, {0, 4, 1, 5}, {0, 4, 0, 6}, {0, 3, 7, 0}, {0, 3, 6, 1}, {0, 3, 5, 2}, {0, 3, 4, 3}, {0, 3, 3, 4}, {0, 3, 2, 5}, {0, 3, 1, 6}, {0, 3, 0, 7}, {0, 2, 8, 0}, {0, 2, 7, 1}, {0, 2, 6, 2}, {0, 2, 5, 3}, {0, 2, 4, 4}, {0, 2, 3, 5}, {0, 2, 2, 6}, {0, 2, 1, 7}, {0, 2, 0, 8}, {0, 1, 9, 0}, {0, 1, 8, 1}, {0, 1, 7, 2}, {0, 1, 6, 3}, {0, 1, 5, 4}, {0, 1, 4, 5}, {0, 1, 3, 6}, {0, 1, 2, 7}, {0, 1, 1, 8}, {0, 1, 0, 9}, {0, 0, 10, 0}, {0, 0, 9, 1}, {0, 0, 8, 2}, {0, 0, 7, 3}, {0, 0, 6, 4}, {0, 0, 5, 5}, {0, 0, 4, 6}, {0, 0, 3, 7}, {0, 0, 2, 8}, {0, 0, 1, 9}, {0, 0, 0, 10}, {1, 0, 0, 0}, {1, 1, 0, 0}, {1, 0, 1, 0}, {1, 0, 0, 1}, {1, 2, 0, 0}, {1, 1, 1, 0}, {1, 1, 0, 1}, {1, 0, 2, 0}, {1, 0, 1, 1}, {1, 0, 0, 2}, {1, 3, 0, 0}, {1, 2, 1, 0}, {1, 2, 0, 1}, {1, 1, 2, 0}, {1, 1, 1, 1}, {1, 1, 0, 2}, {1, 0, 3, 0}, {1, 0, 2, 1}, {1, 0, 1, 2}, {1, 0, 0, 3}, {1, 4, 0, 0}, {1, 3, 1, 0}, {1, 3, 0, 1}, {1, 2, 2, 0}, {1, 2, 1, 1}, {1, 2, 0, 2}, {1, 1, 3, 0}, {1, 1, 2, 1}, {1, 1, 1, 2}, {1, 1, 0, 3}, {1, 0, 4, 0}, {1, 0, 3, 1}, {1, 0, 2, 2}, {1, 0, 1, 3}, {1, 0, 0, 4}, {1, 5, 0, 0}, {1, 4, 1, 0}, {1, 4, 0, 1}, {1, 3, 2, 0}, {1, 3, 1, 1}, {1, 3, 0, 2}, {1, 2, 3, 0}, {1, 2, 2, 1}, {1, 2, 1, 2}, {1, 2, 0, 3}, {1, 1, 4, 0}, {1, 1, 3, 1}, {1, 1, 2, 2}, {1, 1, 1, 3}, {1, 1, 0, 4}, {1, 0, 5, 0}, {1, 0, 4, 1}, {1, 0, 3, 2}, {1, 0, 2, 3}, {1, 0, 1, 4}, {1, 0, 0, 5}, {1, 6, 0, 0}, {1, 5, 1, 0}, {1, 5, 0, 1}, {1, 4, 2, 0}, {1, 4, 1, 1}, {1, 4, 0, 2}, {1, 3, 3, 0}, {1, 3, 2, 1}, {1, 3, 1, 2}, {1, 3, 0, 3}, {1, 2, 4, 0}, {1, 2, 3, 1}, {1, 2, 2, 2}, {1, 2, 1, 3}, {1, 2, 0, 4}, {1, 1, 5, 0}, {1, 1, 4, 1}, {1, 1, 3, 2}, {1, 1, 2, 3}, {1, 1, 1, 4}, {1, 1, 0, 5}, {1, 0, 6, 0}, {1, 0, 5, 1}, {1, 0, 4, 2}, {1, 0, 3, 3}, {1, 0, 2, 4}, {1, 0, 1, 5}, {1, 0, 0, 6}, {1, 7, 0, 0}, {1, 6, 1, 0}, {1, 6, 0, 1}, {1, 5, 2, 0}, {1, 5, 1, 1}, {1, 5, 0, 2}, {1, 4, 3, 0}, {1, 4, 2, 1}, {1, 4, 1, 2}, {1, 4, 0, 3}, {1, 3, 4, 0}, {1, 3, 3, 1}, {1, 3, 2, 2}, {1, 3, 1, 3}, {1, 3, 0, 4}, {1, 2, 5, 0}, {1, 2, 4, 1}, {1, 2, 3, 2}, {1, 2, 2, 3}, {1, 2, 1, 4}, {1, 2, 0, 5}, {1, 1, 6, 0}, {1, 1, 5, 1}, {1, 1, 4, 2}, {1, 1, 3, 3}, {1, 1, 2, 4}, {1, 1, 1, 5}, {1, 1, 0, 6}, {1, 0, 7, 0}, {1, 0, 6, 1}, {1, 0, 5, 2}, {1, 0, 4, 3}, {1, 0, 3, 4}, {1, 0, 2, 5}, {1, 0, 1, 6}, {1, 0, 0, 7}, {1, 8, 0, 0}, {1, 7, 1, 0}, {1, 7, 0, 1}, {1, 6, 2, 0}, {1, 6, 1, 1}, {1, 6, 0, 2}, {1, 5, 3, 0}, {1, 5, 2, 1}, {1, 5, 1, 2}, {1, 5, 0, 3}, {1, 4, 4, 0}, {1, 4, 3, 1}, {1, 4, 2, 2}, {1, 4, 1, 3}, {1, 4, 0, 4}, {1, 3, 5, 0}, {1, 3, 4, 1}, {1, 3, 3, 2}, {1, 3, 2, 3}, {1, 3, 1, 4}, {1, 3, 0, 5}, {1, 2, 6, 0}, {1, 2, 5, 1}, {1, 2, 4, 2}, {1, 2, 3, 3}, {1, 2, 2, 4}, {1, 2, 1, 5}, {1, 2, 0, 6}, {1, 1, 7, 0}, {1, 1, 6, 1}, {1, 1, 5, 2}, {1, 1, 4, 3}, {1, 1, 3, 4}, {1, 1, 2, 5}, {1, 1, 1, 6}, {1, 1, 0, 7}, {1, 0, 8, 0}, {1, 0, 7, 1}, {1, 0, 6, 2}, {1, 0, 5, 3}, {1, 0, 4, 4}, {1, 0, 3, 5}, {1, 0, 2, 6}, {1, 0, 1, 7}, {1, 0, 0, 8}, {2, 0, 0, 0}, {2, 1, 0, 0}, {2, 0, 1, 0}, {2, 0, 0, 1}, {2, 2, 0, 0}, {2, 1, 1, 0}, {2, 1, 0, 1}, {2, 0, 2, 0}, {2, 0, 1, 1}, {2, 0, 0, 2}, {2, 3, 0, 0}, {2, 2, 1, 0}, {2, 2, 0, 1}, {2, 1, 2, 0}, {2, 1, 1, 1}, {2, 1, 0, 2}, {2, 0, 3, 0}, {2, 0, 2, 1}, {2, 0, 1, 2}, {2, 0, 0, 3}, {2, 4, 0, 0}, {2, 3, 1, 0}, {2, 3, 0, 1}, {2, 2, 2, 0}, {2, 2, 1, 1}, {2, 2, 0, 2}, {2, 1, 3, 0}, {2, 1, 2, 1}, {2, 1, 1, 2}, {2, 1, 0, 3}, {2, 0, 4, 0}, {2, 0, 3, 1}, {2, 0, 2, 2}, {2, 0, 1, 3}, {2, 0, 0, 4}, {2, 5, 0, 0}, {2, 4, 1, 0}, {2, 4, 0, 1}, {2, 3, 2, 0}, {2, 3, 1, 1}, {2, 3, 0, 2}, {2, 2, 3, 0}, {2, 2, 2, 1}, {2, 2, 1, 2}, {2, 2, 0, 3}, {2, 1, 4, 0}, {2, 1, 3, 1}, {2, 1, 2, 2}, {2, 1, 1, 3}, {2, 1, 0, 4}, {2, 0, 5, 0}, {2, 0, 4, 1}, {2, 0, 3, 2}, {2, 0, 2, 3}, {2, 0, 1, 4}, {2, 0, 0, 5}, {2, 6, 0, 0}, {2, 5, 1, 0}, {2, 5, 0, 1}, {2, 4, 2, 0}, {2, 4, 1, 1}, {2, 4, 0, 2}, {2, 3, 3, 0}, {2, 3, 2, 1}, {2, 3, 1, 2}, {2, 3, 0, 3}, {2, 2, 4, 0}, {2, 2, 3, 1}, {2, 2, 2, 2}, {2, 2, 1, 3}, {2, 2, 0, 4}, {2, 1, 5, 0}, {2, 1, 4, 1}, {2, 1, 3, 2}, {2, 1, 2, 3}, {2, 1, 1, 4}, {2, 1, 0, 5}, {2, 0, 6, 0}, {2, 0, 5, 1}, {2, 0, 4, 2}, {2, 0, 3, 3}, {2, 0, 2, 4}, {2, 0, 1, 5}, {2, 0, 0, 6}, {3, 0, 0, 0}, {3, 1, 0, 0}, {3, 0, 1, 0}, {3, 0, 0, 1}, {3, 2, 0, 0}, {3, 1, 1, 0}, {3, 1, 0, 1}, {3, 0, 2, 0}, {3, 0, 1, 1}, {3, 0, 0, 2}, {3, 3, 0, 0}, {3, 2, 1, 0}, {3, 2, 0, 1}, {3, 1, 2, 0}, {3, 1, 1, 1}, {3, 1, 0, 2}, {3, 0, 3, 0}, {3, 0, 2, 1}, {3, 0, 1, 2}, {3, 0, 0, 3}, {3, 4, 0, 0}, {3, 3, 1, 0}, {3, 3, 0, 1}, {3, 2, 2, 0}, {3, 2, 1, 1}, {3, 2, 0, 2}, {3, 1, 3, 0}, {3, 1, 2, 1}, {3, 1, 1, 2}, {3, 1, 0, 3}, {3, 0, 4, 0}, {3, 0, 3, 1}, {3, 0, 2, 2}, {3, 0, 1, 3}, {3, 0, 0, 4}, {4, 0, 0, 0}, {4, 1, 0, 0}, {4, 0, 1, 0}, {4, 0, 0, 1}, {4, 2, 0, 0}, {4, 1, 1, 0}, {4, 1, 0, 1}, {4, 0, 2, 0}, {4, 0, 1, 1}, {4, 0, 0, 2}, {5, 0, 0, 0}}
alpha_index_times_count = 36170
alpha_index_times = {{0, 0, 1, 581}, {1, 1, 1, 582}, {2, 2, 1, 582}, {3, 3, 1, 582}, {1, 4, 1, 583}, {2, 5, 1, 583}, {3, 6, 1, 583}, {1, 5, 1, 584}, {2, 7, 1, 584}, {3, 8, 1, 584}, {1, 6, 1, 585}, {2, 8, 1, 585}, {3, 9, 1, 585}, {1, 10, 1, 586}, {2, 11, 1, 586}, {3, 12, 1, 586}, {1, 11, 1, 587}, {2, 13, 1, 587}, {3, 14, 1, 587}, {1, 12, 1, 588}, {2, 14, 1, 588}, {3, 15, 1, 588}, {1, 13, 1, 589}, {2, 16, 1, 589}, {3, 17, 1, 589}, {1, 14, 1, 590}, {2, 17, 1, 590}, {3, 18, 1, 590}, {1, 15, 1, 591}, {2, 18, 1, 591}, {3, 19, 1, 591}, {4, 4, 1, 592}, {5, 5, 1, 592}, {6, 6, 1, 592}, {4, 5, 1, 593}, {5, 7, 1, 593}, {6, 8, 1, 593}, {4, 6, 1, 594}, {5, 8, 1, 594}, {6, 9, 1, 594}, {5, 5, 1, 595}, {7, 7, 1, 595}, {8, 8, 1, 595}, {5, 6, 1, 596}, {7, 8, 1, 596}, {8, 9, 1, 596}, {6, 6, 1, 597}, {8, 8, 1, 597}, {9, 9, 1, 597}, {4, 10, 1, 598}, {5, 11, 1, 598}, {6, 12, 1, 598}, {4, 11, 1, 599}, {5, 13, 1, 599}, {6, 14, 1, 599}, {4, 12, 1, 600}, {5, 14, 1, 600}, {6, 15, 1, 600}, {4, 13, 1, 601}, {5, 16, 1, 601}, {6, 17, 1, 601}, {4, 14, 1, 602}, {5, 17, 1, 602}, {6, 18, 1, 602}, {4, 15, 1, 603}, {5, 18, 1, 603}, {6, 19, 1, 603}, {5, 10, 1, 604}, {7, 11, 1, 604}, {8, 12, 1, 604}, {5, 11, 1, 605}, {7, 13, 1, 605}, {8, 14, 1, 605}, {5, 12, 1, 606}, {7, 14, 1, 606}, {8, 15, 1, 606}, {5, 13, 1, 607}, {7, 16, 1, 607}, {8, 17, 1, 607}, {5, 14, 1, 608}, {7, 17, 1, 608}, {8, 18, 1, 608}, {5, 15, 1, 609}, {7, 18, 1, 609}, {8, 19, 1, 609}, {6, 10, 1, 610}, {8, 11, 1, 610}, {9, 12, 1, 610}, {6, 11, 1, 611}, {8, 13, 1, 611}, {9, 14, 1, 611}, {6, 12, 1, 612}, {8, 14, 1, 612}, {9, 15, 1, 612}, {6, 13, 1, 613}, {8, 16, 1, 613}, {9, 17, 1, 613}, {6, 14, 1, 614}, {8, 17, 1, 614}, {9, 18, 1, 614}, {6, 15, 1, 615}, {8, 18, 1, 615}, {9, 19, 1, 615}, {4, 20, 1, 616}, {5, 21, 1, 616}, {6, 22, 1, 616}, {4, 21, 1, 617}, {5, 23, 1, 617}, {6, 24, 1, 617}, {4, 22, 1, 618}, {5, 24, 1, 618}, {6, 25, 1, 618}, {4, 23, 1, 619}, {5, 26, 1, 619}, {6, 27, 1, 619}, {4, 24, 1, 620}, {5, 27, 1, 620}, {6, 28, 1, 620}, {4, 25, 1, 621}, {5, 28, 1, 621}, {6, 29, 1, 621}, {4, 26, 1, 622}, {5, 30, 1, 622}, {6, 31, 1, 622}, {4, 27, 1, 623}, {5, 31, 1, 623}, {6, 32, 1, 623}, {4, 28, 1, 624}, {5, 32, 1, 624}, {6, 33, 1, 624}, {4, 29, 1, 625}, {5, 33, 1, 625}, {6, 34, 1, 625}, {5, 20, 1, 626}, {7, 21, 1, 626}, {8, 22, 1, 626}, {5, 21, 1, 627}, {7, 23, 1, 627}, {8, 24, 1, 627}, {5, 22, 1, 628}, {7, 24, 1, 628}, {8, 25, 1, 628}, {5, 23, 1, 629}, {7, 26, 1, 629}, {8, 27, 1, 629}, {5, 24, 1, 630}, {7, 27, 1, 630}, {8, 28, 1, 630}, {5, 25, 1, 631}, {7, 28, 1, 631}, {8, 29, 1, 631}, {5, 26, 1, 632}, {7, 30, 1, 632}, {8, 31, 1, 632}, {5, 27, 1, 633}, {7, 31, 1, 633}, {8, 32, 1, 633}, {5, 28, 1, 634}, {7, 32, 1, 634}, {8, 33, 1, 634}, {5, 29, 1, 635}, {7, 33, 1, 635}, {8, 34, 1, 635}, {6, 20, 1, 636}, {8, 21, 1, 636}, {9, 22, 1, 636}, {6, 21, 1, 637}, {8, 23, 1, 637}, {9, 24, 1, 637}, {6, 22, 1, 638}, {8, 24, 1, 638}, {9, 25, 1, 638}, {6, 23, 1, 639}, {8, 26, 1, 639}, {9, 27, 1, 639}, {6, 24, 1, 640}, {8, 27, 1, 640}, {9, 28, 1, 640}, {6, 25, 1, 641}, {8, 28, 1, 641}, {9, 29, 1, 641}, {6, 26, 1, 642}, {8, 30, 1, 642}, {9, 31, 1, 642}, {6, 27, 1, 643}, {8, 31, 1, 643}, {9, 32, 1, 643}, {6, 28, 1, 644}, {8, 32, 1, 644}, {9, 33, 1, 644}, {6, 29, 1, 645}, {8, 33, 1, 645}, {9, 34, 1, 645}, {4, 4, 1, 646}, {5, 5, 2, 646}, {6, 6, 2, 646}, {7, 7, 1, 646}, {8, 8, 2, 646}, {9, 9, 1, 646}, {4, 10, 1, 647}, {5, 11, 2, 647}, {6, 12, 2, 647}, {7, 13, 1, 647}, {8, 14, 2, 647}, {9, 15, 1, 647}, {4, 11, 1, 648}, {5, 13, 2, 648}, {6, 14, 2, 648}, {7, 16, 1, 648}, {8, 17, 2, 648}, {9, 18, 1, 648}, {4, 12, 1, 649}, {5, 14, 2, 649}, {6, 15, 2, 649}, {7, 17, 1, 649}, {8, 18, 2, 649}, {9, 19, 1, 649}, {4, 20, 1, 650}, {5, 21, 2, 650}, {6, 22, 2, 650}, {7, 23, 1, 650}, {8, 24, 2, 650}, {9, 25, 1, 650}, {4, 21, 1, 651}, {5, 23, 2, 651}, {6, 24, 2, 651}, {7, 26, 1, 651}, {8, 27, 2, 651}, {9, 28, 1, 651}, {4, 22, 1, 652}, {5, 24, 2, 652}, {6, 25, 2, 652}, {7, 27, 1, 652}, {8, 28, 2, 652}, {9, 29, 1, 652}, {4, 23, 1, 653}, {5, 26, 2, 653}, {6, 27, 2, 653}, {7, 30, 1, 653}, {8, 31, 2, 653}, {9, 32, 1, 653}, {4, 24, 1, 654}, {5, 27, 2, 654}, {6, 28, 2, 654}, {7, 31, 1, 654}, {8, 32, 2, 654}, {9, 33, 1, 654}, {4, 25, 1, 655}, {5, 28, 2, 655}, {6, 29, 2, 655}, {7, 32, 1, 655}, {8, 33, 2, 655}, {9, 34, 1, 655}, {4, 35, 1, 656}, {5, 36, 2, 656}, {6, 37, 2, 656}, {7, 38, 1, 656}, {8, 39, 2, 656}, {9, 40, 1, 656}, {4, 36, 1, 657}, {5, 38, 2, 657}, {6, 39, 2, 657}, {7, 41, 1, 657}, {8, 42, 2, 657}, {9, 43, 1, 657}, {4, 37, 1, 658}, {5, 39, 2, 658}, {6, 40, 2, 658}, {7, 42, 1, 658}, {8, 43, 2, 658}, {9, 44, 1, 658}, {4, 38, 1, 659}, {5, 41, 2, 659}, {6, 42, 2, 659}, {7, 45, 1, 659}, {8, 46, 2, 659}, {9, 47, 1, 659}, {4, 39, 1, 660}, {5, 42, 2, 660}, {6, 43, 2, 660}, {7, 46, 1, 660}, {8, 47, 2, 660}, {9, 48, 1, 660}, {4, 40, 1, 661}, {5, 43, 2, 661}, {6, 44, 2, 661}, {7, 47, 1, 661}, {8, 48, 2, 661}, {9, 49, 1, 661}, {4, 41, 1, 662}, {5, 45, 2, 662}, {6, 46, 2, 662}, {7, 50, 1, 662}, {8, 51, 2, 662}, {9, 52, 1, 662}, {4, 42, 1, 663}, {5, 46, 2, 663}, {6, 47, 2, 663}, {7, 51, 1, 663}, {8, 52, 2, 663}, {9, 53, 1, 663}, {4, 43, 1, 664}, {5, 47, 2, 664}, {6, 48, 2, 664}, {7, 52, 1, 664}, {8, 53, 2, 664}, {9, 54, 1, 664}, {4, 44, 1, 665}, {5, 48, 2, 665}, {6, 49, 2, 665}, {7, 53, 1, 665}, {8, 54, 2, 665}, {9, 55, 1, 665}, {4, 56, 1, 666}, {5, 57, 2, 666}, {6, 58, 2, 666}, {7, 59, 1, 666}, {8, 60, 2, 666}, {9, 61, 1, 666}, {4, 57, 1, 667}, {5, 59, 2, 667}, {6, 60, 2, 667}, {7, 62, 1, 667}, {8, 63, 2, 667}, {9, 64, 1, 667}, {4, 58, 1, 668}, {5, 60, 2, 668}, {6, 61, 2, 668}, {7, 63, 1, 668}, {8, 64, 2, 668}, {9, 65, 1, 668}, {4, 59, 1, 669}, {5, 62, 2, 669}, {6, 63, 2, 669}, {7, 66, 1, 669}, {8, 67, 2, 669}, {9, 68, 1, 669}, {4, 60, 1, 670}, {5, 63, 2, 670}, {6, 64, 2, 670}, {7, 67, 1, 670}, {8, 68, 2, 670}, {9, 69, 1, 670}, {4, 61, 1, 671}, {5, 64, 2, 671}, {6, 65, 2, 671}, {7, 68, 1, 671}, {8, 69, 2, 671}, {9, 70, 1, 671}, {4, 62, 1, 672}, {5, 66, 2, 672}, {6, 67, 2, 672}, {7, 71, 1, 672}, {8, 72, 2, 672}, {9, 73, 1, 672}, {4, 63, 1, 673}, {5, 67, 2, 673}, {6, 68, 2, 673}, {7, 72, 1, 673}, {8, 73, 2, 673}, {9, 74, 1, 673}, {4, 64, 1, 674}, {5, 68, 2, 674}, {6, 69, 2, 674}, {7, 73, 1, 674}, {8, 74, 2, 674}, {9, 75, 1, 674}, {4, 65, 1, 675}, {5, 69, 2, 675}, {6, 70, 2, 675}, {7, 74, 1, 675}, {8, 75, 2, 675}, {9, 76, 1, 675}, {4, 66, 1, 676}, {5, 71, 2, 676}, {6, 72, 2, 676}, {7, 77, 1, 676}, {8, 78, 2, 676}, {9, 79, 1, 676}, {4, 67, 1, 677}, {5, 72, 2, 677}, {6, 73, 2, 677}, {7, 78, 1, 677}, {8, 79, 2, 677}, {9, 80, 1, 677}, {4, 68, 1, 678}, {5, 73, 2, 678}, {6, 74, 2, 678}, {7, 79, 1, 678}, {8, 80, 2, 678}, {9, 81, 1, 678}, {4, 69, 1, 679}, {5, 74, 2, 679}, {6, 75, 2, 679}, {7, 80, 1, 679}, {8, 81, 2, 679}, {9, 82, 1, 679}, {4, 70, 1, 680}, {5, 75, 2, 680}, {6, 76, 2, 680}, {7, 81, 1, 680}, {8, 82, 2, 680}, {9, 83, 1, 680}, {10, 10, 1, 681}, {11, 11, 1, 681}, {12, 12, 1, 681}, {10, 11, 1, 682}, {11, 13, 1, 682}, {12, 14, 1, 682}, {10, 12, 1, 683}, {11, 14, 1, 683}, {12, 15, 1, 683}, {10, 13, 1, 684}, {11, 16, 1, 684}, {12, 17, 1, 684}, {10, 14, 1, 685}, {11, 17, 1, 685}, {12, 18, 1, 685}, {10, 15, 1, 686}, {11, 18, 1, 686}, {12, 19, 1, 686}, {11, 11, 1, 687}, {13, 13, 1, 687}, {14, 14, 1, 687}, {11, 12, 1, 688}, {13, 14, 1, 688}, {14, 15, 1, 688}, {11, 13, 1, 689}, {13, 16, 1, 689}, {14, 17, 1, 689}, {11, 14, 1, 690}, {13, 17, 1, 690}, {14, 18, 1, 690}, {11, 15, 1, 691}, {13, 18, 1, 691}, {14, 19, 1, 691}, {12, 12, 1, 692}, {14, 14, 1, 692}, {15, 15, 1, 692}, {12, 13, 1, 693}, {14, 16, 1, 693}, {15, 17, 1, 693}, {12, 14, 1, 694}, {14, 17, 1, 694}, {15, 18, 1, 694}, {12, 15, 1, 695}, {14, 18, 1, 695}, {15, 19, 1, 695}, {13, 13, 1, 696}, {16, 16, 1, 696}, {17, 17, 1, 696}, {13, 14, 1, 697}, {16, 17, 1, 697}, {17, 18, 1, 697}, {13, 15, 1, 698}, {16, 18, 1, 698}, {17, 19, 1, 698}, {14, 14, 1, 699}, {17, 17, 1, 699}, {18, 18, 1, 699}, {14, 15, 1, 700}, {17, 18, 1, 700}, {18, 19, 1, 700}, {15, 15, 1, 701}, {18, 18, 1, 701}, {19, 19, 1, 701}, {10, 10, 1, 702}, {11, 11, 2, 702}, {12, 12, 2, 702}, {13, 13, 1, 702}, {14, 14, 2, 702}, {15, 15, 1, 702}, {10, 11, 1, 703}, {11, 13, 2, 703}, {12, 14, 2, 703}, {13, 16, 1, 703}, {14, 17, 2, 703}, {15, 18, 1, 703}, {10, 12, 1, 704}, {11, 14, 2, 704}, {12, 15, 2, 704}, {13, 17, 1, 704}, {14, 18, 2, 704}, {15, 19, 1, 704}, {11, 11, 1, 705}, {13, 13, 2, 705}, {14, 14, 2, 705}, {16, 16, 1, 705}, {17, 17, 2, 705}, {18, 18, 1, 705}, {11, 12, 1, 706}, {13, 14, 2, 706}, {14, 15, 2, 706}, {16, 17, 1, 706}, {17, 18, 2, 706}, {18, 19, 1, 706}, {12, 12, 1, 707}, {14, 14, 2, 707}, {15, 15, 2, 707}, {17, 17, 1, 707}, {18, 18, 2, 707}, {19, 19, 1, 707}, {10, 20, 1, 708}, {11, 21, 2, 708}, {12, 22, 2, 708}, {13, 23, 1, 708}, {14, 24, 2, 708}, {15, 25, 1, 708}, {10, 21, 1, 709}, {11, 23, 2, 709}, {12, 24, 2, 709}, {13, 26, 1, 709}, {14, 27, 2, 709}, {15, 28, 1, 709}, {10, 22, 1, 710}, {11, 24, 2, 710}, {12, 25, 2, 710}, {13, 27, 1, 710}, {14, 28, 2, 710}, {15, 29, 1, 710}, {10, 23, 1, 711}, {11, 26, 2, 711}, {12, 27, 2, 711}, {13, 30, 1, 711}, {14, 31, 2, 711}, {15, 32, 1, 711}, {10, 24, 1, 712}, {11, 27, 2, 712}, {12, 28, 2, 712}, {13, 31, 1, 712}, {14, 32, 2, 712}, {15, 33, 1, 712}, {10, 25, 1, 713}, {11, 28, 2, 713}, {12, 29, 2, 713}, {13, 32, 1, 713}, {14, 33, 2, 713}, {15, 34, 1, 713}, {11, 20, 1, 714}, {13, 21, 2, 714}, {14, 22, 2, 714}, {16, 23, 1, 714}, {17, 24, 2, 714}, {18, 25, 1, 714}, {11, 21, 1, 715}, {13, 23, 2, 715}, {14, 24, 2, 715}, {16, 26, 1, 715}, {17, 27, 2, 715}, {18, 28, 1, 715}, {11, 22, 1, 716}, {13, 24, 2, 716}, {14, 25, 2, 716}, {16, 27, 1, 716}, {17, 28, 2, 716}, {18, 29, 1, 716}, {11, 23, 1, 717}, {13, 26, 2, 717}, {14, 27, 2, 717}, {16, 30, 1, 717}, {17, 31, 2, 717}, {18, 32, 1, 717}, {11, 24, 1, 718}, {13, 27, 2, 718}, {14, 28, 2, 718}, {16, 31, 1, 718}, {17, 32, 2, 718}, {18, 33, 1, 718}, {11, 25, 1, 719}, {13, 28, 2, 719}, {14, 29, 2, 719}, {16, 32, 1, 719}, {17, 33, 2, 719}, {18, 34, 1, 719}, {12, 20, 1, 720}, {14, 21, 2, 720}, {15, 22, 2, 720}, {17, 23, 1, 720}, {18, 24, 2, 720}, {19, 25, 1, 720}, {12, 21, 1, 721}, {14, 23, 2, 721}, {15, 24, 2, 721}, {17, 26, 1, 721}, {18, 27, 2, 721}, {19, 28, 1, 721}, {12, 22, 1, 722}, {14, 24, 2, 722}, {15, 25, 2, 722}, {17, 27, 1, 722}, {18, 28, 2, 722}, {19, 29, 1, 722}, {12, 23, 1, 723}, {14, 26, 2, 723}, {15, 27, 2, 723}, {17, 30, 1, 723}, {18, 31, 2, 723}, {19, 32, 1, 723}, {12, 24, 1, 724}, {14, 27, 2, 724}, {15, 28, 2, 724}, {17, 31, 1, 724}, {18, 32, 2, 724}, {19, 33, 1, 724}, {12, 25, 1, 725}, {14, 28, 2, 725}, {15, 29, 2, 725}, {17, 32, 1, 725}, {18, 33, 2, 725}, {19, 34, 1, 725}, {10, 35, 1, 726}, {11, 36, 2, 726}, {12, 37, 2, 726}, {13, 38, 1, 726}, {14, 39, 2, 726}, {15, 40, 1, 726}, {10, 36, 1, 727}, {11, 38, 2, 727}, {12, 39, 2, 727}, {13, 41, 1, 727}, {14, 42, 2, 727}, {15, 43, 1, 727}, {10, 37, 1, 728}, {11, 39, 2, 728}, {12, 40, 2, 728}, {13, 42, 1, 728}, {14, 43, 2, 728}, {15, 44, 1, 728}, {10, 38, 1, 729}, {11, 41, 2, 729}, {12, 42, 2, 729}, {13, 45, 1, 729}, {14, 46, 2, 729}, {15, 47, 1, 729}, {10, 39, 1, 730}, {11, 42, 2, 730}, {12, 43, 2, 730}, {13, 46, 1, 730}, {14, 47, 2, 730}, {15, 48, 1, 730}, {10, 40, 1, 731}, {11, 43, 2, 731}, {12, 44, 2, 731}, {13, 47, 1, 731}, {14, 48, 2, 731}, {15, 49, 1, 731}, {10, 41, 1, 732}, {11, 45, 2, 732}, {12, 46, 2, 732}, {13, 50, 1, 732}, {14, 51, 2, 732}, {15, 52, 1, 732}, {10, 42, 1, 733}, {11, 46, 2, 733}, {12, 47, 2, 733}, {13, 51, 1, 733}, {14, 52, 2, 733}, {15, 53, 1, 733}, {10, 43, 1, 734}, {11, 47, 2, 734}, {12, 48, 2, 734}, {13, 52, 1, 734}, {14, 53, 2, 734}, {15, 54, 1, 734}, {10, 44, 1, 735}, {11, 48, 2, 735}, {12, 49, 2, 735}, {13, 53, 1, 735}, {14, 54, 2, 735}, {15, 55, 1, 735}, {11, 35, 1, 736}, {13, 36, 2, 736}, {14, 37, 2, 736}, {16, 38, 1, 736}, {17, 39, 2, 736}, {18, 40, 1, 736}, {11, 36, 1, 737}, {13, 38, 2, 737}, {14, 39, 2, 737}, {16, 41, 1, 737}, {17, 42, 2, 737}, {18, 43, 1, 737}, {11, 37, 1, 738}, {13, 39, 2, 738}, {14, 40, 2, 738}, {16, 42, 1, 738}, {17, 43, 2, 738}, {18, 44, 1, 738}, {11, 38, 1, 739}, {13, 41, 2, 739}, {14, 42, 2, 739}, {16, 45, 1, 739}, {17, 46, 2, 739}, {18, 47, 1, 739}, {11, 39, 1, 740}, {13, 42, 2, 740}, {14, 43, 2, 740}, {16, 46, 1, 740}, {17, 47, 2, 740}, {18, 48, 1, 740}, {11, 40, 1, 741}, {13, 43, 2, 741}, {14, 44, 2, 741}, {16, 47, 1, 741}, {17, 48, 2, 741}, {18, 49, 1, 741}, {11, 41, 1, 742}, {13, 45, 2, 742}, {14, 46, 2, 742}, {16, 50, 1, 742}, {17, 51, 2, 742}, {18, 52, 1, 742}, {11, 42, 1, 743}, {13, 46, 2, 743}, {14, 47, 2, 743}, {16, 51, 1, 743}, {17, 52, 2, 743}, {18, 53, 1, 743}, {11, 43, 1, 744}, {13, 47, 2, 744}, {14, 48, 2, 744}, {16, 52, 1, 744}, {17, 53, 2, 744}, {18, 54, 1, 744}, {11, 44, 1, 745}, {13, 48, 2, 745}, {14, 49, 2, 745}, {16, 53, 1, 745}, {17, 54, 2, 745}, {18, 55, 1, 745}, {12, 35, 1, 746}, {14, 36, 2, 746}, {15, 37, 2, 746}, {17, 38, 1, 746}, {18, 39, 2, 746}, {19, 40, 1, 746}, {12, 36, 1, 747}, {14, 38, 2, 747}, {15, 39, 2, 747}, {17, 41, 1, 747}, {18, 42, 2, 747}, {19, 43, 1, 747}, {12, 37, 1, 748}, {14, 39, 2, 748}, {15, 40, 2, 748}, {17, 42, 1, 748}, {18, 43, 2, 748}, {19, 44, 1, 748}, {12, 38, 1, 749}, {14, 41, 2, 749}, {15, 42, 2, 749}, {17, 45, 1, 749}, {18, 46, 2, 749}, {19, 47, 1, 749}, {12, 39, 1, 750}, {14, 42, 2, 750}, {15, 43, 2, 750}, {17, 46, 1, 750}, {18, 47, 2, 750}, {19, 48, 1, 750}, {12, 40, 1, 751}, {14, 43, 2, 751}, {15, 44, 2, 751}, {17, 47, 1, 751}, {18, 48, 2, 751}, {19, 49, 1, 751}, {12, 41, 1, 752}, {14, 45, 2, 752}, {15, 46, 2, 752}, {17, 50, 1, 752}, {18, 51, 2, 752}, {19, 52, 1, 752}, {12, 42, 1, 753}, {14, 46, 2, 753}, {15, 47, 2, 753}, {17, 51, 1, 753}, {18, 52, 2, 753}, {19, 53, 1, 753}, {12, 43, 1, 754}, {14, 47, 2, 754}, {15, 48, 2, 754}, {17, 52, 1, 754}, {18, 53, 2, 754}, {19, 54, 1, 754}, {12, 44, 1, 755}, {14, 48, 2, 755}, {15, 49, 2, 755}, {17, 53, 1, 755}, {18, 54, 2, 755}, {19, 55, 1, 755}, {10, 56, 1, 756}, {11, 57, 2, 756}, {12, 58, 2, 756}, {13, 59, 1, 756}, {14, 60, 2, 756}, {15, 61, 1, 756}, {10, 57, 1, 757}, {11, 59, 2, 757}, {12, 60, 2, 757}, {13, 62, 1, 757}, {14, 63, 2, 757}, {15, 64, 1, 757}, {10, 58, 1, 758}, {11, 60, 2, 758}, {12, 61, 2, 758}, {13, 63, 1, 758}, {14, 64, 2, 758}, {15, 65, 1, 758}, {10, 59, 1, 759}, {11, 62, 2, 759}, {12, 63, 2, 759}, {13, 66, 1, 759}, {14, 67, 2, 759}, {15, 68, 1, 759}, {10, 60, 1, 760}, {11, 63, 2, 760}, {12, 64, 2, 760}, {13, 67, 1, 760}, {14, 68, 2, 760}, {15, 69, 1, 760}, {10, 61, 1, 761}, {11, 64, 2, 761}, {12, 65, 2, 761}, {13, 68, 1, 761}, {14, 69, 2, 761}, {15, 70, 1, 761}, {10, 62, 1, 762}, {11, 66, 2, 762}, {12, 67, 2, 762}, {13, 71, 1, 762}, {14, 72, 2, 762}, {15, 73, 1, 762}, {10, 63, 1, 763}, {11, 67, 2, 763}, {12, 68, 2, 763}, {13, 72, 1, 763}, {14, 73, 2, 763}, {15, 74, 1, 763}, {10, 64, 1, 764}, {11, 68, 2, 764}, {12, 69, 2, 764}, {13, 73, 1, 764}, {14, 74, 2, 764}, {15, 75, 1, 764}, {10, 65, 1, 765}, {11, 69, 2, 765}, {12, 70, 2, 765}, {13, 74, 1, 765}, {14, 75, 2, 765}, {15, 76, 1, 765}, {10, 66, 1, 766}, {11, 71, 2, 766}, {12, 72, 2, 766}, {13, 77, 1, 766}, {14, 78, 2, 766}, {15, 79, 1, 766}, {10, 67, 1, 767}, {11, 72, 2, 767}, {12, 73, 2, 767}, {13, 78, 1, 767}, {14, 79, 2, 767}, {15, 80, 1, 767}, {10, 68, 1, 768}, {11, 73, 2, 768}, {12, 74, 2, 768}, {13, 79, 1, 768}, {14, 80, 2, 768}, {15, 81, 1, 768}, {10, 69, 1, 769}, {11, 74, 2, 769}, {12, 75, 2, 769}, {13, 80, 1, 769}, {14, 81, 2, 769}, {15, 82, 1, 769}, {10, 70, 1, 770}, {11, 75, 2, 770}, {12, 76, 2, 770}, {13, 81, 1, 770}, {14, 82, 2, 770}, {15, 83, 1, 770}, {11, 56, 1, 771}, {13, 57, 2, 771}, {14, 58, 2, 771}, {16, 59, 1, 771}, {17, 60, 2, 771}, {18, 61, 1, 771}, {11, 57, 1, 772}, {13, 59, 2, 772}, {14, 60, 2, 772}, {16, 62, 1, 772}, {17, 63, 2, 772}, {18, 64, 1, 772}, {11, 58, 1, 773}, {13, 60, 2, 773}, {14, 61, 2, 773}, {16, 63, 1, 773}, {17, 64, 2, 773}, {18, 65, 1, 773}, {11, 59, 1, 774}, {13, 62, 2, 774}, {14, 63, 2, 774}, {16, 66, 1, 774}, {17, 67, 2, 774}, {18, 68, 1, 774}, {11, 60, 1, 775}, {13, 63, 2, 775}, {14, 64, 2, 775}, {16, 67, 1, 775}, {17, 68, 2, 775}, {18, 69, 1, 775}, {11, 61, 1, 776}, {13, 64, 2, 776}, {14, 65, 2, 776}, {16, 68, 1, 776}, {17, 69, 2, 776}, {18, 70, 1, 776}, {11, 62, 1, 777}, {13, 66, 2, 777}, {14, 67, 2, 777}, {16, 71, 1, 777}, {17, 72, 2, 777}, {18, 73, 1, 777}, {11, 63, 1, 778}, {13, 67, 2, 778}, {14, 68, 2, 778}, {16, 72, 1, 778}, {17, 73, 2, 778}, {18, 74, 1, 778}, {11, 64, 1, 779}, {13, 68, 2, 779}, {14, 69, 2, 779}, {16, 73, 1, 779}, {17, 74, 2, 779}, {18, 75, 1, 779}, {11, 65, 1, 780}, {13, 69, 2, 780}, {14, 70, 2, 780}, {16, 74, 1, 780}, {17, 75, 2, 780}, {18, 76, 1, 780}, {11, 66, 1, 781}, {13, 71, 2, 781}, {14, 72, 2, 781}, {16, 77, 1, 781}, {17, 78, 2, 781}, {18, 79, 1, 781}, {11, 67, 1, 782}, {13, 72, 2, 782}, {14, 73, 2, 782}, {16, 78, 1, 782}, {17, 79, 2, 782}, {18, 80, 1, 782}, {11, 68, 1, 783}, {13, 73, 2, 783}, {14, 74, 2, 783}, {16, 79, 1, 783}, {17, 80, 2, 783}, {18, 81, 1, 783}, {11, 69, 1, 784}, {13, 74, 2, 784}, {14, 75, 2, 784}, {16, 80, 1, 784}, {17, 81, 2, 784}, {18, 82, 1, 784}, {11, 70, 1, 785}, {13, 75, 2, 785}, {14, 76, 2, 785}, {16, 81, 1, 785}, {17, 82, 2, 785}, {18, 83, 1, 785}, {12, 56, 1, 786}, {14, 57, 2, 786}, {15, 58, 2, 786}, {17, 59, 1, 786}, {18, 60, 2, 786}, {19, 61, 1, 786}, {12, 57, 1, 787}, {14, 59, 2, 787}, {15, 60, 2, 787}, {17, 62, 1, 787}, {18, 63, 2, 787}, {19, 64, 1, 787}, {12, 58, 1, 788}, {14, 60, 2, 788}, {15, 61, 2, 788}, {17, 63, 1, 788}, {18, 64, 2, 788}, {19, 65, 1, 788}, {12, 59, 1, 789}, {14, 62, 2, 789}, {15, 63, 2, 789}, {17, 66, 1, 789}, {18, 67, 2, 789}, {19, 68, 1, 789}, {12, 60, 1, 790}, {14, 63, 2, 790}, {15, 64, 2, 790}, {17, 67, 1, 790}, {18, 68, 2, 790}, {19, 69, 1, 790}, {12, 61, 1, 791}, {14, 64, 2, 791}, {15, 65, 2, 791}, {17, 68, 1, 791}, {18, 69, 2, 791}, {19, 70, 1, 791}, {12, 62, 1, 792}, {14, 66, 2, 792}, {15, 67, 2, 792}, {17, 71, 1, 792}, {18, 72, 2, 792}, {19, 73, 1, 792}, {12, 63, 1, 793}, {14, 67, 2, 793}, {15, 68, 2, 793}, {17, 72, 1, 793}, {18, 73, 2, 793}, {19, 74, 1, 793}, {12, 64, 1, 794}, {14, 68, 2, 794}, {15, 69, 2, 794}, {17, 73, 1, 794}, {18, 74, 2, 794}, {19, 75, 1, 794}, {12, 65, 1, 795}, {14, 69, 2, 795}, {15, 70, 2, 795}, {17, 74, 1, 795}, {18, 75, 2, 795}, {19, 76, 1, 795}, {12, 66, 1, 796}, {14, 71, 2, 796}, {15, 72, 2, 796}, {17, 77, 1, 796}, {18, 78, 2, 796}, {19, 79, 1, 796}, {12, 67, 1, 797}, {14, 72, 2, 797}, {15, 73, 2, 797}, {17, 78, 1, 797}, {18, 79, 2, 797}, {19, 80, 1, 797}, {12, 68, 1, 798}, {14, 73, 2, 798}, {15, 74, 2, 798}, {17, 79, 1, 798}, {18, 80, 2, 798}, {19, 81, 1, 798}, {12, 69, 1, 799}, {14, 74, 2, 799}, {15, 75, 2, 799}, {17, 80, 1, 799}, {18, 81, 2, 799}, {19, 82, 1, 799}, {12, 70, 1, 800}, {14, 75, 2, 800}, {15, 76, 2, 800}, {17, 81, 1, 800}, {18, 82, 2, 800}, {19, 83, 1, 800}, {10, 84, 1, 801}, {11, 85, 2, 801}, {12, 86, 2, 801}, {13, 87, 1, 801}, {14, 88, 2, 801}, {15, 89, 1, 801}, {10, 85, 1, 802}, {11, 87, 2, 802}, {12, 88, 2, 802}, {13, 90, 1, 802}, {14, 91, 2, 802}, {15, 92, 1, 802}, {10, 86, 1, 803}, {11, 88, 2, 803}, {12, 89, 2, 803}, {13, 91, 1, 803}, {14, 92, 2, 803}, {15, 93, 1, 803}, {10, 87, 1, 804}, {11, 90, 2, 804}, {12, 91, 2, 804}, {13, 94, 1, 804}, {14, 95, 2, 804}, {15, 96, 1, 804}, {10, 88, 1, 805}, {11, 91, 2, 805}, {12, 92, 2, 805}, {13, 95, 1, 805}, {14, 96, 2, 805}, {15, 97, 1, 805}, {10, 89, 1, 806}, {11, 92, 2, 806}, {12, 93, 2, 806}, {13, 96, 1, 806}, {14, 97, 2, 806}, {15, 98, 1, 806}, {10, 90, 1, 807}, {11, 94, 2, 807}, {12, 95, 2, 807}, {13, 99, 1, 807}, {14, 100, 2, 807}, {15, 101, 1, 807}, {10, 91, 1, 808}, {11, 95, 2, 808}, {12, 96, 2, 808}, {13, 100, 1, 808}, {14, 101, 2, 808}, {15, 102, 1, 808}, {10, 92, 1, 809}, {11, 96, 2, 809}, {12, 97, 2, 809}, {13, 101, 1, 809}, {14, 102, 2, 809}, {15, 103, 1, 809}, {10, 93, 1, 810}, {11, 97, 2, 810}, {12, 98, 2, 810}, {13, 102, 1, 810}, {14, 103, 2, 810}, {15, 104, 1, 810}, {10, 94, 1, 811}, {11, 99, 2, 811}, {12, 100, 2, 811}, {13, 105, 1, 811}, {14, 106, 2, 811}, {15, 107, 1, 811}, {10, 95, 1, 812}, {11, 100, 2, 812}, {12, 101, 2, 812}, {13, 106, 1, 812}, {14, 107, 2, 812}, {15, 108, 1, 812}, {10, 96, 1, 813}, {11, 101, 2, 813}, {12, 102, 2, 813}, {13, 107, 1, 813}, {14, 108, 2, 813}, {15, 109, 1, 813}, {10, 97, 1, 814}, {11, 102, 2, 814}, {12, 103, 2, 814}, {13, 108, 1, 814}, {14, 109, 2, 814}, {15, 110, 1, 814}, {10, 98, 1, 815}, {11, 103, 2, 815}, {12, 104, 2, 815}, {13, 109, 1, 815}, {14, 110, 2, 815}, {15, 111, 1, 815}, {10, 99, 1, 816}, {11, 105, 2, 816}, {12, 106, 2, 816}, {13, 112, 1, 816}, {14, 113, 2, 816}, {15, 114, 1, 816}, {10, 100, 1, 817}, {11, 106, 2, 817}, {12, 107, 2, 817}, {13, 113, 1, 817}, {14, 114, 2, 817}, {15, 115, 1, 817}, {10, 101, 1, 818}, {11, 107, 2, 818}, {12, 108, 2, 818}, {13, 114, 1, 818}, {14, 115, 2, 818}, {15, 116, 1, 818}, {10, 102, 1, 819}, {11, 108, 2, 819}, {12, 109, 2, 819}, {13, 115, 1, 819}, {14, 116, 2, 819}, {15, 117, 1, 819}, {10, 103, 1, 820}, {11, 109, 2, 820}, {12, 110, 2, 820}, {13, 116, 1, 820}, {14, 117, 2, 820}, {15, 118, 1, 820}, {10, 104, 1, 821}, {11, 110, 2, 821}, {12, 111, 2, 821}, {13, 117, 1, 821}, {14, 118, 2, 821}, {15, 119, 1, 821}, {11, 84, 1, 822}, {13, 85, 2, 822}, {14, 86, 2, 822}, {16, 87, 1, 822}, {17, 88, 2, 822}, {18, 89, 1, 822}, {11, 85, 1, 823}, {13, 87, 2, 823}, {14, 88, 2, 823}, {16, 90, 1, 823}, {17, 91, 2, 823}, {18, 92, 1, 823}, {11, 86, 1, 824}, {13, 88, 2, 824}, {14, 89, 2, 824}, {16, 91, 1, 824}, {17, 92, 2, 824}, {18, 93, 1, 824}, {11, 87, 1, 825}, {13, 90, 2, 825}, {14, 91, 2, 825}, {16, 94, 1, 825}, {17, 95, 2, 825}, {18, 96, 1, 825}, {11, 88, 1, 826}, {13, 91, 2, 826}, {14, 92, 2, 826}, {16, 95, 1, 826}, {17, 96, 2, 826}, {18, 97, 1, 826}, {11, 89, 1, 827}, {13, 92, 2, 827}, {14, 93, 2, 827}, {16, 96, 1, 827}, {17, 97, 2, 827}, {18, 98, 1, 827}, {11, 90, 1, 828}, {13, 94, 2, 828}, {14, 95, 2, 828}, {16, 99, 1, 828}, {17, 100, 2, 828}, {18, 101, 1, 828}, {11, 91, 1, 829}, {13, 95, 2, 829}, {14, 96, 2, 829}, {16, 100, 1, 829}, {17, 101, 2, 829}, {18, 102, 1, 829}, {11, 92, 1, 830}, {13, 96, 2, 830}, {14, 97, 2, 830}, {16, 101, 1, 830}, {17, 102, 2, 830}, {18, 103, 1, 830}, {11, 93, 1, 831}, {13, 97, 2, 831}, {14, 98, 2, 831}, {16, 102, 1, 831}, {17, 103, 2, 831}, {18, 104, 1, 831}, {11, 94, 1, 832}, {13, 99, 2, 832}, {14, 100, 2, 832}, {16, 105, 1, 832}, {17, 106, 2, 832}, {18, 107, 1, 832}, {11, 95, 1, 833}, {13, 100, 2, 833}, {14, 101, 2, 833}, {16, 106, 1, 833}, {17, 107, 2, 833}, {18, 108, 1, 833}, {11, 96, 1, 834}, {13, 101, 2, 834}, {14, 102, 2, 834}, {16, 107, 1, 834}, {17, 108, 2, 834}, {18, 109, 1, 834}, {11, 97, 1, 835}, {13, 102, 2, 835}, {14, 103, 2, 835}, {16, 108, 1, 835}, {17, 109, 2, 835}, {18, 110, 1, 835}, {11, 98, 1, 836}, {13, 103, 2, 836}, {14, 104, 2, 836}, {16, 109, 1, 836}, {17, 110, 2, 836}, {18, 111, 1, 836}, {11, 99, 1, 837}, {13, 105, 2, 837}, {14, 106, 2, 837}, {16, 112, 1, 837}, {17, 113, 2, 837}, {18, 114, 1, 837}, {11, 100, 1, 838}, {13, 106, 2, 838}, {14, 107, 2, 838}, {16, 113, 1, 838}, {17, 114, 2, 838}, {18, 115, 1, 838}, {11, 101, 1, 839}, {13, 107, 2, 839}, {14, 108, 2, 839}, {16, 114, 1, 839}, {17, 115, 2, 839}, {18, 116, 1, 839}, {11, 102, 1, 840}, {13, 108, 2, 840}, {14, 109, 2, 840}, {16, 115, 1, 840}, {17, 116, 2, 840}, {18, 117, 1, 840}, {11, 103, 1, 841}, {13, 109, 2, 841}, {14, 110, 2, 841}, {16, 116, 1, 841}, {17, 117, 2, 841}, {18, 118, 1, 841}, {11, 104, 1, 842}, {13, 110, 2, 842}, {14, 111, 2, 842}, {16, 117, 1, 842}, {17, 118, 2, 842}, {18, 119, 1, 842}, {12, 84, 1, 843}, {14, 85, 2, 843}, {15, 86, 2, 843}, {17, 87, 1, 843}, {18, 88, 2, 843}, {19, 89, 1, 843}, {12, 85, 1, 844}, {14, 87, 2, 844}, {15, 88, 2, 844}, {17, 90, 1, 844}, {18, 91, 2, 844}, {19, 92, 1, 844}, {12, 86, 1, 845}, {14, 88, 2, 845}, {15, 89, 2, 845}, {17, 91, 1, 845}, {18, 92, 2, 845}, {19, 93, 1, 845}, {12, 87, 1, 846}, {14, 90, 2, 846}, {15, 91, 2, 846}, {17, 94, 1, 846}, {18, 95, 2, 846}, {19, 96, 1, 846}, {12, 88, 1, 847}, {14, 91, 2, 847}, {15, 92, 2, 847}, {17, 95, 1, 847}, {18, 96, 2, 847}, {19, 97, 1, 847}, {12, 89, 1, 848}, {14, 92, 2, 848}, {15, 93, 2, 848}, {17, 96, 1, 848}, {18, 97, 2, 848}, {19, 98, 1, 848}, {12, 90, 1, 849}, {14, 94, 2, 849}, {15, 95, 2, 849}, {17, 99, 1, 849}, {18, 100, 2, 849}, {19, 101, 1, 849}, {12, 91, 1, 850}, {14, 95, 2, 850}, {15, 96, 2, 850}, {17, 100, 1, 850}, {18, 101, 2, 850}, {19, 102, 1, 850}, {12, 92, 1, 851}, {14, 96, 2, 851}, {15, 97, 2, 851}, {17, 101, 1, 851}, {18, 102, 2, 851}, {19, 103, 1, 851}, {12, 93, 1, 852}, {14, 97, 2, 852}, {15, 98, 2, 852}, {17, 102, 1, 852}, {18, 103, 2, 852}, {19, 104, 1, 852}, {12, 94, 1, 853}, {14, 99, 2, 853}, {15, 100, 2, 853}, {17, 105, 1, 853}, {18, 106, 2, 853}, {19, 107, 1, 853}, {12, 95, 1, 854}, {14, 100, 2, 854}, {15, 101, 2, 854}, {17, 106, 1, 854}, {18, 107, 2, 854}, {19, 108, 1, 854}, {12, 96, 1, 855}, {14, 101, 2, 855}, {15, 102, 2, 855}, {17, 107, 1, 855}, {18, 108, 2, 855}, {19, 109, 1, 855}, {12, 97, 1, 856}, {14, 102, 2, 856}, {15, 103, 2, 856}, {17, 108, 1, 856}, {18, 109, 2, 856}, {19, 110, 1, 856}, {12, 98, 1, 857}, {14, 103, 2, 857}, {15, 104, 2, 857}, {17, 109, 1, 857}, {18, 110, 2, 857}, {19, 111, 1, 857}, {12, 99, 1, 858}, {14, 105, 2, 858}, {15, 106, 2, 858}, {17, 112, 1, 858}, {18, 113, 2, 858}, {19, 114, 1, 858}, {12, 100, 1, 859}, {14, 106, 2, 859}, {15, 107, 2, 859}, {17, 113, 1, 859}, {18, 114, 2, 859}, {19, 115, 1, 859}, {12, 101, 1, 860}, {14, 107, 2, 860}, {15, 108, 2, 860}, {17, 114, 1, 860}, {18, 115, 2, 860}, {19, 116, 1, 860}, {12, 102, 1, 861}, {14, 108, 2, 861}, {15, 109, 2, 861}, {17, 115, 1, 861}, {18, 116, 2, 861}, {19, 117, 1, 861}, {12, 103, 1, 862}, {14, 109, 2, 862}, {15, 110, 2, 862}, {17, 116, 1, 862}, {18, 117, 2, 862}, {19, 118, 1, 862}, {12, 104, 1, 863}, {14, 110, 2, 863}, {15, 111, 2, 863}, {17, 117, 1, 863}, {18, 118, 2, 863}, {19, 119, 1, 863}, {10, 10, 1, 864}, {11, 11, 3, 864}, {12, 12, 3, 864}, {13, 13, 3, 864}, {14, 14, 6, 864}, {15, 15, 3, 864}, {16, 16, 1, 864}, {17, 17, 3, 864}, {18, 18, 3, 864}, {19, 19, 1, 864}, {10, 20, 1, 865}, {11, 21, 3, 865}, {12, 22, 3, 865}, {13, 23, 3, 865}, {14, 24, 6, 865}, {15, 25, 3, 865}, {16, 26, 1, 865}, {17, 27, 3, 865}, {18, 28, 3, 865}, {19, 29, 1, 865}, {10, 21, 1, 866}, {11, 23, 3, 866}, {12, 24, 3, 866}, {13, 26, 3, 866}, {14, 27, 6, 866}, {15, 28, 3, 866}, {16, 30, 1, 866}, {17, 31, 3, 866}, {18, 32, 3, 866}, {19, 33, 1, 866}, {10, 22, 1, 867}, {11, 24, 3, 867}, {12, 25, 3, 867}, {13, 27, 3, 867}, {14, 28, 6, 867}, {15, 29, 3, 867}, {16, 31, 1, 867}, {17, 32, 3, 867}, {18, 33, 3, 867}, {19, 34, 1, 867}, {10, 35, 1, 868}, {11, 36, 3, 868}, {12, 37, 3, 868}, {13, 38, 3, 868}, {14, 39, 6, 868}, {15, 40, 3, 868}, {16, 41, 1, 868}, {17, 42, 3, 868}, {18, 43, 3, 868}, {19, 44, 1, 868}, {10, 36, 1, 869}, {11, 38, 3, 869}, {12, 39, 3, 869}, {13, 41, 3, 869}, {14, 42, 6, 869}, {15, 43, 3, 869}, {16, 45, 1, 869}, {17, 46, 3, 869}, {18, 47, 3, 869}, {19, 48, 1, 869}, {10, 37, 1, 870}, {11, 39, 3, 870}, {12, 40, 3, 870}, {13, 42, 3, 870}, {14, 43, 6, 870}, {15, 44, 3, 870}, {16, 46, 1, 870}, {17, 47, 3, 870}, {18, 48, 3, 870}, {19, 49, 1, 870}, {10, 38, 1, 871}, {11, 41, 3, 871}, {12, 42, 3, 871}, {13, 45, 3, 871}, {14, 46, 6, 871}, {15, 47, 3, 871}, {16, 50, 1, 871}, {17, 51, 3, 871}, {18, 52, 3, 871}, {19, 53, 1, 871}, {10, 39, 1, 872}, {11, 42, 3, 872}, {12, 43, 3, 872}, {13, 46, 3, 872}, {14, 47, 6, 872}, {15, 48, 3, 872}, {16, 51, 1, 872}, {17, 52, 3, 872}, {18, 53, 3, 872}, {19, 54, 1, 872}, {10, 40, 1, 873}, {11, 43, 3, 873}, {12, 44, 3, 873}, {13, 47, 3, 873}, {14, 48, 6, 873}, {15, 49, 3, 873}, {16, 52, 1, 873}, {17, 53, 3, 873}, {18, 54, 3, 873}, {19, 55, 1, 873}, {10, 56, 1, 874}, {11, 57, 3, 874}, {12, 58, 3, 874}, {13, 59, 3, 874}, {14, 60, 6, 874}, {15, 61, 3, 874}, {16, 62, 1, 874}, {17, 63, 3, 874}, {18, 64, 3, 874}, {19, 65, 1, 874}, {10, 57, 1, 875}, {11, 59, 3, 875}, {12, 60, 3, 875}, {13, 62, 3, 875}, {14, 63, 6, 875}, {15, 64, 3, 875}, {16, 66, 1, 875}, {17, 67, 3, 875}, {18, 68, 3, 875}, {19, 69, 1, 875}, {10, 58, 1, 876}, {11, 60, 3, 876}, {12, 61, 3, 876}, {13, 63, 3, 876}, {14, 64, 6, 876}, {15, 65, 3, 876}, {16, 67, 1, 876}, {17, 68, 3, 876}, {18, 69, 3, 876}, {19, 70, 1, 876}, {10, 59, 1, 877}, {11, 62, 3, 877}, {12, 63, 3, 877}, {13, 66, 3, 877}, {14, 67, 6, 877}, {15, 68, 3, 877}, {16, 71, 1, 877}, {17, 72, 3, 877}, {18, 73, 3, 877}, {19, 74, 1, 877}, {10, 60, 1, 878}, {11, 63, 3, 878}, {12, 64, 3, 878}, {13, 67, 3, 878}, {14, 68, 6, 878}, {15, 69, 3, 878}, {16, 72, 1, 878}, {17, 73, 3, 878}, {18, 74, 3, 878}, {19, 75, 1, 878}, {10, 61, 1, 879}, {11, 64, 3, 879}, {12, 65, 3, 879}, {13, 68, 3, 879}, {14, 69, 6, 879}, {15, 70, 3, 879}, {16, 73, 1, 879}, {17, 74, 3, 879}, {18, 75, 3, 879}, {19, 76, 1, 879}, {10, 62, 1, 880}, {11, 66, 3, 880}, {12, 67, 3, 880}, {13, 71, 3, 880}, {14, 72, 6, 880}, {15, 73, 3, 880}, {16, 77, 1, 880}, {17, 78, 3, 880}, {18, 79, 3, 880}, {19, 80, 1, 880}, {10, 63, 1, 881}, {11, 67, 3, 881}, {12, 68, 3, 881}, {13, 72, 3, 881}, {14, 73, 6, 881}, {15, 74, 3, 881}, {16, 78, 1, 881}, {17, 79, 3, 881}, {18, 80, 3, 881}, {19, 81, 1, 881}, {10, 64, 1, 882}, {11, 68, 3, 882}, {12, 69, 3, 882}, {13, 73, 3, 882}, {14, 74, 6, 882}, {15, 75, 3, 882}, {16, 79, 1, 882}, {17, 80, 3, 882}, {18, 81, 3, 882}, {19, 82, 1, 882}, {10, 65, 1, 883}, {11, 69, 3, 883}, {12, 70, 3, 883}, {13, 74, 3, 883}, {14, 75, 6, 883}, {15, 76, 3, 883}, {16, 80, 1, 883}, {17, 81, 3, 883}, {18, 82, 3, 883}, {19, 83, 1, 883}, {10, 84, 1, 884}, {11, 85, 3, 884}, {12, 86, 3, 884}, {13, 87, 3, 884}, {14, 88, 6, 884}, {15, 89, 3, 884}, {16, 90, 1, 884}, {17, 91, 3, 884}, {18, 92, 3, 884}, {19, 93, 1, 884}, {10, 85, 1, 885}, {11, 87, 3, 885}, {12, 88, 3, 885}, {13, 90, 3, 885}, {14, 91, 6, 885}, {15, 92, 3, 885}, {16, 94, 1, 885}, {17, 95, 3, 885}, {18, 96, 3, 885}, {19, 97, 1, 885}, {10, 86, 1, 886}, {11, 88, 3, 886}, {12, 89, 3, 886}, {13, 91, 3, 886}, {14, 92, 6, 886}, {15, 93, 3, 886}, {16, 95, 1, 886}, {17, 96, 3, 886}, {18, 97, 3, 886}, {19, 98, 1, 886}, {10, 87, 1, 887}, {11, 90, 3, 887}, {12, 91, 3, 887}, {13, 94, 3, 887}, {14, 95, 6, 887}, {15, 96, 3, 887}, {16, 99, 1, 887}, {17, 100, 3, 887}, {18, 101, 3, 887}, {19, 102, 1, 887}, {10, 88, 1, 888}, {11, 91, 3, 888}, {12, 92, 3, 888}, {13, 95, 3, 888}, {14, 96, 6, 888}, {15, 97, 3, 888}, {16, 100, 1, 888}, {17, 101, 3, 888}, {18, 102, 3, 888}, {19, 103, 1, 888}, {10, 89, 1, 889}, {11, 92, 3, 889}, {12, 93, 3, 889}, {13, 96, 3, 889}, {14, 97, 6, 889}, {15, 98, 3, 889}, {16, 101, 1, 889}, {17, 102, 3, 889}, {18, 103, 3, 889}, {19, 104, 1, 889}, {10, 90, 1, 890}, {11, 94, 3, 890}, {12, 95, 3, 890}, {13, 99, 3, 890}, {14, 100, 6, 890}, {15, 101, 3, 890}, {16, 105, 1, 890}, {17, 106, 3, 890}, {18, 107, 3, 890}, {19, 108, 1, 890}, {10, 91, 1, 891}, {11, 95, 3, 891}, {12, 96, 3, 891}, {13, 100, 3, 891}, {14, 101, 6, 891}, {15, 102, 3, 891}, {16, 106, 1, 891}, {17, 107, 3, 891}, {18, 108, 3, 891}, {19, 109, 1, 891}, {10, 92, 1, 892}, {11, 96, 3, 892}, {12, 97, 3, 892}, {13, 101, 3, 892}, {14, 102, 6, 892}, {15, 103, 3, 892}, {16, 107, 1, 892}, {17, 108, 3, 892}, {18, 109, 3, 892}, {19, 110, 1, 892}, {10, 93, 1, 893}, {11, 97, 3, 893}, {12, 98, 3, 893}, {13, 102, 3, 893}, {14, 103, 6, 893}, {15, 104, 3, 893}, {16, 108, 1, 893}, {17, 109, 3, 893}, {18, 110, 3, 893}, {19, 111, 1, 893}, {10, 94, 1, 894}, {11, 99, 3, 894}, {12, 100, 3, 894}, {13, 105, 3, 894}, {14, 106, 6, 894}, {15, 107, 3, 894}, {16, 112, 1, 894}, {17, 113, 3, 894}, {18, 114, 3, 894}, {19, 115, 1, 894}, {10, 95, 1, 895}, {11, 100, 3, 895}, {12, 101, 3, 895}, {13, 106, 3, 895}, {14, 107, 6, 895}, {15, 108, 3, 895}, {16, 113, 1, 895}, {17, 114, 3, 895}, {18, 115, 3, 895}, {19, 116, 1, 895}, {10, 96, 1, 896}, {11, 101, 3, 896}, {12, 102, 3, 896}, {13, 107, 3, 896}, {14, 108, 6, 896}, {15, 109, 3, 896}, {16, 114, 1, 896}, {17, 115, 3, 896}, {18, 116, 3, 896}, {19, 117, 1, 896}, {10, 97, 1, 897}, {11, 102, 3, 897}, {12, 103, 3, 897}, {13, 108, 3, 897}, {14, 109, 6, 897}, {15, 110, 3, 897}, {16, 115, 1, 897}, {17, 116, 3, 897}, {18, 117, 3, 897}, {19, 118, 1, 897}, {10, 98, 1, 898}, {11, 103, 3, 898}, {12, 104, 3, 898}, {13, 109, 3, 898}, {14, 110, 6, 898}, {15, 111, 3, 898}, {16, 116, 1, 898}, {17, 117, 3, 898}, {18, 118, 3, 898}, {19, 119, 1, 898}, {10, 120, 1, 899}, {11, 121, 3, 899}, {12, 122, 3, 899}, {13, 123, 3, 899}, {14, 124, 6, 899}, {15, 125, 3, 899}, {16, 126, 1, 899}, {17, 127, 3, 899}, {18, 128, 3, 899}, {19, 129, 1, 899}, {10, 121, 1, 900}, {11, 123, 3, 900}, {12, 124, 3, 900}, {13, 126, 3, 900}, {14, 127, 6, 900}, {15, 128, 3, 900}, {16, 130, 1, 900}, {17, 131, 3, 900}, {18, 132, 3, 900}, {19, 133, 1, 900}, {10, 122, 1, 901}, {11, 124, 3, 901}, {12, 125, 3, 901}, {13, 127, 3, 901}, {14, 128, 6, 901}, {15, 129, 3, 901}, {16, 131, 1, 901}, {17, 132, 3, 901}, {18, 133, 3, 901}, {19, 134, 1, 901}, {10, 123, 1, 902}, {11, 126, 3, 902}, {12, 127, 3, 902}, {13, 130, 3, 902}, {14, 131, 6, 902}, {15, 132, 3, 902}, {16, 135, 1, 902}, {17, 136, 3, 902}, {18, 137, 3, 902}, {19, 138, 1, 902}, {10, 124, 1, 903}, {11, 127, 3, 903}, {12, 128, 3, 903}, {13, 131, 3, 903}, {14, 132, 6, 903}, {15, 133, 3, 903}, {16, 136, 1, 903}, {17, 137, 3, 903}, {18, 138, 3, 903}, {19, 139, 1, 903}, {10, 125, 1, 904}, {11, 128, 3, 904}, {12, 129, 3, 904}, {13, 132, 3, 904}, {14, 133, 6, 904}, {15, 134, 3, 904}, {16, 137, 1, 904}, {17, 138, 3, 904}, {18, 139, 3, 904}, {19, 140, 1, 904}, {10, 126, 1, 905}, {11, 130, 3, 905}, {12, 131, 3, 905}, {13, 135, 3, 905}, {14, 136, 6, 905}, {15, 137, 3, 905}, {16, 141, 1, 905}, {17, 142, 3, 905}, {18, 143, 3, 905}, {19, 144, 1, 905}, {10, 127, 1, 906}, {11, 131, 3, 906}, {12, 132, 3, 906}, {13, 136, 3, 906}, {14, 137, 6, 906}, {15, 138, 3, 906}, {16, 142, 1, 906}, {17, 143, 3, 906}, {18, 144, 3, 906}, {19, 145, 1, 906}, {10, 128, 1, 907}, {11, 132, 3, 907}, {12, 133, 3, 907}, {13, 137, 3, 907}, {14, 138, 6, 907}, {15, 139, 3, 907}, {16, 143, 1, 907}, {17, 144, 3, 907}, {18, 145, 3, 907}, {19, 146, 1, 907}, {10, 129, 1, 908}, {11, 133, 3, 908}, {12, 134, 3, 908}, {13, 138, 3, 908}, {14, 139, 6, 908}, {15, 140, 3, 908}, {16, 144, 1, 908}, {17, 145, 3, 908}, {18, 146, 3, 908}, {19, 147, 1, 908}, {10, 130, 1, 909}, {11, 135, 3, 909}, {12, 136, 3, 909}, {13, 141, 3, 909}, {14, 142, 6, 909}, {15, 143, 3, 909}, {16, 148, 1, 909}, {17, 149, 3, 909}, {18, 150, 3, 909}, {19, 151, 1, 909}, {10, 131, 1, 910}, {11, 136, 3, 910}, {12, 137, 3, 910}, {13, 142, 3, 910}, {14, 143, 6, 910}, {15, 144, 3, 910}, {16, 149, 1, 910}, {17, 150, 3, 910}, {18, 151, 3, 910}, {19, 152, 1, 910}, {10, 132, 1, 911}, {11, 137, 3, 911}, {12, 138, 3, 911}, {13, 143, 3, 911}, {14, 144, 6, 911}, {15, 145, 3, 911}, {16, 150, 1, 911}, {17, 151, 3, 911}, {18, 152, 3, 911}, {19, 153, 1, 911}, {10, 133, 1, 912}, {11, 138, 3, 912}, {12, 139, 3, 912}, {13, 144, 3, 912}, {14, 145, 6, 912}, {15, 146, 3, 912}, {16, 151, 1, 912}, {17, 152, 3, 912}, {18, 153, 3, 912}, {19, 154, 1, 912}, {10, 134, 1, 913}, {11, 139, 3, 913}, {12, 140, 3, 913}, {13, 145, 3, 913}, {14, 146, 6, 913}, {15, 147, 3, 913}, {16, 152, 1, 913}, {17, 153, 3, 913}, {18, 154, 3, 913}, {19, 155, 1, 913}, {10, 135, 1, 914}, {11, 141, 3, 914}, {12, 142, 3, 914}, {13, 148, 3, 914}, {14, 149, 6, 914}, {15, 150, 3, 914}, {16, 156, 1, 914}, {17, 157, 3, 914}, {18, 158, 3, 914}, {19, 159, 1, 914}, {10, 136, 1, 915}, {11, 142, 3, 915}, {12, 143, 3, 915}, {13, 149, 3, 915}, {14, 150, 6, 915}, {15, 151, 3, 915}, {16, 157, 1, 915}, {17, 158, 3, 915}, {18, 159, 3, 915}, {19, 160, 1, 915}, {10, 137, 1, 916}, {11, 143, 3, 916}, {12, 144, 3, 916}, {13, 150, 3, 916}, {14, 151, 6, 916}, {15, 152, 3, 916}, {16, 158, 1, 916}, {17, 159, 3, 916}, {18, 160, 3, 916}, {19, 161, 1, 916}, {10, 138, 1, 917}, {11, 144, 3, 917}, {12, 145, 3, 917}, {13, 151, 3, 917}, {14, 152, 6, 917}, {15, 153, 3, 917}, {16, 159, 1, 917}, {17, 160, 3, 917}, {18, 161, 3, 917}, {19, 162, 1, 917}, {10, 139, 1, 918}, {11, 145, 3, 918}, {12, 146, 3, 918}, {13, 152, 3, 918}, {14, 153, 6, 918}, {15, 154, 3, 918}, {16, 160, 1, 918}, {17, 161, 3, 918}, {18, 162, 3, 918}, {19, 163, 1, 918}, {10, 140, 1, 919}, {11, 146, 3, 919}, {12, 147, 3, 919}, {13, 153, 3, 919}, {14, 154, 6, 919}, {15, 155, 3, 919}, {16, 161, 1, 919}, {17, 162, 3, 919}, {18, 163, 3, 919}, {19, 164, 1, 919}, {20, 20, 1, 920}, {21, 21, 2, 920}, {22, 22, 2, 920}, {23, 23, 1, 920}, {24, 24, 2, 920}, {25, 25, 1, 920}, {20, 21, 1, 921}, {21, 23, 2, 921}, {22, 24, 2, 921}, {23, 26, 1, 921}, {24, 27, 2, 921}, {25, 28, 1, 921}, {20, 22, 1, 922}, {21, 24, 2, 922}, {22, 25, 2, 922}, {23, 27, 1, 922}, {24, 28, 2, 922}, {25, 29, 1, 922}, {20, 23, 1, 923}, {21, 26, 2, 923}, {22, 27, 2, 923}, {23, 30, 1, 923}, {24, 31, 2, 923}, {25, 32, 1, 923}, {20, 24, 1, 924}, {21, 27, 2, 924}, {22, 28, 2, 924}, {23, 31, 1, 924}, {24, 32, 2, 924}, {25, 33, 1, 924}, {20, 25, 1, 925}, {21, 28, 2, 925}, {22, 29, 2, 925}, {23, 32, 1, 925}, {24, 33, 2, 925}, {25, 34, 1, 925}, {21, 21, 1, 926}, {23, 23, 2, 926}, {24, 24, 2, 926}, {26, 26, 1, 926}, {27, 27, 2, 926}, {28, 28, 1, 926}, {21, 22, 1, 927}, {23, 24, 2, 927}, {24, 25, 2, 927}, {26, 27, 1, 927}, {27, 28, 2, 927}, {28, 29, 1, 927}, {21, 23, 1, 928}, {23, 26, 2, 928}, {24, 27, 2, 928}, {26, 30, 1, 928}, {27, 31, 2, 928}, {28, 32, 1, 928}, {21, 24, 1, 929}, {23, 27, 2, 929}, {24, 28, 2, 929}, {26, 31, 1, 929}, {27, 32, 2, 929}, {28, 33, 1, 929}, {21, 25, 1, 930}, {23, 28, 2, 930}, {24, 29, 2, 930}, {26, 32, 1, 930}, {27, 33, 2, 930}, {28, 34, 1, 930}, {22, 22, 1, 931}, {24, 24, 2, 931}, {25, 25, 2, 931}, {27, 27, 1, 931}, {28, 28, 2, 931}, {29, 29, 1, 931}, {22, 23, 1, 932}, {24, 26, 2, 932}, {25, 27, 2, 932}, {27, 30, 1, 932}, {28, 31, 2, 932}, {29, 32, 1, 932}, {22, 24, 1, 933}, {24, 27, 2, 933}, {25, 28, 2, 933}, {27, 31, 1, 933}, {28, 32, 2, 933}, {29, 33, 1, 933}, {22, 25, 1, 934}, {24, 28, 2, 934}, {25, 29, 2, 934}, {27, 32, 1, 934}, {28, 33, 2, 934}, {29, 34, 1, 934}, {23, 23, 1, 935}, {26, 26, 2, 935}, {27, 27, 2, 935}, {30, 30, 1, 935}, {31, 31, 2, 935}, {32, 32, 1, 935}, {23, 24, 1, 936}, {26, 27, 2, 936}, {27, 28, 2, 936}, {30, 31, 1, 936}, {31, 32, 2, 936}, {32, 33, 1, 936}, {23, 25, 1, 937}, {26, 28, 2, 937}, {27, 29, 2, 937}, {30, 32, 1, 937}, {31, 33, 2, 937}, {32, 34, 1, 937}, {24, 24, 1, 938}, {27, 27, 2, 938}, {28, 28, 2, 938}, {31, 31, 1, 938}, {32, 32, 2, 938}, {33, 33, 1, 938}, {24, 25, 1, 939}, {27, 28, 2, 939}, {28, 29, 2, 939}, {31, 32, 1, 939}, {32, 33, 2, 939}, {33, 34, 1, 939}, {25, 25, 1, 940}, {28, 28, 2, 940}, {29, 29, 2, 940}, {32, 32, 1, 940}, {33, 33, 2, 940}, {34, 34, 1, 940}, {20, 35, 1, 941}, {21, 36, 2, 941}, {22, 37, 2, 941}, {23, 38, 1, 941}, {24, 39, 2, 941}, {25, 40, 1, 941}, {20, 36, 1, 942}, {21, 38, 2, 942}, {22, 39, 2, 942}, {23, 41, 1, 942}, {24, 42, 2, 942}, {25, 43, 1, 942}, {20, 37, 1, 943}, {21, 39, 2, 943}, {22, 40, 2, 943}, {23, 42, 1, 943}, {24, 43, 2, 943}, {25, 44, 1, 943}, {20, 38, 1, 944}, {21, 41, 2, 944}, {22, 42, 2, 944}, {23, 45, 1, 944}, {24, 46, 2, 944}, {25, 47, 1, 944}, {20, 39, 1, 945}, {21, 42, 2, 945}, {22, 43, 2, 945}, {23, 46, 1, 945}, {24, 47, 2, 945}, {25, 48, 1, 945}, {20, 40, 1, 946}, {21, 43, 2, 946}, {22, 44, 2, 946}, {23, 47, 1, 946}, {24, 48, 2, 946}, {25, 49, 1, 946}, {20, 41, 1, 947}, {21, 45, 2, 947}, {22, 46, 2, 947}, {23, 50, 1, 947}, {24, 51, 2, 947}, {25, 52, 1, 947}, {20, 42, 1, 948}, {21, 46, 2, 948}, {22, 47, 2, 948}, {23, 51, 1, 948}, {24, 52, 2, 948}, {25, 53, 1, 948}, {20, 43, 1, 949}, {21, 47, 2, 949}, {22, 48, 2, 949}, {23, 52, 1, 949}, {24, 53, 2, 949}, {25, 54, 1, 949}, {20, 44, 1, 950}, {21, 48, 2, 950}, {22, 49, 2, 950}, {23, 53, 1, 950}, {24, 54, 2, 950}, {25, 55, 1, 950}, {21, 35, 1, 951}, {23, 36, 2, 951}, {24, 37, 2, 951}, {26, 38, 1, 951}, {27, 39, 2, 951}, {28, 40, 1, 951}, {21, 36, 1, 952}, {23, 38, 2, 952}, {24, 39, 2, 952}, {26, 41, 1, 952}, {27, 42, 2, 952}, {28, 43, 1, 952}, {21, 37, 1, 953}, {23, 39, 2, 953}, {24, 40, 2, 953}, {26, 42, 1, 953}, {27, 43, 2, 953}, {28, 44, 1, 953}, {21, 38, 1, 954}, {23, 41, 2, 954}, {24, 42, 2, 954}, {26, 45, 1, 954}, {27, 46, 2, 954}, {28, 47, 1, 954}, {21, 39, 1, 955}, {23, 42, 2, 955}, {24, 43, 2, 955}, {26, 46, 1, 955}, {27, 47, 2, 955}, {28, 48, 1, 955}, {21, 40, 1, 956}, {23, 43, 2, 956}, {24, 44, 2, 956}, {26, 47, 1, 956}, {27, 48, 2, 956}, {28, 49, 1, 956}, {21, 41, 1, 957}, {23, 45, 2, 957}, {24, 46, 2, 957}, {26, 50, 1, 957}, {27, 51, 2, 957}, {28, 52, 1, 957}, {21, 42, 1, 958}, {23, 46, 2, 958}, {24, 47, 2, 958}, {26, 51, 1, 958}, {27, 52, 2, 958}, {28, 53, 1, 958}, {21, 43, 1, 959}, {23, 47, 2, 959}, {24, 48, 2, 959}, {26, 52, 1, 959}, {27, 53, 2, 959}, {28, 54, 1, 959}, {21, 44, 1, 960}, {23, 48, 2, 960}, {24, 49, 2, 960}, {26, 53, 1, 960}, {27, 54, 2, 960}, {28, 55, 1, 960}, {22, 35, 1, 961}, {24, 36, 2, 961}, {25, 37, 2, 961}, {27, 38, 1, 961}, {28, 39, 2, 961}, {29, 40, 1, 961}, {22, 36, 1, 962}, {24, 38, 2, 962}, {25, 39, 2, 962}, {27, 41, 1, 962}, {28, 42, 2, 962}, {29, 43, 1, 962}, {22, 37, 1, 963}, {24, 39, 2, 963}, {25, 40, 2, 963}, {27, 42, 1, 963}, {28, 43, 2, 963}, {29, 44, 1, 963}, {22, 38, 1, 964}, {24, 41, 2, 964}, {25, 42, 2, 964}, {27, 45, 1, 964}, {28, 46, 2, 964}, {29, 47, 1, 964}, {22, 39, 1, 965}, {24, 42, 2, 965}, {25, 43, 2, 965}, {27, 46, 1, 965}, {28, 47, 2, 965}, {29, 48, 1, 965}, {22, 40, 1, 966}, {24, 43, 2, 966}, {25, 44, 2, 966}, {27, 47, 1, 966}, {28, 48, 2, 966}, {29, 49, 1, 966}, {22, 41, 1, 967}, {24, 45, 2, 967}, {25, 46, 2, 967}, {27, 50, 1, 967}, {28, 51, 2, 967}, {29, 52, 1, 967}, {22, 42, 1, 968}, {24, 46, 2, 968}, {25, 47, 2, 968}, {27, 51, 1, 968}, {28, 52, 2, 968}, {29, 53, 1, 968}, {22, 43, 1, 969}, {24, 47, 2, 969}, {25, 48, 2, 969}, {27, 52, 1, 969}, {28, 53, 2, 969}, {29, 54, 1, 969}, {22, 44, 1, 970}, {24, 48, 2, 970}, {25, 49, 2, 970}, {27, 53, 1, 970}, {28, 54, 2, 970}, {29, 55, 1, 970}, {23, 35, 1, 971}, {26, 36, 2, 971}, {27, 37, 2, 971}, {30, 38, 1, 971}, {31, 39, 2, 971}, {32, 40, 1, 971}, {23, 36, 1, 972}, {26, 38, 2, 972}, {27, 39, 2, 972}, {30, 41, 1, 972}, {31, 42, 2, 972}, {32, 43, 1, 972}, {23, 37, 1, 973}, {26, 39, 2, 973}, {27, 40, 2, 973}, {30, 42, 1, 973}, {31, 43, 2, 973}, {32, 44, 1, 973}, {23, 38, 1, 974}, {26, 41, 2, 974}, {27, 42, 2, 974}, {30, 45, 1, 974}, {31, 46, 2, 974}, {32, 47, 1, 974}, {23, 39, 1, 975}, {26, 42, 2, 975}, {27, 43, 2, 975}, {30, 46, 1, 975}, {31, 47, 2, 975}, {32, 48, 1, 975}, {23, 40, 1, 976}, {26, 43, 2, 976}, {27, 44, 2, 976}, {30, 47, 1, 976}, {31, 48, 2, 976}, {32, 49, 1, 976}, {23, 41, 1, 977}, {26, 45, 2, 977}, {27, 46, 2, 977}, {30, 50, 1, 977}, {31, 51, 2, 977}, {32, 52, 1, 977}, {23, 42, 1, 978}, {26, 46, 2, 978}, {27, 47, 2, 978}, {30, 51, 1, 978}, {31, 52, 2, 978}, {32, 53, 1, 978}, {23, 43, 1, 979}, {26, 47, 2, 979}, {27, 48, 2, 979}, {30, 52, 1, 979}, {31, 53, 2, 979}, {32, 54, 1, 979}, {23, 44, 1, 980}, {26, 48, 2, 980}, {27, 49, 2, 980}, {30, 53, 1, 980}, {31, 54, 2, 980}, {32, 55, 1, 980}, {24, 35, 1, 981}, {27, 36, 2, 981}, {28, 37, 2, 981}, {31, 38, 1, 981}, {32, 39, 2, 981}, {33, 40, 1, 981}, {24, 36, 1, 982}, {27, 38, 2, 982}, {28, 39, 2, 982}, {31, 41, 1, 982}, {32, 42, 2, 982}, {33, 43, 1, 982}, {24, 37, 1, 983}, {27, 39, 2, 983}, {28, 40, 2, 983}, {31, 42, 1, 983}, {32, 43, 2, 983}, {33, 44, 1, 983}, {24, 38, 1, 984}, {27, 41, 2, 984}, {28, 42, 2, 984}, {31, 45, 1, 984}, {32, 46, 2, 984}, {33, 47, 1, 984}, {24, 39, 1, 985}, {27, 42, 2, 985}, {28, 43, 2, 985}, {31, 46, 1, 985}, {32, 47, 2, 985}, {33, 48, 1, 985}, {24, 40, 1, 986}, {27, 43, 2, 986}, {28, 44, 2, 986}, {31, 47, 1, 986}, {32, 48, 2, 986}, {33, 49, 1, 986}, {24, 41, 1, 987}, {27, 45, 2, 987}, {28, 46, 2, 987}, {31, 50, 1, 987}, {32, 51, 2, 987}, {33, 52, 1, 987}, {24, 42, 1, 988}, {27, 46, 2, 988}, {28, 47, 2, 988}, {31, 51, 1, 988}, {32, 52, 2, 988}, {33, 53, 1, 988}, {24, 43, 1, 989}, {27, 47, 2, 989}, {28, 48, 2, 989}, {31, 52, 1, 989}, {32, 53, 2, 989}, {33, 54, 1, 989}, {24, 44, 1, 990}, {27, 48, 2, 990}, {28, 49, 2, 990}, {31, 53, 1, 990}, {32, 54, 2, 990}, {33, 55, 1, 990}, {25, 35, 1, 991}, {28, 36, 2, 991}, {29, 37, 2, 991}, {32, 38, 1, 991}, {33, 39, 2, 991}, {34, 40, 1, 991}, {25, 36, 1, 992}, {28, 38, 2, 992}, {29, 39, 2, 992}, {32, 41, 1, 992}, {33, 42, 2, 992}, {34, 43, 1, 992}, {25, 37, 1, 993}, {28, 39, 2, 993}, {29, 40, 2, 993}, {32, 42, 1, 993}, {33, 43, 2, 993}, {34, 44, 1, 993}, {25, 38, 1, 994}, {28, 41, 2, 994}, {29, 42, 2, 994}, {32, 45, 1, 994}, {33, 46, 2, 994}, {34, 47, 1, 994}, {25, 39, 1, 995}, {28, 42, 2, 995}, {29, 43, 2, 995}, {32, 46, 1, 995}, {33, 47, 2, 995}, {34, 48, 1, 995}, {25, 40, 1, 996}, {28, 43, 2, 996}, {29, 44, 2, 996}, {32, 47, 1, 996}, {33, 48, 2, 996}, {34, 49, 1, 996}, {25, 41, 1, 997}, {28, 45, 2, 997}, {29, 46, 2, 997}, {32, 50, 1, 997}, {33, 51, 2, 997}, {34, 52, 1, 997}, {25, 42, 1, 998}, {28, 46, 2, 998}, {29, 47, 2, 998}, {32, 51, 1, 998}, {33, 52, 2, 998}, {34, 53, 1, 998}, {25, 43, 1, 999}, {28, 47, 2, 999}, {29, 48, 2, 999}, {32, 52, 1, 999}, {33, 53, 2, 999}, {34, 54, 1, 999}, {25, 44, 1, 1000}, {28, 48, 2, 1000}, {29, 49, 2, 1000}, {32, 53, 1, 1000}, {33, 54, 2, 1000}, {34, 55, 1, 1000}, {20, 56, 1, 1001}, {21, 57, 2, 1001}, {22, 58, 2, 1001}, {23, 59, 1, 1001}, {24, 60, 2, 1001}, {25, 61, 1, 1001}, {20, 57, 1, 1002}, {21, 59, 2, 1002}, {22, 60, 2, 1002}, {23, 62, 1, 1002}, {24, 63, 2, 1002}, {25, 64, 1, 1002}, {20, 58, 1, 1003}, {21, 60, 2, 1003}, {22, 61, 2, 1003}, {23, 63, 1, 1003}, {24, 64, 2, 1003}, {25, 65, 1, 1003}, {20, 59, 1, 1004}, {21, 62, 2, 1004}, {22, 63, 2, 1004}, {23, 66, 1, 1004}, {24, 67, 2, 1004}, {25, 68, 1, 1004}, {20, 60, 1, 1005}, {21, 63, 2, 1005}, {22, 64, 2, 1005}, {23, 67, 1, 1005}, {24, 68, 2, 1005}, {25, 69, 1, 1005}, {20, 61, 1, 1006}, {21, 64, 2, 1006}, {22, 65, 2, 1006}, {23, 68, 1, 1006}, {24, 69, 2, 1006}, {25, 70, 1, 1006}, {20, 62, 1, 1007}, {21, 66, 2, 1007}, {22, 67, 2, 1007}, {23, 71, 1, 1007}, {24, 72, 2, 1007}, {25, 73, 1, 1007}, {20, 63, 1, 1008}, {21, 67, 2, 1008}, {22, 68, 2, 1008}, {23, 72, 1, 1008}, {24, 73, 2, 1008}, {25, 74, 1, 1008}, {20, 64, 1, 1009}, {21, 68, 2, 1009}, {22, 69, 2, 1009}, {23, 73, 1, 1009}, {24, 74, 2, 1009}, {25, 75, 1, 1009}, {20, 65, 1, 1010}, {21, 69, 2, 1010}, {22, 70, 2, 1010}, {23, 74, 1, 1010}, {24, 75, 2, 1010}, {25, 76, 1, 1010}, {20, 66, 1, 1011}, {21, 71, 2, 1011}, {22, 72, 2, 1011}, {23, 77, 1, 1011}, {24, 78, 2, 1011}, {25, 79, 1, 1011}, {20, 67, 1, 1012}, {21, 72, 2, 1012}, {22, 73, 2, 1012}, {23, 78, 1, 1012}, {24, 79, 2, 1012}, {25, 80, 1, 1012}, {20, 68, 1, 1013}, {21, 73, 2, 1013}, {22, 74, 2, 1013}, {23, 79, 1, 1013}, {24, 80, 2, 1013}, {25, 81, 1, 1013}, {20, 69, 1, 1014}, {21, 74, 2, 1014}, {22, 75, 2, 1014}, {23, 80, 1, 1014}, {24, 81, 2, 1014}, {25, 82, 1, 1014}, {20, 70, 1, 1015}, {21, 75, 2, 1015}, {22, 76, 2, 1015}, {23, 81, 1, 1015}, {24, 82, 2, 1015}, {25, 83, 1, 1015}, {21, 56, 1, 1016}, {23, 57, 2, 1016}, {24, 58, 2, 1016}, {26, 59, 1, 1016}, {27, 60, 2, 1016}, {28, 61, 1, 1016}, {21, 57, 1, 1017}, {23, 59, 2, 1017}, {24, 60, 2, 1017}, {26, 62, 1, 1017}, {27, 63, 2, 1017}, {28, 64, 1, 1017}, {21, 58, 1, 1018}, {23, 60, 2, 1018}, {24, 61, 2, 1018}, {26, 63, 1, 1018}, {27, 64, 2, 1018}, {28, 65, 1, 1018}, {21, 59, 1, 1019}, {23, 62, 2, 1019}, {24, 63, 2, 1019}, {26, 66, 1, 1019}, {27, 67, 2, 1019}, {28, 68, 1, 1019}, {21, 60, 1, 1020}, {23, 63, 2, 1020}, {24, 64, 2, 1020}, {26, 67, 1, 1020}, {27, 68, 2, 1020}, {28, 69, 1, 1020}, {21, 61, 1, 1021}, {23, 64, 2, 1021}, {24, 65, 2, 1021}, {26, 68, 1, 1021}, {27, 69, 2, 1021}, {28, 70, 1, 1021}, {21, 62, 1, 1022}, {23, 66, 2, 1022}, {24, 67, 2, 1022}, {26, 71, 1, 1022}, {27, 72, 2, 1022}, {28, 73, 1, 1022}, {21, 63, 1, 1023}, {23, 67, 2, 1023}, {24, 68, 2, 1023}, {26, 72, 1, 1023}, {27, 73, 2, 1023}, {28, 74, 1, 1023}, {21, 64, 1, 1024}, {23, 68, 2, 1024}, {24, 69, 2, 1024}, {26, 73, 1, 1024}, {27, 74, 2, 1024}, {28, 75, 1, 1024}, {21, 65, 1, 1025}, {23, 69, 2, 1025}, {24, 70, 2, 1025}, {26, 74, 1, 1025}, {27, 75, 2, 1025}, {28, 76, 1, 1025}, {21, 66, 1, 1026}, {23, 71, 2, 1026}, {24, 72, 2, 1026}, {26, 77, 1, 1026}, {27, 78, 2, 1026}, {28, 79, 1, 1026}, {21, 67, 1, 1027}, {23, 72, 2, 1027}, {24, 73, 2, 1027}, {26, 78, 1, 1027}, {27, 79, 2, 1027}, {28, 80, 1, 1027}, {21, 68, 1, 1028}, {23, 73, 2, 1028}, {24, 74, 2, 1028}, {26, 79, 1, 1028}, {27, 80, 2, 1028}, {28, 81, 1, 1028}, {21, 69, 1, 1029}, {23, 74, 2, 1029}, {24, 75, 2, 1029}, {26, 80, 1, 1029}, {27, 81, 2, 1029}, {28, 82, 1, 1029}, {21, 70, 1, 1030}, {23, 75, 2, 1030}, {24, 76, 2, 1030}, {26, 81, 1, 1030}, {27, 82, 2, 1030}, {28, 83, 1, 1030}, {22, 56, 1, 1031}, {24, 57, 2, 1031}, {25, 58, 2, 1031}, {27, 59, 1, 1031}, {28, 60, 2, 1031}, {29, 61, 1, 1031}, {22, 57, 1, 1032}, {24, 59, 2, 1032}, {25, 60, 2, 1032}, {27, 62, 1, 1032}, {28, 63, 2, 1032}, {29, 64, 1, 1032}, {22, 58, 1, 1033}, {24, 60, 2, 1033}, {25, 61, 2, 1033}, {27, 63, 1, 1033}, {28, 64, 2, 1033}, {29, 65, 1, 1033}, {22, 59, 1, 1034}, {24, 62, 2, 1034}, {25, 63, 2, 1034}, {27, 66, 1, 1034}, {28, 67, 2, 1034}, {29, 68, 1, 1034}, {22, 60, 1, 1035}, {24, 63, 2, 1035}, {25, 64, 2, 1035}, {27, 67, 1, 1035}, {28, 68, 2, 1035}, {29, 69, 1, 1035}, {22, 61, 1, 1036}, {24, 64, 2, 1036}, {25, 65, 2, 1036}, {27, 68, 1, 1036}, {28, 69, 2, 1036}, {29, 70, 1, 1036}, {22, 62, 1, 1037}, {24, 66, 2, 1037}, {25, 67, 2, 1037}, {27, 71, 1, 1037}, {28, 72, 2, 1037}, {29, 73, 1, 1037}, {22, 63, 1, 1038}, {24, 67, 2, 1038}, {25, 68, 2, 1038}, {27, 72, 1, 1038}, {28, 73, 2, 1038}, {29, 74, 1, 1038}, {22, 64, 1, 1039}, {24, 68, 2, 1039}, {25, 69, 2, 1039}, {27, 73, 1, 1039}, {28, 74, 2, 1039}, {29, 75, 1, 1039}, {22, 65, 1, 1040}, {24, 69, 2, 1040}, {25, 70, 2, 1040}, {27, 74, 1, 1040}, {28, 75, 2, 1040}, {29, 76, 1, 1040}, {22, 66, 1, 1041}, {24, 71, 2, 1041}, {25, 72, 2, 1041}, {27, 77, 1, 1041}, {28, 78, 2, 1041}, {29, 79, 1, 1041}, {22, 67, 1, 1042}, {24, 72, 2, 1042}, {25, 73, 2, 1042}, {27, 78, 1, 1042}, {28, 79, 2, 1042}, {29, 80, 1, 1042}, {22, 68, 1, 1043}, {24, 73, 2, 1043}, {25, 74, 2, 1043}, {27, 79, 1, 1043}, {28, 80, 2, 1043}, {29, 81, 1, 1043}, {22, 69, 1, 1044}, {24, 74, 2, 1044}, {25, 75, 2, 1044}, {27, 80, 1, 1044}, {28, 81, 2, 1044}, {29, 82, 1, 1044}, {22, 70, 1, 1045}, {24, 75, 2, 1045}, {25, 76, 2, 1045}, {27, 81, 1, 1045}, {28, 82, 2, 1045}, {29, 83, 1, 1045}, {23, 56, 1, 1046}, {26, 57, 2, 1046}, {27, 58, 2, 1046}, {30, 59, 1, 1046}, {31, 60, 2, 1046}, {32, 61, 1, 1046}, {23, 57, 1, 1047}, {26, 59, 2, 1047}, {27, 60, 2, 1047}, {30, 62, 1, 1047}, {31, 63, 2, 1047}, {32, 64, 1, 1047}, {23, 58, 1, 1048}, {26, 60, 2, 1048}, {27, 61, 2, 1048}, {30, 63, 1, 1048}, {31, 64, 2, 1048}, {32, 65, 1, 1048}, {23, 59, 1, 1049}, {26, 62, 2, 1049}, {27, 63, 2, 1049}, {30, 66, 1, 1049}, {31, 67, 2, 1049}, {32, 68, 1, 1049}, {23, 60, 1, 1050}, {26, 63, 2, 1050}, {27, 64, 2, 1050}, {30, 67, 1, 1050}, {31, 68, 2, 1050}, {32, 69, 1, 1050}, {23, 61, 1, 1051}, {26, 64, 2, 1051}, {27, 65, 2, 1051}, {30, 68, 1, 1051}, {31, 69, 2, 1051}, {32, 70, 1, 1051}, {23, 62, 1, 1052}, {26, 66, 2, 1052}, {27, 67, 2, 1052}, {30, 71, 1, 1052}, {31, 72, 2, 1052}, {32, 73, 1, 1052}, {23, 63, 1, 1053}, {26, 67, 2, 1053}, {27, 68, 2, 1053}, {30, 72, 1, 1053}, {31, 73, 2, 1053}, {32, 74, 1, 1053}, {23, 64, 1, 1054}, {26, 68, 2, 1054}, {27, 69, 2, 1054}, {30, 73, 1, 1054}, {31, 74, 2, 1054}, {32, 75, 1, 1054}, {23, 65, 1, 1055}, {26, 69, 2, 1055}, {27, 70, 2, 1055}, {30, 74, 1, 1055}, {31, 75, 2, 1055}, {32, 76, 1, 1055}, {23, 66, 1, 1056}, {26, 71, 2, 1056}, {27, 72, 2, 1056}, {30, 77, 1, 1056}, {31, 78, 2, 1056}, {32, 79, 1, 1056}, {23, 67, 1, 1057}, {26, 72, 2, 1057}, {27, 73, 2, 1057}, {30, 78, 1, 1057}, {31, 79, 2, 1057}, {32, 80, 1, 1057}, {23, 68, 1, 1058}, {26, 73, 2, 1058}, {27, 74, 2, 1058}, {30, 79, 1, 1058}, {31, 80, 2, 1058}, {32, 81, 1, 1058}, {23, 69, 1, 1059}, {26, 74, 2, 1059}, {27, 75, 2, 1059}, {30, 80, 1, 1059}, {31, 81, 2, 1059}, {32, 82, 1, 1059}, {23, 70, 1, 1060}, {26, 75, 2, 1060}, {27, 76, 2, 1060}, {30, 81, 1, 1060}, {31, 82, 2, 1060}, {32, 83, 1, 1060}, {24, 56, 1, 1061}, {27, 57, 2, 1061}, {28, 58, 2, 1061}, {31, 59, 1, 1061}, {32, 60, 2, 1061}, {33, 61, 1, 1061}, {24, 57, 1, 1062}, {27, 59, 2, 1062}, {28, 60, 2, 1062}, {31, 62, 1, 1062}, {32, 63, 2, 1062}, {33, 64, 1, 1062}, {24, 58, 1, 1063}, {27, 60, 2, 1063}, {28, 61, 2, 1063}, {31, 63, 1, 1063}, {32, 64, 2, 1063}, {33, 65, 1, 1063}, {24, 59, 1, 1064}, {27, 62, 2, 1064}, {28, 63, 2, 1064}, {31, 66, 1, 1064}, {32, 67, 2, 1064}, {33, 68, 1, 1064}, {24, 60, 1, 1065}, {27, 63, 2, 1065}, {28, 64, 2, 1065}, {31, 67, 1, 1065}, {32, 68, 2, 1065}, {33, 69, 1, 1065}, {24, 61, 1, 1066}, {27, 64, 2, 1066}, {28, 65, 2, 1066}, {31, 68, 1, 1066}, {32, 69, 2, 1066}, {33, 70, 1, 1066}, {24, 62, 1, 1067}, {27, 66, 2, 1067}, {28, 67, 2, 1067}, {31, 71, 1, 1067}, {32, 72, 2, 1067}, {33, 73, 1, 1067}, {24, 63, 1, 1068}, {27, 67, 2, 1068}, {28, 68, 2, 1068}, {31, 72, 1, 1068}, {32, 73, 2, 1068}, {33, 74, 1, 1068}, {24, 64, 1, 1069}, {27, 68, 2, 1069}, {28, 69, 2, 1069}, {31, 73, 1, 1069}, {32, 74, 2, 1069}, {33, 75, 1, 1069}, {24, 65, 1, 1070}, {27, 69, 2, 1070}, {28, 70, 2, 1070}, {31, 74, 1, 1070}, {32, 75, 2, 1070}, {33, 76, 1, 1070}, {24, 66, 1, 1071}, {27, 71, 2, 1071}, {28, 72, 2, 1071}, {31, 77, 1, 1071}, {32, 78, 2, 1071}, {33, 79, 1, 1071}, {24, 67, 1, 1072}, {27, 72, 2, 1072}, {28, 73, 2, 1072}, {31, 78, 1, 1072}, {32, 79, 2, 1072}, {33, 80, 1, 1072}, {24, 68, 1, 1073}, {27, 73, 2, 1073}, {28, 74, 2, 1073}, {31, 79, 1, 1073}, {32, 80, 2, 1073}, {33, 81, 1, 1073}, {24, 69, 1, 1074}, {27, 74, 2, 1074}, {28, 75, 2, 1074}, {31, 80, 1, 1074}, {32, 81, 2, 1074}, {33, 82, 1, 1074}, {24, 70, 1, 1075}, {27, 75, 2, 1075}, {28, 76, 2, 1075}, {31, 81, 1, 1075}, {32, 82, 2, 1075}, {33, 83, 1, 1075}, {25, 56, 1, 1076}, {28, 57, 2, 1076}, {29, 58, 2, 1076}, {32, 59, 1, 1076}, {33, 60, 2, 1076}, {34, 61, 1, 1076}, {25, 57, 1, 1077}, {28, 59, 2, 1077}, {29, 60, 2, 1077}, {32, 62, 1, 1077}, {33, 63, 2, 1077}, {34, 64, 1, 1077}, {25, 58, 1, 1078}, {28, 60, 2, 1078}, {29, 61, 2, 1078}, {32, 63, 1, 1078}, {33, 64, 2, 1078}, {34, 65, 1, 1078}, {25, 59, 1, 1079}, {28, 62, 2, 1079}, {29, 63, 2, 1079}, {32, 66, 1, 1079}, {33, 67, 2, 1079}, {34, 68, 1, 1079}, {25, 60, 1, 1080}, {28, 63, 2, 1080}, {29, 64, 2, 1080}, {32, 67, 1, 1080}, {33, 68, 2, 1080}, {34, 69, 1, 1080}, {25, 61, 1, 1081}, {28, 64, 2, 1081}, {29, 65, 2, 1081}, {32, 68, 1, 1081}, {33, 69, 2, 1081}, {34, 70, 1, 1081}, {25, 62, 1, 1082}, {28, 66, 2, 1082}, {29, 67, 2, 1082}, {32, 71, 1, 1082}, {33, 72, 2, 1082}, {34, 73, 1, 1082}, {25, 63, 1, 1083}, {28, 67, 2, 1083}, {29, 68, 2, 1083}, {32, 72, 1, 1083}, {33, 73, 2, 1083}, {34, 74, 1, 1083}, {25, 64, 1, 1084}, {28, 68, 2, 1084}, {29, 69, 2, 1084}, {32, 73, 1, 1084}, {33, 74, 2, 1084}, {34, 75, 1, 1084}, {25, 65, 1, 1085}, {28, 69, 2, 1085}, {29, 70, 2, 1085}, {32, 74, 1, 1085}, {33, 75, 2, 1085}, {34, 76, 1, 1085}, {25, 66, 1, 1086}, {28, 71, 2, 1086}, {29, 72, 2, 1086}, {32, 77, 1, 1086}, {33, 78, 2, 1086}, {34, 79, 1, 1086}, {25, 67, 1, 1087}, {28, 72, 2, 1087}, {29, 73, 2, 1087}, {32, 78, 1, 1087}, {33, 79, 2, 1087}, {34, 80, 1, 1087}, {25, 68, 1, 1088}, {28, 73, 2, 1088}, {29, 74, 2, 1088}, {32, 79, 1, 1088}, {33, 80, 2, 1088}, {34, 81, 1, 1088}, {25, 69, 1, 1089}, {28, 74, 2, 1089}, {29, 75, 2, 1089}, {32, 80, 1, 1089}, {33, 81, 2, 1089}, {34, 82, 1, 1089}, {25, 70, 1, 1090}, {28, 75, 2, 1090}, {29, 76, 2, 1090}, {32, 81, 1, 1090}, {33, 82, 2, 1090}, {34, 83, 1, 1090}, {20, 20, 1, 1091}, {21, 21, 3, 1091}, {22, 22, 3, 1091}, {23, 23, 3, 1091}, {24, 24, 6, 1091}, {25, 25, 3, 1091}, {26, 26, 1, 1091}, {27, 27, 3, 1091}, {28, 28, 3, 1091}, {29, 29, 1, 1091}, {20, 21, 1, 1092}, {21, 23, 3, 1092}, {22, 24, 3, 1092}, {23, 26, 3, 1092}, {24, 27, 6, 1092}, {25, 28, 3, 1092}, {26, 30, 1, 1092}, {27, 31, 3, 1092}, {28, 32, 3, 1092}, {29, 33, 1, 1092}, {20, 22, 1, 1093}, {21, 24, 3, 1093}, {22, 25, 3, 1093}, {23, 27, 3, 1093}, {24, 28, 6, 1093}, {25, 29, 3, 1093}, {26, 31, 1, 1093}, {27, 32, 3, 1093}, {28, 33, 3, 1093}, {29, 34, 1, 1093}, {21, 21, 1, 1094}, {23, 23, 3, 1094}, {24, 24, 3, 1094}, {26, 26, 3, 1094}, {27, 27, 6, 1094}, {28, 28, 3, 1094}, {30, 30, 1, 1094}, {31, 31, 3, 1094}, {32, 32, 3, 1094}, {33, 33, 1, 1094}, {21, 22, 1, 1095}, {23, 24, 3, 1095}, {24, 25, 3, 1095}, {26, 27, 3, 1095}, {27, 28, 6, 1095}, {28, 29, 3, 1095}, {30, 31, 1, 1095}, {31, 32, 3, 1095}, {32, 33, 3, 1095}, {33, 34, 1, 1095}, {22, 22, 1, 1096}, {24, 24, 3, 1096}, {25, 25, 3, 1096}, {27, 27, 3, 1096}, {28, 28, 6, 1096}, {29, 29, 3, 1096}, {31, 31, 1, 1096}, {32, 32, 3, 1096}, {33, 33, 3, 1096}, {34, 34, 1, 1096}, {20, 35, 1, 1097}, {21, 36, 3, 1097}, {22, 37, 3, 1097}, {23, 38, 3, 1097}, {24, 39, 6, 1097}, {25, 40, 3, 1097}, {26, 41, 1, 1097}, {27, 42, 3, 1097}, {28, 43, 3, 1097}, {29, 44, 1, 1097}, {20, 36, 1, 1098}, {21, 38, 3, 1098}, {22, 39, 3, 1098}, {23, 41, 3, 1098}, {24, 42, 6, 1098}, {25, 43, 3, 1098}, {26, 45, 1, 1098}, {27, 46, 3, 1098}, {28, 47, 3, 1098}, {29, 48, 1, 1098}, {20, 37, 1, 1099}, {21, 39, 3, 1099}, {22, 40, 3, 1099}, {23, 42, 3, 1099}, {24, 43, 6, 1099}, {25, 44, 3, 1099}, {26, 46, 1, 1099}, {27, 47, 3, 1099}, {28, 48, 3, 1099}, {29, 49, 1, 1099}, {20, 38, 1, 1100}, {21, 41, 3, 1100}, {22, 42, 3, 1100}, {23, 45, 3, 1100}, {24, 46, 6, 1100}, {25, 47, 3, 1100}, {26, 50, 1, 1100}, {27, 51, 3, 1100}, {28, 52, 3, 1100}, {29, 53, 1, 1100}, {20, 39, 1, 1101}, {21, 42, 3, 1101}, {22, 43, 3, 1101}, {23, 46, 3, 1101}, {24, 47, 6, 1101}, {25, 48, 3, 1101}, {26, 51, 1, 1101}, {27, 52, 3, 1101}, {28, 53, 3, 1101}, {29, 54, 1, 1101}, {20, 40, 1, 1102}, {21, 43, 3, 1102}, {22, 44, 3, 1102}, {23, 47, 3, 1102}, {24, 48, 6, 1102}, {25, 49, 3, 1102}, {26, 52, 1, 1102}, {27, 53, 3, 1102}, {28, 54, 3, 1102}, {29, 55, 1, 1102}, {21, 35, 1, 1103}, {23, 36, 3, 1103}, {24, 37, 3, 1103}, {26, 38, 3, 1103}, {27, 39, 6, 1103}, {28, 40, 3, 1103}, {30, 41, 1, 1103}, {31, 42, 3, 1103}, {32, 43, 3, 1103}, {33, 44, 1, 1103}, {21, 36, 1, 1104}, {23, 38, 3, 1104}, {24, 39, 3, 1104}, {26, 41, 3, 1104}, {27, 42, 6, 1104}, {28, 43, 3, 1104}, {30, 45, 1, 1104}, {31, 46, 3, 1104}, {32, 47, 3, 1104}, {33, 48, 1, 1104}, {21, 37, 1, 1105}, {23, 39, 3, 1105}, {24, 40, 3, 1105}, {26, 42, 3, 1105}, {27, 43, 6, 1105}, {28, 44, 3, 1105}, {30, 46, 1, 1105}, {31, 47, 3, 1105}, {32, 48, 3, 1105}, {33, 49, 1, 1105}, {21, 38, 1, 1106}, {23, 41, 3, 1106}, {24, 42, 3, 1106}, {26, 45, 3, 1106}, {27, 46, 6, 1106}, {28, 47, 3, 1106}, {30, 50, 1, 1106}, {31, 51, 3, 1106}, {32, 52, 3, 1106}, {33, 53, 1, 1106}, {21, 39, 1, 1107}, {23, 42, 3, 1107}, {24, 43, 3, 1107}, {26, 46, 3, 1107}, {27, 47, 6, 1107}, {28, 48, 3, 1107}, {30, 51, 1, 1107}, {31, 52, 3, 1107}, {32, 53, 3, 1107}, {33, 54, 1, 1107}, {21, 40, 1, 1108}, {23, 43, 3, 1108}, {24, 44, 3, 1108}, {26, 47, 3, 1108}, {27, 48, 6, 1108}, {28, 49, 3, 1108}, {30, 52, 1, 1108}, {31, 53, 3, 1108}, {32, 54, 3, 1108}, {33, 55, 1, 1108}, {22, 35, 1, 1109}, {24, 36, 3, 1109}, {25, 37, 3, 1109}, {27, 38, 3, 1109}, {28, 39, 6, 1109}, {29, 40, 3, 1109}, {31, 41, 1, 1109}, {32, 42, 3, 1109}, {33, 43, 3, 1109}, {34, 44, 1, 1109}, {22, 36, 1, 1110}, {24, 38, 3, 1110}, {25, 39, 3, 1110}, {27, 41, 3, 1110}, {28, 42, 6, 1110}, {29, 43, 3, 1110}, {31, 45, 1, 1110}, {32, 46, 3, 1110}, {33, 47, 3, 1110}, {34, 48, 1, 1110}, {22, 37, 1, 1111}, {24, 39, 3, 1111}, {25, 40, 3, 1111}, {27, 42, 3, 1111}, {28, 43, 6, 1111}, {29, 44, 3, 1111}, {31, 46, 1, 1111}, {32, 47, 3, 1111}, {33, 48, 3, 1111}, {34, 49, 1, 1111}, {22, 38, 1, 1112}, {24, 41, 3, 1112}, {25, 42, 3, 1112}, {27, 45, 3, 1112}, {28, 46, 6, 1112}, {29, 47, 3, 1112}, {31, 50, 1, 1112}, {32, 51, 3, 1112}, {33, 52, 3, 1112}, {34, 53, 1, 1112}, {22, 39, 1, 1113}, {24, 42, 3, 1113}, {25, 43, 3, 1113}, {27, 46, 3, 1113}, {28, 47, 6, 1113}, {29, 48, 3, 1113}, {31, 51, 1, 1113}, {32, 52, 3, 1113}, {33, 53, 3, 1113}, {34, 54, 1, 1113}, {22, 40, 1, 1114}, {24, 43, 3, 1114}, {25, 44, 3, 1114}, {27, 47, 3, 1114}, {28, 48, 6, 1114}, {29, 49, 3, 1114}, {31, 52, 1, 1114}, {32, 53, 3, 1114}, {33, 54, 3, 1114}, {34, 55, 1, 1114}, {20, 56, 1, 1115}, {21, 57, 3, 1115}, {22, 58, 3, 1115}, {23, 59, 3, 1115}, {24, 60, 6, 1115}, {25, 61, 3, 1115}, {26, 62, 1, 1115}, {27, 63, 3, 1115}, {28, 64, 3, 1115}, {29, 65, 1, 1115}, {20, 57, 1, 1116}, {21, 59, 3, 1116}, {22, 60, 3, 1116}, {23, 62, 3, 1116}, {24, 63, 6, 1116}, {25, 64, 3, 1116}, {26, 66, 1, 1116}, {27, 67, 3, 1116}, {28, 68, 3, 1116}, {29, 69, 1, 1116}, {20, 58, 1, 1117}, {21, 60, 3, 1117}, {22, 61, 3, 1117}, {23, 63, 3, 1117}, {24, 64, 6, 1117}, {25, 65, 3, 1117}, {26, 67, 1, 1117}, {27, 68, 3, 1117}, {28, 69, 3, 1117}, {29, 70, 1, 1117}, {20, 59, 1, 1118}, {21, 62, 3, 1118}, {22, 63, 3, 1118}, {23, 66, 3, 1118}, {24, 67, 6, 1118}, {25, 68, 3, 1118}, {26, 71, 1, 1118}, {27, 72, 3, 1118}, {28, 73, 3, 1118}, {29, 74, 1, 1118}, {20, 60, 1, 1119}, {21, 63, 3, 1119}, {22, 64, 3, 1119}, {23, 67, 3, 1119}, {24, 68, 6, 1119}, {25, 69, 3, 1119}, {26, 72, 1, 1119}, {27, 73, 3, 1119}, {28, 74, 3, 1119}, {29, 75, 1, 1119}, {20, 61, 1, 1120}, {21, 64, 3, 1120}, {22, 65, 3, 1120}, {23, 68, 3, 1120}, {24, 69, 6, 1120}, {25, 70, 3, 1120}, {26, 73, 1, 1120}, {27, 74, 3, 1120}, {28, 75, 3, 1120}, {29, 76, 1, 1120}, {20, 62, 1, 1121}, {21, 66, 3, 1121}, {22, 67, 3, 1121}, {23, 71, 3, 1121}, {24, 72, 6, 1121}, {25, 73, 3, 1121}, {26, 77, 1, 1121}, {27, 78, 3, 1121}, {28, 79, 3, 1121}, {29, 80, 1, 1121}, {20, 63, 1, 1122}, {21, 67, 3, 1122}, {22, 68, 3, 1122}, {23, 72, 3, 1122}, {24, 73, 6, 1122}, {25, 74, 3, 1122}, {26, 78, 1, 1122}, {27, 79, 3, 1122}, {28, 80, 3, 1122}, {29, 81, 1, 1122}, {20, 64, 1, 1123}, {21, 68, 3, 1123}, {22, 69, 3, 1123}, {23, 73, 3, 1123}, {24, 74, 6, 1123}, {25, 75, 3, 1123}, {26, 79, 1, 1123}, {27, 80, 3, 1123}, {28, 81, 3, 1123}, {29, 82, 1, 1123}, {20, 65, 1, 1124}, {21, 69, 3, 1124}, {22, 70, 3, 1124}, {23, 74, 3, 1124}, {24, 75, 6, 1124}, {25, 76, 3, 1124}, {26, 80, 1, 1124}, {27, 81, 3, 1124}, {28, 82, 3, 1124}, {29, 83, 1, 1124}, {21, 56, 1, 1125}, {23, 57, 3, 1125}, {24, 58, 3, 1125}, {26, 59, 3, 1125}, {27, 60, 6, 1125}, {28, 61, 3, 1125}, {30, 62, 1, 1125}, {31, 63, 3, 1125}, {32, 64, 3, 1125}, {33, 65, 1, 1125}, {21, 57, 1, 1126}, {23, 59, 3, 1126}, {24, 60, 3, 1126}, {26, 62, 3, 1126}, {27, 63, 6, 1126}, {28, 64, 3, 1126}, {30, 66, 1, 1126}, {31, 67, 3, 1126}, {32, 68, 3, 1126}, {33, 69, 1, 1126}, {21, 58, 1, 1127}, {23, 60, 3, 1127}, {24, 61, 3, 1127}, {26, 63, 3, 1127}, {27, 64, 6, 1127}, {28, 65, 3, 1127}, {30, 67, 1, 1127}, {31, 68, 3, 1127}, {32, 69, 3, 1127}, {33, 70, 1, 1127}, {21, 59, 1, 1128}, {23, 62, 3, 1128}, {24, 63, 3, 1128}, {26, 66, 3, 1128}, {27, 67, 6, 1128}, {28, 68, 3, 1128}, {30, 71, 1, 1128}, {31, 72, 3, 1128}, {32, 73, 3, 1128}, {33, 74, 1, 1128}, {21, 60, 1, 1129}, {23, 63, 3, 1129}, {24, 64, 3, 1129}, {26, 67, 3, 1129}, {27, 68, 6, 1129}, {28, 69, 3, 1129}, {30, 72, 1, 1129}, {31, 73, 3, 1129}, {32, 74, 3, 1129}, {33, 75, 1, 1129}, {21, 61, 1, 1130}, {23, 64, 3, 1130}, {24, 65, 3, 1130}, {26, 68, 3, 1130}, {27, 69, 6, 1130}, {28, 70, 3, 1130}, {30, 73, 1, 1130}, {31, 74, 3, 1130}, {32, 75, 3, 1130}, {33, 76, 1, 1130}, {21, 62, 1, 1131}, {23, 66, 3, 1131}, {24, 67, 3, 1131}, {26, 71, 3, 1131}, {27, 72, 6, 1131}, {28, 73, 3, 1131}, {30, 77, 1, 1131}, {31, 78, 3, 1131}, {32, 79, 3, 1131}, {33, 80, 1, 1131}, {21, 63, 1, 1132}, {23, 67, 3, 1132}, {24, 68, 3, 1132}, {26, 72, 3, 1132}, {27, 73, 6, 1132}, {28, 74, 3, 1132}, {30, 78, 1, 1132}, {31, 79, 3, 1132}, {32, 80, 3, 1132}, {33, 81, 1, 1132}, {21, 64, 1, 1133}, {23, 68, 3, 1133}, {24, 69, 3, 1133}, {26, 73, 3, 1133}, {27, 74, 6, 1133}, {28, 75, 3, 1133}, {30, 79, 1, 1133}, {31, 80, 3, 1133}, {32, 81, 3, 1133}, {33, 82, 1, 1133}, {21, 65, 1, 1134}, {23, 69, 3, 1134}, {24, 70, 3, 1134}, {26, 74, 3, 1134}, {27, 75, 6, 1134}, {28, 76, 3, 1134}, {30, 80, 1, 1134}, {31, 81, 3, 1134}, {32, 82, 3, 1134}, {33, 83, 1, 1134}, {22, 56, 1, 1135}, {24, 57, 3, 1135}, {25, 58, 3, 1135}, {27, 59, 3, 1135}, {28, 60, 6, 1135}, {29, 61, 3, 1135}, {31, 62, 1, 1135}, {32, 63, 3, 1135}, {33, 64, 3, 1135}, {34, 65, 1, 1135}, {22, 57, 1, 1136}, {24, 59, 3, 1136}, {25, 60, 3, 1136}, {27, 62, 3, 1136}, {28, 63, 6, 1136}, {29, 64, 3, 1136}, {31, 66, 1, 1136}, {32, 67, 3, 1136}, {33, 68, 3, 1136}, {34, 69, 1, 1136}, {22, 58, 1, 1137}, {24, 60, 3, 1137}, {25, 61, 3, 1137}, {27, 63, 3, 1137}, {28, 64, 6, 1137}, {29, 65, 3, 1137}, {31, 67, 1, 1137}, {32, 68, 3, 1137}, {33, 69, 3, 1137}, {34, 70, 1, 1137}, {22, 59, 1, 1138}, {24, 62, 3, 1138}, {25, 63, 3, 1138}, {27, 66, 3, 1138}, {28, 67, 6, 1138}, {29, 68, 3, 1138}, {31, 71, 1, 1138}, {32, 72, 3, 1138}, {33, 73, 3, 1138}, {34, 74, 1, 1138}, {22, 60, 1, 1139}, {24, 63, 3, 1139}, {25, 64, 3, 1139}, {27, 67, 3, 1139}, {28, 68, 6, 1139}, {29, 69, 3, 1139}, {31, 72, 1, 1139}, {32, 73, 3, 1139}, {33, 74, 3, 1139}, {34, 75, 1, 1139}, {22, 61, 1, 1140}, {24, 64, 3, 1140}, {25, 65, 3, 1140}, {27, 68, 3, 1140}, {28, 69, 6, 1140}, {29, 70, 3, 1140}, {31, 73, 1, 1140}, {32, 74, 3, 1140}, {33, 75, 3, 1140}, {34, 76, 1, 1140}, {22, 62, 1, 1141}, {24, 66, 3, 1141}, {25, 67, 3, 1141}, {27, 71, 3, 1141}, {28, 72, 6, 1141}, {29, 73, 3, 1141}, {31, 77, 1, 1141}, {32, 78, 3, 1141}, {33, 79, 3, 1141}, {34, 80, 1, 1141}, {22, 63, 1, 1142}, {24, 67, 3, 1142}, {25, 68, 3, 1142}, {27, 72, 3, 1142}, {28, 73, 6, 1142}, {29, 74, 3, 1142}, {31, 78, 1, 1142}, {32, 79, 3, 1142}, {33, 80, 3, 1142}, {34, 81, 1, 1142}, {22, 64, 1, 1143}, {24, 68, 3, 1143}, {25, 69, 3, 1143}, {27, 73, 3, 1143}, {28, 74, 6, 1143}, {29, 75, 3, 1143}, {31, 79, 1, 1143}, {32, 80, 3, 1143}, {33, 81, 3, 1143}, {34, 82, 1, 1143}, {22, 65, 1, 1144}, {24, 69, 3, 1144}, {25, 70, 3, 1144}, {27, 74, 3, 1144}, {28, 75, 6, 1144}, {29, 76, 3, 1144}, {31, 80, 1, 1144}, {32, 81, 3, 1144}, {33, 82, 3, 1144}, {34, 83, 1, 1144}, {20, 84, 1, 1145}, {21, 85, 3, 1145}, {22, 86, 3, 1145}, {23, 87, 3, 1145}, {24, 88, 6, 1145}, {25, 89, 3, 1145}, {26, 90, 1, 1145}, {27, 91, 3, 1145}, {28, 92, 3, 1145}, {29, 93, 1, 1145}, {20, 85, 1, 1146}, {21, 87, 3, 1146}, {22, 88, 3, 1146}, {23, 90, 3, 1146}, {24, 91, 6, 1146}, {25, 92, 3, 1146}, {26, 94, 1, 1146}, {27, 95, 3, 1146}, {28, 96, 3, 1146}, {29, 97, 1, 1146}, {20, 86, 1, 1147}, {21, 88, 3, 1147}, {22, 89, 3, 1147}, {23, 91, 3, 1147}, {24, 92, 6, 1147}, {25, 93, 3, 1147}, {26, 95, 1, 1147}, {27, 96, 3, 1147}, {28, 97, 3, 1147}, {29, 98, 1, 1147}, {20, 87, 1, 1148}, {21, 90, 3, 1148}, {22, 91, 3, 1148}, {23, 94, 3, 1148}, {24, 95, 6, 1148}, {25, 96, 3, 1148}, {26, 99, 1, 1148}, {27, 100, 3, 1148}, {28, 101, 3, 1148}, {29, 102, 1, 1148}, {20, 88, 1, 1149}, {21, 91, 3, 1149}, {22, 92, 3, 1149}, {23, 95, 3, 1149}, {24, 96, 6, 1149}, {25, 97, 3, 1149}, {26, 100, 1, 1149}, {27, 101, 3, 1149}, {28, 102, 3, 1149}, {29, 103, 1, 1149}, {20, 89, 1, 1150}, {21, 92, 3, 1150}, {22, 93, 3, 1150}, {23, 96, 3, 1150}, {24, 97, 6, 1150}, {25, 98, 3, 1150}, {26, 101, 1, 1150}, {27, 102, 3, 1150}, {28, 103, 3, 1150}, {29, 104, 1, 1150}, {20, 90, 1, 1151}, {21, 94, 3, 1151}, {22, 95, 3, 1151}, {23, 99, 3, 1151}, {24, 100, 6, 1151}, {25, 101, 3, 1151}, {26, 105, 1, 1151}, {27, 106, 3, 1151}, {28, 107, 3, 1151}, {29, 108, 1, 1151}, {20, 91, 1, 1152}, {21, 95, 3, 1152}, {22, 96, 3, 1152}, {23, 100, 3, 1152}, {24, 101, 6, 1152}, {25, 102, 3, 1152}, {26, 106, 1, 1152}, {27, 107, 3, 1152}, {28, 108, 3, 1152}, {29, 109, 1, 1152}, {20, 92, 1, 1153}, {21, 96, 3, 1153}, {22, 97, 3, 1153}, {23, 101, 3, 1153}, {24, 102, 6, 1153}, {25, 103, 3, 1153}, {26, 107, 1, 1153}, {27, 108, 3, 1153}, {28, 109, 3, 1153}, {29, 110, 1, 1153}, {20, 93, 1, 1154}, {21, 97, 3, 1154}, {22, 98, 3, 1154}, {23, 102, 3, 1154}, {24, 103, 6, 1154}, {25, 104, 3, 1154}, {26, 108, 1, 1154}, {27, 109, 3, 1154}, {28, 110, 3, 1154}, {29, 111, 1, 1154}, {20, 94, 1, 1155}, {21, 99, 3, 1155}, {22, 100, 3, 1155}, {23, 105, 3, 1155}, {24, 106, 6, 1155}, {25, 107, 3, 1155}, {26, 112, 1, 1155}, {27, 113, 3, 1155}, {28, 114, 3, 1155}, {29, 115, 1, 1155}, {20, 95, 1, 1156}, {21, 100, 3, 1156}, {22, 101, 3, 1156}, {23, 106, 3, 1156}, {24, 107, 6, 1156}, {25, 108, 3, 1156}, {26, 113, 1, 1156}, {27, 114, 3, 1156}, {28, 115, 3, 1156}, {29, 116, 1, 1156}, {20, 96, 1, 1157}, {21, 101, 3, 1157}, {22, 102, 3, 1157}, {23, 107, 3, 1157}, {24, 108, 6, 1157}, {25, 109, 3, 1157}, {26, 114, 1, 1157}, {27, 115, 3, 1157}, {28, 116, 3, 1157}, {29, 117, 1, 1157}, {20, 97, 1, 1158}, {21, 102, 3, 1158}, {22, 103, 3, 1158}, {23, 108, 3, 1158}, {24, 109, 6, 1158}, {25, 110, 3, 1158}, {26, 115, 1, 1158}, {27, 116, 3, 1158}, {28, 117, 3, 1158}, {29, 118, 1, 1158}, {20, 98, 1, 1159}, {21, 103, 3, 1159}, {22, 104, 3, 1159}, {23, 109, 3, 1159}, {24, 110, 6, 1159}, {25, 111, 3, 1159}, {26, 116, 1, 1159}, {27, 117, 3, 1159}, {28, 118, 3, 1159}, {29, 119, 1, 1159}, {21, 84, 1, 1160}, {23, 85, 3, 1160}, {24, 86, 3, 1160}, {26, 87, 3, 1160}, {27, 88, 6, 1160}, {28, 89, 3, 1160}, {30, 90, 1, 1160}, {31, 91, 3, 1160}, {32, 92, 3, 1160}, {33, 93, 1, 1160}, {21, 85, 1, 1161}, {23, 87, 3, 1161}, {24, 88, 3, 1161}, {26, 90, 3, 1161}, {27, 91, 6, 1161}, {28, 92, 3, 1161}, {30, 94, 1, 1161}, {31, 95, 3, 1161}, {32, 96, 3, 1161}, {33, 97, 1, 1161}, {21, 86, 1, 1162}, {23, 88, 3, 1162}, {24, 89, 3, 1162}, {26, 91, 3, 1162}, {27, 92, 6, 1162}, {28, 93, 3, 1162}, {30, 95, 1, 1162}, {31, 96, 3, 1162}, {32, 97, 3, 1162}, {33, 98, 1, 1162}, {21, 87, 1, 1163}, {23, 90, 3, 1163}, {24, 91, 3, 1163}, {26, 94, 3, 1163}, {27, 95, 6, 1163}, {28, 96, 3, 1163}, {30, 99, 1, 1163}, {31, 100, 3, 1163}, {32, 101, 3, 1163}, {33, 102, 1, 1163}, {21, 88, 1, 1164}, {23, 91, 3, 1164}, {24, 92, 3, 1164}, {26, 95, 3, 1164}, {27, 96, 6, 1164}, {28, 97, 3, 1164}, {30, 100, 1, 1164}, {31, 101, 3, 1164}, {32, 102, 3, 1164}, {33, 103, 1, 1164}, {21, 89, 1, 1165}, {23, 92, 3, 1165}, {24, 93, 3, 1165}, {26, 96, 3, 1165}, {27, 97, 6, 1165}, {28, 98, 3, 1165}, {30, 101, 1, 1165}, {31, 102, 3, 1165}, {32, 103, 3, 1165}, {33, 104, 1, 1165}, {21, 90, 1, 1166}, {23, 94, 3, 1166}, {24, 95, 3, 1166}, {26, 99, 3, 1166}, {27, 100, 6, 1166}, {28, 101, 3, 1166}, {30, 105, 1, 1166}, {31, 106, 3, 1166}, {32, 107, 3, 1166}, {33, 108, 1, 1166}, {21, 91, 1, 1167}, {23, 95, 3, 1167}, {24, 96, 3, 1167}, {26, 100, 3, 1167}, {27, 101, 6, 1167}, {28, 102, 3, 1167}, {30, 106, 1, 1167}, {31, 107, 3, 1167}, {32, 108, 3, 1167}, {33, 109, 1, 1167}, {21, 92, 1, 1168}, {23, 96, 3, 1168}, {24, 97, 3, 1168}, {26, 101, 3, 1168}, {27, 102, 6, 1168}, {28, 103, 3, 1168}, {30, 107, 1, 1168}, {31, 108, 3, 1168}, {32, 109, 3, 1168}, {33, 110, 1, 1168}, {21, 93, 1, 1169}, {23, 97, 3, 1169}, {24, 98, 3, 1169}, {26, 102, 3, 1169}, {27, 103, 6, 1169}, {28, 104, 3, 1169}, {30, 108, 1, 1169}, {31, 109, 3, 1169}, {32, 110, 3, 1169}, {33, 111, 1, 1169}, {21, 94, 1, 1170}, {23, 99, 3, 1170}, {24, 100, 3, 1170}, {26, 105, 3, 1170}, {27, 106, 6, 1170}, {28, 107, 3, 1170}, {30, 112, 1, 1170}, {31, 113, 3, 1170}, {32, 114, 3, 1170}, {33, 115, 1, 1170}, {21, 95, 1, 1171}, {23, 100, 3, 1171}, {24, 101, 3, 1171}, {26, 106, 3, 1171}, {27, 107, 6, 1171}, {28, 108, 3, 1171}, {30, 113, 1, 1171}, {31, 114, 3, 1171}, {32, 115, 3, 1171}, {33, 116, 1, 1171}, {21, 96, 1, 1172}, {23, 101, 3, 1172}, {24, 102, 3, 1172}, {26, 107, 3, 1172}, {27, 108, 6, 1172}, {28, 109, 3, 1172}, {30, 114, 1, 1172}, {31, 115, 3, 1172}, {32, 116, 3, 1172}, {33, 117, 1, 1172}, {21, 97, 1, 1173}, {23, 102, 3, 1173}, {24, 103, 3, 1173}, {26, 108, 3, 1173}, {27, 109, 6, 1173}, {28, 110, 3, 1173}, {30, 115, 1, 1173}, {31, 116, 3, 1173}, {32, 117, 3, 1173}, {33, 118, 1, 1173}, {21, 98, 1, 1174}, {23, 103, 3, 1174}, {24, 104, 3, 1174}, {26, 109, 3, 1174}, {27, 110, 6, 1174}, {28, 111, 3, 1174}, {30, 116, 1, 1174}, {31, 117, 3, 1174}, {32, 118, 3, 1174}, {33, 119, 1, 1174}, {22, 84, 1, 1175}, {24, 85, 3, 1175}, {25, 86, 3, 1175}, {27, 87, 3, 1175}, {28, 88, 6, 1175}, {29, 89, 3, 1175}, {31, 90, 1, 1175}, {32, 91, 3, 1175}, {33, 92, 3, 1175}, {34, 93, 1, 1175}, {22, 85, 1, 1176}, {24, 87, 3, 1176}, {25, 88, 3, 1176}, {27, 90, 3, 1176}, {28, 91, 6, 1176}, {29, 92, 3, 1176}, {31, 94, 1, 1176}, {32, 95, 3, 1176}, {33, 96, 3, 1176}, {34, 97, 1, 1176}, {22, 86, 1, 1177}, {24, 88, 3, 1177}, {25, 89, 3, 1177}, {27, 91, 3, 1177}, {28, 92, 6, 1177}, {29, 93, 3, 1177}, {31, 95, 1, 1177}, {32, 96, 3, 1177}, {33, 97, 3, 1177}, {34, 98, 1, 1177}, {22, 87, 1, 1178}, {24, 90, 3, 1178}, {25, 91, 3, 1178}, {27, 94, 3, 1178}, {28, 95, 6, 1178}, {29, 96, 3, 1178}, {31, 99, 1, 1178}, {32, 100, 3, 1178}, {33, 101, 3, 1178}, {34, 102, 1, 1178}, {22, 88, 1, 1179}, {24, 91, 3, 1179}, {25, 92, 3, 1179}, {27, 95, 3, 1179}, {28, 96, 6, 1179}, {29, 97, 3, 1179}, {31, 100, 1, 1179}, {32, 101, 3, 1179}, {33, 102, 3, 1179}, {34, 103, 1, 1179}, {22, 89, 1, 1180}, {24, 92, 3, 1180}, {25, 93, 3, 1180}, {27, 96, 3, 1180}, {28, 97, 6, 1180}, {29, 98, 3, 1180}, {31, 101, 1, 1180}, {32, 102, 3, 1180}, {33, 103, 3, 1180}, {34, 104, 1, 1180}, {22, 90, 1, 1181}, {24, 94, 3, 1181}, {25, 95, 3, 1181}, {27, 99, 3, 1181}, {28, 100, 6, 1181}, {29, 101, 3, 1181}, {31, 105, 1, 1181}, {32, 106, 3, 1181}, {33, 107, 3, 1181}, {34, 108, 1, 1181}, {22, 91, 1, 1182}, {24, 95, 3, 1182}, {25, 96, 3, 1182}, {27, 100, 3, 1182}, {28, 101, 6, 1182}, {29, 102, 3, 1182}, {31, 106, 1, 1182}, {32, 107, 3, 1182}, {33, 108, 3, 1182}, {34, 109, 1, 1182}, {22, 92, 1, 1183}, {24, 96, 3, 1183}, {25, 97, 3, 1183}, {27, 101, 3, 1183}, {28, 102, 6, 1183}, {29, 103, 3, 1183}, {31, 107, 1, 1183}, {32, 108, 3, 1183}, {33, 109, 3, 1183}, {34, 110, 1, 1183}, {22, 93, 1, 1184}, {24, 97, 3, 1184}, {25, 98, 3, 1184}, {27, 102, 3, 1184}, {28, 103, 6, 1184}, {29, 104, 3, 1184}, {31, 108, 1, 1184}, {32, 109, 3, 1184}, {33, 110, 3, 1184}, {34, 111, 1, 1184}, {22, 94, 1, 1185}, {24, 99, 3, 1185}, {25, 100, 3, 1185}, {27, 105, 3, 1185}, {28, 106, 6, 1185}, {29, 107, 3, 1185}, {31, 112, 1, 1185}, {32, 113, 3, 1185}, {33, 114, 3, 1185}, {34, 115, 1, 1185}, {22, 95, 1, 1186}, {24, 100, 3, 1186}, {25, 101, 3, 1186}, {27, 106, 3, 1186}, {28, 107, 6, 1186}, {29, 108, 3, 1186}, {31, 113, 1, 1186}, {32, 114, 3, 1186}, {33, 115, 3, 1186}, {34, 116, 1, 1186}, {22, 96, 1, 1187}, {24, 101, 3, 1187}, {25, 102, 3, 1187}, {27, 107, 3, 1187}, {28, 108, 6, 1187}, {29, 109, 3, 1187}, {31, 114, 1, 1187}, {32, 115, 3, 1187}, {33, 116, 3, 1187}, {34, 117, 1, 1187}, {22, 97, 1, 1188}, {24, 102, 3, 1188}, {25, 103, 3, 1188}, {27, 108, 3, 1188}, {28, 109, 6, 1188}, {29, 110, 3, 1188}, {31, 115, 1, 1188}, {32, 116, 3, 1188}, {33, 117, 3, 1188}, {34, 118, 1, 1188}, {22, 98, 1, 1189}, {24, 103, 3, 1189}, {25, 104, 3, 1189}, {27, 109, 3, 1189}, {28, 110, 6, 1189}, {29, 111, 3, 1189}, {31, 116, 1, 1189}, {32, 117, 3, 1189}, {33, 118, 3, 1189}, {34, 119, 1, 1189}, {20, 20, 1, 1190}, {21, 21, 4, 1190}, {22, 22, 4, 1190}, {23, 23, 6, 1190}, {24, 24, 12, 1190}, {25, 25, 6, 1190}, {26, 26, 4, 1190}, {27, 27, 12, 1190}, {28, 28, 12, 1190}, {29, 29, 4, 1190}, {30, 30, 1, 1190}, {31, 31, 4, 1190}, {32, 32, 6, 1190}, {33, 33, 4, 1190}, {34, 34, 1, 1190}, {20, 35, 1, 1191}, {21, 36, 4, 1191}, {22, 37, 4, 1191}, {23, 38, 6, 1191}, {24, 39, 12, 1191}, {25, 40, 6, 1191}, {26, 41, 4, 1191}, {27, 42, 12, 1191}, {28, 43, 12, 1191}, {29, 44, 4, 1191}, {30, 45, 1, 1191}, {31, 46, 4, 1191}, {32, 47, 6, 1191}, {33, 48, 4, 1191}, {34, 49, 1, 1191}, {20, 36, 1, 1192}, {21, 38, 4, 1192}, {22, 39, 4, 1192}, {23, 41, 6, 1192}, {24, 42, 12, 1192}, {25, 43, 6, 1192}, {26, 45, 4, 1192}, {27, 46, 12, 1192}, {28, 47, 12, 1192}, {29, 48, 4, 1192}, {30, 50, 1, 1192}, {31, 51, 4, 1192}, {32, 52, 6, 1192}, {33, 53, 4, 1192}, {34, 54, 1, 1192}, {20, 37, 1, 1193}, {21, 39, 4, 1193}, {22, 40, 4, 1193}, {23, 42, 6, 1193}, {24, 43, 12, 1193}, {25, 44, 6, 1193}, {26, 46, 4, 1193}, {27, 47, 12, 1193}, {28, 48, 12, 1193}, {29, 49, 4, 1193}, {30, 51, 1, 1193}, {31, 52, 4, 1193}, {32, 53, 6, 1193}, {33, 54, 4, 1193}, {34, 55, 1, 1193}, {20, 56, 1, 1194}, {21, 57, 4, 1194}, {22, 58, 4, 1194}, {23, 59, 6, 1194}, {24, 60, 12, 1194}, {25, 61, 6, 1194}, {26, 62, 4, 1194}, {27, 63, 12, 1194}, {28, 64, 12, 1194}, {29, 65, 4, 1194}, {30, 66, 1, 1194}, {31, 67, 4, 1194}, {32, 68, 6, 1194}, {33, 69, 4, 1194}, {34, 70, 1, 1194}, {20, 57, 1, 1195}, {21, 59, 4, 1195}, {22, 60, 4, 1195}, {23, 62, 6, 1195}, {24, 63, 12, 1195}, {25, 64, 6, 1195}, {26, 66, 4, 1195}, {27, 67, 12, 1195}, {28, 68, 12, 1195}, {29, 69, 4, 1195}, {30, 71, 1, 1195}, {31, 72, 4, 1195}, {32, 73, 6, 1195}, {33, 74, 4, 1195}, {34, 75, 1, 1195}, {20, 58, 1, 1196}, {21, 60, 4, 1196}, {22, 61, 4, 1196}, {23, 63, 6, 1196}, {24, 64, 12, 1196}, {25, 65, 6, 1196}, {26, 67, 4, 1196}, {27, 68, 12, 1196}, {28, 69, 12, 1196}, {29, 70, 4, 1196}, {30, 72, 1, 1196}, {31, 73, 4, 1196}, {32, 74, 6, 1196}, {33, 75, 4, 1196}, {34, 76, 1, 1196}, {20, 59, 1, 1197}, {21, 62, 4, 1197}, {22, 63, 4, 1197}, {23, 66, 6, 1197}, {24, 67, 12, 1197}, {25, 68, 6, 1197}, {26, 71, 4, 1197}, {27, 72, 12, 1197}, {28, 73, 12, 1197}, {29, 74, 4, 1197}, {30, 77, 1, 1197}, {31, 78, 4, 1197}, {32, 79, 6, 1197}, {33, 80, 4, 1197}, {34, 81, 1, 1197}, {20, 60, 1, 1198}, {21, 63, 4, 1198}, {22, 64, 4, 1198}, {23, 67, 6, 1198}, {24, 68, 12, 1198}, {25, 69, 6, 1198}, {26, 72, 4, 1198}, {27, 73, 12, 1198}, {28, 74, 12, 1198}, {29, 75, 4, 1198}, {30, 78, 1, 1198}, {31, 79, 4, 1198}, {32, 80, 6, 1198}, {33, 81, 4, 1198}, {34, 82, 1, 1198}, {20, 61, 1, 1199}, {21, 64, 4, 1199}, {22, 65, 4, 1199}, {23, 68, 6, 1199}, {24, 69, 12, 1199}, {25, 70, 6, 1199}, {26, 73, 4, 1199}, {27, 74, 12, 1199}, {28, 75, 12, 1199}, {29, 76, 4, 1199}, {30, 79, 1, 1199}, {31, 80, 4, 1199}, {32, 81, 6, 1199}, {33, 82, 4, 1199}, {34, 83, 1, 1199}, {20, 84, 1, 1200}, {21, 85, 4, 1200}, {22, 86, 4, 1200}, {23, 87, 6, 1200}, {24, 88, 12, 1200}, {25, 89, 6, 1200}, {26, 90, 4, 1200}, {27, 91, 12, 1200}, {28, 92, 12, 1200}, {29, 93, 4, 1200}, {30, 94, 1, 1200}, {31, 95, 4, 1200}, {32, 96, 6, 1200}, {33, 97, 4, 1200}, {34, 98, 1, 1200}, {20, 85, 1, 1201}, {21, 87, 4, 1201}, {22, 88, 4, 1201}, {23, 90, 6, 1201}, {24, 91, 12, 1201}, {25, 92, 6, 1201}, {26, 94, 4, 1201}, {27, 95, 12, 1201}, {28, 96, 12, 1201}, {29, 97, 4, 1201}, {30, 99, 1, 1201}, {31, 100, 4, 1201}, {32, 101, 6, 1201}, {33, 102, 4, 1201}, {34, 103, 1, 1201}, {20, 86, 1, 1202}, {21, 88, 4, 1202}, {22, 89, 4, 1202}, {23, 91, 6, 1202}, {24, 92, 12, 1202}, {25, 93, 6, 1202}, {26, 95, 4, 1202}, {27, 96, 12, 1202}, {28, 97, 12, 1202}, {29, 98, 4, 1202}, {30, 100, 1, 1202}, {31, 101, 4, 1202}, {32, 102, 6, 1202}, {33, 103, 4, 1202}, {34, 104, 1, 1202}, {20, 87, 1, 1203}, {21, 90, 4, 1203}, {22, 91, 4, 1203}, {23, 94, 6, 1203}, {24, 95, 12, 1203}, {25, 96, 6, 1203}, {26, 99, 4, 1203}, {27, 100, 12, 1203}, {28, 101, 12, 1203}, {29, 102, 4, 1203}, {30, 105, 1, 1203}, {31, 106, 4, 1203}, {32, 107, 6, 1203}, {33, 108, 4, 1203}, {34, 109, 1, 1203}, {20, 88, 1, 1204}, {21, 91, 4, 1204}, {22, 92, 4, 1204}, {23, 95, 6, 1204}, {24, 96, 12, 1204}, {25, 97, 6, 1204}, {26, 100, 4, 1204}, {27, 101, 12, 1204}, {28, 102, 12, 1204}, {29, 103, 4, 1204}, {30, 106, 1, 1204}, {31, 107, 4, 1204}, {32, 108, 6, 1204}, {33, 109, 4, 1204}, {34, 110, 1, 1204}, {20, 89, 1, 1205}, {21, 92, 4, 1205}, {22, 93, 4, 1205}, {23, 96, 6, 1205}, {24, 97, 12, 1205}, {25, 98, 6, 1205}, {26, 101, 4, 1205}, {27, 102, 12, 1205}, {28, 103, 12, 1205}, {29, 104, 4, 1205}, {30, 107, 1, 1205}, {31, 108, 4, 1205}, {32, 109, 6, 1205}, {33, 110, 4, 1205}, {34, 111, 1, 1205}, {20, 90, 1, 1206}, {21, 94, 4, 1206}, {22, 95, 4, 1206}, {23, 99, 6, 1206}, {24, 100, 12, 1206}, {25, 101, 6, 1206}, {26, 105, 4, 1206}, {27, 106, 12, 1206}, {28, 107, 12, 1206}, {29, 108, 4, 1206}, {30, 112, 1, 1206}, {31, 113, 4, 1206}, {32, 114, 6, 1206}, {33, 115, 4, 1206}, {34, 116, 1, 1206}, {20, 91, 1, 1207}, {21, 95, 4, 1207}, {22, 96, 4, 1207}, {23, 100, 6, 1207}, {24, 101, 12, 1207}, {25, 102, 6, 1207}, {26, 106, 4, 1207}, {27, 107, 12, 1207}, {28, 108, 12, 1207}, {29, 109, 4, 1207}, {30, 113, 1, 1207}, {31, 114, 4, 1207}, {32, 115, 6, 1207}, {33, 116, 4, 1207}, {34, 117, 1, 1207}, {20, 92, 1, 1208}, {21, 96, 4, 1208}, {22, 97, 4, 1208}, {23, 101, 6, 1208}, {24, 102, 12, 1208}, {25, 103, 6, 1208}, {26, 107, 4, 1208}, {27, 108, 12, 1208}, {28, 109, 12, 1208}, {29, 110, 4, 1208}, {30, 114, 1, 1208}, {31, 115, 4, 1208}, {32, 116, 6, 1208}, {33, 117, 4, 1208}, {34, 118, 1, 1208}, {20, 93, 1, 1209}, {21, 97, 4, 1209}, {22, 98, 4, 1209}, {23, 102, 6, 1209}, {24, 103, 12, 1209}, {25, 104, 6, 1209}, {26, 108, 4, 1209}, {27, 109, 12, 1209}, {28, 110, 12, 1209}, {29, 111, 4, 1209}, {30, 115, 1, 1209}, {31, 116, 4, 1209}, {32, 117, 6, 1209}, {33, 118, 4, 1209}, {34, 119, 1, 1209}, {20, 120, 1, 1210}, {21, 121, 4, 1210}, {22, 122, 4, 1210}, {23, 123, 6, 1210}, {24, 124, 12, 1210}, {25, 125, 6, 1210}, {26, 126, 4, 1210}, {27, 127, 12, 1210}, {28, 128, 12, 1210}, {29, 129, 4, 1210}, {30, 130, 1, 1210}, {31, 131, 4, 1210}, {32, 132, 6, 1210}, {33, 133, 4, 1210}, {34, 134, 1, 1210}, {20, 121, 1, 1211}, {21, 123, 4, 1211}, {22, 124, 4, 1211}, {23, 126, 6, 1211}, {24, 127, 12, 1211}, {25, 128, 6, 1211}, {26, 130, 4, 1211}, {27, 131, 12, 1211}, {28, 132, 12, 1211}, {29, 133, 4, 1211}, {30, 135, 1, 1211}, {31, 136, 4, 1211}, {32, 137, 6, 1211}, {33, 138, 4, 1211}, {34, 139, 1, 1211}, {20, 122, 1, 1212}, {21, 124, 4, 1212}, {22, 125, 4, 1212}, {23, 127, 6, 1212}, {24, 128, 12, 1212}, {25, 129, 6, 1212}, {26, 131, 4, 1212}, {27, 132, 12, 1212}, {28, 133, 12, 1212}, {29, 134, 4, 1212}, {30, 136, 1, 1212}, {31, 137, 4, 1212}, {32, 138, 6, 1212}, {33, 139, 4, 1212}, {34, 140, 1, 1212}, {20, 123, 1, 1213}, {21, 126, 4, 1213}, {22, 127, 4, 1213}, {23, 130, 6, 1213}, {24, 131, 12, 1213}, {25, 132, 6, 1213}, {26, 135, 4, 1213}, {27, 136, 12, 1213}, {28, 137, 12, 1213}, {29, 138, 4, 1213}, {30, 141, 1, 1213}, {31, 142, 4, 1213}, {32, 143, 6, 1213}, {33, 144, 4, 1213}, {34, 145, 1, 1213}, {20, 124, 1, 1214}, {21, 127, 4, 1214}, {22, 128, 4, 1214}, {23, 131, 6, 1214}, {24, 132, 12, 1214}, {25, 133, 6, 1214}, {26, 136, 4, 1214}, {27, 137, 12, 1214}, {28, 138, 12, 1214}, {29, 139, 4, 1214}, {30, 142, 1, 1214}, {31, 143, 4, 1214}, {32, 144, 6, 1214}, {33, 145, 4, 1214}, {34, 146, 1, 1214}, {20, 125, 1, 1215}, {21, 128, 4, 1215}, {22, 129, 4, 1215}, {23, 132, 6, 1215}, {24, 133, 12, 1215}, {25, 134, 6, 1215}, {26, 137, 4, 1215}, {27, 138, 12, 1215}, {28, 139, 12, 1215}, {29, 140, 4, 1215}, {30, 143, 1, 1215}, {31, 144, 4, 1215}, {32, 145, 6, 1215}, {33, 146, 4, 1215}, {34, 147, 1, 1215}, {20, 126, 1, 1216}, {21, 130, 4, 1216}, {22, 131, 4, 1216}, {23, 135, 6, 1216}, {24, 136, 12, 1216}, {25, 137, 6, 1216}, {26, 141, 4, 1216}, {27, 142, 12, 1216}, {28, 143, 12, 1216}, {29, 144, 4, 1216}, {30, 148, 1, 1216}, {31, 149, 4, 1216}, {32, 150, 6, 1216}, {33, 151, 4, 1216}, {34, 152, 1, 1216}, {20, 127, 1, 1217}, {21, 131, 4, 1217}, {22, 132, 4, 1217}, {23, 136, 6, 1217}, {24, 137, 12, 1217}, {25, 138, 6, 1217}, {26, 142, 4, 1217}, {27, 143, 12, 1217}, {28, 144, 12, 1217}, {29, 145, 4, 1217}, {30, 149, 1, 1217}, {31, 150, 4, 1217}, {32, 151, 6, 1217}, {33, 152, 4, 1217}, {34, 153, 1, 1217}, {20, 128, 1, 1218}, {21, 132, 4, 1218}, {22, 133, 4, 1218}, {23, 137, 6, 1218}, {24, 138, 12, 1218}, {25, 139, 6, 1218}, {26, 143, 4, 1218}, {27, 144, 12, 1218}, {28, 145, 12, 1218}, {29, 146, 4, 1218}, {30, 150, 1, 1218}, {31, 151, 4, 1218}, {32, 152, 6, 1218}, {33, 153, 4, 1218}, {34, 154, 1, 1218}, {20, 129, 1, 1219}, {21, 133, 4, 1219}, {22, 134, 4, 1219}, {23, 138, 6, 1219}, {24, 139, 12, 1219}, {25, 140, 6, 1219}, {26, 144, 4, 1219}, {27, 145, 12, 1219}, {28, 146, 12, 1219}, {29, 147, 4, 1219}, {30, 151, 1, 1219}, {31, 152, 4, 1219}, {32, 153, 6, 1219}, {33, 154, 4, 1219}, {34, 155, 1, 1219}, {20, 130, 1, 1220}, {21, 135, 4, 1220}, {22, 136, 4, 1220}, {23, 141, 6, 1220}, {24, 142, 12, 1220}, {25, 143, 6, 1220}, {26, 148, 4, 1220}, {27, 149, 12, 1220}, {28, 150, 12, 1220}, {29, 151, 4, 1220}, {30, 156, 1, 1220}, {31, 157, 4, 1220}, {32, 158, 6, 1220}, {33, 159, 4, 1220}, {34, 160, 1, 1220}, {20, 131, 1, 1221}, {21, 136, 4, 1221}, {22, 137, 4, 1221}, {23, 142, 6, 1221}, {24, 143, 12, 1221}, {25, 144, 6, 1221}, {26, 149, 4, 1221}, {27, 150, 12, 1221}, {28, 151, 12, 1221}, {29, 152, 4, 1221}, {30, 157, 1, 1221}, {31, 158, 4, 1221}, {32, 159, 6, 1221}, {33, 160, 4, 1221}, {34, 161, 1, 1221}, {20, 132, 1, 1222}, {21, 137, 4, 1222}, {22, 138, 4, 1222}, {23, 143, 6, 1222}, {24, 144, 12, 1222}, {25, 145, 6, 1222}, {26, 150, 4, 1222}, {27, 151, 12, 1222}, {28, 152, 12, 1222}, {29, 153, 4, 1222}, {30, 158, 1, 1222}, {31, 159, 4, 1222}, {32, 160, 6, 1222}, {33, 161, 4, 1222}, {34, 162, 1, 1222}, {20, 133, 1, 1223}, {21, 138, 4, 1223}, {22, 139, 4, 1223}, {23, 144, 6, 1223}, {24, 145, 12, 1223}, {25, 146, 6, 1223}, {26, 151, 4, 1223}, {27, 152, 12, 1223}, {28, 153, 12, 1223}, {29, 154, 4, 1223}, {30, 159, 1, 1223}, {31, 160, 4, 1223}, {32, 161, 6, 1223}, {33, 162, 4, 1223}, {34, 163, 1, 1223}, {20, 134, 1, 1224}, {21, 139, 4, 1224}, {22, 140, 4, 1224}, {23, 145, 6, 1224}, {24, 146, 12, 1224}, {25, 147, 6, 1224}, {26, 152, 4, 1224}, {27, 153, 12, 1224}, {28, 154, 12, 1224}, {29, 155, 4, 1224}, {30, 160, 1, 1224}, {31, 161, 4, 1224}, {32, 162, 6, 1224}, {33, 163, 4, 1224}, {34, 164, 1, 1224}, {35, 35, 1, 1225}, {36, 36, 2, 1225}, {37, 37, 2, 1225}, {38, 38, 1, 1225}, {39, 39, 2, 1225}, {40, 40, 1, 1225}, {35, 36, 1, 1226}, {36, 38, 2, 1226}, {37, 39, 2, 1226}, {38, 41, 1, 1226}, {39, 42, 2, 1226}, {40, 43, 1, 1226}, {35, 37, 1, 1227}, {36, 39, 2, 1227}, {37, 40, 2, 1227}, {38, 42, 1, 1227}, {39, 43, 2, 1227}, {40, 44, 1, 1227}, {35, 38, 1, 1228}, {36, 41, 2, 1228}, {37, 42, 2, 1228}, {38, 45, 1, 1228}, {39, 46, 2, 1228}, {40, 47, 1, 1228}, {35, 39, 1, 1229}, {36, 42, 2, 1229}, {37, 43, 2, 1229}, {38, 46, 1, 1229}, {39, 47, 2, 1229}, {40, 48, 1, 1229}, {35, 40, 1, 1230}, {36, 43, 2, 1230}, {37, 44, 2, 1230}, {38, 47, 1, 1230}, {39, 48, 2, 1230}, {40, 49, 1, 1230}, {35, 41, 1, 1231}, {36, 45, 2, 1231}, {37, 46, 2, 1231}, {38, 50, 1, 1231}, {39, 51, 2, 1231}, {40, 52, 1, 1231}, {35, 42, 1, 1232}, {36, 46, 2, 1232}, {37, 47, 2, 1232}, {38, 51, 1, 1232}, {39, 52, 2, 1232}, {40, 53, 1, 1232}, {35, 43, 1, 1233}, {36, 47, 2, 1233}, {37, 48, 2, 1233}, {38, 52, 1, 1233}, {39, 53, 2, 1233}, {40, 54, 1, 1233}, {35, 44, 1, 1234}, {36, 48, 2, 1234}, {37, 49, 2, 1234}, {38, 53, 1, 1234}, {39, 54, 2, 1234}, {40, 55, 1, 1234}, {36, 36, 1, 1235}, {38, 38, 2, 1235}, {39, 39, 2, 1235}, {41, 41, 1, 1235}, {42, 42, 2, 1235}, {43, 43, 1, 1235}, {36, 37, 1, 1236}, {38, 39, 2, 1236}, {39, 40, 2, 1236}, {41, 42, 1, 1236}, {42, 43, 2, 1236}, {43, 44, 1, 1236}, {36, 38, 1, 1237}, {38, 41, 2, 1237}, {39, 42, 2, 1237}, {41, 45, 1, 1237}, {42, 46, 2, 1237}, {43, 47, 1, 1237}, {36, 39, 1, 1238}, {38, 42, 2, 1238}, {39, 43, 2, 1238}, {41, 46, 1, 1238}, {42, 47, 2, 1238}, {43, 48, 1, 1238}, {36, 40, 1, 1239}, {38, 43, 2, 1239}, {39, 44, 2, 1239}, {41, 47, 1, 1239}, {42, 48, 2, 1239}, {43, 49, 1, 1239}, {36, 41, 1, 1240}, {38, 45, 2, 1240}, {39, 46, 2, 1240}, {41, 50, 1, 1240}, {42, 51, 2, 1240}, {43, 52, 1, 1240}, {36, 42, 1, 1241}, {38, 46, 2, 1241}, {39, 47, 2, 1241}, {41, 51, 1, 1241}, {42, 52, 2, 1241}, {43, 53, 1, 1241}, {36, 43, 1, 1242}, {38, 47, 2, 1242}, {39, 48, 2, 1242}, {41, 52, 1, 1242}, {42, 53, 2, 1242}, {43, 54, 1, 1242}, {36, 44, 1, 1243}, {38, 48, 2, 1243}, {39, 49, 2, 1243}, {41, 53, 1, 1243}, {42, 54, 2, 1243}, {43, 55, 1, 1243}, {37, 37, 1, 1244}, {39, 39, 2, 1244}, {40, 40, 2, 1244}, {42, 42, 1, 1244}, {43, 43, 2, 1244}, {44, 44, 1, 1244}, {37, 38, 1, 1245}, {39, 41, 2, 1245}, {40, 42, 2, 1245}, {42, 45, 1, 1245}, {43, 46, 2, 1245}, {44, 47, 1, 1245}, {37, 39, 1, 1246}, {39, 42, 2, 1246}, {40, 43, 2, 1246}, {42, 46, 1, 1246}, {43, 47, 2, 1246}, {44, 48, 1, 1246}, {37, 40, 1, 1247}, {39, 43, 2, 1247}, {40, 44, 2, 1247}, {42, 47, 1, 1247}, {43, 48, 2, 1247}, {44, 49, 1, 1247}, {37, 41, 1, 1248}, {39, 45, 2, 1248}, {40, 46, 2, 1248}, {42, 50, 1, 1248}, {43, 51, 2, 1248}, {44, 52, 1, 1248}, {37, 42, 1, 1249}, {39, 46, 2, 1249}, {40, 47, 2, 1249}, {42, 51, 1, 1249}, {43, 52, 2, 1249}, {44, 53, 1, 1249}, {37, 43, 1, 1250}, {39, 47, 2, 1250}, {40, 48, 2, 1250}, {42, 52, 1, 1250}, {43, 53, 2, 1250}, {44, 54, 1, 1250}, {37, 44, 1, 1251}, {39, 48, 2, 1251}, {40, 49, 2, 1251}, {42, 53, 1, 1251}, {43, 54, 2, 1251}, {44, 55, 1, 1251}, {38, 38, 1, 1252}, {41, 41, 2, 1252}, {42, 42, 2, 1252}, {45, 45, 1, 1252}, {46, 46, 2, 1252}, {47, 47, 1, 1252}, {38, 39, 1, 1253}, {41, 42, 2, 1253}, {42, 43, 2, 1253}, {45, 46, 1, 1253}, {46, 47, 2, 1253}, {47, 48, 1, 1253}, {38, 40, 1, 1254}, {41, 43, 2, 1254}, {42, 44, 2, 1254}, {45, 47, 1, 1254}, {46, 48, 2, 1254}, {47, 49, 1, 1254}, {38, 41, 1, 1255}, {41, 45, 2, 1255}, {42, 46, 2, 1255}, {45, 50, 1, 1255}, {46, 51, 2, 1255}, {47, 52, 1, 1255}, {38, 42, 1, 1256}, {41, 46, 2, 1256}, {42, 47, 2, 1256}, {45, 51, 1, 1256}, {46, 52, 2, 1256}, {47, 53, 1, 1256}, {38, 43, 1, 1257}, {41, 47, 2, 1257}, {42, 48, 2, 1257}, {45, 52, 1, 1257}, {46, 53, 2, 1257}, {47, 54, 1, 1257}, {38, 44, 1, 1258}, {41, 48, 2, 1258}, {42, 49, 2, 1258}, {45, 53, 1, 1258}, {46, 54, 2, 1258}, {47, 55, 1, 1258}, {39, 39, 1, 1259}, {42, 42, 2, 1259}, {43, 43, 2, 1259}, {46, 46, 1, 1259}, {47, 47, 2, 1259}, {48, 48, 1, 1259}, {39, 40, 1, 1260}, {42, 43, 2, 1260}, {43, 44, 2, 1260}, {46, 47, 1, 1260}, {47, 48, 2, 1260}, {48, 49, 1, 1260}, {39, 41, 1, 1261}, {42, 45, 2, 1261}, {43, 46, 2, 1261}, {46, 50, 1, 1261}, {47, 51, 2, 1261}, {48, 52, 1, 1261}, {39, 42, 1, 1262}, {42, 46, 2, 1262}, {43, 47, 2, 1262}, {46, 51, 1, 1262}, {47, 52, 2, 1262}, {48, 53, 1, 1262}, {39, 43, 1, 1263}, {42, 47, 2, 1263}, {43, 48, 2, 1263}, {46, 52, 1, 1263}, {47, 53, 2, 1263}, {48, 54, 1, 1263}, {39, 44, 1, 1264}, {42, 48, 2, 1264}, {43, 49, 2, 1264}, {46, 53, 1, 1264}, {47, 54, 2, 1264}, {48, 55, 1, 1264}, {40, 40, 1, 1265}, {43, 43, 2, 1265}, {44, 44, 2, 1265}, {47, 47, 1, 1265}, {48, 48, 2, 1265}, {49, 49, 1, 1265}, {40, 41, 1, 1266}, {43, 45, 2, 1266}, {44, 46, 2, 1266}, {47, 50, 1, 1266}, {48, 51, 2, 1266}, {49, 52, 1, 1266}, {40, 42, 1, 1267}, {43, 46, 2, 1267}, {44, 47, 2, 1267}, {47, 51, 1, 1267}, {48, 52, 2, 1267}, {49, 53, 1, 1267}, {40, 43, 1, 1268}, {43, 47, 2, 1268}, {44, 48, 2, 1268}, {47, 52, 1, 1268}, {48, 53, 2, 1268}, {49, 54, 1, 1268}, {40, 44, 1, 1269}, {43, 48, 2, 1269}, {44, 49, 2, 1269}, {47, 53, 1, 1269}, {48, 54, 2, 1269}, {49, 55, 1, 1269}, {41, 41, 1, 1270}, {45, 45, 2, 1270}, {46, 46, 2, 1270}, {50, 50, 1, 1270}, {51, 51, 2, 1270}, {52, 52, 1, 1270}, {41, 42, 1, 1271}, {45, 46, 2, 1271}, {46, 47, 2, 1271}, {50, 51, 1, 1271}, {51, 52, 2, 1271}, {52, 53, 1, 1271}, {41, 43, 1, 1272}, {45, 47, 2, 1272}, {46, 48, 2, 1272}, {50, 52, 1, 1272}, {51, 53, 2, 1272}, {52, 54, 1, 1272}, {41, 44, 1, 1273}, {45, 48, 2, 1273}, {46, 49, 2, 1273}, {50, 53, 1, 1273}, {51, 54, 2, 1273}, {52, 55, 1, 1273}, {42, 42, 1, 1274}, {46, 46, 2, 1274}, {47, 47, 2, 1274}, {51, 51, 1, 1274}, {52, 52, 2, 1274}, {53, 53, 1, 1274}, {42, 43, 1, 1275}, {46, 47, 2, 1275}, {47, 48, 2, 1275}, {51, 52, 1, 1275}, {52, 53, 2, 1275}, {53, 54, 1, 1275}, {42, 44, 1, 