<GAP_2019_5_14_-420_12_47_50_648>
<Potential init_args="IP GAP label=GAP_2019_5_14_-420_12_47_50_648" label="GAP_2019_5_14_-420_12_47_50_648" />
<GAP_params gap_version="1525123159" label="GAP_2019_5_14_-420_12_47_50_648">
  <GAP_data do_core="F">
    <e0 Z="1" value="-4.0400000000000000" />
    <e0 Z="2" value="-4.0400000000000000" />
    <e0 Z="3" value="-4.0400000000000000" />
    <e0 Z="4" value="-4.0400000000000000" />
    <e0 Z="5" value="-4.0400000000000000" />
    <e0 Z="6" value="-4.0400000000000000" />
    <e0 Z="7" value="-4.0400000000000000" />
    <e0 Z="8" value="-4.0400000000000000" />
    <e0 Z="9" value="-4.0400000000000000" />
    <e0 Z="10" value="-4.0400000000000000" />
    <e0 Z="11" value="-4.0400000000000000" />
    <e0 Z="12" value="-4.0400000000000000" />
    <e0 Z="13" value="-4.0400000000000000" />
    <e0 Z="14" value="-4.0400000000000000" />
    <e0 Z="15" value="-4.0400000000000000" />
    <e0 Z="16" value="-4.0400000000000000" />
    <e0 Z="17" value="-4.0400000000000000" />
    <e0 Z="18" value="-4.0400000000000000" />
    <e0 Z="19" value="-4.0400000000000000" />
    <e0 Z="20" value="-4.0400000000000000" />
    <e0 Z="21" value="-4.0400000000000000" />
    <e0 Z="22" value="-4.0400000000000000" />
    <e0 Z="23" value="-4.0400000000000000" />
    <e0 Z="24" value="-4.0400000000000000" />
    <e0 Z="25" value="-4.0400000000000000" />
    <e0 Z="26" value="-4.0400000000000000" />
    <e0 Z="27" value="-4.0400000000000000" />
    <e0 Z="28" value="-4.0400000000000000" />
    <e0 Z="29" value="-4.0400000000000000" />
    <e0 Z="30" value="-4.0400000000000000" />
    <e0 Z="31" value="-4.0400000000000000" />
    <e0 Z="32" value="-4.0400000000000000" />
    <e0 Z="33" value="-4.0400000000000000" />
    <e0 Z="34" value="-4.0400000000000000" />
    <e0 Z="35" value="-4.0400000000000000" />
    <e0 Z="36" value="-4.0400000000000000" />
    <e0 Z="37" value="-4.0400000000000000" />
    <e0 Z="38" value="-4.0400000000000000" />
    <e0 Z="39" value="-4.0400000000000000" />
    <e0 Z="40" value="-4.0400000000000000" />
    <e0 Z="41" value="-4.0400000000000000" />
    <e0 Z="42" value="-4.0400000000000000" />
    <e0 Z="43" value="-4.0400000000000000" />
    <e0 Z="44" value="-4.0400000000000000" />
    <e0 Z="45" value="-4.0400000000000000" />
    <e0 Z="46" value="-4.0400000000000000" />
    <e0 Z="47" value="-4.0400000000000000" />
    <e0 Z="48" value="-4.0400000000000000" />
    <e0 Z="49" value="-4.0400000000000000" />
    <e0 Z="50" value="-4.0400000000000000" />
    <e0 Z="51" value="-4.0400000000000000" />
    <e0 Z="52" value="-4.0400000000000000" />
    <e0 Z="53" value="-4.0400000000000000" />
    <e0 Z="54" value="-4.0400000000000000" />
    <e0 Z="55" value="-4.0400000000000000" />
    <e0 Z="56" value="-4.0400000000000000" />
    <e0 Z="57" value="-4.0400000000000000" />
    <e0 Z="58" value="-4.0400000000000000" />
    <e0 Z="59" value="-4.0400000000000000" />
    <e0 Z="60" value="-4.0400000000000000" />
    <e0 Z="61" value="-4.0400000000000000" />
    <e0 Z="62" value="-4.0400000000000000" />
    <e0 Z="63" value="-4.0400000000000000" />
    <e0 Z="64" value="-4.0400000000000000" />
    <e0 Z="65" value="-4.0400000000000000" />
    <e0 Z="66" value="-4.0400000000000000" />
    <e0 Z="67" value="-4.0400000000000000" />
    <e0 Z="68" value="-4.0400000000000000" />
    <e0 Z="69" value="-4.0400000000000000" />
    <e0 Z="70" value="-4.0400000000000000" />
    <e0 Z="71" value="-4.0400000000000000" />
    <e0 Z="72" value="-4.0400000000000000" />
    <e0 Z="73" value="-4.0400000000000000" />
    <e0 Z="74" value="-4.0400000000000000" />
    <e0 Z="75" value="-4.0400000000000000" />
    <e0 Z="76" value="-4.0400000000000000" />
    <e0 Z="77" value="-4.0400000000000000" />
    <e0 Z="78" value="-4.0400000000000000" />
    <e0 Z="79" value="-4.0400000000000000" />
    <e0 Z="80" value="-4.0400000000000000" />
    <e0 Z="81" value="-4.0400000000000000" />
    <e0 Z="82" value="-4.0400000000000000" />
    <e0 Z="83" value="-4.0400000000000000" />
    <e0 Z="84" value="-4.0400000000000000" />
    <e0 Z="85" value="-4.0400000000000000" />
    <e0 Z="86" value="-4.0400000000000000" />
    <e0 Z="87" value="-4.0400000000000000" />
    <e0 Z="88" value="-4.0400000000000000" />
    <e0 Z="89" value="-4.0400000000000000" />
    <e0 Z="90" value="-4.0400000000000000" />
    <e0 Z="91" value="-4.0400000000000000" />
    <e0 Z="92" value="-4.0400000000000000" />
    <e0 Z="93" value="-4.0400000000000000" />
    <e0 Z="94" value="-4.0400000000000000" />
    <e0 Z="95" value="-4.0400000000000000" />
    <e0 Z="96" value="-4.0400000000000000" />
    <e0 Z="97" value="-4.0400000000000000" />
    <e0 Z="98" value="-4.0400000000000000" />
    <e0 Z="99" value="-4.0400000000000000" />
    <e0 Z="100" value="-4.0400000000000000" />
    <e0 Z="101" value="-4.0400000000000000" />
    <e0 Z="102" value="-4.0400000000000000" />
    <e0 Z="103" value="-4.0400000000000000" />
    <e0 Z="104" value="-4.0400000000000000" />
    <e0 Z="105" value="-4.0400000000000000" />
    <e0 Z="106" value="-4.0400000000000000" />
    <e0 Z="107" value="-4.0400000000000000" />
    <e0 Z="108" value="-4.0400000000000000" />
    <e0 Z="109" value="-4.0400000000000000" />
    <e0 Z="110" value="-4.0400000000000000" />
    <e0 Z="111" value="-4.0400000000000000" />
    <e0 Z="112" value="-4.0400000000000000" />
    <e0 Z="113" value="-4.0400000000000000" />
    <e0 Z="114" value="-4.0400000000000000" />
    <e0 Z="115" value="-4.0400000000000000" />
    <e0 Z="116" value="-4.0400000000000000" />
  </GAP_data>
  <gpSparse label="GAP_2019_5_14_-420_12_47_50_648" n_coordinate="1">
    <gpCoordinates covariance_type="2" dimensions="325" label="GAP_2019_5_14_-420_12_47_50_6481" n_permutations="1" n_sparseX="2000" signal_mean=".00000000000000000E+000" signal_variance="1.0000000000000000" sparseX_filename="GAPotential.soapparam" sparsified="T" zeta="4.0000000000000000">
      <descriptor>soap l_max=8 n_max=8 atom_sigma=0.5 zeta=4 cutoff=5.2 cutoff_transition_width=0.5 delta=1.0 f0=0.0 n_sparse=2000 covariance_type=dot_product sparse_method=cur_points</descriptor>
      <permutation i="1">1  </permutation>
      <sparseX alpha="7318.4348303264833" i="1" sparseCutoff="1.0000000000000000" />
      <sparseX alpha="11513.685764166663" i="2" sparseCutoff="1.0000000000000000" />
      <sparseX alpha="10694.781366971525" i="3" sparseCutoff="1.0000000000000000" />
      <sparseX alpha="10911.502944702313" i="4" sparseCutoff="1.0000000000000000" />
      <sparseX alpha="14872.923560644651" i="5" sparseCutoff="1.0000000000000000" />
      <sparseX alpha="-11991.716142039679" i="6" sparseCutoff="1.0000000000000000" />
      <sparseX alpha="-5700.2281047872675" i="7" sparseCutoff="1.0000000000000000" />
      <sparseX alpha="6438.1637301483370" i="8" sparseCutoff="1.0000000000000000" />
      <sparseX alpha="-8725.9828980155835" i="9" sparseCutoff="1.0000000000000000" />
      <sparseX alpha="-37568.696652489620" i="10" sparseCutoff="1.0000000000000000" />
      <sparseX alpha="41217.080393381548" i="11" sparseCutoff="1.0000000000000000" />
      <sparseX alpha="11873.651936849141" i="12" sparseCutoff="1.0000000000000000" />
      <sparseX alpha="-2866.5759572499073" i="13" sparseCutoff="1.0000000000000000" />
      <sparseX alpha="-8397.9768001296052" i="14" sparseCutoff="1.0000000000000000" />
      <sparseX alpha="1379.2494566224011" i="15" sparseCutoff="1.0000000000000000" />
      <sparseX alpha="9939.3645030259540" i="16" sparseCutoff="1.0000000000000000" />
      <sparseX alpha="6706.8121712544544" i="17" sparseCutoff="1.0000000000000000" />
      <sparseX alpha="-8152.7692090146647" i="18" sparseCutoff="1.0000000000000000" />
      <sparseX alpha="-8923.0987093179647" i="19" sparseCutoff="1.0000000000000000" />
      <sparseX alpha="-4062.0957329178545" i="20" sparseCutoff="1.0000000000000000" />
      <sparseX alpha="-4822.2288721313635" i="21" sparseCutoff="1.0000000000000000" />
      <sparseX alpha="-29578.169277966506" i="22" sparseCutoff="1.0000000000000000" />
      <sparseX alpha="-20639.080154139006" i="23" sparseCutoff="1.0000000000000000" />
      <sparseX alpha="-7654.7885701152927" i="24" sparseCutoff="1.0000000000000000" />
      <sparseX alpha="-14886.912382400005" i="25" sparseCutoff="1.0000000000000000" />
      <sparseX alpha="-5787.0266582395425" i="26" sparseCutoff="1.0000000000000000" />
      <sparseX alpha="2023.6253053522439" i="27" sparseCutoff="1.0000000000000000" />
      <sparseX alpha="22107.119895185802" i="28" sparseCutoff="1.0000000000000000" />
      <sparseX alpha="12153.740021479745" i="29" sparseCutoff="1.0000000000000000" />
      <sparseX alpha="4890.2633336960689" i="30" sparseCutoff="1.0000000000000000" />
      <sparseX alpha="-14421.775782881694" i="31" sparseCutoff="1.0000000000000000" />
      <sparseX alpha="12559.141519780611" i="32" sparseCutoff="1.0000000000000000" />
      <sparseX alpha="18258.576365590008" i="33" sparseCutoff="1.0000000000000000" />
      <sparseX alpha="-5871.8006401847097" i="34" sparseCutoff="1.0000000000000000" />
      <sparseX alpha="-10155.142489149652" i="35" sparseCutoff="1.0000000000000000" />
      <sparseX alpha="-10296.187612190870" i="36" sparseCutoff="1.0000000000000000" />
      <sparseX alpha="3995.3470084053788" i="37" sparseCutoff="1.0000000000000000" />
      <sparseX alpha="1490.8058433596630" i="38" sparseCutoff="1.0000000000000000" />
      <sparseX alpha="-14536.322472951904" i="39" sparseCutoff="1.0000000000000000" />
      <sparseX alpha="-19775.530307734105" i="40" sparseCutoff="1.0000000000000000" />
      <sparseX alpha="-11162.700946130870" i="41" sparseCutoff="1.0000000000000000" />
      <sparseX alpha="-3608.2619708228540" i="42" sparseCutoff="1.0000000000000000" />
      <sparseX alpha="23134.429370426471" i="43" sparseCutoff="1.0000000000000000" />
      <sparseX alpha="17033.833784163540" i="44" sparseCutoff="1.0000000000000000" />
      <sparseX alpha="-5000.5101675452561" i="45" sparseCutoff="1.0000000000000000" />
      <sparseX alpha="15141.347881855536" i="46" sparseCutoff="1.0000000000000000" />
      <sparseX alpha="-3675.8528237940236" i="47" sparseCutoff="1.0000000000000000" />
      <sparseX alpha="8695.3756293747265" i="48" sparseCutoff="1.0000000000000000" />
      <sparseX alpha="17817.677702447807" i="49" sparseCutoff="1.0000000000000000" />
      <sparseX alpha="13953.443409145164" i="50" sparseCutoff="1.0000000000000000" />
      <sparseX alpha="8751.8101588854679" i="51" sparseCutoff="1.0000000000000000" />
      <sparseX alpha="4926.7635705664698" i="52" sparseCutoff="1.0000000000000000" />
      <sparseX alpha="19688.189861112663" i="53" sparseCutoff="1.0000000000000000" />
      <sparseX alpha="8449.5088116001298" i="54" sparseCutoff="1.0000000000000000" />
      <sparseX alpha="430.39040706697847" i="55" sparseCutoff="1.0000000000000000" />
      <sparseX alpha="-10077.212376450954" i="56" sparseCutoff="1.0000000000000000" />
      <sparseX alpha="3967.9206224072013" i="57" sparseCutoff="1.0000000000000000" />
      <sparseX alpha="1267.9022254868717" i="58" sparseCutoff="1.0000000000000000" />
      <sparseX alpha="-7249.4637697610842" i="59" sparseCutoff="1.0000000000000000" />
      <sparseX alpha="344.42767453344743" i="60" sparseCutoff="1.0000000000000000" />
      <sparseX alpha="2839.0001020746158" i="61" sparseCutoff="1.0000000000000000" />
      <sparseX alpha="-2965.3822033026941" i="62" sparseCutoff="1.0000000000000000" />
      <sparseX alpha="2471.5438550528074" i="63" sparseCutoff="1.0000000000000000" />
      <sparseX alpha="-4776.3904020231894" i="64" sparseCutoff="1.0000000000000000" />
      <sparseX alpha="578.38190038168682" i="65" sparseCutoff="1.0000000000000000" />
      <sparseX alpha="-6549.0771170399757" i="66" sparseCutoff="1.0000000000000000" />
      <sparseX alpha="1162.4100440236582" i="67" sparseCutoff="1.0000000000000000" />
      <sparseX alpha="-2792.1851251935336" i="68" sparseCutoff="1.0000000000000000" />
      <sparseX alpha="2366.5135691277387" i="69" sparseCutoff="1.0000000000000000" />
      <sparseX alpha="9101.7319631233149" i="70" sparseCutoff="1.0000000000000000" />
      <sparseX alpha="-1281.8414254019933" i="71" sparseCutoff="1.0000000000000000" />
      <sparseX alpha="-1819.4688723959252" i="72" sparseCutoff="1.0000000000000000" />
      <sparseX alpha="-2047.5129066559589" i="73" sparseCutoff="1.0000000000000000" />
      <sparseX alpha="217.75814111428997" i="74" sparseCutoff="1.0000000000000000" />
      <sparseX alpha="13369.425374523133" i="75" sparseCutoff="1.0000000000000000" />
      <sparseX alpha="665.01224980903521" i="76" sparseCutoff="1.0000000000000000" />
      <sparseX alpha="-9373.4718100113369" i="77" sparseCutoff="1.0000000000000000" />
      <sparseX alpha="5893.2240431255177" i="78" sparseCutoff="1.0000000000000000" />
      <sparseX alpha="4206.3789219821647" i="79" sparseCutoff="1.0000000000000000" />
      <sparseX alpha="-9838.5609631386596" i="80" sparseCutoff="1.0000000000000000" />
      <sparseX alpha="-4464.9308545895274" i="81" sparseCutoff="1.0000000000000000" />
      <sparseX alpha="-1351.7669765433197" i="82" sparseCutoff="1.0000000000000000" />
      <sparseX alpha="4511.5964159799760" i="83" sparseCutoff="1.0000000000000000" />
      <sparseX alpha="6116.6925071495089" i="84" sparseCutoff="1.0000000000000000" />
      <sparseX alpha="-539.23453591717032" i="85" sparseCutoff="1.0000000000000000" />
      <sparseX alpha="8082.6626241389877" i="86" sparseCutoff="1.0000000000000000" />
      <sparseX alpha="1644.1025608892855" i="87" sparseCutoff="1.0000000000000000" />
      <sparseX alpha="-829.93902573080641" i="88" sparseCutoff="1.0000000000000000" />
      <sparseX alpha="-6796.6073842598162" i="89" sparseCutoff="1.0000000000000000" />
      <sparseX alpha="-100.22401384343547" i="90" sparseCutoff="1.0000000000000000" />
      <sparseX alpha="1061.2777360781827" i="91" sparseCutoff="1.0000000000000000" />
      <sparseX alpha="720.67878407578962" i="92" sparseCutoff="1.0000000000000000" />
      <sparseX alpha="3751.4336002435416" i="93" sparseCutoff="1.0000000000000000" />
      <sparseX alpha="-6727.2986144798642" i="94" sparseCutoff="1.0000000000000000" />
      <sparseX alpha="4104.4324631715199" i="95" sparseCutoff="1.0000000000000000" />
      <sparseX alpha="891.01567399501357" i="96" sparseCutoff="1.0000000000000000" />
      <sparseX alpha="5589.4898657088888" i="97" sparseCutoff="1.0000000000000000" />
      <sparseX alpha="-2726.0635193678254" i="98" sparseCutoff="1.0000000000000000" />
      <sparseX alpha="-1030.4395992446227" i="99" sparseCutoff="1.0000000000000000" />
      <sparseX alpha="478.19135343986898" i="100" sparseCutoff="1.0000000000000000" />
      <sparseX alpha="485.39068257402965" i="101" sparseCutoff="1.0000000000000000" />
      <sparseX alpha="2625.4656609889803" i="102" sparseCutoff="1.0000000000000000" />
      <sparseX alpha="700.11892272793125" i="103" sparseCutoff="1.0000000000000000" />
      <sparseX alpha="6220.9616712870311" i="104" sparseCutoff="1.0000000000000000" />
      <sparseX alpha="-1897.0205392724995" i="105" sparseCutoff="1.0000000000000000" />
      <sparseX alpha="-2693.5380454758433" i="106" sparseCutoff="1.0000000000000000" />
      <sparseX alpha="942.18554574787493" i="107" sparseCutoff="1.0000000000000000" />
      <sparseX alpha="1625.9243251880348" i="108" sparseCutoff="1.0000000000000000" />
      <sparseX alpha="1455.2404823378188" i="109" sparseCutoff="1.0000000000000000" />
      <sparseX alpha="-6684.7170407396325" i="110" sparseCutoff="1.0000000000000000" />
      <sparseX alpha="-5499.4854283609420" i="111" sparseCutoff="1.0000000000000000" />
      <sparseX alpha="-1228.7003970599137" i="112" sparseCutoff="1.0000000000000000" />
      <sparseX alpha="2843.7424294926959" i="113" sparseCutoff="1.0000000000000000" />
      <sparseX alpha="-2084.6212452229415" i="114" sparseCutoff="1.0000000000000000" />
      <sparseX alpha="2975.8710684940174" i="115" sparseCutoff="1.0000000000000000" />
      <sparseX alpha="4739.1686456666603" i="116" sparseCutoff="1.0000000000000000" />
      <sparseX alpha="2395.2790983615914" i="117" sparseCutoff="1.0000000000000000" />
      <sparseX alpha="-3604.9590134736150" i="118" sparseCutoff="1.0000000000000000" />
      <sparseX alpha="-8591.9061829033926" i="119" sparseCutoff="1.0000000000000000" />
      <sparseX alpha="2882.5554083393881" i="120" sparseCutoff="1.0000000000000000" />
      <sparseX alpha="3137.1861717411443" i="121" sparseCutoff="1.0000000000000000" />
      <sparseX alpha="2808.7171832504391" i="122" sparseCutoff="1.0000000000000000" />
      <sparseX alpha="-4163.4916972215051" i="123" sparseCutoff="1.0000000000000000" />
      <sparseX alpha="-1005.9135286658541" i="124" sparseCutoff="1.0000000000000000" />
      <sparseX alpha="1554.6864483179190" i="125" sparseCutoff="1.0000000000000000" />
      <sparseX alpha="-5917.5156867357673" i="126" sparseCutoff="1.0000000000000000" />
      <sparseX alpha="-5723.7230462847983" i="127" sparseCutoff="1.0000000000000000" />
      <sparseX alpha="4957.0939249037319" i="128" sparseCutoff="1.0000000000000000" />
      <sparseX alpha="-4249.9236714549088" i="129" sparseCutoff="1.0000000000000000" />
      <sparseX alpha="-181.42522950255636" i="130" sparseCutoff="1.0000000000000000" />
      <sparseX alpha="3125.6750063000454" i="131" sparseCutoff="1.0000000000000000" />
      <sparseX alpha="6343.1551893899868" i="132" sparseCutoff="1.0000000000000000" />
      <sparseX alpha="-2366.2923084153267" i="133" sparseCutoff="1.0000000000000000" />
      <sparseX alpha="11601.143032329477" i="134" sparseCutoff="1.0000000000000000" />
      <sparseX alpha="2453.6159048278132" i="135" sparseCutoff="1.0000000000000000" />
      <sparseX alpha="4517.5989698232070" i="136" sparseCutoff="1.0000000000000000" />
      <sparseX alpha="-3631.6056313028844" i="137" sparseCutoff="1.0000000000000000" />
      <sparseX alpha="2644.6954782240605" i="138" sparseCutoff="1.0000000000000000" />
      <sparseX alpha="-3126.1558619450848" i="139" sparseCutoff="1.0000000000000000" />
      <sparseX alpha="3409.8752029152561" i="140" sparseCutoff="1.0000000000000000" />
      <sparseX alpha="-363.74577397250101" i="141" sparseCutoff="1.0000000000000000" />
      <sparseX alpha="1853.4412537673900" i="142" sparseCutoff="1.0000000000000000" />
      <sparseX alpha="-8812.6470773686797" i="143" sparseCutoff="1.0000000000000000" />
      <sparseX alpha="170.04585214756895" i="144" sparseCutoff="1.0000000000000000" />
      <sparseX alpha="-4040.3425489848451" i="145" sparseCutoff="1.0000000000000000" />
      <sparseX alpha="-6512.2651773340103" i="146" sparseCutoff="1.0000000000000000" />
      <sparseX alpha="2805.0069098479466" i="147" sparseCutoff="1.0000000000000000" />
      <sparseX alpha="1655.9980476786875" i="148" sparseCutoff="1.0000000000000000" />
      <sparseX alpha="-3025.2395713403798" i="149" sparseCutoff="1.0000000000000000" />
      <sparseX alpha="135.68183661223139" i="150" sparseCutoff="1.0000000000000000" />
      <sparseX alpha="2724.0630475482922" i="151" sparseCutoff="1.0000000000000000" />
      <sparseX alpha="-4518.2665852599475" i="152" sparseCutoff="1.0000000000000000" />
      <sparseX alpha="-3926.5267078893125" i="153" sparseCutoff="1.0000000000000000" />
      <sparseX alpha="1710.4931328219079" i="154" sparseCutoff="1.0000000000000000" />
      <sparseX alpha="-2637.5410235211857" i="155" sparseCutoff="1.0000000000000000" />
      <sparseX alpha="4517.2078201034510" i="156" sparseCutoff="1.0000000000000000" />
      <sparseX alpha="173.58089483338640" i="157" sparseCutoff="1.0000000000000000" />
      <sparseX alpha="-1363.5952072862024" i="158" sparseCutoff="1.0000000000000000" />
      <sparseX alpha="3130.8797019180533" i="159" sparseCutoff="1.0000000000000000" />
      <sparseX alpha="1904.0982841659222" i="160" sparseCutoff="1.0000000000000000" />
      <sparseX alpha="1319.4940107679024" i="161" sparseCutoff="1.0000000000000000" />
      <sparseX alpha="6260.0464764303742" i="162" sparseCutoff="1.0000000000000000" />
      <sparseX alpha="-667.08669038888763" i="163" sparseCutoff="1.0000000000000000" />
      <sparseX alpha="-5094.0785584078076" i="164" sparseCutoff="1.0000000000000000" />
      <sparseX alpha="-4259.5444445131989" i="165" sparseCutoff="1.0000000000000000" />
      <sparseX alpha="-3875.4786328435675" i="166" sparseCutoff="1.0000000000000000" />
      <sparseX alpha="-4052.1512478780305" i="167" sparseCutoff="1.0000000000000000" />
      <sparseX alpha="-3095.3564599876458" i="168" sparseCutoff="1.0000000000000000" />
      <sparseX alpha="-1507.6282966459310" i="169" sparseCutoff="1.0000000000000000" />
      <sparseX alpha="3205.4659538027659" i="170" sparseCutoff="1.0000000000000000" />
      <sparseX alpha="2179.3980269825906" i="171" sparseCutoff="1.0000000000000000" />
      <sparseX alpha="3667.8264980130807" i="172" sparseCutoff="1.0000000000000000" />
      <sparseX alpha="-190.07806433002474" i="173" sparseCutoff="1.0000000000000000" />
      <sparseX alpha="-6409.5488964204442" i="174" sparseCutoff="1.0000000000000000" />
      <sparseX alpha="473.09822137995667" i="175" sparseCutoff="1.0000000000000000" />
      <sparseX alpha="603.09499159981067" i="176" sparseCutoff="1.0000000000000000" />
      <sparseX alpha="-2182.9031453998277" i="177" sparseCutoff="1.0000000000000000" />
      <sparseX alpha="-946.18210616946669" i="178" sparseCutoff="1.0000000000000000" />
      <sparseX alpha="126.97418954199669" i="179" sparseCutoff="1.0000000000000000" />
      <sparseX alpha="2526.8987634740133" i="180" sparseCutoff="1.0000000000000000" />
      <sparseX alpha="8535.9253444720071" i="181" sparseCutoff="1.0000000000000000" />
      <sparseX alpha="7310.7989274895581" i="182" sparseCutoff="1.0000000000000000" />
      <sparseX alpha="-5741.8378250089836" i="183" sparseCutoff="1.0000000000000000" />
      <sparseX alpha="5899.7218954405225" i="184" sparseCutoff="1.0000000000000000" />
      <sparseX alpha="-5682.6527549304828" i="185" sparseCutoff="1.0000000000000000" />
      <sparseX alpha="-4026.1421806187846" i="186" sparseCutoff="1.0000000000000000" />
      <sparseX alpha="1424.9073717739943" i="187" sparseCutoff="1.0000000000000000" />
      <sparseX alpha="672.07844671795920" i="188" sparseCutoff="1.0000000000000000" />
      <sparseX alpha="1422.2307291095128" i="189" sparseCutoff="1.0000000000000000" />
      <sparseX alpha="-2754.8973972583385" i="190" sparseCutoff="1.0000000000000000" />
      <sparseX alpha="5160.1620082540367" i="191" sparseCutoff="1.0000000000000000" />
      <sparseX alpha="-9432.5979355937670" i="192" sparseCutoff="1.0000000000000000" />
      <sparseX alpha="-3107.1284492934010" i="193" sparseCutoff="1.0000000000000000" />
      <sparseX alpha="134.12947383944402" i="194" sparseCutoff="1.0000000000000000" />
      <sparseX alpha="-5530.7605926095066" i="195" sparseCutoff="1.0000000000000000" />
      <sparseX alpha="4266.2948932491890" i="196" sparseCutoff="1.0000000000000000" />
      <sparseX alpha="9399.9560369135925" i="197" sparseCutoff="1.0000000000000000" />
      <sparseX alpha="3419.2273950376434" i="198" sparseCutoff="1.0000000000000000" />
      <sparseX alpha="-1488.8504128379973" i="199" sparseCutoff="1.0000000000000000" />
      <sparseX alpha="3112.3872848977539" i="200" sparseCutoff="1.0000000000000000" />
      <sparseX alpha="2177.7485203555002" i="201" sparseCutoff="1.0000000000000000" />
      <sparseX alpha="1316.9477113295629" i="202" sparseCutoff="1.0000000000000000" />
      <sparseX alpha="-101.53604350382051" i="203" sparseCutoff="1.0000000000000000" />
      <sparseX alpha="2037.8644040581569" i="204" sparseCutoff="1.0000000000000000" />
      <sparseX alpha="-2137.1064336304780" i="205" sparseCutoff="1.0000000000000000" />
      <sparseX alpha="3878.1569852459115" i="206" sparseCutoff="1.0000000000000000" />
      <sparseX alpha="-6378.0143732063543" i="207" sparseCutoff="1.0000000000000000" />
      <sparseX alpha="-4021.8951077787651" i="208" sparseCutoff="1.0000000000000000" />
      <sparseX alpha="4377.2416071765610" i="209" sparseCutoff="1.0000000000000000" />
      <sparseX alpha="749.27663095990522" i="210" sparseCutoff="1.0000000000000000" />
      <sparseX alpha="4133.2766650543017" i="211" sparseCutoff="1.0000000000000000" />
      <sparseX alpha="-775.41144236618595" i="212" sparseCutoff="1.0000000000000000" />
      <sparseX alpha="-511.66516304310261" i="213" sparseCutoff="1.0000000000000000" />
      <sparseX alpha="5188.9074955922870" i="214" sparseCutoff="1.0000000000000000" />
      <sparseX alpha="-1314.1787610994675" i="215" sparseCutoff="1.0000000000000000" />
      <sparseX alpha="-5111.8064141932828" i="216" sparseCutoff="1.0000000000000000" />
      <sparseX alpha="-248.77839861047264" i="217" sparseCutoff="1.0000000000000000" />
      <sparseX alpha="-936.67991175465409" i="218" sparseCutoff="1.0000000000000000" />
      <sparseX alpha="-8162.8511960358801" i="219" sparseCutoff="1.0000000000000000" />
      <sparseX alpha="10317.626454722897" i="220" sparseCutoff="1.0000000000000000" />
      <sparseX alpha="6872.4384929403122" i="221" sparseCutoff="1.0000000000000000" />
      <sparseX alpha="-1871.4022368807812" i="222" sparseCutoff="1.0000000000000000" />
      <sparseX alpha="4091.6164550614894" i="223" sparseCutoff="1.0000000000000000" />
      <sparseX alpha="-5238.7681430882831" i="224" sparseCutoff="1.0000000000000000" />
      <sparseX alpha="-3669.1639989306595" i="225" sparseCutoff="1.0000000000000000" />
      <sparseX alpha="10863.155575853578" i="226" sparseCutoff="1.0000000000000000" />
      <sparseX alpha="-6000.1243822602719" i="227" sparseCutoff="1.0000000000000000" />
      <sparseX alpha="-14076.895618551589" i="228" sparseCutoff="1.0000000000000000" />
      <sparseX alpha="-9548.7511339444900" i="229" sparseCutoff="1.0000000000000000" />
      <sparseX alpha="-884.69438963466666" i="230" sparseCutoff="1.0000000000000000" />
      <sparseX alpha="-4316.2169337894838" i="231" sparseCutoff="1.0000000000000000" />
      <sparseX alpha="2385.9339903178366" i="232" sparseCutoff="1.0000000000000000" />
      <sparseX alpha="-3733.4644576092774" i="233" sparseCutoff="1.0000000000000000" />
      <sparseX alpha="281.52554030175702" i="234" sparseCutoff="1.0000000000000000" />
      <sparseX alpha="1489.5246341041743" i="235" sparseCutoff="1.0000000000000000" />
      <sparseX alpha="5684.2904052911053" i="236" sparseCutoff="1.0000000000000000" />
      <sparseX alpha="-3023.1830011868374" i="237" sparseCutoff="1.0000000000000000" />
      <sparseX alpha="-4819.8071135597656" i="238" sparseCutoff="1.0000000000000000" />
      <sparseX alpha="5950.7652535852530" i="239" sparseCutoff="1.0000000000000000" />
      <sparseX alpha="-6948.0437241696054" i="240" sparseCutoff="1.0000000000000000" />
      <sparseX alpha="-2766.5568826479189" i="241" sparseCutoff="1.0000000000000000" />
      <sparseX alpha="3474.8614231197334" i="242" sparseCutoff="1.0000000000000000" />
      <sparseX alpha="-6884.8861692133150" i="243" sparseCutoff="1.0000000000000000" />
      <sparseX alpha="-4663.7169628195588" i="244" sparseCutoff="1.0000000000000000" />
      <sparseX alpha="-8765.5032785406493" i="245" sparseCutoff="1.0000000000000000" />
      <sparseX alpha="-1612.4984394115193" i="246" sparseCutoff="1.0000000000000000" />
      <sparseX alpha="-53.105006437412264" i="247" sparseCutoff="1.0000000000000000" />
      <sparseX alpha="3058.6675621175827" i="248" sparseCutoff="1.0000000000000000" />
      <sparseX alpha="4037.5629306027354" i="249" sparseCutoff="1.0000000000000000" />
      <sparseX alpha="295.01444077640002" i="250" sparseCutoff="1.0000000000000000" />
      <sparseX alpha="3654.1141283422335" i="251" sparseCutoff="1.0000000000000000" />
      <sparseX alpha="-2977.8197391356653" i="252" sparseCutoff="1.0000000000000000" />
      <sparseX alpha="-1382.6373362279667" i="253" sparseCutoff="1.0000000000000000" />
      <sparseX alpha="2060.8525431167436" i="254" sparseCutoff="1.0000000000000000" />
      <sparseX alpha="-4410.4041723248329" i="255" sparseCutoff="1.0000000000000000" />
      <sparseX alpha="-7033.4062738794273" i="256" sparseCutoff="1.0000000000000000" />
      <sparseX alpha="466.68171287400179" i="257" sparseCutoff="1.0000000000000000" />
      <sparseX alpha="-1801.2608213001313" i="258" sparseCutoff="1.0000000000000000" />
      <sparseX alpha="-2159.1689223342769" i="259" sparseCutoff="1.0000000000000000" />
      <sparseX alpha="-5248.2413789105804" i="260" sparseCutoff="1.0000000000000000" />
      <sparseX alpha="-2326.5725577373332" i="261" sparseCutoff="1.0000000000000000" />
      <sparseX alpha="695.28612961819044" i="262" sparseCutoff="1.0000000000000000" />
      <sparseX alpha="179.03065061438076" i="263" sparseCutoff="1.0000000000000000" />
      <sparseX alpha="563.07145898417241" i="264" sparseCutoff="1.0000000000000000" />
      <sparseX alpha="-1032.8546131676876" i="265" sparseCutoff="1.0000000000000000" />
      <sparseX alpha="-3727.1172934387300" i="266" sparseCutoff="1.0000000000000000" />
      <sparseX alpha="1865.8202710967005" i="267" sparseCutoff="1.0000000000000000" />
      <sparseX alpha="-504.21587146254251" i="268" sparseCutoff="1.0000000000000000" />
      <sparseX alpha="-3774.6399682760493" i="269" sparseCutoff="1.0000000000000000" />
      <sparseX alpha="6974.0863070513333" i="270" sparseCutoff="1.0000000000000000" />
      <sparseX alpha="-2313.6898556467031" i="271" sparseCutoff="1.0000000000000000" />
      <sparseX alpha="5828.4038053764061" i="272" sparseCutoff="1.0000000000000000" />
      <sparseX alpha="1768.0244708372547" i="273" sparseCutoff="1.0000000000000000" />
      <sparseX alpha="-618.36129840401031" i="274" sparseCutoff="1.0000000000000000" />
      <sparseX alpha="-2562.5319518525921" i="275" sparseCutoff="1.0000000000000000" />
      <sparseX alpha="-2021.8482906637716" i="276" sparseCutoff="1.0000000000000000" />
      <sparseX alpha="637.02635623927461" i="277" sparseCutoff="1.0000000000000000" />
      <sparseX alpha="4174.0515977692776" i="278" sparseCutoff="1.0000000000000000" />
      <sparseX alpha="1009.2531038104220" i="279" sparseCutoff="1.0000000000000000" />
      <sparseX alpha="-2276.3482420367241" i="280" sparseCutoff="1.0000000000000000" />
      <sparseX alpha="1780.4707141945994" i="281" sparseCutoff="1.0000000000000000" />
      <sparseX alpha="377.64341539621188" i="282" sparseCutoff="1.0000000000000000" />
      <sparseX alpha="6090.6171556146155" i="283" sparseCutoff="1.0000000000000000" />
      <sparseX alpha="-538.11991689568288" i="284" sparseCutoff="1.0000000000000000" />
      <sparseX alpha="-10679.543365737052" i="285" sparseCutoff="1.0000000000000000" />
      <sparseX alpha="3974.7235068487162" i="286" sparseCutoff="1.0000000000000000" />
      <sparseX alpha="-1414.5882429118490" i="287" sparseCutoff="1.0000000000000000" />
      <sparseX alpha="1897.0651615552902" i="288" sparseCutoff="1.0000000000000000" />
      <sparseX alpha="2641.3580396203683" i="289" sparseCutoff="1.0000000000000000" />
      <sparseX alpha="-1191.1688460090652" i="290" sparseCutoff="1.0000000000000000" />
      <sparseX alpha="5866.0864562351480" i="291" sparseCutoff="1.0000000000000000" />
      <sparseX alpha="508.14755265881183" i="292" sparseCutoff="1.0000000000000000" />
      <sparseX alpha="-3661.8465003983774" i="293" sparseCutoff="1.0000000000000000" />
      <sparseX alpha="-5634.5983054389608" i="294" sparseCutoff="1.0000000000000000" />
      <sparseX alpha="4918.0765744648479" i="295" sparseCutoff="1.0000000000000000" />
      <sparseX alpha="-888.99722996398748" i="296" sparseCutoff="1.0000000000000000" />
      <sparseX alpha="-2659.3514475524853" i="297" sparseCutoff="1.0000000000000000" />
      <sparseX alpha="-3796.8429016865957" i="298" sparseCutoff="1.0000000000000000" />
      <sparseX alpha="2350.4917152183402" i="299" sparseCutoff="1.0000000000000000" />
      <sparseX alpha="-978.75909634596655" i="300" sparseCutoff="1.0000000000000000" />
      <sparseX alpha="8388.8801347180834" i="301" sparseCutoff="1.0000000000000000" />
      <sparseX alpha="-7631.2102600280869" i="302" sparseCutoff="1.0000000000000000" />
      <sparseX alpha="-1647.8564535428266" i="303" sparseCutoff="1.0000000000000000" />
      <sparseX alpha="3214.3759000666564" i="304" sparseCutoff="1.0000000000000000" />
      <sparseX alpha="2499.0877805452378" i="305" sparseCutoff="1.0000000000000000" />
      <sparseX alpha="-2837.6898021268207" i="306" sparseCutoff="1.0000000000000000" />
      <sparseX alpha="-8107.7300437608301" i="307" sparseCutoff="1.0000000000000000" />
      <sparseX alpha="-8506.1570889870090" i="308" sparseCutoff="1.0000000000000000" />
      <sparseX alpha="-2945.8789482634334" i="309" sparseCutoff="1.0000000000000000" />
      <sparseX alpha="1849.1527836529260" i="310" sparseCutoff="1.0000000000000000" />
      <sparseX alpha="1320.1914348938969" i="311" sparseCutoff="1.0000000000000000" />
      <sparseX alpha="-5656.5619441806921" i="312" sparseCutoff="1.0000000000000000" />
      <sparseX alpha="5987.3184191037735" i="313" sparseCutoff="1.0000000000000000" />
      <sparseX alpha="-2631.0828676855044" i="314" sparseCutoff="1.0000000000000000" />
      <sparseX alpha="3037.0801771216002" i="315" sparseCutoff="1.0000000000000000" />
      <sparseX alpha="2824.3485022594959" i="316" sparseCutoff="1.0000000000000000" />
      <sparseX alpha="783.02342256977352" i="317" sparseCutoff="1.0000000000000000" />
      <sparseX alpha="-698.43132703615561" i="318" sparseCutoff="1.0000000000000000" />
      <sparseX alpha="4493.5271029797850" i="319" sparseCutoff="1.0000000000000000" />
      <sparseX alpha="-740.03557473364492" i="320" sparseCutoff="1.0000000000000000" />
      <sparseX alpha="7067.8910970570914" i="321" sparseCutoff="1.0000000000000000" />
      <sparseX alpha="-3370.1495254377592" i="322" sparseCutoff="1.0000000000000000" />
      <sparseX alpha="739.93907724830206" i="323" sparseCutoff="1.0000000000000000" />
      <sparseX alpha="-1850.0129775729761" i="324" sparseCutoff="1.0000000000000000" />
      <sparseX alpha="-3134.1929538142758" i="325" sparseCutoff="1.0000000000000000" />
      <sparseX alpha="3241.1834620378386" i="326" sparseCutoff="1.0000000000000000" />
      <sparseX alpha="145.07262155773148" i="327" sparseCutoff="1.0000000000000000" />
      <sparseX alpha="13695.926245127723" i="328" sparseCutoff="1.0000000000000000" />
      <sparseX alpha="1809.4585365848059" i="329" sparseCutoff="1.0000000000000000" />
      <sparseX alpha="-2916.4693476222683" i="330" sparseCutoff="1.0000000000000000" />
      <sparseX alpha="-901.71798404473998" i="331" sparseCutoff="1.0000000000000000" />
      <sparseX alpha="-38.802967517536253" i="332" sparseCutoff="1.0000000000000000" />
      <sparseX alpha="-13625.636099441825" i="333" sparseCutoff="1.0000000000000000" />
      <sparseX alpha="4679.5176467788360" i="334" sparseCutoff="1.0000000000000000" />
      <sparseX alpha="2978.4457266616055" i="335" sparseCutoff="1.0000000000000000" />
      <sparseX alpha="-3018.3389294648277" i="336" sparseCutoff="1.0000000000000000" />
      <sparseX alpha="-7138.7251176433219" i="337" sparseCutoff="1.0000000000000000" />
      <sparseX alpha="-2054.7514388955228" i="338" sparseCutoff="1.0000000000000000" />
      <sparseX alpha="-7538.4625296409495" i="339" sparseCutoff="1.0000000000000000" />
      <sparseX alpha="-148.46359695929769" i="340" sparseCutoff="1.0000000000000000" />
      <sparseX alpha="-383.81733419939644" i="341" sparseCutoff="1.0000000000000000" />
      <sparseX alpha="-373.25973554891647" i="342" sparseCutoff="1.0000000000000000" />
      <sparseX alpha="2135.1269267884854" i="343" sparseCutoff="1.0000000000000000" />
      <sparseX alpha="-11979.680444512960" i="344" sparseCutoff="1.0000000000000000" />
      <sparseX alpha="1398.1005342353903" i="345" sparseCutoff="1.0000000000000000" />
      <sparseX alpha="-407.16038337399260" i="346" sparseCutoff="1.0000000000000000" />
      <sparseX alpha="4636.1274492217117" i="347" sparseCutoff="1.0000000000000000" />
      <sparseX alpha="1924.8704703129868" i="348" sparseCutoff="1.0000000000000000" />
      <sparseX alpha="-761.89004973035082" i="349" sparseCutoff="1.0000000000000000" />
      <sparseX alpha="2632.9620898499629" i="350" sparseCutoff="1.0000000000000000" />
      <sparseX alpha="2277.1465879694106" i="351" sparseCutoff="1.0000000000000000" />
      <sparseX alpha="-7379.4047801692386" i="352" sparseCutoff="1.0000000000000000" />
      <sparseX alpha="-9.7035304434429186" i="353" sparseCutoff="1.0000000000000000" />
      <sparseX alpha="5086.6788331996231" i="354" sparseCutoff="1.0000000000000000" />
      <sparseX alpha="6040.6673143067483" i="355" sparseCutoff="1.0000000000000000" />
      <sparseX alpha="1735.6398688872409" i="356" sparseCutoff="1.0000000000000000" />
      <sparseX alpha="801.82914925840930" i="357" sparseCutoff="1.0000000000000000" />
      <sparseX alpha="-3319.3235458789668" i="358" sparseCutoff="1.0000000000000000" />
      <sparseX alpha="1779.8152218835128" i="359" sparseCutoff="1.0000000000000000" />
      <sparseX alpha="4599.3716543571445" i="360" sparseCutoff="1.0000000000000000" />
      <sparseX alpha="-8699.7731763718130" i="361" sparseCutoff="1.0000000000000000" />
      <sparseX alpha="1527.3011875672994" i="362" sparseCutoff="1.0000000000000000" />
      <sparseX alpha="2339.8999193610284" i="363" sparseCutoff="1.0000000000000000" />
      <sparseX alpha="4764.9397467693771" i="364" sparseCutoff="1.0000000000000000" />
      <sparseX alpha="168.19342916134065" i="365" sparseCutoff="1.0000000000000000" />
      <sparseX alpha="2551.0583308521950" i="366" sparseCutoff="1.0000000000000000" />
      <sparseX alpha="3413.6893688089690" i="367" sparseCutoff="1.0000000000000000" />
      <sparseX alpha="-148.92460843530870" i="368" sparseCutoff="1.0000000000000000" />
      <sparseX alpha="-8496.1532618886358" i="369" sparseCutoff="1.0000000000000000" />
      <sparseX alpha="1564.8246462622039" i="370" sparseCutoff="1.0000000000000000" />
      <sparseX alpha="1058.3800191488383" i="371" sparseCutoff="1.0000000000000000" />
      <sparseX alpha="1882.9473788179805" i="372" sparseCutoff="1.0000000000000000" />
      <sparseX alpha="-3627.9874907203643" i="373" sparseCutoff="1.0000000000000000" />
      <sparseX alpha="-251.64839125386814" i="374" sparseCutoff="1.0000000000000000" />
      <sparseX alpha="-4862.9492774384144" i="375" sparseCutoff="1.0000000000000000" />
      <sparseX alpha="-670.30512844219857" i="376" sparseCutoff="1.0000000000000000" />
      <sparseX alpha="4096.3669730170432" i="377" sparseCutoff="1.0000000000000000" />
      <sparseX alpha="4739.3937076636948" i="378" sparseCutoff="1.0000000000000000" />
      <sparseX alpha="5824.2015239224693" i="379" sparseCutoff="1.0000000000000000" />
      <sparseX alpha="4051.9398349832682" i="380" sparseCutoff="1.0000000000000000" />
      <sparseX alpha="603.08563067191255" i="381" sparseCutoff="1.0000000000000000" />
      <sparseX alpha="-1468.9135081168743" i="382" sparseCutoff="1.0000000000000000" />
      <sparseX alpha="1378.8812140599912" i="383" sparseCutoff="1.0000000000000000" />
      <sparseX alpha="-4606.5892890069490" i="384" sparseCutoff="1.0000000000000000" />
      <sparseX alpha="-1352.3337991819881" i="385" sparseCutoff="1.0000000000000000" />
      <sparseX alpha="2960.9910574956702" i="386" sparseCutoff="1.0000000000000000" />
      <sparseX alpha="-3598.4172267074564" i="387" sparseCutoff="1.0000000000000000" />
      <sparseX alpha="2944.1506392166898" i="388" sparseCutoff="1.0000000000000000" />
      <sparseX alpha="-386.70635106190343" i="389" sparseCutoff="1.0000000000000000" />
      <sparseX alpha="-1655.2280519375352" i="390" sparseCutoff="1.0000000000000000" />
      <sparseX alpha="-7001.2245165720260" i="391" sparseCutoff="1.0000000000000000" />
      <sparseX alpha="9140.0668848193600" i="392" sparseCutoff="1.0000000000000000" />
      <sparseX alpha="-345.66131707255977" i="393" sparseCutoff="1.0000000000000000" />
      <sparseX alpha="-9315.1643796361586" i="394" sparseCutoff="1.0000000000000000" />
      <sparseX alpha="3038.3132890269844" i="395" sparseCutoff="1.0000000000000000" />
      <sparseX alpha="3979.8677549864242" i="396" sparseCutoff="1.0000000000000000" />
      <sparseX alpha="-5098.7172536229973" i="397" sparseCutoff="1.0000000000000000" />
      <sparseX alpha="258.61305299930638" i="398" sparseCutoff="1.0000000000000000" />
      <sparseX alpha="-5358.2112239513917" i="399" sparseCutoff="1.0000000000000000" />
      <sparseX alpha="2392.1561248494127" i="400" sparseCutoff="1.0000000000000000" />
      <sparseX alpha="-1974.1992464589894" i="401" sparseCutoff="1.0000000000000000" />
      <sparseX alpha="-4372.1401565409742" i="402" sparseCutoff="1.0000000000000000" />
      <sparseX alpha="-449.14658965362190" i="403" sparseCutoff="1.0000000000000000" />
      <sparseX alpha="-1065.9273750068776" i="404" sparseCutoff="1.0000000000000000" />
      <sparseX alpha="-179.11998670393555" i="405" sparseCutoff="1.0000000000000000" />
      <sparseX alpha="1733.5446313319983" i="406" sparseCutoff="1.0000000000000000" />
      <sparseX alpha="1944.1146779867001" i="407" sparseCutoff="1.0000000000000000" />
      <sparseX alpha="8254.6491071976816" i="408" sparseCutoff="1.0000000000000000" />
      <sparseX alpha="208.88592045719668" i="409" sparseCutoff="1.0000000000000000" />
      <sparseX alpha="6942.8237139180555" i="410" sparseCutoff="1.0000000000000000" />
      <sparseX alpha="2788.3464607565033" i="411" sparseCutoff="1.0000000000000000" />
      <sparseX alpha="525.92305377540276" i="412" sparseCutoff="1.0000000000000000" />
      <sparseX alpha="2889.4990845208081" i="413" sparseCutoff="1.0000000000000000" />
      <sparseX alpha="-261.90030800302759" i="414" sparseCutoff="1.0000000000000000" />
      <sparseX alpha="-1429.5090660236426" i="415" sparseCutoff="1.0000000000000000" />
      <sparseX alpha="-882.17020723248959" i="416" sparseCutoff="1.0000000000000000" />
      <sparseX alpha="5033.0928588258912" i="417" sparseCutoff="1.0000000000000000" />
      <sparseX alpha="631.55501436629356" i="418" sparseCutoff="1.0000000000000000" />
      <sparseX alpha="273.14469141430982" i="419" sparseCutoff="1.0000000000000000" />
      <sparseX alpha="1994.9701742921072" i="420" sparseCutoff="1.0000000000000000" />
      <sparseX alpha="-2691.5213481033566" i="421" sparseCutoff="1.0000000000000000" />
      <sparseX alpha="-929.67937812643765" i="422" sparseCutoff="1.0000000000000000" />
      <sparseX alpha="1799.5972292430131" i="423" sparseCutoff="1.0000000000000000" />
      <sparseX alpha="1382.5728970576454" i="424" sparseCutoff="1.0000000000000000" />
      <sparseX alpha="417.71463545027842" i="425" sparseCutoff="1.0000000000000000" />
      <sparseX alpha="1175.4845692015172" i="426" sparseCutoff="1.0000000000000000" />
      <sparseX alpha="-2237.0884314560476" i="427" sparseCutoff="1.0000000000000000" />
      <sparseX alpha="2178.6861973986865" i="428" sparseCutoff="1.0000000000000000" />
      <sparseX alpha="-358.36163717457634" i="429" sparseCutoff="1.0000000000000000" />
      <sparseX alpha="-190.70978609416821" i="430" sparseCutoff="1.0000000000000000" />
      <sparseX alpha="-934.93330837045846" i="431" sparseCutoff="1.0000000000000000" />
      <sparseX alpha="-908.05958123961113" i="432" sparseCutoff="1.0000000000000000" />
      <sparseX alpha="117.54063745281998" i="433" sparseCutoff="1.0000000000000000" />
      <sparseX alpha="-3508.3881586994466" i="434" sparseCutoff="1.0000000000000000" />
      <sparseX alpha="3036.4076382839621" i="435" sparseCutoff="1.0000000000000000" />
      <sparseX alpha="-2790.0465117084677" i="436" sparseCutoff="1.0000000000000000" />
      <sparseX alpha="688.66333581728964" i="437" sparseCutoff="1.0000000000000000" />
      <sparseX alpha="901.53170564071490" i="438" sparseCutoff="1.0000000000000000" />
      <sparseX alpha="1823.2108636142239" i="439" sparseCutoff="1.0000000000000000" />
      <sparseX alpha="-2508.5123935554980" i="440" sparseCutoff="1.0000000000000000" />
      <sparseX alpha="5633.7247446103547" i="441" sparseCutoff="1.0000000000000000" />
      <sparseX alpha="783.01628056484572" i="442" sparseCutoff="1.0000000000000000" />
      <sparseX alpha="-31.292852667200833" i="443" sparseCutoff="1.0000000000000000" />
      <sparseX alpha="-1001.1857564219582" i="444" sparseCutoff="1.0000000000000000" />
      <sparseX alpha="4154.1571091163214" i="445" sparseCutoff="1.0000000000000000" />
      <sparseX alpha="1504.6187017003426" i="446" sparseCutoff="1.0000000000000000" />
      <sparseX alpha="2056.4405145787332" i="447" sparseCutoff="1.0000000000000000" />
      <sparseX alpha="1116.6928222763395" i="448" sparseCutoff="1.0000000000000000" />
      <sparseX alpha="-129.82730229124519" i="449" sparseCutoff="1.0000000000000000" />
      <sparseX alpha="515.43623375046491" i="450" sparseCutoff="1.0000000000000000" />
      <sparseX alpha="-2430.5080694170315" i="451" sparseCutoff="1.0000000000000000" />
      <sparseX alpha="-940.40052502036588" i="452" sparseCutoff="1.0000000000000000" />
      <sparseX alpha="-1373.7715136225131" i="453" sparseCutoff="1.0000000000000000" />
      <sparseX alpha="1731.2192259414285" i="454" sparseCutoff="1.0000000000000000" />
      <sparseX alpha="-972.38238504159460" i="455" sparseCutoff="1.0000000000000000" />
      <sparseX alpha="2470.1084174275602" i="456" sparseCutoff="1.0000000000000000" />
      <sparseX alpha="-956.68439998434678" i="457" sparseCutoff="1.0000000000000000" />
      <sparseX alpha="-504.27928573657795" i="458" sparseCutoff="1.0000000000000000" />
      <sparseX alpha="1807.5893836391226" i="459" sparseCutoff="1.0000000000000000" />
      <sparseX alpha="256.32409737370108" i="460" sparseCutoff="1.0000000000000000" />
      <sparseX alpha="-1711.2503002245312" i="461" sparseCutoff="1.0000000000000000" />
      <sparseX alpha="-1588.1569705330910" i="462" sparseCutoff="1.0000000000000000" />
      <sparseX alpha="-2355.9666659711238" i="463" sparseCutoff="1.0000000000000000" />
      <sparseX alpha="-460.17603580688257" i="464" sparseCutoff="1.0000000000000000" />
      <sparseX alpha="-1747.0630761782957" i="465" sparseCutoff="1.0000000000000000" />
      <sparseX alpha="640.66981995894673" i="466" sparseCutoff="1.0000000000000000" />
      <sparseX alpha="257.04719105079965" i="467" sparseCutoff="1.0000000000000000" />
      <sparseX alpha="2584.9651234695716" i="468" sparseCutoff="1.0000000000000000" />
      <sparseX alpha="1432.9794203521619" i="469" sparseCutoff="1.0000000000000000" />
      <sparseX alpha="-424.37561612012252" i="470" sparseCutoff="1.0000000000000000" />
      <sparseX alpha="-1644.8041117310222" i="471" sparseCutoff="1.0000000000000000" />
      <sparseX alpha="-1444.4538132550447" i="472" sparseCutoff="1.0000000000000000" />
      <sparseX alpha="-239.98110282873873" i="473" sparseCutoff="1.0000000000000000" />
      <sparseX alpha="-416.04085383366635" i="474" sparseCutoff="1.0000000000000000" />
      <sparseX alpha="-1200.3125177772863" i="475" sparseCutoff="1.0000000000000000" />
      <sparseX alpha="1839.4333902194612" i="476" sparseCutoff="1.0000000000000000" />
      <sparseX alpha="-937.47650669461939" i="477" sparseCutoff="1.0000000000000000" />
      <sparseX alpha="1826.0690919158053" i="478" sparseCutoff="1.0000000000000000" />
      <sparseX alpha="1472.4236529070615" i="479" sparseCutoff="1.0000000000000000" />
      <sparseX alpha="1462.1040055788669" i="480" sparseCutoff="1.0000000000000000" />
      <sparseX alpha="93.303560264845586" i="481" sparseCutoff="1.0000000000000000" />
      <sparseX alpha="-118.60537994211022" i="482" sparseCutoff="1.0000000000000000" />
      <sparseX alpha="-1012.0103239744966" i="483" sparseCutoff="1.0000000000000000" />
      <sparseX alpha="657.78978593401689" i="484" sparseCutoff="1.0000000000000000" />
      <sparseX alpha="-404.53287323118411" i="485" sparseCutoff="1.0000000000000000" />
      <sparseX alpha="-876.10358979324076" i="486" sparseCutoff="1.0000000000000000" />
      <sparseX alpha="1700.5301764530461" i="487" sparseCutoff="1.0000000000000000" />
      <sparseX alpha="-2835.0621169866777" i="488" sparseCutoff="1.0000000000000000" />
      <sparseX alpha="282.55791099389114" i="489" sparseCutoff="1.0000000000000000" />
      <sparseX alpha="26.896311852114781" i="490" sparseCutoff="1.0000000000000000" />
      <sparseX alpha="-398.85211576634447" i="491" sparseCutoff="1.0000000000000000" />
      <sparseX alpha="838.13911463926581" i="492" sparseCutoff="1.0000000000000000" />
      <sparseX alpha="266.76318364950578" i="493" sparseCutoff="1.0000000000000000" />
      <sparseX alpha="-260.75598473100081" i="494" sparseCutoff="1.0000000000000000" />
      <sparseX alpha="806.68559270683841" i="495" sparseCutoff="1.0000000000000000" />
      <sparseX alpha="-2176.3923204759453" i="496" sparseCutoff="1.0000000000000000" />
      <sparseX alpha="-471.35931594015494" i="497" sparseCutoff="1.0000000000000000" />
      <sparseX alpha="1309.9863729095084" i="498" sparseCutoff="1.0000000000000000" />
      <sparseX alpha="1612.1098321604190" i="499" sparseCutoff="1.0000000000000000" />
      <sparseX alpha="-1186.4963369665406" i="500" sparseCutoff="1.0000000000000000" />
      <sparseX alpha="1893.0656331774662" i="501" sparseCutoff="1.0000000000000000" />
      <sparseX alpha="1508.5169719249727" i="502" sparseCutoff="1.0000000000000000" />
      <sparseX alpha="-546.54520768169220" i="503" sparseCutoff="1.0000000000000000" />
      <sparseX alpha="-445.04062271656551" i="504" sparseCutoff="1.0000000000000000" />
      <sparseX alpha="-1014.4199903514901" i="505" sparseCutoff="1.0000000000000000" />
      <sparseX alpha="-3269.1454388747243" i="506" sparseCutoff="1.0000000000000000" />
      <sparseX alpha="2031.7693866335601" i="507" sparseCutoff="1.0000000000000000" />
      <sparseX alpha="14.181379278767050" i="508" sparseCutoff="1.0000000000000000" />
      <sparseX alpha="-296.70499039453961" i="509" sparseCutoff="1.0000000000000000" />
      <sparseX alpha="2371.3478823596051" i="510" sparseCutoff="1.0000000000000000" />
      <sparseX alpha="495.19783134130961" i="511" sparseCutoff="1.0000000000000000" />
      <sparseX alpha="-96.695719387564168" i="512" sparseCutoff="1.0000000000000000" />
      <sparseX alpha="-2579.7719045517356" i="513" sparseCutoff="1.0000000000000000" />
      <sparseX alpha="-2072.9866866081911" i="514" sparseCutoff="1.0000000000000000" />
      <sparseX alpha="866.33521530813414" i="515" sparseCutoff="1.0000000000000000" />
      <sparseX alpha="787.32238488665757" i="516" sparseCutoff="1.0000000000000000" />
      <sparseX alpha="1150.3169727554441" i="517" sparseCutoff="1.0000000000000000" />
      <sparseX alpha="-1414.2722212516094" i="518" sparseCutoff="1.0000000000000000" />
      <sparseX alpha="-1227.8278309500238" i="519" sparseCutoff="1.0000000000000000" />
      <sparseX alpha="1080.1334792237312" i="520" sparseCutoff="1.0000000000000000" />
      <sparseX alpha="-594.08641686618785" i="521" sparseCutoff="1.0000000000000000" />
      <sparseX alpha="506.38822043376558" i="522" sparseCutoff="1.0000000000000000" />
      <sparseX alpha="728.94733587335531" i="523" sparseCutoff="1.0000000000000000" />
      <sparseX alpha="-84.500713748871561" i="524" sparseCutoff="1.0000000000000000" />
      <sparseX alpha="577.36076523403085" i="525" sparseCutoff="1.0000000000000000" />
      <sparseX alpha="707.41026039373685" i="526" sparseCutoff="1.0000000000000000" />
      <sparseX alpha="-1147.5632995508213" i="527" sparseCutoff="1.0000000000000000" />
      <sparseX alpha="-2249.9919010721387" i="528" sparseCutoff="1.0000000000000000" />
      <sparseX alpha="-1794.9901129493576" i="529" sparseCutoff="1.0000000000000000" />
      <sparseX alpha="-58.781769085836153" i="530" sparseCutoff="1.0000000000000000" />
      <sparseX alpha="1441.6446968389182" i="531" sparseCutoff="1.0000000000000000" />
      <sparseX alpha="208.17500100456516" i="532" sparseCutoff="1.0000000000000000" />
      <sparseX alpha="-1305.0092328433111" i="533" sparseCutoff="1.0000000000000000" />
      <sparseX alpha="1020.9379112534575" i="534" sparseCutoff="1.0000000000000000" />
      <sparseX alpha="710.87899465791065" i="535" sparseCutoff="1.0000000000000000" />
      <sparseX alpha="1336.2303475046519" i="536" sparseCutoff="1.0000000000000000" />
      <sparseX alpha="1397.4760508111747" i="537" sparseCutoff="1.0000000000000000" />
      <sparseX alpha="117.33794599071372" i="538" sparseCutoff="1.0000000000000000" />
      <sparseX alpha="-1546.0010519698221" i="539" sparseCutoff="1.0000000000000000" />
      <sparseX alpha="492.69894385907202" i="540" sparseCutoff="1.0000000000000000" />
      <sparseX alpha="1056.8055218359041" i="541" sparseCutoff="1.0000000000000000" />
      <sparseX alpha="-2135.8432653190171" i="542" sparseCutoff="1.0000000000000000" />
      <sparseX alpha="1713.9432540932387" i="543" sparseCutoff="1.0000000000000000" />
      <sparseX alpha="-1099.2192299211442" i="544" sparseCutoff="1.0000000000000000" />
      <sparseX alpha="-69.758413948908313" i="545" sparseCutoff="1.0000000000000000" />
      <sparseX alpha="2400.2877592684636" i="546" sparseCutoff="1.0000000000000000" />
      <sparseX alpha="-157.87154689085438" i="547" sparseCutoff="1.0000000000000000" />
      <sparseX alpha="194.95876986787636" i="548" sparseCutoff="1.0000000000000000" />
      <sparseX alpha="-744.79981481029392" i="549" sparseCutoff="1.0000000000000000" />
      <sparseX alpha="-289.42722118277123" i="550" sparseCutoff="1.0000000000000000" />
      <sparseX alpha="211.40214517082785" i="551" sparseCutoff="1.0000000000000000" />
      <sparseX alpha="1285.0783285240689" i="552" sparseCutoff="1.0000000000000000" />
      <sparseX alpha="-3093.7807386369423" i="553" sparseCutoff="1.0000000000000000" />
      <sparseX alpha="221.19006854822888" i="554" sparseCutoff="1.0000000000000000" />
      <sparseX alpha="636.88527141014185" i="555" sparseCutoff="1.0000000000000000" />
      <sparseX alpha="190.96937055614347" i="556" sparseCutoff="1.0000000000000000" />
      <sparseX alpha="1749.4811645032898" i="557" sparseCutoff="1.0000000000000000" />
      <sparseX alpha="-342.73970015979501" i="558" sparseCutoff="1.0000000000000000" />
      <sparseX alpha="341.16707051681743" i="559" sparseCutoff="1.0000000000000000" />
      <sparseX alpha="-808.21122662231858" i="560" sparseCutoff="1.0000000000000000" />
      <sparseX alpha="-1138.0851907899807" i="561" sparseCutoff="1.0000000000000000" />
      <sparseX alpha="-437.94959291816389" i="562" sparseCutoff="1.0000000000000000" />
      <sparseX alpha="826.33694260592847" i="563" sparseCutoff="1.0000000000000000" />
      <sparseX alpha="614.27492528605353" i="564" sparseCutoff="1.0000000000000000" />
      <sparseX alpha="1377.1872951919361" i="565" sparseCutoff="1.0000000000000000" />
      <sparseX alpha="-537.73689157963076" i="566" sparseCutoff="1.0000000000000000" />
      <sparseX alpha="-393.90508941439788" i="567" sparseCutoff="1.0000000000000000" />
      <sparseX alpha="-1420.5675892942850" i="568" sparseCutoff="1.0000000000000000" />
      <sparseX alpha="780.24429583231472" i="569" sparseCutoff="1.0000000000000000" />
      <sparseX alpha="22.367760854939370" i="570" sparseCutoff="1.0000000000000000" />
      <sparseX alpha="29.806123083013507" i="571" sparseCutoff="1.0000000000000000" />
      <sparseX alpha="-500.84499471311779" i="572" sparseCutoff="1.0000000000000000" />
      <sparseX alpha="959.60786045971008" i="573" sparseCutoff="1.0000000000000000" />
      <sparseX alpha="-1064.8183288639843" i="574" sparseCutoff="1.0000000000000000" />
      <sparseX alpha="-945.89223078306679" i="575" sparseCutoff="1.0000000000000000" />
      <sparseX alpha="1076.2194498706176" i="576" sparseCutoff="1.0000000000000000" />
      <sparseX alpha="710.90070835321194" i="577" sparseCutoff="1.0000000000000000" />
      <sparseX alpha="183.33148102163642" i="578" sparseCutoff="1.0000000000000000" />
      <sparseX alpha="-1182.4189471393458" i="579" sparseCutoff="1.0000000000000000" />
      <sparseX alpha="-1138.0304362254585" i="580" sparseCutoff="1.0000000000000000" />
      <sparseX alpha="-2084.7113927406922" i="581" sparseCutoff="1.0000000000000000" />
      <sparseX alpha="917.74935787538368" i="582" sparseCutoff="1.0000000000000000" />
      <sparseX alpha="263.75043279328077" i="583" sparseCutoff="1.0000000000000000" />
      <sparseX alpha="1413.9931872148752" i="584" sparseCutoff="1.0000000000000000" />
      <sparseX alpha="2011.1597880618378" i="585" sparseCutoff="1.0000000000000000" />
      <sparseX alpha="1002.8432093466494" i="586" sparseCutoff="1.0000000000000000" />
      <sparseX alpha="1495.8070828300140" i="587" sparseCutoff="1.0000000000000000" />
      <sparseX alpha="526.00920371557731" i="588" sparseCutoff="1.0000000000000000" />
      <sparseX alpha="-728.38566954526959" i="589" sparseCutoff="1.0000000000000000" />
      <sparseX alpha="2348.3555885324395" i="590" sparseCutoff="1.0000000000000000" />
      <sparseX alpha="957.95904225342349" i="591" sparseCutoff="1.0000000000000000" />
      <sparseX alpha="666.90954378720562" i="592" sparseCutoff="1.0000000000000000" />
      <sparseX alpha="171.30658998766367" i="593" sparseCutoff="1.0000000000000000" />
      <sparseX alpha="-502.42807118196345" i="594" sparseCutoff="1.0000000000000000" />
      <sparseX alpha="-964.39196033655583" i="595" sparseCutoff="1.0000000000000000" />
      <sparseX alpha="1874.9785443865262" i="596" sparseCutoff="1.0000000000000000" />
      <sparseX alpha="669.84534101431143" i="597" sparseCutoff="1.0000000000000000" />
      <sparseX alpha="-356.44285533737258" i="598" sparseCutoff="1.0000000000000000" />
      <sparseX alpha="294.56986411027106" i="599" sparseCutoff="1.0000000000000000" />
      <sparseX alpha="1080.5124928312564" i="600" sparseCutoff="1.0000000000000000" />
      <sparseX alpha="-1542.5831375374494" i="601" sparseCutoff="1.0000000000000000" />
      <sparseX alpha="-1782.6486614807238" i="602" sparseCutoff="1.0000000000000000" />
      <sparseX alpha="-215.69718900015724" i="603" sparseCutoff="1.0000000000000000" />
      <sparseX alpha="2013.7013418799879" i="604" sparseCutoff="1.0000000000000000" />
      <sparseX alpha="156.54614992472096" i="605" sparseCutoff="1.0000000000000000" />
      <sparseX alpha="1616.2485908280958" i="606" sparseCutoff="1.0000000000000000" />
      <sparseX alpha="-2837.6632761800297" i="607" sparseCutoff="1.0000000000000000" />
      <sparseX alpha="247.20257628988003" i="608" sparseCutoff="1.0000000000000000" />
      <sparseX alpha="1931.4659986552631" i="609" sparseCutoff="1.0000000000000000" />
      <sparseX alpha="-1287.1401979661944" i="610" sparseCutoff="1.0000000000000000" />
      <sparseX alpha="-688.06549141948267" i="611" sparseCutoff="1.0000000000000000" />
      <sparseX alpha="-2962.1988030727093" i="612" sparseCutoff="1.0000000000000000" />
      <sparseX alpha="-3027.4716082980099" i="613" sparseCutoff="1.0000000000000000" />
      <sparseX alpha="5061.5007168526672" i="614" sparseCutoff="1.0000000000000000" />
      <sparseX alpha="-280.47886734950771" i="615" sparseCutoff="1.0000000000000000" />
      <sparseX alpha="232.37853768669297" i="616" sparseCutoff="1.0000000000000000" />
      <sparseX alpha="435.46347083790425" i="617" sparseCutoff="1.0000000000000000" />
      <sparseX alpha="-985.50559366448897" i="618" sparseCutoff="1.0000000000000000" />
      <sparseX alpha="392.15494277649361" i="619" sparseCutoff="1.0000000000000000" />
      <sparseX alpha="-383.97488845498015" i="620" sparseCutoff="1.0000000000000000" />
      <sparseX alpha="581.83123718439845" i="621" sparseCutoff="1.0000000000000000" />
      <sparseX alpha="-39.342987060898174" i="622" sparseCutoff="1.0000000000000000" />
      <sparseX alpha="1242.9161236018292" i="623" sparseCutoff="1.0000000000000000" />
      <sparseX alpha="-4264.3114488040155" i="624" sparseCutoff="1.0000000000000000" />
      <sparseX alpha="-896.41065645161666" i="625" sparseCutoff="1.0000000000000000" />
      <sparseX alpha="-1763.5186614556221" i="626" sparseCutoff="1.0000000000000000" />
      <sparseX alpha="2224.5678879553466" i="627" sparseCutoff="1.0000000000000000" />
      <sparseX alpha="-666.23706501878496" i="628" sparseCutoff="1.0000000000000000" />
      <sparseX alpha="1140.4807919695495" i="629" sparseCutoff="1.0000000000000000" />
      <sparseX alpha="-851.82174328517283" i="630" sparseCutoff="1.0000000000000000" />
      <sparseX alpha="972.96602251308161" i="631" sparseCutoff="1.0000000000000000" />
      <sparseX alpha="1607.3284629864663" i="632" sparseCutoff="1.0000000000000000" />
      <sparseX alpha="986.30343498118430" i="633" sparseCutoff="1.0000000000000000" />
      <sparseX alpha="4047.1076364238866" i="634" sparseCutoff="1.0000000000000000" />
      <sparseX alpha="174.43102386928626" i="635" sparseCutoff="1.0000000000000000" />
      <sparseX alpha="-2366.9794866312973" i="636" sparseCutoff="1.0000000000000000" />
      <sparseX alpha="518.00681877658781" i="637" sparseCutoff="1.0000000000000000" />
      <sparseX alpha="2721.2286578800049" i="638" sparseCutoff="1.0000000000000000" />
      <sparseX alpha="-1716.9983681775202" i="639" sparseCutoff="1.0000000000000000" />
      <sparseX alpha="1917.8516788553609" i="640" sparseCutoff="1.0000000000000000" />
      <sparseX alpha="-381.04519173883455" i="641" sparseCutoff="1.0000000000000000" />
      <sparseX alpha="-2194.4148954328293" i="642" sparseCutoff="1.0000000000000000" />
      <sparseX alpha="787.32496530369667" i="643" sparseCutoff="1.0000000000000000" />
      <sparseX alpha="-420.36996349061997" i="644" sparseCutoff="1.0000000000000000" />
      <sparseX alpha="2935.9066878804424" i="645" sparseCutoff="1.0000000000000000" />
      <sparseX alpha="-407.54886655382336" i="646" sparseCutoff="1.0000000000000000" />
      <sparseX alpha="-920.89887727823987" i="647" sparseCutoff="1.0000000000000000" />
      <sparseX alpha="1574.9539274804285" i="648" sparseCutoff="1.0000000000000000" />
      <sparseX alpha="-1825.0414077738453" i="649" sparseCutoff="1.0000000000000000" />
      <sparseX alpha="-1555.1168856942306" i="650" sparseCutoff="1.0000000000000000" />
      <sparseX alpha="-1326.0825452534029" i="651" sparseCutoff="1.0000000000000000" />
      <sparseX alpha="155.23494911501675" i="652" sparseCutoff="1.0000000000000000" />
      <sparseX alpha="-761.97924417918478" i="653" sparseCutoff="1.0000000000000000" />
      <sparseX alpha="239.06455469132823" i="654" sparseCutoff="1.0000000000000000" />
      <sparseX alpha="95.869443557315051" i="655" sparseCutoff="1.0000000000000000" />
      <sparseX alpha="5372.2494036583848" i="656" sparseCutoff="1.0000000000000000" />
      <sparseX alpha="-528.75468703041759" i="657" sparseCutoff="1.0000000000000000" />
      <sparseX alpha="-1731.1317496097481" i="658" sparseCutoff="1.0000000000000000" />
      <sparseX alpha="336.13974569440154" i="659" sparseCutoff="1.0000000000000000" />
      <sparseX alpha="-754.86118255423639" i="660" sparseCutoff="1.0000000000000000" />
      <sparseX alpha="484.18033372097176" i="661" sparseCutoff="1.0000000000000000" />
      <sparseX alpha="-3701.5962702861357" i="662" sparseCutoff="1.0000000000000000" />
      <sparseX alpha="-870.70714693593993" i="663" sparseCutoff="1.0000000000000000" />
      <sparseX alpha="1650.7981285180540" i="664" sparseCutoff="1.0000000000000000" />
      <sparseX alpha="1060.8053570463037" i="665" sparseCutoff="1.0000000000000000" />
      <sparseX alpha="-540.23280309959443" i="666" sparseCutoff="1.0000000000000000" />
      <sparseX alpha="1171.0578585942196" i="667" sparseCutoff="1.0000000000000000" />
      <sparseX alpha="-133.33981190018375" i="668" sparseCutoff="1.0000000000000000" />
      <sparseX alpha="1766.4782738993827" i="669" sparseCutoff="1.0000000000000000" />
      <sparseX alpha="-953.54719134084155" i="670" sparseCutoff="1.0000000000000000" />
      <sparseX alpha="248.16308786002114" i="671" sparseCutoff="1.0000000000000000" />
      <sparseX alpha="-2018.8816341774761" i="672" sparseCutoff="1.0000000000000000" />
      <sparseX alpha="-399.68319084127631" i="673" sparseCutoff="1.0000000000000000" />
      <sparseX alpha="209.90495336838362" i="674" sparseCutoff="1.0000000000000000" />
      <sparseX alpha="4095.9007275489826" i="675" sparseCutoff="1.0000000000000000" />
      <sparseX alpha="-990.35715687319748" i="676" sparseCutoff="1.0000000000000000" />
      <sparseX alpha="2718.0664573968252" i="677" sparseCutoff="1.0000000000000000" />
      <sparseX alpha="1258.3418317827834" i="678" sparseCutoff="1.0000000000000000" />
      <sparseX alpha="903.64421322002750" i="679" sparseCutoff="1.0000000000000000" />
      <sparseX alpha="-904.48226784401993" i="680" sparseCutoff="1.0000000000000000" />
      <sparseX alpha="-1333.8039663485083" i="681" sparseCutoff="1.0000000000000000" />
      <sparseX alpha="30.611125542255845" i="682" sparseCutoff="1.0000000000000000" />
      <sparseX alpha="-986.25098090868994" i="683" sparseCutoff="1.0000000000000000" />
      <sparseX alpha="2326.8418027119424" i="684" sparseCutoff="1.0000000000000000" />
      <sparseX alpha="-1723.0865706860502" i="685" sparseCutoff="1.0000000000000000" />
      <sparseX alpha="1536.4458789855255" i="686" sparseCutoff="1.0000000000000000" />
      <sparseX alpha="-1018.0014670265673" i="687" sparseCutoff="1.0000000000000000" />
      <sparseX alpha="-655.73961018783473" i="688" sparseCutoff="1.0000000000000000" />
      <sparseX alpha="-2431.0857012900228" i="689" sparseCutoff="1.0000000000000000" />
      <sparseX alpha="-4391.6515854773843" i="690" sparseCutoff="1.0000000000000000" />
      <sparseX alpha="2052.2637132380796" i="691" sparseCutoff="1.0000000000000000" />
      <sparseX alpha="-593.25559534809338" i="692" sparseCutoff="1.0000000000000000" />
      <sparseX alpha="-2893.0287561216410" i="693" sparseCutoff="1.0000000000000000" />
      <sparseX alpha="-768.64279660063858" i="694" sparseCutoff="1.0000000000000000" />
      <sparseX alpha="805.87563134737627" i="695" sparseCutoff="1.0000000000000000" />
      <sparseX alpha="626.60897384054567" i="696" sparseCutoff="1.0000000000000000" />
      <sparseX alpha="-940.66477005517402" i="697" sparseCutoff="1.0000000000000000" />
      <sparseX alpha="3665.3118045961614" i="698" sparseCutoff="1.0000000000000000" />
      <sparseX alpha="1473.4538718194083" i="699" sparseCutoff="1.0000000000000000" />
      <sparseX alpha="2428.6988441593908" i="700" sparseCutoff="1.0000000000000000" />
      <sparseX alpha="1588.2171277188647" i="701" sparseCutoff="1.0000000000000000" />
      <sparseX alpha="-1056.1323518511128" i="702" sparseCutoff="1.0000000000000000" />
      <sparseX alpha="1192.0520830720352" i="703" sparseCutoff="1.0000000000000000" />
      <sparseX alpha="1274.7322392521537" i="704" sparseCutoff="1.0000000000000000" />
      <sparseX alpha="-1809.2769733104362" i="705" sparseCutoff="1.0000000000000000" />
      <sparseX alpha="-3574.2234746723998" i="706" sparseCutoff="1.0000000000000000" />
      <sparseX alpha="-2694.6827323984912" i="707" sparseCutoff="1.0000000000000000" />
      <sparseX alpha="-722.34054600822185" i="708" sparseCutoff="1.0000000000000000" />
      <sparseX alpha="1478.1242309636921" i="709" sparseCutoff="1.0000000000000000" />
      <sparseX alpha="-3728.6877042344800" i="710" sparseCutoff="1.0000000000000000" />
      <sparseX alpha="1963.4890659071816" i="711" sparseCutoff="1.0000000000000000" />
      <sparseX alpha="-924.24531724602923" i="712" sparseCutoff="1.0000000000000000" />
      <sparseX alpha="-1166.9755390629516" i="713" sparseCutoff="1.0000000000000000" />
      <sparseX alpha="-415.27428450640878" i="714" sparseCutoff="1.0000000000000000" />
      <sparseX alpha="-600.68870504412291" i="715" sparseCutoff="1.0000000000000000" />
      <sparseX alpha="-1758.6882536331598" i="716" sparseCutoff="1.0000000000000000" />
      <sparseX alpha="-866.90081438882919" i="717" sparseCutoff="1.0000000000000000" />
      <sparseX alpha="868.97305820355257" i="718" sparseCutoff="1.0000000000000000" />
      <sparseX alpha="-789.10234203919106" i="719" sparseCutoff="1.0000000000000000" />
      <sparseX alpha="2054.0785973944530" i="720" sparseCutoff="1.0000000000000000" />
      <sparseX alpha="-663.51849709005478" i="721" sparseCutoff="1.0000000000000000" />
      <sparseX alpha="-688.41380363141354" i="722" sparseCutoff="1.0000000000000000" />
      <sparseX alpha="-1795.5068044730515" i="723" sparseCutoff="1.0000000000000000" />
      <sparseX alpha="-614.57625180373395" i="724" sparseCutoff="1.0000000000000000" />
      <sparseX alpha="-2669.0163768119414" i="725" sparseCutoff="1.0000000000000000" />
      <sparseX alpha="2678.8854916198757" i="726" sparseCutoff="1.0000000000000000" />
      <sparseX alpha="534.14529991039694" i="727" sparseCutoff="1.0000000000000000" />
      <sparseX alpha="-1146.3637251449315" i="728" sparseCutoff="1.0000000000000000" />
      <sparseX alpha="-469.91543441999681" i="729" sparseCutoff="1.0000000000000000" />
      <sparseX alpha="3754.2845566485680" i="730" sparseCutoff="1.0000000000000000" />
      <sparseX alpha="1618.0554898017365" i="731" sparseCutoff="1.0000000000000000" />
      <sparseX alpha="-1680.0758142083018" i="732" sparseCutoff="1.0000000000000000" />
      <sparseX alpha="-720.35312462672914" i="733" sparseCutoff="1.0000000000000000" />
      <sparseX alpha="-425.78006160687517" i="734" sparseCutoff="1.0000000000000000" />
      <sparseX alpha="-1435.2682869003472" i="735" sparseCutoff="1.0000000000000000" />
      <sparseX alpha="-679.32692163041736" i="736" sparseCutoff="1.0000000000000000" />
      <sparseX alpha="-2734.6229250345277" i="737" sparseCutoff="1.0000000000000000" />
      <sparseX alpha="534.42059881111095" i="738" sparseCutoff="1.0000000000000000" />
      <sparseX alpha="527.11284298338092" i="739" sparseCutoff="1.0000000000000000" />
      <sparseX alpha="-3289.4239592745666" i="740" sparseCutoff="1.0000000000000000" />
      <sparseX alpha="1044.3548893534737" i="741" sparseCutoff="1.0000000000000000" />
      <sparseX alpha="2801.6400802094099" i="742" sparseCutoff="1.0000000000000000" />
      <sparseX alpha="2431.0382786531118" i="743" sparseCutoff="1.0000000000000000" />
      <sparseX alpha="799.49992866073956" i="744" sparseCutoff="1.0000000000000000" />
      <sparseX alpha="-1234.3971328903515" i="745" sparseCutoff="1.0000000000000000" />
      <sparseX alpha="288.11008864954749" i="746" sparseCutoff="1.0000000000000000" />
      <sparseX alpha="2102.2491020373591" i="747" sparseCutoff="1.0000000000000000" />
      <sparseX alpha="2684.8899329968058" i="748" sparseCutoff="1.0000000000000000" />
      <sparseX alpha="-122.79040335715301" i="749" sparseCutoff="1.0000000000000000" />
      <sparseX alpha="2342.3040037757996" i="750" sparseCutoff="1.0000000000000000" />
      <sparseX alpha="-1361.5927411074115" i="751" sparseCutoff="1.0000000000000000" />
      <sparseX alpha="329.73678706980286" i="752" sparseCutoff="1.0000000000000000" />
      <sparseX alpha="1658.6790865269365" i="753" sparseCutoff="1.0000000000000000" />
      <sparseX alpha="1610.6463700427641" i="754" sparseCutoff="1.0000000000000000" />
      <sparseX alpha="1182.7174002573429" i="755" sparseCutoff="1.0000000000000000" />
      <sparseX alpha="549.16737163911944" i="756" sparseCutoff="1.0000000000000000" />
      <sparseX alpha="1376.8647216343568" i="757" sparseCutoff="1.0000000000000000" />
      <sparseX alpha="322.97533882638334" i="758" sparseCutoff="1.0000000000000000" />
      <sparseX alpha="-324.13254105442985" i="759" sparseCutoff="1.0000000000000000" />
      <sparseX alpha="-341.67622591902858" i="760" sparseCutoff="1.0000000000000000" />
      <sparseX alpha="-1430.3879479886120" i="761" sparseCutoff="1.0000000000000000" />
      <sparseX alpha="-1302.3942376657349" i="762" sparseCutoff="1.0000000000000000" />
      <sparseX alpha="470.91896993016769" i="763" sparseCutoff="1.0000000000000000" />
      <sparseX alpha="2088.0481289765389" i="764" sparseCutoff="1.0000000000000000" />
      <sparseX alpha="-2270.2377098024981" i="765" sparseCutoff="1.0000000000000000" />
      <sparseX alpha="-2096.9847203092613" i="766" sparseCutoff="1.0000000000000000" />
      <sparseX alpha="-271.26236694591336" i="767" sparseCutoff="1.0000000000000000" />
      <sparseX alpha="1201.6058369931495" i="768" sparseCutoff="1.0000000000000000" />
      <sparseX alpha="-1246.5690879688743" i="769" sparseCutoff="1.0000000000000000" />
      <sparseX alpha="1887.0229246495699" i="770" sparseCutoff="1.0000000000000000" />
      <sparseX alpha="1405.3936825097280" i="771" sparseCutoff="1.0000000000000000" />
      <sparseX alpha="382.72213082283071" i="772" sparseCutoff="1.0000000000000000" />
      <sparseX alpha="-114.81745788042346" i="773" sparseCutoff="1.0000000000000000" />
      <sparseX alpha="1358.6022719678820" i="774" sparseCutoff="1.0000000000000000" />
      <sparseX alpha="2275.4383970513927" i="775" sparseCutoff="1.0000000000000000" />
      <sparseX alpha="1519.9055124451063" i="776" sparseCutoff="1.0000000000000000" />
      <sparseX alpha="-1651.5280738640051" i="777" sparseCutoff="1.0000000000000000" />
      <sparseX alpha="-174.64809293489390" i="778" sparseCutoff="1.0000000000000000" />
      <sparseX alpha="-37.926937366219121" i="779" sparseCutoff="1.0000000000000000" />
      <sparseX alpha="-3967.3408681797196" i="780" sparseCutoff="1.0000000000000000" />
      <sparseX alpha="3854.8700912465883" i="781" sparseCutoff="1.0000000000000000" />
      <sparseX alpha="-152.74880658609587" i="782" sparseCutoff="1.0000000000000000" />
      <sparseX alpha="3406.2189455054704" i="783" sparseCutoff="1.0000000000000000" />
      <sparseX alpha="857.66245658794992" i="784" sparseCutoff="1.0000000000000000" />
      <sparseX alpha="630.17826082249292" i="785" sparseCutoff="1.0000000000000000" />
      <sparseX alpha="-1163.5555045163294" i="786" sparseCutoff="1.0000000000000000" />
      <sparseX alpha="-2309.2162022151920" i="787" sparseCutoff="1.0000000000000000" />
      <sparseX alpha="-1688.6177732551168" i="788" sparseCutoff="1.0000000000000000" />
      <sparseX alpha="-529.78902585479591" i="789" sparseCutoff="1.0000000000000000" />
      <sparseX alpha="481.32689027098030" i="790" sparseCutoff="1.0000000000000000" />
      <sparseX alpha="-1376.1044762083388" i="791" sparseCutoff="1.0000000000000000" />
      <sparseX alpha="3298.6940878023543" i="792" sparseCutoff="1.0000000000000000" />
      <sparseX alpha="299.84067007858130" i="793" sparseCutoff="1.0000000000000000" />
      <sparseX alpha="1695.8225395061631" i="794" sparseCutoff="1.0000000000000000" />
      <sparseX alpha="-221.81484708304555" i="795" sparseCutoff="1.0000000000000000" />
      <sparseX alpha="1970.7943870230442" i="796" sparseCutoff="1.0000000000000000" />
      <sparseX alpha="-3151.3677528687535" i="797" sparseCutoff="1.0000000000000000" />
      <sparseX alpha="-1589.6787389190658" i="798" sparseCutoff="1.0000000000000000" />
      <sparseX alpha="-370.14624624029824" i="799" sparseCutoff="1.0000000000000000" />
      <sparseX alpha="-1689.2082753177017" i="800" sparseCutoff="1.0000000000000000" />
      <sparseX alpha="-619.83857605722528" i="801" sparseCutoff="1.0000000000000000" />
      <sparseX alpha="1453.1681538586120" i="802" sparseCutoff="1.0000000000000000" />
      <sparseX alpha="952.40835109718512" i="803" sparseCutoff="1.0000000000000000" />
      <sparseX alpha="-1014.0693239676303" i="804" sparseCutoff="1.0000000000000000" />
      <sparseX alpha="-796.38826563819941" i="805" sparseCutoff="1.0000000000000000" />
      <sparseX alpha="2083.8550535399718" i="806" sparseCutoff="1.0000000000000000" />
      <sparseX alpha="-1114.8107760739636" i="807" sparseCutoff="1.0000000000000000" />
      <sparseX alpha="1415.9582966723660" i="808" sparseCutoff="1.0000000000000000" />
      <sparseX alpha="3023.7069340110561" i="809" sparseCutoff="1.0000000000000000" />
      <sparseX alpha="1183.1399231007265" i="810" sparseCutoff="1.0000000000000000" />
      <sparseX alpha="-976.36701033730253" i="811" sparseCutoff="1.0000000000000000" />
      <sparseX alpha="-188.29125514515644" i="812" sparseCutoff="1.0000000000000000" />
      <sparseX alpha="-199.32530542740727" i="813" sparseCutoff="1.0000000000000000" />
      <sparseX alpha="-1784.8554549989631" i="814" sparseCutoff="1.0000000000000000" />
      <sparseX alpha="455.16469037780752" i="815" sparseCutoff="1.0000000000000000" />
      <sparseX alpha="565.77447346240001" i="816" sparseCutoff="1.0000000000000000" />
      <sparseX alpha="-179.79956410088292" i="817" sparseCutoff="1.0000000000000000" />
      <sparseX alpha="2050.3128080340753" i="818" sparseCutoff="1.0000000000000000" />
      <sparseX alpha="-162.86122167835612" i="819" sparseCutoff="1.0000000000000000" />
      <sparseX alpha="-1265.6562590314584" i="820" sparseCutoff="1.0000000000000000" />
      <sparseX alpha="-174.64888163173293" i="821" sparseCutoff="1.0000000000000000" />
      <sparseX alpha="-325.83951894219098" i="822" sparseCutoff="1.0000000000000000" />
      <sparseX alpha="723.22304511333812" i="823" sparseCutoff="1.0000000000000000" />
      <sparseX alpha="214.82977049257059" i="824" sparseCutoff="1.0000000000000000" />
      <sparseX alpha="-1502.7589047851293" i="825" sparseCutoff="1.0000000000000000" />
      <sparseX alpha="-2787.8540092215708" i="826" sparseCutoff="1.0000000000000000" />
      <sparseX alpha="-5427.2500867932222" i="827" sparseCutoff="1.0000000000000000" />
      <sparseX alpha="1893.6157819741793" i="828" sparseCutoff="1.0000000000000000" />
      <sparseX alpha="-219.68610657369891" i="829" sparseCutoff="1.0000000000000000" />
      <sparseX alpha="-5920.9524605726610" i="830" sparseCutoff="1.0000000000000000" />
      <sparseX alpha="-7.6460302751276439" i="831" sparseCutoff="1.0000000000000000" />
      <sparseX alpha="1502.5024573849746" i="832" sparseCutoff="1.0000000000000000" />
      <sparseX alpha="1761.7243649259581" i="833" sparseCutoff="1.0000000000000000" />
      <sparseX alpha="2695.0137570753568" i="834" sparseCutoff="1.0000000000000000" />
      <sparseX alpha="445.55566784428993" i="835" sparseCutoff="1.0000000000000000" />
      <sparseX alpha="212.95284077038386" i="836" sparseCutoff="1.0000000000000000" />
      <sparseX alpha="1331.4971839061654" i="837" sparseCutoff="1.0000000000000000" />
      <sparseX alpha="681.48707634306516" i="838" sparseCutoff="1.0000000000000000" />
      <sparseX alpha="-854.66764940672419" i="839" sparseCutoff="1.0000000000000000" />
      <sparseX alpha="-130.82434268832682" i="840" sparseCutoff="1.0000000000000000" />
      <sparseX alpha="-513.09997915464271" i="841" sparseCutoff="1.0000000000000000" />
      <sparseX alpha="1490.8909008485368" i="842" sparseCutoff="1.0000000000000000" />
      <sparseX alpha="1836.2855505884831" i="843" sparseCutoff="1.0000000000000000" />
      <sparseX alpha="699.11060396733865" i="844" sparseCutoff="1.0000000000000000" />
      <sparseX alpha="-209.14191712298799" i="845" sparseCutoff="1.0000000000000000" />
      <sparseX alpha="1393.9707075252311" i="846" sparseCutoff="1.0000000000000000" />
      <sparseX alpha="160.78970037220034" i="847" sparseCutoff="1.0000000000000000" />
      <sparseX alpha="3971.6059789133010" i="848" sparseCutoff="1.0000000000000000" />
      <sparseX alpha="-2208.7969296751398" i="849" sparseCutoff="1.0000000000000000" />
      <sparseX alpha="-680.99211935013989" i="850" sparseCutoff="1.0000000000000000" />
      <sparseX alpha="78.656342974109904" i="851" sparseCutoff="1.0000000000000000" />
      <sparseX alpha="-246.62769179277129" i="852" sparseCutoff="1.0000000000000000" />
      <sparseX alpha="-414.13865033125910" i="853" sparseCutoff="1.0000000000000000" />
      <sparseX alpha="108.22912528486856" i="854" sparseCutoff="1.0000000000000000" />
      <sparseX alpha="114.70698388351046" i="855" sparseCutoff="1.0000000000000000" />
      <sparseX alpha="1023.7281200997519" i="856" sparseCutoff="1.0000000000000000" />
      <sparseX alpha="202.05239458442537" i="857" sparseCutoff="1.0000000000000000" />
      <sparseX alpha="538.78866673456616" i="858" sparseCutoff="1.0000000000000000" />
      <sparseX alpha="-1817.5907234586930" i="859" sparseCutoff="1.0000000000000000" />
      <sparseX alpha="994.82943891241950" i="860" sparseCutoff="1.0000000000000000" />
      <sparseX alpha="-5848.7451904447980" i="861" sparseCutoff="1.0000000000000000" />
      <sparseX alpha="1389.5250140177275" i="862" sparseCutoff="1.0000000000000000" />
      <sparseX alpha="-479.83074031579901" i="863" sparseCutoff="1.0000000000000000" />
      <sparseX alpha="99.572806125374626" i="864" sparseCutoff="1.0000000000000000" />
      <sparseX alpha="1880.1789345305051" i="865" sparseCutoff="1.0000000000000000" />
      <sparseX alpha="-1427.9172428458189" i="866" sparseCutoff="1.0000000000000000" />
      <sparseX alpha="-603.31228185223063" i="867" sparseCutoff="1.0000000000000000" />
      <sparseX alpha="-4506.3625047029309" i="868" sparseCutoff="1.0000000000000000" />
      <sparseX alpha="724.45128160249556" i="869" sparseCutoff="1.0000000000000000" />
      <sparseX alpha="-1737.1816919724099" i="870" sparseCutoff="1.0000000000000000" />
      <sparseX alpha="-219.02865852461764" i="871" sparseCutoff="1.0000000000000000" />
      <sparseX alpha="2180.8001454434329" i="872" sparseCutoff="1.0000000000000000" />
      <sparseX alpha="-645.74415682413439" i="873" sparseCutoff="1.0000000000000000" />
      <sparseX alpha="1417.9015017001452" i="874" sparseCutoff="1.0000000000000000" />
      <sparseX alpha="345.61673313764197" i="875" sparseCutoff="1.0000000000000000" />
      <sparseX alpha="456.59630441510399" i="876" sparseCutoff="1.0000000000000000" />
      <sparseX alpha="-1657.0004661939690" i="877" sparseCutoff="1.0000000000000000" />
      <sparseX alpha="-723.81239202252777" i="878" sparseCutoff="1.0000000000000000" />
      <sparseX alpha="3137.9170419604261" i="879" sparseCutoff="1.0000000000000000" />
      <sparseX alpha="-271.66379628020297" i="880" sparseCutoff="1.0000000000000000" />
      <sparseX alpha="-1361.5070787541597" i="881" sparseCutoff="1.0000000000000000" />
      <sparseX alpha="-1489.6341048033339" i="882" sparseCutoff="1.0000000000000000" />
      <sparseX alpha="1090.1962437641291" i="883" sparseCutoff="1.0000000000000000" />
      <sparseX alpha="-3155.9936066713681" i="884" sparseCutoff="1.0000000000000000" />
      <sparseX alpha="-146.95225725450982" i="885" sparseCutoff="1.0000000000000000" />
      <sparseX alpha="-336.92376717243866" i="886" sparseCutoff="1.0000000000000000" />
      <sparseX alpha="-362.29677902669386" i="887" sparseCutoff="1.0000000000000000" />
      <sparseX alpha="-250.12570269417660" i="888" sparseCutoff="1.0000000000000000" />
      <sparseX alpha="746.83598524244246" i="889" sparseCutoff="1.0000000000000000" />
      <sparseX alpha="1363.6828787622806" i="890" sparseCutoff="1.0000000000000000" />
      <sparseX alpha="1285.1116460808787" i="891" sparseCutoff="1.0000000000000000" />
      <sparseX alpha="1162.8191260068593" i="892" sparseCutoff="1.0000000000000000" />
      <sparseX alpha="1137.4111215871537" i="893" sparseCutoff="1.0000000000000000" />
      <sparseX alpha="2791.3892018948923" i="894" sparseCutoff="1.0000000000000000" />
      <sparseX alpha="1816.9225973917796" i="895" sparseCutoff="1.0000000000000000" />
      <sparseX alpha="-237.87143967465030" i="896" sparseCutoff="1.0000000000000000" />
      <sparseX alpha="-2429.7752749476426" i="897" sparseCutoff="1.0000000000000000" />
      <sparseX alpha="-432.85334681761032" i="898" sparseCutoff="1.0000000000000000" />
      <sparseX alpha="-64.954797138249120" i="899" sparseCutoff="1.0000000000000000" />
      <sparseX alpha="2284.2947236895707" i="900" sparseCutoff="1.0000000000000000" />
      <sparseX alpha="-952.51401029433259" i="901" sparseCutoff="1.0000000000000000" />
      <sparseX alpha="432.08255732737285" i="902" sparseCutoff="1.0000000000000000" />
      <sparseX alpha="2315.6210559233814" i="903" sparseCutoff="1.0000000000000000" />
      <sparseX alpha="-38.023458084707549" i="904" sparseCutoff="1.0000000000000000" />
      <sparseX alpha="48.606685259848355" i="905" sparseCutoff="1.0000000000000000" />
      <sparseX alpha="2781.2163888060286" i="906" sparseCutoff="1.0000000000000000" />
      <sparseX alpha="585.39990985144061" i="907" sparseCutoff="1.0000000000000000" />
      <sparseX alpha="1037.7818550531988" i="908" sparseCutoff="1.0000000000000000" />
      <sparseX alpha="-88.051268170468319" i="909" sparseCutoff="1.0000000000000000" />
      <sparseX alpha="344.23903850188236" i="910" sparseCutoff="1.0000000000000000" />
      <sparseX alpha="-1036.6319876400221" i="911" sparseCutoff="1.0000000000000000" />
      <sparseX alpha="1161.3900659715889" i="912" sparseCutoff="1.0000000000000000" />
      <sparseX alpha="-2862.2736171381016" i="913" sparseCutoff="1.0000000000000000" />
      <sparseX alpha="1134.2867464073479" i="914" sparseCutoff="1.0000000000000000" />
      <sparseX alpha="1821.7540311892660" i="915" sparseCutoff="1.0000000000000000" />
      <sparseX alpha="182.69185994607136" i="916" sparseCutoff="1.0000000000000000" />
      <sparseX alpha="896.89262951028002" i="917" sparseCutoff="1.0000000000000000" />
      <sparseX alpha="-2706.3943175659438" i="918" sparseCutoff="1.0000000000000000" />
      <sparseX alpha="-368.05674440219332" i="919" sparseCutoff="1.0000000000000000" />
      <sparseX alpha="62.340343600309552" i="920" sparseCutoff="1.0000000000000000" />
      <sparseX alpha="-2036.8023636640442" i="921" sparseCutoff="1.0000000000000000" />
      <sparseX alpha="-2186.8132117399691" i="922" sparseCutoff="1.0000000000000000" />
      <sparseX alpha="1684.2987687894397" i="923" sparseCutoff="1.0000000000000000" />
      <sparseX alpha="-1797.3632018039673" i="924" sparseCutoff="1.0000000000000000" />
      <sparseX alpha="4275.5343398829182" i="925" sparseCutoff="1.0000000000000000" />
      <sparseX alpha="-69.316559868580612" i="926" sparseCutoff="1.0000000000000000" />
      <sparseX alpha="-764.15823905878244" i="927" sparseCutoff="1.0000000000000000" />
      <sparseX alpha="-1712.5509486444678" i="928" sparseCutoff="1.0000000000000000" />
      <sparseX alpha="-2198.9954595893182" i="929" sparseCutoff="1.0000000000000000" />
      <sparseX alpha="-104.71965514169750" i="930" sparseCutoff="1.0000000000000000" />
      <sparseX alpha="943.77567029908289" i="931" sparseCutoff="1.0000000000000000" />
      <sparseX alpha="1707.8420735589591" i="932" sparseCutoff="1.0000000000000000" />
      <sparseX alpha="670.00841158043215" i="933" sparseCutoff="1.0000000000000000" />
      <sparseX alpha="1128.7023447829565" i="934" sparseCutoff="1.0000000000000000" />
      <sparseX alpha="61.671640316343868" i="935" sparseCutoff="1.0000000000000000" />
      <sparseX alpha="1323.8151301561436" i="936" sparseCutoff="1.0000000000000000" />
      <sparseX alpha="153.82141809755547" i="937" sparseCutoff="1.0000000000000000" />
      <sparseX alpha="-203.17488645566212" i="938" sparseCutoff="1.0000000000000000" />
      <sparseX alpha="2021.0903231564075" i="939" sparseCutoff="1.0000000000000000" />
      <sparseX alpha="2146.8144999390793" i="940" sparseCutoff="1.0000000000000000" />
      <sparseX alpha="-2311.0707969798082" i="941" sparseCutoff="1.0000000000000000" />
      <sparseX alpha="963.94814054376423" i="942" sparseCutoff="1.0000000000000000" />
      <sparseX alpha="1486.7136714046608" i="943" sparseCutoff="1.0000000000000000" />
      <sparseX alpha="-620.52076770382280" i="944" sparseCutoff="1.0000000000000000" />
      <sparseX alpha="489.85027972264231" i="945" sparseCutoff="1.0000000000000000" />
      <sparseX alpha="366.11620641710078" i="946" sparseCutoff="1.0000000000000000" />
      <sparseX alpha="3118.6691583276270" i="947" sparseCutoff="1.0000000000000000" />
      <sparseX alpha="1351.5061843105002" i="948" sparseCutoff="1.0000000000000000" />
      <sparseX alpha="-167.00261252329437" i="949" sparseCutoff="1.0000000000000000" />
      <sparseX alpha="-4434.4985634853992" i="950" sparseCutoff="1.0000000000000000" />
      <sparseX alpha="-5428.6813214452714" i="951" sparseCutoff="1.0000000000000000" />
      <sparseX alpha="1239.7491917948739" i="952" sparseCutoff="1.0000000000000000" />
      <sparseX alpha="915.72793239641908" i="953" sparseCutoff="1.0000000000000000" />
      <sparseX alpha="-730.18142204914182" i="954" sparseCutoff="1.0000000000000000" />
      <sparseX alpha="1920.2820346225310" i="955" sparseCutoff="1.0000000000000000" />
      <sparseX alpha="-209.06371495428002" i="956" sparseCutoff="1.0000000000000000" />
      <sparseX alpha="297.54769153939185" i="957" sparseCutoff="1.0000000000000000" />
      <sparseX alpha="-2284.8052252345010" i="958" sparseCutoff="1.0000000000000000" />
      <sparseX alpha="1215.6930109383163" i="959" sparseCutoff="1.0000000000000000" />
      <sparseX alpha="3066.3911283638654" i="960" sparseCutoff="1.0000000000000000" />
      <sparseX alpha="1226.9776059356373" i="961" sparseCutoff="1.0000000000000000" />
      <sparseX alpha="-325.17828206393830" i="962" sparseCutoff="1.0000000000000000" />
      <sparseX alpha="-1476.1584848751625" i="963" sparseCutoff="1.0000000000000000" />
      <sparseX alpha="3417.0052881559614" i="964" sparseCutoff="1.0000000000000000" />
      <sparseX alpha="-673.41487830329675" i="965" sparseCutoff="1.0000000000000000" />
      <sparseX alpha="-.54885080253769947" i="966" sparseCutoff="1.0000000000000000" />
      <sparseX alpha="-61.641613407820188" i="967" sparseCutoff="1.0000000000000000" />
      <sparseX alpha="2965.3339827176655" i="968" sparseCutoff="1.0000000000000000" />
      <sparseX alpha="-77.238847532368709" i="969" sparseCutoff="1.0000000000000000" />
      <sparseX alpha="1713.6664655847433" i="970" sparseCutoff="1.0000000000000000" />
      <sparseX alpha="-142.47765573498103" i="971" sparseCutoff="1.0000000000000000" />
      <sparseX alpha="-126.02116145976751" i="972" sparseCutoff="1.0000000000000000" />
      <sparseX alpha="-716.30763312638112" i="973" sparseCutoff="1.0000000000000000" />
      <sparseX alpha="-331.35245944627059" i="974" sparseCutoff="1.0000000000000000" />
      <sparseX alpha="-3297.6840103585864" i="975" sparseCutoff="1.0000000000000000" />
      <sparseX alpha="-548.40593914916326" i="976" sparseCutoff="1.0000000000000000" />
      <sparseX alpha="-1653.4913259096800" i="977" sparseCutoff="1.0000000000000000" />
      <sparseX alpha="385.54201931173975" i="978" sparseCutoff="1.0000000000000000" />
      <sparseX alpha="328.67954498587767" i="979" sparseCutoff="1.0000000000000000" />
      <sparseX alpha="974.67358203902825" i="980" sparseCutoff="1.0000000000000000" />
      <sparseX alpha="-663.62152351584325" i="981" sparseCutoff="1.0000000000000000" />
      <sparseX alpha="3679.2360641609016" i="982" sparseCutoff="1.0000000000000000" />
      <sparseX alpha="838.92413340484507" i="983" sparseCutoff="1.0000000000000000" />
      <sparseX alpha="-1114.9382360304098" i="984" sparseCutoff="1.0000000000000000" />
      <sparseX alpha="-1744.3564373470947" i="985" sparseCutoff="1.0000000000000000" />
      <sparseX alpha="1348.5383441258409" i="986" sparseCutoff="1.0000000000000000" />
      <sparseX alpha="2139.4264967854047" i="987" sparseCutoff="1.0000000000000000" />
      <sparseX alpha="4852.8199184554687" i="988" sparseCutoff="1.0000000000000000" />
      <sparseX alpha="570.46268610667892" i="989" sparseCutoff="1.0000000000000000" />
      <sparseX alpha="-3105.0095982359503" i="990" sparseCutoff="1.0000000000000000" />
      <sparseX alpha="-1345.1741329218187" i="991" sparseCutoff="1.0000000000000000" />
      <sparseX alpha="-730.48217923755055" i="992" sparseCutoff="1.0000000000000000" />
      <sparseX alpha="-1203.7692654454117" i="993" sparseCutoff="1.0000000000000000" />
      <sparseX alpha="1576.2152361144192" i="994" sparseCutoff="1.0000000000000000" />
      <sparseX alpha="3032.8531195133755" i="995" sparseCutoff="1.0000000000000000" />
      <sparseX alpha="-94.669161506214337" i="996" sparseCutoff="1.0000000000000000" />
      <sparseX alpha="-376.95233606759609" i="997" sparseCutoff="1.0000000000000000" />
      <sparseX alpha="-2602.4222600687981" i="998" sparseCutoff="1.0000000000000000" />
      <sparseX alpha="3922.6357233732356" i="999" sparseCutoff="1.0000000000000000" />
      <sparseX alpha="-1455.3144996832493" i="1000" sparseCutoff="1.0000000000000000" />
      <sparseX alpha="-586.39668093137277" i="1001" sparseCutoff="1.0000000000000000" />
      <sparseX alpha="-1230.2334040745566" i="1002" sparseCutoff="1.0000000000000000" />
      <sparseX alpha="-716.46218361190881" i="1003" sparseCutoff="1.0000000000000000" />
      <sparseX alpha="48.405025018267118" i="1004" sparseCutoff="1.0000000000000000" />
      <sparseX alpha="-1509.0237931088827" i="1005" sparseCutoff="1.0000000000000000" />
      <sparseX alpha="-1129.5566682299411" i="1006" sparseCutoff="1.0000000000000000" />
      <sparseX alpha="-40.526310640236005" i="1007" sparseCutoff="1.0000000000000000" />
      <sparseX alpha="-313.97679519719748" i="1008" sparseCutoff="1.0000000000000000" />
      <sparseX alpha="-1576.9563840264741" i="1009" sparseCutoff="1.0000000000000000" />
      <sparseX alpha="-1034.8162084751298" i="1010" sparseCutoff="1.0000000000000000" />
      <sparseX alpha="405.61609493197091" i="1011" sparseCutoff="1.0000000000000000" />
      <sparseX alpha="-1777.2479642075443" i="1012" sparseCutoff="1.0000000000000000" />
      <sparseX alpha="-1508.1250250026985" i="1013" sparseCutoff="1.0000000000000000" />
      <sparseX alpha="1145.5101837986670" i="1014" sparseCutoff="1.0000000000000000" />
      <sparseX alpha="-1202.6183037749774" i="1015" sparseCutoff="1.0000000000000000" />
      <sparseX alpha="672.40115861392519" i="1016" sparseCutoff="1.0000000000000000" />
      <sparseX alpha="-1577.3635749019008" i="1017" sparseCutoff="1.0000000000000000" />
      <sparseX alpha="-710.65134165348854" i="1018" sparseCutoff="1.0000000000000000" />
      <sparseX alpha="-1145.2276901373400" i="1019" sparseCutoff="1.0000000000000000" />
      <sparseX alpha="32.346839744823292" i="1020" sparseCutoff="1.0000000000000000" />
      <sparseX alpha="3578.4641571413076" i="1021" sparseCutoff="1.0000000000000000" />
      <sparseX alpha="3054.8313940796615" i="1022" sparseCutoff="1.0000000000000000" />
      <sparseX alpha="-1416.8069888511525" i="1023" sparseCutoff="1.0000000000000000" />
      <sparseX alpha="78.669483903757694" i="1024" sparseCutoff="1.0000000000000000" />
      <sparseX alpha="-366.45968514208749" i="1025" sparseCutoff="1.0000000000000000" />
      <sparseX alpha="-538.05970521733684" i="1026" sparseCutoff="1.0000000000000000" />
      <sparseX alpha="-8.0279975700095072" i="1027" sparseCutoff="1.0000000000000000" />
      <sparseX alpha="-928.23646217503858" i="1028" sparseCutoff="1.0000000000000000" />
      <sparseX alpha="-1134.9498780207250" i="1029" sparseCutoff="1.0000000000000000" />
      <sparseX alpha="-730.35341147617726" i="1030" sparseCutoff="1.0000000000000000" />
      <sparseX alpha="-400.84492835986134" i="1031" sparseCutoff="1.0000000000000000" />
      <sparseX alpha="-4834.6806712241487" i="1032" sparseCutoff="1.0000000000000000" />
      <sparseX alpha="-1194.9940958633842" i="1033" sparseCutoff="1.0000000000000000" />
      <sparseX alpha="-607.69050176693202" i="1034" sparseCutoff="1.0000000000000000" />
      <sparseX alpha="228.92610758360655" i="1035" sparseCutoff="1.0000000000000000" />
      <sparseX alpha="510.56655485361460" i="1036" sparseCutoff="1.0000000000000000" />
      <sparseX alpha="-411.58333583957796" i="1037" sparseCutoff="1.0000000000000000" />
      <sparseX alpha="-410.88065432816762" i="1038" sparseCutoff="1.0000000000000000" />
      <sparseX alpha="-2821.6707171327953" i="1039" sparseCutoff="1.0000000000000000" />
      <sparseX alpha="-401.60711526937536" i="1040" sparseCutoff="1.0000000000000000" />
      <sparseX alpha="534.10709780855245" i="1041" sparseCutoff="1.0000000000000000" />
      <sparseX alpha="-1626.1194810141853" i="1042" sparseCutoff="1.0000000000000000" />
      <sparseX alpha="402.01021639991336" i="1043" sparseCutoff="1.0000000000000000" />
      <sparseX alpha="603.62828345517812" i="1044" sparseCutoff="1.0000000000000000" />
      <sparseX alpha="588.02516968730424" i="1045" sparseCutoff="1.0000000000000000" />
      <sparseX alpha="190.55557879480091" i="1046" sparseCutoff="1.0000000000000000" />
      <sparseX alpha="864.48565209166168" i="1047" sparseCutoff="1.0000000000000000" />
      <sparseX alpha="193.14036730676864" i="1048" sparseCutoff="1.0000000000000000" />
      <sparseX alpha="406.28372059298340" i="1049" sparseCutoff="1.0000000000000000" />
      <sparseX alpha="-4513.8277331629806" i="1050" sparseCutoff="1.0000000000000000" />
      <sparseX alpha="1352.1114644615623" i="1051" sparseCutoff="1.0000000000000000" />
      <sparseX alpha="9848.0480447360605" i="1052" sparseCutoff="1.0000000000000000" />
      <sparseX alpha="18.772788297327548" i="1053" sparseCutoff="1.0000000000000000" />
      <sparseX alpha="224.92785130756167" i="1054" sparseCutoff="1.0000000000000000" />
      <sparseX alpha="-1999.7875089061592" i="1055" sparseCutoff="1.0000000000000000" />
      <sparseX alpha="-4479.8403270989993" i="1056" sparseCutoff="1.0000000000000000" />
      <sparseX alpha="993.20285682122108" i="1057" sparseCutoff="1.0000000000000000" />
      <sparseX alpha="1015.5606232494372" i="1058" sparseCutoff="1.0000000000000000" />
      <sparseX alpha="-1880.7135092857468" i="1059" sparseCutoff="1.0000000000000000" />
      <sparseX alpha="2770.6829690103127" i="1060" sparseCutoff="1.0000000000000000" />
      <sparseX alpha="-1330.4397549255032" i="1061" sparseCutoff="1.0000000000000000" />
      <sparseX alpha="-3694.6677695393114" i="1062" sparseCutoff="1.0000000000000000" />
      <sparseX alpha="-3685.7809457311050" i="1063" sparseCutoff="1.0000000000000000" />
      <sparseX alpha="-934.68073961425898" i="1064" sparseCutoff="1.0000000000000000" />
      <sparseX alpha="-1558.3683420628720" i="1065" sparseCutoff="1.0000000000000000" />
      <sparseX alpha="-3109.0778907096333" i="1066" sparseCutoff="1.0000000000000000" />
      <sparseX alpha="377.49526212613830" i="1067" sparseCutoff="1.0000000000000000" />
      <sparseX alpha="-1925.1254290604818" i="1068" sparseCutoff="1.0000000000000000" />
      <sparseX alpha="141.60364902864688" i="1069" sparseCutoff="1.0000000000000000" />
      <sparseX alpha="-471.71490185767499" i="1070" sparseCutoff="1.0000000000000000" />
      <sparseX alpha="-8.8230171214537680" i="1071" sparseCutoff="1.0000000000000000" />
      <sparseX alpha="-3361.5991791207621" i="1072" sparseCutoff="1.0000000000000000" />
