MTP
version = 1.1.0
potential_name = MTP100_3
species_count = 1
radial_basis_type = RBShapeev
	min_dist = 1.6
	max_dist = 5
	radial_basis_size = 8
	radial_funcs_count = 8
	radial_coeffs
		0-0
			{1.000000000000000e+00, 0.000000000000000e+00, 0.000000000000000e+00, 0.000000000000000e+00, 0.000000000000000e+00, 0.000000000000000e+00, 0.000000000000000e+00, 0.000000000000000e+00}
			{0.000000000000000e+00, 1.000000000000000e+00, 0.000000000000000e+00, 0.000000000000000e+00, 0.000000000000000e+00, 0.000000000000000e+00, 0.000000000000000e+00, 0.000000000000000e+00}
			{0.000000000000000e+00, 0.000000000000000e+00, 1.000000000000000e+00, 0.000000000000000e+00, 0.000000000000000e+00, 0.000000000000000e+00, 0.000000000000000e+00, 0.000000000000000e+00}
			{0.000000000000000e+00, 0.000000000000000e+00, 0.000000000000000e+00, 1.000000000000000e+00, 0.000000000000000e+00, 0.000000000000000e+00, 0.000000000000000e+00, 0.000000000000000e+00}
			{0.000000000000000e+00, 0.000000000000000e+00, 0.000000000000000e+00, 0.000000000000000e+00, 1.000000000000000e+00, 0.000000000000000e+00, 0.000000000000000e+00, 0.000000000000000e+00}
			{0.000000000000000e+00, 0.000000000000000e+00, 0.000000000000000e+00, 0.000000000000000e+00, 0.000000000000000e+00, 1.000000000000000e+00, 0.000000000000000e+00, 0.000000000000000e+00}
			{0.000000000000000e+00, 0.000000000000000e+00, 0.000000000000000e+00, 0.000000000000000e+00, 0.000000000000000e+00, 0.000000000000000e+00, 1.000000000000000e+00, 0.000000000000000e+00}
			{0.000000000000000e+00, 0.000000000000000e+00, 0.000000000000000e+00, 0.000000000000000e+00, 0.000000000000000e+00, 0.000000000000000e+00, 0.000000000000000e+00, 1.000000000000000e+00}
alpha_moments_count = 1687
alpha_index_basic_count = 679
alpha_index_basic = {{0, 0, 0, 0}, {0, 1, 0, 0}, {0, 0, 1, 0}, {0, 0, 0, 1}, {0, 2, 0, 0}, {0, 1, 1, 0}, {0, 1, 0, 1}, {0, 0, 2, 0}, {0, 0, 1, 1}, {0, 0, 0, 2}, {0, 3, 0, 0}, {0, 2, 1, 0}, {0, 2, 0, 1}, {0, 1, 2, 0}, {0, 1, 1, 1}, {0, 1, 0, 2}, {0, 0, 3, 0}, {0, 0, 2, 1}, {0, 0, 1, 2}, {0, 0, 0, 3}, {0, 4, 0, 0}, {0, 3, 1, 0}, {0, 3, 0, 1}, {0, 2, 2, 0}, {0, 2, 1, 1}, {0, 2, 0, 2}, {0, 1, 3, 0}, {0, 1, 2, 1}, {0, 1, 1, 2}, {0, 1, 0, 3}, {0, 0, 4, 0}, {0, 0, 3, 1}, {0, 0, 2, 2}, {0, 0, 1, 3}, {0, 0, 0, 4}, {0, 5, 0, 0}, {0, 4, 1, 0}, {0, 4, 0, 1}, {0, 3, 2, 0}, {0, 3, 1, 1}, {0, 3, 0, 2}, {0, 2, 3, 0}, {0, 2, 2, 1}, {0, 2, 1, 2}, {0, 2, 0, 3}, {0, 1, 4, 0}, {0, 1, 3, 1}, {0, 1, 2, 2}, {0, 1, 1, 3}, {0, 1, 0, 4}, {0, 0, 5, 0}, {0, 0, 4, 1}, {0, 0, 3, 2}, {0, 0, 2, 3}, {0, 0, 1, 4}, {0, 0, 0, 5}, {0, 6, 0, 0}, {0, 5, 1, 0}, {0, 5, 0, 1}, {0, 4, 2, 0}, {0, 4, 1, 1}, {0, 4, 0, 2}, {0, 3, 3, 0}, {0, 3, 2, 1}, {0, 3, 1, 2}, {0, 3, 0, 3}, {0, 2, 4, 0}, {0, 2, 3, 1}, {0, 2, 2, 2}, {0, 2, 1, 3}, {0, 2, 0, 4}, {0, 1, 5, 0}, {0, 1, 4, 1}, {0, 1, 3, 2}, {0, 1, 2, 3}, {0, 1, 1, 4}, {0, 1, 0, 5}, {0, 0, 6, 0}, {0, 0, 5, 1}, {0, 0, 4, 2}, {0, 0, 3, 3}, {0, 0, 2, 4}, {0, 0, 1, 5}, {0, 0, 0, 6}, {0, 7, 0, 0}, {0, 6, 1, 0}, {0, 6, 0, 1}, {0, 5, 2, 0}, {0, 5, 1, 1}, {0, 5, 0, 2}, {0, 4, 3, 0}, {0, 4, 2, 1}, {0, 4, 1, 2}, {0, 4, 0, 3}, {0, 3, 4, 0}, {0, 3, 3, 1}, {0, 3, 2, 2}, {0, 3, 1, 3}, {0, 3, 0, 4}, {0, 2, 5, 0}, {0, 2, 4, 1}, {0, 2, 3, 2}, {0, 2, 2, 3}, {0, 2, 1, 4}, {0, 2, 0, 5}, {0, 1, 6, 0}, {0, 1, 5, 1}, {0, 1, 4, 2}, {0, 1, 3, 3}, {0, 1, 2, 4}, {0, 1, 1, 5}, {0, 1, 0, 6}, {0, 0, 7, 0}, {0, 0, 6, 1}, {0, 0, 5, 2}, {0, 0, 4, 3}, {0, 0, 3, 4}, {0, 0, 2, 5}, {0, 0, 1, 6}, {0, 0, 0, 7}, {0, 8, 0, 0}, {0, 7, 1, 0}, {0, 7, 0, 1}, {0, 6, 2, 0}, {0, 6, 1, 1}, {0, 6, 0, 2}, {0, 5, 3, 0}, {0, 5, 2, 1}, {0, 5, 1, 2}, {0, 5, 0, 3}, {0, 4, 4, 0}, {0, 4, 3, 1}, {0, 4, 2, 2}, {0, 4, 1, 3}, {0, 4, 0, 4}, {0, 3, 5, 0}, {0, 3, 4, 1}, {0, 3, 3, 2}, {0, 3, 2, 3}, {0, 3, 1, 4}, {0, 3, 0, 5}, {0, 2, 6, 0}, {0, 2, 5, 1}, {0, 2, 4, 2}, {0, 2, 3, 3}, {0, 2, 2, 4}, {0, 2, 1, 5}, {0, 2, 0, 6}, {0, 1, 7, 0}, {0, 1, 6, 1}, {0, 1, 5, 2}, {0, 1, 4, 3}, {0, 1, 3, 4}, {0, 1, 2, 5}, {0, 1, 1, 6}, {0, 1, 0, 7}, {0, 0, 8, 0}, {0, 0, 7, 1}, {0, 0, 6, 2}, {0, 0, 5, 3}, {0, 0, 4, 4}, {0, 0, 3, 5}, {0, 0, 2, 6}, {0, 0, 1, 7}, {0, 0, 0, 8}, {1, 0, 0, 0}, {1, 1, 0, 0}, {1, 0, 1, 0}, {1, 0, 0, 1}, {1, 2, 0, 0}, {1, 1, 1, 0}, {1, 1, 0, 1}, {1, 0, 2, 0}, {1, 0, 1, 1}, {1, 0, 0, 2}, {1, 3, 0, 0}, {1, 2, 1, 0}, {1, 2, 0, 1}, {1, 1, 2, 0}, {1, 1, 1, 1}, {1, 1, 0, 2}, {1, 0, 3, 0}, {1, 0, 2, 1}, {1, 0, 1, 2}, {1, 0, 0, 3}, {1, 4, 0, 0}, {1, 3, 1, 0}, {1, 3, 0, 1}, {1, 2, 2, 0}, {1, 2, 1, 1}, {1, 2, 0, 2}, {1, 1, 3, 0}, {1, 1, 2, 1}, {1, 1, 1, 2}, {1, 1, 0, 3}, {1, 0, 4, 0}, {1, 0, 3, 1}, {1, 0, 2, 2}, {1, 0, 1, 3}, {1, 0, 0, 4}, {1, 5, 0, 0}, {1, 4, 1, 0}, {1, 4, 0, 1}, {1, 3, 2, 0}, {1, 3, 1, 1}, {1, 3, 0, 2}, {1, 2, 3, 0}, {1, 2, 2, 1}, {1, 2, 1, 2}, {1, 2, 0, 3}, {1, 1, 4, 0}, {1, 1, 3, 1}, {1, 1, 2, 2}, {1, 1, 1, 3}, {1, 1, 0, 4}, {1, 0, 5, 0}, {1, 0, 4, 1}, {1, 0, 3, 2}, {1, 0, 2, 3}, {1, 0, 1, 4}, {1, 0, 0, 5}, {1, 6, 0, 0}, {1, 5, 1, 0}, {1, 5, 0, 1}, {1, 4, 2, 0}, {1, 4, 1, 1}, {1, 4, 0, 2}, {1, 3, 3, 0}, {1, 3, 2, 1}, {1, 3, 1, 2}, {1, 3, 0, 3}, {1, 2, 4, 0}, {1, 2, 3, 1}, {1, 2, 2, 2}, {1, 2, 1, 3}, {1, 2, 0, 4}, {1, 1, 5, 0}, {1, 1, 4, 1}, {1, 1, 3, 2}, {1, 1, 2, 3}, {1, 1, 1, 4}, {1, 1, 0, 5}, {1, 0, 6, 0}, {1, 0, 5, 1}, {1, 0, 4, 2}, {1, 0, 3, 3}, {1, 0, 2, 4}, {1, 0, 1, 5}, {1, 0, 0, 6}, {1, 7, 0, 0}, {1, 6, 1, 0}, {1, 6, 0, 1}, {1, 5, 2, 0}, {1, 5, 1, 1}, {1, 5, 0, 2}, {1, 4, 3, 0}, {1, 4, 2, 1}, {1, 4, 1, 2}, {1, 4, 0, 3}, {1, 3, 4, 0}, {1, 3, 3, 1}, {1, 3, 2, 2}, {1, 3, 1, 3}, {1, 3, 0, 4}, {1, 2, 5, 0}, {1, 2, 4, 1}, {1, 2, 3, 2}, {1, 2, 2, 3}, {1, 2, 1, 4}, {1, 2, 0, 5}, {1, 1, 6, 0}, {1, 1, 5, 1}, {1, 1, 4, 2}, {1, 1, 3, 3}, {1, 1, 2, 4}, {1, 1, 1, 5}, {1, 1, 0, 6}, {1, 0, 7, 0}, {1, 0, 6, 1}, {1, 0, 5, 2}, {1, 0, 4, 3}, {1, 0, 3, 4}, {1, 0, 2, 5}, {1, 0, 1, 6}, {1, 0, 0, 7}, {1, 8, 0, 0}, {1, 7, 1, 0}, {1, 7, 0, 1}, {1, 6, 2, 0}, {1, 6, 1, 1}, {1, 6, 0, 2}, {1, 5, 3, 0}, {1, 5, 2, 1}, {1, 5, 1, 2}, {1, 5, 0, 3}, {1, 4, 4, 0}, {1, 4, 3, 1}, {1, 4, 2, 2}, {1, 4, 1, 3}, {1, 4, 0, 4}, {1, 3, 5, 0}, {1, 3, 4, 1}, {1, 3, 3, 2}, {1, 3, 2, 3}, {1, 3, 1, 4}, {1, 3, 0, 5}, {1, 2, 6, 0}, {1, 2, 5, 1}, {1, 2, 4, 2}, {1, 2, 3, 3}, {1, 2, 2, 4}, {1, 2, 1, 5}, {1, 2, 0, 6}, {1, 1, 7, 0}, {1, 1, 6, 1}, {1, 1, 5, 2}, {1, 1, 4, 3}, {1, 1, 3, 4}, {1, 1, 2, 5}, {1, 1, 1, 6}, {1, 1, 0, 7}, {1, 0, 8, 0}, {1, 0, 7, 1}, {1, 0, 6, 2}, {1, 0, 5, 3}, {1, 0, 4, 4}, {1, 0, 3, 5}, {1, 0, 2, 6}, {1, 0, 1, 7}, {1, 0, 0, 8}, {2, 0, 0, 0}, {2, 1, 0, 0}, {2, 0, 1, 0}, {2, 0, 0, 1}, {2, 2, 0, 0}, {2, 1, 1, 0}, {2, 1, 0, 1}, {2, 0, 2, 0}, {2, 0, 1, 1}, {2, 0, 0, 2}, {2, 3, 0, 0}, {2, 2, 1, 0}, {2, 2, 0, 1}, {2, 1, 2, 0}, {2, 1, 1, 1}, {2, 1, 0, 2}, {2, 0, 3, 0}, {2, 0, 2, 1}, {2, 0, 1, 2}, {2, 0, 0, 3}, {2, 4, 0, 0}, {2, 3, 1, 0}, {2, 3, 0, 1}, {2, 2, 2, 0}, {2, 2, 1, 1}, {2, 2, 0, 2}, {2, 1, 3, 0}, {2, 1, 2, 1}, {2, 1, 1, 2}, {2, 1, 0, 3}, {2, 0, 4, 0}, {2, 0, 3, 1}, {2, 0, 2, 2}, {2, 0, 1, 3}, {2, 0, 0, 4}, {2, 5, 0, 0}, {2, 4, 1, 0}, {2, 4, 0, 1}, {2, 3, 2, 0}, {2, 3, 1, 1}, {2, 3, 0, 2}, {2, 2, 3, 0}, {2, 2, 2, 1}, {2, 2, 1, 2}, {2, 2, 0, 3}, {2, 1, 4, 0}, {2, 1, 3, 1}, {2, 1, 2, 2}, {2, 1, 1, 3}, {2, 1, 0, 4}, {2, 0, 5, 0}, {2, 0, 4, 1}, {2, 0, 3, 2}, {2, 0, 2, 3}, {2, 0, 1, 4}, {2, 0, 0, 5}, {2, 7, 0, 0}, {2, 6, 1, 0}, {2, 6, 0, 1}, {2, 5, 2, 0}, {2, 5, 1, 1}, {2, 5, 0, 2}, {2, 4, 3, 0}, {2, 4, 2, 1}, {2, 4, 1, 2}, {2, 4, 0, 3}, {2, 3, 4, 0}, {2, 3, 3, 1}, {2, 3, 2, 2}, {2, 3, 1, 3}, {2, 3, 0, 4}, {2, 2, 5, 0}, {2, 2, 4, 1}, {2, 2, 3, 2}, {2, 2, 2, 3}, {2, 2, 1, 4}, {2, 2, 0, 5}, {2, 1, 6, 0}, {2, 1, 5, 1}, {2, 1, 4, 2}, {2, 1, 3, 3}, {2, 1, 2, 4}, {2, 1, 1, 5}, {2, 1, 0, 6}, {2, 0, 7, 0}, {2, 0, 6, 1}, {2, 0, 5, 2}, {2, 0, 4, 3}, {2, 0, 3, 4}, {2, 0, 2, 5}, {2, 0, 1, 6}, {2, 0, 0, 7}, {3, 0, 0, 0}, {3, 1, 0, 0}, {3, 0, 1, 0}, {3, 0, 0, 1}, {3, 2, 0, 0}, {3, 1, 1, 0}, {3, 1, 0, 1}, {3, 0, 2, 0}, {3, 0, 1, 1}, {3, 0, 0, 2}, {3, 3, 0, 0}, {3, 2, 1, 0}, {3, 2, 0, 1}, {3, 1, 2, 0}, {3, 1, 1, 1}, {3, 1, 0, 2}, {3, 0, 3, 0}, {3, 0, 2, 1}, {3, 0, 1, 2}, {3, 0, 0, 3}, {3, 4, 0, 0}, {3, 3, 1, 0}, {3, 3, 0, 1}, {3, 2, 2, 0}, {3, 2, 1, 1}, {3, 2, 0, 2}, {3, 1, 3, 0}, {3, 1, 2, 1}, {3, 1, 1, 2}, {3, 1, 0, 3}, {3, 0, 4, 0}, {3, 0, 3, 1}, {3, 0, 2, 2}, {3, 0, 1, 3}, {3, 0, 0, 4}, {3, 5, 0, 0}, {3, 4, 1, 0}, {3, 4, 0, 1}, {3, 3, 2, 0}, {3, 3, 1, 1}, {3, 3, 0, 2}, {3, 2, 3, 0}, {3, 2, 2, 1}, {3, 2, 1, 2}, {3, 2, 0, 3}, {3, 1, 4, 0}, {3, 1, 3, 1}, {3, 1, 2, 2}, {3, 1, 1, 3}, {3, 1, 0, 4}, {3, 0, 5, 0}, {3, 0, 4, 1}, {3, 0, 3, 2}, {3, 0, 2, 3}, {3, 0, 1, 4}, {3, 0, 0, 5}, {3, 6, 0, 0}, {3, 5, 1, 0}, {3, 5, 0, 1}, {3, 4, 2, 0}, {3, 4, 1, 1}, {3, 4, 0, 2}, {3, 3, 3, 0}, {3, 3, 2, 1}, {3, 3, 1, 2}, {3, 3, 0, 3}, {3, 2, 4, 0}, {3, 2, 3, 1}, {3, 2, 2, 2}, {3, 2, 1, 3}, {3, 2, 0, 4}, {3, 1, 5, 0}, {3, 1, 4, 1}, {3, 1, 3, 2}, {3, 1, 2, 3}, {3, 1, 1, 4}, {3, 1, 0, 5}, {3, 0, 6, 0}, {3, 0, 5, 1}, {3, 0, 4, 2}, {3, 0, 3, 3}, {3, 0, 2, 4}, {3, 0, 1, 5}, {3, 0, 0, 6}, {3, 7, 0, 0}, {3, 6, 1, 0}, {3, 6, 0, 1}, {3, 5, 2, 0}, {3, 5, 1, 1}, {3, 5, 0, 2}, {3, 4, 3, 0}, {3, 4, 2, 1}, {3, 4, 1, 2}, {3, 4, 0, 3}, {3, 3, 4, 0}, {3, 3, 3, 1}, {3, 3, 2, 2}, {3, 3, 1, 3}, {3, 3, 0, 4}, {3, 2, 5, 0}, {3, 2, 4, 1}, {3, 2, 3, 2}, {3, 2, 2, 3}, {3, 2, 1, 4}, {3, 2, 0, 5}, {3, 1, 6, 0}, {3, 1, 5, 1}, {3, 1, 4, 2}, {3, 1, 3, 3}, {3, 1, 2, 4}, {3, 1, 1, 5}, {3, 1, 0, 6}, {3, 0, 7, 0}, {3, 0, 6, 1}, {3, 0, 5, 2}, {3, 0, 4, 3}, {3, 0, 3, 4}, {3, 0, 2, 5}, {3, 0, 1, 6}, {3, 0, 0, 7}, {4, 0, 0, 0}, {4, 1, 0, 0}, {4, 0, 1, 0}, {4, 0, 0, 1}, {4, 2, 0, 0}, {4, 1, 1, 0}, {4, 1, 0, 1}, {4, 0, 2, 0}, {4, 0, 1, 1}, {4, 0, 0, 2}, {4, 3, 0, 0}, {4, 2, 1, 0}, {4, 2, 0, 1}, {4, 1, 2, 0}, {4, 1, 1, 1}, {4, 1, 0, 2}, {4, 0, 3, 0}, {4, 0, 2, 1}, {4, 0, 1, 2}, {4, 0, 0, 3}, {4, 4, 0, 0}, {4, 3, 1, 0}, {4, 3, 0, 1}, {4, 2, 2, 0}, {4, 2, 1, 1}, {4, 2, 0, 2}, {4, 1, 3, 0}, {4, 1, 2, 1}, {4, 1, 1, 2}, {4, 1, 0, 3}, {4, 0, 4, 0}, {4, 0, 3, 1}, {4, 0, 2, 2}, {4, 0, 1, 3}, {4, 0, 0, 4}, {4, 5, 0, 0}, {4, 4, 1, 0}, {4, 4, 0, 1}, {4, 3, 2, 0}, {4, 3, 1, 1}, {4, 3, 0, 2}, {4, 2, 3, 0}, {4, 2, 2, 1}, {4, 2, 1, 2}, {4, 2, 0, 3}, {4, 1, 4, 0}, {4, 1, 3, 1}, {4, 1, 2, 2}, {4, 1, 1, 3}, {4, 1, 0, 4}, {4, 0, 5, 0}, {4, 0, 4, 1}, {4, 0, 3, 2}, {4, 0, 2, 3}, {4, 0, 1, 4}, {4, 0, 0, 5}, {5, 0, 0, 0}, {5, 1, 0, 0}, {5, 0, 1, 0}, {5, 0, 0, 1}, {5, 3, 0, 0}, {5, 2, 1, 0}, {5, 2, 0, 1}, {5, 1, 2, 0}, {5, 1, 1, 1}, {5, 1, 0, 2}, {5, 0, 3, 0}, {5, 0, 2, 1}, {5, 0, 1, 2}, {5, 0, 0, 3}, {5, 5, 0, 0}, {5, 4, 1, 0}, {5, 4, 0, 1}, {5, 3, 2, 0}, {5, 3, 1, 1}, {5, 3, 0, 2}, {5, 2, 3, 0}, {5, 2, 2, 1}, {5, 2, 1, 2}, {5, 2, 0, 3}, {5, 1, 4, 0}, {5, 1, 3, 1}, {5, 1, 2, 2}, {5, 1, 1, 3}, {5, 1, 0, 4}, {5, 0, 5, 0}, {5, 0, 4, 1}, {5, 0, 3, 2}, {5, 0, 2, 3}, {5, 0, 1, 4}, {5, 0, 0, 5}, {6, 0, 0, 0}, {6, 2, 0, 0}, {6, 1, 1, 0}, {6, 1, 0, 1}, {6, 0, 2, 0}, {6, 0, 1, 1}, {6, 0, 0, 2}, {6, 4, 0, 0}, {6, 3, 1, 0}, {6, 3, 0, 1}, {6, 2, 2, 0}, {6, 2, 1, 1}, {6, 2, 0, 2}, {6, 1, 3, 0}, {6, 1, 2, 1}, {6, 1, 1, 2}, {6, 1, 0, 3}, {6, 0, 4, 0}, {6, 0, 3, 1}, {6, 0, 2, 2}, {6, 0, 1, 3}, {6, 0, 0, 4}, {7, 1, 0, 0}, {7, 0, 1, 0}, {7, 0, 0, 1}, {7, 2, 0, 0}, {7, 1, 1, 0}, {7, 1, 0, 1}, {7, 0, 2, 0}, {7, 0, 1, 1}, {7, 0, 0, 2}, {7, 4, 0, 0}, {7, 3, 1, 0}, {7, 3, 0, 1}, {7, 2, 2, 0}, {7, 2, 1, 1}, {7, 2, 0, 2}, {7, 1, 3, 0}, {7, 1, 2, 1}, {7, 1, 1, 2}, {7, 1, 0, 3}, {7, 0, 4, 0}, {7, 0, 3, 1}, {7, 0, 2, 2}, {7, 0, 1, 3}, {7, 0, 0, 4}}
alpha_index_times_count = 8523
alpha_index_times = {{4, 4, 1, 679}, {5, 5, 2, 679}, {6, 6, 2, 679}, {7, 7, 1, 679}, {8, 8, 2, 679}, {9, 9, 1, 679}, {10, 10, 1, 680}, {11, 11, 2, 680}, {12, 12, 2, 680}, {13, 13, 1, 680}, {14, 14, 2, 680}, {15, 15, 1, 680}, {10, 11, 1, 681}, {11, 13, 2, 681}, {12, 14, 2, 681}, {13, 16, 1, 681}, {14, 17, 2, 681}, {15, 18, 1, 681}, {10, 12, 1, 682}, {11, 14, 2, 682}, {12, 15, 2, 682}, {13, 17, 1, 682}, {14, 18, 2, 682}, {15, 19, 1, 682}, {11, 11, 1, 683}, {13, 13, 2, 683}, {14, 14, 2, 683}, {16, 16, 1, 683}, {17, 17, 2, 683}, {18, 18, 1, 683}, {11, 12, 1, 684}, {13, 14, 2, 684}, {14, 15, 2, 684}, {16, 17, 1, 684}, {17, 18, 2, 684}, {18, 19, 1, 684}, {12, 12, 1, 685}, {14, 14, 2, 685}, {15, 15, 2, 685}, {17, 17, 1, 685}, {18, 18, 2, 685}, {19, 19, 1, 685}, {10, 10, 1, 686}, {11, 11, 3, 686}, {12, 12, 3, 686}, {13, 13, 3, 686}, {14, 14, 6, 686}, {15, 15, 3, 686}, {16, 16, 1, 686}, {17, 17, 3, 686}, {18, 18, 3, 686}, {19, 19, 1, 686}, {10, 35, 1, 687}, {11, 36, 3, 687}, {12, 37, 3, 687}, {13, 38, 3, 687}, {14, 39, 6, 687}, {15, 40, 3, 687}, {16, 41, 1, 687}, {17, 42, 3, 687}, {18, 43, 3, 687}, {19, 44, 1, 687}, {10, 36, 1, 688}, {11, 38, 3, 688}, {12, 39, 3, 688}, {13, 41, 3, 688}, {14, 42, 6, 688}, {15, 43, 3, 688}, {16, 45, 1, 688}, {17, 46, 3, 688}, {18, 47, 3, 688}, {19, 48, 1, 688}, {10, 37, 1, 689}, {11, 39, 3, 689}, {12, 40, 3, 689}, {13, 42, 3, 689}, {14, 43, 6, 689}, {15, 44, 3, 689}, {16, 46, 1, 689}, {17, 47, 3, 689}, {18, 48, 3, 689}, {19, 49, 1, 689}, {10, 38, 1, 690}, {11, 41, 3, 690}, {12, 42, 3, 690}, {13, 45, 3, 690}, {14, 46, 6, 690}, {15, 47, 3, 690}, {16, 50, 1, 690}, {17, 51, 3, 690}, {18, 52, 3, 690}, {19, 53, 1, 690}, {10, 39, 1, 691}, {11, 42, 3, 691}, {12, 43, 3, 691}, {13, 46, 3, 691}, {14, 47, 6, 691}, {15, 48, 3, 691}, {16, 51, 1, 691}, {17, 52, 3, 691}, {18, 53, 3, 691}, {19, 54, 1, 691}, {10, 40, 1, 692}, {11, 43, 3, 692}, {12, 44, 3, 692}, {13, 47, 3, 692}, {14, 48, 6, 692}, {15, 49, 3, 692}, {16, 52, 1, 692}, {17, 53, 3, 692}, {18, 54, 3, 692}, {19, 55, 1, 692}, {10, 56, 1, 693}, {11, 57, 3, 693}, {12, 58, 3, 693}, {13, 59, 3, 693}, {14, 60, 6, 693}, {15, 61, 3, 693}, {16, 62, 1, 693}, {17, 63, 3, 693}, {18, 64, 3, 693}, {19, 65, 1, 693}, {10, 57, 1, 694}, {11, 59, 3, 694}, {12, 60, 3, 694}, {13, 62, 3, 694}, {14, 63, 6, 694}, {15, 64, 3, 694}, {16, 66, 1, 694}, {17, 67, 3, 694}, {18, 68, 3, 694}, {19, 69, 1, 694}, {10, 58, 1, 695}, {11, 60, 3, 695}, {12, 61, 3, 695}, {13, 63, 3, 695}, {14, 64, 6, 695}, {15, 65, 3, 695}, {16, 67, 1, 695}, {17, 68, 3, 695}, {18, 69, 3, 695}, {19, 70, 1, 695}, {10, 59, 1, 696}, {11, 62, 3, 696}, {12, 63, 3, 696}, {13, 66, 3, 696}, {14, 67, 6, 696}, {15, 68, 3, 696}, {16, 71, 1, 696}, {17, 72, 3, 696}, {18, 73, 3, 696}, {19, 74, 1, 696}, {10, 60, 1, 697}, {11, 63, 3, 697}, {12, 64, 3, 697}, {13, 67, 3, 697}, {14, 68, 6, 697}, {15, 69, 3, 697}, {16, 72, 1, 697}, {17, 73, 3, 697}, {18, 74, 3, 697}, {19, 75, 1, 697}, {10, 61, 1, 698}, {11, 64, 3, 698}, {12, 65, 3, 698}, {13, 68, 3, 698}, {14, 69, 6, 698}, {15, 70, 3, 698}, {16, 73, 1, 698}, {17, 74, 3, 698}, {18, 75, 3, 698}, {19, 76, 1, 698}, {10, 62, 1, 699}, {11, 66, 3, 699}, {12, 67, 3, 699}, {13, 71, 3, 699}, {14, 72, 6, 699}, {15, 73, 3, 699}, {16, 77, 1, 699}, {17, 78, 3, 699}, {18, 79, 3, 699}, {19, 80, 1, 699}, {10, 63, 1, 700}, {11, 67, 3, 700}, {12, 68, 3, 700}, {13, 72, 3, 700}, {14, 73, 6, 700}, {15, 74, 3, 700}, {16, 78, 1, 700}, {17, 79, 3, 700}, {18, 80, 3, 700}, {19, 81, 1, 700}, {10, 64, 1, 701}, {11, 68, 3, 701}, {12, 69, 3, 701}, {13, 73, 3, 701}, {14, 74, 6, 701}, {15, 75, 3, 701}, {16, 79, 1, 701}, {17, 80, 3, 701}, {18, 81, 3, 701}, {19, 82, 1, 701}, {10, 65, 1, 702}, {11, 69, 3, 702}, {12, 70, 3, 702}, {13, 74, 3, 702}, {14, 75, 6, 702}, {15, 76, 3, 702}, {16, 80, 1, 702}, {17, 81, 3, 702}, {18, 82, 3, 702}, {19, 83, 1, 702}, {20, 20, 1, 703}, {21, 21, 3, 703}, {22, 22, 3, 703}, {23, 23, 3, 703}, {24, 24, 6, 703}, {25, 25, 3, 703}, {26, 26, 1, 703}, {27, 27, 3, 703}, {28, 28, 3, 703}, {29, 29, 1, 703}, {20, 21, 1, 704}, {21, 23, 3, 704}, {22, 24, 3, 704}, {23, 26, 3, 704}, {24, 27, 6, 704}, {25, 28, 3, 704}, {26, 30, 1, 704}, {27, 31, 3, 704}, {28, 32, 3, 704}, {29, 33, 1, 704}, {20, 22, 1, 705}, {21, 24, 3, 705}, {22, 25, 3, 705}, {23, 27, 3, 705}, {24, 28, 6, 705}, {25, 29, 3, 705}, {26, 31, 1, 705}, {27, 32, 3, 705}, {28, 33, 3, 705}, {29, 34, 1, 705}, {21, 21, 1, 706}, {23, 23, 3, 706}, {24, 24, 3, 706}, {26, 26, 3, 706}, {27, 27, 6, 706}, {28, 28, 3, 706}, {30, 30, 1, 706}, {31, 31, 3, 706}, {32, 32, 3, 706}, {33, 33, 1, 706}, {21, 22, 1, 707}, {23, 24, 3, 707}, {24, 25, 3, 707}, {26, 27, 3, 707}, {27, 28, 6, 707}, {28, 29, 3, 707}, {30, 31, 1, 707}, {31, 32, 3, 707}, {32, 33, 3, 707}, {33, 34, 1, 707}, {22, 22, 1, 708}, {24, 24, 3, 708}, {25, 25, 3, 708}, {27, 27, 3, 708}, {28, 28, 6, 708}, {29, 29, 3, 708}, {31, 31, 1, 708}, {32, 32, 3, 708}, {33, 33, 3, 708}, {34, 34, 1, 708}, {35, 84, 1, 709}, {36, 85, 3, 709}, {37, 86, 3, 709}, {38, 87, 3, 709}, {39, 88, 6, 709}, {40, 89, 3, 709}, {41, 90, 1, 709}, {42, 91, 3, 709}, {43, 92, 3, 709}, {44, 93, 1, 709}, {35, 85, 1, 710}, {36, 87, 3, 710}, {37, 88, 3, 710}, {38, 90, 3, 710}, {39, 91, 6, 710}, {40, 92, 3, 710}, {41, 94, 1, 710}, {42, 95, 3, 710}, {43, 96, 3, 710}, {44, 97, 1, 710}, {35, 86, 1, 711}, {36, 88, 3, 711}, {37, 89, 3, 711}, {38, 91, 3, 711}, {39, 92, 6, 711}, {40, 93, 3, 711}, {41, 95, 1, 711}, {42, 96, 3, 711}, {43, 97, 3, 711}, {44, 98, 1, 711}, {35, 87, 1, 712}, {36, 90, 3, 712}, {37, 91, 3, 712}, {38, 94, 3, 712}, {39, 95, 6, 712}, {40, 96, 3, 712}, {41, 99, 1, 712}, {42, 100, 3, 712}, {43, 101, 3, 712}, {44, 102, 1, 712}, {35, 88, 1, 713}, {36, 91, 3, 713}, {37, 92, 3, 713}, {38, 95, 3, 713}, {39, 96, 6, 713}, {40, 97, 3, 713}, {41, 100, 1, 713}, {42, 101, 3, 713}, {43, 102, 3, 713}, {44, 103, 1, 713}, {35, 89, 1, 714}, {36, 92, 3, 714}, {37, 93, 3, 714}, {38, 96, 3, 714}, {39, 97, 6, 714}, {40, 98, 3, 714}, {41, 101, 1, 714}, {42, 102, 3, 714}, {43, 103, 3, 714}, {44, 104, 1, 714}, {35, 90, 1, 715}, {36, 94, 3, 715}, {37, 95, 3, 715}, {38, 99, 3, 715}, {39, 100, 6, 715}, {40, 101, 3, 715}, {41, 105, 1, 715}, {42, 106, 3, 715}, {43, 107, 3, 715}, {44, 108, 1, 715}, {35, 91, 1, 716}, {36, 95, 3, 716}, {37, 96, 3, 716}, {38, 100, 3, 716}, {39, 101, 6, 716}, {40, 102, 3, 716}, {41, 106, 1, 716}, {42, 107, 3, 716}, {43, 108, 3, 716}, {44, 109, 1, 716}, {35, 92, 1, 717}, {36, 96, 3, 717}, {37, 97, 3, 717}, {38, 101, 3, 717}, {39, 102, 6, 717}, {40, 103, 3, 717}, {41, 107, 1, 717}, {42, 108, 3, 717}, {43, 109, 3, 717}, {44, 110, 1, 717}, {35, 93, 1, 718}, {36, 97, 3, 718}, {37, 98, 3, 718}, {38, 102, 3, 718}, {39, 103, 6, 718}, {40, 104, 3, 718}, {41, 108, 1, 718}, {42, 109, 3, 718}, {43, 110, 3, 718}, {44, 111, 1, 718}, {35, 94, 1, 719}, {36, 99, 3, 719}, {37, 100, 3, 719}, {38, 105, 3, 719}, {39, 106, 6, 719}, {40, 107, 3, 719}, {41, 112, 1, 719}, {42, 113, 3, 719}, {43, 114, 3, 719}, {44, 115, 1, 719}, {35, 95, 1, 720}, {36, 100, 3, 720}, {37, 101, 3, 720}, {38, 106, 3, 720}, {39, 107, 6, 720}, {40, 108, 3, 720}, {41, 113, 1, 720}, {42, 114, 3, 720}, {43, 115, 3, 720}, {44, 116, 1, 720}, {35, 96, 1, 721}, {36, 101, 3, 721}, {37, 102, 3, 721}, {38, 107, 3, 721}, {39, 108, 6, 721}, {40, 109, 3, 721}, {41, 114, 1, 721}, {42, 115, 3, 721}, {43, 116, 3, 721}, {44, 117, 1, 721}, {35, 97, 1, 722}, {36, 102, 3, 722}, {37, 103, 3, 722}, {38, 108, 3, 722}, {39, 109, 6, 722}, {40, 110, 3, 722}, {41, 115, 1, 722}, {42, 116, 3, 722}, {43, 117, 3, 722}, {44, 118, 1, 722}, {35, 98, 1, 723}, {36, 103, 3, 723}, {37, 104, 3, 723}, {38, 109, 3, 723}, {39, 110, 6, 723}, {40, 111, 3, 723}, {41, 116, 1, 723}, {42, 117, 3, 723}, {43, 118, 3, 723}, {44, 119, 1, 723}, {36, 84, 1, 724}, {38, 85, 3, 724}, {39, 86, 3, 724}, {41, 87, 3, 724}, {42, 88, 6, 724}, {43, 89, 3, 724}, {45, 90, 1, 724}, {46, 91, 3, 724}, {47, 92, 3, 724}, {48, 93, 1, 724}, {36, 85, 1, 725}, {38, 87, 3, 725}, {39, 88, 3, 725}, {41, 90, 3, 725}, {42, 91, 6, 725}, {43, 92, 3, 725}, {45, 94, 1, 725}, {46, 95, 3, 725}, {47, 96, 3, 725}, {48, 97, 1, 725}, {36, 86, 1, 726}, {38, 88, 3, 726}, {39, 89, 3, 726}, {41, 91, 3, 726}, {42, 92, 6, 726}, {43, 93, 3, 726}, {45, 95, 1, 726}, {46, 96, 3, 726}, {47, 97, 3, 726}, {48, 98, 1, 726}, {36, 87, 1, 727}, {38, 90, 3, 727}, {39, 91, 3, 727}, {41, 94, 3, 727}, {42, 95, 6, 727}, {43, 96, 3, 727}, {45, 99, 1, 727}, {46, 100, 3, 727}, {47, 101, 3, 727}, {48, 102, 1, 727}, {36, 88, 1, 728}, {38, 91, 3, 728}, {39, 92, 3, 728}, {41, 95, 3, 728}, {42, 96, 6, 728}, {43, 97, 3, 728}, {45, 100, 1, 728}, {46, 101, 3, 728}, {47, 102, 3, 728}, {48, 103, 1, 728}, {36, 89, 1, 729}, {38, 92, 3, 729}, {39, 93, 3, 729}, {41, 96, 3, 729}, {42, 97, 6, 729}, {43, 98, 3, 729}, {45, 101, 1, 729}, {46, 102, 3, 729}, {47, 103, 3, 729}, {48, 104, 1, 729}, {36, 90, 1, 730}, {38, 94, 3, 730}, {39, 95, 3, 730}, {41, 99, 3, 730}, {42, 100, 6, 730}, {43, 101, 3, 730}, {45, 105, 1, 730}, {46, 106, 3, 730}, {47, 107, 3, 730}, {48, 108, 1, 730}, {36, 91, 1, 731}, {38, 95, 3, 731}, {39, 96, 3, 731}, {41, 100, 3, 731}, {42, 101, 6, 731}, {43, 102, 3, 731}, {45, 106, 1, 731}, {46, 107, 3, 731}, {47, 108, 3, 731}, {48, 109, 1, 731}, {36, 92, 1, 732}, {38, 96, 3, 732}, {39, 97, 3, 732}, {41, 101, 3, 732}, {42, 102, 6, 732}, {43, 103, 3, 732}, {45, 107, 1, 732}, {46, 108, 3, 732}, {47, 109, 3, 732}, {48, 110, 1, 732}, {36, 93, 1, 733}, {38, 97, 3, 733}, {39, 98, 3, 733}, {41, 102, 3, 733}, {42, 103, 6, 733}, {43, 104, 3, 733}, {45, 108, 1, 733}, {46, 109, 3, 733}, {47, 110, 3, 733}, {48, 111, 1, 733}, {36, 94, 1, 734}, {38, 99, 3, 734}, {39, 100, 3, 734}, {41, 105, 3, 734}, {42, 106, 6, 734}, {43, 107, 3, 734}, {45, 112, 1, 734}, {46, 113, 3, 734}, {47, 114, 3, 734}, {48, 115, 1, 734}, {36, 95, 1, 735}, {38, 100, 3, 735}, {39, 101, 3, 735}, {41, 106, 3, 735}, {42, 107, 6, 735}, {43, 108, 3, 735}, {45, 113, 1, 735}, {46, 114, 3, 735}, {47, 115, 3, 735}, {48, 116, 1, 735}, {36, 96, 1, 736}, {38, 101, 3, 736}, {39, 102, 3, 736}, {41, 107, 3, 736}, {42, 108, 6, 736}, {43, 109, 3, 736}, {45, 114, 1, 736}, {46, 115, 3, 736}, {47, 116, 3, 736}, {48, 117, 1, 736}, {36, 97, 1, 737}, {38, 102, 3, 737}, {39, 103, 3, 737}, {41, 108, 3, 737}, {42, 109, 6, 737}, {43, 110, 3, 737}, {45, 115, 1, 737}, {46, 116, 3, 737}, {47, 117, 3, 737}, {48, 118, 1, 737}, {36, 98, 1, 738}, {38, 103, 3, 738}, {39, 104, 3, 738}, {41, 109, 3, 738}, {42, 110, 6, 738}, {43, 111, 3, 738}, {45, 116, 1, 738}, {46, 117, 3, 738}, {47, 118, 3, 738}, {48, 119, 1, 738}, {37, 84, 1, 739}, {39, 85, 3, 739}, {40, 86, 3, 739}, {42, 87, 3, 739}, {43, 88, 6, 739}, {44, 89, 3, 739}, {46, 90, 1, 739}, {47, 91, 3, 739}, {48, 92, 3, 739}, {49, 93, 1, 739}, {37, 85, 1, 740}, {39, 87, 3, 740}, {40, 88, 3, 740}, {42, 90, 3, 740}, {43, 91, 6, 740}, {44, 92, 3, 740}, {46, 94, 1, 740}, {47, 95, 3, 740}, {48, 96, 3, 740}, {49, 97, 1, 740}, {37, 86, 1, 741}, {39, 88, 3, 741}, {40, 89, 3, 741}, {42, 91, 3, 741}, {43, 92, 6, 741}, {44, 93, 3, 741}, {46, 95, 1, 741}, {47, 96, 3, 741}, {48, 97, 3, 741}, {49, 98, 1, 741}, {37, 87, 1, 742}, {39, 90, 3, 742}, {40, 91, 3, 742}, {42, 94, 3, 742}, {43, 95, 6, 742}, {44, 96, 3, 742}, {46, 99, 1, 742}, {47, 100, 3, 742}, {48, 101, 3, 742}, {49, 102, 1, 742}, {37, 88, 1, 743}, {39, 91, 3, 743}, {40, 92, 3, 743}, {42, 95, 3, 743}, {43, 96, 6, 743}, {44, 97, 3, 743}, {46, 100, 1, 743}, {47, 101, 3, 743}, {48, 102, 3, 743}, {49, 103, 1, 743}, {37, 89, 1, 744}, {39, 92, 3, 744}, {40, 93, 3, 744}, {42, 96, 3, 744}, {43, 97, 6, 744}, {44, 98, 3, 744}, {46, 101, 1, 744}, {47, 102, 3, 744}, {48, 103, 3, 744}, {49, 104, 1, 744}, {37, 90, 1, 745}, {39, 94, 3, 745}, {40, 95, 3, 745}, {42, 99, 3, 745}, {43, 100, 6, 745}, {44, 101, 3, 745}, {46, 105, 1, 745}, {47, 106, 3, 745}, {48, 107, 3, 745}, {49, 108, 1, 745}, {37, 91, 1, 746}, {39, 95, 3, 746}, {40, 96, 3, 746}, {42, 100, 3, 746}, {43, 101, 6, 746}, {44, 102, 3, 746}, {46, 106, 1, 746}, {47, 107, 3, 746}, {48, 108, 3, 746}, {49, 109, 1, 746}, {37, 92, 1, 747}, {39, 96, 3, 747}, {40, 97, 3, 747}, {42, 101, 3, 747}, {43, 102, 6, 747}, {44, 103, 3, 747}, {46, 107, 1, 747}, {47, 108, 3, 747}, {48, 109, 3, 747}, {49, 110, 1, 747}, {37, 93, 1, 748}, {39, 97, 3, 748}, {40, 98, 3, 748}, {42, 102, 3, 748}, {43, 103, 6, 748}, {44, 104, 3, 748}, {46, 108, 1, 748}, {47, 109, 3, 748}, {48, 110, 3, 748}, {49, 111, 1, 748}, {37, 94, 1, 749}, {39, 99, 3, 749}, {40, 100, 3, 749}, {42, 105, 3, 749}, {43, 106, 6, 749}, {44, 107, 3, 749}, {46, 112, 1, 749}, {47, 113, 3, 749}, {48, 114, 3, 749}, {49, 115, 1, 749}, {37, 95, 1, 750}, {39, 100, 3, 750}, {40, 101, 3, 750}, {42, 106, 3, 750}, {43, 107, 6, 750}, {44, 108, 3, 750}, {46, 113, 1, 750}, {47, 114, 3, 750}, {48, 115, 3, 750}, {49, 116, 1, 750}, {37, 96, 1, 751}, {39, 101, 3, 751}, {40, 102, 3, 751}, {42, 107, 3, 751}, {43, 108, 6, 751}, {44, 109, 3, 751}, {46, 114, 1, 751}, {47, 115, 3, 751}, {48, 116, 3, 751}, {49, 117, 1, 751}, {37, 97, 1, 752}, {39, 102, 3, 752}, {40, 103, 3, 752}, {42, 108, 3, 752}, {43, 109, 6, 752}, {44, 110, 3, 752}, {46, 115, 1, 752}, {47, 116, 3, 752}, {48, 117, 3, 752}, {49, 118, 1, 752}, {37, 98, 1, 753}, {39, 103, 3, 753}, {40, 104, 3, 753}, {42, 109, 3, 753}, {43, 110, 6, 753}, {44, 111, 3, 753}, {46, 116, 1, 753}, {47, 117, 3, 753}, {48, 118, 3, 753}, {49, 119, 1, 753}, {38, 84, 1, 754}, {41, 85, 3, 754}, {42, 86, 3, 754}, {45, 87, 3, 754}, {46, 88, 6, 754}, {47, 89, 3, 754}, {50, 90, 1, 754}, {51, 91, 3, 754}, {52, 92, 3, 754}, {53, 93, 1, 754}, {38, 85, 1, 755}, {41, 87, 3, 755}, {42, 88, 3, 755}, {45, 90, 3, 755}, {46, 91, 6, 755}, {47, 92, 3, 755}, {50, 94, 1, 755}, {51, 95, 3, 755}, {52, 96, 3, 755}, {53, 97, 1, 755}, {38, 86, 1, 756}, {41, 88, 3, 756}, {42, 89, 3, 756}, {45, 91, 3, 756}, {46, 92, 6, 756}, {47, 93, 3, 756}, {50, 95, 1, 756}, {51, 96, 3, 756}, {52, 97, 3, 756}, {53, 98, 1, 756}, {38, 87, 1, 757}, {41, 90, 3, 757}, {42, 91, 3, 757}, {45, 94, 3, 757}, {46, 95, 6, 757}, {47, 96, 3, 757}, {50, 99, 1, 757}, {51, 100, 3, 757}, {52, 101, 3, 757}, {53, 102, 1, 757}, {38, 88, 1, 758}, {41, 91, 3, 758}, {42, 92, 3, 758}, {45, 95, 3, 758}, {46, 96, 6, 758}, {47, 97, 3, 758}, {50, 100, 1, 758}, {51, 101, 3, 758}, {52, 102, 3, 758}, {53, 103, 1, 758}, {38, 89, 1, 759}, {41, 92, 3, 759}, {42, 93, 3, 759}, {45, 96, 3, 759}, {46, 97, 6, 759}, {47, 98, 3, 759}, {50, 101, 1, 759}, {51, 102, 3, 759}, {52, 103, 3, 759}, {53, 104, 1, 759}, {38, 90, 1, 760}, {41, 94, 3, 760}, {42, 95, 3, 760}, {45, 99, 3, 760}, {46, 100, 6, 760}, {47, 101, 3, 760}, {50, 105, 1, 760}, {51, 106, 3, 760}, {52, 107, 3, 760}, {53, 108, 1, 760}, {38, 91, 1, 761}, {41, 95, 3, 761}, {42, 96, 3, 761}, {45, 100, 3, 761}, {46, 101, 6, 761}, {47, 102, 3, 761}, {50, 106, 1, 761}, {51, 107, 3, 761}, {52, 108, 3, 761}, {53, 109, 1, 761}, {38, 92, 1, 762}, {41, 96, 3, 762}, {42, 97, 3, 762}, {45, 101, 3, 762}, {46, 102, 6, 762}, {47, 103, 3, 762}, {50, 107, 1, 762}, {51, 108, 3, 762}, {52, 109, 3, 762}, {53, 110, 1, 762}, {38, 93, 1, 763}, {41, 97, 3, 763}, {42, 98, 3, 763}, {45, 102, 3, 763}, {46, 103, 6, 763}, {47, 104, 3, 763}, {50, 108, 1, 763}, {51, 109, 3, 763}, {52, 110, 3, 763}, {53, 111, 1, 763}, {38, 94, 1, 764}, {41, 99, 3, 764}, {42, 100, 3, 764}, {45, 105, 3, 764}, {46, 106, 6, 764}, {47, 107, 3, 764}, {50, 112, 1, 764}, {51, 113, 3, 764}, {52, 114, 3, 764}, {53, 115, 1, 764}, {38, 95, 1, 765}, {41, 100, 3, 765}, {42, 101, 3, 765}, {45, 106, 3, 765}, {46, 107, 6, 765}, {47, 108, 3, 765}, {50, 113, 1, 765}, {51, 114, 3, 765}, {52, 115, 3, 765}, {53, 116, 1, 765}, {38, 96, 1, 766}, {41, 101, 3, 766}, {42, 102, 3, 766}, {45, 107, 3, 766}, {46, 108, 6, 766}, {47, 109, 3, 766}, {50, 114, 1, 766}, {51, 115, 3, 766}, {52, 116, 3, 766}, {53, 117, 1, 766}, {38, 97, 1, 767}, {41, 102, 3, 767}, {42, 103, 3, 767}, {45, 108, 3, 767}, {46, 109, 6, 767}, {47, 110, 3, 767}, {50, 115, 1, 767}, {51, 116, 3, 767}, {52, 117, 3, 767}, {53, 118, 1, 767}, {38, 98, 1, 768}, {41, 103, 3, 768}, {42, 104, 3, 768}, {45, 109, 3, 768}, {46, 110, 6, 768}, {47, 111, 3, 768}, {50, 116, 1, 768}, {51, 117, 3, 768}, {52, 118, 3, 768}, {53, 119, 1, 768}, {39, 84, 1, 769}, {42, 85, 3, 769}, {43, 86, 3, 769}, {46, 87, 3, 769}, {47, 88, 6, 769}, {48, 89, 3, 769}, {51, 90, 1, 769}, {52, 91, 3, 769}, {53, 92, 3, 769}, {54, 93, 1, 769}, {39, 85, 1, 770}, {42, 87, 3, 770}, {43, 88, 3, 770}, {46, 90, 3, 770}, {47, 91, 6, 770}, {48, 92, 3, 770}, {51, 94, 1, 770}, {52, 95, 3, 770}, {53, 96, 3, 770}, {54, 97, 1, 770}, {39, 86, 1, 771}, {42, 88, 3, 771}, {43, 89, 3, 771}, {46, 91, 3, 771}, {47, 92, 6, 771}, {48, 93, 3, 771}, {51, 95, 1, 771}, {52, 96, 3, 771}, {53, 97, 3, 771}, {54, 98, 1, 771}, {39, 87, 1, 772}, {42, 90, 3, 772}, {43, 91, 3, 772}, {46, 94, 3, 772}, {47, 95, 6, 772}, {48, 96, 3, 772}, {51, 99, 1, 772}, {52, 100, 3, 772}, {53, 101, 3, 772}, {54, 102, 1, 772}, {39, 88, 1, 773}, {42, 91, 3, 773}, {43, 92, 3, 773}, {46, 95, 3, 773}, {47, 96, 6, 773}, {48, 97, 3, 773}, {51, 100, 1, 773}, {52, 101, 3, 773}, {53, 102, 3, 773}, {54, 103, 1, 773}, {39, 89, 1, 774}, {42, 92, 3, 774}, {43, 93, 3, 774}, {46, 96, 3, 774}, {47, 97, 6, 774}, {48, 98, 3, 774}, {51, 101, 1, 774}, {52, 102, 3, 774}, {53, 103, 3, 774}, {54, 104, 1, 774}, {39, 90, 1, 775}, {42, 94, 3, 775}, {43, 95, 3, 775}, {46, 99, 3, 775}, {47, 100, 6, 775}, {48, 101, 3, 775}, {51, 105, 1, 775}, {52, 106, 3, 775}, {53, 107, 3, 775}, {54, 108, 1, 775}, {39, 91, 1, 776}, {42, 95, 3, 776}, {43, 96, 3, 776}, {46, 100, 3, 776}, {47, 101, 6, 776}, {48, 102, 3, 776}, {51, 106, 1, 776}, {52, 107, 3, 776}, {53, 108, 3, 776}, {54, 109, 1, 776}, {39, 92, 1, 777}, {42, 96, 3, 777}, {43, 97, 3, 777}, {46, 101, 3, 777}, {47, 102, 6, 777}, {48, 103, 3, 777}, {51, 107, 1, 777}, {52, 108, 3, 777}, {53, 109, 3, 777}, {54, 110, 1, 777}, {39, 93, 1, 778}, {42, 97, 3, 778}, {43, 98, 3, 778}, {46, 102, 3, 778}, {47, 103, 6, 778}, {48, 104, 3, 778}, {51, 108, 1, 778}, {52, 109, 3, 778}, {53, 110, 3, 778}, {54, 111, 1, 778}, {39, 94, 1, 779}, {42, 99, 3, 779}, {43, 100, 3, 779}, {46, 105, 3, 779}, {47, 106, 6, 779}, {48, 107, 3, 779}, {51, 112, 1, 779}, {52, 113, 3, 779}, {53, 114, 3, 779}, {54, 115, 1, 779}, {39, 95, 1, 780}, {42, 100, 3, 780}, {43, 101, 3, 780}, {46, 106, 3, 780}, {47, 107, 6, 780}, {48, 108, 3, 780}, {51, 113, 1, 780}, {52, 114, 3, 780}, {53, 115, 3, 780}, {54, 116, 1, 780}, {39, 96, 1, 781}, {42, 101, 3, 781}, {43, 102, 3, 781}, {46, 107, 3, 781}, {47, 108, 6, 781}, {48, 109, 3, 781}, {51, 114, 1, 781}, {52, 115, 3, 781}, {53, 116, 3, 781}, {54, 117, 1, 781}, {39, 97, 1, 782}, {42, 102, 3, 782}, {43, 103, 3, 782}, {46, 108, 3, 782}, {47, 109, 6, 782}, {48, 110, 3, 782}, {51, 115, 1, 782}, {52, 116, 3, 782}, {53, 117, 3, 782}, {54, 118, 1, 782}, {39, 98, 1, 783}, {42, 103, 3, 783}, {43, 104, 3, 783}, {46, 109, 3, 783}, {47, 110, 6, 783}, {48, 111, 3, 783}, {51, 116, 1, 783}, {52, 117, 3, 783}, {53, 118, 3, 783}, {54, 119, 1, 783}, {40, 84, 1, 784}, {43, 85, 3, 784}, {44, 86, 3, 784}, {47, 87, 3, 784}, {48, 88, 6, 784}, {49, 89, 3, 784}, {52, 90, 1, 784}, {53, 91, 3, 784}, {54, 92, 3, 784}, {55, 93, 1, 784}, {40, 85, 1, 785}, {43, 87, 3, 785}, {44, 88, 3, 785}, {47, 90, 3, 785}, {48, 91, 6, 785}, {49, 92, 3, 785}, {52, 94, 1, 785}, {53, 95, 3, 785}, {54, 96, 3, 785}, {55, 97, 1, 785}, {40, 86, 1, 786}, {43, 88, 3, 786}, {44, 89, 3, 786}, {47, 91, 3, 786}, {48, 92, 6, 786}, {49, 93, 3, 786}, {52, 95, 1, 786}, {53, 96, 3, 786}, {54, 97, 3, 786}, {55, 98, 1, 786}, {40, 87, 1, 787}, {43, 90, 3, 787}, {44, 91, 3, 787}, {47, 94, 3, 787}, {48, 95, 6, 787}, {49, 96, 3, 787}, {52, 99, 1, 787}, {53, 100, 3, 787}, {54, 101, 3, 787}, {55, 102, 1, 787}, {40, 88, 1, 788}, {43, 91, 3, 788}, {44, 92, 3, 788}, {47, 95, 3, 788}, {48, 96, 6, 788}, {49, 97, 3, 788}, {52, 100, 1, 788}, {53, 101, 3, 788}, {54, 102, 3, 788}, {55, 103, 1, 788}, {40, 89, 1, 789}, {43, 92, 3, 789}, {44, 93, 3, 789}, {47, 96, 3, 789}, {48, 97, 6, 789}, {49, 98, 3, 789}, {52, 101, 1, 789}, {53, 102, 3, 789}, {54, 103, 3, 789}, {55, 104, 1, 789}, {40, 90, 1, 790}, {43, 94, 3, 790}, {44, 95, 3, 790}, {47, 99, 3, 790}, {48, 100, 6, 790}, {49, 101, 3, 790}, {52, 105, 1, 790}, {53, 106, 3, 790}, {54, 107, 3, 790}, {55, 108, 1, 790}, {40, 91, 1, 791}, {43, 95, 3, 791}, {44, 96, 3, 791}, {47, 100, 3, 791}, {48, 101, 6, 791}, {49, 102, 3, 791}, {52, 106, 1, 791}, {53, 107, 3, 791}, {54, 108, 3, 791}, {55, 109, 1, 791}, {40, 92, 1, 792}, {43, 96, 3, 792}, {44, 97, 3, 792}, {47, 101, 3, 792}, {48, 102, 6, 792}, {49, 103, 3, 792}, {52, 107, 1, 792}, {53, 108, 3, 792}, {54, 109, 3, 792}, {55, 110, 1, 792}, {40, 93, 1, 793}, {43, 97, 3, 793}, {44, 98, 3, 793}, {47, 102, 3, 793}, {48, 103, 6, 793}, {49, 104, 3, 793}, {52, 108, 1, 793}, {53, 109, 3, 793}, {54, 110, 3, 793}, {55, 111, 1, 793}, {40, 94, 1, 794}, {43, 99, 3, 794}, {44, 100, 3, 794}, {47, 105, 3, 794}, {48, 106, 6, 794}, {49, 107, 3, 794}, {52, 112, 1, 794}, {53, 113, 3, 794}, {54, 114, 3, 794}, {55, 115, 1, 794}, {40, 95, 1, 795}, {43, 100, 3, 795}, {44, 101, 3, 795}, {47, 106, 3, 795}, {48, 107, 6, 795}, {49, 108, 3, 795}, {52, 113, 1, 795}, {53, 114, 3, 795}, {54, 115, 3, 795}, {55, 116, 1, 795}, {40, 96, 1, 796}, {43, 101, 3, 796}, {44, 102, 3, 796}, {47, 107, 3, 796}, {48, 108, 6, 796}, {49, 109, 3, 796}, {52, 114, 1, 796}, {53, 115, 3, 796}, {54, 116, 3, 796}, {55, 117, 1, 796}, {40, 97, 1, 797}, {43, 102, 3, 797}, {44, 103, 3, 797}, {47, 108, 3, 797}, {48, 109, 6, 797}, {49, 110, 3, 797}, {52, 115, 1, 797}, {53, 116, 3, 797}, {54, 117, 3, 797}, {55, 118, 1, 797}, {40, 98, 1, 798}, {43, 103, 3, 798}, {44, 104, 3, 798}, {47, 109, 3, 798}, {48, 110, 6, 798}, {49, 111, 3, 798}, {52, 116, 1, 798}, {53, 117, 3, 798}, {54, 118, 3, 798}, {55, 119, 1, 798}, {35, 35, 1, 799}, {36, 36, 4, 799}, {37, 37, 4, 799}, {38, 38, 6, 799}, {39, 39, 12, 799}, {40, 40, 6, 799}, {41, 41, 4, 799}, {42, 42, 12, 799}, {43, 43, 12, 799}, {44, 44, 4, 799}, {45, 45, 1, 799}, {46, 46, 4, 799}, {47, 47, 6, 799}, {48, 48, 4, 799}, {49, 49, 1, 799}, {35, 36, 1, 800}, {36, 38, 4, 800}, {37, 39, 4, 800}, {38, 41, 6, 800}, {39, 42, 12, 800}, {40, 43, 6, 800}, {41, 45, 4, 800}, {42, 46, 12, 800}, {43, 47, 12, 800}, {44, 48, 4, 800}, {45, 50, 1, 800}, {46, 51, 4, 800}, {47, 52, 6, 800}, {48, 53, 4, 800}, {49, 54, 1, 800}, {35, 37, 1, 801}, {36, 39, 4, 801}, {37, 40, 4, 801}, {38, 42, 6, 801}, {39, 43, 12, 801}, {40, 44, 6, 801}, {41, 46, 4, 801}, {42, 47, 12, 801}, {43, 48, 12, 801}, {44, 49, 4, 801}, {45, 51, 1, 801}, {46, 52, 4, 801}, {47, 53, 6, 801}, {48, 54, 4, 801}, {49, 55, 1, 801}, {36, 36, 1, 802}, {38, 38, 4, 802}, {39, 39, 4, 802}, {41, 41, 6, 802}, {42, 42, 12, 802}, {43, 43, 6, 802}, {45, 45, 4, 802}, {46, 46, 12, 802}, {47, 47, 12, 802}, {48, 48, 4, 802}, {50, 50, 1, 802}, {51, 51, 4, 802}, {52, 52, 6, 802}, {53, 53, 4, 802}, {54, 54, 1, 802}, {36, 37, 1, 803}, {38, 39, 4, 803}, {39, 40, 4, 803}, {41, 42, 6, 803}, {42, 43, 12, 803}, {43, 44, 6, 803}, {45, 46, 4, 803}, {46, 47, 12, 803}, {47, 48, 12, 803}, {48, 49, 4, 803}, {50, 51, 1, 803}, {51, 52, 4, 803}, {52, 53, 6, 803}, {53, 54, 4, 803}, {54, 55, 1, 803}, {37, 37, 1, 804}, {39, 39, 4, 804}, {40, 40, 4, 804}, {42, 42, 6, 804}, {43, 43, 12, 804}, {44, 44, 6, 804}, {46, 46, 4, 804}, {47, 47, 12, 804}, {48, 48, 12, 804}, {49, 49, 4, 804}, {51, 51, 1, 804}, {52, 52, 4, 804}, {53, 53, 6, 804}, {54, 54, 4, 804}, {55, 55, 1, 804}, {56, 56, 1, 805}, {57, 57, 6, 805}, {58, 58, 6, 805}, {59, 59, 15, 805}, {60, 60, 30, 805}, {61, 61, 15, 805}, {62, 62, 20, 805}, {63, 63, 60, 805}, {64, 64, 60, 805}, {65, 65, 20, 805}, {66, 66, 15, 805}, {67, 67, 60, 805}, {68, 68, 90, 805}, {69, 69, 60, 805}, {70, 70, 15, 805}, {71, 71, 6, 805}, {72, 72, 30, 805}, {73, 73, 60, 805}, {74, 74, 60, 805}, {75, 75, 30, 805}, {76, 76, 6, 805}, {77, 77, 1, 805}, {78, 78, 6, 805}, {79, 79, 15, 805}, {80, 80, 20, 805}, {81, 81, 15, 805}, {82, 82, 6, 805}, {83, 83, 1, 805}, {120, 120, 1, 806}, {121, 121, 8, 806}, {122, 122, 8, 806}, {123, 123, 28, 806}, {124, 124, 56, 806}, {125, 125, 28, 806}, {126, 126, 56, 806}, {127, 127, 168, 806}, {128, 128, 168, 806}, {129, 129, 56, 806}, {130, 130, 70, 806}, {131, 131, 280, 806}, {132, 132, 420, 806}, {133, 133, 280, 806}, {134, 134, 70, 806}, {135, 135, 56, 806}, {136, 136, 280, 806}, {137, 137, 560, 806}, {138, 138, 560, 806}, {139, 139, 280, 806}, {140, 140, 56, 806}, {141, 141, 28, 806}, {142, 142, 168, 806}, {143, 143, 420, 806}, {144, 144, 560, 806}, {145, 145, 420, 806}, {146, 146, 168, 806}, {147, 147, 28, 806}, {148, 148, 8, 806}, {149, 149, 56, 806}, {150, 150, 168, 806}, {151, 151, 280, 806}, {152, 152, 280, 806}, {153, 153, 168, 806}, {154, 154, 56, 806}, {155, 155, 8, 806}, {156, 156, 1, 806}, {157, 157, 8, 806}, {158, 158, 28, 806}, {159, 159, 56, 806}, {160, 160, 70, 806}, {161, 161, 56, 806}, {162, 162, 28, 806}, {163, 163, 8, 806}, {164, 164, 1, 806}, {1, 166, 1, 807}, {2, 167, 1, 807}, {3, 168, 1, 807}, {10, 169, 1, 808}, {11, 170, 2, 808}, {12, 171, 2, 808}, {13, 172, 1, 808}, {14, 173, 2, 808}, {15, 174, 1, 808}, {11, 169, 1, 809}, {13, 170, 2, 809}, {14, 171, 2, 809}, {16, 172, 1, 809}, {17, 173, 2, 809}, {18, 174, 1, 809}, {12, 169, 1, 810}, {14, 170, 2, 810}, {15, 171, 2, 810}, {17, 172, 1, 810}, {18, 173, 2, 810}, {19, 174, 1, 810}, {10, 185, 1, 811}, {11, 186, 2, 811}, {12, 187, 2, 811}, {13, 188, 1, 811}, {14, 189, 2, 811}, {15, 190, 1, 811}, {10, 186, 1, 812}, {11, 188, 2, 812}, {12, 189, 2, 812}, {13, 191, 1, 812}, {14, 192, 2, 812}, {15, 193, 1, 812}, {10, 187, 1, 813}, {11, 189, 2, 813}, {12, 190, 2, 813}, {13, 192, 1, 813}, {14, 193, 2, 813}, {15, 194, 1, 813}, {10, 188, 1, 814}, {11, 191, 2, 814}, {12, 192, 2, 814}, {13, 195, 1, 814}, {14, 196, 2, 814}, {15, 197, 1, 814}, {10, 189, 1, 815}, {11, 192, 2, 815}, {12, 193, 2, 815}, {13, 196, 1, 815}, {14, 197, 2, 815}, {15, 198, 1, 815}, {10, 190, 1, 816}, {11, 193, 2, 816}, {12, 194, 2, 816}, {13, 197, 1, 816}, {14, 198, 2, 816}, {15, 199, 1, 816}, {11, 185, 1, 817}, {13, 186, 2, 817}, {14, 187, 2, 817}, {16, 188, 1, 817}, {17, 189, 2, 817}, {18, 190, 1, 817}, {11, 186, 1, 818}, {13, 188, 2, 818}, {14, 189, 2, 818}, {16, 191, 1, 818}, {17, 192, 2, 818}, {18, 193, 1, 818}, {11, 187, 1, 819}, {13, 189, 2, 819}, {14, 190, 2, 819}, {16, 192, 1, 819}, {17, 193, 2, 819}, {18, 194, 1, 819}, {11, 188, 1, 820}, {13, 191, 2, 820}, {14, 192, 2, 820}, {16, 195, 1, 820}, {17, 196, 2, 820}, {18, 197, 1, 820}, {11, 189, 1, 821}, {13, 192, 2, 821}, {14, 193, 2, 821}, {16, 196, 1, 821}, {17, 197, 2, 821}, {18, 198, 1, 821}, {11, 190, 1, 822}, {13, 193, 2, 822}, {14, 194, 2, 822}, {16, 197, 1, 822}, {17, 198, 2, 822}, {18, 199, 1, 822}, {12, 185, 1, 823}, {14, 186, 2, 823}, {15, 187, 2, 823}, {17, 188, 1, 823}, {18, 189, 2, 823}, {19, 190, 1, 823}, {12, 186, 1, 824}, {14, 188, 2, 824}, {15, 189, 2, 824}, {17, 191, 1, 824}, {18, 192, 2, 824}, {19, 193, 1, 824}, {12, 187, 1, 825}, {14, 189, 2, 825}, {15, 190, 2, 825}, {17, 192, 1, 825}, {18, 193, 2, 825}, {19, 194, 1, 825}, {12, 188, 1, 826}, {14, 191, 2, 826}, {15, 192, 2, 826}, {17, 195, 1, 826}, {18, 196, 2, 826}, {19, 197, 1, 826}, {12, 189, 1, 827}, {14, 192, 2, 827}, {15, 193, 2, 827}, {17, 196, 1, 827}, {18, 197, 2, 827}, {19, 198, 1, 827}, {12, 190, 1, 828}, {14, 193, 2, 828}, {15, 194, 2, 828}, {17, 197, 1, 828}, {18, 198, 2, 828}, {19, 199, 1, 828}, {10, 221, 1, 829}, {11, 222, 3, 829}, {12, 223, 3, 829}, {13, 224, 3, 829}, {14, 225, 6, 829}, {15, 226, 3, 829}, {16, 227, 1, 829}, {17, 228, 3, 829}, {18, 229, 3, 829}, {19, 230, 1, 829}, {10, 222, 1, 830}, {11, 224, 3, 830}, {12, 225, 3, 830}, {13, 227, 3, 830}, {14, 228, 6, 830}, {15, 229, 3, 830}, {16, 231, 1, 830}, {17, 232, 3, 830}, {18, 233, 3, 830}, {19, 234, 1, 830}, {10, 223, 1, 831}, {11, 225, 3, 831}, {12, 226, 3, 831}, {13, 228, 3, 831}, {14, 229, 6, 831}, {15, 230, 3, 831}, {16, 232, 1, 831}, {17, 233, 3, 831}, {18, 234, 3, 831}, {19, 235, 1, 831}, {10, 224, 1, 832}, {11, 227, 3, 832}, {12, 228, 3, 832}, {13, 231, 3, 832}, {14, 232, 6, 832}, {15, 233, 3, 832}, {16, 236, 1, 832}, {17, 237, 3, 832}, {18, 238, 3, 832}, {19, 239, 1, 832}, {10, 225, 1, 833}, {11, 228, 3, 833}, {12, 229, 3, 833}, {13, 232, 3, 833}, {14, 233, 6, 833}, {15, 234, 3, 833}, {16, 237, 1, 833}, {17, 238, 3, 833}, {18, 239, 3, 833}, {19, 240, 1, 833}, {10, 226, 1, 834}, {11, 229, 3, 834}, {12, 230, 3, 834}, {13, 233, 3, 834}, {14, 234, 6, 834}, {15, 235, 3, 834}, {16, 238, 1, 834}, {17, 239, 3, 834}, {18, 240, 3, 834}, {19, 241, 1, 834}, {10, 227, 1, 835}, {11, 231, 3, 835}, {12, 232, 3, 835}, {13, 236, 3, 835}, {14, 237, 6, 835}, {15, 238, 3, 835}, {16, 242, 1, 835}, {17, 243, 3, 835}, {18, 244, 3, 835}, {19, 245, 1, 835}, {10, 228, 1, 836}, {11, 232, 3, 836}, {12, 233, 3, 836}, {13, 237, 3, 836}, {14, 238, 6, 836}, {15, 239, 3, 836}, {16, 243, 1, 836}, {17, 244, 3, 836}, {18, 245, 3, 836}, {19, 246, 1, 836}, {10, 229, 1, 837}, {11, 233, 3, 837}, {12, 234, 3, 837}, {13, 238, 3, 837}, {14, 239, 6, 837}, {15, 240, 3, 837}, {16, 244, 1, 837}, {17, 245, 3, 837}, {18, 246, 3, 837}, {19, 247, 1, 837}, {10, 230, 1, 838}, {11, 234, 3, 838}, {12, 235, 3, 838}, {13, 239, 3, 838}, {14, 240, 6, 838}, {15, 241, 3, 838}, {16, 245, 1, 838}, {17, 246, 3, 838}, {18, 247, 3, 838}, {19, 248, 1, 838}, {20, 185, 1, 839}, {21, 186, 2, 839}, {22, 187, 2, 839}, {23, 188, 1, 839}, {24, 189, 2, 839}, {25, 190, 1, 839}, {20, 186, 1, 840}, {21, 188, 2, 840}, {22, 189, 2, 840}, {23, 191, 1, 840}, {24, 192, 2, 840}, {25, 193, 1, 840}, {20, 187, 1, 841}, {21, 189, 2, 841}, {22, 190, 2, 841}, {23, 192, 1, 841}, {24, 193, 2, 841}, {25, 194, 1, 841}, {20, 188, 1, 842}, {21, 191, 2, 842}, {22, 192, 2, 842}, {23, 195, 1, 842}, {24, 196, 2, 842}, {25, 197, 1, 842}, {20, 189, 1, 843}, {21, 192, 2, 843}, {22, 193, 2, 843}, {23, 196, 1, 843}, {24, 197, 2, 843}, {25, 198, 1, 843}, {20, 190, 1, 844}, {21, 193, 2, 844}, {22, 194, 2, 844}, {23, 197, 1, 844}, {24, 198, 2, 844}, {25, 199, 1, 844}, {21, 185, 1, 845}, {23, 186, 2, 845}, {24, 187, 2, 845}, {26, 188, 1, 845}, {27, 189, 2, 845}, {28, 190, 1, 845}, {21, 186, 1, 846}, {23, 188, 2, 846}, {24, 189, 2, 846}, {26, 191, 1, 846}, {27, 192, 2, 846}, {28, 193, 1, 846}, {21, 187, 1, 847}, {23, 189, 2, 847}, {24, 190, 2, 847}, {26, 192, 1, 847}, {27, 193, 2, 847}, {28, 194, 1, 847}, {21, 188, 1, 848}, {23, 191, 2, 848}, {24, 192, 2, 848}, {26, 195, 1, 848}, {27, 196, 2, 848}, {28, 197, 1, 848}, {21, 189, 1, 849}, {23, 192, 2, 849}, {24, 193, 2, 849}, {26, 196, 1, 849}, {27, 197, 2, 849}, {28, 198, 1, 849}, {21, 190, 1, 850}, {23, 193, 2, 850}, {24, 194, 2, 850}, {26, 197, 1, 850}, {27, 198, 2, 850}, {28, 199, 1, 850}, {22, 185, 1, 851}, {24, 186, 2, 851}, {25, 187, 2, 851}, {27, 188, 1, 851}, {28, 189, 2, 851}, {29, 190, 1, 851}, {22, 186, 1, 852}, {24, 188, 2, 852}, {25, 189, 2, 852}, {27, 191, 1, 852}, {28, 192, 2, 852}, {29, 193, 1, 852}, {22, 187, 1, 853}, {24, 189, 2, 853}, {25, 190, 2, 853}, {27, 192, 1, 853}, {28, 193, 2, 853}, {29, 194, 1, 853}, {22, 188, 1, 854}, {24, 191, 2, 854}, {25, 192, 2, 854}, {27, 195, 1, 854}, {28, 196, 2, 854}, {29, 197, 1, 854}, {22, 189, 1, 855}, {24, 192, 2, 855}, {25, 193, 2, 855}, {27, 196, 1, 855}, {28, 197, 2, 855}, {29, 198, 1, 855}, {22, 190, 1, 856}, {24, 193, 2, 856}, {25, 194, 2, 856}, {27, 197, 1, 856}, {28, 198, 2, 856}, {29, 199, 1, 856}, {23, 185, 1, 857}, {26, 186, 2, 857}, {27, 187, 2, 857}, {30, 188, 1, 857}, {31, 189, 2, 857}, {32, 190, 1, 857}, {23, 186, 1, 858}, {26, 188, 2, 858}, {27, 189, 2, 858}, {30, 191, 1, 858}, {31, 192, 2, 858}, {32, 193, 1, 858}, {23, 187, 1, 859}, {26, 189, 2, 859}, {27, 190, 2, 859}, {30, 192, 1, 859}, {31, 193, 2, 859}, {32, 194, 1, 859}, {23, 188, 1, 860}, {26, 191, 2, 860}, {27, 192, 2, 860}, {30, 195, 1, 860}, {31, 196, 2, 860}, {32, 197, 1, 860}, {23, 189, 1, 861}, {26, 192, 2, 861}, {27, 193, 2, 861}, {30, 196, 1, 861}, {31, 197, 2, 861}, {32, 198, 1, 861}, {23, 190, 1, 862}, {26, 193, 2, 862}, {27, 194, 2, 862}, {30, 197, 1, 862}, {31, 198, 2, 862}, {32, 199, 1, 862}, {24, 185, 1, 863}, {27, 186, 2, 863}, {28, 187, 2, 863}, {31, 188, 1, 863}, {32, 189, 2, 863}, {33, 190, 1, 863}, {24, 186, 1, 864}, {27, 188, 2, 864}, {28, 189, 2, 864}, {31, 191, 1, 864}, {32, 192, 2, 864}, {33, 193, 1, 864}, {24, 187, 1, 865}, {27, 189, 2, 865}, {28, 190, 2, 865}, {31, 192, 1, 865}, {32, 193, 2, 865}, {33, 194, 1, 865}, {24, 188, 1, 866}, {27, 191, 2, 866}, {28, 192, 2, 866}, {31, 195, 1, 866}, {32, 196, 2, 866}, {33, 197, 1, 866}, {24, 189, 1, 867}, {27, 192, 2, 867}, {28, 193, 2, 867}, {31, 196, 1, 867}, {32, 197, 2, 867}, {33, 198, 1, 867}, {24, 190, 1, 868}, {27, 193, 2, 868}, {28, 194, 2, 868}, {31, 197, 1, 868}, {32, 198, 2, 868}, {33, 199, 1, 868}, {25, 185, 1, 869}, {28, 186, 2, 869}, {29, 187, 2, 869}, {32, 188, 1, 869}, {33, 189, 2, 869}, {34, 190, 1, 869}, {25, 186, 1, 870}, {28, 188, 2, 870}, {29, 189, 2, 870}, {32, 191, 1, 870}, {33, 192, 2, 870}, {34, 193, 1, 870}, {25, 187, 1, 871}, {28, 189, 2, 871}, {29, 190, 2, 871}, {32, 192, 1, 871}, {33, 193, 2, 871}, {34, 194, 1, 871}, {25, 188, 1, 872}, {28, 191, 2, 872}, {29, 192, 2, 872}, {32, 195, 1, 872}, {33, 196, 2, 872}, {34, 197, 1, 872}, {25, 189, 1, 873}, {28, 192, 2, 873}, {29, 193, 2, 873}, {32, 196, 1, 873}, {33, 197, 2, 873}, {34, 198, 1, 873}, {25, 190, 1, 874}, {28, 193, 2, 874}, {29, 194, 2, 874}, {32, 197, 1, 874}, {33, 198, 2, 874}, {34, 199, 1, 874}, {20, 200, 1, 875}, {21, 201, 2, 875}, {22, 202, 2, 875}, {23, 203, 1, 875}, {24, 204, 2, 875}, {25, 205, 1, 875}, {20, 201, 1, 876}, {21, 203, 2, 876}, {22, 204, 2, 876}, {23, 206, 1, 876}, {24, 207, 2, 876}, {25, 208, 1, 876}, {20, 202, 1, 877}, {21, 204, 2, 877}, {22, 205, 2, 877}, {23, 207, 1, 877}, {24, 208, 2, 877}, {25, 209, 1, 877}, {20, 203, 1, 878}, {21, 206, 2, 878}, {22, 207, 2, 878}, {23, 210, 1, 878}, {24, 211, 2, 878}, {25, 212, 1, 878}, {20, 204, 1, 879}, {21, 207, 2, 879}, {22, 208, 2, 879}, {23, 211, 1, 879}, {24, 212, 2, 879}, {25, 213, 1, 879}, {20, 205, 1, 880}, {21, 208, 2, 880}, {22, 209, 2, 880}, {23, 212, 1, 880}, {24, 213, 2, 880}, {25, 214, 1, 880}, {20, 206, 1, 881}, {21, 210, 2, 881}, {22, 211, 2, 881}, {23, 215, 1, 881}, {24, 216, 2, 881}, {25, 217, 1, 881}, {20, 207, 1, 882}, {21, 211, 2, 882}, {22, 212, 2, 882}, {23, 216, 1, 882}, {24, 217, 2, 882}, {25, 218, 1, 882}, {20, 208, 1, 883}, {21, 212, 2, 883}, {22, 213, 2, 883}, {23, 217, 1, 883}, {24, 218, 2, 883}, {25, 219, 1, 883}, {20, 209, 1, 884}, {21, 213, 2, 884}, {22, 214, 2, 884}, {23, 218, 1, 884}, {24, 219, 2, 884}, {25, 220, 1, 884}, {21, 200, 1, 885}, {23, 201, 2, 885}, {24, 202, 2, 885}, {26, 203, 1, 885}, {27, 204, 2, 885}, {28, 205, 1, 885}, {21, 201, 1, 886}, {23, 203, 2, 886}, {24, 204, 2, 886}, {26, 206, 1, 886}, {27, 207, 2, 886}, {28, 208, 1, 886}, {21, 202, 1, 887}, {23, 204, 2, 887}, {24, 205, 2, 887}, {26, 207, 1, 887}, {27, 208, 2, 887}, {28, 209, 1, 887}, {21, 203, 1, 888}, {23, 206, 2, 888}, {24, 207, 2, 888}, {26, 210, 1, 888}, {27, 211, 2, 888}, {28, 212, 1, 888}, {21, 204, 1, 889}, {23, 207, 2, 889}, {24, 208, 2, 889}, {26, 211, 1, 889}, {27, 212, 2, 889}, {28, 213, 1, 889}, {21, 205, 1, 890}, {23, 208, 2, 890}, {24, 209, 2, 890}, {26, 212, 1, 890}, {27, 213, 2, 890}, {28, 214, 1, 890}, {21, 206, 1, 891}, {23, 210, 2, 891}, {24, 211, 2, 891}, {26, 215, 1, 891}, {27, 216, 2, 891}, {28, 217, 1, 891}, {21, 207, 1, 892}, {23, 211, 2, 892}, {24, 212, 2, 892}, {26, 216, 1, 892}, {27, 217, 2, 892}, {28, 218, 1, 892}, {21, 208, 1, 893}, {23, 212, 2, 893}, {24, 213, 2, 893}, {26, 217, 1, 893}, {27, 218, 2, 893}, {28, 219, 1, 893}, {21, 209, 1, 894}, {23, 213, 2, 894}, {24, 214, 2, 894}, {26, 218, 1, 894}, {27, 219, 2, 894}, {28, 220, 1, 894}, {22, 200, 1, 895}, {24, 201, 2, 895}, {25, 202, 2, 895}, {27, 203, 1, 895}, {28, 204, 2, 895}, {29, 205, 1, 895}, {22, 201, 1, 896}, {24, 203, 2, 896}, {25, 204, 2, 896}, {27, 206, 1, 896}, {28, 207, 2, 896}, {29, 208, 1, 896}, {22, 202, 1, 897}, {24, 204, 2, 897}, {25, 205, 2, 897}, {27, 207, 1, 897}, {28, 208, 2, 897}, {29, 209, 1, 897}, {22, 203, 1, 898}, {24, 206, 2, 898}, {25, 207, 2, 898}, {27, 210, 1, 898}, {28, 211, 2, 898}, {29, 212, 1, 898}, {22, 204, 1, 899}, {24, 207, 2, 899}, {25, 208, 2, 899}, {27, 211, 1, 899}, {28, 212, 2, 899}, {29, 213, 1, 899}, {22, 205, 1, 900}, {24, 208, 2, 900}, {25, 209, 2, 900}, {27, 212, 1, 900}, {28, 213, 2, 900}, {29, 214, 1, 900}, {22, 206, 1, 901}, {24, 210, 2, 901}, {25, 211, 2, 901}, {27, 215, 1, 901}, {28, 216, 2, 901}, {29, 217, 1, 901}, {22, 207, 1, 902}, {24, 211, 2, 902}, {25, 212, 2, 902}, {27, 216, 1, 902}, {28, 217, 2, 902}, {29, 218, 1, 902}, {22, 208, 1, 903}, {24, 212, 2, 903}, {25, 213, 2, 903}, {27, 217, 1, 903}, {28, 218, 2, 903}, {29, 219, 1, 903}, {22, 209, 1, 904}, {24, 213, 2, 904}, {25, 214, 2, 904}, {27, 218, 1, 904}, {28, 219, 2, 904}, {29, 220, 1, 904}, {23, 200, 1, 905}, {26, 201, 2, 905}, {27, 202, 2, 905}, {30, 203, 1, 905}, {31, 204, 2, 905}, {32, 205, 1, 905}, {23, 201, 1, 906}, {26, 203, 2, 906}, {27, 204, 2, 906}, {30, 206, 1, 906}, {31, 207, 2, 906}, {32, 208, 1, 906}, {23, 202, 1, 907}, {26, 204, 2, 907}, {27, 205, 2, 907}, {30, 207, 1, 907}, {31, 208, 2, 907}, {32, 209, 1, 907}, {23, 203, 1, 908}, {26, 206, 2, 908}, {27, 207, 2, 908}, {30, 210, 1, 908}, {31, 211, 2, 908}, {32, 212, 1, 908}, {23, 204, 1, 909}, {26, 207, 2, 909}, {27, 208, 2, 909}, {30, 211, 1, 909}, {31, 212, 2, 909}, {32, 213, 1, 909}, {23, 205, 1, 910}, {26, 208, 2, 910}, {27, 209, 2, 910}, {30, 212, 1, 910}, {31, 213, 2, 910}, {32, 214, 1, 910}, {23, 206, 1, 911}, {26, 210, 2, 911}, {27, 211, 2, 911}, {30, 215, 1, 911}, {31, 216, 2, 911}, {32, 217, 1, 911}, {23, 207, 1, 912}, {26, 211, 2, 912}, {27, 212, 2, 912}, {30, 216, 1, 912}, {31, 217, 2, 912}, {32, 218, 1, 912}, {23, 208, 1, 913}, {26, 212, 2, 913}, {27, 213, 2, 913}, {30, 217, 1, 913}, {31, 218, 2, 913}, {32, 219, 1, 913}, {23, 209, 1, 914}, {26, 213, 2, 914}, {27, 214, 2, 914}, {30, 218, 1, 914}, {31, 219, 2, 914}, {32, 220, 1, 914}, {24, 200, 1, 915}, {27, 201, 2, 915}, {28, 202, 2, 915}, {31, 203, 1, 915}, {32, 204, 2, 915}, {33, 205, 1, 915}, {24, 201, 1, 916}, {27, 203, 2, 916}, {28, 204, 2, 916}, {31, 206, 1, 916}, {32, 207, 2, 916}, {33, 208, 1, 916}, {24, 202, 1, 917}, {27, 204, 2, 917}, {28, 205, 2, 917}, {31, 207, 1, 917}, {32, 208, 2, 917}, {33, 209, 1, 917}, {24, 203, 1, 918}, {27, 206, 2, 918}, {28, 207, 2, 918}, {31, 210, 1, 918}, {32, 211, 2, 918}, {33, 212, 1, 918}, {24, 204, 1, 919}, {27, 207, 2, 919}, {28, 208, 2, 919}, {31, 211, 1, 919}, {32, 212, 2, 919}, {33, 213, 1, 919}, {24, 205, 1, 920}, {27, 208, 2, 920}, {28, 209, 2, 920}, {31, 212, 1, 920}, {32, 213, 2, 920}, {33, 214, 1, 920}, {24, 206, 1, 921}, {27, 210, 2, 921}, {28, 211, 2, 921}, {31, 215, 1, 921}, {32, 216, 2, 921}, {33, 217, 1, 921}, {24, 207, 1, 922}, {27, 211, 2, 922}, {28, 212, 2, 922}, {31, 216, 1, 922}, {32, 217, 2, 922}, {33, 218, 1, 922}, {24, 208, 1, 923}, {27, 212, 2, 923}, {28, 213, 2, 923}, {31, 217, 1, 923}, {32, 218, 2, 923}, {33, 219, 1, 923}, {24, 209, 1, 924}, {27, 213, 2, 924}, {28, 214, 2, 924}, {31, 218, 1, 924}, {32, 219, 2, 924}, {33, 220, 1, 924}, {25, 200, 1, 925}, {28, 201, 2, 925}, {29, 202, 2, 925}, {32, 203, 1, 925}, {33, 204, 2, 925}, {34, 205, 1, 925}, {25, 201, 1, 926}, {28, 203, 2, 926}, {29, 204, 2, 926}, {32, 206, 1, 926}, {33, 207, 2, 926}, {34, 208, 1, 926}, {25, 202, 1, 927}, {28, 204, 2, 927}, {29, 205, 2, 927}, {32, 207, 1, 927}, {33, 208, 2, 927}, {34, 209, 1, 927}, {25, 203, 1, 928}, {28, 206, 2, 928}, {29, 207, 2, 928}, {32, 210, 1, 928}, {33, 211, 2, 928}, {34, 212, 1, 928}, {25, 204, 1, 929}, {28, 207, 2, 929}, {29, 208, 2, 929}, {32, 211, 1, 929}, {33, 212, 2, 929}, {34, 213, 1, 929}, {25, 205, 1, 930}, {28, 208, 2, 930}, {29, 209, 2, 930}, {32, 212, 1, 930}, {33, 213, 2, 930}, {34, 214, 1, 930}, {25, 206, 1, 931}, {28, 210, 2, 931}, {29, 211, 2, 931}, {32, 215, 1, 931}, {33, 216, 2, 931}, {34, 217, 1, 931}, {25, 207, 1, 932}, {28, 211, 2, 932}, {29, 212, 2, 932}, {32, 216, 1, 932}, {33, 217, 2, 932}, {34, 218, 1, 932}, {25, 208, 1, 933}, {28, 212, 2, 933}, {29, 213, 2, 933}, {32, 217, 1, 933}, {33, 218, 2, 933}, {34, 219, 1, 933}, {25, 209, 1, 934}, {28, 213, 2, 934}, {29, 214, 2, 934}, {32, 218, 1, 934}, {33, 219, 2, 934}, {34, 220, 1, 934}, {20, 185, 1, 935}, {21, 186, 3, 935}, {22, 187, 3, 935}, {23, 188, 3, 935}, {24, 189, 6, 935}, {25, 190, 3, 935}, {26, 191, 1, 935}, {27, 192, 3, 935}, {28, 193, 3, 935}, {29, 194, 1, 935}, {20, 186, 1, 936}, {21, 188, 3, 936}, {22, 189, 3, 936}, {23, 191, 3, 936}, {24, 192, 6, 936}, {25, 193, 3, 936}, {26, 195, 1, 936}, {27, 196, 3, 936}, {28, 197, 3, 936}, {29, 198, 1, 936}, {20, 187, 1, 937}, {21, 189, 3, 937}, {22, 190, 3, 937}, {23, 192, 3, 937}, {24, 193, 6, 937}, {25, 194, 3, 937}, {26, 196, 1, 937}, {27, 197, 3, 937}, {28, 198, 3, 937}, {29, 199, 1, 937}, {21, 185, 1, 938}, {23, 186, 3, 938}, {24, 187, 3, 938}, {26, 188, 3, 938}, {27, 189, 6, 938}, {28, 190, 3, 938}, {30, 191, 1, 938}, {31, 192, 3, 938}, {32, 193, 3, 938}, {33, 194, 1, 938}, {21, 186, 1, 939}, {23, 188, 3, 939}, {24, 189, 3, 939}, {26, 191, 3, 939}, {27, 192, 6, 939}, {28, 193, 3, 939}, {30, 195, 1, 939}, {31, 196, 3, 939}, {32, 197, 3, 939}, {33, 198, 1, 939}, {21, 187, 1, 940}, {23, 189, 3, 940}, {24, 190, 3, 940}, {26, 192, 3, 940}, {27, 193, 6, 940}, {28, 194, 3, 940}, {30, 196, 1, 940}, {31, 197, 3, 940}, {32, 198, 3, 940}, {33, 199, 1, 940}, {22, 185, 1, 941}, {24, 186, 3, 941}, {25, 187, 3, 941}, {27, 188, 3, 941}, {28, 189, 6, 941}, {29, 190, 3, 941}, {31, 191, 1, 941}, {32, 192, 3, 941}, {33, 193, 3, 941}, {34, 194, 1, 941}, {22, 186, 1, 942}, {24, 188, 3, 942}, {25, 189, 3, 942}, {27, 191, 3, 942}, {28, 192, 6, 942}, {29, 193, 3, 942}, {31, 195, 1, 942}, {32, 196, 3, 942}, {33, 197, 3, 942}, {34, 198, 1, 942}, {22, 187, 1, 943}, {24, 189, 3, 943}, {25, 190, 3, 943}, {27, 192, 3, 943}, {28, 193, 6, 943}, {29, 194, 3, 943}, {31, 196, 1, 943}, {32, 197, 3, 943}, {33, 198, 3, 943}, {34, 199, 1, 943}, {35, 175, 1, 944}, {36, 176, 3, 944}, {37, 177, 3, 944}, {38, 178, 3, 944}, {39, 179, 6, 944}, {40, 180, 3, 944}, {41, 181, 1, 944}, {42, 182, 3, 944}, {43, 183, 3, 944}, {44, 184, 1, 944}, {36, 175, 1, 945}, {38, 176, 3, 945}, {39, 177, 3, 945}, {41, 178, 3, 945}, {42, 179, 6, 945}, {43, 180, 3, 945}, {45, 181, 1, 945}, {46, 182, 3, 945}, {47, 183, 3, 945}, {48, 184, 1, 945}, {37, 175, 1, 946}, {39, 176, 3, 946}, {40, 177, 3, 946}, {42, 178, 3, 946}, {43, 179, 6, 946}, {44, 180, 3, 946}, {46, 181, 1, 946}, {47, 182, 3, 946}, {48, 183, 3, 946}, {49, 184, 1, 946}, {38, 175, 1, 947}, {41, 176, 3, 947}, {42, 177, 3, 947}, {45, 178, 3, 947}, {46, 179, 6, 947}, {47, 180, 3, 947}, {50, 181, 1, 947}, {51, 182, 3, 947}, {52, 183, 3, 947}, {53, 184, 1, 947}, {39, 175, 1, 948}, {42, 176, 3, 948}, {43, 177, 3, 948}, {46, 178, 3, 948}, {47, 179, 6, 948}, {48, 180, 3, 948}, {51, 181, 1, 948}, {52, 182, 3, 948}, {53, 183, 3, 948}, {54, 184, 1, 948}, {40, 175, 1, 949}, {43, 176, 3, 949}, {44, 177, 3, 949}, {47, 178, 3, 949}, {48, 179, 6, 949}, {49, 180, 3, 949}, {52, 181, 1, 949}, {53, 182, 3, 949}, {54, 183, 3, 949}, {55, 184, 1, 949}, {35, 185, 1, 950}, {36, 186, 3, 950}, {37, 187, 3, 950}, {38, 188, 3, 950}, {39, 189, 6, 950}, {40, 190, 3, 950}, {41, 191, 1, 950}, {42, 192, 3, 950}, {43, 193, 3, 950}, {44, 194, 1, 950}, {35, 186, 1, 951}, {36, 188, 3, 951}, {37, 189, 3, 951}, {38, 191, 3, 951}, {39, 192, 6, 951}, {40, 193, 3, 951}, {41, 195, 1, 951}, {42, 196, 3, 951}, {43, 197, 3, 951}, {44, 198, 1, 951}, {35, 187, 1, 952}, {36, 189, 3, 952}, {37, 190, 3, 952}, {38, 192, 3, 952}, {39, 193, 6, 952}, {40, 194, 3, 952}, {41, 196, 1, 952}, {42, 197, 3, 952}, {43, 198, 3, 952}, {44, 199, 1, 952}, {36, 185, 1, 953}, {38, 186, 3, 953}, {39, 187, 3, 953}, {41, 188, 3, 953}, {42, 189, 6, 953}, {43, 190, 3, 953}, {45, 191, 1, 953}, {46, 192, 3, 953}, {47, 193, 3, 953}, {48, 194, 1, 953}, {36, 186, 1, 954}, {38, 188, 3, 954}, {39, 189, 3, 954}, {41, 191, 3, 954}, {42, 192, 6, 954}, {43, 193, 3, 954}, {45, 195, 1, 954}, {46, 196, 3, 954}, {47, 197, 3, 954}, {48, 198, 1, 954}, {36, 187, 1, 955}, {38, 189, 3, 955}, {39, 190, 3, 955}, {41, 192, 3, 955}, {42, 193, 6, 955}, {43, 194, 3, 955}, {45, 196, 1, 955}, {46, 197, 3, 955}, {47, 198, 3, 955}, {48, 199, 1, 955}, {37, 185, 1, 956}, {39, 186, 3, 956}, {40, 187, 3, 956}, {42, 188, 3, 956}, {43, 189, 6, 956}, {44, 190, 3, 956}, {46, 191, 1, 956}, {47, 192, 3, 956}, {48, 193, 3, 956}, {49, 194, 1, 956}, {37, 186, 1, 957}, {39, 188, 3, 957}, {40, 189, 3, 957}, {42, 191, 3, 957}, {43, 192, 6, 957}, {44, 193, 3, 957}, {46, 195, 1, 957}, {47, 196, 3, 957}, {48, 197, 3, 957}, {49, 198, 1, 957}, {37, 187, 1, 958}, {39, 189, 3, 958}, {40, 190, 3, 958}, {42, 192, 3, 958}, {43, 193, 6, 958}, {44, 194, 3, 958}, {46, 196, 1, 958}, {47, 197, 3, 958}, {48, 198, 3, 958}, {49, 199, 1, 958}, {38, 185, 1, 959}, {41, 186, 3, 959}, {42, 187, 3, 959}, {45, 188, 3, 959}, {46, 189, 6, 959}, {47, 190, 3, 959}, {50, 191, 1, 959}, {51, 192, 3, 959}, {52, 193, 3, 959}, {53, 194, 1, 959}, {38, 186, 1, 960}, {41, 188, 3, 960}, {42, 189, 3, 960}, {45, 191, 3, 960}, {46, 192, 6, 960}, {47, 193, 3, 960}, {50, 195, 1, 960}, {51, 196, 3, 960}, {52, 197, 3, 960}, {53, 198, 1, 960}, {38, 187, 1, 961}, {41, 189, 3, 961}, {42, 190, 3, 961}, {45, 192, 3, 961}, {46, 193, 6, 961}, {47, 194, 3, 961}, {50, 196, 1, 961}, {51, 197, 3, 961}, {52, 198, 3, 961}, {53, 199, 1, 961}, {39, 185, 1, 962}, {42, 186, 3, 962}, {43, 187, 3, 962}, {46, 188, 3, 962}, {47, 189, 6, 962}, {48, 190, 3, 962}, {51, 191, 1, 962}, {52, 192, 3, 962}, {53, 193, 3, 962}, {54, 194, 1, 962}, {39, 186, 1, 963}, {42, 188, 3, 963}, {43, 189, 3, 963}, {46, 191, 3, 963}, {47, 192, 6, 963}, {48, 193, 3, 963}, {51, 195, 1, 963}, {52, 196, 3, 963}, {53, 197, 3, 963}, {54, 198, 1, 963}, {39, 187, 1, 964}, {42, 189, 3, 964}, {43, 190, 3, 964}, {46, 192, 3, 964}, {47, 193, 6, 964}, {48, 194, 3, 964}, {51, 196, 1, 964}, {52, 197, 3, 964}, {53, 198, 3, 964}, {54, 199, 1, 964}, {40, 185, 1, 965}, {43, 186, 3, 965}, {44, 187, 3, 965}, {47, 188, 3, 965}, {48, 189, 6, 965}, {49, 190, 3, 965}, {52, 191, 1, 965}, {53, 192, 3, 965}, {54, 193, 3, 965}, {55, 194, 1, 965}, {40, 186, 1, 966}, {43, 188, 3, 966}, {44, 189, 3, 966}, {47, 191, 3, 966}, {48, 192, 6, 966}, {49, 193, 3, 966}, {52, 195, 1, 966}, {53, 196, 3, 966}, {54, 197, 3, 966}, {55, 198, 1, 966}, {40, 187, 1, 967}, {43, 189, 3, 967}, {44, 190, 3, 967}, {47, 192, 3, 967}, {48, 193, 6, 967}, {49, 194, 3, 967}, {52, 196, 1, 967}, {53, 197, 3, 967}, {54, 198, 3, 967}, {55, 199, 1, 967}, {35, 200, 1, 968}, {36, 201, 4, 968}, {37, 202, 4, 968}, {38, 203, 6, 968}, {39, 204, 12, 968}, {40, 205, 6, 968}, {41, 206, 4, 968}, {42, 207, 12, 968}, {43, 208, 12, 968}, {44, 209, 4, 968}, {45, 210, 1, 968}, {46, 211, 4, 968}, {47, 212, 6, 968}, {48, 213, 4, 968}, {49, 214, 1, 968}, {35, 201, 1, 969}, {36, 203, 4, 969}, {37, 204, 4, 969}, {38, 206, 6, 969}, {39, 207, 12, 969}, {40, 208, 6, 969}, {41, 210, 4, 969}, {42, 211, 12, 969}, {43, 212, 12, 969}, {44, 213, 4, 969}, {45, 215, 1, 969}, {46, 216, 4, 969}, {47, 217, 6, 969}, {48, 218, 4, 969}, {49, 219, 1, 969}, {35, 202, 1, 970}, {36, 204, 4, 970}, {37, 205, 4, 970}, {38, 207, 6, 970}, {39, 208, 12, 970}, {40, 209, 6, 970}, {41, 211, 4, 970}, {42, 212, 12, 970}, {43, 213, 12, 970}, {44, 214, 4, 970}, {45, 216, 1, 970}, {46, 217, 4, 970}, {47, 218, 6, 970}, {48, 219, 4, 970}, {49, 220, 1, 970}, {36, 200, 1, 971}, {38, 201, 4, 971}, {39, 202, 4, 971}, {41, 203, 6, 971}, {42, 204, 12, 971}, {43, 205, 6, 971}, {45, 206, 4, 971}, {46, 207, 12, 971}, {47, 208, 12, 971}, {48, 209, 4, 971}, {50, 210, 1, 971}, {51, 211, 4, 971}, {52, 212, 6, 971}, {53, 213, 4, 971}, {54, 214, 1, 971}, {36, 201, 1, 972}, {38, 203, 4, 972}, {39, 204, 4, 972}, {41, 206, 6, 972}, {42, 207, 12, 972}, {43, 208, 6, 972}, {45, 210, 4, 972}, {46, 211, 12, 972}, {47, 212, 12, 972}, {48, 213, 4, 972}, {50, 215, 1, 972}, {51, 216, 4, 972}, {52, 217, 6, 972}, {53, 218, 4, 972}, {54, 219, 1, 972}, {36, 202, 1, 973}, {38, 204, 4, 973}, {39, 205, 4, 973}, {41, 207, 6, 973}, {42, 208, 12, 973}, {43, 209, 6, 973}, {45, 211, 4, 973}, {46, 212, 12, 973}, {47, 213, 12, 973}, {48, 214, 4, 973}, {50, 216, 1, 973}, {51, 217, 4, 973}, {52, 218, 6, 973}, {53, 219, 4, 973}, {54, 220, 1, 973}, {37, 200, 1, 974}, {39, 201, 4, 974}, {40, 202, 4, 974}, {42, 203, 6, 974}, {43, 204, 12, 974}, {44, 205, 6, 974}, {46, 206, 4, 974}, {47, 207, 12, 974}, {48, 208, 12, 974}, {49, 209, 4, 974}, {51, 210, 1, 974}, {52, 211, 4, 974}, {53, 212, 6, 974}, {54, 213, 4, 974}, {55, 214, 1, 974}, {37, 201, 1, 975}, {39, 203, 4, 975}, {40, 204, 4, 975}, {42, 206, 6, 975}, {43, 207, 12, 975}, {44, 208, 6, 975}, {46, 210, 4, 975}, {47, 211, 12, 975}, {48, 212, 12, 975}, {49, 213, 4, 975}, {51, 215, 1, 975}, {52, 216, 4, 975}, {53, 217, 6, 975}, {54, 218, 4, 975}, {55, 219, 1, 975}, {37, 202, 1, 976}, {39, 204, 4, 976}, {40, 205, 4, 976}, {42, 207, 6, 976}, {43, 208, 12, 976}, {44, 209, 6, 976}, {46, 211, 4, 976}, {47, 212, 12, 976}, {48, 213, 12, 976}, {49, 214, 4, 976}, {51, 216, 1, 976}, {52, 217, 4, 976}, {53, 218, 6, 976}, {54, 219, 4, 976}, {55, 220, 1, 976}, {56, 185, 1, 977}, {57, 186, 4, 977}, {58, 187, 4, 977}, {59, 188, 6, 977}, {60, 189, 12, 977}, {61, 190, 6, 977}, {62, 191, 4, 977}, {63, 192, 12, 977}, {64, 193, 12, 977}, {65, 194, 4, 977}, {66, 195, 1, 977}, {67, 196, 4, 977}, {68, 197, 6, 977}, {69, 198, 4, 977}, {70, 199, 1, 977}, {57, 185, 1, 978}, {59, 186, 4, 978}, {60, 187, 4, 978}, {62, 188, 6, 978}, {63, 189, 12, 978}, {64, 190, 6, 978}, {66, 191, 4, 978}, {67, 192, 12, 978}, {68, 193, 12, 978}, {69, 194, 4, 978}, {71, 195, 1, 978}, {72, 196, 4, 978}, {73, 197, 6, 978}, {74, 198, 4, 978}, {75, 199, 1, 978}, {58, 185, 1, 979}, {60, 186, 4, 979}, {61, 187, 4, 979}, {63, 188, 6, 979}, {64, 189, 12, 979}, {65, 190, 6, 979}, {67, 191, 4, 979}, {68, 192, 12, 979}, {69, 193, 12, 979}, {70, 194, 4, 979}, {72, 195, 1, 979}, {73, 196, 4, 979}, {74, 197, 6, 979}, {75, 198, 4, 979}, {76, 199, 1, 979}, {59, 185, 1, 980}, {62, 186, 4, 980}, {63, 187, 4, 980}, {66, 188, 6, 980}, {67, 189, 12, 980}, {68, 190, 6, 980}, {71, 191, 4, 980}, {72, 192, 12, 980}, {73, 193, 12, 980}, {74, 194, 4, 980}, {77, 195, 1, 980}, {78, 196, 4, 980}, {79, 197, 6, 980}, {80, 198, 4, 980}, {81, 199, 1, 980}, {60, 185, 1, 981}, {63, 186, 4, 981}, {64, 187, 4, 981}, {67, 188, 6, 981}, {68, 189, 12, 981}, {69, 190, 6, 981}, {72, 191, 4, 981}, {73, 192, 12, 981}, {74, 193, 12, 981}, {75, 194, 4, 981}, {78, 195, 1, 981}, {79, 196, 4, 981}, {80, 197, 6, 981}, {81, 198, 4, 981}, {82, 199, 1, 981}, {61, 185, 1, 982}, {64, 186, 4, 982}, {65, 187, 4, 982}, {68, 188, 6, 982}, {69, 189, 12, 982}, {70, 190, 6, 982}, {73, 191, 4, 982}, {74, 192, 12, 982}, {75, 193, 12, 982}, {76, 194, 4, 982}, {79, 195, 1, 982}, {80, 196, 4, 982}, {81, 197, 6, 982}, {82, 198, 4, 982}, {83, 199, 1, 982}, {84, 185, 1, 983}, {85, 186, 4, 983}, {86, 187, 4, 983}, {87, 188, 6, 983}, {88, 189, 12, 983}, {89, 190, 6, 983}, {90, 191, 4, 983}, {91, 192, 12, 983}, {92, 193, 12, 983}, {93, 194, 4, 983}, {94, 195, 1, 983}, {95, 196, 4, 983}, {96, 197, 6, 983}, {97, 198, 4, 983}, {98, 199, 1, 983}, {85, 185, 1, 984}, {87, 186, 4, 984}, {88, 187, 4, 984}, {90, 188, 6, 984}, {91, 189, 12, 984}, {92, 190, 6, 984}, {94, 191, 4, 984}, {95, 192, 12, 984}, {96, 193, 12, 984}, {97, 194, 4, 984}, {99, 195, 1, 984}, {100, 196, 4, 984}, {101, 197, 6, 984}, {102, 198, 4, 984}, {103, 199, 1, 984}, {86, 185, 1, 985}, {88, 186, 4, 985}, {89, 187, 4, 985}, {91, 188, 6, 985}, {92, 189, 12, 985}, {93, 190, 6, 985}, {95, 191, 4, 985}, {96, 192, 12, 985}, {97, 193, 12, 985}, {98, 194, 4, 985}, {100, 195, 1, 985}, {101, 196, 4, 985}, {102, 197, 6, 985}, {103, 198, 4, 985}, {104, 199, 1, 985}, {87, 185, 1, 986}, {90, 186, 4, 986}, {91, 187, 4, 986}, {94, 188, 6, 986}, {95, 189, 12, 986}, {96, 190, 6, 986}, {99, 191, 4, 986}, {100, 192, 12, 986}, {101, 193, 12, 986}, {102, 194, 4, 986}, {105, 195, 1, 986}, {106, 196, 4, 986}, {107, 197, 6, 986}, {108, 198, 4, 986}, {109, 199, 1, 986}, {88, 185, 1, 987}, {91, 186, 4, 987}, {92, 187, 4, 987}, {95, 188, 6, 987}, {96, 189, 12, 987}, {97, 190, 6, 987}, {100, 191, 4, 987}, {101, 192, 12, 987}, {102, 193, 12, 987}, {103, 194, 4, 987}, {106, 195, 1, 987}, {107, 196, 4, 987}, {108, 197, 6, 987}, {109, 198, 4, 987}, {110, 199, 1, 987}, {89, 185, 1, 988}, {92, 186, 4, 988}, {93, 187, 4, 988}, {96, 188, 6, 988}, {97, 189, 12, 988}, {98, 190, 6, 988}, {101, 191, 4, 988}, {102, 192, 12, 988}, {103, 193, 12, 988}, {104, 194, 4, 988}, {107, 195, 1, 988}, {108, 196, 4, 988}, {109, 197, 6, 988}, {110, 198, 4, 988}, {111, 199, 1, 988}, {90, 185, 1, 989}, {94, 186, 4, 989}, {95, 187, 4, 989}, {99, 188, 6, 989}, {100, 189, 12, 989}, {101, 190, 6, 989}, {105, 191, 4, 989}, {106, 192, 12, 989}, {107, 193, 12, 989}, {108, 194, 4, 989}, {112, 195, 1, 989}, {113, 196, 4, 989}, {114, 197, 6, 989}, {115, 198, 4, 989}, {116, 199, 1, 989}, {91, 185, 1, 990}, {95, 186, 4, 990}, {96, 187, 4, 990}, {100, 188, 6, 990}, {101, 189, 12, 990}, {102, 190, 6, 990}, {106, 191, 4, 990}, {107, 192, 12, 990}, {108, 193, 12, 990}, {109, 194, 4, 990}, {113, 195, 1, 990}, {114, 196, 4, 990}, {115, 197, 6, 990}, {116, 198, 4, 990}, {117, 199, 1, 990}, {92, 185, 1, 991}, {96, 186, 4, 991}, {97, 187, 4, 991}, {101, 188, 6, 991}, {102, 189, 12, 991}, {103, 190, 6, 991}, {107, 191, 4, 991}, {108, 192, 12, 991}, {109, 193, 12, 991}, {110, 194, 4, 991}, {114, 195, 1, 991}, {115, 196, 4, 991}, {116, 197, 6, 991}, {117, 198, 4, 991}, {118, 199, 1, 991}, {93, 185, 1, 992}, {97, 186, 4, 992}, {98, 187, 4, 992}, {102, 188, 6, 992}, {103, 189, 12, 992}, {104, 190, 6, 992}, {108, 191, 4, 992}, {109, 192, 12, 992}, {110, 193, 12, 992}, {111, 194, 4, 992}, {115, 195, 1, 992}, {116, 196, 4, 992}, {117, 197, 6, 992}, {118, 198, 4, 992}, {119, 199, 1, 992}, {1, 331, 1, 993}, {2, 332, 1, 993}, {3, 333, 1, 993}, {4, 350, 1, 994}, {5, 351, 2, 994}, {6, 352, 2, 994}, {7, 353, 1, 994}, {8, 354, 2, 994}, {9, 355, 1, 994}, {4, 351, 1, 995}, {5, 353, 2, 995}, {6, 354, 2, 995}, {7, 356, 1, 995}, {8, 357, 2, 995}, {9, 358, 1, 995}, {4, 352, 1, 996}, {5, 354, 2, 996}, {6, 355, 2, 996}, {7, 357, 1, 996}, {8, 358, 2, 996}, {9, 359, 1, 996}, {4, 353, 1, 997}, {5, 356, 2, 997}, {6, 357, 2, 997}, {7, 360, 1, 997}, {8, 361, 2, 997}, {9, 362, 1, 997}, {4, 354, 1, 998}, {5, 357, 2, 998}, {6, 358, 2, 998}, {7, 361, 1, 998}, {8, 362, 2, 998}, {9, 363, 1, 998}, {4, 355, 1, 999}, {5, 358, 2, 999}, {6, 359, 2, 999}, {7, 362, 1, 999}, {8, 363, 2, 999}, {9, 364, 1, 999}, {10, 350, 1, 1000}, {11, 351, 3, 1000}, {12, 352, 3, 1000}, {13, 353, 3, 1000}, {14, 354, 6, 1000}, {15, 355, 3, 1000}, {16, 356, 1, 1000}, {17, 357, 3, 1000}, {18, 358, 3, 1000}, {19, 359, 1, 1000}, {10, 351, 1, 1001}, {11, 353, 3, 1001}, {12, 354, 3, 1001}, {13, 356, 3, 1001}, {14, 357, 6, 1001}, {15, 358, 3, 1001}, {16, 360, 1, 1001}, {17, 361, 3, 1001}, {18, 362, 3, 1001}, {19, 363, 1, 1001}, {10, 352, 1, 1002}, {11, 354, 3, 1002}, {12, 355, 3, 1002}, {13, 357, 3, 1002}, {14, 358, 6, 1002}, {15, 359, 3, 1002}, {16, 361, 1, 1002}, {17, 362, 3, 1002}, {18, 363, 3, 1002}, {19, 364, 1, 1002}, {20, 340, 1, 1003}, {21, 341, 2, 1003}, {22, 342, 2, 1003}, {23, 343, 1, 1003}, {24, 344, 2, 1003}, {25, 345, 1, 1003}, {20, 341, 1, 1004}, {21, 343, 2, 1004}, {22, 344, 2, 1004}, {23, 346, 1, 1004}, {24, 347, 2, 1004}, {25, 348, 1, 1004}, {20, 342, 1, 1005}, {21, 344, 2, 1005}, {22, 345, 2, 1005}, {23, 347, 1, 1005}, {24, 348, 2, 1005}, {25, 349, 1, 1005}, {21, 340, 1, 1006}, {23, 341, 2, 1006}, {24, 342, 2, 1006}, {26, 343, 1, 1006}, {27, 344, 2, 1006}, {28, 345, 1, 1006}, {21, 341, 1, 1007}, {23, 343, 2, 1007}, {24, 344, 2, 1007}, {26, 346, 1, 1007}, {27, 347, 2, 1007}, {28, 348, 1, 1007}, {21, 342, 1, 1008}, {23, 344, 2, 1008}, {24, 345, 2, 1008}, {26, 347, 1, 1008}, {27, 348, 2, 1008}, {28, 349, 1, 1008}, {22, 340, 1, 1009}, {24, 341, 2, 1009}, {25, 342, 2, 1009}, {27, 343, 1, 1009}, {28, 344, 2, 1009}, {29, 345, 1, 1009}, {22, 341, 1, 1010}, {24, 343, 2, 1010}, {25, 344, 2, 1010}, {27, 346, 1, 1010}, {28, 347, 2, 1010}, {29, 348, 1, 1010}, {22, 342, 1, 1011}, {24, 344, 2, 1011}, {25, 345, 2, 1011}, {27, 347, 1, 1011}, {28, 348, 2, 1011}, {29, 349, 1, 1011}, {23, 340, 1, 1012}, {26, 341, 2, 1012}, {27, 342, 2, 1012}, {30, 343, 1, 1012}, {31, 344, 2, 1012}, {32, 345, 1, 1012}, {23, 341, 1, 1013}, {26, 343, 2, 1013}, {27, 344, 2, 1013}, {30, 346, 1, 1013}, {31, 347, 2, 1013}, {32, 348, 1, 1013}, {23, 342, 1, 1014}, {26, 344, 2, 1014}, {27, 345, 2, 1014}, {30, 347, 1, 1014}, {31, 348, 2, 1014}, {32, 349, 1, 1014}, {24, 340, 1, 1015}, {27, 341, 2, 1015}, {28, 342, 2, 1015}, {31, 343, 1, 1015}, {32, 344, 2, 1015}, {33, 345, 1, 1015}, {24, 341, 1, 1016}, {27, 343, 2, 1016}, {28, 344, 2, 1016}, {31, 346, 1, 1016}, {32, 347, 2, 1016}, {33, 348, 1, 1016}, {24, 342, 1, 1017}, {27, 344, 2, 1017}, {28, 345, 2, 1017}, {31, 347, 1, 1017}, {32, 348, 2, 1017}, {33, 349, 1, 1017}, {25, 340, 1, 1018}, {28, 341, 2, 1018}, {29, 342, 2, 1018}, {32, 343, 1, 1018}, {33, 344, 2, 1018}, {34, 345, 1, 1018}, {25, 341, 1, 1019}, {28, 343, 2, 1019}, {29, 344, 2, 1019}, {32, 346, 1, 1019}, {33, 347, 2, 1019}, {34, 348, 1, 1019}, {25, 342, 1, 1020}, {28, 344, 2, 1020}, {29, 345, 2, 1020}, {32, 347, 1, 1020}, {33, 348, 2, 1020}, {34, 349, 1, 1020}, {20, 350, 1, 1021}, {21, 351, 2, 1021}, {22, 352, 2, 1021}, {23, 353, 1, 1021}, {24, 354, 2, 1021}, {25, 355, 1, 1021}, {20, 351, 1, 1022}, {21, 353, 2, 1022}, {22, 354, 2, 1022}, {23, 356, 1, 1022}, {24, 357, 2, 1022}, {25, 358, 1, 1022}, {20, 352, 1, 1023}, {21, 354, 2, 1023}, {22, 355, 2, 1023}, {23, 357, 1, 1023}, {24, 358, 2, 1023}, {25, 359, 1, 1023}, {20, 353, 1, 1024}, {21, 356, 2, 1024}, {22, 357, 2, 1024}, {23, 360, 1, 1024}, {24, 361, 2, 1024}, {25, 362, 1, 1024}, {20, 354, 1, 1025}, {21, 357, 2, 1025}, {22, 358, 2, 1025}, {23, 361, 1, 1025}, {24, 362, 2, 1025}, {25, 363, 1, 1025}, {20, 355, 1, 1026}, {21, 358, 2, 1026}, {22, 359, 2, 1026}, {23, 362, 1, 1026}, {24, 363, 2, 1026}, {25, 364, 1, 1026}, {21, 350, 1, 1027}, {23, 351, 2, 1027}, {24, 352, 2, 1027}, {26, 353, 1, 1027}, {27, 354, 2, 1027}, {28, 355, 1, 1027}, {21, 351, 1, 1028}, {23, 353, 2, 1028}, {24, 354, 2, 1028}, {26, 356, 1, 1028}, {27, 357, 2, 1028}, {28, 358, 1, 1028}, {21, 352, 1, 1029}, {23, 354, 2, 1029}, {24, 355, 2, 1029}, {26, 357, 1, 1029}, {27, 358, 2, 1029}, {28, 359, 1, 1029}, {21, 353, 1, 1030}, {23, 356, 2, 1030}, {24, 357, 2, 1030}, {26, 360, 1, 1030}, {27, 361, 2, 1030}, {28, 362, 1, 1030}, {21, 354, 1, 1031}, {23, 357, 2, 1031}, {24, 358, 2, 1031}, {26, 361, 1, 1031}, {27, 362, 2, 1031}, {28, 363, 1, 1031}, {21, 355, 1, 1032}, {23, 358, 2, 1032}, {24, 359, 2, 1032}, {26, 362, 1, 1032}, {27, 363, 2, 1032}, {28, 364, 1, 1032}, {22, 350, 1, 1033}, {24, 351, 2, 1033}, {25, 352, 2, 1033}, {27, 353, 1, 1033}, {28, 354, 2, 1033}, {29, 355, 1, 1033}, {22, 351, 1, 1034}, {24, 353, 2, 1034}, {25, 354, 2, 1034}, {27, 356, 1, 1034}, {28, 357, 2, 1034}, {29, 358, 1, 1034}, {22, 352, 1, 1035}, {24, 354, 2, 1035}, {25, 355, 2, 1035}, {27, 357, 1, 1035}, {28, 358, 2, 1035}, {29, 359, 1, 1035}, {22, 353, 1, 1036}, {24, 356, 2, 1036}, {25, 357, 2, 1036}, {27, 360, 1, 1036}, {28, 361, 2, 1036}, {29, 362, 1, 1036}, {22, 354, 1, 1037}, {24, 357, 2, 1037}, {25, 358, 2, 1037}, {27, 361, 1, 1037}, {28, 362, 2, 1037}, {29, 363, 1, 1037}, {22, 355, 1, 1038}, {24, 358, 2, 1038}, {25, 359, 2, 1038}, {27, 362, 1, 1038}, {28, 363, 2, 1038}, {29, 364, 1, 1038}, {23, 350, 1, 1039}, {26, 351, 2, 1039}, {27, 352, 2, 1039}, {30, 353, 1, 1039}, {31, 354, 2, 1039}, {32, 355, 1, 1039}, {23, 351, 1, 1040}, {26, 353, 2, 1040}, {27, 354, 2, 1040}, {30, 356, 1, 1040}, {31, 357, 2, 1040}, {32, 358, 1, 1040}, {23, 352, 1, 1041}, {26, 354, 2, 1041}, {27, 355, 2, 1041}, {30, 357, 1, 1041}, {31, 358, 2, 1041}, {32, 359, 1, 1041}, {23, 353, 1, 1042}, {26, 356, 2, 1042}, {27, 357, 2, 1042}, {30, 360, 1, 1042}, {31, 361, 2, 1042}, {32, 362, 1, 1042}, {23, 354, 1, 1043}, {26, 357, 2, 1043}, {27, 358, 2, 1043}, {30, 361, 1, 1043}, {31, 362, 2, 1043}, {32, 363, 1, 1043}, {23, 355, 1, 1044}, {26, 358, 2, 1044}, {27, 359, 2, 1044}, {30, 362, 1, 1044}, {31, 363, 2, 1044}, {32, 364, 1, 1044}, {24, 350, 1, 1045}, {27, 351, 2, 1045}, {28, 352, 2, 1045}, {31, 353, 1, 1045}, {32, 354, 2, 1045}, {33, 355, 1, 1045}, {24, 351, 1, 1046}, {27, 353, 2, 1046}, {28, 354, 2, 1046}, {31, 356, 1, 1046}, {32, 357, 2, 1046}, {33, 358, 1, 1046}, {24, 352, 1, 1047}, {27, 354, 2, 1047}, {28, 355, 2, 1047}, {31, 357, 1, 1047}, {32, 358, 2, 1047}, {33, 359, 1, 1047}, {24, 353, 1, 1048}, {27, 356, 2, 1048}, {28, 357, 2, 1048}, {31, 360, 1, 1048}, {32, 361, 2, 1048}, {33, 362, 1, 1048}, {24, 354, 1, 1049}, {27, 357, 2, 1049}, {28, 358, 2, 1049}, {31, 361, 1, 1049}, {32, 362, 2, 1049}, {33, 363, 1, 1049}, {24, 355, 1, 1050}, {27, 358, 2, 1050}, {28, 359, 2, 1050}, {31, 362, 1, 1050}, {32, 363, 2, 1050}, {33, 364, 1, 1050}, {25, 350, 1, 1051}, {28, 351, 2, 1051}, {29, 352, 2, 1051}, {32, 353, 1, 1051}, {33, 354, 2, 1051}, {34, 355, 1, 1051}, {25, 351, 1, 1052}, {28, 353, 2, 1052}, {29, 354, 2, 1052}, {32, 356, 1, 1052}, {33, 357, 2, 1052}, {34, 358, 1, 1052}, {25, 352, 1, 1053}, {28, 354, 2, 1053}, {29, 355, 2, 1053}, {32, 357, 1, 1053}, {33, 358, 2, 1053}, {34, 359, 1, 1053}, {25, 353, 1, 1054}, {28, 356, 2, 1054}, {29, 357, 2, 1054}, {32, 360, 1, 1054}, {33, 361, 2, 1054}, {34, 362, 1, 1054}, {25, 354, 1, 1055}, {28, 357, 2, 1055}, {29, 358, 2, 1055}, {32, 361, 1, 1055}, {33, 362, 2, 1055}, {34, 363, 1, 1055}, {25, 355, 1, 1056}, {28, 358, 2, 1056}, {29, 359, 2, 1056}, {32, 362, 1, 1056}, {33, 363, 2, 1056}, {34, 364, 1, 1056}, {20, 350, 1, 1057}, {21, 351, 3, 1057}, {22, 352, 3, 1057}, {23, 353, 3, 1057}, {24, 354, 6, 1057}, {25, 355, 3, 1057}, {26, 356, 1, 1057}, {27, 357, 3, 1057}, {28, 358, 3, 1057}, {29, 359, 1, 1057}, {20, 351, 1, 1058}, {21, 353, 3, 1058}, {22, 354, 3, 1058}, {23, 356, 3, 1058}, {24, 357, 6, 1058}, {25, 358, 3, 1058}, {26, 360, 1, 1058}, {27, 361, 3, 1058}, {28, 362, 3, 1058}, {29, 363, 1, 1058}, {20, 352, 1, 1059}, {21, 354, 3, 1059}, {22, 355, 3, 1059}, {23, 357, 3, 1059}, {24, 358, 6, 1059}, {25, 359, 3, 1059}, {26, 361, 1, 1059}, {27, 362, 3, 1059}, {28, 363, 3, 1059}, {29, 364, 1, 1059}, {21, 350, 1, 1060}, {23, 351, 3, 1060}, {24, 352, 3, 1060}, {26, 353, 3, 1060}, {27, 354, 6, 1060}, {28, 355, 3, 1060}, {30, 356, 1, 1060}, {31, 357, 3, 1060}, {32, 358, 3, 1060}, {33, 359, 1, 1060}, {21, 351, 1, 1061}, {23, 353, 3, 1061}, {24, 354, 3, 1061}, {26, 356, 3, 1061}, {27, 357, 6, 1061}, {28, 358, 3, 1061}, {30, 360, 1, 1061}, {31, 361, 3, 1061}, {32, 362, 3, 1061}, {33, 363, 1, 1061}, {21, 352, 1, 1062}, {23, 354, 3, 1062}, {24, 355, 3, 1062}, {26, 357, 3, 1062}, {27, 358, 6, 1062}, {28, 359, 3, 1062}, {30, 361, 1, 1062}, {31, 362, 3, 1062}, {32, 363, 3, 1062}, {33, 364, 1, 1062}, {22, 350, 1, 1063}, {24, 351, 3, 1063}, {25, 352, 3, 1063}, {27, 353, 3, 1063}, {28, 354, 6, 1063}, {29, 355, 3, 1063}, {31, 356, 1, 1063}, {32, 357, 3, 1063}, {33, 358, 3, 1063}, {34, 359, 1, 1063}, {22, 351, 1, 1064}, {24, 353, 3, 1064}, {25, 354, 3, 1064}, {27, 356, 3, 1064}, {28, 357, 6, 1064}, {29, 358, 3, 1064}, {31, 360, 1, 1064}, {32, 361, 3, 1064}, {33, 362, 3, 1064}, {34, 363, 1, 1064}, {22, 352, 1, 1065}, {24, 354, 3, 1065}, {25, 355, 3, 1065}, {27, 357, 3, 1065}, {28, 358, 6, 1065}, {29, 359, 3, 1065}, {31, 361, 1, 1065}, {32, 362, 3, 1065}, {33, 363, 3, 1065}, {34, 364, 1, 1065}, {20, 365, 1, 1066}, {21, 366, 3, 1066}, {22, 367, 3, 1066}, {23, 368, 3, 1066}, {24, 369, 6, 1066}, {25, 370, 3, 1066}, {26, 371, 1, 1066}, {27, 372, 3, 1066}, {28, 373, 3, 1066}, {29, 374, 1, 1066}, {20, 366, 1, 1067}, {21, 368, 3, 1067}, {22, 369, 3, 1067}, {23, 371, 3, 1067}, {24, 372, 6, 1067}, {25, 373, 3, 1067}, {26, 375, 1, 1067}, {27, 376, 3, 1067}, {28, 377, 3, 1067}, {29, 378, 1, 1067}, {20, 367, 1, 1068}, {21, 369, 3, 1068}, {22, 370, 3, 1068}, {23, 372, 3, 1068}, {24, 373, 6, 1068}, {25, 374, 3, 1068}, {26, 376, 1, 1068}, {27, 377, 3, 1068}, {28, 378, 3, 1068}, {29, 379, 1, 1068}, {20, 368, 1, 1069}, {21, 371, 3, 1069}, {22, 372, 3, 1069}, {23, 375, 3, 1069}, {24, 376, 6, 1069}, {25, 377, 3, 1069}, {26, 380, 1, 1069}, {27, 381, 3, 1069}, {28, 382, 3, 1069}, {29, 383, 1, 1069}, {20, 369, 1, 1070}, {21, 372, 3, 1070}, {22, 373, 3, 1070}, {23, 376, 3, 1070}, {24, 377, 6, 1070}, {25, 378, 3, 1070}, {26, 381, 1, 1070}, {27, 382, 3, 1070}, {28, 383, 3, 1070}, {29, 384, 1, 1070}, {20, 370, 1, 1071}, {21, 373, 3, 1071}, {22, 374, 3, 1071}, {23, 377, 3, 1071}, {24, 378, 6, 1071}, {25, 379, 3, 1071}, {26, 382, 1, 1071}, {27, 383, 3, 1071}, {28, 384, 3, 1071}, {29, 385, 1, 1071}, {21, 365, 1, 1072}, {23, 366, 3, 1072}, {24, 367, 3, 1072}, {26, 368, 3, 1072}, {27, 369, 6, 1072}, {28, 370, 3, 1072}, {30, 371, 1, 1072}, {31, 372, 3, 1072}, {32, 373, 3, 1072}, {33, 374, 1, 1072}, {21, 366, 1, 1073}, {23, 368, 3, 1073}, {24, 369, 3, 1073}, {26, 371, 3, 1073}, {27, 372, 6, 1073}, {28, 373, 3, 1073}, {30, 375, 1, 1073}, {31, 376, 3, 1073}, {32, 377, 3, 1073}, {33, 378, 1, 1073}, {21, 367, 1, 1074}, {23, 369, 3, 1074}, {24, 370, 3, 1074}, {26, 372, 3, 1074}, {27, 373, 6, 1074}, {28, 374, 3, 1074}, {30, 376, 1, 1074}, {31, 377, 3, 1074}, {32, 378, 3, 1074}, {33, 379, 1, 1074}, {21, 368, 1, 1075}, {23, 371, 3, 1075}, {24, 372, 3, 1075}, {26, 375, 3, 1075}, {27, 376, 6, 1075}, {28, 377, 3, 1075}, {30, 380, 1, 1075}, {31, 381, 3, 1075}, {32, 382, 3, 1075}, {33, 383, 1, 1075}, {21, 369, 1, 1076}, {23, 372, 3, 1076}, {24, 373, 3, 1076}, {26, 376, 3, 1076}, {27, 377, 6, 1076}, {28, 378, 3, 1076}, {30, 381, 1, 1076}, {31, 382, 3, 1076}, {32, 383, 3, 1076}, {33, 384, 1, 1076}, {21, 370, 1, 1077}, {23, 373, 3, 1077}, {24, 374, 3, 1077}, {26, 377, 3, 1077}, {27, 378, 6, 1077}, {28, 379, 3, 1077}, {30, 382, 1, 1077}, {31, 383, 3, 1077}, {32, 384, 3, 1077}, {33, 385, 1, 1077}, {22, 365, 1, 1078}, {24, 366, 3, 1078}, {25, 367, 3, 1078}, {27, 368, 3, 1078}, {28, 369, 6, 1078}, {29, 370, 3, 1078}, {31, 371, 1, 1078}, {32, 372, 3, 1078}, {33, 373, 3, 1078}, {34, 374, 1, 1078}, {22, 366, 1, 1079}, {24, 368, 3, 1079}, {25, 369, 3, 1079}, {27, 371, 3, 1079}, {28, 372, 6, 1079}, {29, 373, 3, 1079}, {31, 375, 1, 1079}, {32, 376, 3, 1079}, {33, 377, 3, 1079}, {34, 378, 1, 1079}, {22, 367, 1, 1080}, {24, 369, 3, 1080}, {25, 370, 3, 1080}, {27, 372, 3, 1080}, {28, 373, 6, 1080}, {29, 374, 3, 1080}, {31, 376, 1, 1080}, {32, 377, 3, 1080}, {33, 378, 3, 1080}, {34, 379, 1, 1080}, {22, 368, 1, 1081}, {24, 371, 3, 1081}, {25, 372, 3, 1081}, {27, 375, 3, 1081}, {28, 376, 6, 1081}, {29, 377, 3, 1081}, {31, 380, 1, 1081}, {32, 381, 3, 1081}, {33, 382, 3, 1081}, {34, 383, 1, 1081}, {22, 369, 1, 1082}, {24, 372, 3, 1082}, {25, 373, 3, 1082}, {27, 376, 3, 1082}, {28, 377, 6, 1082}, {29, 378, 3, 1082}, {31, 381, 1, 1082}, {32, 382, 3, 1082}, {33, 383, 3, 1082}, {34, 384, 1, 1082}, {22, 370, 1, 1083}, {24, 373, 3, 1083}, {25, 374, 3, 1083}, {27, 377, 3, 1083}, {28, 378, 6, 1083}, {29, 379, 3, 1083}, {31, 382, 1, 1083}, {32, 383, 3, 1083}, {33, 384, 3, 1083}, {34, 385, 1, 1083}, {0, 422, 1, 1084}, {10, 442, 1, 1085}, {11, 443, 2, 1085}, {12, 444, 2, 1085}, {13, 445, 1, 1085}, {14, 446, 2, 1085}, {15, 447, 1, 1085}, {10, 443, 1, 1086}, {11, 445, 2, 1086}, {12, 446, 2, 1086}, {13, 448, 1, 1086}, {14, 449, 2, 1086}, {15, 450, 1, 1086}, {10, 444, 1, 1087}, {11, 446, 2, 1087}, {12, 447, 2, 1087}, {13, 449, 1, 1087}, {14, 450, 2, 1087}, {15, 451, 1, 1087}, {10, 445, 1, 1088}, {11, 448, 2, 1088}, {12, 449, 2, 1088}, {13, 452, 1, 1088}, {14, 453, 2, 1088}, {15, 454, 1, 1088}, {10, 446, 1, 1089}, {11, 449, 2, 1089}, {12, 450, 2, 1089}, {13, 453, 1, 1089}, {14, 454, 2, 1089}, {15, 455, 1, 1089}, {10, 447, 1, 1090}, {11, 450, 2, 1090}, {12, 451, 2, 1090}, {13, 454, 1, 1090}, {14, 455, 2, 1090}, {15, 456, 1, 1090}, {11, 442, 1, 1091}, {13, 443, 2, 1091}, {14, 444, 2, 1091}, {16, 445, 1, 1091}, {17, 446, 2, 1091}, {18, 447, 1, 1091}, {11, 443, 1, 1092}, {13, 445, 2, 1092}, {14, 446, 2, 1092}, {16, 448, 1, 1092}, {17, 449, 2, 1092}, {18, 450, 1, 1092}, {11, 444, 1, 1093}, {13, 446, 2, 1093}, {14, 447, 2, 1093}, {16, 449, 1, 1093}, {17, 450, 2, 1093}, {18, 451, 1, 1093}, {11, 445, 1, 1094}, {13, 448, 2, 1094}, {14, 449, 2, 1094}, {16, 452, 1, 1094}, {17, 453, 2, 1094}, {18, 454, 1, 1094}, {11, 446, 1, 1095}, {13, 449, 2, 1095}, {14, 450, 2, 1095}, {16, 453, 1, 1095}, {17, 454, 2, 1095}, {18, 455, 1, 1095}, {11, 447, 1, 1096}, {13, 450, 2, 1096}, {14, 451, 2, 1096}, {16, 454, 1, 1096}, {17, 455, 2, 1096}, {18, 456, 1, 1096}, {12, 442, 1, 1097}, {14, 443, 2, 1097}, {15, 444, 2, 1097}, {17, 445, 1, 1097}, {18, 446, 2, 1097}, {19, 447, 1, 1097}, {12, 443, 1, 1098}, {14, 445, 2, 1098}, {15, 446, 2, 1098}, {17, 448, 1, 1098}, {18, 449, 2, 1098}, {19, 450, 1, 1098}, {12, 444, 1, 1099}, {14, 446, 2, 1099}, {15, 447, 2, 1099}, {17, 449, 1, 1099}, {18, 450, 2, 1099}, {19, 451, 1, 1099}, {12, 445, 1, 1100}, {14, 448, 2, 1100}, {15, 449, 2, 1100}, {17, 452, 1, 1100}, {18, 453, 2, 1100}, {19, 454, 1, 1100}, {12, 446, 1, 1101}, {14, 449, 2, 1101}, {15, 450, 2, 1101}, {17, 453, 1, 1101}, {18, 454, 2, 1101}, {19, 455, 1, 1101}, {12, 447, 1, 1102}, {14, 450, 2, 1102}, {15, 451, 2, 1102}, {17, 454, 1, 1102}, {18, 455, 2, 1102}, {19, 456, 1, 1102}, {10, 457, 1, 1103}, {11, 458, 3, 1103}, {12, 459, 3, 1103}, {13, 460, 3, 1103}, {14, 461, 6, 1103}, {15, 462, 3, 1103}, {16, 463, 1, 1103}, {17, 464, 3, 1103}, {18, 465, 3, 1103}, {19, 466, 1, 1103}, {10, 458, 1, 1104}, {11, 460, 3, 1104}, {12, 461, 3, 1104}, {13, 463, 3, 1104}, {14, 464, 6, 1104}, {15, 465, 3, 1104}, {16, 467, 1, 1104}, {17, 468, 3, 1104}, {18, 469, 3, 1104}, {19, 470, 1, 1104}, {10, 459, 1, 1105}, {11, 461, 3, 1105}, {12, 462, 3, 1105}, {13, 464, 3, 1105}, {14, 465, 6, 1105}, {15, 466, 3, 1105}, {16, 468, 1, 1105}, {17, 469, 3, 1105}, {18, 470, 3, 1105}, {19, 471, 1, 1105}, {10, 460, 1, 1106}, {11, 463, 3, 1106}, {12, 464, 3, 1106}, {13, 467, 3, 1106}, {14, 468, 6, 1106}, {15, 469, 3, 1106}, {16, 472, 1, 1106}, {17, 473, 3, 1106}, {18, 474, 3, 1106}, {19, 475, 1, 1106}, {10, 461, 1, 1107}, {11, 464, 3, 1107}, {12, 465, 3, 1107}, {13, 468, 3, 1107}, {14, 469, 6, 1107}, {15, 470, 3, 1107}, {16, 473, 1, 1107}, {17, 474, 3, 1107}, {18, 475, 3, 1107}, {19, 476, 1, 1107}, {10, 462, 1, 1108}, {11, 465, 3, 1108}, {12, 466, 3, 1108}, {13, 469, 3, 1108}, {14, 470, 6, 1108}, {15, 471, 3, 1108}, {16, 474, 1, 1108}, {17, 475, 3, 1108}, {18, 476, 3, 1108}, {19, 477, 1, 1108}, {20, 426, 1, 1109}, {21, 427, 2, 1109}, {22, 428, 2, 1109}, {23, 429, 1, 1109}, {24, 430, 2, 1109}, {25, 431, 1, 1109}, {21, 426, 1, 1110}, {23, 427, 2, 1110}, {24, 428, 2, 1110}, {26, 429, 1, 1110}, {27, 430, 2, 1110}, {28, 431, 1, 1110}, {22, 426, 1, 1111}, {24, 427, 2, 1111}, {25, 428, 2, 1111}, {27, 429, 1, 1111}, {28, 430, 2, 1111}, {29, 431, 1, 1111}, {23, 426, 1, 1112}, {26, 427, 2, 1112}, {27, 428, 2, 1112}, {30, 429, 1, 1112}, {31, 430, 2, 1112}, {32, 431, 1, 1112}, {24, 426, 1, 1113}, {27, 427, 2, 1113}, {28, 428, 2, 1113}, {31, 429, 1, 1113}, {32, 430, 2, 1113}, {33, 431, 1, 1113}, {25, 426, 1, 1114}, {28, 427, 2, 1114}, {29, 428, 2, 1114}, {32, 429, 1, 1114}, {33, 430, 2, 1114}, {34, 431, 1, 1114}, {20, 442, 1, 1115}, {21, 443, 3, 1115}, {22, 444, 3, 1115}, {23, 445, 3, 1115}, {24, 446, 6, 1115}, {25, 447, 3, 1115}, {26, 448, 1, 1115}, {27, 449, 3, 1115}, {28, 450, 3, 1115}, {29, 451, 1, 1115}, {20, 443, 1, 1116}, {21, 445, 3, 1116}, {22, 446, 3, 1116}, {23, 448, 3, 1116}, {24, 449, 6, 1116}, {25, 450, 3, 1116}, {26, 452, 1, 1116}, {27, 453, 3, 1116}, {28, 454, 3, 1116}, {29, 455, 1, 1116}, {20, 444, 1, 1117}, {21, 446, 3, 1117}, {22, 447, 3, 1117}, {23, 449, 3, 1117}, {24, 450, 6, 1117}, {25, 451, 3, 1117}, {26, 453, 1, 1117}, {27, 454, 3, 1117}, {28, 455, 3, 1117}, {29, 456, 1, 1117}, {21, 442, 1, 1118}, {23, 443, 3, 1118}, {24, 444, 3, 1118}, {26, 445, 3, 1118}, {27, 446, 6, 1118}, {28, 447, 3, 1118}, {30, 448, 1, 1118}, {31, 449, 3, 1118}, {32, 450, 3, 1118}, {33, 451, 1, 1118}, {21, 443, 1, 1119}, {23, 445, 3, 1119}, {24, 446, 3, 1119}, {26, 448, 3, 1119}, {27, 449, 6, 1119}, {28, 450, 3, 1119}, {30, 452, 1, 1119}, {31, 453, 3, 1119}, {32, 454, 3, 1119}, {33, 455, 1, 1119}, {21, 444, 1, 1120}, {23, 446, 3, 1120}, {24, 447, 3, 1120}, {26, 449, 3, 1120}, {27, 450, 6, 1120}, {28, 451, 3, 1120}, {30, 453, 1, 1120}, {31, 454, 3, 1120}, {32, 455, 3, 1120}, {33, 456, 1, 1120}, {22, 442, 1, 1121}, {24, 443, 3, 1121}, {25, 444, 3, 1121}, {27, 445, 3, 1121}, {28, 446, 6, 1121}, {29, 447, 3, 1121}, {31, 448, 1, 1121}, {32, 449, 3, 1121}, {33, 450, 3, 1121}, {34, 451, 1, 1121}, {22, 443, 1, 1122}, {24, 445, 3, 1122}, {25, 446, 3, 1122}, {27, 448, 3, 1122}, {28, 449, 6, 1122}, {29, 450, 3, 1122}, {31, 452, 1, 1122}, {32, 453, 3, 1122}, {33, 454, 3, 1122}, {34, 455, 1, 1122}, {22, 444, 1, 1123}, {24, 446, 3, 1123}, {25, 447, 3, 1123}, {27, 449, 3, 1123}, {28, 450, 6, 1123}, {29, 451, 3, 1123}, {31, 453, 1, 1123}, {32, 454, 3, 1123}, {33, 455, 3, 1123}, {34, 456, 1, 1123}, {35, 442, 1, 1124}, {36, 443, 3, 1124}, {37, 444, 3, 1124}, {38, 445, 3, 1124}, {39, 446, 6, 1124}, {40, 447, 3, 1124}, {41, 448, 1, 1124}, {42, 449, 3, 1124}, {43, 450, 3, 1124}, {44, 451, 1, 1124}, {35, 443, 1, 1125}, {36, 445, 3, 1125}, {37, 446, 3, 1125}, {38, 448, 3, 1125}, {39, 449, 6, 1125}, {40, 450, 3, 1125}, {41, 452, 1, 1125}, {42, 453, 3, 1125}, {43, 454, 3, 1125}, {44, 455, 1, 1125}, {35, 444, 1, 1126}, {36, 446, 3, 1126}, {37, 447, 3, 1126}, {38, 449, 3, 1126}, {39, 450, 6, 1126}, {40, 451, 3, 1126}, {41, 453, 1, 1126}, {42, 454, 3, 1126}, {43, 455, 3, 1126}, {44, 456, 1, 1126}, {36, 442, 1, 1127}, {38, 443, 3, 1127}, {39, 444, 3, 1127}, {41, 445, 3, 1127}, {42, 446, 6, 1127}, {43, 447, 3, 1127}, {45, 448, 1, 1127}, {46, 449, 3, 1127}, {47, 450, 3, 1127}, {48, 451, 1, 1127}, {36, 443, 1, 1128}, {38, 445, 3, 1128}, {39, 446, 3, 1128}, {41, 448, 3, 1128}, {42, 449, 6, 1128}, {43, 450, 3, 1128}, {45, 452, 1, 1128}, {46, 453, 3, 1128}, {47, 454, 3, 1128}, {48, 455, 1, 1128}, {36, 444, 1, 1129}, {38, 446, 3, 1129}, {39, 447, 3, 1129}, {41, 449, 3, 1129}, {42, 450, 6, 1129}, {43, 451, 3, 1129}, {45, 453, 1, 1129}, {46, 454, 3, 1129}, {47, 455, 3, 1129}, {48, 456, 1, 1129}, {37, 442, 1, 1130}, {39, 443, 3, 1130}, {40, 444, 3, 1130}, {42, 445, 3, 1130}, {43, 446, 6, 1130}, {44, 447, 3, 1130}, {46, 448, 1, 1130}, {47, 449, 3, 1130}, {48, 450, 3, 1130}, {49, 451, 1, 1130}, {37, 443, 1, 1131}, {39, 445, 3, 1131}, {40, 446, 3, 1131}, {42, 448, 3, 1131}, {43, 449, 6, 1131}, {44, 450, 3, 1131}, {46, 452, 1, 1131}, {47, 453, 3, 1131}, {48, 454, 3, 1131}, {49, 455, 1, 1131}, {37, 444, 1, 1132}, {39, 446, 3, 1132}, {40, 447, 3, 1132}, {42, 449, 3, 1132}, {43, 450, 6, 1132}, {44, 451, 3, 1132}, {46, 453, 1, 1132}, {47, 454, 3, 1132}, {48, 455, 3, 1132}, {49, 456, 1, 1132}, {38, 442, 1, 1133}, {41, 443, 3, 1133}, {42, 444, 3, 1133}, {45, 445, 3, 1133}, {46, 446, 6, 1133}, {47, 447, 3, 1133}, {50, 448, 1, 1133}, {51, 449, 3, 1133}, {52, 450, 3, 1133}, {53, 451, 1, 1133}, {38, 443, 1, 1134}, {41, 445, 3, 1134}, {42, 446, 3, 1134}, {45, 448, 3, 1134}, {46, 449, 6, 1134}, {47, 450, 3, 1134}, {50, 452, 1, 1134}, {51, 453, 3, 1134}, {52, 454, 3, 1134}, {53, 455, 1, 1134}, {38, 444, 1, 1135}, {41, 446, 3, 1135}, {42, 447, 3, 1135}, {45, 449, 3, 1135}, {46, 450, 6, 1135}, {47, 451, 3, 1135}, {50, 453, 1, 1135}, {51, 454, 3, 1135}, {52, 455, 3, 1135}, {53, 456, 1, 1135}, {39, 442, 1, 1136}, {42, 443, 3, 1136}, {43, 444, 3, 1136}, {46, 445, 3, 1136}, {47, 446, 6, 1136}, {48, 447, 3, 1136}, {51, 448, 1, 1136}, {52, 449, 3, 1136}, {53, 450, 3, 1136}, {54, 451, 1, 1136}, {39, 443, 1, 1137}, {42, 445, 3, 1137}, {43, 446, 3, 1137}, {46, 448, 3, 1137}, {47, 449, 6, 1137}, {48, 450, 3, 1137}, {51, 452, 1, 1137}, {52, 453, 3, 1137}, {53, 454, 3, 1137}, {54, 455, 1, 1137}, {39, 444, 1, 1138}, {42, 446, 3, 1138}, {43, 447, 3, 1138}, {46, 449, 3, 1138}, {47, 450, 6, 1138}, {48, 451, 3, 1138}, {51, 453, 1, 1138}, {52, 454, 3, 1138}, {53, 455, 3, 1138}, {54, 456, 1, 1138}, {40, 442, 1, 1139}, {43, 443, 3, 1139}, {44, 444, 3, 1139}, {47, 445, 3, 1139}, {48, 446, 6, 1139}, {49, 447, 3, 1139}, {52, 448, 1, 1139}, {53, 449, 3, 1139}, {54, 450, 3, 1139}, {55, 451, 1, 1139}, {40, 443, 1, 1140}, {43, 445, 3, 1140}, {44, 446, 3, 1140}, {47, 448, 3, 1140}, {48, 449, 6, 1140}, {49, 450, 3, 1140}, {52, 452, 1, 1140}, {53, 453, 3, 1140}, {54, 454, 3, 1140}, {55, 455, 1, 1140}, {40, 444, 1, 1141}, {43, 446, 3, 1141}, {44, 447, 3, 1141}, {47, 449, 3, 1141}, {48, 450, 6, 1141}, {49, 451, 3, 1141}, {52, 453, 1, 1141}, {53, 454, 3, 1141}, {54, 455, 3, 1141}, {55, 456, 1, 1141}, {10, 543, 1, 1142}, {11, 544, 1, 1142}, {12, 545, 1, 1142}, {11, 543, 1, 1143}, {13, 544, 1, 1143}, {14, 545, 1, 1143}, {12, 543, 1, 1144}, {14, 544, 1, 1144}, {15, 545, 1, 1144}, {13, 543, 1, 1145}, {16, 544, 1, 1145}, {17, 545, 1, 1145}, {14, 543, 1, 1146}, {17, 544, 1, 1146}, {18, 545, 1, 1146}, {15, 543, 1, 1147}, {18, 544, 1, 1147}, {19, 545, 1, 1147}, {35, 612, 1, 1148}, {36, 613, 5, 1148}, {37, 614, 5, 1148}, {38, 615, 10, 1148}, {39, 616, 20, 1148}, {40, 617, 10, 1148}, {41, 618, 10, 1148}, {42, 619, 30, 1148}, {43, 620, 30, 1148}, {44, 621, 10, 1148}, {45, 622, 5, 1148}, {46, 623, 20, 1148}, {47, 624, 30, 1148}, {48, 625, 20, 1148}, {49, 626, 5, 1148}, {50, 627, 1, 1148}, {51, 628, 5, 1148}, {52, 629, 10, 1148}, {53, 630, 10, 1148}, {54, 631, 5, 1148}, {55, 632, 1, 1148}, {169, 175, 1, 1149}, {170, 176, 2, 1149}, {171, 177, 2, 1149}, {172, 178, 1, 1149}, {173, 179, 2, 1149}, {174, 180, 1, 1149}, {169, 176, 1, 1150}, {170, 178, 2, 1150}, {171, 179, 2, 1150}, {172, 181, 1, 1150}, {173, 182, 2, 1150}, {174, 183, 1, 1150}, {169, 177, 1, 1151}, {170, 179, 2, 1151}, {171, 180, 2, 1151}, {172, 182, 1, 1151}, {173, 183, 2, 1151}, {174, 184, 1, 1151}, {175, 175, 1, 1152}, {176, 176, 2, 1152}, {177, 177, 2, 1152}, {178, 178, 1, 1152}, {179, 179, 2, 1152}, {180, 180, 1, 1152}, {175, 176, 1, 1153}, {176, 178, 2, 1153}, {177, 179, 2, 1153}, {178, 181, 1, 1153}, {179, 182, 2, 1153}, {180, 183, 1, 1153}, {175, 177, 1, 1154}, {176, 179, 2, 1154}, {177, 180, 2, 1154}, {178, 182, 1, 1154}, {179, 183, 2, 1154}, {180, 184, 1, 1154}, {176, 176, 1, 1155}, {178, 178, 2, 1155}, {179, 179, 2, 1155}, {181, 181, 1, 1155}, {182, 182, 2, 1155}, {183, 183, 1, 1155}, {176, 177, 1, 1156}, {178, 179, 2, 1156}, {179, 180, 2, 1156}, {181, 182, 1, 1156}, {182, 183, 2, 1156}, {183, 184, 1, 1156}, {177, 177, 1, 1157}, {179, 179, 2, 1157}, {180, 180, 2, 1157}, {182, 182, 1, 1157}, {183, 183, 2, 1157}, {184, 184, 1, 1157}, {185, 221, 1, 1158}, {186, 222, 3, 1158}, {187, 223, 3, 1158}, {188, 224, 3, 1158}, {189, 225, 6, 1158}, {190, 226, 3, 1158}, {191, 227, 1, 1158}, {192, 228, 3, 1158}, {193, 229, 3, 1158}, {194, 230, 1, 1158}, {185, 222, 1, 1159}, {186, 224, 3, 1159}, {187, 225, 3, 1159}, {188, 227, 3, 1159}, {189, 228, 6, 1159}, {190, 229, 3, 1159}, {191, 231, 1, 1159}, {192, 232, 3, 1159}, {193, 233, 3, 1159}, {194, 234, 1, 1159}, {185, 223, 1, 1160}, {186, 225, 3, 1160}, {187, 226, 3, 1160}, {188, 228, 3, 1160}, {189, 229, 6, 1160}, {190, 230, 3, 1160}, {191, 232, 1, 1160}, {192, 233, 3, 1160}, {193, 234, 3, 1160}, {194, 235, 1, 1160}, {185, 224, 1, 1161}, {186, 227, 3, 1161}, {187, 228, 3, 1161}, {188, 231, 3, 1161}, {189, 232, 6, 1161}, {190, 233, 3, 1161}, {191, 236, 1, 1161}, {192, 237, 3, 1161}, {193, 238, 3, 1161}, {194, 239, 1, 1161}, {185, 225, 1, 1162}, {186, 228, 3, 1162}, {187, 229, 3, 1162}, {188, 232, 3, 1162}, {189, 233, 6, 1162}, {190, 234, 3, 1162}, {191, 237, 1, 1162}, {192, 238, 3, 1162}, {193, 239, 3, 1162}, {194, 240, 1, 1162}, {185, 226, 1, 1163}, {186, 229, 3, 1163}, {187, 230, 3, 1163}, {188, 233, 3, 1163}, {189, 234, 6, 1163}, {190, 235, 3, 1163}, {191, 238, 1, 1163}, {192, 239, 3, 1163}, {193, 240, 3, 1163}, {194, 241, 1, 1163}, {185, 227, 1, 1164}, {186, 231, 3, 1164}, {187, 232, 3, 1164}, {188, 236, 3, 1164}, {189, 237, 6, 1164}, {190, 238, 3, 1164}, {191, 242, 1, 1164}, {192, 243, 3, 1164}, {193, 244, 3, 1164}, {194, 245, 1, 1164}, {185, 228, 1, 1165}, {186, 232, 3, 1165}, {187, 233, 3, 1165}, {188, 237, 3, 1165}, {189, 238, 6, 1165}, {190, 239, 3, 1165}, {191, 243, 1, 1165}, {192, 244, 3, 1165}, {193, 245, 3, 1165}, {194, 246, 1, 1165}, {185, 229, 1, 1166}, {186, 233, 3, 1166}, {187, 234, 3, 1166}, {188, 238, 3, 1166}, {189, 239, 6, 1166}, {190, 240, 3, 1166}, {191, 244, 1, 1166}, {192, 245, 3, 1166}, {193, 246, 3, 1166}, {194, 247, 1, 1166}, {185, 230, 1, 1167}, {186, 234, 3, 1167}, {187, 235, 3, 1167}, {188, 239, 3, 1167}, {189, 240, 6, 1167}, {190, 241, 3, 1167}, {191, 245, 1, 1167}, {192, 246, 3, 1167}, {193, 247, 3, 1167}, {194, 248, 1, 1167}, {186, 221, 1, 1168}, {188, 222, 3, 1168}, {189, 223, 3, 1168}, {191, 224, 3, 1168}, {192, 225, 6, 1168}, {193, 226, 3, 1168}, {195, 227, 1, 1168}, {196, 228, 3, 1168}, {197, 229, 3, 1168}, {198, 230, 1, 1168}, {186, 222, 1, 1169}, {188, 224, 3, 1169}, {189, 225, 3, 1169}, {191, 227, 3, 1169}, {192, 228, 6, 1169}, {193, 229, 3, 1169}, {195, 231, 1, 1169}, {196, 232, 3, 1169}, {197, 233, 3, 1169}, {198, 234, 1, 1169}, {186, 223, 1, 1170}, {188, 225, 3, 1170}, {189, 226, 3, 1170}, {191, 228, 3, 1170}, {192, 229, 6, 1170}, {193, 230, 3, 1170}, {195, 232, 1, 1170}, {196, 233, 3, 1170}, {197, 234, 3, 1170}, {198, 235, 1, 1170}, {186, 224, 1, 1171}, {188, 227, 3, 1171}, {189, 228, 3, 1171}, {191, 231, 3, 1171}, {192, 232, 6, 1171}, {193, 233, 3, 1171}, {195, 236, 1, 1171}, {196, 237, 3, 1171}, {197, 238, 3, 1171}, {198, 239, 1, 1171}, {186, 225, 1, 1172}, {188, 228, 3, 1172}, {189, 229, 3, 1172}, {191, 232, 3, 1172}, {192, 233, 6, 1172}, {193, 234, 3, 1172}, {195, 237, 1, 1172}, {196, 238, 3, 1172}, {197, 239, 3, 1172}, {198, 240, 1, 1172}, {186, 226, 1, 1173}, {188, 229, 3, 1173}, {189, 230, 3, 1173}, {191, 233, 3, 1173}, {192, 234, 6, 1173}, {193, 235, 3, 1173}, {195, 238, 1, 1173}, {196, 239, 3, 1173}, {197, 240, 3, 1173}, {198, 241, 1, 1173}, {186, 227, 1, 1174}, {188, 231, 3, 1174}, {189, 232, 3, 1174}, {191, 236, 3, 1174}, {192, 237, 6, 1174}, {193, 238, 3, 1174}, {195, 242, 1, 1174}, {196, 243, 3, 1174}, {197, 244, 3, 1174}, {198, 245, 1, 1174}, {186, 228, 1, 1175}, {188, 232, 3, 1175}, {189, 233, 3, 1175}, {191, 237, 3, 1175}, {192, 238, 6, 1175}, {193, 239, 3, 1175}, {195, 243, 1, 1175}, {196, 244, 3, 1175}, {197, 245, 3, 1175}, {198, 246, 1, 1175}, {186, 229, 1, 1176}, {188, 233, 3, 1176}, {189, 234, 3, 1176}, {191, 238, 3, 1176}, {192, 239, 6, 1176}, {193, 240, 3, 1176}, {195, 244, 1, 1176}, {196, 245, 3, 1176}, {197, 246, 3, 1176}, {198, 247, 1, 1176}, {186, 230, 1, 1177}, {188, 234, 3, 1177}, {189, 235, 3, 1177}, {191, 239, 3, 1177}, {192, 240, 6, 1177}, {193, 241, 3, 1177}, {195, 245, 1, 1177}, {196, 246, 3, 1177}, {197, 247, 3, 1177}, {198, 248, 1, 1177}, {187, 221, 1, 1178}, {189, 222, 3, 1178}, {190, 223, 3, 1178}, {192, 224, 3, 1178}, {193, 225, 6, 1178}, {194, 226, 3, 1178}, {196, 227, 1, 1178}, {197, 228, 3, 1178}, {198, 229, 3, 1178}, {199, 230, 1, 1178}, {187, 222, 1, 1179}, {189, 224, 3, 1179}, {190, 225, 3, 1179}, {192, 227, 3, 1179}, {193, 228, 6, 1179}, {194, 229, 3, 1179}, {196, 231, 1, 1179}, {197, 232, 3, 1179}, {198, 233, 3, 1179}, {199, 234, 1, 1179}, {187, 223, 1, 1180}, {189, 225, 3, 1180}, {190, 226, 3, 1180}, {192, 228, 3, 1180}, {193, 229, 6, 1180}, {194, 230, 3, 1180}, {196, 232, 1, 1180}, {197, 233, 3, 1180}, {198, 234, 3, 1180}, {199, 235, 1, 1180}, {187, 224, 1, 1181}, {189, 227, 3, 1181}, {190, 228, 3, 1181}, {192, 231, 3, 1181}, {193, 232, 6, 1181}, {194, 233, 3, 1181}, {196, 236, 1, 1181}, {197, 237, 3, 1181}, {198, 238, 3, 1181}, {199, 239, 1, 1181}, {187, 225, 1, 1182}, {189, 228, 3, 1182}, {190, 229, 3, 1182}, {192, 232, 3, 1182}, {193, 233, 6, 1182}, {194, 234, 3, 1182}, {196, 237, 1, 1182}, {197, 238, 3, 1182}, {198, 239, 3, 1182}, {199, 240, 1, 1182}, {187, 226, 1, 1183}, {189, 229, 3, 1183}, {190, 230, 3, 1183}, {192, 233, 3, 1183}, {193, 234, 6, 1183}, {194, 235, 3, 1183}, {196, 238, 1, 1183}, {197, 239, 3, 1183}, {198, 240, 3, 1183}, {199, 241, 1, 1183}, {187, 227, 1, 1184}, {189, 231, 3, 1184}, {190, 232, 3, 1184}, {192, 236, 3, 1184}, {193, 237, 6, 1184}, {194, 238, 3, 1184}, {196, 242, 1, 1184}, {197, 243, 3, 1184}, {198, 244, 3, 1184}, {199, 245, 1, 1184}, {187, 228, 1, 1185}, {189, 232, 3, 1185}, {190, 233, 3, 1185}, {192, 237, 3, 1185}, {193, 238, 6, 1185}, {194, 239, 3, 1185}, {196, 243, 1, 1185}, {197, 244, 3, 1185}, {198, 245, 3, 1185}, {199, 246, 1, 1185}, {187, 229, 1, 1186}, {189, 233, 3, 1186}, {190, 234, 3, 1186}, {192, 238, 3, 1186}, {193, 239, 6, 1186}, {194, 240, 3, 1186}, {196, 244, 1, 1186}, {197, 245, 3, 1186}, {198, 246, 3, 1186}, {199, 247, 1, 1186}, {187, 230, 1, 1187}, {189, 234, 3, 1187}, {190, 235, 3, 1187}, {192, 239, 3, 1187}, {193, 240, 6, 1187}, {194, 241, 3, 1187}, {196, 245, 1, 1187}, {197, 246, 3, 1187}, {198, 247, 3, 1187}, {199, 248, 1, 1187}, {185, 285, 1, 1188}, {186, 286, 4, 1188}, {187, 287, 4, 1188}, {188, 288, 6, 1188}, {189, 289, 12, 1188}, {190, 290, 6, 1188}, {191, 291, 4, 1188}, {192, 292, 12, 1188}, {193, 293, 12, 1188}, {194, 294, 4, 1188}, {195, 295, 1, 1188}, {196, 296, 4, 1188}, {197, 297, 6, 1188}, {198, 298, 4, 1188}, {199, 299, 1, 1188}, {185, 286, 1, 1189}, {186, 288, 4, 1189}, {187, 289, 4, 1189}, {188, 291, 6, 1189}, {189, 292, 12, 1189}, {190, 293, 6, 1189}, {191, 295, 4, 1189}, {192, 296, 12, 1189}, {193, 297, 12, 1189}, {194, 298, 4, 1189}, {195, 300, 1, 1189}, {196, 301, 4, 1189}, {197, 302, 6, 1189}, {198, 303, 4, 1189}, {199, 304, 1, 1189}, {185, 287, 1, 1190}, {186, 289, 4, 1190}, {187, 290, 4, 1190}, {188, 292, 6, 1190}, {189, 293, 12, 1190}, {190, 294, 6, 1190}, {191, 296, 4, 1190}, {192, 297, 12, 1190}, {193, 298, 12, 1190}, {194, 299, 4, 1190}, {195, 301, 1, 1190}, {196, 302, 4, 1190}, {197, 303, 6, 1190}, {198, 304, 4, 1190}, {199, 305, 1, 1190}, {185, 288, 1, 1191}, {186, 291, 4, 1191}, {187, 292, 4, 1191}, {188, 295, 6, 1191}, {189, 296, 12, 1191}, {190, 297, 6, 1191}, {191, 300, 4, 1191}, {192, 301, 12, 1191}, {193, 302, 12, 1191}, {194, 303, 4, 1191}, {195, 306, 1, 1191}, {196, 307, 4, 1191}, {197, 308, 6, 1191}, {198, 309, 4, 1191}, {199, 310, 1, 1191}, {185, 289, 1, 1192}, {186, 292, 4, 1192}, {187, 293, 4, 1192}, {188, 296, 6, 1192}, {189, 297, 12, 1192}, {190, 298, 6, 1192}, {191, 301, 4, 1192}, {192, 302, 12, 1192}, {193, 303, 12, 1192}, {194, 304, 4, 1192}, {195, 307, 1, 1192}, {196, 308, 4, 1192}, {197, 309, 6, 1192}, {198, 310, 4, 1192}, {199, 311, 1, 1192}, {185, 290, 1, 1193}, {186, 293, 4, 1193}, {187, 294, 4, 1193}, {188, 297, 6, 1193}, {189, 298, 12, 1193}, {190, 299, 6, 1193}, {191, 302, 4, 1193}, {192, 303, 12, 1193}, {193, 304, 12, 1193}, {194, 305, 4, 1193}, {195, 308, 1, 1193}, {196, 309, 4, 1193}, {197, 310, 6, 1193}, {198, 311, 4, 1193}, {199, 312, 1, 1193}, {185, 291, 1, 1194}, {186, 295, 4, 1194}, {187, 296, 4, 1194}, {188, 300, 6, 1194}, {189, 301, 12, 1194}, {190, 302, 6, 1194}, {191, 306, 4, 1194}, {192, 307, 12, 1194}, {193, 308, 12, 1194}, {194, 309, 4, 1194}, {195, 313, 1, 1194}, {196, 314, 4, 1194}, {197, 315, 6, 1194}, {198, 316, 4, 1194}, {199, 317, 1, 1194}, {185, 292, 1, 1195}, {186, 296, 4, 1195}, {187, 297, 4, 1195}, {188, 301, 6, 1195}, {189, 302, 12, 1195}, {190, 303, 6, 1195}, {191, 307, 4, 1195}, {192, 308, 12, 1195}, {193, 309, 12, 1195}, {194, 310, 4, 1195}, {195, 314, 1, 1195}, {196, 315, 4, 1195}, {197, 316, 6, 1195}, {198, 317, 4, 1195}, {199, 318, 1, 1195}, {185, 293, 1, 1196}, {186, 297, 4, 1196}, {187, 298, 4, 1196}, {188, 302, 6, 1196}, {189, 303, 12, 1196}, {190, 304, 6, 1196}, {191, 308, 4, 1196}, {192, 309, 12, 1196}, {193, 310, 12, 1196}, {194, 311, 4, 1196}, {195, 315, 1, 1196}, {196, 316, 4, 1196}, {197, 317, 6, 1196}, {198, 318, 4, 1196}, {199, 319, 1, 1196}, {185, 294, 1, 1197}, {186, 298, 4, 1197}, {187, 299, 4, 1197}, {188, 303, 6, 1197}, {189, 304, 12, 1197}, {190, 305, 6, 1197}, {191, 309, 4, 1197}, {192, 310, 12, 1197}, {193, 311, 12, 1197}, {194, 312, 4, 1197}, {195, 316, 1, 1197}, {196, 317, 4, 1197}, {197, 318, 6, 1197}, {198, 319, 4, 1197}, {199, 320, 1, 1197}, {185, 295, 1, 1198}, {186, 300, 4, 1198}, {187, 301, 4, 1198}, {188, 306, 6, 1198}, {189, 307, 12, 1198}, {190, 308, 6, 1198}, {191, 313, 4, 1198}, {192, 314, 12, 1198}, {193, 315, 12, 1198}, {194, 316, 4, 1198}, {195, 321, 1, 1198}, {196, 322, 4, 1198}, {197, 323, 6, 1198}, {198, 324, 4, 1198}, {199, 325, 1, 1198}, {185, 296, 1, 1199}, {186, 301, 4, 1199}, {187, 302, 4, 1199}, {188, 307, 6, 1199}, {189, 308, 12, 1199}, {190, 309, 6, 1199}, {191, 314, 4, 1199}, {192, 315, 12, 1199}, {193, 316, 12, 1199}, {194, 317, 4, 1199}, {195, 322, 1, 1199}, {196, 323, 4, 1199}, {197, 324, 6, 1199}, {198, 325, 4, 1199}, {199, 326, 1, 1199}, {185, 297, 1, 1200}, {186, 302, 4, 1200}, {187, 303, 4, 1200}, {188, 308, 6, 1200}, {189, 309, 12, 1200}, {190, 310, 6, 1200}, {191, 315, 4, 1200}, {192, 316, 12, 1200}, {193, 317, 12, 1200}, {194, 318, 4, 1200}, {195, 323, 1, 1200}, {196, 324, 4, 1200}, {197, 325, 6, 1200}, {198, 326, 4, 1200}, {199, 327, 1, 1200}, {185, 298, 1, 1201}, {186, 303, 4, 1201}, {187, 304, 4, 1201}, {188, 309, 6, 1201}, {189, 