<GAP_2019_5_12_-420_0_15_14_644>
<Potential init_args="IP GAP label=GAP_2019_5_12_-420_0_15_14_644" label="GAP_2019_5_12_-420_0_15_14_644" />
<GAP_params gap_version="1525123159" label="GAP_2019_5_12_-420_0_15_14_644">
  <GAP_data do_core="F">
    <e0 Z="1" value="-.79000000000000004" />
    <e0 Z="2" value="-.79000000000000004" />
    <e0 Z="3" value="-.79000000000000004" />
    <e0 Z="4" value="-.79000000000000004" />
    <e0 Z="5" value="-.79000000000000004" />
    <e0 Z="6" value="-.79000000000000004" />
    <e0 Z="7" value="-.79000000000000004" />
    <e0 Z="8" value="-.79000000000000004" />
    <e0 Z="9" value="-.79000000000000004" />
    <e0 Z="10" value="-.79000000000000004" />
    <e0 Z="11" value="-.79000000000000004" />
    <e0 Z="12" value="-.79000000000000004" />
    <e0 Z="13" value="-.79000000000000004" />
    <e0 Z="14" value="-.79000000000000004" />
    <e0 Z="15" value="-.79000000000000004" />
    <e0 Z="16" value="-.79000000000000004" />
    <e0 Z="17" value="-.79000000000000004" />
    <e0 Z="18" value="-.79000000000000004" />
    <e0 Z="19" value="-.79000000000000004" />
    <e0 Z="20" value="-.79000000000000004" />
    <e0 Z="21" value="-.79000000000000004" />
    <e0 Z="22" value="-.79000000000000004" />
    <e0 Z="23" value="-.79000000000000004" />
    <e0 Z="24" value="-.79000000000000004" />
    <e0 Z="25" value="-.79000000000000004" />
    <e0 Z="26" value="-.79000000000000004" />
    <e0 Z="27" value="-.79000000000000004" />
    <e0 Z="28" value="-.79000000000000004" />
    <e0 Z="29" value="-.79000000000000004" />
    <e0 Z="30" value="-.79000000000000004" />
    <e0 Z="31" value="-.79000000000000004" />
    <e0 Z="32" value="-.79000000000000004" />
    <e0 Z="33" value="-.79000000000000004" />
    <e0 Z="34" value="-.79000000000000004" />
    <e0 Z="35" value="-.79000000000000004" />
    <e0 Z="36" value="-.79000000000000004" />
    <e0 Z="37" value="-.79000000000000004" />
    <e0 Z="38" value="-.79000000000000004" />
    <e0 Z="39" value="-.79000000000000004" />
    <e0 Z="40" value="-.79000000000000004" />
    <e0 Z="41" value="-.79000000000000004" />
    <e0 Z="42" value="-.79000000000000004" />
    <e0 Z="43" value="-.79000000000000004" />
    <e0 Z="44" value="-.79000000000000004" />
    <e0 Z="45" value="-.79000000000000004" />
    <e0 Z="46" value="-.79000000000000004" />
    <e0 Z="47" value="-.79000000000000004" />
    <e0 Z="48" value="-.79000000000000004" />
    <e0 Z="49" value="-.79000000000000004" />
    <e0 Z="50" value="-.79000000000000004" />
    <e0 Z="51" value="-.79000000000000004" />
    <e0 Z="52" value="-.79000000000000004" />
    <e0 Z="53" value="-.79000000000000004" />
    <e0 Z="54" value="-.79000000000000004" />
    <e0 Z="55" value="-.79000000000000004" />
    <e0 Z="56" value="-.79000000000000004" />
    <e0 Z="57" value="-.79000000000000004" />
    <e0 Z="58" value="-.79000000000000004" />
    <e0 Z="59" value="-.79000000000000004" />
    <e0 Z="60" value="-.79000000000000004" />
    <e0 Z="61" value="-.79000000000000004" />
    <e0 Z="62" value="-.79000000000000004" />
    <e0 Z="63" value="-.79000000000000004" />
    <e0 Z="64" value="-.79000000000000004" />
    <e0 Z="65" value="-.79000000000000004" />
    <e0 Z="66" value="-.79000000000000004" />
    <e0 Z="67" value="-.79000000000000004" />
    <e0 Z="68" value="-.79000000000000004" />
    <e0 Z="69" value="-.79000000000000004" />
    <e0 Z="70" value="-.79000000000000004" />
    <e0 Z="71" value="-.79000000000000004" />
    <e0 Z="72" value="-.79000000000000004" />
    <e0 Z="73" value="-.79000000000000004" />
    <e0 Z="74" value="-.79000000000000004" />
    <e0 Z="75" value="-.79000000000000004" />
    <e0 Z="76" value="-.79000000000000004" />
    <e0 Z="77" value="-.79000000000000004" />
    <e0 Z="78" value="-.79000000000000004" />
    <e0 Z="79" value="-.79000000000000004" />
    <e0 Z="80" value="-.79000000000000004" />
    <e0 Z="81" value="-.79000000000000004" />
    <e0 Z="82" value="-.79000000000000004" />
    <e0 Z="83" value="-.79000000000000004" />
    <e0 Z="84" value="-.79000000000000004" />
    <e0 Z="85" value="-.79000000000000004" />
    <e0 Z="86" value="-.79000000000000004" />
    <e0 Z="87" value="-.79000000000000004" />
    <e0 Z="88" value="-.79000000000000004" />
    <e0 Z="89" value="-.79000000000000004" />
    <e0 Z="90" value="-.79000000000000004" />
    <e0 Z="91" value="-.79000000000000004" />
    <e0 Z="92" value="-.79000000000000004" />
    <e0 Z="93" value="-.79000000000000004" />
    <e0 Z="94" value="-.79000000000000004" />
    <e0 Z="95" value="-.79000000000000004" />
    <e0 Z="96" value="-.79000000000000004" />
    <e0 Z="97" value="-.79000000000000004" />
    <e0 Z="98" value="-.79000000000000004" />
    <e0 Z="99" value="-.79000000000000004" />
    <e0 Z="100" value="-.79000000000000004" />
    <e0 Z="101" value="-.79000000000000004" />
    <e0 Z="102" value="-.79000000000000004" />
    <e0 Z="103" value="-.79000000000000004" />
    <e0 Z="104" value="-.79000000000000004" />
    <e0 Z="105" value="-.79000000000000004" />
    <e0 Z="106" value="-.79000000000000004" />
    <e0 Z="107" value="-.79000000000000004" />
    <e0 Z="108" value="-.79000000000000004" />
    <e0 Z="109" value="-.79000000000000004" />
    <e0 Z="110" value="-.79000000000000004" />
    <e0 Z="111" value="-.79000000000000004" />
    <e0 Z="112" value="-.79000000000000004" />
    <e0 Z="113" value="-.79000000000000004" />
    <e0 Z="114" value="-.79000000000000004" />
    <e0 Z="115" value="-.79000000000000004" />
    <e0 Z="116" value="-.79000000000000004" />
  </GAP_data>
  <gpSparse label="GAP_2019_5_12_-420_0_15_14_644" n_coordinate="1">
    <gpCoordinates covariance_type="2" dimensions="325" label="GAP_2019_5_12_-420_0_15_14_6441" n_permutations="1" n_sparseX="2000" signal_mean=".00000000000000000E+000" signal_variance="1.0000000000000000" sparseX_filename="GAPotential.soapparam" sparsified="T" zeta="4.0000000000000000">
      <descriptor>soap l_max=8 n_max=8 atom_sigma=0.5 zeta=4 cutoff=5.4 cutoff_transition_width=0.5 delta=1.0 f0=0.0 n_sparse=2000 covariance_type=dot_product sparse_method=cur_points</descriptor>
      <permutation i="1">1  </permutation>
      <sparseX alpha="-86.952107200538890" i="1" sparseCutoff="1.0000000000000000" />
      <sparseX alpha="6992.3013089951210" i="2" sparseCutoff="1.0000000000000000" />
      <sparseX alpha="6991.6578662381171" i="3" sparseCutoff="1.0000000000000000" />
      <sparseX alpha="6996.7642790067566" i="4" sparseCutoff="1.0000000000000000" />
      <sparseX alpha="251.63675077378329" i="5" sparseCutoff="1.0000000000000000" />
      <sparseX alpha="265.18100326406125" i="6" sparseCutoff="1.0000000000000000" />
      <sparseX alpha="257.76678178785676" i="7" sparseCutoff="1.0000000000000000" />
      <sparseX alpha="251.15015867546430" i="8" sparseCutoff="1.0000000000000000" />
      <sparseX alpha="-52.066452641720673" i="9" sparseCutoff="1.0000000000000000" />
      <sparseX alpha="-40.852366590443410" i="10" sparseCutoff="1.0000000000000000" />
      <sparseX alpha="-31.806952192983964" i="11" sparseCutoff="1.0000000000000000" />
      <sparseX alpha="-96.893679566633281" i="12" sparseCutoff="1.0000000000000000" />
      <sparseX alpha="6983.3430008503547" i="13" sparseCutoff="1.0000000000000000" />
      <sparseX alpha="-10808.675147209642" i="14" sparseCutoff="1.0000000000000000" />
      <sparseX alpha="-10808.680452038530" i="15" sparseCutoff="1.0000000000000000" />
      <sparseX alpha="14129.942620664093" i="16" sparseCutoff="1.0000000000000000" />
      <sparseX alpha="-653.93634242438475" i="17" sparseCutoff="1.0000000000000000" />
      <sparseX alpha="-50.898660950508749" i="18" sparseCutoff="1.0000000000000000" />
      <sparseX alpha="-43.879190541919442" i="19" sparseCutoff="1.0000000000000000" />
      <sparseX alpha="-43.873054826473329" i="20" sparseCutoff="1.0000000000000000" />
      <sparseX alpha="-96.894760960850803" i="21" sparseCutoff="1.0000000000000000" />
      <sparseX alpha="-106.82193283135676" i="22" sparseCutoff="1.0000000000000000" />
      <sparseX alpha="-9523.6966770842773" i="23" sparseCutoff="1.0000000000000000" />
      <sparseX alpha="6992.3010446117687" i="24" sparseCutoff="1.0000000000000000" />
      <sparseX alpha="-10808.680496460189" i="25" sparseCutoff="1.0000000000000000" />
      <sparseX alpha="1152.0392721998417" i="26" sparseCutoff="1.0000000000000000" />
      <sparseX alpha="-647.69949744927158" i="27" sparseCutoff="1.0000000000000000" />
      <sparseX alpha="-647.70222273633931" i="28" sparseCutoff="1.0000000000000000" />
      <sparseX alpha="-647.69971780146705" i="29" sparseCutoff="1.0000000000000000" />
      <sparseX alpha="-656.75988546464237" i="30" sparseCutoff="1.0000000000000000" />
      <sparseX alpha="-644.75846988292381" i="31" sparseCutoff="1.0000000000000000" />
      <sparseX alpha="-653.36142893884755" i="32" sparseCutoff="1.0000000000000000" />
      <sparseX alpha="259.07095112371780" i="33" sparseCutoff="1.0000000000000000" />
      <sparseX alpha="254.57121258352183" i="34" sparseCutoff="1.0000000000000000" />
      <sparseX alpha="1128.3212197463320" i="35" sparseCutoff="1.0000000000000000" />
      <sparseX alpha="1083.5293308541814" i="36" sparseCutoff="1.0000000000000000" />
      <sparseX alpha="-5633.7435879829218" i="37" sparseCutoff="1.0000000000000000" />
      <sparseX alpha="-4962.3564120462970" i="38" sparseCutoff="1.0000000000000000" />
      <sparseX alpha="-4973.8974370760525" i="39" sparseCutoff="1.0000000000000000" />
      <sparseX alpha="-4962.3819003806784" i="40" sparseCutoff="1.0000000000000000" />
      <sparseX alpha="1110.8825535978028" i="41" sparseCutoff="1.0000000000000000" />
      <sparseX alpha="9646.0097143915191" i="42" sparseCutoff="1.0000000000000000" />
      <sparseX alpha="13461.475757797696" i="43" sparseCutoff="1.0000000000000000" />
      <sparseX alpha="-5621.9693987994042" i="44" sparseCutoff="1.0000000000000000" />
      <sparseX alpha="1163.1399836232808" i="45" sparseCutoff="1.0000000000000000" />
      <sparseX alpha="1094.4569979073010" i="46" sparseCutoff="1.0000000000000000" />
      <sparseX alpha="1113.0312172303516" i="47" sparseCutoff="1.0000000000000000" />
      <sparseX alpha="1090.5593128202734" i="48" sparseCutoff="1.0000000000000000" />
      <sparseX alpha="1087.1345065241128" i="49" sparseCutoff="1.0000000000000000" />
      <sparseX alpha="-5641.3098299614967" i="50" sparseCutoff="1.0000000000000000" />
      <sparseX alpha="-10808.664287846826" i="51" sparseCutoff="1.0000000000000000" />
      <sparseX alpha="-5605.9821254681938" i="52" sparseCutoff="1.0000000000000000" />
      <sparseX alpha="6970.8605969394657" i="53" sparseCutoff="1.0000000000000000" />
      <sparseX alpha="-2253.0776146461294" i="54" sparseCutoff="1.0000000000000000" />
      <sparseX alpha="82.843575411190983" i="55" sparseCutoff="1.0000000000000000" />
      <sparseX alpha="35.704606747150642" i="56" sparseCutoff="1.0000000000000000" />
      <sparseX alpha="138.56890000477529" i="57" sparseCutoff="1.0000000000000000" />
      <sparseX alpha="919.04084604777165" i="58" sparseCutoff="1.0000000000000000" />
      <sparseX alpha="233.98937852945556" i="59" sparseCutoff="1.0000000000000000" />
      <sparseX alpha="276.99505177210182" i="60" sparseCutoff="1.0000000000000000" />
      <sparseX alpha="-327.26831042694863" i="61" sparseCutoff="1.0000000000000000" />
      <sparseX alpha="393.00052524988939" i="62" sparseCutoff="1.0000000000000000" />
      <sparseX alpha="114.37702081496134" i="63" sparseCutoff="1.0000000000000000" />
      <sparseX alpha="-133.51191778603427" i="64" sparseCutoff="1.0000000000000000" />
      <sparseX alpha="-559.54713524083354" i="65" sparseCutoff="1.0000000000000000" />
      <sparseX alpha="20.178780811764550" i="66" sparseCutoff="1.0000000000000000" />
      <sparseX alpha="76.552052368774554" i="67" sparseCutoff="1.0000000000000000" />
      <sparseX alpha="592.96897064012433" i="68" sparseCutoff="1.0000000000000000" />
      <sparseX alpha="991.43091624800456" i="69" sparseCutoff="1.0000000000000000" />
      <sparseX alpha="167.72230036275403" i="70" sparseCutoff="1.0000000000000000" />
      <sparseX alpha="-62.095414122280275" i="71" sparseCutoff="1.0000000000000000" />
      <sparseX alpha="441.99527935152054" i="72" sparseCutoff="1.0000000000000000" />
      <sparseX alpha="-76.849525296264801" i="73" sparseCutoff="1.0000000000000000" />
      <sparseX alpha="40.201081385996524" i="74" sparseCutoff="1.0000000000000000" />
      <sparseX alpha="64.984156597408614" i="75" sparseCutoff="1.0000000000000000" />
      <sparseX alpha="999.01546627274570" i="76" sparseCutoff="1.0000000000000000" />
      <sparseX alpha="-501.79059787954924" i="77" sparseCutoff="1.0000000000000000" />
      <sparseX alpha="166.01750471982871" i="78" sparseCutoff="1.0000000000000000" />
      <sparseX alpha="113.09271357861611" i="79" sparseCutoff="1.0000000000000000" />
      <sparseX alpha="66.708288030525452" i="80" sparseCutoff="1.0000000000000000" />
      <sparseX alpha="-54.393654502578066" i="81" sparseCutoff="1.0000000000000000" />
      <sparseX alpha="195.58931930681973" i="82" sparseCutoff="1.0000000000000000" />
      <sparseX alpha="36.837332568015171" i="83" sparseCutoff="1.0000000000000000" />
      <sparseX alpha="-474.07217698835427" i="84" sparseCutoff="1.0000000000000000" />
      <sparseX alpha="-175.12663805067223" i="85" sparseCutoff="1.0000000000000000" />
      <sparseX alpha="268.90336825899249" i="86" sparseCutoff="1.0000000000000000" />
      <sparseX alpha="224.00942591680962" i="87" sparseCutoff="1.0000000000000000" />
      <sparseX alpha="104.68231098472916" i="88" sparseCutoff="1.0000000000000000" />
      <sparseX alpha="-195.55700407372692" i="89" sparseCutoff="1.0000000000000000" />
      <sparseX alpha="-37.691852667261678" i="90" sparseCutoff="1.0000000000000000" />
      <sparseX alpha="-181.73693826544783" i="91" sparseCutoff="1.0000000000000000" />
      <sparseX alpha="-45.031522944535475" i="92" sparseCutoff="1.0000000000000000" />
      <sparseX alpha="-128.37799086360650" i="93" sparseCutoff="1.0000000000000000" />
      <sparseX alpha="-12.347352971796383" i="94" sparseCutoff="1.0000000000000000" />
      <sparseX alpha="-145.55186129414136" i="95" sparseCutoff="1.0000000000000000" />
      <sparseX alpha="323.10583480852677" i="96" sparseCutoff="1.0000000000000000" />
      <sparseX alpha="160.97076779037548" i="97" sparseCutoff="1.0000000000000000" />
      <sparseX alpha="25.693251380595079" i="98" sparseCutoff="1.0000000000000000" />
      <sparseX alpha="209.00192641737863" i="99" sparseCutoff="1.0000000000000000" />
      <sparseX alpha="-144.53917933208569" i="100" sparseCutoff="1.0000000000000000" />
      <sparseX alpha="-165.20139042732347" i="101" sparseCutoff="1.0000000000000000" />
      <sparseX alpha="-13.622487746804110" i="102" sparseCutoff="1.0000000000000000" />
      <sparseX alpha="-675.37899980703537" i="103" sparseCutoff="1.0000000000000000" />
      <sparseX alpha="-939.98133573497398" i="104" sparseCutoff="1.0000000000000000" />
      <sparseX alpha="244.07116503099832" i="105" sparseCutoff="1.0000000000000000" />
      <sparseX alpha="-158.17387276178320" i="106" sparseCutoff="1.0000000000000000" />
      <sparseX alpha="-485.90526124860298" i="107" sparseCutoff="1.0000000000000000" />
      <sparseX alpha="-173.62957769518513" i="108" sparseCutoff="1.0000000000000000" />
      <sparseX alpha="487.93519717178282" i="109" sparseCutoff="1.0000000000000000" />
      <sparseX alpha="-5391.3290046734865" i="110" sparseCutoff="1.0000000000000000" />
      <sparseX alpha="1784.6812605645723" i="111" sparseCutoff="1.0000000000000000" />
      <sparseX alpha="887.56491117100870" i="112" sparseCutoff="1.0000000000000000" />
      <sparseX alpha="1094.2399965962288" i="113" sparseCutoff="1.0000000000000000" />
      <sparseX alpha="-24.969796045551160" i="114" sparseCutoff="1.0000000000000000" />
      <sparseX alpha="-41.365601892288396" i="115" sparseCutoff="1.0000000000000000" />
      <sparseX alpha="334.26849925737662" i="116" sparseCutoff="1.0000000000000000" />
      <sparseX alpha="28.431673477343477" i="117" sparseCutoff="1.0000000000000000" />
      <sparseX alpha="-128.96627662253061" i="118" sparseCutoff="1.0000000000000000" />
      <sparseX alpha="-285.31589906069252" i="119" sparseCutoff="1.0000000000000000" />
      <sparseX alpha="260.99566628060086" i="120" sparseCutoff="1.0000000000000000" />
      <sparseX alpha="489.14663621259223" i="121" sparseCutoff="1.0000000000000000" />
      <sparseX alpha="-330.18765423263000" i="122" sparseCutoff="1.0000000000000000" />
      <sparseX alpha="-177.52596342515105" i="123" sparseCutoff="1.0000000000000000" />
      <sparseX alpha="1.8482141231721585" i="124" sparseCutoff="1.0000000000000000" />
      <sparseX alpha="22.029440080282917" i="125" sparseCutoff="1.0000000000000000" />
      <sparseX alpha="-93.544529555434707" i="126" sparseCutoff="1.0000000000000000" />
      <sparseX alpha="472.67964839881466" i="127" sparseCutoff="1.0000000000000000" />
      <sparseX alpha="33.111941311717175" i="128" sparseCutoff="1.0000000000000000" />
      <sparseX alpha="-553.25057154984904" i="129" sparseCutoff="1.0000000000000000" />
      <sparseX alpha="111.39439396882035" i="130" sparseCutoff="1.0000000000000000" />
      <sparseX alpha="638.87253576644036" i="131" sparseCutoff="1.0000000000000000" />
      <sparseX alpha="-201.82130383616501" i="132" sparseCutoff="1.0000000000000000" />
      <sparseX alpha="301.95816218948215" i="133" sparseCutoff="1.0000000000000000" />
      <sparseX alpha="17.771287869684905" i="134" sparseCutoff="1.0000000000000000" />
      <sparseX alpha="50.423110672190710" i="135" sparseCutoff="1.0000000000000000" />
      <sparseX alpha="35.445077772485050" i="136" sparseCutoff="1.0000000000000000" />
      <sparseX alpha="-313.09802844918948" i="137" sparseCutoff="1.0000000000000000" />
      <sparseX alpha="-559.24799705717101" i="138" sparseCutoff="1.0000000000000000" />
      <sparseX alpha="389.22426006483846" i="139" sparseCutoff="1.0000000000000000" />
      <sparseX alpha="332.01009752600743" i="140" sparseCutoff="1.0000000000000000" />
      <sparseX alpha="-322.84827441717738" i="141" sparseCutoff="1.0000000000000000" />
      <sparseX alpha="-150.65490159313836" i="142" sparseCutoff="1.0000000000000000" />
      <sparseX alpha="224.36712514724184" i="143" sparseCutoff="1.0000000000000000" />
      <sparseX alpha="-251.23190619132825" i="144" sparseCutoff="1.0000000000000000" />
      <sparseX alpha="-188.70646892192124" i="145" sparseCutoff="1.0000000000000000" />
      <sparseX alpha="-374.45590849651836" i="146" sparseCutoff="1.0000000000000000" />
      <sparseX alpha="66.644833602033970" i="147" sparseCutoff="1.0000000000000000" />
      <sparseX alpha="369.86297852898048" i="148" sparseCutoff="1.0000000000000000" />
      <sparseX alpha="239.98099731960752" i="149" sparseCutoff="1.0000000000000000" />
      <sparseX alpha="-407.17752911739041" i="150" sparseCutoff="1.0000000000000000" />
      <sparseX alpha="-356.18113497130503" i="151" sparseCutoff="1.0000000000000000" />
      <sparseX alpha="-348.94278080218095" i="152" sparseCutoff="1.0000000000000000" />
      <sparseX alpha="61.993376436452174" i="153" sparseCutoff="1.0000000000000000" />
      <sparseX alpha="-418.36937234724633" i="154" sparseCutoff="1.0000000000000000" />
      <sparseX alpha="643.14371604439759" i="155" sparseCutoff="1.0000000000000000" />
      <sparseX alpha="-441.90968987004987" i="156" sparseCutoff="1.0000000000000000" />
      <sparseX alpha="-229.75301810384795" i="157" sparseCutoff="1.0000000000000000" />
      <sparseX alpha="141.35889126190236" i="158" sparseCutoff="1.0000000000000000" />
      <sparseX alpha="-167.31969593554348" i="159" sparseCutoff="1.0000000000000000" />
      <sparseX alpha="-83.774654309338686" i="160" sparseCutoff="1.0000000000000000" />
      <sparseX alpha="-160.07349004733612" i="161" sparseCutoff="1.0000000000000000" />
      <sparseX alpha="358.63438146393020" i="162" sparseCutoff="1.0000000000000000" />
      <sparseX alpha="98.520006412387289" i="163" sparseCutoff="1.0000000000000000" />
      <sparseX alpha="-231.40571405204281" i="164" sparseCutoff="1.0000000000000000" />
      <sparseX alpha="-1547.0461397037307" i="165" sparseCutoff="1.0000000000000000" />
      <sparseX alpha="203.71553526560655" i="166" sparseCutoff="1.0000000000000000" />
      <sparseX alpha="1286.3850658853025" i="167" sparseCutoff="1.0000000000000000" />
      <sparseX alpha="-71.804036809156557" i="168" sparseCutoff="1.0000000000000000" />
      <sparseX alpha="-355.25387166832462" i="169" sparseCutoff="1.0000000000000000" />
      <sparseX alpha="401.62333126151674" i="170" sparseCutoff="1.0000000000000000" />
      <sparseX alpha="200.90347866791771" i="171" sparseCutoff="1.0000000000000000" />
      <sparseX alpha="-174.09000485727475" i="172" sparseCutoff="1.0000000000000000" />
      <sparseX alpha="121.28641349121780" i="173" sparseCutoff="1.0000000000000000" />
      <sparseX alpha="152.59995544492418" i="174" sparseCutoff="1.0000000000000000" />
      <sparseX alpha="488.93246537016876" i="175" sparseCutoff="1.0000000000000000" />
      <sparseX alpha="-20.827652331684380" i="176" sparseCutoff="1.0000000000000000" />
      <sparseX alpha="-289.76422646798369" i="177" sparseCutoff="1.0000000000000000" />
      <sparseX alpha="-48.825740141522850" i="178" sparseCutoff="1.0000000000000000" />
      <sparseX alpha="-43.434487926364554" i="179" sparseCutoff="1.0000000000000000" />
      <sparseX alpha="43.610385049960549" i="180" sparseCutoff="1.0000000000000000" />
      <sparseX alpha="210.92183793220772" i="181" sparseCutoff="1.0000000000000000" />
      <sparseX alpha="406.37151110596892" i="182" sparseCutoff="1.0000000000000000" />
      <sparseX alpha="148.42880976902012" i="183" sparseCutoff="1.0000000000000000" />
      <sparseX alpha="-195.98666802876886" i="184" sparseCutoff="1.0000000000000000" />
      <sparseX alpha="-262.28187200195987" i="185" sparseCutoff="1.0000000000000000" />
      <sparseX alpha="-144.30961910870633" i="186" sparseCutoff="1.0000000000000000" />
      <sparseX alpha="-137.82861657909055" i="187" sparseCutoff="1.0000000000000000" />
      <sparseX alpha="-495.75745828574765" i="188" sparseCutoff="1.0000000000000000" />
      <sparseX alpha="-57.070413780685996" i="189" sparseCutoff="1.0000000000000000" />
      <sparseX alpha="-26.568119178794330" i="190" sparseCutoff="1.0000000000000000" />
      <sparseX alpha="-447.87668657199316" i="191" sparseCutoff="1.0000000000000000" />
      <sparseX alpha="-492.52311563244109" i="192" sparseCutoff="1.0000000000000000" />
      <sparseX alpha="-372.65574621068583" i="193" sparseCutoff="1.0000000000000000" />
      <sparseX alpha="115.89594201477625" i="194" sparseCutoff="1.0000000000000000" />
      <sparseX alpha="116.78484827020614" i="195" sparseCutoff="1.0000000000000000" />
      <sparseX alpha="-176.24919599540374" i="196" sparseCutoff="1.0000000000000000" />
      <sparseX alpha="637.94316263303210" i="197" sparseCutoff="1.0000000000000000" />
      <sparseX alpha="14.497343332353873" i="198" sparseCutoff="1.0000000000000000" />
      <sparseX alpha="218.80107891807319" i="199" sparseCutoff="1.0000000000000000" />
      <sparseX alpha="117.74604893113292" i="200" sparseCutoff="1.0000000000000000" />
      <sparseX alpha="-1.4984621880296234" i="201" sparseCutoff="1.0000000000000000" />
      <sparseX alpha="496.50767426273848" i="202" sparseCutoff="1.0000000000000000" />
      <sparseX alpha="-165.30941596041680" i="203" sparseCutoff="1.0000000000000000" />
      <sparseX alpha="54.096450575081867" i="204" sparseCutoff="1.0000000000000000" />
      <sparseX alpha="193.14263284471937" i="205" sparseCutoff="1.0000000000000000" />
      <sparseX alpha="119.40093018340959" i="206" sparseCutoff="1.0000000000000000" />
      <sparseX alpha="-275.09327287179252" i="207" sparseCutoff="1.0000000000000000" />
      <sparseX alpha="635.22411381983784" i="208" sparseCutoff="1.0000000000000000" />
      <sparseX alpha="84.146487622437292" i="209" sparseCutoff="1.0000000000000000" />
      <sparseX alpha="-122.89536479993671" i="210" sparseCutoff="1.0000000000000000" />
      <sparseX alpha="-107.40590522593089" i="211" sparseCutoff="1.0000000000000000" />
      <sparseX alpha="-144.87419651758205" i="212" sparseCutoff="1.0000000000000000" />
      <sparseX alpha="339.83530657921438" i="213" sparseCutoff="1.0000000000000000" />
      <sparseX alpha="25.975824341463476" i="214" sparseCutoff="1.0000000000000000" />
      <sparseX alpha="76.383067007354754" i="215" sparseCutoff="1.0000000000000000" />
      <sparseX alpha="-323.65145516577581" i="216" sparseCutoff="1.0000000000000000" />
      <sparseX alpha="17.474236905169523" i="217" sparseCutoff="1.0000000000000000" />
      <sparseX alpha="261.41136793398249" i="218" sparseCutoff="1.0000000000000000" />
      <sparseX alpha="312.81211534923756" i="219" sparseCutoff="1.0000000000000000" />
      <sparseX alpha="158.98276054862941" i="220" sparseCutoff="1.0000000000000000" />
      <sparseX alpha="-138.86205703880302" i="221" sparseCutoff="1.0000000000000000" />
      <sparseX alpha="373.52646429020365" i="222" sparseCutoff="1.0000000000000000" />
      <sparseX alpha="908.47555036467520" i="223" sparseCutoff="1.0000000000000000" />
      <sparseX alpha="-13.661498765289991" i="224" sparseCutoff="1.0000000000000000" />
      <sparseX alpha="-128.41214583704135" i="225" sparseCutoff="1.0000000000000000" />
      <sparseX alpha="97.452542183606496" i="226" sparseCutoff="1.0000000000000000" />
      <sparseX alpha="-8.3838578836605677" i="227" sparseCutoff="1.0000000000000000" />
      <sparseX alpha="-10.793967133980294" i="228" sparseCutoff="1.0000000000000000" />
      <sparseX alpha="126.28610353736610" i="229" sparseCutoff="1.0000000000000000" />
      <sparseX alpha="95.052565153523048" i="230" sparseCutoff="1.0000000000000000" />
      <sparseX alpha="1308.4863188117051" i="231" sparseCutoff="1.0000000000000000" />
      <sparseX alpha="-7.9226427581902019" i="232" sparseCutoff="1.0000000000000000" />
      <sparseX alpha="-218.13866075534929" i="233" sparseCutoff="1.0000000000000000" />
      <sparseX alpha="11.970662368212746" i="234" sparseCutoff="1.0000000000000000" />
      <sparseX alpha="-171.42134897618459" i="235" sparseCutoff="1.0000000000000000" />
      <sparseX alpha="-152.13487114600900" i="236" sparseCutoff="1.0000000000000000" />
      <sparseX alpha="622.56555141682588" i="237" sparseCutoff="1.0000000000000000" />
      <sparseX alpha="-34.567788056977584" i="238" sparseCutoff="1.0000000000000000" />
      <sparseX alpha="-7.0301723986050728" i="239" sparseCutoff="1.0000000000000000" />
      <sparseX alpha="-409.33723389556712" i="240" sparseCutoff="1.0000000000000000" />
      <sparseX alpha="-71.114252399693470" i="241" sparseCutoff="1.0000000000000000" />
      <sparseX alpha="101.39078903171621" i="242" sparseCutoff="1.0000000000000000" />
      <sparseX alpha="176.51775271769287" i="243" sparseCutoff="1.0000000000000000" />
      <sparseX alpha="316.17556612493280" i="244" sparseCutoff="1.0000000000000000" />
      <sparseX alpha="237.30957678707537" i="245" sparseCutoff="1.0000000000000000" />
      <sparseX alpha="-87.434078808494206" i="246" sparseCutoff="1.0000000000000000" />
      <sparseX alpha="36.794914722993312" i="247" sparseCutoff="1.0000000000000000" />
      <sparseX alpha="-424.23149303500139" i="248" sparseCutoff="1.0000000000000000" />
      <sparseX alpha="474.21390087636479" i="249" sparseCutoff="1.0000000000000000" />
      <sparseX alpha="-42.266430405585403" i="250" sparseCutoff="1.0000000000000000" />
      <sparseX alpha="-316.66069375217768" i="251" sparseCutoff="1.0000000000000000" />
      <sparseX alpha="-439.76791377822468" i="252" sparseCutoff="1.0000000000000000" />
      <sparseX alpha="76.158595174679277" i="253" sparseCutoff="1.0000000000000000" />
      <sparseX alpha="-34.260282071603655" i="254" sparseCutoff="1.0000000000000000" />
      <sparseX alpha="104.39843008357032" i="255" sparseCutoff="1.0000000000000000" />
      <sparseX alpha="-14.241467664957511" i="256" sparseCutoff="1.0000000000000000" />
      <sparseX alpha="-318.73660858188623" i="257" sparseCutoff="1.0000000000000000" />
      <sparseX alpha="-687.29489464783285" i="258" sparseCutoff="1.0000000000000000" />
      <sparseX alpha="228.04586795518318" i="259" sparseCutoff="1.0000000000000000" />
      <sparseX alpha="197.10837509744132" i="260" sparseCutoff="1.0000000000000000" />
      <sparseX alpha="107.24002971652253" i="261" sparseCutoff="1.0000000000000000" />
      <sparseX alpha="-124.89622307830382" i="262" sparseCutoff="1.0000000000000000" />
      <sparseX alpha="47.462270990585814" i="263" sparseCutoff="1.0000000000000000" />
      <sparseX alpha="-98.384354824331439" i="264" sparseCutoff="1.0000000000000000" />
      <sparseX alpha="-237.98479896068153" i="265" sparseCutoff="1.0000000000000000" />
      <sparseX alpha="-331.56221915912352" i="266" sparseCutoff="1.0000000000000000" />
      <sparseX alpha="-301.59827916107952" i="267" sparseCutoff="1.0000000000000000" />
      <sparseX alpha="271.05380253700275" i="268" sparseCutoff="1.0000000000000000" />
      <sparseX alpha="155.06965359713794" i="269" sparseCutoff="1.0000000000000000" />
      <sparseX alpha="-199.40183224530432" i="270" sparseCutoff="1.0000000000000000" />
      <sparseX alpha="7.0040590884195382" i="271" sparseCutoff="1.0000000000000000" />
      <sparseX alpha="198.37105586846522" i="272" sparseCutoff="1.0000000000000000" />
      <sparseX alpha="-497.41397004979734" i="273" sparseCutoff="1.0000000000000000" />
      <sparseX alpha="-275.21395229785958" i="274" sparseCutoff="1.0000000000000000" />
      <sparseX alpha="-28.095628645673951" i="275" sparseCutoff="1.0000000000000000" />
      <sparseX alpha="144.44262932888421" i="276" sparseCutoff="1.0000000000000000" />
      <sparseX alpha="330.47010071783563" i="277" sparseCutoff="1.0000000000000000" />
      <sparseX alpha="-750.96009736354358" i="278" sparseCutoff="1.0000000000000000" />
      <sparseX alpha="1518.2169781491666" i="279" sparseCutoff="1.0000000000000000" />
      <sparseX alpha="165.94222880036895" i="280" sparseCutoff="1.0000000000000000" />
      <sparseX alpha="87.456556423343358" i="281" sparseCutoff="1.0000000000000000" />
      <sparseX alpha="477.96239771291266" i="282" sparseCutoff="1.0000000000000000" />
      <sparseX alpha="252.90545728440523" i="283" sparseCutoff="1.0000000000000000" />
      <sparseX alpha="-452.60712818879051" i="284" sparseCutoff="1.0000000000000000" />
      <sparseX alpha="37.601482724311651" i="285" sparseCutoff="1.0000000000000000" />
      <sparseX alpha="-77.710644138701852" i="286" sparseCutoff="1.0000000000000000" />
      <sparseX alpha="-208.17707321779699" i="287" sparseCutoff="1.0000000000000000" />
      <sparseX alpha="-162.16672401113081" i="288" sparseCutoff="1.0000000000000000" />
      <sparseX alpha="82.528455357755661" i="289" sparseCutoff="1.0000000000000000" />
      <sparseX alpha="-75.119931521061389" i="290" sparseCutoff="1.0000000000000000" />
      <sparseX alpha="148.80658254074797" i="291" sparseCutoff="1.0000000000000000" />
      <sparseX alpha="131.26043435730602" i="292" sparseCutoff="1.0000000000000000" />
      <sparseX alpha="116.47032347098497" i="293" sparseCutoff="1.0000000000000000" />
      <sparseX alpha="-53.889698955695344" i="294" sparseCutoff="1.0000000000000000" />
      <sparseX alpha="-47.395134832984866" i="295" sparseCutoff="1.0000000000000000" />
      <sparseX alpha="-150.77154226933595" i="296" sparseCutoff="1.0000000000000000" />
      <sparseX alpha="203.20171197984206" i="297" sparseCutoff="1.0000000000000000" />
      <sparseX alpha="-168.30339243024369" i="298" sparseCutoff="1.0000000000000000" />
      <sparseX alpha="-195.52300217693724" i="299" sparseCutoff="1.0000000000000000" />
      <sparseX alpha="-312.39486184415989" i="300" sparseCutoff="1.0000000000000000" />
      <sparseX alpha="58.000629629126905" i="301" sparseCutoff="1.0000000000000000" />
      <sparseX alpha="-72.484605739286508" i="302" sparseCutoff="1.0000000000000000" />
      <sparseX alpha="234.57034000247992" i="303" sparseCutoff="1.0000000000000000" />
      <sparseX alpha="29.229298744668942" i="304" sparseCutoff="1.0000000000000000" />
      <sparseX alpha="-124.54642717530770" i="305" sparseCutoff="1.0000000000000000" />
      <sparseX alpha="-40.648984016248306" i="306" sparseCutoff="1.0000000000000000" />
      <sparseX alpha="214.32094866356468" i="307" sparseCutoff="1.0000000000000000" />
      <sparseX alpha="22.759575964320945" i="308" sparseCutoff="1.0000000000000000" />
      <sparseX alpha="47.903791818831394" i="309" sparseCutoff="1.0000000000000000" />
      <sparseX alpha="426.73561535475181" i="310" sparseCutoff="1.0000000000000000" />
      <sparseX alpha="326.73401100542719" i="311" sparseCutoff="1.0000000000000000" />
      <sparseX alpha="122.93461645253278" i="312" sparseCutoff="1.0000000000000000" />
      <sparseX alpha="204.90102373276667" i="313" sparseCutoff="1.0000000000000000" />
      <sparseX alpha="-349.72244854091332" i="314" sparseCutoff="1.0000000000000000" />
      <sparseX alpha="186.68325861741002" i="315" sparseCutoff="1.0000000000000000" />
      <sparseX alpha="-284.56145597472567" i="316" sparseCutoff="1.0000000000000000" />
      <sparseX alpha="83.709821986066061" i="317" sparseCutoff="1.0000000000000000" />
      <sparseX alpha="-180.22349177403396" i="318" sparseCutoff="1.0000000000000000" />
      <sparseX alpha="144.36697283308234" i="319" sparseCutoff="1.0000000000000000" />
      <sparseX alpha="74.922539188855694" i="320" sparseCutoff="1.0000000000000000" />
      <sparseX alpha="-311.00550467605797" i="321" sparseCutoff="1.0000000000000000" />
      <sparseX alpha="154.03773235245538" i="322" sparseCutoff="1.0000000000000000" />
      <sparseX alpha="-61.159393880680454" i="323" sparseCutoff="1.0000000000000000" />
      <sparseX alpha="-390.51790739478844" i="324" sparseCutoff="1.0000000000000000" />
      <sparseX alpha="370.59780042145212" i="325" sparseCutoff="1.0000000000000000" />
      <sparseX alpha="427.79988428956148" i="326" sparseCutoff="1.0000000000000000" />
      <sparseX alpha="-100.24965894956536" i="327" sparseCutoff="1.0000000000000000" />
      <sparseX alpha="370.74746645344180" i="328" sparseCutoff="1.0000000000000000" />
      <sparseX alpha="-320.02095179415642" i="329" sparseCutoff="1.0000000000000000" />
      <sparseX alpha="-307.34860329013259" i="330" sparseCutoff="1.0000000000000000" />
      <sparseX alpha="-47.030307552116611" i="331" sparseCutoff="1.0000000000000000" />
      <sparseX alpha="-90.546467434342986" i="332" sparseCutoff="1.0000000000000000" />
      <sparseX alpha="-348.23428704711682" i="333" sparseCutoff="1.0000000000000000" />
      <sparseX alpha="-331.89024276025083" i="334" sparseCutoff="1.0000000000000000" />
      <sparseX alpha="-282.99544097081332" i="335" sparseCutoff="1.0000000000000000" />
      <sparseX alpha="-17.724397914096766" i="336" sparseCutoff="1.0000000000000000" />
      <sparseX alpha="-111.58210714952119" i="337" sparseCutoff="1.0000000000000000" />
      <sparseX alpha="361.06023711099874" i="338" sparseCutoff="1.0000000000000000" />
      <sparseX alpha="190.43313210259774" i="339" sparseCutoff="1.0000000000000000" />
      <sparseX alpha="307.92398588432962" i="340" sparseCutoff="1.0000000000000000" />
      <sparseX alpha="-189.40148995017572" i="341" sparseCutoff="1.0000000000000000" />
      <sparseX alpha="-50.594991926832954" i="342" sparseCutoff="1.0000000000000000" />
      <sparseX alpha="-362.92173165555334" i="343" sparseCutoff="1.0000000000000000" />
      <sparseX alpha="-5274.6300756651808" i="344" sparseCutoff="1.0000000000000000" />
      <sparseX alpha="-22.106154909239166" i="345" sparseCutoff="1.0000000000000000" />
      <sparseX alpha="683.82835902327702" i="346" sparseCutoff="1.0000000000000000" />
      <sparseX alpha="285.49619531510939" i="347" sparseCutoff="1.0000000000000000" />
      <sparseX alpha="304.05495175134172" i="348" sparseCutoff="1.0000000000000000" />
      <sparseX alpha="-19.423166976318718" i="349" sparseCutoff="1.0000000000000000" />
      <sparseX alpha="-334.56867893482166" i="350" sparseCutoff="1.0000000000000000" />
      <sparseX alpha="-164.86778420368790" i="351" sparseCutoff="1.0000000000000000" />
      <sparseX alpha="216.19552083345158" i="352" sparseCutoff="1.0000000000000000" />
      <sparseX alpha="206.55010202021097" i="353" sparseCutoff="1.0000000000000000" />
      <sparseX alpha="83.585688525759721" i="354" sparseCutoff="1.0000000000000000" />
      <sparseX alpha="312.24808292142677" i="355" sparseCutoff="1.0000000000000000" />
      <sparseX alpha="528.60473658520164" i="356" sparseCutoff="1.0000000000000000" />
      <sparseX alpha="162.54588415430518" i="357" sparseCutoff="1.0000000000000000" />
      <sparseX alpha="-1.9813544537125649" i="358" sparseCutoff="1.0000000000000000" />
      <sparseX alpha="15.594177834987526" i="359" sparseCutoff="1.0000000000000000" />
      <sparseX alpha="589.80838302707821" i="360" sparseCutoff="1.0000000000000000" />
      <sparseX alpha="300.58821852597077" i="361" sparseCutoff="1.0000000000000000" />
      <sparseX alpha="212.09235998956882" i="362" sparseCutoff="1.0000000000000000" />
      <sparseX alpha="96.640670572267851" i="363" sparseCutoff="1.0000000000000000" />
      <sparseX alpha="-151.45884750453752" i="364" sparseCutoff="1.0000000000000000" />
      <sparseX alpha="-29.778320172749744" i="365" sparseCutoff="1.0000000000000000" />
      <sparseX alpha="-430.17458939067046" i="366" sparseCutoff="1.0000000000000000" />
      <sparseX alpha="306.35579962422992" i="367" sparseCutoff="1.0000000000000000" />
      <sparseX alpha="-10.775567572650489" i="368" sparseCutoff="1.0000000000000000" />
      <sparseX alpha="208.61965337631551" i="369" sparseCutoff="1.0000000000000000" />
      <sparseX alpha="-105.60527076229423" i="370" sparseCutoff="1.0000000000000000" />
      <sparseX alpha="37.751319781188464" i="371" sparseCutoff="1.0000000000000000" />
      <sparseX alpha="139.88903610940281" i="372" sparseCutoff="1.0000000000000000" />
      <sparseX alpha="-370.30401032266610" i="373" sparseCutoff="1.0000000000000000" />
      <sparseX alpha="-84.077796778476838" i="374" sparseCutoff="1.0000000000000000" />
      <sparseX alpha="138.39460382260003" i="375" sparseCutoff="1.0000000000000000" />
      <sparseX alpha="-58.259766065727206" i="376" sparseCutoff="1.0000000000000000" />
      <sparseX alpha="-330.93876808220705" i="377" sparseCutoff="1.0000000000000000" />
      <sparseX alpha="169.65376599011179" i="378" sparseCutoff="1.0000000000000000" />
      <sparseX alpha="-143.55511449476580" i="379" sparseCutoff="1.0000000000000000" />
      <sparseX alpha="-412.68808573117644" i="380" sparseCutoff="1.0000000000000000" />
      <sparseX alpha="-565.97839217350497" i="381" sparseCutoff="1.0000000000000000" />
      <sparseX alpha="-214.52316126525923" i="382" sparseCutoff="1.0000000000000000" />
      <sparseX alpha="-64.704467795783543" i="383" sparseCutoff="1.0000000000000000" />
      <sparseX alpha="46.905021673356934" i="384" sparseCutoff="1.0000000000000000" />
      <sparseX alpha="46.401534304072996" i="385" sparseCutoff="1.0000000000000000" />
      <sparseX alpha="188.77533378646555" i="386" sparseCutoff="1.0000000000000000" />
      <sparseX alpha="-261.57501683814883" i="387" sparseCutoff="1.0000000000000000" />
      <sparseX alpha="354.18882050503299" i="388" sparseCutoff="1.0000000000000000" />
      <sparseX alpha="-480.70220757511350" i="389" sparseCutoff="1.0000000000000000" />
      <sparseX alpha="-3699.3509889883876" i="390" sparseCutoff="1.0000000000000000" />
      <sparseX alpha="-2835.9044156956966" i="391" sparseCutoff="1.0000000000000000" />
      <sparseX alpha="-120.30222860006724" i="392" sparseCutoff="1.0000000000000000" />
      <sparseX alpha="-264.87527243335205" i="393" sparseCutoff="1.0000000000000000" />
      <sparseX alpha="153.08048093164973" i="394" sparseCutoff="1.0000000000000000" />
      <sparseX alpha="-144.59107507987875" i="395" sparseCutoff="1.0000000000000000" />
      <sparseX alpha="244.09727148291893" i="396" sparseCutoff="1.0000000000000000" />
      <sparseX alpha="-136.53928301254786" i="397" sparseCutoff="1.0000000000000000" />
      <sparseX alpha="19.130927692941636" i="398" sparseCutoff="1.0000000000000000" />
      <sparseX alpha="164.92796174801111" i="399" sparseCutoff="1.0000000000000000" />
      <sparseX alpha="373.20077725227532" i="400" sparseCutoff="1.0000000000000000" />
      <sparseX alpha="-120.10182517093845" i="401" sparseCutoff="1.0000000000000000" />
      <sparseX alpha="-165.25555259778653" i="402" sparseCutoff="1.0000000000000000" />
      <sparseX alpha="-345.25287204342169" i="403" sparseCutoff="1.0000000000000000" />
      <sparseX alpha="194.03951899899604" i="404" sparseCutoff="1.0000000000000000" />
      <sparseX alpha="38.895353328012348" i="405" sparseCutoff="1.0000000000000000" />
      <sparseX alpha="-321.69094986262314" i="406" sparseCutoff="1.0000000000000000" />
      <sparseX alpha="211.98952603431232" i="407" sparseCutoff="1.0000000000000000" />
      <sparseX alpha="-423.27154159460838" i="408" sparseCutoff="1.0000000000000000" />
      <sparseX alpha="-57.845378471230561" i="409" sparseCutoff="1.0000000000000000" />
      <sparseX alpha="-28.453114595763100" i="410" sparseCutoff="1.0000000000000000" />
      <sparseX alpha="213.81072108080676" i="411" sparseCutoff="1.0000000000000000" />
      <sparseX alpha="122.67356244639952" i="412" sparseCutoff="1.0000000000000000" />
      <sparseX alpha="-238.05205698276788" i="413" sparseCutoff="1.0000000000000000" />
      <sparseX alpha="-242.34586367467745" i="414" sparseCutoff="1.0000000000000000" />
      <sparseX alpha="247.58737287834239" i="415" sparseCutoff="1.0000000000000000" />
      <sparseX alpha="-108.41372964521550" i="416" sparseCutoff="1.0000000000000000" />
      <sparseX alpha="-71.370683042888572" i="417" sparseCutoff="1.0000000000000000" />
      <sparseX alpha="165.61272803793159" i="418" sparseCutoff="1.0000000000000000" />
      <sparseX alpha="240.97844625638112" i="419" sparseCutoff="1.0000000000000000" />
      <sparseX alpha="131.06053224197950" i="420" sparseCutoff="1.0000000000000000" />
      <sparseX alpha="-12.347827977138582" i="421" sparseCutoff="1.0000000000000000" />
      <sparseX alpha="177.53452064379803" i="422" sparseCutoff="1.0000000000000000" />
      <sparseX alpha="-50.526307967384277" i="423" sparseCutoff="1.0000000000000000" />
      <sparseX alpha="380.94523741853573" i="424" sparseCutoff="1.0000000000000000" />
      <sparseX alpha="-309.99128933576850" i="425" sparseCutoff="1.0000000000000000" />
      <sparseX alpha="352.43129540510085" i="426" sparseCutoff="1.0000000000000000" />
      <sparseX alpha="238.08295242210534" i="427" sparseCutoff="1.0000000000000000" />
      <sparseX alpha="-39.094907724896657" i="428" sparseCutoff="1.0000000000000000" />
      <sparseX alpha="-134.74949855876233" i="429" sparseCutoff="1.0000000000000000" />
      <sparseX alpha="-226.97154459308470" i="430" sparseCutoff="1.0000000000000000" />
      <sparseX alpha="19.841399262953107" i="431" sparseCutoff="1.0000000000000000" />
      <sparseX alpha="-271.64581351960481" i="432" sparseCutoff="1.0000000000000000" />
      <sparseX alpha="76.472684425276526" i="433" sparseCutoff="1.0000000000000000" />
      <sparseX alpha="-223.52945720464663" i="434" sparseCutoff="1.0000000000000000" />
      <sparseX alpha="-108.83256542246329" i="435" sparseCutoff="1.0000000000000000" />
      <sparseX alpha="-42.120875392549621" i="436" sparseCutoff="1.0000000000000000" />
      <sparseX alpha="30.643351881195656" i="437" sparseCutoff="1.0000000000000000" />
      <sparseX alpha="34.685763115390543" i="438" sparseCutoff="1.0000000000000000" />
      <sparseX alpha="-4.4088243758479928" i="439" sparseCutoff="1.0000000000000000" />
      <sparseX alpha="963.31435354679070" i="440" sparseCutoff="1.0000000000000000" />
      <sparseX alpha="133.81540350110620" i="441" sparseCutoff="1.0000000000000000" />
      <sparseX alpha="-36.951696051808284" i="442" sparseCutoff="1.0000000000000000" />
      <sparseX alpha="-207.25861959682302" i="443" sparseCutoff="1.0000000000000000" />
      <sparseX alpha="-79.498980568745452" i="444" sparseCutoff="1.0000000000000000" />
      <sparseX alpha="-246.45266213442068" i="445" sparseCutoff="1.0000000000000000" />
      <sparseX alpha="-2.5314460661339457" i="446" sparseCutoff="1.0000000000000000" />
      <sparseX alpha="3538.2354579561606" i="447" sparseCutoff="1.0000000000000000" />
      <sparseX alpha="122.98869922242437" i="448" sparseCutoff="1.0000000000000000" />
      <sparseX alpha="58.914623109650421" i="449" sparseCutoff="1.0000000000000000" />
      <sparseX alpha="21.490470371736020" i="450" sparseCutoff="1.0000000000000000" />
      <sparseX alpha="-12.517788687322540" i="451" sparseCutoff="1.0000000000000000" />
      <sparseX alpha="472.04548233807657" i="452" sparseCutoff="1.0000000000000000" />
      <sparseX alpha="-95.847813589673649" i="453" sparseCutoff="1.0000000000000000" />
      <sparseX alpha="-59.487860687078502" i="454" sparseCutoff="1.0000000000000000" />
      <sparseX alpha="71.299299327947907" i="455" sparseCutoff="1.0000000000000000" />
      <sparseX alpha="-995.03734912164282" i="456" sparseCutoff="1.0000000000000000" />
      <sparseX alpha="-332.83329776230875" i="457" sparseCutoff="1.0000000000000000" />
      <sparseX alpha="-132.48738407404451" i="458" sparseCutoff="1.0000000000000000" />
      <sparseX alpha="-152.07324456112448" i="459" sparseCutoff="1.0000000000000000" />
      <sparseX alpha="119.36751244395091" i="460" sparseCutoff="1.0000000000000000" />
      <sparseX alpha="-408.47965304118924" i="461" sparseCutoff="1.0000000000000000" />
      <sparseX alpha="4.6109459490801044" i="462" sparseCutoff="1.0000000000000000" />
      <sparseX alpha="50.913420661832440" i="463" sparseCutoff="1.0000000000000000" />
      <sparseX alpha="-24.354392345636224" i="464" sparseCutoff="1.0000000000000000" />
      <sparseX alpha="-91.540485765985608" i="465" sparseCutoff="1.0000000000000000" />
      <sparseX alpha="-32.644435061309217" i="466" sparseCutoff="1.0000000000000000" />
      <sparseX alpha="57.355628050593829" i="467" sparseCutoff="1.0000000000000000" />
      <sparseX alpha="-228.87533465549930" i="468" sparseCutoff="1.0000000000000000" />
      <sparseX alpha="77.077152426850247" i="469" sparseCutoff="1.0000000000000000" />
      <sparseX alpha="672.78480205520907" i="470" sparseCutoff="1.0000000000000000" />
      <sparseX alpha="-281.14537783349431" i="471" sparseCutoff="1.0000000000000000" />
      <sparseX alpha="143.32678165599398" i="472" sparseCutoff="1.0000000000000000" />
      <sparseX alpha="-86.370945633639110" i="473" sparseCutoff="1.0000000000000000" />
      <sparseX alpha="-41.883614406641769" i="474" sparseCutoff="1.0000000000000000" />
      <sparseX alpha="-209.91656205867343" i="475" sparseCutoff="1.0000000000000000" />
      <sparseX alpha="50.583560721138660" i="476" sparseCutoff="1.0000000000000000" />
      <sparseX alpha="27.039272785606407" i="477" sparseCutoff="1.0000000000000000" />
      <sparseX alpha="-113.21286639319398" i="478" sparseCutoff="1.0000000000000000" />
      <sparseX alpha="21.952250592054494" i="479" sparseCutoff="1.0000000000000000" />
      <sparseX alpha="-257.34361541499919" i="480" sparseCutoff="1.0000000000000000" />
      <sparseX alpha="78.842679343486836" i="481" sparseCutoff="1.0000000000000000" />
      <sparseX alpha="-296.22456077948556" i="482" sparseCutoff="1.0000000000000000" />
      <sparseX alpha="90.148313912502445" i="483" sparseCutoff="1.0000000000000000" />
      <sparseX alpha="-62.360039483128432" i="484" sparseCutoff="1.0000000000000000" />
      <sparseX alpha="82.268844265420825" i="485" sparseCutoff="1.0000000000000000" />
      <sparseX alpha="-65.941768872126602" i="486" sparseCutoff="1.0000000000000000" />
      <sparseX alpha="-62.994885233010130" i="487" sparseCutoff="1.0000000000000000" />
      <sparseX alpha="-333.99873038631551" i="488" sparseCutoff="1.0000000000000000" />
      <sparseX alpha="-213.23062886956498" i="489" sparseCutoff="1.0000000000000000" />
      <sparseX alpha="-110.96555172780232" i="490" sparseCutoff="1.0000000000000000" />
      <sparseX alpha="76.885614435951268" i="491" sparseCutoff="1.0000000000000000" />
      <sparseX alpha="318.91803124007015" i="492" sparseCutoff="1.0000000000000000" />
      <sparseX alpha="87.816364495741155" i="493" sparseCutoff="1.0000000000000000" />
      <sparseX alpha="-10.986239288033993" i="494" sparseCutoff="1.0000000000000000" />
      <sparseX alpha="93.608776702152554" i="495" sparseCutoff="1.0000000000000000" />
      <sparseX alpha="318.67892480252260" i="496" sparseCutoff="1.0000000000000000" />
      <sparseX alpha="-15.963636982584784" i="497" sparseCutoff="1.0000000000000000" />
      <sparseX alpha="-110.37838235077922" i="498" sparseCutoff="1.0000000000000000" />
      <sparseX alpha="-62.250638652363165" i="499" sparseCutoff="1.0000000000000000" />
      <sparseX alpha="247.83472954383470" i="500" sparseCutoff="1.0000000000000000" />
      <sparseX alpha="-1479.7843574318608" i="501" sparseCutoff="1.0000000000000000" />
      <sparseX alpha="1357.0945550173849" i="502" sparseCutoff="1.0000000000000000" />
      <sparseX alpha="2537.9572890121472" i="503" sparseCutoff="1.0000000000000000" />
      <sparseX alpha="-2699.5403528363204" i="504" sparseCutoff="1.0000000000000000" />
      <sparseX alpha="1299.9421916014601" i="505" sparseCutoff="1.0000000000000000" />
      <sparseX alpha="-93.355980638429315" i="506" sparseCutoff="1.0000000000000000" />
      <sparseX alpha="108.79215487647424" i="507" sparseCutoff="1.0000000000000000" />
      <sparseX alpha="-23.044189146439358" i="508" sparseCutoff="1.0000000000000000" />
      <sparseX alpha="-99.287640380720063" i="509" sparseCutoff="1.0000000000000000" />
      <sparseX alpha="273.93998617746860" i="510" sparseCutoff="1.0000000000000000" />
      <sparseX alpha="-73.786786375918282" i="511" sparseCutoff="1.0000000000000000" />
      <sparseX alpha="-163.83077961647766" i="512" sparseCutoff="1.0000000000000000" />
      <sparseX alpha="-185.92942011035760" i="513" sparseCutoff="1.0000000000000000" />
      <sparseX alpha="512.70185140349122" i="514" sparseCutoff="1.0000000000000000" />
      <sparseX alpha="-69.005976115319896" i="515" sparseCutoff="1.0000000000000000" />
      <sparseX alpha="-725.89633337307623" i="516" sparseCutoff="1.0000000000000000" />
      <sparseX alpha="-323.57618547886352" i="517" sparseCutoff="1.0000000000000000" />
      <sparseX alpha="286.71029747454594" i="518" sparseCutoff="1.0000000000000000" />
      <sparseX alpha="-152.21266253653653" i="519" sparseCutoff="1.0000000000000000" />
      <sparseX alpha="187.74541812533008" i="520" sparseCutoff="1.0000000000000000" />
      <sparseX alpha="-420.40297390556981" i="521" sparseCutoff="1.0000000000000000" />
      <sparseX alpha="-68.389632434469632" i="522" sparseCutoff="1.0000000000000000" />
      <sparseX alpha="43.508499986315073" i="523" sparseCutoff="1.0000000000000000" />
      <sparseX alpha="-258.69155140500482" i="524" sparseCutoff="1.0000000000000000" />
      <sparseX alpha="76.664448135971213" i="525" sparseCutoff="1.0000000000000000" />
      <sparseX alpha="555.27918166204506" i="526" sparseCutoff="1.0000000000000000" />
      <sparseX alpha="-395.49846878099856" i="527" sparseCutoff="1.0000000000000000" />
      <sparseX alpha="-107.59883506139698" i="528" sparseCutoff="1.0000000000000000" />
      <sparseX alpha="-401.29224732243409" i="529" sparseCutoff="1.0000000000000000" />
      <sparseX alpha="-21.125675404385550" i="530" sparseCutoff="1.0000000000000000" />
      <sparseX alpha="-420.25633096697732" i="531" sparseCutoff="1.0000000000000000" />
      <sparseX alpha="-62.447438909481399" i="532" sparseCutoff="1.0000000000000000" />
      <sparseX alpha="-135.41122864710891" i="533" sparseCutoff="1.0000000000000000" />
      <sparseX alpha="-245.03692790845287" i="534" sparseCutoff="1.0000000000000000" />
      <sparseX alpha="18.838800474889457" i="535" sparseCutoff="1.0000000000000000" />
      <sparseX alpha="-179.07172964136728" i="536" sparseCutoff="1.0000000000000000" />
      <sparseX alpha="-360.93086027539954" i="537" sparseCutoff="1.0000000000000000" />
      <sparseX alpha="-19.553781856633254" i="538" sparseCutoff="1.0000000000000000" />
      <sparseX alpha="18.621361430786994" i="539" sparseCutoff="1.0000000000000000" />
      <sparseX alpha="455.08879573721549" i="540" sparseCutoff="1.0000000000000000" />
      <sparseX alpha="-302.60907634253113" i="541" sparseCutoff="1.0000000000000000" />
      <sparseX alpha="-370.69970980337871" i="542" sparseCutoff="1.0000000000000000" />
      <sparseX alpha="-87.426242421918076" i="543" sparseCutoff="1.0000000000000000" />
      <sparseX alpha="227.57090790811100" i="544" sparseCutoff="1.0000000000000000" />
      <sparseX alpha="-15.054328650646562" i="545" sparseCutoff="1.0000000000000000" />
      <sparseX alpha="343.65250154013700" i="546" sparseCutoff="1.0000000000000000" />
      <sparseX alpha="-54.987777122031126" i="547" sparseCutoff="1.0000000000000000" />
      <sparseX alpha="-200.21137300492705" i="548" sparseCutoff="1.0000000000000000" />
      <sparseX alpha="67.809690604704926" i="549" sparseCutoff="1.0000000000000000" />
      <sparseX alpha="-313.91669438544744" i="550" sparseCutoff="1.0000000000000000" />
      <sparseX alpha="333.74049933960373" i="551" sparseCutoff="1.0000000000000000" />
      <sparseX alpha="78.948022886673030" i="552" sparseCutoff="1.0000000000000000" />
      <sparseX alpha="88.692156588782680" i="553" sparseCutoff="1.0000000000000000" />
      <sparseX alpha="607.63628129337417" i="554" sparseCutoff="1.0000000000000000" />
      <sparseX alpha="330.28664694675905" i="555" sparseCutoff="1.0000000000000000" />
      <sparseX alpha="-413.16721213407828" i="556" sparseCutoff="1.0000000000000000" />
      <sparseX alpha="-237.82646899806792" i="557" sparseCutoff="1.0000000000000000" />
      <sparseX alpha="944.61396790311699" i="558" sparseCutoff="1.0000000000000000" />
      <sparseX alpha="-397.57482431932391" i="559" sparseCutoff="1.0000000000000000" />
      <sparseX alpha="-246.32898671609095" i="560" sparseCutoff="1.0000000000000000" />
      <sparseX alpha="-65.281873297395151" i="561" sparseCutoff="1.0000000000000000" />
      <sparseX alpha="-114.36431277508893" i="562" sparseCutoff="1.0000000000000000" />
      <sparseX alpha="199.87191342152209" i="563" sparseCutoff="1.0000000000000000" />
      <sparseX alpha="194.15141110878554" i="564" sparseCutoff="1.0000000000000000" />
      <sparseX alpha="-140.43596258949714" i="565" sparseCutoff="1.0000000000000000" />
      <sparseX alpha="3458.1415464230722" i="566" sparseCutoff="1.0000000000000000" />
      <sparseX alpha="-179.09418227742714" i="567" sparseCutoff="1.0000000000000000" />
      <sparseX alpha="-29.251267185934427" i="568" sparseCutoff="1.0000000000000000" />
      <sparseX alpha="-196.28037509602007" i="569" sparseCutoff="1.0000000000000000" />
      <sparseX alpha="-577.05067068305209" i="570" sparseCutoff="1.0000000000000000" />
      <sparseX alpha="-26.776678602476938" i="571" sparseCutoff="1.0000000000000000" />
      <sparseX alpha="230.75645869195230" i="572" sparseCutoff="1.0000000000000000" />
      <sparseX alpha="-290.47264412765315" i="573" sparseCutoff="1.0000000000000000" />
      <sparseX alpha="134.80445916386356" i="574" sparseCutoff="1.0000000000000000" />
      <sparseX alpha="149.21048762844646" i="575" sparseCutoff="1.0000000000000000" />
      <sparseX alpha="171.18550057679590" i="576" sparseCutoff="1.0000000000000000" />
      <sparseX alpha="-41.975466510187943" i="577" sparseCutoff="1.0000000000000000" />
      <sparseX alpha="21.797470502120692" i="578" sparseCutoff="1.0000000000000000" />
      <sparseX alpha="192.18664716629962" i="579" sparseCutoff="1.0000000000000000" />
      <sparseX alpha="289.78115357190683" i="580" sparseCutoff="1.0000000000000000" />
      <sparseX alpha="-93.821431016195206" i="581" sparseCutoff="1.0000000000000000" />
      <sparseX alpha="-352.94104585678696" i="582" sparseCutoff="1.0000000000000000" />
      <sparseX alpha="375.10235982272860" i="583" sparseCutoff="1.0000000000000000" />
      <sparseX alpha="-282.57579012837107" i="584" sparseCutoff="1.0000000000000000" />
      <sparseX alpha="232.71636274029629" i="585" sparseCutoff="1.0000000000000000" />
      <sparseX alpha="271.06290479042457" i="586" sparseCutoff="1.0000000000000000" />
      <sparseX alpha="47.646792217183332" i="587" sparseCutoff="1.0000000000000000" />
      <sparseX alpha="-105.46793027324132" i="588" sparseCutoff="1.0000000000000000" />
      <sparseX alpha="-37.228345678343835" i="589" sparseCutoff="1.0000000000000000" />
      <sparseX alpha="9.2986696806406091" i="590" sparseCutoff="1.0000000000000000" />
      <sparseX alpha="-284.65964538564299" i="591" sparseCutoff="1.0000000000000000" />
      <sparseX alpha="-49.255509481180766" i="592" sparseCutoff="1.0000000000000000" />
      <sparseX alpha="108.14169938397339" i="593" sparseCutoff="1.0000000000000000" />
      <sparseX alpha="-69.455676147899936" i="594" sparseCutoff="1.0000000000000000" />
      <sparseX alpha="48.889715630785219" i="595" sparseCutoff="1.0000000000000000" />
      <sparseX alpha="-52.111963075815112" i="596" sparseCutoff="1.0000000000000000" />
      <sparseX alpha="-112.85821371076139" i="597" sparseCutoff="1.0000000000000000" />
      <sparseX alpha="68.741959224462960" i="598" sparseCutoff="1.0000000000000000" />
      <sparseX alpha="-454.49308976472912" i="599" sparseCutoff="1.0000000000000000" />
      <sparseX alpha="4.4393715862537650" i="600" sparseCutoff="1.0000000000000000" />
      <sparseX alpha="-13.947587588998218" i="601" sparseCutoff="1.0000000000000000" />
      <sparseX alpha="-43.678206852131574" i="602" sparseCutoff="1.0000000000000000" />
      <sparseX alpha="-492.20273189539398" i="603" sparseCutoff="1.0000000000000000" />
      <sparseX alpha="52.904724252104479" i="604" sparseCutoff="1.0000000000000000" />
      <sparseX alpha="-154.27322395343188" i="605" sparseCutoff="1.0000000000000000" />
      <sparseX alpha="52.668620857577721" i="606" sparseCutoff="1.0000000000000000" />
      <sparseX alpha="-296.68954841012419" i="607" sparseCutoff="1.0000000000000000" />
      <sparseX alpha="87.219845811237732" i="608" sparseCutoff="1.0000000000000000" />
      <sparseX alpha="-374.14510131631965" i="609" sparseCutoff="1.0000000000000000" />
      <sparseX alpha="222.84609096642970" i="610" sparseCutoff="1.0000000000000000" />
      <sparseX alpha="-169.36229752857290" i="611" sparseCutoff="1.0000000000000000" />
      <sparseX alpha="281.46150177537083" i="612" sparseCutoff="1.0000000000000000" />
      <sparseX alpha="-150.29901061762138" i="613" sparseCutoff="1.0000000000000000" />
      <sparseX alpha="-89.812908084498943" i="614" sparseCutoff="1.0000000000000000" />
      <sparseX alpha="33.627283486357889" i="615" sparseCutoff="1.0000000000000000" />
      <sparseX alpha="-209.92591895263490" i="616" sparseCutoff="1.0000000000000000" />
      <sparseX alpha="-280.44464377206759" i="617" sparseCutoff="1.0000000000000000" />
      <sparseX alpha="-150.28940590704428" i="618" sparseCutoff="1.0000000000000000" />
      <sparseX alpha="-296.12670121357360" i="619" sparseCutoff="1.0000000000000000" />
      <sparseX alpha="-28.761584331127672" i="620" sparseCutoff="1.0000000000000000" />
      <sparseX alpha="-8042.1744610151291" i="621" sparseCutoff="1.0000000000000000" />
      <sparseX alpha="1540.4527509994907" i="622" sparseCutoff="1.0000000000000000" />
      <sparseX alpha="-57.210576530019146" i="623" sparseCutoff="1.0000000000000000" />
      <sparseX alpha="101.57636725465061" i="624" sparseCutoff="1.0000000000000000" />
      <sparseX alpha="109.87213196727279" i="625" sparseCutoff="1.0000000000000000" />
      <sparseX alpha="232.59210390067653" i="626" sparseCutoff="1.0000000000000000" />
      <sparseX alpha="105.88209849992454" i="627" sparseCutoff="1.0000000000000000" />
      <sparseX alpha="98.869942554851434" i="628" sparseCutoff="1.0000000000000000" />
      <sparseX alpha="36.909762344405578" i="629" sparseCutoff="1.0000000000000000" />
      <sparseX alpha="-171.40935722247440" i="630" sparseCutoff="1.0000000000000000" />
      <sparseX alpha="118.12335192660262" i="631" sparseCutoff="1.0000000000000000" />
      <sparseX alpha="288.96710982852676" i="632" sparseCutoff="1.0000000000000000" />
      <sparseX alpha="-239.66882463630338" i="633" sparseCutoff="1.0000000000000000" />
      <sparseX alpha="-143.24114993029025" i="634" sparseCutoff="1.0000000000000000" />
      <sparseX alpha="-94.770324067849117" i="635" sparseCutoff="1.0000000000000000" />
      <sparseX alpha="-184.50573204222536" i="636" sparseCutoff="1.0000000000000000" />
      <sparseX alpha="13.181456918510625" i="637" sparseCutoff="1.0000000000000000" />
      <sparseX alpha="-510.64298768022991" i="638" sparseCutoff="1.0000000000000000" />
      <sparseX alpha="-166.66405399037521" i="639" sparseCutoff="1.0000000000000000" />
      <sparseX alpha="196.65726516183310" i="640" sparseCutoff="1.0000000000000000" />
      <sparseX alpha="-219.27539753211465" i="641" sparseCutoff="1.0000000000000000" />
      <sparseX alpha="110.00259675148540" i="642" sparseCutoff="1.0000000000000000" />
      <sparseX alpha="189.18848216070458" i="643" sparseCutoff="1.0000000000000000" />
      <sparseX alpha="111.68916137609763" i="644" sparseCutoff="1.0000000000000000" />
      <sparseX alpha="10.473800013409997" i="645" sparseCutoff="1.0000000000000000" />
      <sparseX alpha="118.29236202888706" i="646" sparseCutoff="1.0000000000000000" />
      <sparseX alpha="234.92688536240610" i="647" sparseCutoff="1.0000000000000000" />
      <sparseX alpha="205.65583014663048" i="648" sparseCutoff="1.0000000000000000" />
      <sparseX alpha="78.779358345057503" i="649" sparseCutoff="1.0000000000000000" />
      <sparseX alpha="57.853739127813277" i="650" sparseCutoff="1.0000000000000000" />
      <sparseX alpha="112.19443777702213" i="651" sparseCutoff="1.0000000000000000" />
      <sparseX alpha="165.38437592710611" i="652" sparseCutoff="1.0000000000000000" />
      <sparseX alpha="36.675334644151249" i="653" sparseCutoff="1.0000000000000000" />
      <sparseX alpha="-89.851903538768681" i="654" sparseCutoff="1.0000000000000000" />
      <sparseX alpha="-492.23244221061140" i="655" sparseCutoff="1.0000000000000000" />
      <sparseX alpha="-95.239053945078965" i="656" sparseCutoff="1.0000000000000000" />
      <sparseX alpha="70.145295366013983" i="657" sparseCutoff="1.0000000000000000" />
      <sparseX alpha="-395.62018083619017" i="658" sparseCutoff="1.0000000000000000" />
      <sparseX alpha="-89.386513052352683" i="659" sparseCutoff="1.0000000000000000" />
      <sparseX alpha="26.375668208334847" i="660" sparseCutoff="1.0000000000000000" />
      <sparseX alpha="25.602712267070991" i="661" sparseCutoff="1.0000000000000000" />
      <sparseX alpha="483.54485134793100" i="662" sparseCutoff="1.0000000000000000" />
      <sparseX alpha="-296.07085025368531" i="663" sparseCutoff="1.0000000000000000" />
      <sparseX alpha="-237.30629249087679" i="664" sparseCutoff="1.0000000000000000" />
      <sparseX alpha="88.950119773642811" i="665" sparseCutoff="1.0000000000000000" />
      <sparseX alpha="-152.02495805442069" i="666" sparseCutoff="1.0000000000000000" />
      <sparseX alpha="-277.06840947494618" i="667" sparseCutoff="1.0000000000000000" />
      <sparseX alpha="213.40306775551633" i="668" sparseCutoff="1.0000000000000000" />
      <sparseX alpha="127.39179151542042" i="669" sparseCutoff="1.0000000000000000" />
      <sparseX alpha="63.236794071893982" i="670" sparseCutoff="1.0000000000000000" />
      <sparseX alpha="-360.58815783292238" i="671" sparseCutoff="1.0000000000000000" />
      <sparseX alpha="376.62026887034688" i="672" sparseCutoff="1.0000000000000000" />
      <sparseX alpha="16.356868648241313" i="673" sparseCutoff="1.0000000000000000" />
      <sparseX alpha="-95.232616428397350" i="674" sparseCutoff="1.0000000000000000" />
      <sparseX alpha="19.765641444819884" i="675" sparseCutoff="1.0000000000000000" />
      <sparseX alpha="-111.73902209772334" i="676" sparseCutoff="1.0000000000000000" />
      <sparseX alpha="104.30032042877475" i="677" sparseCutoff="1.0000000000000000" />
      <sparseX alpha="-31.455481503169146" i="678" sparseCutoff="1.0000000000000000" />
      <sparseX alpha="20.055429441248048" i="679" sparseCutoff="1.0000000000000000" />
      <sparseX alpha="-195.82520583857055" i="680" sparseCutoff="1.0000000000000000" />
      <sparseX alpha="-17.427523046028615" i="681" sparseCutoff="1.0000000000000000" />
      <sparseX alpha="-109.24425647987428" i="682" sparseCutoff="1.0000000000000000" />
      <sparseX alpha="344.20783788063312" i="683" sparseCutoff="1.0000000000000000" />
      <sparseX alpha="-174.66284782611990" i="684" sparseCutoff="1.0000000000000000" />
      <sparseX alpha="-245.93902251108057" i="685" sparseCutoff="1.0000000000000000" />
      <sparseX alpha="562.73210083682295" i="686" sparseCutoff="1.0000000000000000" />
      <sparseX alpha="531.82802488264633" i="687" sparseCutoff="1.0000000000000000" />
      <sparseX alpha="-66.347226000219422" i="688" sparseCutoff="1.0000000000000000" />
      <sparseX alpha="-160.46233606378593" i="689" sparseCutoff="1.0000000000000000" />
      <sparseX alpha="-394.06666518305377" i="690" sparseCutoff="1.0000000000000000" />
      <sparseX alpha="155.62790594223384" i="691" sparseCutoff="1.0000000000000000" />
      <sparseX alpha="-3447.4359729029384" i="692" sparseCutoff="1.0000000000000000" />
      <sparseX alpha="91.963463764807116" i="693" sparseCutoff="1.0000000000000000" />
      <sparseX alpha="-428.60726455634443" i="694" sparseCutoff="1.0000000000000000" />
      <sparseX alpha="214.81534920680090" i="695" sparseCutoff="1.0000000000000000" />
      <sparseX alpha="126.74934568413008" i="696" sparseCutoff="1.0000000000000000" />
      <sparseX alpha="-416.67305058888195" i="697" sparseCutoff="1.0000000000000000" />
      <sparseX alpha="-303.84980172033494" i="698" sparseCutoff="1.0000000000000000" />
      <sparseX alpha="37.391484701304236" i="699" sparseCutoff="1.0000000000000000" />
      <sparseX alpha="48.277537931695420" i="700" sparseCutoff="1.0000000000000000" />
      <sparseX alpha="148.09243616515940" i="701" sparseCutoff="1.0000000000000000" />
      <sparseX alpha="220.70342820652616" i="702" sparseCutoff="1.0000000000000000" />
      <sparseX alpha="38.984559873556655" i="703" sparseCutoff="1.0000000000000000" />
      <sparseX alpha="-713.91331247942935" i="704" sparseCutoff="1.0000000000000000" />
      <sparseX alpha="-141.48575764123305" i="705" sparseCutoff="1.0000000000000000" />
      <sparseX alpha="-2.1762191977803851" i="706" sparseCutoff="1.0000000000000000" />
      <sparseX alpha="461.08784295709683" i="707" sparseCutoff="1.0000000000000000" />
      <sparseX alpha="95.691237460266990" i="708" sparseCutoff="1.0000000000000000" />
      <sparseX alpha="331.47474530948273" i="709" sparseCutoff="1.0000000000000000" />
      <sparseX alpha="93.476015529133818" i="710" sparseCutoff="1.0000000000000000" />
      <sparseX alpha="-452.14940936569104" i="711" sparseCutoff="1.0000000000000000" />
      <sparseX alpha="127.85933485331051" i="712" sparseCutoff="1.0000000000000000" />
      <sparseX alpha="-537.91942316590337" i="713" sparseCutoff="1.0000000000000000" />
      <sparseX alpha="609.11602148252723" i="714" sparseCutoff="1.0000000000000000" />
      <sparseX alpha="33.111352931929929" i="715" sparseCutoff="1.0000000000000000" />
      <sparseX alpha="192.20331606026323" i="716" sparseCutoff="1.0000000000000000" />
      <sparseX alpha="-156.86784002049069" i="717" sparseCutoff="1.0000000000000000" />
      <sparseX alpha="-100.27480614822696" i="718" sparseCutoff="1.0000000000000000" />
      <sparseX alpha="-130.93889549562246" i="719" sparseCutoff="1.0000000000000000" />
      <sparseX alpha="77.166662923173178" i="720" sparseCutoff="1.0000000000000000" />
      <sparseX alpha="250.12117118814891" i="721" sparseCutoff="1.0000000000000000" />
      <sparseX alpha="-386.54034568277689" i="722" sparseCutoff="1.0000000000000000" />
      <sparseX alpha="-79.068208284248072" i="723" sparseCutoff="1.0000000000000000" />
      <sparseX alpha="-128.66669911459158" i="724" sparseCutoff="1.0000000000000000" />
      <sparseX alpha="-174.71484578205815" i="725" sparseCutoff="1.0000000000000000" />
      <sparseX alpha="-56.909932088932358" i="726" sparseCutoff="1.0000000000000000" />
      <sparseX alpha="86.167177743387953" i="727" sparseCutoff="1.0000000000000000" />
      <sparseX alpha="-124.78030951060178" i="728" sparseCutoff="1.0000000000000000" />
      <sparseX alpha="-179.68295664855660" i="729" sparseCutoff="1.0000000000000000" />
      <sparseX alpha="21.458968353710105" i="730" sparseCutoff="1.0000000000000000" />
      <sparseX alpha="-26.159517406068783" i="731" sparseCutoff="1.0000000000000000" />
      <sparseX alpha="-165.44290614592896" i="732" sparseCutoff="1.0000000000000000" />
      <sparseX alpha="-4.8083000924777286" i="733" sparseCutoff="1.0000000000000000" />
      <sparseX alpha="256.47262838405419" i="734" sparseCutoff="1.0000000000000000" />
      <sparseX alpha="62.281458179420518" i="735" sparseCutoff="1.0000000000000000" />
      <sparseX alpha="102.10700803529423" i="736" sparseCutoff="1.0000000000000000" />
      <sparseX alpha="411.43920348732394" i="737" sparseCutoff="1.0000000000000000" />
      <sparseX alpha="589.95340281441497" i="738" sparseCutoff="1.0000000000000000" />
      <sparseX alpha="-225.67217078735217" i="739" sparseCutoff="1.0000000000000000" />
      <sparseX alpha="-43.642385823512633" i="740" sparseCutoff="1.0000000000000000" />
      <sparseX alpha="-329.61118706961440" i="741" sparseCutoff="1.0000000000000000" />
      <sparseX alpha="-99.732780517795945" i="742" sparseCutoff="1.0000000000000000" />
      <sparseX alpha="219.07765441529344" i="743" sparseCutoff="1.0000000000000000" />
      <sparseX alpha="73.908804383644537" i="744" sparseCutoff="1.0000000000000000" />
      <sparseX alpha="-418.23084083379587" i="745" sparseCutoff="1.0000000000000000" />
      <sparseX alpha="80.600495782025234" i="746" sparseCutoff="1.0000000000000000" />
      <sparseX alpha="181.77814955485874" i="747" sparseCutoff="1.0000000000000000" />
      <sparseX alpha="110.43752453607135" i="748" sparseCutoff="1.0000000000000000" />
      <sparseX alpha="-83.245926624506183" i="749" sparseCutoff="1.0000000000000000" />
      <sparseX alpha="333.69021625856465" i="750" sparseCutoff="1.0000000000000000" />
      <sparseX alpha="-575.98230944974603" i="751" sparseCutoff="1.0000000000000000" />
      <sparseX alpha="-434.47099612857261" i="752" sparseCutoff="1.0000000000000000" />
      <sparseX alpha="-216.83049649508035" i="753" sparseCutoff="1.0000000000000000" />
      <sparseX alpha="-252.86307747536361" i="754" sparseCutoff="1.0000000000000000" />
      <sparseX alpha="105.22564463129993" i="755" sparseCutoff="1.0000000000000000" />
      <sparseX alpha="-101.20753705314921" i="756" sparseCutoff="1.0000000000000000" />
      <sparseX alpha="-184.57108215131589" i="757" sparseCutoff="1.0000000000000000" />
      <sparseX alpha="-346.87291774245062" i="758" sparseCutoff="1.0000000000000000" />
      <sparseX alpha="-182.04214751791412" i="759" sparseCutoff="1.0000000000000000" />
      <sparseX alpha="254.79078990865361" i="760" sparseCutoff="1.0000000000000000" />
      <sparseX alpha="-349.87328701027053" i="761" sparseCutoff="1.0000000000000000" />
      <sparseX alpha="-131.60911151865710" i="762" sparseCutoff="1.0000000000000000" />
      <sparseX alpha="-237.14147866402743" i="763" sparseCutoff="1.0000000000000000" />
      <sparseX alpha="269.60374128546664" i="764" sparseCutoff="1.0000000000000000" />
      <sparseX alpha="-310.41756225111413" i="765" sparseCutoff="1.0000000000000000" />
      <sparseX alpha="-468.98121351831981" i="766" sparseCutoff="1.0000000000000000" />
      <sparseX alpha="20.291489594543528" i="767" sparseCutoff="1.0000000000000000" />
      <sparseX alpha="-11.659195573684372" i="768" sparseCutoff="1.0000000000000000" />
      <sparseX alpha="-49.842797965909760" i="769" sparseCutoff="1.0000000000000000" />
      <sparseX alpha="180.29525878775507" i="770" sparseCutoff="1.0000000000000000" />
      <sparseX alpha=".27308270638403387" i="771" sparseCutoff="1.0000000000000000" />
      <sparseX alpha="-125.46200334308976" i="772" sparseCutoff="1.0000000000000000" />
      <sparseX alpha="567.70410811759780" i="773" sparseCutoff="1.0000000000000000" />
      <sparseX alpha="338.78212026411944" i="774" sparseCutoff="1.0000000000000000" />
      <sparseX alpha="-179.22696593176244" i="775" sparseCutoff="1.0000000000000000" />
      <sparseX alpha="-91.040715486317353" i="776" sparseCutoff="1.0000000000000000" />
      <sparseX alpha="-60.403197538068547" i="777" sparseCutoff="1.0000000000000000" />
      <sparseX alpha="-36.979078230517473" i="778" sparseCutoff="1.0000000000000000" />
      <sparseX alpha="141.77518593709698" i="779" sparseCutoff="1.0000000000000000" />
      <sparseX alpha="128.13612079824145" i="780" sparseCutoff="1.0000000000000000" />
      <sparseX alpha="379.90028399104267" i="781" sparseCutoff="1.0000000000000000" />
      <sparseX alpha="316.52257714567082" i="782" sparseCutoff="1.0000000000000000" />
      <sparseX alpha="219.09167243277167" i="783" sparseCutoff="1.0000000000000000" />
      <sparseX alpha="-15.820193167132176" i="784" sparseCutoff="1.0000000000000000" />
      <sparseX alpha="-176.68373049062450" i="785" sparseCutoff="1.0000000000000000" />
      <sparseX alpha="-158.36375842523236" i="786" sparseCutoff="1.0000000000000000" />
      <sparseX alpha="-164.30438730629919" i="787" sparseCutoff="1.0000000000000000" />
      <sparseX alpha="148.45094997497230" i="788" sparseCutoff="1.0000000000000000" />
      <sparseX alpha="396.24480156728521" i="789" sparseCutoff="1.0000000000000000" />
      <sparseX alpha="-17.771743545175752" i="790" sparseCutoff="1.0000000000000000" />
      <sparseX alpha="56.503556979266016" i="791" sparseCutoff="1.0000000000000000" />
      <sparseX alpha="371.91116316668092" i="792" sparseCutoff="1.0000000000000000" />
      <sparseX alpha="-174.71556882550760" i="793" sparseCutoff="1.0000000000000000" />
      <sparseX alpha="41.140761129524194" i="794" sparseCutoff="1.0000000000000000" />
      <sparseX alpha="-67.544740509948767" i="795" sparseCutoff="1.0000000000000000" />
      <sparseX alpha="-187.96262752233474" i="796" sparseCutoff="1.0000000000000000" />
      <sparseX alpha="63.034046112230207" i="797" sparseCutoff="1.0000000000000000" />
      <sparseX alpha="-211.84102259167966" i="798" sparseCutoff="1.0000000000000000" />
      <sparseX alpha="-237.91102813478312" i="799" sparseCutoff="1.0000000000000000" />
      <sparseX alpha="-317.93172133126075" i="800" sparseCutoff="1.0000000000000000" />
      <sparseX alpha="60.323210529401727" i="801" sparseCutoff="1.0000000000000000" />
      <sparseX alpha="18.224291257493288" i="802" sparseCutoff="1.0000000000000000" />
      <sparseX alpha="61.339871397046565" i="803" sparseCutoff="1.0000000000000000" />
      <sparseX alpha="-361.12858282011945" i="804" sparseCutoff="1.0000000000000000" />
      <sparseX alpha="-130.70014864732238" i="805" sparseCutoff="1.0000000000000000" />
      <sparseX alpha="-24.645881516145785" i="806" sparseCutoff="1.0000000000000000" />
      <sparseX alpha="81.720014409573096" i="807" sparseCutoff="1.0000000000000000" />
      <sparseX alpha="-76.597222368814187" i="808" sparseCutoff="1.0000000000000000" />
      <sparseX alpha="-7.4253705170678730" i="809" sparseCutoff="1.0000000000000000" />
      <sparseX alpha="231.37485280226480" i="810" sparseCutoff="1.0000000000000000" />
      <sparseX alpha="-40.897930194930318" i="811" sparseCutoff="1.0000000000000000" />
      <sparseX alpha="161.69595665364986" i="812" sparseCutoff="1.0000000000000000" />
      <sparseX alpha="163.63996545192592" i="813" sparseCutoff="1.0000000000000000" />
      <sparseX alpha="-26.301099168922526" i="814" sparseCutoff="1.0000000000000000" />
      <sparseX alpha="-116.35583069488300" i="815" sparseCutoff="1.0000000000000000" />
      <sparseX alpha="71.397629030724843" i="816" sparseCutoff="1.0000000000000000" />
      <sparseX alpha="-79.842353400344848" i="817" sparseCutoff="1.0000000000000000" />
      <sparseX alpha="-60.453360567105150" i="818" sparseCutoff="1.0000000000000000" />
      <sparseX alpha="143.66995425468852" i="819" sparseCutoff="1.0000000000000000" />
      <sparseX alpha="-192.29290771888699" i="820" sparseCutoff="1.0000000000000000" />
      <sparseX alpha="2401.1213567620789" i="821" sparseCutoff="1.0000000000000000" />
      <sparseX alpha="140.33191297924608" i="822" sparseCutoff="1.0000000000000000" />
      <sparseX alpha="-236.03312263151705" i="823" sparseCutoff="1.0000000000000000" />
      <sparseX alpha="142.92472518017445" i="824" sparseCutoff="1.0000000000000000" />
      <sparseX alpha="163.60805083722710" i="825" sparseCutoff="1.0000000000000000" />
      <sparseX alpha="141.39812492287402" i="826" sparseCutoff="1.0000000000000000" />
      <sparseX alpha="232.67724260070804" i="827" sparseCutoff="1.0000000000000000" />
      <sparseX alpha="-151.40694955467947" i="828" sparseCutoff="1.0000000000000000" />
      <sparseX alpha="74.553640090485175" i="829" sparseCutoff="1.0000000000000000" />
      <sparseX alpha="-199.13825580999739" i="830" sparseCutoff="1.0000000000000000" />
      <sparseX alpha="268.69482295373120" i="831" sparseCutoff="1.0000000000000000" />
      <sparseX alpha="-532.64675990443038" i="832" sparseCutoff="1.0000000000000000" />
      <sparseX alpha="30.198270880176715" i="833" sparseCutoff="1.0000000000000000" />
      <sparseX alpha="-124.88971266641633" i="834" sparseCutoff="1.0000000000000000" />
      <sparseX alpha="115.57990510298416" i="835" sparseCutoff="1.0000000000000000" />
      <sparseX alpha="-57.782396016195648" i="836" sparseCutoff="1.0000000000000000" />
      <sparseX alpha="-194.99444654019030" i="837" sparseCutoff="1.0000000000000000" />
      <sparseX alpha="89.161669955992849" i="838" sparseCutoff="1.0000000000000000" />
      <sparseX alpha="194.42359533456934" i="839" sparseCutoff="1.0000000000000000" />
      <sparseX alpha="-193.45960122313062" i="840" sparseCutoff="1.0000000000000000" />
      <sparseX alpha="422.40840053328714" i="841" sparseCutoff="1.0000000000000000" />
      <sparseX alpha="-103.81437180535322" i="842" sparseCutoff="1.0000000000000000" />
      <sparseX alpha="69.555437136704114" i="843" sparseCutoff="1.0000000000000000" />
      <sparseX alpha="228.47300416345769" i="844" sparseCutoff="1.0000000000000000" />
      <sparseX alpha="233.57324623588190" i="845" sparseCutoff="1.0000000000000000" />
      <sparseX alpha="-97.926855049254598" i="846" sparseCutoff="1.0000000000000000" />
      <sparseX alpha="118.02810074306130" i="847" sparseCutoff="1.0000000000000000" />
      <sparseX alpha="-342.19819235064466" i="848" sparseCutoff="1.0000000000000000" />
      <sparseX alpha="-86.739978130646094" i="849" sparseCutoff="1.0000000000000000" />
      <sparseX alpha="-174.27295982836972" i="850" sparseCutoff="1.0000000000000000" />
      <sparseX alpha="139.57153478886084" i="851" sparseCutoff="1.0000000000000000" />
      <sparseX alpha="103.28522601294979" i="852" sparseCutoff="1.0000000000000000" />
      <sparseX alpha="26.023491221073961" i="853" sparseCutoff="1.0000000000000000" />
      <sparseX alpha="-252.49174371524342" i="854" sparseCutoff="1.0000000000000000" />
      <sparseX alpha="-83.977795174402146" i="855" sparseCutoff="1.0000000000000000" />
      <sparseX alpha="-129.09151210324274" i="856" sparseCutoff="1.0000000000000000" />
      <sparseX alpha="-2.8097758466822769" i="857" sparseCutoff="1.0000000000000000" />
      <sparseX alpha="54.550994044322650" i="858" sparseCutoff="1.0000000000000000" />
      <sparseX alpha="402.31101879636583" i="859" sparseCutoff="1.0000000000000000" />
      <sparseX alpha="149.26177596674842" i="860" sparseCutoff="1.0000000000000000" />
      <sparseX alpha="21.070323454801681" i="861" sparseCutoff="1.0000000000000000" />
      <sparseX alpha="69.274672303482433" i="862" sparseCutoff="1.0000000000000000" />
      <sparseX alpha="-50.661193201676014" i="863" sparseCutoff="1.0000000000000000" />
      <sparseX alpha="-48.272660627029310" i="864" sparseCutoff="1.0000000000000000" />
      <sparseX alpha="-84.326845959701714" i="865" sparseCutoff="1.0000000000000000" />
      <sparseX alpha="393.03012828027323" i="866" sparseCutoff="1.0000000000000000" />
      <sparseX alpha="-102.77477154741328" i="867" sparseCutoff="1.0000000000000000" />
      <sparseX alpha="-76.056509002144793" i="868" sparseCutoff="1.0000000000000000" />
      <sparseX alpha="-273.61081300009329" i="869" sparseCutoff="1.0000000000000000" />
      <sparseX alpha="117.54374063472952" i="870" sparseCutoff="1.0000000000000000" />
      <sparseX alpha="-278.12708932929957" i="871" sparseCutoff="1.0000000000000000" />
      <sparseX alpha="358.88581831091039" i="872" sparseCutoff="1.0000000000000000" />
      <sparseX alpha="-75.500296692032791" i="873" sparseCutoff="1.0000000000000000" />
      <sparseX alpha="-296.90328327759539" i="874" sparseCutoff="1.0000000000000000" />
      <sparseX alpha="-1288.5967542443316" i="875" sparseCutoff="1.0000000000000000" />
      <sparseX alpha="-4117.0320050230648" i="876" sparseCutoff="1.0000000000000000" />
      <sparseX alpha="2232.5537455024473" i="877" sparseCutoff="1.0000000000000000" />
      <sparseX alpha="3322.0608646519827" i="878" sparseCutoff="1.0000000000000000" />
      <sparseX alpha="308.23550097019626" i="879" sparseCutoff="1.0000000000000000" />
      <sparseX alpha="168.52033534666651" i="880" sparseCutoff="1.0000000000000000" />
      <sparseX alpha="-115.77998513814200" i="881" sparseCutoff="1.0000000000000000" />
      <sparseX alpha="-233.00208401130740" i="882" sparseCutoff="1.0000000000000000" />
      <sparseX alpha="246.22333296002313" i="883" sparseCutoff="1.0000000000000000" />
      <sparseX alpha="235.50642692474128" i="884" sparseCutoff="1.0000000000000000" />
      <sparseX alpha="57.488665874553092" i="885" sparseCutoff="1.0000000000000000" />
      <sparseX alpha="395.11929235864267" i="886" sparseCutoff="1.0000000000000000" />
      <sparseX alpha="-11.875771031852667" i="887" sparseCutoff="1.0000000000000000" />
      <sparseX alpha="-140.34323797828014" i="888" sparseCutoff="1.0000000000000000" />
      <sparseX alpha="387.50204571740397" i="889" sparseCutoff="1.0000000000000000" />
      <sparseX alpha="-136.34718020932249" i="890" sparseCutoff="1.0000000000000000" />
      <sparseX alpha="115.33599922640300" i="891" sparseCutoff="1.0000000000000000" />
      <sparseX alpha="306.18600127229530" i="892" sparseCutoff="1.0000000000000000" />
      <sparseX alpha="181.79747346212304" i="893" sparseCutoff="1.0000000000000000" />
      <sparseX alpha="-109.36972070220146" i="894" sparseCutoff="1.0000000000000000" />
      <sparseX alpha="-259.24947978925536" i="895" sparseCutoff="1.0000000000000000" />
      <sparseX alpha="134.17864023890772" i="896" sparseCutoff="1.0000000000000000" />
      <sparseX alpha="226.86241480468499" i="897" sparseCutoff="1.0000000000000000" />
      <sparseX alpha="-173.81499191550486" i="898" sparseCutoff="1.0000000000000000" />
      <sparseX alpha="111.98906166836129" i="899" sparseCutoff="1.0000000000000000" />
      <sparseX alpha="206.98944843084610" i="900" sparseCutoff="1.0000000000000000" />
      <sparseX alpha="-208.05198822038145" i="901" sparseCutoff="1.0000000000000000" />
      <sparseX alpha="-45.583891858779111" i="902" sparseCutoff="1.0000000000000000" />
      <sparseX alpha="11.137888225716134" i="903" sparseCutoff="1.0000000000000000" />
      <sparseX alpha="-78.853221094691449" i="904" sparseCutoff="1.0000000000000000" />
      <sparseX alpha="17.799850181995076" i="905" sparseCutoff="1.0000000000000000" />
      <sparseX alpha="-518.96428825118562" i="906" sparseCutoff="1.0000000000000000" />
      <sparseX alpha="35.949774840689898" i="907" sparseCutoff="1.0000000000000000" />
      <sparseX alpha="-162.61722624730908" i="908" sparseCutoff="1.0000000000000000" />
      <sparseX alpha="-73.741296504861182" i="909" sparseCutoff="1.0000000000000000" />
      <sparseX alpha="181.59138819728778" i="910" sparseCutoff="1.0000000000000000" />
      <sparseX alpha="-36.839096848947243" i="911" sparseCutoff="1.0000000000000000" />
      <sparseX alpha="-38.674396443684593" i="912" sparseCutoff="1.0000000000000000" />
      <sparseX alpha="470.43309998712175" i="913" sparseCutoff="1.0000000000000000" />
      <sparseX alpha="-236.73992488405628" i="914" sparseCutoff="1.0000000000000000" />
      <sparseX alpha="-185.16574435953558" i="915" sparseCutoff="1.0000000000000000" />
      <sparseX alpha="125.30494165113701" i="916" sparseCutoff="1.0000000000000000" />
      <sparseX alpha="190.01971464033608" i="917" sparseCutoff="1.0000000000000000" />
      <sparseX alpha="-24.787620483949862" i="918" sparseCutoff="1.0000000000000000" />
      <sparseX alpha="386.09465381596169" i="919" sparseCutoff="1.0000000000000000" />
      <sparseX alpha="109.98302467094683" i="920" sparseCutoff="1.0000000000000000" />
      <sparseX alpha="-155.57488591290718" i="921" sparseCutoff="1.0000000000000000" />
      <sparseX alpha="-149.44406253168225" i="922" sparseCutoff="1.0000000000000000" />
      <sparseX alpha="592.10932611046667" i="923" sparseCutoff="1.0000000000000000" />
      <sparseX alpha="-72.195612544272905" i="924" sparseCutoff="1.0000000000000000" />
      <sparseX alpha="296.99818794735302" i="925" sparseCutoff="1.0000000000000000" />
      <sparseX alpha="-118.96649794880304" i="926" sparseCutoff="1.0000000000000000" />
      <sparseX alpha="60.313773638922122" i="927" sparseCutoff="1.0000000000000000" />
      <sparseX alpha="-842.34562877061683" i="928" sparseCutoff="1.0000000000000000" />
      <sparseX alpha="-615.22264620236263" i="929" sparseCutoff="1.0000000000000000" />
      <sparseX alpha="-581.55903200751743" i="930" sparseCutoff="1.0000000000000000" />
      <sparseX alpha="-55.079120350758082" i="931" sparseCutoff="1.0000000000000000" />
      <sparseX alpha="539.80821537125223" i="932" sparseCutoff="1.0000000000000000" />
      <sparseX alpha="75.508850207461620" i="933" sparseCutoff="1.0000000000000000" />
      <sparseX alpha="73.987023116977454" i="934" sparseCutoff="1.0000000000000000" />
      <sparseX alpha="190.15800492432004" i="935" sparseCutoff="1.0000000000000000" />
      <sparseX alpha="-169.23177450273673" i="936" sparseCutoff="1.0000000000000000" />
      <sparseX alpha="231.51302586216070" i="937" sparseCutoff="1.0000000000000000" />
      <sparseX alpha="232.38601362364528" i="938" sparseCutoff="1.0000000000000000" />
      <sparseX alpha="4.5845818175883295" i="939" sparseCutoff="1.0000000000000000" />
      <sparseX alpha="-264.24469936377977" i="940" sparseCutoff="1.0000000000000000" />
      <sparseX alpha="-765.05821410748035" i="941" sparseCutoff="1.0000000000000000" />
      <sparseX alpha="58.501175768129009" i="942" sparseCutoff="1.0000000000000000" />
      <sparseX alpha="336.87196720024662" i="943" sparseCutoff="1.0000000000000000" />
      <sparseX alpha="281.53796434848709" i="944" sparseCutoff="1.0000000000000000" />
      <sparseX alpha="-497.93985145011527" i="945" sparseCutoff="1.0000000000000000" />
      <sparseX alpha="-180.47705482660547" i="946" sparseCutoff="1.0000000000000000" />
      <sparseX alpha="77.635866718546438" i="947" sparseCutoff="1.0000000000000000" />
      <sparseX alpha="-157.65817774303980" i="948" sparseCutoff="1.0000000000000000" />
      <sparseX alpha="-59.438420494095638" i="949" sparseCutoff="1.0000000000000000" />
      <sparseX alpha="-84.612097661751051" i="950" sparseCutoff="1.0000000000000000" />
      <sparseX alpha="-151.15736219008846" i="951" sparseCutoff="1.0000000000000000" />
      <sparseX alpha="-118.00128984078303" i="952" sparseCutoff="1.0000000000000000" />
      <sparseX alpha="-77.666508852206420" i="953" sparseCutoff="1.0000000000000000" />
      <sparseX alpha="56.998865928237350" i="954" sparseCutoff="1.0000000000000000" />
      <sparseX alpha="-96.727006089628134" i="955" sparseCutoff="1.0000000000000000" />
      <sparseX alpha="183.20266753014607" i="956" sparseCutoff="1.0000000000000000" />
      <sparseX alpha="-248.32205385514320" i="957" sparseCutoff="1.0000000000000000" />
      <sparseX alpha="-120.93888807425583" i="958" sparseCutoff="1.0000000000000000" />
      <sparseX alpha="-206.77422588214014" i="959" sparseCutoff="1.0000000000000000" />
      <sparseX alpha="-140.06451978880733" i="960" sparseCutoff="1.0000000000000000" />
      <sparseX alpha="126.61996198499173" i="961" sparseCutoff="1.0000000000000000" />
      <sparseX alpha="70.781408967322491" i="962" sparseCutoff="1.0000000000000000" />
      <sparseX alpha="-140.62170229319347" i="963" sparseCutoff="1.0000000000000000" />
      <sparseX alpha="164.63460854773643" i="964" sparseCutoff="1.0000000000000000" />
      <sparseX alpha="-241.67951091035908" i="965" sparseCutoff="1.0000000000000000" />
      <sparseX alpha="-90.182929069508774" i="966" sparseCutoff="1.0000000000000000" />
      <sparseX alpha="-95.987599829551115" i="967" sparseCutoff="1.0000000000000000" />
      <sparseX alpha="54.124137611307312" i="968" sparseCutoff="1.0000000000000000" />
      <sparseX alpha="-122.00473261990375" i="969" sparseCutoff="1.0000000000000000" />
      <sparseX alpha="238.45606598973632" i="970" sparseCutoff="1.0000000000000000" />
      <sparseX alpha="280.37874760955424" i="971" sparseCutoff="1.0000000000000000" />
      <sparseX alpha="-524.20311616654828" i="972" sparseCutoff="1.0000000000000000" />
      <sparseX alpha="-114.58005790240283" i="973" sparseCutoff="1.0000000000000000" />
      <sparseX alpha="-238.73172578835135" i="974" sparseCutoff="1.0000000000000000" />
      <sparseX alpha="-36.920680763079481" i="975" sparseCutoff="1.0000000000000000" />
      <sparseX alpha="-68.786970098477227" i="976" sparseCutoff="1.0000000000000000" />
      <sparseX alpha="-193.23987990963533" i="977" sparseCutoff="1.0000000000000000" />
      <sparseX alpha="-368.58719449723577" i="978" sparseCutoff="1.0000000000000000" />
      <sparseX alpha="368.92115144053400" i="979" sparseCutoff="1.0000000000000000" />
      <sparseX alpha="222.73017314652100" i="980" sparseCutoff="1.0000000000000000" />
      <sparseX alpha="47.472204481132863" i="981" sparseCutoff="1.0000000000000000" />
      <sparseX alpha="-292.24972782266786" i="982" sparseCutoff="1.0000000000000000" />
      <sparseX alpha="162.06895882191449" i="983" sparseCutoff="1.0000000000000000" />
      <sparseX alpha="331.71458844713931" i="984" sparseCutoff="1.0000000000000000" />
      <sparseX alpha="-154.85409259896269" i="985" sparseCutoff="1.0000000000000000" />
      <sparseX alpha="-454.19638669688692" i="986" sparseCutoff="1.0000000000000000" />
      <sparseX alpha="188.01965208767379" i="987" sparseCutoff="1.0000000000000000" />
      <sparseX alpha="-718.10254701939925" i="988" sparseCutoff="1.0000000000000000" />
      <sparseX alpha="-86.079243759561834" i="989" sparseCutoff="1.0000000000000000" />
      <sparseX alpha="-341.31981912305054" i="990" sparseCutoff="1.0000000000000000" />
      <sparseX alpha="-529.70788292922464" i="991" sparseCutoff="1.0000000000000000" />
      <sparseX alpha="-300.54778619786123" i="992" sparseCutoff="1.0000000000000000" />
      <sparseX alpha="-71.170937416874537" i="993" sparseCutoff="1.0000000000000000" />
      <sparseX alpha="332.41836027736792" i="994" sparseCutoff="1.0000000000000000" />
      <sparseX alpha="3.8564239400566489" i="995" sparseCutoff="1.0000000000000000" />
      <sparseX alpha="116.04089586417018" i="996" sparseCutoff="1.0000000000000000" />
      <sparseX alpha="72.616394131959751" i="997" sparseCutoff="1.0000000000000000" />
      <sparseX alpha="-326.17666969611992" i="998" sparseCutoff="1.0000000000000000" />
      <sparseX alpha="136.56637666056204" i="999" sparseCutoff="1.0000000000000000" />
      <sparseX alpha="90.056306500654998" i="1000" sparseCutoff="1.0000000000000000" />
      <sparseX alpha="366.23314485160313" i="1001" sparseCutoff="1.0000000000000000" />
      <sparseX alpha="261.21667545905711" i="1002" sparseCutoff="1.0000000000000000" />
      <sparseX alpha="356.23704705939610" i="1003" sparseCutoff="1.0000000000000000" />
      <sparseX alpha="76.425906753593338" i="1004" sparseCutoff="1.0000000000000000" />
      <sparseX alpha="-174.78439018542215" i="1005" sparseCutoff="1.0000000000000000" />
      <sparseX alpha="90.598058792736879" i="1006" sparseCutoff="1.0000000000000000" />
      <sparseX alpha="-73.247981363226586" i="1007" sparseCutoff="1.0000000000000000" />
      <sparseX alpha="-139.00316258331759" i="1008" sparseCutoff="1.0000000000000000" />
      <sparseX alpha="-85.587694709760214" i="1009" sparseCutoff="1.0000000000000000" />
      <sparseX alpha="52.063291057510014" i="1010" sparseCutoff="1.0000000000000000" />
      <sparseX alpha="125.43810882649281" i="1011" sparseCutoff="1.0000000000000000" />
      <sparseX alpha="-402.28427767073526" i="1012" sparseCutoff="1.0000000000000000" />
      <sparseX alpha="-102.31551720473099" i="1013" sparseCutoff="1.0000000000000000" />
      <sparseX alpha="170.04887473591543" i="1014" sparseCutoff="1.0000000000000000" />
      <sparseX alpha="-180.78020144220943" i="1015" sparseCutoff="1.0000000000000000" />
      <sparseX alpha="-276.73298885961350" i="1016" sparseCutoff="1.0000000000000000" />
      <sparseX alpha="-254.31948051182817" i="1017" sparseCutoff="1.0000000000000000" />
      <sparseX alpha="195.17376311071456" i="1018" sparseCutoff="1.0000000000000000" />
      <sparseX alpha="-221.39428526277825" i="1019" sparseCutoff="1.0000000000000000" />
      <sparseX alpha="-124.11154136280086" i="1020" sparseCutoff="1.0000000000000000" />
      <sparseX alpha="-178.68329416399126" i="1021" sparseCutoff="1.0000000000000000" />
      <sparseX alpha="-270.24398622452935" i="1022" sparseCutoff="1.0000000000000000" />
      <sparseX alpha="-292.60514091550857" i="1023" sparseCutoff="1.0000000000000000" />
      <sparseX alpha="25.259200849696903" i="1024" sparseCutoff="1.0000000000000000" />
      <sparseX alpha="-144.11381155719280" i="1025" sparseCutoff="1.0000000000000000" />
      <sparseX alpha="453.45021682241628" i="1026" sparseCutoff="1.0000000000000000" />
      <sparseX alpha="-26.051924826966179" i="1027" sparseCutoff="1.0000000000000000" />
      <sparseX alpha="69.111257171278979" i="1028" sparseCutoff="1.0000000000000000" />
      <sparseX alpha="-398.78446220276413" i="1029" sparseCutoff="1.0000000000000000" />
      <sparseX alpha="237.31627287403848" i="1030" sparseCutoff="1.0000000000000000" />
      <sparseX alpha="-92.388952726465021" i="1031" sparseCutoff="1.0000000000000000" />
      <sparseX alpha="383.32463606553563" i="1032" sparseCutoff="1.0000000000000000" />
      <sparseX alpha="24.237645900814943" i="1033" sparseCutoff="1.0000000000000000" />
      <sparseX alpha="253.60712589328355" i="1034" sparseCutoff="1.0000000000000000" />
      <sparseX alpha="-3.6596790019893763" i="1035" sparseCutoff="1.0000000000000000" />
      <sparseX alpha="-84.767683306441782" i="1036" sparseCutoff="1.0000000000000000" />
      <sparseX alpha="9.9915972934951682" i="1037" sparseCutoff="1.0000000000000000" />
      <sparseX alpha="-343.79254737926135" i="1038" sparseCutoff="1.0000000000000000" />
      <sparseX alpha="-17.468201653331313" i="1039" sparseCutoff="1.0000000000000000" />
      <sparseX alpha="228.33575409405498" i="1040" sparseCutoff="1.0000000000000000" />
      <sparseX alpha="-159.43903746229878" i="1041" sparseCutoff="1.0000000000000000" />
      <sparseX alpha="-168.58727265774203" i="1042" sparseCutoff="1.0000000000000000" />
      <sparseX alpha="4.4832350667238119" i="1043" sparseCutoff="1.0000000000000000" />
      <sparseX alpha="283.65534602440277" i="1044" sparseCutoff="1.0000000000000000" />
      <sparseX alpha="73.136300477632957" i="1045" sparseCutoff="1.0000000000000000" />
      <sparseX alpha="377.09940167162165" i="1046" sparseCutoff="1.0000000000000000" />
      <sparseX alpha="151.94602560198879" i="1047" sparseCutoff="1.0000000000000000" />
      <sparseX alpha="92.935797730414393" i="1048" sparseCutoff="1.0000000000000000" />
      <sparseX alpha="90.897584184052363" i="1049" sparseCutoff="1.0000000000000000" />
      <sparseX alpha="351.37031707439655" i="1050" sparseCutoff="1.0000000000000000" />
      <sparseX alpha="-391.69729568335481" i="1051" sparseCutoff="1.0000000000000000" />
      <sparseX alpha="384.15240563323147" i="1052" sparseCutoff="1.0000000000000000" />
      <sparseX alpha="46.323245888452192" i="1053" sparseCutoff="1.0000000000000000" />
      <sparseX alpha="321.08238209445045" i="1054" sparseCutoff="1.0000000000000000" />
      <sparseX alpha="-808.52250251673331" i="1055" sparseCutoff="1.0000000000000000" />
      <sparseX alpha="73.984237002014069" i="1056" sparseCutoff="1.0000000000000000" />
      <sparseX alpha="648.19779442347385" i="1057" sparseCutoff="1.0000000000000000" />
      <sparseX alpha="-156.36334994336679" i="1058" sparseCutoff="1.0000000000000000" />
      <sparseX alpha="-2004.2358650607503" i="1059" sparseCutoff="1.0000000000000000" />
      <sparseX alpha="-213.44282958787326" i="1060" sparseCutoff="1.0000000000000000" />
      <sparseX alpha="-51.774079231648429" i="1061" sparseCutoff="1.0000000000000000" />
      <sparseX alpha="-1.8790178941054327" i="1062" sparseCutoff="1.0000000000000000" />
      <sparseX alpha="210.59128672944263" i="1063" sparseCutoff="1.0000000000000000" />
      <sparseX alpha="155.93838204036626" i="1064" sparseCutoff="1.0000000000000000" />
      <sparseX alpha="120.53343500201565" i="1065" sparseCutoff="1.0000000000000000" />
      <sparseX alpha="-186.88439552302094" i="1066" sparseCutoff="1.0000000000000000" />
      <sparseX alpha="165.97964324792099" i="1067" sparseCutoff="1.0000000000000000" />
      <sparseX alpha="546.35882274007599" i="1068" sparseCutoff="1.0000000000000000" />
      <sparseX alpha="-301.40589347699660" i="1069" sparseCutoff="1.0000000000000000" />
      <sparseX alpha="17.666197803995512" i="1070" sparseCutoff="1.0000000000000000" />
      <sparseX alpha="283.42180360823033" i="1071" sparseCutoff="1.0000000000000000" />
      <sparseX alpha="-480.64602114609033" i="1072" sparseCutoff="1.0000000000000000" />
