MTP
version = 1.1.0
potential_name = MTP1m
scaling = 4.384118967452301e-01
species_count = 4
potential_tag =
radial_basis_type = RBChebyshev
	min_dist = 1.499690000000000e+00
	max_dist = 4.700000000000000e+00
	radial_basis_size = 8
	radial_funcs_count = 4
	radial_coeffs
		0-0
			{1.109680949832325e-01, -2.620737220509239e-02, 1.355224800552191e-02, -1.916467190411354e-02, 1.349396954821049e-03, 1.208504249098001e-02, 1.191442956455783e-02, 9.652919415752864e-04}
			{1.126938859287034e-01, 2.300417623468134e-01, 1.415574032086789e-01, 6.714069147322793e-02, 9.890697358906760e-02, 6.059927615858438e-02, 3.629672942126382e-02, 1.097013798252704e-02}
			{2.679052548033785e-01, 2.263743317034697e-01, 3.432991646485425e-01, 1.966122441569331e-01, 1.751699664394478e-01, 1.112009232909590e-01, 5.771420979855023e-02, 1.884528584783582e-02}
			{1.501095753625060e-01, -2.219364847163895e-01, 1.928154604807888e-01, -1.756317260052318e-01, 1.828046637394564e-01, -1.431169938785566e-01, 8.553023933733429e-02, -2.708659358298778e-02}
		0-1
			{1.569071174934681e-01, 5.181832374381407e-02, 8.133358603830396e-02, 6.849972605697582e-02, 5.755196141553746e-02, 5.014784587405103e-02, 3.018971288348780e-02, 9.256608280549274e-03}
			{-2.068736211146743e-02, 1.925089780010008e-01, -5.273223042063387e-02, -1.284704057663605e-02, 2.057952879394516e-02, -1.046872857274368e-02, -1.583263411717581e-03, -8.348823968986355e-03}
			{1.582488343831228e-01, -1.465566412887508e-02, 1.320798164983222e-01, 7.390530665860525e-03, 7.132367281749442e-02, 4.899926327705731e-02, 5.301753304989358e-02, 2.497902948017842e-02}
			{-2.689887893437349e-03, 8.790856280378651e-02, -6.660931068379039e-02, 6.580464861810802e-03, -3.694436171649555e-03, 4.719345679043079e-03, -4.224291420154632e-03, 5.011138520516559e-02}
		0-2
			{8.507878913870252e-02, 5.027837907886586e-02, -2.672367267093612e-02, 2.453875972653117e-02, -1.083662969269583e-02, 1.670961433382781e-02, 1.196489041432042e-02, 5.170753407004928e-03}
			{1.025400040974184e-01, 2.374706752260585e-01, 1.087582833943200e-01, 7.770297292072605e-02, 4.507932106293075e-02, 7.315690322654093e-02, 5.873334507237918e-03, 2.762593144878734e-02}
			{1.355720993747308e-01, 1.503048026429095e-02, 1.344223758125569e-01, -9.669558662456052e-03, 8.033030923051401e-02, -1.274781520574616e-02, 4.118233467394177e-02, -7.339740786187915e-03}
			{9.876855585320209e-03, 1.453721041340103e-02, -1.402853949340605e-01, 3.596827532902064e-02, -1.058979350065806e-01, 2.362369320843454e-02, -1.536447886934221e-02, 4.170672675400765e-02}
		0-3
			{1.281883679024696e-01, 2.501786494516797e-02, 3.401274218394482e-02, 4.584279621098690e-02, 4.343624497501196e-02, 4.331214142066015e-02, 3.237572854141414e-02, 8.637055982978543e-03}
			{-4.376921012907761e-02, 1.800610732124170e-01, -7.951582791876040e-02, -1.762550928081906e-02, 1.954711083407622e-02, -4.875972707085573e-03, 6.251034095612685e-03, -5.871695459453227e-03}
			{1.339820376417613e-01, -1.121609980614826e-01, 4.963622400265218e-02, -7.001411426496183e-02, -1.917402106509200e-02, 7.070046247595630e-03, 1.620226795627455e-02, 1.255943534012178e-02}
			{-4.501428198462247e-02, 1.053793316091952e-01, -6.952119713070939e-02, 6.112970092451788e-03, 6.310877873109068e-02, -3.300400081752006e-03, 3.989725524923232e-02, 4.567555666499131e-02}
		1-0
			{-5.874076900339439e-02, -1.551102694690550e-01, -1.963431581023766e-01, -1.210208819755941e-01, -9.366621825134841e-02, -9.466325264807049e-02, -3.054948787589037e-02, -1.940231885658434e-02}
			{2.235199649426134e-02, 2.698522593908124e-01, 3.520694405280212e-03, 7.317403882634581e-02, -1.180242577686372e-02, -4.974009692049911e-04, -2.095578886215689e-02, -6.748231579093162e-03}
			{6.232708926924335e-02, -8.469669750033423e-02, -8.607644133882632e-03, -5.283771993233249e-02, -2.541972661329249e-02, -1.729257254874440e-02, -1.651895668185356e-02, 1.944541672160317e-02}
			{-8.082637155672465e-02, 1.545774602593884e-02, -1.466834045606474e-01, -3.245323654927679e-02, -3.945974183699172e-02, -2.392068369498637e-02, -1.206951034682549e-02, 4.593798330013175e-02}
		1-1
			{6.385227561730595e-03, -2.026253104906766e-01, -1.469952741614010e-01, -1.222801512775978e-01, -1.149179728694035e-01, -7.217594362479840e-02, -3.024175806104168e-02, -1.102133900271877e-02}
			{-5.556692578439288e-02, 9.596695371617782e-02, -1.334466787387559e-01, -7.671799399802835e-02, -8.037015430795655e-02, -6.430739415376563e-02, -3.761231086055372e-02, -8.452618259962880e-03}
			{9.095392331589890e-02, 1.581257101393918e-01, 5.396926176292650e-02, 1.527047849363633e-01, 5.318130088875755e-02, 8.824556348867457e-02, 3.567759622886091e-02, 2.898194614915245e-02}
			{-7.678652463586328e-03, 1.686061273948800e-01, 1.154430525065336e-01, -5.846436055643441e-02, 2.689254505595802e-01, -7.869154043218872e-02, 1.183172788534450e-01, 3.225090861231896e-02}
		1-2
			{-1.439582483772008e-02, -1.535031439139116e-01, -1.495410674266142e-01, -1.226498415781716e-01, -9.578959482294415e-02, -9.968278510625080e-02, -3.938453682329829e-02, -2.599453342264405e-02}
			{8.683206096697228e-02, 3.321074387034089e-01, 9.337932756180436e-02, 1.120775755431012e-01, 3.192396808749967e-03, 6.178234304542000e-03, -2.722126745236040e-02, -7.712588975927645e-03}
			{1.487491174287196e-01, -2.686352242773242e-02, 1.254590479388874e-01, 1.436861419500985e-02, 5.538233307366144e-02, 3.512114816474653e-02, 7.036751047389917e-03, 2.885297991698880e-02}
			{-6.211839635448037e-02, -4.879329352057035e-02, -1.670635651875855e-01, -2.303677447463041e-02, -1.099276947512952e-01, 1.122442006250232e-02, -3.900454436231620e-02, 4.900983486974577e-02}
		1-3
			{-3.719189900172131e-02, -1.494705731573829e-01, -2.014492555369307e-01, -2.816678478736449e-02, -1.209149368118943e-01, 1.705781986123672e-05, -3.753170122113999e-02, 1.126713746198768e-02}
			{-5.596183514280190e-02, 9.043000607070384e-02, -1.095884816546909e-01, -3.934170189951249e-02, -5.157956841628906e-02, -2.860771074888527e-02, -3.336373427350493e-02, -1.984925715241984e-03}
			{7.768488680944023e-02, -1.791497666825993e-02, -2.426087999725635e-02, -2.108341675237948e-02, -4.932772493498925e-02, 2.926362265420816e-03, -4.725454802641546e-03, 2.007960948024230e-02}
			{-4.501233586196345e-02, 1.220527813975048e-01, -2.002643555813518e-02, 2.022941281617417e-02, 7.556027584203734e-02, 6.644835077159025e-02, 2.522112309667548e-02, 9.688245822044447e-02}
		2-0
			{1.035569977607086e-01, 3.439261244410290e-02, -1.652527369582727e-02, 2.093560715433803e-02, -4.011352218164911e-02, 3.358307757472288e-02, -1.355219754284658e-02, 1.666806571794872e-02}
			{7.720358437831101e-02, 2.506957490844394e-01, 5.343038284507157e-02, 1.133789647906490e-02, 1.773235926508609e-02, -1.142613511241803e-02, 3.152232364322864e-03, -1.302093162736991e-02}
			{1.011345875996947e-01, -1.389921830769445e-01, 6.141169110648119e-03, -8.991423036014759e-02, -4.486102647863448e-02, 2.546356644919865e-02, -1.081240001173312e-02, 3.804502245575029e-02}
			{4.584337837186338e-03, 3.033669920211133e-02, -1.368033501032125e-01, 2.851334872317559e-02, -9.566760037955135e-02, 5.693577268111463e-04, -1.378927582552511e-02, 2.649422505965862e-02}
		2-1
			{1.507433802113868e-01, 5.588122489827077e-02, 9.046090081733739e-02, 5.995927993246039e-02, 8.053998137929466e-02, 4.069754591605384e-02, 3.570657670435540e-02, 5.101972740068081e-03}
			{-5.783524226995268e-02, 1.521683813864451e-01, -1.042309384428528e-01, -9.302721671996921e-02, 3.969133420905285e-02, -8.582339679214092e-02, 2.197477985950557e-02, -4.400771700244988e-02}
			{2.273228842541883e-02, -1.920519180358724e-01, -9.389714013628211e-02, -1.965726525385022e-01, -3.488544700322604e-02, -8.221298629199053e-02, 2.957422583139288e-02, -1.259888320357559e-02}
			{-1.024809687104737e-02, 2.961833383260056e-02, -9.426711863059982e-02, 2.473654633609130e-02, -2.197322050214138e-02, 4.639357299048662e-02, -3.378469208619959e-03, 4.826416013106859e-02}
		2-2
			{1.044447053799382e-01, -1.231107265022059e-01, -5.911441173591371e-03, -1.136208905829353e-01, -2.183527554059676e-02, -4.607496567522096e-02, -2.361363578537458e-03, -1.862623636208669e-02}
			{3.850825086784308e-02, -7.399543568122669e-03, -1.414138247901729e-02, -1.493241783902640e-01, -1.081676058433262e-02, -7.612935034996217e-02, 4.044265855461925e-03, -2.972699969933452e-02}
			{6.358783615740736e-02, -5.979814758331793e-02, -3.543735171584945e-02, -7.630282589227513e-02, -4.430723887972205e-02, -3.606176286779122e-02, -2.696846921593200e-03, -1.862083866988157e-02}
			{1.257381691789516e-01, -1.593690611199665e-01, 7.955566404554922e-02, -8.123275728765809e-02, 4.479266259678484e-02, -6.884715482907569e-02, 3.858535454042869e-02, -2.161609886408454e-02}
		2-3
			{1.077950163162962e-01, 2.512697915504274e-02, 1.989978361020995e-02, 3.627923676312819e-02, 4.839584948619000e-02, 3.035959099948190e-02, 2.847438253008694e-02, 3.455612468740636e-03}
			{-8.755256346849086e-02, 1.523955617492831e-01, -1.365381960202822e-01, -6.566387098710606e-02, 2.354282886429189e-02, -6.985360593974364e-02, 1.447344745952274e-02, -4.369158220757598e-02}
			{2.892683292906564e-02, -2.210447412391406e-01, -9.131114691916656e-02, -1.893222609073096e-01, -4.489087233352396e-02, -5.788880615010290e-02, 2.124214328520147e-02, 3.017287025083178e-03}
			{-3.512089087532135e-03, 4.367599673762842e-02, -7.990061414143103e-02, 5.602013787628077e-02, -2.577041322800730e-02, 7.470160615324815e-02, 1.802153307556963e-03, 5.527707193497829e-02}
		3-0
			{-3.187525175255526e-02, -1.767277342750313e-01, -1.720249712100816e-01, -1.130167066207666e-01, -1.071606828972667e-01, -7.535995120429410e-02, -4.079098678364139e-02, -1.345048630805721e-02}
			{2.028550871657266e-02, 2.202758154302911e-01, -2.712228960197596e-02, 3.966015271939214e-02, -5.946467820575087e-02, -8.568385205076426e-03, -4.176910615553462e-02, -7.971018715177641e-03}
			{6.713127471064884e-02, -1.388864219037328e-01, 2.215961097838558e-02, -7.587685254608086e-02, 2.350930388471348e-02, -1.019066014570300e-02, 9.808325278399244e-03, 2.437232753769357e-02}
			{-7.889931664732788e-02, 4.048974586362776e-02, -1.266663541818616e-01, -4.109209024406277e-02, -2.713509659114436e-02, -4.480462659961860e-02, -4.142795916330104e-03, 3.804793078674026e-02}
		3-1
			{-1.978907195989189e-02, -6.823671554965979e-02, -1.654549917377576e-01, -5.271207507426561e-02, -9.900995635609054e-02, -8.025667131986888e-02, -2.709444054696451e-02, -2.278224868182239e-02}
			{9.796787661229255e-03, 1.352243352127835e-01, -2.758783919314783e-02, -4.442981746670933e-02, -4.895693387277097e-02, -5.585696512456684e-02, -4.590762516233222e-02, -1.346228931258717e-02}
			{5.799039685363730e-02, -5.757562301849656e-02, -2.178434670908005e-02, -2.856657015679574e-02, 1.280158501622044e-02, 2.046412401923056e-02, 3.317329641222437e-02, 3.214519702823009e-02}
			{-8.247092707046591e-03, 1.806572752976804e-01, 1.149277272632200e-02, -2.240603754823379e-03, 4.819682618054304e-02, 1.135314298675067e-02, 8.377794379791598e-03, 7.671800271295817e-02}
		3-2
			{-3.064903020715903e-02, -1.688292590119974e-01, -1.787160359708743e-01, -1.143864768179920e-01, -1.189339859928179e-01, -8.341735348461021e-02, -4.777909015668064e-02, -2.059099259498624e-02}
			{-1.497303846183575e-02, 1.874421693774901e-01, -7.409027430419456e-02, 1.682595955905403e-02, -8.156707188054003e-02, -2.880492026346683e-02, -4.853268888202686e-02, -1.245888028610333e-02}
			{4.538926837950256e-02, -1.922955938840603e-01, -1.722744838789732e-02, -8.926913168635081e-02, 1.330975218332777e-02, -3.949351053367178e-03, 6.627592644495688e-03, 1.774298132519751e-02}
			{-3.223649336795738e-02, -3.115020653583305e-02, -1.393084060882967e-01, 1.340442551601097e-02, -1.350749856150340e-01, 4.719511503395686e-02, -4.761847930482708e-02, 6.028896429906398e-02}
		3-3
			{-1.655684454874035e-02, -2.878019200851151e-01, -1.838809345711473e-01, -1.703858317516219e-01, -1.331174554063296e-01, -1.007200619075229e-01, -3.988383015787187e-02, -1.847927509653586e-02}
			{-6.622553653743751e-02, 7.638779050936527e-03, -1.402500804291367e-01, -1.384923974955202e-01, -8.839284554236534e-02, -9.951414704618233e-02, -4.945968374636895e-02, -2.200093124924219e-02}
			{7.574474875171994e-02, 1.347450107036072e-01, 2.069991887007216e-02, 1.292795384346819e-01, 3.998139211750056e-02, 7.668621944156016e-02, 3.320274955715098e-02, 2.943273639420199e-02}
			{8.851618454824477e-02, 1.386155640751260e-01, 2.798054215295803e-01, -6.663177025040572e-02, 2.967737084392161e-01, -3.167951612229024e-02, 9.970920263461373e-02, 6.454882235853601e-02}
alpha_moments_count = 174
alpha_index_basic_count = 81
alpha_index_basic = {{0, 0, 0, 0}, {0, 1, 0, 0}, {0, 0, 1, 0}, {0, 0, 0, 1}, {0, 2, 0, 0}, {0, 1, 1, 0}, {0, 1, 0, 1}, {0, 0, 2, 0}, {0, 0, 1, 1}, {0, 0, 0, 2}, {0, 3, 0, 0}, {0, 2, 1, 0}, {0, 2, 0, 1}, {0, 1, 2, 0}, {0, 1, 1, 1}, {0, 1, 0, 2}, {0, 0, 3, 0}, {0, 0, 2, 1}, {0, 0, 1, 2}, {0, 0, 0, 3}, {0, 4, 0, 0}, {0, 3, 1, 0}, {0, 3, 0, 1}, {0, 2, 2, 0}, {0, 2, 1, 1}, {0, 2, 0, 2}, {0, 1, 3, 0}, {0, 1, 2, 1}, {0, 1, 1, 2}, {0, 1, 0, 3}, {0, 0, 4, 0}, {0, 0, 3, 1}, {0, 0, 2, 2}, {0, 0, 1, 3}, {0, 0, 0, 4}, {0, 5, 0, 0}, {0, 4, 1, 0}, {0, 4, 0, 1}, {0, 3, 2, 0}, {0, 3, 1, 1}, {0, 3, 0, 2}, {0, 2, 3, 0}, {0, 2, 2, 1}, {0, 2, 1, 2}, {0, 2, 0, 3}, {0, 1, 4, 0}, {0, 1, 3, 1}, {0, 1, 2, 2}, {0, 1, 1, 3}, {0, 1, 0, 4}, {0, 0, 5, 0}, {0, 0, 4, 1}, {0, 0, 3, 2}, {0, 0, 2, 3}, {0, 0, 1, 4}, {0, 0, 0, 5}, {1, 0, 0, 0}, {1, 1, 0, 0}, {1, 0, 1, 0}, {1, 0, 0, 1}, {1, 2, 0, 0}, {1, 1, 1, 0}, {1, 1, 0, 1}, {1, 0, 2, 0}, {1, 0, 1, 1}, {1, 0, 0, 2}, {1, 3, 0, 0}, {1, 2, 1, 0}, {1, 2, 0, 1}, {1, 1, 2, 0}, {1, 1, 1, 1}, {1, 1, 0, 2}, {1, 0, 3, 0}, {1, 0, 2, 1}, {1, 0, 1, 2}, {1, 0, 0, 3}, {2, 0, 0, 0}, {2, 1, 0, 0}, {2, 0, 1, 0}, {2, 0, 0, 1}, {3, 0, 0, 0}}
alpha_index_times_count = 348
alpha_index_times = {{0, 0, 1, 81}, {1, 1, 1, 82}, {2, 2, 1, 82}, {3, 3, 1, 82}, {1, 4, 1, 83}, {2, 5, 1, 83}, {3, 6, 1, 83}, {1, 5, 1, 84}, {2, 7, 1, 84}, {3, 8, 1, 84}, {1, 6, 1, 85}, {2, 8, 1, 85}, {3, 9, 1, 85}, {1, 10, 1, 86}, {2, 11, 1, 86}, {3, 12, 1, 86}, {1, 11, 1, 87}, {2, 13, 1, 87}, {3, 14, 1, 87}, {1, 12, 1, 88}, {2, 14, 1, 88}, {3, 15, 1, 88}, {1, 13, 1, 89}, {2, 16, 1, 89}, {3, 17, 1, 89}, {1, 14, 1, 90}, {2, 17, 1, 90}, {3, 18, 1, 90}, {1, 15, 1, 91}, {2, 18, 1, 91}, {3, 19, 1, 91}, {4, 4, 1, 92}, {5, 5, 1, 92}, {6, 6, 1, 92}, {4, 5, 1, 93}, {5, 7, 1, 93}, {6, 8, 1, 93}, {4, 6, 1, 94}, {5, 8, 1, 94}, {6, 9, 1, 94}, {5, 5, 1, 95}, {7, 7, 1, 95}, {8, 8, 1, 95}, {5, 6, 1, 96}, {7, 8, 1, 96}, {8, 9, 1, 96}, {6, 6, 1, 97}, {8, 8, 1, 97}, {9, 9, 1, 97}, {4, 4, 1, 98}, {5, 5, 2, 98}, {6, 6, 2, 98}, {7, 7, 1, 98}, {8, 8, 2, 98}, {9, 9, 1, 98}, {4, 10, 1, 99}, {5, 11, 2, 99}, {6, 12, 2, 99}, {7, 13, 1, 99}, {8, 14, 2, 99}, {9, 15, 1, 99}, {4, 11, 1, 100}, {5, 13, 2, 100}, {6, 14, 2, 100}, {7, 16, 1, 100}, {8, 17, 2, 100}, {9, 18, 1, 100}, {4, 12, 1, 101}, {5, 14, 2, 101}, {6, 15, 2, 101}, {7, 17, 1, 101}, {8, 18, 2, 101}, {9, 19, 1, 101}, {4, 20, 1, 102}, {5, 21, 2, 102}, {6, 22, 2, 102}, {7, 23, 1, 102}, {8, 24, 2, 102}, {9, 25, 1, 102}, {4, 21, 1, 103}, {5, 23, 2, 103}, {6, 24, 2, 103}, {7, 26, 1, 103}, {8, 27, 2, 103}, {9, 28, 1, 103}, {4, 22, 1, 104}, {5, 24, 2, 104}, {6, 25, 2, 104}, {7, 27, 1, 104}, {8, 28, 2, 104}, {9, 29, 1, 104}, {4, 23, 1, 105}, {5, 26, 2, 105}, {6, 27, 2, 105}, {7, 30, 1, 105}, {8, 31, 2, 105}, {9, 32, 1, 105}, {4, 24, 1, 106}, {5, 27, 2, 106}, {6, 28, 2, 106}, {7, 31, 1, 106}, {8, 32, 2, 106}, {9, 33, 1, 106}, {4, 25, 1, 107}, {5, 28, 2, 107}, {6, 29, 2, 107}, {7, 32, 1, 107}, {8, 33, 2, 107}, {9, 34, 1, 107}, {10, 10, 1, 108}, {11, 11, 2, 108}, {12, 12, 2, 108}, {13, 13, 1, 108}, {14, 14, 2, 108}, {15, 15, 1, 108}, {10, 11, 1, 109}, {11, 13, 2, 109}, {12, 14, 2, 109}, {13, 16, 1, 109}, {14, 17, 2, 109}, {15, 18, 1, 109}, {10, 12, 1, 110}, {11, 14, 2, 110}, {12, 15, 2, 110}, {13, 17, 1, 110}, {14, 18, 2, 110}, {15, 19, 1, 110}, {11, 11, 1, 111}, {13, 13, 2, 111}, {14, 14, 2, 111}, {16, 16, 1, 111}, {17, 17, 2, 111}, {18, 18, 1, 111}, {11, 12, 1, 112}, {13, 14, 2, 112}, {14, 15, 2, 112}, {16, 17, 1, 112}, {17, 18, 2, 112}, {18, 19, 1, 112}, {12, 12, 1, 113}, {14, 14, 2, 113}, {15, 15, 2, 113}, {17, 17, 1, 113}, {18, 18, 2, 113}, {19, 19, 1, 113}, {10, 10, 1, 114}, {11, 11, 3, 114}, {12, 12, 3, 114}, {13, 13, 3, 114}, {14, 14, 6, 114}, {15, 15, 3, 114}, {16, 16, 1, 114}, {17, 17, 3, 114}, {18, 18, 3, 114}, {19, 19, 1, 114}, {10, 20, 1, 115}, {11, 21, 3, 115}, {12, 22, 3, 115}, {13, 23, 3, 115}, {14, 24, 6, 115}, {15, 25, 3, 115}, {16, 26, 1, 115}, {17, 27, 3, 115}, {18, 28, 3, 115}, {19, 29, 1, 115}, {10, 21, 1, 116}, {11, 23, 3, 116}, {12, 24, 3, 116}, {13, 26, 3, 116}, {14, 27, 6, 116}, {15, 28, 3, 116}, {16, 30, 1, 116}, {17, 31, 3, 116}, {18, 32, 3, 116}, {19, 33, 1, 116}, {10, 22, 1, 117}, {11, 24, 3, 117}, {12, 25, 3, 117}, {13, 27, 3, 117}, {14, 28, 6, 117}, {15, 29, 3, 117}, {16, 31, 1, 117}, {17, 32, 3, 117}, {18, 33, 3, 117}, {19, 34, 1, 117}, {20, 20, 1, 118}, {21, 21, 4, 118}, {22, 22, 4, 118}, {23, 23, 6, 118}, {24, 24, 12, 118}, {25, 25, 6, 118}, {26, 26, 4, 118}, {27, 27, 12, 118}, {28, 28, 12, 118}, {29, 29, 4, 118}, {30, 30, 1, 118}, {31, 31, 4, 118}, {32, 32, 6, 118}, {33, 33, 4, 118}, {34, 34, 1, 118}, {35, 35, 1, 119}, {36, 36, 5, 119}, {37, 37, 5, 119}, {38, 38, 10, 119}, {39, 39, 20, 119}, {40, 40, 10, 119}, {41, 41, 10, 119}, {42, 42, 30, 119}, {43, 43, 30, 119}, {44, 44, 10, 119}, {45, 45, 5, 119}, {46, 46, 20, 119}, {47, 47, 30, 119}, {48, 48, 20, 119}, {49, 49, 5, 119}, {50, 50, 1, 119}, {51, 51, 5, 119}, {52, 52, 10, 119}, {53, 53, 10, 119}, {54, 54, 5, 119}, {55, 55, 1, 119}, {0, 56, 1, 120}, {1, 57, 1, 121}, {2, 58, 1, 121}, {3, 59, 1, 121}, {1, 60, 1, 122}, {2, 61, 1, 122}, {3, 62, 1, 122}, {1, 61, 1, 123}, {2, 63, 1, 123}, {3, 64, 1, 123}, {1, 62, 1, 124}, {2, 64, 1, 124}, {3, 65, 1, 124}, {4, 57, 1, 125}, {5, 58, 1, 125}, {6, 59, 1, 125}, {5, 57, 1, 126}, {7, 58, 1, 126}, {8, 59, 1, 126}, {6, 57, 1, 127}, {8, 58, 1, 127}, {9, 59, 1, 127}, {4, 60, 1, 128}, {5, 61, 2, 128}, {6, 62, 2, 128}, {7, 63, 1, 128}, {8, 64, 2, 128}, {9, 65, 1, 128}, {10, 66, 1, 129}, {11, 67, 3, 129}, {12, 68, 3, 129}, {13, 69, 3, 129}, {14, 70, 6, 129}, {15, 71, 3, 129}, {16, 72, 1, 129}, {17, 73, 3, 129}, {18, 74, 3, 129}, {19, 75, 1, 129}, {0, 76, 1, 130}, {1, 77, 1, 131}, {2, 78, 1, 131}, {3, 79, 1, 131}, {56, 56, 1, 132}, {57, 57, 1, 133}, {58, 58, 1, 133}, {59, 59, 1, 133}, {0, 81, 1, 134}, {0, 82, 1, 135}, {0, 98, 1, 136}, {0, 114, 1, 137}, {0, 118, 1, 138}, {1, 83, 1, 139}, {2, 84, 1, 139}, {3, 85, 1, 139}, {1, 86, 1, 140}, {2, 87, 1, 140}, {3, 88, 1, 140}, {1, 87, 1, 141}, {2, 89, 1, 141}, {3, 90, 1, 141}, {1, 88, 1, 142}, {2, 90, 1, 142}, {3, 91, 1, 142}, {1, 92, 1, 143}, {2, 93, 1, 143}, {3, 94, 1, 143}, {1, 93, 1, 144}, {2, 95, 1, 144}, {3, 96, 1, 144}, {1, 94, 1, 145}, {2, 96, 1, 145}, {3, 97, 1, 145}, {1, 99, 1, 146}, {2, 100, 1, 146}, {3, 101, 1, 146}, {1, 115, 1, 147}, {2, 116, 1, 147}, {3, 117, 1, 147}, {4, 102, 1, 148}, {5, 103, 2, 148}, {6, 104, 2, 148}, {7, 105, 1, 148}, {8, 106, 2, 148}, {9, 107, 1, 148}, {4, 92, 1, 149}, {5, 93, 2, 149}, {6, 94, 2, 149}, {7, 95, 1, 149}, {8, 96, 2, 149}, {9, 97, 1, 149}, {4, 108, 1, 150}, {5, 109, 2, 150}, {6, 110, 2, 150}, {7, 111, 1, 150}, {8, 112, 2, 150}, {9, 113, 1, 150}, {0, 120, 1, 151}, {0, 121, 1, 152}, {0, 128, 1, 153}, {1, 122, 1, 154}, {2, 123, 1, 154}, {3, 124, 1, 154}, {56, 82, 1, 155}, {1, 125, 1, 156}, {2, 126, 1, 156}, {3, 127, 1, 156}, {56, 98, 1, 157}, {0, 130, 1, 158}, {0, 132, 1, 159}, {82, 82, 1, 160}, {82, 98, 1, 161}, {0, 134, 1, 162}, {0, 135, 1, 163}, {0, 136, 1, 164}, {0, 137, 1, 165}, {0, 139, 1, 166}, {0, 146, 1, 167}, {0, 149, 1, 168}, {1, 140, 1, 169}, {2, 141, 1, 169}, {3, 142, 1, 169}, {1, 143, 1, 170}, {2, 144, 1, 170}, {3, 145, 1, 170}, {0, 151, 1, 171}, {0, 152, 1, 172}, {0, 155, 1, 173}}
alpha_scalar_moments = 52
alpha_moment_mapping = {0, 56, 76, 80, 81, 82, 98, 114, 118, 119, 120, 121, 128, 129, 130, 131, 132, 133, 134, 135, 136, 137, 138, 139, 146, 147, 148, 149, 150, 151, 152, 153, 154, 155, 156, 157, 158, 159, 162, 163, 164, 165, 166, 167, 168, 169, 160, 170, 161, 171, 172, 173}
species_coeffs = {-6.79557789158344, -6.766306233841203, -8.29575580503067, -8.073473716271886}
moment_coeffs = {-9.694688343032965, 9.361167892153496, -1.670350214033099, 1.326302501545664, -3.175412007518268, -13.09886854299938, 36.41419747197727, 25.40095661805766, 0.9612548272763114, 11.97368401764068, -7.645676147600564, 18.13917706499848, -9.791693203934626, -16.15972479529304, -0.8579415003213958, 6.203132868589037, 2.228878115199061, -0.000106141957135284, 7.021628202064372, 20.19742124852484, -35.51644495093613, -29.42050321141121, 7.172303576453888, 10.50601806627308, -28.88723063608017, 2.25718779297773, 2.26354585356162, -7.606860155853704, -15.71779386138483, 3.156750025129774, -9.741920775294668, -0.1826420678681049, -3.844723115812451, 3.750589668645568, -0.2414305811522467, 3.017553177486016, 0.9553186380221189, -0.9187098038628938, -2.183355878898889, -6.626658628012476, 7.400595730304575, 8.778092234154968, -12.70123696657331, 17.47550529740913, 2.124291523190929, 1.665409821900167, -2.086765927916308, 9.904042946506278, -1.602507355220172, -0.5180270144746255, 1.388888733745117, -1.496616510141144}
