MTP
version = 1.1.0
potential_name = MTP1m
scaling = 1.432130129271475e-01
species_count = 4
potential_tag =
radial_basis_type = RBChebyshev
	min_dist = 2.129760000000000e+00
	max_dist = 5.000000000000000e+00
	radial_basis_size = 8
	radial_funcs_count = 4
	radial_coeffs
		0-0
			{-1.673669752501468e-01, -4.940834871301829e-02, -9.810225639740483e-02, -1.173191393158779e-02, -4.892286340866327e-02, 6.547697455811933e-03, 1.247990845372199e-02, -1.842975603015940e-03}
			{5.341070008970759e-02, 1.146325832469268e-02, 2.085640483526767e-02, -8.329529537473053e-02, -1.049448633448493e-01, -7.066161389524786e-02, -8.378273941565442e-03, -3.932303884565066e-02}
			{-4.703732848541899e-02, 6.417281121584773e-05, 2.746242512364412e-02, 6.897670894997628e-02, 2.258908926729308e-02, -1.472346744957126e-01, -3.744281222066968e-02, 7.436653054953817e-02}
			{3.599185567240654e-02, 6.741473642491208e-02, -1.132182500154947e-01, -1.260091900727587e-01, 1.007928173338333e-01, 9.698702270201359e-02, -7.465184332443602e-02, -8.124069003227050e-02}
		0-1
			{-1.466270140805009e-01, -1.229488626435400e-01, -3.567761739013903e-02, 1.699622867181134e-03, 2.112241088957343e-02, 4.131110643122199e-02, 1.885767594745396e-02, -2.249958460050816e-02}
			{-6.724277200861936e-02, -9.917678816351463e-03, -4.716747282126049e-02, -3.126631025018402e-02, 4.057425673924293e-02, 5.964734128730576e-02, 8.447086445291718e-04, -3.360040445119111e-02}
			{-1.351747614389901e-01, -8.674130660729900e-03, 1.309777977612813e-01, 3.179592511110378e-02, -6.360005460704454e-02, -6.976289869710371e-02, 3.157031942541114e-02, 1.015798939503577e-01}
			{-8.470519180534253e-02, -1.078155422016668e-02, 5.207310706291486e-02, 4.296802457895952e-03, -3.850109003416100e-02, 6.084040737244235e-03, 4.673774842508076e-02, 4.758344511135528e-02}
		0-2
			{-1.836184685608721e-01, -1.379832974060676e-01, -4.193181620298497e-02, 2.976812328976180e-02, 1.311638205527559e-01, 5.950118195826038e-02, 5.906381202424048e-02, 3.632845218014627e-02}
			{1.471109692580583e-01, 8.530660889534247e-02, -9.702135066615522e-02, -2.280632623872833e-02, 3.467937732264819e-02, -5.105774261819180e-03, 1.032644582447096e-02, -1.926489005038298e-02}
			{-4.406235837285255e-02, -2.451252234308789e-02, 4.884486148554466e-02, 5.377902218298079e-02, 2.523096257346728e-02, -5.084502329529559e-02, -6.136354468209170e-02, 5.257319642353443e-03}
			{-1.801447679951117e-01, -4.347037333747738e-02, 1.344174619450482e-01, 8.313610940128149e-02, -7.197512266852929e-02, -2.906509834757858e-02, 3.377703870117003e-02, 3.151034740732947e-02}
		0-3
			{7.802942130913254e-02, 3.411634229810766e-02, -3.425487744091525e-03, -1.460967080631589e-02, -3.582021444007193e-02, -3.078459581244368e-02, -1.265305492351843e-02, -7.079901640098271e-04}
			{-1.552406657814029e-01, -6.443665306045362e-02, -9.070905881244035e-02, -7.328367283875289e-02, -6.551986024319174e-02, -4.990295712775854e-02, -1.809949779870570e-02, 1.123067810713698e-04}
			{-2.842764825088853e-02, -9.596453169148240e-02, -7.704966295102214e-02, 1.875568117318974e-01, 3.122557524736498e-02, 1.015512616215160e-02, -3.833571360195058e-02, 8.567908610675887e-03}
			{1.644127183878851e-02, 5.187686264923771e-02, -1.530273592875186e-01, -5.971402446420818e-02, 1.514086728778866e-02, 1.236941702187432e-01, 4.983168183496409e-02, 1.454219007554262e-02}
		1-0
			{1.150871921514977e-03, -4.310121992728717e-02, 1.001801737874282e-01, 1.468364979860972e-01, 6.248415353539370e-02, 1.057248938992037e-01, 3.801947416153365e-02, -5.854245293039061e-04}
			{-3.396832316838016e-01, -1.973820131636606e-02, 8.003273210444935e-02, 3.880319220989017e-02, 9.264565743949470e-02, 8.822353756781985e-02, -4.375524391832735e-02, -6.666662936489573e-02}
			{-9.303849979648142e-02, -4.192200779485108e-02, 8.038096683907524e-02, 4.250238361684620e-02, -4.525263925631628e-04, -2.602615780679316e-02, -7.433897839294274e-03, -6.315008225928249e-02}
			{-7.356978951984564e-02, -5.436023742912738e-02, 1.316380773326783e-02, 5.707618307131381e-02, -3.818338325001210e-02, -1.307609818169947e-02, 3.257410141614799e-02, 3.603861044653310e-02}
		1-1
			{-9.808351424991637e-04, -6.278144712613772e-02, 2.647077445844976e-02, 8.977522098425599e-02, 6.235518202690641e-02, 1.413055690092799e-02, 4.169929048166147e-02, 3.329518880910907e-02}
			{-4.417617672193524e-02, 1.144508036779550e-01, 6.051049285707558e-02, 7.350577645364977e-02, -1.324917578347900e-02, -1.321006124189248e-01, -1.458814327967163e-01, 2.271768154324810e-02}
			{-4.286536595997074e-02, -9.423421293965104e-03, 7.112157300727515e-02, -5.983517996037781e-03, -8.833280175919590e-03, -1.099365399888281e-02, -9.922849091702874e-03, 6.218750025361636e-03}
			{-3.709794144328865e-02, -4.613936439325772e-02, 2.266543240210984e-02, 9.613373160480725e-02, -3.052094921347364e-02, -1.307577501967456e-02, -9.068099954661687e-05, 1.164471354516898e-02}
		1-2
			{-2.785655247447098e-02, -4.477019646694845e-02, 8.990672073785537e-02, 7.817426569778868e-02, 5.797486326884087e-03, -1.961414613472345e-02, -4.014646622868233e-02, -4.306077451052016e-02}
			{-8.063541355924604e-02, 1.344680165555854e-01, 8.259776341937511e-02, 4.155519036801044e-02, -4.489347285572125e-02, -3.874078568852287e-02, -2.666247958522400e-03, -1.720855637804675e-02}
			{-5.983808409270509e-02, -1.909342933455719e-02, 7.943720397681502e-02, -2.524300905188963e-03, 6.322941291196479e-03, 1.120361795472388e-02, -2.233626248359829e-03, -1.944846582396217e-02}
			{-4.579263355958371e-02, -6.745263783793072e-02, 1.176889583188506e-02, 1.271605757915321e-01, -4.761784638898836e-03, 1.627363762652930e-03, 1.023430793090995e-02, 1.075217531990004e-02}
		1-3
			{1.990845736202633e-01, -1.268504719199311e-01, 1.143265255436208e-02, 1.464901337362771e-02, -4.243203193698855e-02, -4.190707073376922e-02, -2.213076170207846e-02, 6.798618534013872e-04}
			{1.587899435451597e-01, 1.830994268150032e-01, -8.381094168311255e-02, 5.304781830295994e-02, 1.752857247510478e-02, 1.446244820529060e-02, -1.021722955602428e-02, 5.696230626531364e-03}
			{-1.495497411789561e-01, 6.410249363569695e-02, 8.395356778353091e-02, -5.705238534876744e-02, 1.959525081056973e-02, 2.640395673793805e-02, 4.709298343214747e-02, 9.213318509742363e-03}
			{-1.161765195014323e-01, 1.918029988013587e-02, -1.774496580016411e-02, 1.337597336326085e-01, 9.501145399339704e-03, -4.155231927387352e-03, 3.854683052092073e-02, -9.696006491928902e-02}
		2-0
			{-4.397881556251805e-02, -1.755217305749309e-01, 4.180833661288461e-03, 1.319252183230392e-01, 3.472402972075173e-02, 1.088632994488011e-01, 2.359542102270901e-02, 3.465996418755722e-02}
			{-3.010658988010531e-01, 1.404967395000207e-01, 1.166532272426699e-01, -5.525095162986442e-02, 3.784877846535416e-02, 1.251237567025931e-01, -2.588705091019598e-02, -1.205952453262832e-02}
			{1.205391980946877e-01, 3.569494025729376e-02, 1.377168552573812e-02, -2.666999583140274e-02, -3.696012938827431e-03, -9.227183833923051e-02, 1.692033423638838e-02, 6.362983456291234e-02}
			{-7.256905314699003e-02, -5.036360679115243e-02, 6.302993905741650e-02, 1.463959253680400e-01, -5.613420093939413e-02, -6.799521557091208e-02, 3.836118747688177e-02, 5.297155812323982e-02}
		2-1
			{2.177967281057731e-02, -3.338958167898044e-02, 9.794874572458384e-02, 3.892974736967100e-02, -5.358561901965607e-02, 8.243295119716170e-03, 1.066921050105212e-01, 6.248356972643215e-02}
			{-7.755437625962253e-02, 2.008853426477731e-01, 8.773575574584150e-02, 3.448652045736302e-02, -6.280966538104762e-02, -3.511852043819504e-02, 3.924354829553571e-02, 1.248022186942605e-02}
			{-4.686410129387454e-02, -1.610475921761200e-02, 8.870728769405516e-02, -2.092634856386183e-02, 1.193382394502357e-02, 1.478579633535540e-02, -6.475880892372446e-03, -1.355004547921879e-02}
			{-7.001175051984651e-02, -1.008502647167922e-01, 1.747650813424649e-02, 1.943251033352222e-01, 7.570472454039888e-03, -8.169998147184346e-03, -2.278273367145087e-02, -2.787579886482368e-03}
		2-2
			{5.207706358340047e-02, -7.464077708659135e-02, 3.938685066187779e-02, 1.087410210874258e-01, 7.453905051239072e-02, -2.171500197326858e-02, -8.169582925575716e-02, -4.974708478855551e-02}
			{6.065450961894760e-02, 2.584079142790762e-01, -1.283948475263741e-02, -3.522446917396246e-02, -2.561155542698468e-02, 4.902518960823353e-03, 2.871567485778206e-02, 2.533553727800151e-02}
			{-7.428787154084503e-02, -1.696534984150485e-02, 1.232470448333364e-01, -2.020023040602644e-02, -1.501893791905842e-02, 2.988423152132534e-03, 1.677441016556221e-02, 1.459099945187218e-02}
			{-8.026182302122166e-02, -1.006778641593900e-01, 3.122091498269959e-02, 1.911866749479300e-01, -2.346705768451739e-02, 7.416674808071184e-03, 2.833493774805163e-02, 2.051928849953645e-02}
		2-3
			{2.562136432365391e-01, 1.300286957790248e-02, 1.212791056001777e-01, 4.028203248276071e-02, 8.675691041748406e-03, -6.455670194010833e-03, -1.398052744170800e-02, -9.991409884990875e-03}
			{-4.956823371875420e-02, 1.409257946865733e-01, -2.629336868280461e-02, 9.676254367863388e-02, 9.778998401070192e-02, 1.299975711618122e-01, 7.772815352705904e-02, 3.439402002320199e-02}
			{-1.466442466365052e-01, -7.894403684802276e-02, 7.025617890139681e-02, 5.203567053196272e-02, 1.283777426565393e-01, 3.787780074629810e-02, 8.579104960487118e-03, -8.068899853994163e-03}
			{-1.071695861029420e-01, 8.464592761472840e-03, -1.043948938070009e-01, 1.423498339395274e-01, 2.545279233718224e-02, 4.974341661128960e-02, 4.338624986398339e-02, -3.450419832134047e-03}
		3-0
			{1.559670915958733e-01, 1.121251923785522e-01, 1.123198867803622e-01, 7.730278250228297e-02, 4.649847235135810e-02, 2.299162975939314e-02, 1.147440574241354e-02, 2.762639305505795e-03}
			{-1.483882070805306e-01, -1.352442327840297e-01, -7.044361305680141e-02, -4.318534352394857e-02, -9.836714995192217e-03, -9.911807960477907e-03, -2.004506956799173e-03, -4.355445506841487e-03}
			{-2.833620256842289e-01, 5.275628321883747e-02, 1.256992344248398e-01, 7.850577378277716e-03, 4.350260234683163e-02, -3.819921794243765e-02, -3.262064174819321e-02, -3.176059420851362e-02}
			{-1.290575311863783e-01, 4.957737604283752e-02, -1.351229396955689e-01, 6.710793285806618e-02, -1.249955352437432e-02, 9.849570845026080e-02, 5.332204089091401e-02, 8.559512894401506e-03}
		3-1
			{2.764646600600191e-01, -1.001294691692536e-02, 3.199548243034381e-02, 3.654473325995090e-02, -5.959713050597231e-03, -1.164288041401040e-02, -1.507529877285540e-02, 5.467285559117410e-03}
			{8.438670150338523e-02, 2.446274527412493e-01, 7.404231069050567e-02, 4.041807820066764e-02, -4.167830419013638e-02, -3.820739540476658e-02, -7.682934982688266e-03, 2.496892200789456e-02}
			{9.829058409509346e-02, -1.035305462252123e-01, 1.163145922140624e-01, 8.149111672536852e-02, -1.083535851193022e-01, 3.192301964202425e-02, -2.052775615905622e-02, 1.453453891603230e-01}
			{-1.241144581487890e-01, -9.407121841854241e-02, 1.410550687661307e-02, 2.789658899075518e-01, -2.600044332917319e-02, 1.826718020062027e-02, 2.517967763482920e-02, -7.101503059963667e-02}
		3-2
			{4.174033194328158e-01, 9.227049081909271e-02, 1.229231792885997e-01, 1.884158830339742e-02, -5.641064460824311e-02, -8.599735518057236e-02, -6.001813575169369e-02, -2.024562029560376e-02}
			{-2.732694154882857e-02, 6.893618096588494e-02, 3.142941895921190e-02, 8.110965574683664e-02, 4.136730889905244e-02, 2.397200323260567e-02, 1.007651281117264e-02, 1.992167958457566e-02}
			{1.818620606299449e-01, -4.341670373789097e-01, 3.659200472017864e-01, -9.975194128906884e-02, 7.401459850848212e-02, 1.139902863845453e-01, 1.408249310192452e-02, -1.253070000203733e-02}
			{-1.316778280293722e-01, -1.216226182046768e-01, -2.627002117174315e-02, 2.154918065951167e-01, 2.369978360881872e-02, 7.761339117691730e-02, 3.303635300529879e-02, -1.187444795763439e-02}
		3-3
			{-1.569957902666314e-01, 2.200249949706919e-01, -1.430959552504260e-01, 8.529234622317169e-02, -8.025799856291919e-02, 3.779149177651454e-02, -2.011233225085383e-02, 6.891576962578003e-03}
			{2.929988114178029e-02, 2.405954036153722e-01, 1.258349263187731e-02, 5.511819280295296e-02, -3.505709665282067e-02, 2.140850199668145e-02, -1.634695571695665e-02, 3.418004801670671e-03}
			{2.112448793687311e-01, -3.246197703916074e-02, 3.533662268969961e-02, 8.534250713542406e-02, -1.260213965356635e-01, 6.061750483536839e-02, -4.405414113441260e-02, 2.086669586149760e-02}
			{-2.002268299863719e-01, 1.825032370716237e-01, -1.313680902516166e-01, 2.385639649940208e-02, 3.711661108915154e-01, -8.485143743873251e-02, 1.247638537966317e-01, -1.925877374986153e-02}
alpha_moments_count = 174
alpha_index_basic_count = 81
alpha_index_basic = {{0, 0, 0, 0}, {0, 1, 0, 0}, {0, 0, 1, 0}, {0, 0, 0, 1}, {0, 2, 0, 0}, {0, 1, 1, 0}, {0, 1, 0, 1}, {0, 0, 2, 0}, {0, 0, 1, 1}, {0, 0, 0, 2}, {0, 3, 0, 0}, {0, 2, 1, 0}, {0, 2, 0, 1}, {0, 1, 2, 0}, {0, 1, 1, 1}, {0, 1, 0, 2}, {0, 0, 3, 0}, {0, 0, 2, 1}, {0, 0, 1, 2}, {0, 0, 0, 3}, {0, 4, 0, 0}, {0, 3, 1, 0}, {0, 3, 0, 1}, {0, 2, 2, 0}, {0, 2, 1, 1}, {0, 2, 0, 2}, {0, 1, 3, 0}, {0, 1, 2, 1}, {0, 1, 1, 2}, {0, 1, 0, 3}, {0, 0, 4, 0}, {0, 0, 3, 1}, {0, 0, 2, 2}, {0, 0, 1, 3}, {0, 0, 0, 4}, {0, 5, 0, 0}, {0, 4, 1, 0}, {0, 4, 0, 1}, {0, 3, 2, 0}, {0, 3, 1, 1}, {0, 3, 0, 2}, {0, 2, 3, 0}, {0, 2, 2, 1}, {0, 2, 1, 2}, {0, 2, 0, 3}, {0, 1, 4, 0}, {0, 1, 3, 1}, {0, 1, 2, 2}, {0, 1, 1, 3}, {0, 1, 0, 4}, {0, 0, 5, 0}, {0, 0, 4, 1}, {0, 0, 3, 2}, {0, 0, 2, 3}, {0, 0, 1, 4}, {0, 0, 0, 5}, {1, 0, 0, 0}, {1, 1, 0, 0}, {1, 0, 1, 0}, {1, 0, 0, 1}, {1, 2, 0, 0}, {1, 1, 1, 0}, {1, 1, 0, 1}, {1, 0, 2, 0}, {1, 0, 1, 1}, {1, 0, 0, 2}, {1, 3, 0, 0}, {1, 2, 1, 0}, {1, 2, 0, 1}, {1, 1, 2, 0}, {1, 1, 1, 1}, {1, 1, 0, 2}, {1, 0, 3, 0}, {1, 0, 2, 1}, {1, 0, 1, 2}, {1, 0, 0, 3}, {2, 0, 0, 0}, {2, 1, 0, 0}, {2, 0, 1, 0}, {2, 0, 0, 1}, {3, 0, 0, 0}}
alpha_index_times_count = 348
alpha_index_times = {{0, 0, 1, 81}, {1, 1, 1, 82}, {2, 2, 1, 82}, {3, 3, 1, 82}, {1, 4, 1, 83}, {2, 5, 1, 83}, {3, 6, 1, 83}, {1, 5, 1, 84}, {2, 7, 1, 84}, {3, 8, 1, 84}, {1, 6, 1, 85}, {2, 8, 1, 85}, {3, 9, 1, 85}, {1, 10, 1, 86}, {2, 11, 1, 86}, {3, 12, 1, 86}, {1, 11, 1, 87}, {2, 13, 1, 87}, {3, 14, 1, 87}, {1, 12, 1, 88}, {2, 14, 1, 88}, {3, 15, 1, 88}, {1, 13, 1, 89}, {2, 16, 1, 89}, {3, 17, 1, 89}, {1, 14, 1, 90}, {2, 17, 1, 90}, {3, 18, 1, 90}, {1, 15, 1, 91}, {2, 18, 1, 91}, {3, 19, 1, 91}, {4, 4, 1, 92}, {5, 5, 1, 92}, {6, 6, 1, 92}, {4, 5, 1, 93}, {5, 7, 1, 93}, {6, 8, 1, 93}, {4, 6, 1, 94}, {5, 8, 1, 94}, {6, 9, 1, 94}, {5, 5, 1, 95}, {7, 7, 1, 95}, {8, 8, 1, 95}, {5, 6, 1, 96}, {7, 8, 1, 96}, {8, 9, 1, 96}, {6, 6, 1, 97}, {8, 8, 1, 97}, {9, 9, 1, 97}, {4, 4, 1, 98}, {5, 5, 2, 98}, {6, 6, 2, 98}, {7, 7, 1, 98}, {8, 8, 2, 98}, {9, 9, 1, 98}, {4, 10, 1, 99}, {5, 11, 2, 99}, {6, 12, 2, 99}, {7, 13, 1, 99}, {8, 14, 2, 99}, {9, 15, 1, 99}, {4, 11, 1, 100}, {5, 13, 2, 100}, {6, 14, 2, 100}, {7, 16, 1, 100}, {8, 17, 2, 100}, {9, 18, 1, 100}, {4, 12, 1, 101}, {5, 14, 2, 101}, {6, 15, 2, 101}, {7, 17, 1, 101}, {8, 18, 2, 101}, {9, 19, 1, 101}, {4, 20, 1, 102}, {5, 21, 2, 102}, {6, 22, 2, 102}, {7, 23, 1, 102}, {8, 24, 2, 102}, {9, 25, 1, 102}, {4, 21, 1, 103}, {5, 23, 2, 103}, {6, 24, 2, 103}, {7, 26, 1, 103}, {8, 27, 2, 103}, {9, 28, 1, 103}, {4, 22, 1, 104}, {5, 24, 2, 104}, {6, 25, 2, 104}, {7, 27, 1, 104}, {8, 28, 2, 104}, {9, 29, 1, 104}, {4, 23, 1, 105}, {5, 26, 2, 105}, {6, 27, 2, 105}, {7, 30, 1, 105}, {8, 31, 2, 105}, {9, 32, 1, 105}, {4, 24, 1, 106}, {5, 27, 2, 106}, {6, 28, 2, 106}, {7, 31, 1, 106}, {8, 32, 2, 106}, {9, 33, 1, 106}, {4, 25, 1, 107}, {5, 28, 2, 107}, {6, 29, 2, 107}, {7, 32, 1, 107}, {8, 33, 2, 107}, {9, 34, 1, 107}, {10, 10, 1, 108}, {11, 11, 2, 108}, {12, 12, 2, 108}, {13, 13, 1, 108}, {14, 14, 2, 108}, {15, 15, 1, 108}, {10, 11, 1, 109}, {11, 13, 2, 109}, {12, 14, 2, 109}, {13, 16, 1, 109}, {14, 17, 2, 109}, {15, 18, 1, 109}, {10, 12, 1, 110}, {11, 14, 2, 110}, {12, 15, 2, 110}, {13, 17, 1, 110}, {14, 18, 2, 110}, {15, 19, 1, 110}, {11, 11, 1, 111}, {13, 13, 2, 111}, {14, 14, 2, 111}, {16, 16, 1, 111}, {17, 17, 2, 111}, {18, 18, 1, 111}, {11, 12, 1, 112}, {13, 14, 2, 112}, {14, 15, 2, 112}, {16, 17, 1, 112}, {17, 18, 2, 112}, {18, 19, 1, 112}, {12, 12, 1, 113}, {14, 14, 2, 113}, {15, 15, 2, 113}, {17, 17, 1, 113}, {18, 18, 2, 113}, {19, 19, 1, 113}, {10, 10, 1, 114}, {11, 11, 3, 114}, {12, 12, 3, 114}, {13, 13, 3, 114}, {14, 14, 6, 114}, {15, 15, 3, 114}, {16, 16, 1, 114}, {17, 17, 3, 114}, {18, 18, 3, 114}, {19, 19, 1, 114}, {10, 20, 1, 115}, {11, 21, 3, 115}, {12, 22, 3, 115}, {13, 23, 3, 115}, {14, 24, 6, 115}, {15, 25, 3, 115}, {16, 26, 1, 115}, {17, 27, 3, 115}, {18, 28, 3, 115}, {19, 29, 1, 115}, {10, 21, 1, 116}, {11, 23, 3, 116}, {12, 24, 3, 116}, {13, 26, 3, 116}, {14, 27, 6, 116}, {15, 28, 3, 116}, {16, 30, 1, 116}, {17, 31, 3, 116}, {18, 32, 3, 116}, {19, 33, 1, 116}, {10, 22, 1, 117}, {11, 24, 3, 117}, {12, 25, 3, 117}, {13, 27, 3, 117}, {14, 28, 6, 117}, {15, 29, 3, 117}, {16, 31, 1, 117}, {17, 32, 3, 117}, {18, 33, 3, 117}, {19, 34, 1, 117}, {20, 20, 1, 118}, {21, 21, 4, 118}, {22, 22, 4, 118}, {23, 23, 6, 118}, {24, 24, 12, 118}, {25, 25, 6, 118}, {26, 26, 4, 118}, {27, 27, 12, 118}, {28, 28, 12, 118}, {29, 29, 4, 118}, {30, 30, 1, 118}, {31, 31, 4, 118}, {32, 32, 6, 118}, {33, 33, 4, 118}, {34, 34, 1, 118}, {35, 35, 1, 119}, {36, 36, 5, 119}, {37, 37, 5, 119}, {38, 38, 10, 119}, {39, 39, 20, 119}, {40, 40, 10, 119}, {41, 41, 10, 119}, {42, 42, 30, 119}, {43, 43, 30, 119}, {44, 44, 10, 119}, {45, 45, 5, 119}, {46, 46, 20, 119}, {47, 47, 30, 119}, {48, 48, 20, 119}, {49, 49, 5, 119}, {50, 50, 1, 119}, {51, 51, 5, 119}, {52, 52, 10, 119}, {53, 53, 10, 119}, {54, 54, 5, 119}, {55, 55, 1, 119}, {0, 56, 1, 120}, {1, 57, 1, 121}, {2, 58, 1, 121}, {3, 59, 1, 121}, {1, 60, 1, 122}, {2, 61, 1, 122}, {3, 62, 1, 122}, {1, 61, 1, 123}, {2, 63, 1, 123}, {3, 64, 1, 123}, {1, 62, 1, 124}, {2, 64, 1, 124}, {3, 65, 1, 124}, {4, 57, 1, 125}, {5, 58, 1, 125}, {6, 59, 1, 125}, {5, 57, 1, 126}, {7, 58, 1, 126}, {8, 59, 1, 126}, {6, 57, 1, 127}, {8, 58, 1, 127}, {9, 59, 1, 127}, {4, 60, 1, 128}, {5, 61, 2, 128}, {6, 62, 2, 128}, {7, 63, 1, 128}, {8, 64, 2, 128}, {9, 65, 1, 128}, {10, 66, 1, 129}, {11, 67, 3, 129}, {12, 68, 3, 129}, {13, 69, 3, 129}, {14, 70, 6, 129}, {15, 71, 3, 129}, {16, 72, 1, 129}, {17, 73, 3, 129}, {18, 74, 3, 129}, {19, 75, 1, 129}, {0, 76, 1, 130}, {1, 77, 1, 131}, {2, 78, 1, 131}, {3, 79, 1, 131}, {56, 56, 1, 132}, {57, 57, 1, 133}, {58, 58, 1, 133}, {59, 59, 1, 133}, {0, 81, 1, 134}, {0, 82, 1, 135}, {0, 98, 1, 136}, {0, 114, 1, 137}, {0, 118, 1, 138}, {1, 83, 1, 139}, {2, 84, 1, 139}, {3, 85, 1, 139}, {1, 86, 1, 140}, {2, 87, 1, 140}, {3, 88, 1, 140}, {1, 87, 1, 141}, {2, 89, 1, 141}, {3, 90, 1, 141}, {1, 88, 1, 142}, {2, 90, 1, 142}, {3, 91, 1, 142}, {1, 92, 1, 143}, {2, 93, 1, 143}, {3, 94, 1, 143}, {1, 93, 1, 144}, {2, 95, 1, 144}, {3, 96, 1, 144}, {1, 94, 1, 145}, {2, 96, 1, 145}, {3, 97, 1, 145}, {1, 99, 1, 146}, {2, 100, 1, 146}, {3, 101, 1, 146}, {1, 115, 1, 147}, {2, 116, 1, 147}, {3, 117, 1, 147}, {4, 102, 1, 148}, {5, 103, 2, 148}, {6, 104, 2, 148}, {7, 105, 1, 148}, {8, 106, 2, 148}, {9, 107, 1, 148}, {4, 92, 1, 149}, {5, 93, 2, 149}, {6, 94, 2, 149}, {7, 95, 1, 149}, {8, 96, 2, 149}, {9, 97, 1, 149}, {4, 108, 1, 150}, {5, 109, 2, 150}, {6, 110, 2, 150}, {7, 111, 1, 150}, {8, 112, 2, 150}, {9, 113, 1, 150}, {0, 120, 1, 151}, {0, 121, 1, 152}, {0, 128, 1, 153}, {1, 122, 1, 154}, {2, 123, 1, 154}, {3, 124, 1, 154}, {56, 82, 1, 155}, {1, 125, 1, 156}, {2, 126, 1, 156}, {3, 127, 1, 156}, {56, 98, 1, 157}, {0, 130, 1, 158}, {0, 132, 1, 159}, {82, 82, 1, 160}, {82, 98, 1, 161}, {0, 134, 1, 162}, {0, 135, 1, 163}, {0, 136, 1, 164}, {0, 137, 1, 165}, {0, 139, 1, 166}, {0, 146, 1, 167}, {0, 149, 1, 168}, {1, 140, 1, 169}, {2, 141, 1, 169}, {3, 142, 1, 169}, {1, 143, 1, 170}, {2, 144, 1, 170}, {3, 145, 1, 170}, {0, 151, 1, 171}, {0, 152, 1, 172}, {0, 155, 1, 173}}
alpha_scalar_moments = 52
alpha_moment_mapping = {0, 56, 76, 80, 81, 82, 98, 114, 118, 119, 120, 121, 128, 129, 130, 131, 132, 133, 134, 135, 136, 137, 138, 139, 146, 147, 148, 149, 150, 151, 152, 153, 154, 155, 156, 157, 158, 159, 162, 163, 164, 165, 166, 167, 168, 169, 160, 170, 161, 171, 172, 173}
species_coeffs = {-1.574744339426491, -14.0951658909699, -4.627683196818273, -0.5784603996022839}
moment_coeffs = {-9.298992706832937, 1.989728467714144, -0.7762619934827322, -0.7963799380114329, 6.625606264676392, -2.859039899255722, 0.3386034247050117, -1.146562556339556, -5.718719814828622, -4.044721362444222, -10.85119319597185, -7.950576916615869, -1.189964955423514, 0.702083139057528, 0.1225872359946599, 1.805051882796435, 1.799671621072213, -0.2052392963971313, -0.7473274399459084, 6.721868651310633, 4.626902913219354, 3.623451386435616, 1.267917829842682, -5.222786104340688, 6.221552709326286, -5.271517185875735, 3.937007828469896, -2.339266801674544, -0.8485907034827506, 10.48095042689898, 14.87125391645555, 1.971213396488571, 2.894857223329008, -6.155216967769301, -1.012992783796149, -1.986817900788936, 0.5593184195751777, -1.37634022982662, 0.1179806591672636, -3.015607685513326, -2.254445260003137, -1.27977077180688, 12.15144467502274, -4.926790630965198, -0.03353649439930022, -0.9738781906978639, 4.012042099261421, -12.22971441312477, 0.5423532673675381, -2.958071163511631, -5.411306683209507, 3.049392788932632}
