MTP
version = 1.1.0
potential_name = MTP1m
scaling = 4.958056852136249e-02
species_count = 2
potential_tag =
radial_basis_type = RBChebyshev
	min_dist = 1.997290000000000e+00
	max_dist = 5.000000000000000e+00
	radial_basis_size = 8
	radial_funcs_count = 2
	radial_coeffs
		0-0
			{2.256190764464164e-01, 2.015147778397129e-01, 1.310797466184217e-01, 8.445022098862855e-02, 4.228439465605696e-02, 1.890635076139598e-02, 3.123510336814065e-03, 7.040090307235103e-04}
			{-1.875951557780156e-02, 3.697647943990813e-02, 9.534667251384903e-03, 9.252444952405885e-03, 2.516650383200187e-03, 2.769517581990507e-03, 2.595542392808827e-04, 2.479366456193096e-05}
		0-1
			{2.259565011002861e-01, 1.162642589306258e-01, 9.936829667450012e-02, 9.162895942461319e-02, 4.230027238647567e-02, 1.962987212556716e-02, 6.096010350398447e-03, 1.602467781936469e-03}
			{3.066023128057796e-01, 5.600426634355038e-01, 8.073391833732452e-02, 1.278215304856152e-01, 1.395090371100390e-01, 8.401735089320503e-02, 1.059512372512734e-02, -1.057729992878931e-03}
		1-0
			{1.945126275520047e-01, 4.254017837106691e-02, -3.386559398469258e-02, -1.056128580121763e-02, 1.301903629574870e-02, 2.149175177347116e-02, 7.166345125901548e-03, 1.342641783045903e-03}
			{-4.245769948855800e-01, -5.290135513812676e-01, -9.099824746368874e-02, -1.272824588544378e-01, -1.508105659191253e-01, -8.793352648175846e-02, -1.089238384110668e-02, 1.697043375721382e-03}
		1-1
			{1.834048965638988e-02, 5.822319149732297e-01, -1.923126881868550e-01, 5.094959011608736e-01, -1.018246421994532e-01, 3.093769738599103e-01, -3.175529657229187e-02, 1.112708770815789e-01}
			{-1.326938326459830e-01, -4.782245366437696e-02, -3.264703988870925e-02, -5.834081702476391e-02, -1.691029613864878e-02, -3.095061603090593e-02, -5.508033408153854e-03, -1.037364778502697e-02}
alpha_moments_count = 18
alpha_index_basic_count = 11
alpha_index_basic = {{0, 0, 0, 0}, {0, 1, 0, 0}, {0, 0, 1, 0}, {0, 0, 0, 1}, {0, 2, 0, 0}, {0, 1, 1, 0}, {0, 1, 0, 1}, {0, 0, 2, 0}, {0, 0, 1, 1}, {0, 0, 0, 2}, {1, 0, 0, 0}}
alpha_index_times_count = 14
alpha_index_times = {{0, 0, 1, 11}, {1, 1, 1, 12}, {2, 2, 1, 12}, {3, 3, 1, 12}, {4, 4, 1, 13}, {5, 5, 2, 13}, {6, 6, 2, 13}, {7, 7, 1, 13}, {8, 8, 2, 13}, {9, 9, 1, 13}, {0, 10, 1, 14}, {0, 11, 1, 15}, {0, 12, 1, 16}, {0, 15, 1, 17}}
alpha_scalar_moments = 9
alpha_moment_mapping = {0, 10, 11, 12, 13, 14, 15, 16, 17}
species_coeffs = {25.29874177648387, 67.56225776163144}
moment_coeffs = {-452.2798752849853, -100.1615357347914, 1165.78903417224, -506.517908452924, -33.56078754791899, 22.81659637926146, -1243.427424893105, 597.38575622809, 487.2427794894361}