MTP
version = 1.1.0
potential_name = MTP1m
scaling = 5.408789293239544e-02
species_count = 2
potential_tag =
radial_basis_type = RBChebyshev
	min_dist = 1.997290000000000e+00
	max_dist = 5.000000000000000e+00
	radial_basis_size = 8
	radial_funcs_count = 2
	radial_coeffs
		0-0
			{1.325637619193514e-01, 1.157994514849821e-01, 7.964871687340952e-02, 4.906957602483930e-02, 2.616905890464693e-02, 1.513441030170303e-02, 3.672846865823882e-03, 7.732913679410786e-04}
			{-7.643866204713291e-03, 2.048594800828423e-02, 5.255887338925120e-03, 5.794125382643229e-03, 9.201845313307215e-04, 2.013921502386664e-03, 2.261666137172871e-04, 1.191141171647741e-05}
		0-1
			{1.944213131041809e-01, 1.295819124918837e-01, 1.249984361079306e-01, 1.035768240680799e-01, 6.266832982375735e-02, 3.419681021676589e-02, 1.390924727187399e-02, 3.353281679507581e-03}
			{-7.748784821360233e-02, -1.596747667589984e-01, -5.582688972979953e-01, -3.128838669760961e-01, -1.241399705612753e-01, -8.529562162803249e-02, -8.193577487579728e-02, -3.706153996846833e-02}
		1-0
			{2.105977936009450e-01, 1.536631437336745e-01, 8.995371237737149e-02, 6.074155729442565e-02, 5.690760867895318e-02, 4.492442482702776e-02, 2.176561212451349e-02, 6.484527768873471e-03}
			{2.283487625899386e-02, 1.969568293302813e-01, 5.676388923363925e-01, 3.273582157703995e-01, 1.252704764251769e-01, 8.999937081320956e-02, 8.524212183314182e-02, 3.868140907050575e-02}
		1-1
			{7.096588349296257e-02, 1.893122473329347e-01, -2.642841132359426e-01, 5.376647289412412e-01, -3.651813402089115e-01, 4.604744910915710e-01, -1.335134948688468e-01, 1.566846045448367e-01}
			{-1.308068274435702e-01, 5.461674124238333e-02, -7.479569543209880e-02, 5.578792533160151e-03, -2.362210208576059e-02, -8.463597662677192e-03, -3.787192797531941e-03, -3.614680092716521e-03}
alpha_moments_count = 18
alpha_index_basic_count = 11
alpha_index_basic = {{0, 0, 0, 0}, {0, 1, 0, 0}, {0, 0, 1, 0}, {0, 0, 0, 1}, {0, 2, 0, 0}, {0, 1, 1, 0}, {0, 1, 0, 1}, {0, 0, 2, 0}, {0, 0, 1, 1}, {0, 0, 0, 2}, {1, 0, 0, 0}}
alpha_index_times_count = 14
alpha_index_times = {{0, 0, 1, 11}, {1, 1, 1, 12}, {2, 2, 1, 12}, {3, 3, 1, 12}, {4, 4, 1, 13}, {5, 5, 2, 13}, {6, 6, 2, 13}, {7, 7, 1, 13}, {8, 8, 2, 13}, {9, 9, 1, 13}, {0, 10, 1, 14}, {0, 11, 1, 15}, {0, 12, 1, 16}, {0, 15, 1, 17}}
alpha_scalar_moments = 9
alpha_moment_mapping = {0, 10, 11, 12, 13, 14, 15, 16, 17}
species_coeffs = {-35.65556578189138, -106.5424422832861}
moment_coeffs = {208.7218283315597, -105.5264810668611, -467.6950988584725, -510.3230642161103, -2.444299902205445, 16.94694665541843, 476.1653887571973, 794.3766712198897, -184.2441193616722}
