<GAP_2020_3_19_-420_18_20_29_102>
<Potential init_args="IP GAP label=GAP_2020_3_19_-420_18_20_29_102" label="GAP_2020_3_19_-420_18_20_29_102" />
<GAP_params gap_version="1575630686" label="GAP_2020_3_19_-420_18_20_29_102">
  <GAP_data do_core="F">
    <e0 Z="1" value="-.96999999999999997" />
    <e0 Z="2" value="-.96999999999999997" />
    <e0 Z="3" value="-.96999999999999997" />
    <e0 Z="4" value="-.96999999999999997" />
    <e0 Z="5" value="-.96999999999999997" />
    <e0 Z="6" value="-.96999999999999997" />
    <e0 Z="7" value="-.96999999999999997" />
    <e0 Z="8" value="-.96999999999999997" />
    <e0 Z="9" value="-.96999999999999997" />
    <e0 Z="10" value="-.96999999999999997" />
    <e0 Z="11" value="-.96999999999999997" />
    <e0 Z="12" value="-.96999999999999997" />
    <e0 Z="13" value="-.96999999999999997" />
    <e0 Z="14" value="-.96999999999999997" />
    <e0 Z="15" value="-.96999999999999997" />
    <e0 Z="16" value="-.96999999999999997" />
    <e0 Z="17" value="-.96999999999999997" />
    <e0 Z="18" value="-.96999999999999997" />
    <e0 Z="19" value="-.96999999999999997" />
    <e0 Z="20" value="-.96999999999999997" />
    <e0 Z="21" value="-.96999999999999997" />
    <e0 Z="22" value="-.96999999999999997" />
    <e0 Z="23" value="-.96999999999999997" />
    <e0 Z="24" value="-.96999999999999997" />
    <e0 Z="25" value="-.96999999999999997" />
    <e0 Z="26" value="-.96999999999999997" />
    <e0 Z="27" value="-.96999999999999997" />
    <e0 Z="28" value="-.96999999999999997" />
    <e0 Z="29" value="-.96999999999999997" />
    <e0 Z="30" value="-.96999999999999997" />
    <e0 Z="31" value="-.96999999999999997" />
    <e0 Z="32" value="-.96999999999999997" />
    <e0 Z="33" value="-.96999999999999997" />
    <e0 Z="34" value="-.96999999999999997" />
    <e0 Z="35" value="-.96999999999999997" />
    <e0 Z="36" value="-.96999999999999997" />
    <e0 Z="37" value="-.96999999999999997" />
    <e0 Z="38" value="-.96999999999999997" />
    <e0 Z="39" value="-.96999999999999997" />
    <e0 Z="40" value="-.96999999999999997" />
    <e0 Z="41" value="-.96999999999999997" />
    <e0 Z="42" value="-.96999999999999997" />
    <e0 Z="43" value="-.96999999999999997" />
    <e0 Z="44" value="-.96999999999999997" />
    <e0 Z="45" value="-.96999999999999997" />
    <e0 Z="46" value="-.96999999999999997" />
    <e0 Z="47" value="-.96999999999999997" />
    <e0 Z="48" value="-.96999999999999997" />
    <e0 Z="49" value="-.96999999999999997" />
    <e0 Z="50" value="-.96999999999999997" />
    <e0 Z="51" value="-.96999999999999997" />
    <e0 Z="52" value="-.96999999999999997" />
    <e0 Z="53" value="-.96999999999999997" />
    <e0 Z="54" value="-.96999999999999997" />
    <e0 Z="55" value="-.96999999999999997" />
    <e0 Z="56" value="-.96999999999999997" />
    <e0 Z="57" value="-.96999999999999997" />
    <e0 Z="58" value="-.96999999999999997" />
    <e0 Z="59" value="-.96999999999999997" />
    <e0 Z="60" value="-.96999999999999997" />
    <e0 Z="61" value="-.96999999999999997" />
    <e0 Z="62" value="-.96999999999999997" />
    <e0 Z="63" value="-.96999999999999997" />
    <e0 Z="64" value="-.96999999999999997" />
    <e0 Z="65" value="-.96999999999999997" />
    <e0 Z="66" value="-.96999999999999997" />
    <e0 Z="67" value="-.96999999999999997" />
    <e0 Z="68" value="-.96999999999999997" />
    <e0 Z="69" value="-.96999999999999997" />
    <e0 Z="70" value="-.96999999999999997" />
    <e0 Z="71" value="-.96999999999999997" />
    <e0 Z="72" value="-.96999999999999997" />
    <e0 Z="73" value="-.96999999999999997" />
    <e0 Z="74" value="-.96999999999999997" />
    <e0 Z="75" value="-.96999999999999997" />
    <e0 Z="76" value="-.96999999999999997" />
    <e0 Z="77" value="-.96999999999999997" />
    <e0 Z="78" value="-.96999999999999997" />
    <e0 Z="79" value="-.96999999999999997" />
    <e0 Z="80" value="-.96999999999999997" />
    <e0 Z="81" value="-.96999999999999997" />
    <e0 Z="82" value="-.96999999999999997" />
    <e0 Z="83" value="-.96999999999999997" />
    <e0 Z="84" value="-.96999999999999997" />
    <e0 Z="85" value="-.96999999999999997" />
    <e0 Z="86" value="-.96999999999999997" />
    <e0 Z="87" value="-.96999999999999997" />
    <e0 Z="88" value="-.96999999999999997" />
    <e0 Z="89" value="-.96999999999999997" />
    <e0 Z="90" value="-.96999999999999997" />
    <e0 Z="91" value="-.96999999999999997" />
    <e0 Z="92" value="-.96999999999999997" />
    <e0 Z="93" value="-.96999999999999997" />
    <e0 Z="94" value="-.96999999999999997" />
    <e0 Z="95" value="-.96999999999999997" />
    <e0 Z="96" value="-.96999999999999997" />
    <e0 Z="97" value="-.96999999999999997" />
    <e0 Z="98" value="-.96999999999999997" />
    <e0 Z="99" value="-.96999999999999997" />
    <e0 Z="100" value="-.96999999999999997" />
    <e0 Z="101" value="-.96999999999999997" />
    <e0 Z="102" value="-.96999999999999997" />
    <e0 Z="103" value="-.96999999999999997" />
    <e0 Z="104" value="-.96999999999999997" />
    <e0 Z="105" value="-.96999999999999997" />
    <e0 Z="106" value="-.96999999999999997" />
    <e0 Z="107" value="-.96999999999999997" />
    <e0 Z="108" value="-.96999999999999997" />
    <e0 Z="109" value="-.96999999999999997" />
    <e0 Z="110" value="-.96999999999999997" />
    <e0 Z="111" value="-.96999999999999997" />
    <e0 Z="112" value="-.96999999999999997" />
    <e0 Z="113" value="-.96999999999999997" />
    <e0 Z="114" value="-.96999999999999997" />
    <e0 Z="115" value="-.96999999999999997" />
    <e0 Z="116" value="-.96999999999999997" />
    <e0 Z="117" value="-.96999999999999997" />
    <e0 Z="118" value="-.96999999999999997" />
  </GAP_data>
  <gpSparse label="GAP_2020_3_19_-420_18_20_29_102" n_coordinate="2">
    <gpCoordinates covariance_type="2" dimensions="1225" label="GAP_2020_3_19_-420_18_20_29_1021" n_permutations="1" n_sparseX="200" signal_mean=".00000000000000000E+000" signal_variance="1.0000000000000000" sparseX_filename="Ni.soapparam" sparseX_md5sum="ded4919e8f7804772bff79ab9e776c1b" sparsified="T" zeta="4.0000000000000000">
      <descriptor>soap l_max=8 n_max=8 atom_sigma=0.5 zeta=4 cutoff=5.0 cutoff_transition_width=0.5 delta=1.0 f0=0.0 n_sparse=200 covariance_type=dot_product sparse_method=cur_points               n_species=2 Z=28 species_Z={28 42 }</descriptor>
      <permutation i="1">1  </permutation>
      <sparseX alpha="60.430679387003572" i="1" sparseCutoff="1.0000000000000000" />
      <sparseX alpha="-18.529238713181801" i="2" sparseCutoff="1.0000000000000000" />
      <sparseX alpha="115.13875272402468" i="3" sparseCutoff="1.0000000000000000" />
      <sparseX alpha="-47.731778745285098" i="4" sparseCutoff="1.0000000000000000" />
      <sparseX alpha="-261.42394014477600" i="5" sparseCutoff="1.0000000000000000" />
      <sparseX alpha="-144.61451371372570" i="6" sparseCutoff="1.0000000000000000" />
      <sparseX alpha="260.99930929173416" i="7" sparseCutoff="1.0000000000000000" />
      <sparseX alpha="119.19080642794545" i="8" sparseCutoff="1.0000000000000000" />
      <sparseX alpha="-124.48524399065111" i="9" sparseCutoff="1.0000000000000000" />
      <sparseX alpha="81.840802639754273" i="10" sparseCutoff="1.0000000000000000" />
      <sparseX alpha="68.875097854579550" i="11" sparseCutoff="1.0000000000000000" />
      <sparseX alpha="-3.5413787225007236" i="12" sparseCutoff="1.0000000000000000" />
      <sparseX alpha="5.9302705690399833" i="13" sparseCutoff="1.0000000000000000" />
      <sparseX alpha="-108.98115647586705" i="14" sparseCutoff="1.0000000000000000" />
      <sparseX alpha="-81.375684836248780" i="15" sparseCutoff="1.0000000000000000" />
      <sparseX alpha="47.204032519477309" i="16" sparseCutoff="1.0000000000000000" />
      <sparseX alpha="116.12755600083558" i="17" sparseCutoff="1.0000000000000000" />
      <sparseX alpha="-46.274289771731858" i="18" sparseCutoff="1.0000000000000000" />
      <sparseX alpha="4.7842669640512483" i="19" sparseCutoff="1.0000000000000000" />
      <sparseX alpha="51.189685584041939" i="20" sparseCutoff="1.0000000000000000" />
      <sparseX alpha="-69.685929498515918" i="21" sparseCutoff="1.0000000000000000" />
      <sparseX alpha="2.7526118076264190" i="22" sparseCutoff="1.0000000000000000" />
      <sparseX alpha="66.638191380508289" i="23" sparseCutoff="1.0000000000000000" />
      <sparseX alpha="-87.583456615657738" i="24" sparseCutoff="1.0000000000000000" />
      <sparseX alpha="-9.2030457077350114" i="25" sparseCutoff="1.0000000000000000" />
      <sparseX alpha="34.255915451696509" i="26" sparseCutoff="1.0000000000000000" />
      <sparseX alpha="-38.910225750781116" i="27" sparseCutoff="1.0000000000000000" />
      <sparseX alpha="84.153849960337780" i="28" sparseCutoff="1.0000000000000000" />
      <sparseX alpha="-8.7604195500836042" i="29" sparseCutoff="1.0000000000000000" />
      <sparseX alpha="20.912919517868716" i="30" sparseCutoff="1.0000000000000000" />
      <sparseX alpha="-56.916962886377995" i="31" sparseCutoff="1.0000000000000000" />
      <sparseX alpha="102.13362207450979" i="32" sparseCutoff="1.0000000000000000" />
      <sparseX alpha="-87.417163624549289" i="33" sparseCutoff="1.0000000000000000" />
      <sparseX alpha="59.352471034429136" i="34" sparseCutoff="1.0000000000000000" />
      <sparseX alpha="-20.186742642587472" i="35" sparseCutoff="1.0000000000000000" />
      <sparseX alpha="57.086357742371376" i="36" sparseCutoff="1.0000000000000000" />
      <sparseX alpha="-9.5241247114374481" i="37" sparseCutoff="1.0000000000000000" />
      <sparseX alpha="60.409306044242065" i="38" sparseCutoff="1.0000000000000000" />
      <sparseX alpha="-89.200958491469549" i="39" sparseCutoff="1.0000000000000000" />
      <sparseX alpha="89.838549899951332" i="40" sparseCutoff="1.0000000000000000" />
      <sparseX alpha="82.418127048852213" i="41" sparseCutoff="1.0000000000000000" />
      <sparseX alpha="-87.356134312133008" i="42" sparseCutoff="1.0000000000000000" />
      <sparseX alpha="15.747104739096756" i="43" sparseCutoff="1.0000000000000000" />
      <sparseX alpha="28.271463209013380" i="44" sparseCutoff="1.0000000000000000" />
      <sparseX alpha="28.621684982615324" i="45" sparseCutoff="1.0000000000000000" />
      <sparseX alpha="58.263961487418378" i="46" sparseCutoff="1.0000000000000000" />
      <sparseX alpha="16.335750913417030" i="47" sparseCutoff="1.0000000000000000" />
      <sparseX alpha="-21.180304218748354" i="48" sparseCutoff="1.0000000000000000" />
      <sparseX alpha="-46.018438517651639" i="49" sparseCutoff="1.0000000000000000" />
      <sparseX alpha="-40.006273860530840" i="50" sparseCutoff="1.0000000000000000" />
      <sparseX alpha="38.331687577747047" i="51" sparseCutoff="1.0000000000000000" />
      <sparseX alpha="105.71092413340796" i="52" sparseCutoff="1.0000000000000000" />
      <sparseX alpha="-22.228461016296155" i="53" sparseCutoff="1.0000000000000000" />
      <sparseX alpha="29.299279577244764" i="54" sparseCutoff="1.0000000000000000" />
      <sparseX alpha="-54.153084011231627" i="55" sparseCutoff="1.0000000000000000" />
      <sparseX alpha="60.140344677193632" i="56" sparseCutoff="1.0000000000000000" />
      <sparseX alpha="32.554521082719411" i="57" sparseCutoff="1.0000000000000000" />
      <sparseX alpha="-84.447414518126550" i="58" sparseCutoff="1.0000000000000000" />
      <sparseX alpha="52.695645277120079" i="59" sparseCutoff="1.0000000000000000" />
      <sparseX alpha="44.092588656459171" i="60" sparseCutoff="1.0000000000000000" />
      <sparseX alpha="-40.814941232667948" i="61" sparseCutoff="1.0000000000000000" />
      <sparseX alpha="50.543325929196286" i="62" sparseCutoff="1.0000000000000000" />
      <sparseX alpha="-7.0603286094243636" i="63" sparseCutoff="1.0000000000000000" />
      <sparseX alpha="-31.535084293390948" i="64" sparseCutoff="1.0000000000000000" />
      <sparseX alpha="-54.222415679621534" i="65" sparseCutoff="1.0000000000000000" />
      <sparseX alpha="-8.0144287410553474" i="66" sparseCutoff="1.0000000000000000" />
      <sparseX alpha="65.435095815264532" i="67" sparseCutoff="1.0000000000000000" />
      <sparseX alpha="-83.661175038338115" i="68" sparseCutoff="1.0000000000000000" />
      <sparseX alpha="36.979266831792287" i="69" sparseCutoff="1.0000000000000000" />
      <sparseX alpha="9.9647342180692107" i="70" sparseCutoff="1.0000000000000000" />
      <sparseX alpha="14.171465822866100" i="71" sparseCutoff="1.0000000000000000" />
      <sparseX alpha="63.142016749116507" i="72" sparseCutoff="1.0000000000000000" />
      <sparseX alpha="-14.065882734556858" i="73" sparseCutoff="1.0000000000000000" />
      <sparseX alpha="-50.051153817616523" i="74" sparseCutoff="1.0000000000000000" />
      <sparseX alpha="-29.450184657711635" i="75" sparseCutoff="1.0000000000000000" />
      <sparseX alpha="12.808941573423242" i="76" sparseCutoff="1.0000000000000000" />
      <sparseX alpha="46.348932332671218" i="77" sparseCutoff="1.0000000000000000" />
      <sparseX alpha="-4.9777684557489801" i="78" sparseCutoff="1.0000000000000000" />
      <sparseX alpha="63.178511729260691" i="79" sparseCutoff="1.0000000000000000" />
      <sparseX alpha="-83.883301012628010" i="80" sparseCutoff="1.0000000000000000" />
      <sparseX alpha="20.944024696350930" i="81" sparseCutoff="1.0000000000000000" />
      <sparseX alpha="85.416806231672282" i="82" sparseCutoff="1.0000000000000000" />
      <sparseX alpha="41.934005171012686" i="83" sparseCutoff="1.0000000000000000" />
      <sparseX alpha="40.944460262393619" i="84" sparseCutoff="1.0000000000000000" />
      <sparseX alpha="54.016474216181557" i="85" sparseCutoff="1.0000000000000000" />
      <sparseX alpha="38.857874582931849" i="86" sparseCutoff="1.0000000000000000" />
      <sparseX alpha="-57.570021083673723" i="87" sparseCutoff="1.0000000000000000" />
      <sparseX alpha="-47.492769745424134" i="88" sparseCutoff="1.0000000000000000" />
      <sparseX alpha="-77.522553195861221" i="89" sparseCutoff="1.0000000000000000" />
      <sparseX alpha="-124.13758605084998" i="90" sparseCutoff="1.0000000000000000" />
      <sparseX alpha="-35.901292130953898" i="91" sparseCutoff="1.0000000000000000" />
      <sparseX alpha="19.815713655205084" i="92" sparseCutoff="1.0000000000000000" />
      <sparseX alpha="-233.08389406873437" i="93" sparseCutoff="1.0000000000000000" />
      <sparseX alpha="-139.04423734237017" i="94" sparseCutoff="1.0000000000000000" />
      <sparseX alpha="20.226378171390930" i="95" sparseCutoff="1.0000000000000000" />
      <sparseX alpha="84.980474487692717" i="96" sparseCutoff="1.0000000000000000" />
      <sparseX alpha="170.29528914709994" i="97" sparseCutoff="1.0000000000000000" />
      <sparseX alpha="-48.140574883066328" i="98" sparseCutoff="1.0000000000000000" />
      <sparseX alpha="93.088466874593053" i="99" sparseCutoff="1.0000000000000000" />
      <sparseX alpha="108.80536001693017" i="100" sparseCutoff="1.0000000000000000" />
      <sparseX alpha="-25.853109477510095" i="101" sparseCutoff="1.0000000000000000" />
      <sparseX alpha="-12.267847092865669" i="102" sparseCutoff="1.0000000000000000" />
      <sparseX alpha="-35.219283794453972" i="103" sparseCutoff="1.0000000000000000" />
      <sparseX alpha="16.052014698851714" i="104" sparseCutoff="1.0000000000000000" />
      <sparseX alpha="24.430919231775167" i="105" sparseCutoff="1.0000000000000000" />
      <sparseX alpha="237.31518975546652" i="106" sparseCutoff="1.0000000000000000" />
      <sparseX alpha="-120.31227242480678" i="107" sparseCutoff="1.0000000000000000" />
      <sparseX alpha="-93.422892990944334" i="108" sparseCutoff="1.0000000000000000" />
      <sparseX alpha="183.11421757160986" i="109" sparseCutoff="1.0000000000000000" />
      <sparseX alpha="-247.89869425759011" i="110" sparseCutoff="1.0000000000000000" />
      <sparseX alpha="11.170456103224916" i="111" sparseCutoff="1.0000000000000000" />
      <sparseX alpha="224.07095025781305" i="112" sparseCutoff="1.0000000000000000" />
      <sparseX alpha="26.459288869813680" i="113" sparseCutoff="1.0000000000000000" />
      <sparseX alpha="-33.561662362846086" i="114" sparseCutoff="1.0000000000000000" />
      <sparseX alpha="17.953515713669734" i="115" sparseCutoff="1.0000000000000000" />
      <sparseX alpha="-57.999296480804290" i="116" sparseCutoff="1.0000000000000000" />
      <sparseX alpha="-20.067372880702042" i="117" sparseCutoff="1.0000000000000000" />
      <sparseX alpha="12.039005979275268" i="118" sparseCutoff="1.0000000000000000" />
      <sparseX alpha="28.206845316348520" i="119" sparseCutoff="1.0000000000000000" />
      <sparseX alpha="-93.157036134855275" i="120" sparseCutoff="1.0000000000000000" />
      <sparseX alpha="4.5488880406188743" i="121" sparseCutoff="1.0000000000000000" />
      <sparseX alpha=".12772984450314814" i="122" sparseCutoff="1.0000000000000000" />
      <sparseX alpha="-29.262738462435383" i="123" sparseCutoff="1.0000000000000000" />
      <sparseX alpha="-107.76213590663968" i="124" sparseCutoff="1.0000000000000000" />
      <sparseX alpha="18.019156420636669" i="125" sparseCutoff="1.0000000000000000" />
      <sparseX alpha="117.16567698612135" i="126" sparseCutoff="1.0000000000000000" />
      <sparseX alpha="-14.616741250823351" i="127" sparseCutoff="1.0000000000000000" />
      <sparseX alpha="20.922256975937213" i="128" sparseCutoff="1.0000000000000000" />
      <sparseX alpha="-52.118717646033197" i="129" sparseCutoff="1.0000000000000000" />
      <sparseX alpha="14.783053466496609" i="130" sparseCutoff="1.0000000000000000" />
      <sparseX alpha="5.7370450860768507" i="131" sparseCutoff="1.0000000000000000" />
      <sparseX alpha="27.328048439547253" i="132" sparseCutoff="1.0000000000000000" />
      <sparseX alpha="55.617601104521775" i="133" sparseCutoff="1.0000000000000000" />
      <sparseX alpha="40.982050636291625" i="134" sparseCutoff="1.0000000000000000" />
      <sparseX alpha="1.4983678655449062" i="135" sparseCutoff="1.0000000000000000" />
      <sparseX alpha="-21.467622529692640" i="136" sparseCutoff="1.0000000000000000" />
      <sparseX alpha="-82.588249547085042" i="137" sparseCutoff="1.0000000000000000" />
      <sparseX alpha="-51.853204515433568" i="138" sparseCutoff="1.0000000000000000" />
      <sparseX alpha="-7.8688433305365653" i="139" sparseCutoff="1.0000000000000000" />
      <sparseX alpha="21.949682238465556" i="140" sparseCutoff="1.0000000000000000" />
      <sparseX alpha="-31.096123636411139" i="141" sparseCutoff="1.0000000000000000" />
      <sparseX alpha="-64.458620175670319" i="142" sparseCutoff="1.0000000000000000" />
      <sparseX alpha="22.456091490287026" i="143" sparseCutoff="1.0000000000000000" />
      <sparseX alpha="61.479003714311098" i="144" sparseCutoff="1.0000000000000000" />
      <sparseX alpha="27.270018511272298" i="145" sparseCutoff="1.0000000000000000" />
      <sparseX alpha="-24.467131399423927" i="146" sparseCutoff="1.0000000000000000" />
      <sparseX alpha="2.1367577530555182" i="147" sparseCutoff="1.0000000000000000" />
      <sparseX alpha="68.623415345170869" i="148" sparseCutoff="1.0000000000000000" />
      <sparseX alpha="-67.220960465028526" i="149" sparseCutoff="1.0000000000000000" />
      <sparseX alpha="-19.825319403754911" i="150" sparseCutoff="1.0000000000000000" />
      <sparseX alpha="11.062937253020657" i="151" sparseCutoff="1.0000000000000000" />
      <sparseX alpha="82.021251856061497" i="152" sparseCutoff="1.0000000000000000" />
      <sparseX alpha="10.939548123583453" i="153" sparseCutoff="1.0000000000000000" />
      <sparseX alpha="84.204540129185148" i="154" sparseCutoff="1.0000000000000000" />
      <sparseX alpha="35.767636703839358" i="155" sparseCutoff="1.0000000000000000" />
      <sparseX alpha="-82.037612753013420" i="156" sparseCutoff="1.0000000000000000" />
      <sparseX alpha="-130.02017095984925" i="157" sparseCutoff="1.0000000000000000" />
      <sparseX alpha="-46.523003131687176" i="158" sparseCutoff="1.0000000000000000" />
      <sparseX alpha="56.515290132480999" i="159" sparseCutoff="1.0000000000000000" />
      <sparseX alpha="141.98482664448511" i="160" sparseCutoff="1.0000000000000000" />
      <sparseX alpha="-179.83349387033692" i="161" sparseCutoff="1.0000000000000000" />
      <sparseX alpha="-73.632799598769282" i="162" sparseCutoff="1.0000000000000000" />
      <sparseX alpha="204.18196753262330" i="163" sparseCutoff="1.0000000000000000" />
      <sparseX alpha="-25.469872069147900" i="164" sparseCutoff="1.0000000000000000" />
      <sparseX alpha="-62.568069773953376" i="165" sparseCutoff="1.0000000000000000" />
      <sparseX alpha="-67.102383435515648" i="166" sparseCutoff="1.0000000000000000" />
      <sparseX alpha="-130.98194171941577" i="167" sparseCutoff="1.0000000000000000" />
      <sparseX alpha="-62.412341684044044" i="168" sparseCutoff="1.0000000000000000" />
      <sparseX alpha="11.955468170879662" i="169" sparseCutoff="1.0000000000000000" />
      <sparseX alpha="-41.294758776566212" i="170" sparseCutoff="1.0000000000000000" />
      <sparseX alpha="49.225861623971312" i="171" sparseCutoff="1.0000000000000000" />
      <sparseX alpha="8.7345497969795591" i="172" sparseCutoff="1.0000000000000000" />
      <sparseX alpha="-35.059356261104064" i="173" sparseCutoff="1.0000000000000000" />
      <sparseX alpha="-109.86027817292474" i="174" sparseCutoff="1.0000000000000000" />
      <sparseX alpha="10.030938292684739" i="175" sparseCutoff="1.0000000000000000" />
      <sparseX alpha="-40.936724787168473" i="176" sparseCutoff="1.0000000000000000" />
      <sparseX alpha="-45.362825587562860" i="177" sparseCutoff="1.0000000000000000" />
      <sparseX alpha="-33.032622885296085" i="178" sparseCutoff="1.0000000000000000" />
      <sparseX alpha="79.189904485235814" i="179" sparseCutoff="1.0000000000000000" />
      <sparseX alpha="51.231203537033650" i="180" sparseCutoff="1.0000000000000000" />
      <sparseX alpha="16.990807385906475" i="181" sparseCutoff="1.0000000000000000" />
      <sparseX alpha="-19.042506439074405" i="182" sparseCutoff="1.0000000000000000" />
      <sparseX alpha="-106.24042867404297" i="183" sparseCutoff="1.0000000000000000" />
      <sparseX alpha="84.079197652105591" i="184" sparseCutoff="1.0000000000000000" />
      <sparseX alpha="26.726987989449864" i="185" sparseCutoff="1.0000000000000000" />
      <sparseX alpha="29.687274849249725" i="186" sparseCutoff="1.0000000000000000" />
      <sparseX alpha="-75.772177966721515" i="187" sparseCutoff="1.0000000000000000" />
      <sparseX alpha="-11.377048841915366" i="188" sparseCutoff="1.0000000000000000" />
      <sparseX alpha="-73.433933822180748" i="189" sparseCutoff="1.0000000000000000" />
      <sparseX alpha="123.89477295787431" i="190" sparseCutoff="1.0000000000000000" />
      <sparseX alpha="-.82434936781250606E-001" i="191" sparseCutoff="1.0000000000000000" />
      <sparseX alpha="-46.995635757013858" i="192" sparseCutoff="1.0000000000000000" />
      <sparseX alpha="-12.923711282426876" i="193" sparseCutoff="1.0000000000000000" />
      <sparseX alpha=".58420066548459720E-002" i="194" sparseCutoff="1.0000000000000000" />
      <sparseX alpha="-20.320903616695198" i="195" sparseCutoff="1.0000000000000000" />
      <sparseX alpha="46.129985315354929" i="196" sparseCutoff="1.0000000000000000" />
      <sparseX alpha="-27.707913503270394" i="197" sparseCutoff="1.0000000000000000" />
      <sparseX alpha="8.2307069300085427" i="198" sparseCutoff="1.0000000000000000" />
      <sparseX alpha="14.030193433355484" i="199" sparseCutoff="1.0000000000000000" />
      <sparseX alpha="-26.891938408832949" i="200" sparseCutoff="1.0000000000000000" />
    </gpCoordinates>
    <gpCoordinates covariance_type="2" dimensions="1225" label="GAP_2020_3_19_-420_18_20_29_1022" n_permutations="1" n_sparseX="200" signal_mean=".00000000000000000E+000" signal_variance="1.0000000000000000" sparseX_filename="Mo.soapparam" sparseX_md5sum="a19c3806cba8df57ce4e214b7066fc0f" sparsified="T" zeta="4.0000000000000000">
      <descriptor>soap l_max=8 n_max=8 atom_sigma=0.5 zeta=4 cutoff=5.0 cutoff_transition_width=0.5 delta=1.0 f0=0.0 n_sparse=200 covariance_type=dot_product sparse_method=cur_points               n_species=2 Z=42 species_Z={28 42 }</descriptor>
      <permutation i="1">1  </permutation>
      <sparseX alpha="-484.37444156302229" i="1" sparseCutoff="1.0000000000000000" />
      <sparseX alpha="549.45820681093107" i="2" sparseCutoff="1.0000000000000000" />
      <sparseX alpha="-269.92741534876774" i="3" sparseCutoff="1.0000000000000000" />
      <sparseX alpha="-272.52762980569594" i="4" sparseCutoff="1.0000000000000000" />
      <sparseX alpha="560.36231991325485" i="5" sparseCutoff="1.0000000000000000" />
      <sparseX alpha="1146.6908751077885" i="6" sparseCutoff="1.0000000000000000" />
      <sparseX alpha="-99.836654784913648" i="7" sparseCutoff="1.0000000000000000" />
      <sparseX alpha="-153.20529021976242" i="8" sparseCutoff="1.0000000000000000" />
      <sparseX alpha="-778.37241547460133" i="9" sparseCutoff="1.0000000000000000" />
      <sparseX alpha="75.941266428200052" i="10" sparseCutoff="1.0000000000000000" />
      <sparseX alpha="263.05022577141659" i="11" sparseCutoff="1.0000000000000000" />
      <sparseX alpha="27.706652479298985" i="12" sparseCutoff="1.0000000000000000" />
      <sparseX alpha="-98.153473368352252" i="13" sparseCutoff="1.0000000000000000" />
      <sparseX alpha="26.935702818231896" i="14" sparseCutoff="1.0000000000000000" />
      <sparseX alpha="18.016552752149526" i="15" sparseCutoff="1.0000000000000000" />
      <sparseX alpha="111.15077183881341" i="16" sparseCutoff="1.0000000000000000" />
      <sparseX alpha="-58.606984225581158" i="17" sparseCutoff="1.0000000000000000" />
      <sparseX alpha="214.36553419282134" i="18" sparseCutoff="1.0000000000000000" />
      <sparseX alpha="43.764280088669580" i="19" sparseCutoff="1.0000000000000000" />
      <sparseX alpha="-64.384907787454566" i="20" sparseCutoff="1.0000000000000000" />
      <sparseX alpha="-3.7576489606192585" i="21" sparseCutoff="1.0000000000000000" />
      <sparseX alpha="134.29222413062450" i="22" sparseCutoff="1.0000000000000000" />
      <sparseX alpha="-11.391657731935966" i="23" sparseCutoff="1.0000000000000000" />
      <sparseX alpha="48.201365839430721" i="24" sparseCutoff="1.0000000000000000" />
      <sparseX alpha="20.273541279928459" i="25" sparseCutoff="1.0000000000000000" />
      <sparseX alpha="142.11286958066435" i="26" sparseCutoff="1.0000000000000000" />
      <sparseX alpha="47.781334247763674" i="27" sparseCutoff="1.0000000000000000" />
      <sparseX alpha="-40.037994909976206" i="28" sparseCutoff="1.0000000000000000" />
      <sparseX alpha="-249.99973611864908" i="29" sparseCutoff="1.0000000000000000" />
      <sparseX alpha="-58.206404176020378" i="30" sparseCutoff="1.0000000000000000" />
      <sparseX alpha="-93.449573658705489" i="31" sparseCutoff="1.0000000000000000" />
      <sparseX alpha="-48.976981490204274" i="32" sparseCutoff="1.0000000000000000" />
      <sparseX alpha="82.122661403368042" i="33" sparseCutoff="1.0000000000000000" />
      <sparseX alpha="23.210335193030783" i="34" sparseCutoff="1.0000000000000000" />
      <sparseX alpha="-16.245153377545563" i="35" sparseCutoff="1.0000000000000000" />
      <sparseX alpha="-58.153824609982607" i="36" sparseCutoff="1.0000000000000000" />
      <sparseX alpha="-29.902761402248021" i="37" sparseCutoff="1.0000000000000000" />
      <sparseX alpha="32.136761423862232" i="38" sparseCutoff="1.0000000000000000" />
      <sparseX alpha="84.500401014049828" i="39" sparseCutoff="1.0000000000000000" />
      <sparseX alpha="94.605246810851611" i="40" sparseCutoff="1.0000000000000000" />
      <sparseX alpha="44.859419680994876" i="41" sparseCutoff="1.0000000000000000" />
      <sparseX alpha="-36.738284935179976" i="42" sparseCutoff="1.0000000000000000" />
      <sparseX alpha="-183.83822085631684" i="43" sparseCutoff="1.0000000000000000" />
      <sparseX alpha="41.743737075229326" i="44" sparseCutoff="1.0000000000000000" />
      <sparseX alpha="63.759897048475104" i="45" sparseCutoff="1.0000000000000000" />
      <sparseX alpha="-29.581387905215756" i="46" sparseCutoff="1.0000000000000000" />
      <sparseX alpha="37.111308126378347" i="47" sparseCutoff="1.0000000000000000" />
      <sparseX alpha="-55.722053635362869" i="48" sparseCutoff="1.0000000000000000" />
      <sparseX alpha="-7.7200763544266469" i="49" sparseCutoff="1.0000000000000000" />
      <sparseX alpha="104.13710539442759" i="50" sparseCutoff="1.0000000000000000" />
      <sparseX alpha="112.89667697793320" i="51" sparseCutoff="1.0000000000000000" />
      <sparseX alpha="101.41542819665349" i="52" sparseCutoff="1.0000000000000000" />
      <sparseX alpha="77.550671125589844" i="53" sparseCutoff="1.0000000000000000" />
      <sparseX alpha="-19.724424078496778" i="54" sparseCutoff="1.0000000000000000" />
      <sparseX alpha="-113.59241955520291" i="55" sparseCutoff="1.0000000000000000" />
      <sparseX alpha="63.237564690924117" i="56" sparseCutoff="1.0000000000000000" />
      <sparseX alpha="-218.06813351429491" i="57" sparseCutoff="1.0000000000000000" />
      <sparseX alpha="55.420205158237295" i="58" sparseCutoff="1.0000000000000000" />
      <sparseX alpha="7.9031681890377659" i="59" sparseCutoff="1.0000000000000000" />
      <sparseX alpha="214.73058634790570" i="60" sparseCutoff="1.0000000000000000" />
      <sparseX alpha="70.298376407898473" i="61" sparseCutoff="1.0000000000000000" />
      <sparseX alpha="36.449405445848228" i="62" sparseCutoff="1.0000000000000000" />
      <sparseX alpha="65.238594685125662" i="63" sparseCutoff="1.0000000000000000" />
      <sparseX alpha="-172.67929115686448" i="64" sparseCutoff="1.0000000000000000" />
      <sparseX alpha="-155.09778649034945" i="65" sparseCutoff="1.0000000000000000" />
      <sparseX alpha="-44.833139039436858" i="66" sparseCutoff="1.0000000000000000" />
      <sparseX alpha="-229.94499082793686" i="67" sparseCutoff="1.0000000000000000" />
      <sparseX alpha="4.9158744447375398" i="68" sparseCutoff="1.0000000000000000" />
      <sparseX alpha="37.728005586716208" i="69" sparseCutoff="1.0000000000000000" />
      <sparseX alpha="-98.111133807082112" i="70" sparseCutoff="1.0000000000000000" />
      <sparseX alpha="125.21824558919337" i="71" sparseCutoff="1.0000000000000000" />
      <sparseX alpha="99.933775256790057" i="72" sparseCutoff="1.0000000000000000" />
      <sparseX alpha="-11.181068036199020" i="73" sparseCutoff="1.0000000000000000" />
      <sparseX alpha="23.919165993647194" i="74" sparseCutoff="1.0000000000000000" />
      <sparseX alpha="94.795582395270486" i="75" sparseCutoff="1.0000000000000000" />
      <sparseX alpha="82.799320170612205" i="76" sparseCutoff="1.0000000000000000" />
      <sparseX alpha="78.604330549605663" i="77" sparseCutoff="1.0000000000000000" />
      <sparseX alpha="8.2533171422504044" i="78" sparseCutoff="1.0000000000000000" />
      <sparseX alpha="-27.846567181146529" i="79" sparseCutoff="1.0000000000000000" />
      <sparseX alpha="32.844546634385424" i="80" sparseCutoff="1.0000000000000000" />
      <sparseX alpha="253.03096661364413" i="81" sparseCutoff="1.0000000000000000" />
      <sparseX alpha="-92.888974110765687" i="82" sparseCutoff="1.0000000000000000" />
      <sparseX alpha="86.831879427344347" i="83" sparseCutoff="1.0000000000000000" />
      <sparseX alpha="110.29189156381797" i="84" sparseCutoff="1.0000000000000000" />
      <sparseX alpha="59.763051509249394" i="85" sparseCutoff="1.0000000000000000" />
      <sparseX alpha="-89.560282251169625" i="86" sparseCutoff="1.0000000000000000" />
      <sparseX alpha="-63.116916571922296" i="87" sparseCutoff="1.0000000000000000" />
      <sparseX alpha="25.581110917912167" i="88" sparseCutoff="1.0000000000000000" />
      <sparseX alpha="-12.749877040142058" i="89" sparseCutoff="1.0000000000000000" />
      <sparseX alpha="69.463938081940597" i="90" sparseCutoff="1.0000000000000000" />
      <sparseX alpha="51.388865999438700" i="91" sparseCutoff="1.0000000000000000" />
      <sparseX alpha="-103.30369721022834" i="92" sparseCutoff="1.0000000000000000" />
      <sparseX alpha="-19.640014035201606" i="93" sparseCutoff="1.0000000000000000" />
      <sparseX alpha="-81.396838035829106" i="94" sparseCutoff="1.0000000000000000" />
      <sparseX alpha="-69.075531415103001" i="95" sparseCutoff="1.0000000000000000" />
      <sparseX alpha="-38.732216814046900" i="96" sparseCutoff="1.0000000000000000" />
      <sparseX alpha="-46.232565172886517" i="97" sparseCutoff="1.0000000000000000" />
      <sparseX alpha="242.80383950823588" i="98" sparseCutoff="1.0000000000000000" />
      <sparseX alpha="7.9248448174341863" i="99" sparseCutoff="1.0000000000000000" />
      <sparseX alpha="30.904806482144554" i="100" sparseCutoff="1.0000000000000000" />
      <sparseX alpha="122.90205834335457" i="101" sparseCutoff="1.0000000000000000" />
      <sparseX alpha="71.225299204760645" i="102" sparseCutoff="1.0000000000000000" />
      <sparseX alpha="-95.039560337285351" i="103" sparseCutoff="1.0000000000000000" />
      <sparseX alpha="144.13684689626078" i="104" sparseCutoff="1.0000000000000000" />
      <sparseX alpha="-77.525297827430137" i="105" sparseCutoff="1.0000000000000000" />
      <sparseX alpha="24.034517309552776" i="106" sparseCutoff="1.0000000000000000" />
      <sparseX alpha="-335.43955817523420" i="107" sparseCutoff="1.0000000000000000" />
      <sparseX alpha="78.641462245063636" i="108" sparseCutoff="1.0000000000000000" />
      <sparseX alpha="105.81471290026212" i="109" sparseCutoff="1.0000000000000000" />
      <sparseX alpha="255.42638268336495" i="110" sparseCutoff="1.0000000000000000" />
      <sparseX alpha="455.84039927746454" i="111" sparseCutoff="1.0000000000000000" />
      <sparseX alpha="-187.67848615346014" i="112" sparseCutoff="1.0000000000000000" />
      <sparseX alpha="200.05093394998579" i="113" sparseCutoff="1.0000000000000000" />
      <sparseX alpha="-116.82477080595876" i="114" sparseCutoff="1.0000000000000000" />
      <sparseX alpha="-179.18399451937429" i="115" sparseCutoff="1.0000000000000000" />
      <sparseX alpha="-185.66085314636302" i="116" sparseCutoff="1.0000000000000000" />
      <sparseX alpha="-65.594821735931035" i="117" sparseCutoff="1.0000000000000000" />
      <sparseX alpha="24.185388945640049" i="118" sparseCutoff="1.0000000000000000" />
      <sparseX alpha="312.37835091845949" i="119" sparseCutoff="1.0000000000000000" />
      <sparseX alpha="-753.32011742038935" i="120" sparseCutoff="1.0000000000000000" />
      <sparseX alpha="108.61756332898972" i="121" sparseCutoff="1.0000000000000000" />
      <sparseX alpha="-425.94237979461769" i="122" sparseCutoff="1.0000000000000000" />
      <sparseX alpha="-26.066561813590219" i="123" sparseCutoff="1.0000000000000000" />
      <sparseX alpha="34.034014935822356" i="124" sparseCutoff="1.0000000000000000" />
      <sparseX alpha="-72.605576168695563" i="125" sparseCutoff="1.0000000000000000" />
      <sparseX alpha="76.586045711547527" i="126" sparseCutoff="1.0000000000000000" />
      <sparseX alpha="41.449245938722271" i="127" sparseCutoff="1.0000000000000000" />
      <sparseX alpha="40.098400478124539" i="128" sparseCutoff="1.0000000000000000" />
      <sparseX alpha="-214.54188943899686" i="129" sparseCutoff="1.0000000000000000" />
      <sparseX alpha="24.623773507733670" i="130" sparseCutoff="1.0000000000000000" />
      <sparseX alpha="51.967446056173422" i="131" sparseCutoff="1.0000000000000000" />
      <sparseX alpha="11.958801525317959" i="132" sparseCutoff="1.0000000000000000" />
      <sparseX alpha="-11.627452890366746" i="133" sparseCutoff="1.0000000000000000" />
      <sparseX alpha="47.200039883535574" i="134" sparseCutoff="1.0000000000000000" />
      <sparseX alpha="-72.192846936276112" i="135" sparseCutoff="1.0000000000000000" />
      <sparseX alpha="-66.873920730204304" i="136" sparseCutoff="1.0000000000000000" />
      <sparseX alpha="58.675840484408496" i="137" sparseCutoff="1.0000000000000000" />
      <sparseX alpha="102.07972853735350" i="138" sparseCutoff="1.0000000000000000" />
      <sparseX alpha="37.272810000051223" i="139" sparseCutoff="1.0000000000000000" />
      <sparseX alpha="-25.199654249704530" i="140" sparseCutoff="1.0000000000000000" />
      <sparseX alpha="-2.0427552793912769" i="141" sparseCutoff="1.0000000000000000" />
      <sparseX alpha="-96.810729852311965" i="142" sparseCutoff="1.0000000000000000" />
      <sparseX alpha="-48.676221154305786" i="143" sparseCutoff="1.0000000000000000" />
      <sparseX alpha="-78.325987836219767" i="144" sparseCutoff="1.0000000000000000" />
      <sparseX alpha="29.649850264375548" i="145" sparseCutoff="1.0000000000000000" />
      <sparseX alpha="-216.41635870752751" i="146" sparseCutoff="1.0000000000000000" />
      <sparseX alpha="35.255591628655573" i="147" sparseCutoff="1.0000000000000000" />
      <sparseX alpha="-93.221307553526927" i="148" sparseCutoff="1.0000000000000000" />
      <sparseX alpha="-46.491555402509967" i="149" sparseCutoff="1.0000000000000000" />
      <sparseX alpha="-28.234240648024432" i="150" sparseCutoff="1.0000000000000000" />
      <sparseX alpha="3.1786835741825228" i="151" sparseCutoff="1.0000000000000000" />
      <sparseX alpha="-143.35522033353271" i="152" sparseCutoff="1.0000000000000000" />
      <sparseX alpha="-21.457846338349022" i="153" sparseCutoff="1.0000000000000000" />
      <sparseX alpha="4.5321399450903801" i="154" sparseCutoff="1.0000000000000000" />
      <sparseX alpha="-69.287531363561314" i="155" sparseCutoff="1.0000000000000000" />
      <sparseX alpha="-106.24200829610680" i="156" sparseCutoff="1.0000000000000000" />
      <sparseX alpha="-228.33075128904463" i="157" sparseCutoff="1.0000000000000000" />
      <sparseX alpha="79.579801532104597" i="158" sparseCutoff="1.0000000000000000" />
      <sparseX alpha="-123.64673407191540" i="159" sparseCutoff="1.0000000000000000" />
      <sparseX alpha="-57.816112737487124" i="160" sparseCutoff="1.0000000000000000" />
      <sparseX alpha="-202.65845049180490" i="161" sparseCutoff="1.0000000000000000" />
      <sparseX alpha="-94.239802040776482" i="162" sparseCutoff="1.0000000000000000" />
      <sparseX alpha="-54.824740639484695" i="163" sparseCutoff="1.0000000000000000" />
      <sparseX alpha="-22.316420767978862" i="164" sparseCutoff="1.0000000000000000" />
      <sparseX alpha="54.309959144177512" i="165" sparseCutoff="1.0000000000000000" />
      <sparseX alpha="609.27945765558593" i="166" sparseCutoff="1.0000000000000000" />
      <sparseX alpha="156.38244073130690" i="167" sparseCutoff="1.0000000000000000" />
      <sparseX alpha="-167.13462630457298" i="168" sparseCutoff="1.0000000000000000" />
      <sparseX alpha="-6.6555621552521966" i="169" sparseCutoff="1.0000000000000000" />
      <sparseX alpha="-15.700689166476357" i="170" sparseCutoff="1.0000000000000000" />
      <sparseX alpha="59.945831699100083" i="171" sparseCutoff="1.0000000000000000" />
      <sparseX alpha="25.354257124516661" i="172" sparseCutoff="1.0000000000000000" />
      <sparseX alpha="-58.773917750952876" i="173" sparseCutoff="1.0000000000000000" />
      <sparseX alpha="-16.637064969413750" i="174" sparseCutoff="1.0000000000000000" />
      <sparseX alpha="99.381838669272568" i="175" sparseCutoff="1.0000000000000000" />
      <sparseX alpha="327.84969771358942" i="176" sparseCutoff="1.0000000000000000" />
      <sparseX alpha="164.88277694289343" i="177" sparseCutoff="1.0000000000000000" />
      <sparseX alpha="-33.578820499246902" i="178" sparseCutoff="1.0000000000000000" />
      <sparseX alpha="1.5537287376638820" i="179" sparseCutoff="1.0000000000000000" />
      <sparseX alpha="-186.03559662689116" i="180" sparseCutoff="1.0000000000000000" />
      <sparseX alpha="-95.704783887881305" i="181" sparseCutoff="1.0000000000000000" />
      <sparseX alpha="-69.990674386078069" i="182" sparseCutoff="1.0000000000000000" />
      <sparseX alpha="-38.167041421074231" i="183" sparseCutoff="1.0000000000000000" />
      <sparseX alpha="36.992307415239502" i="184" sparseCutoff="1.0000000000000000" />
      <sparseX alpha="-153.20944850589748" i="185" sparseCutoff="1.0000000000000000" />
      <sparseX alpha="-57.646048949543939" i="186" sparseCutoff="1.0000000000000000" />
      <sparseX alpha="-39.632982425450784" i="187" sparseCutoff="1.0000000000000000" />
      <sparseX alpha="135.09653287432320" i="188" sparseCutoff="1.0000000000000000" />
      <sparseX alpha="81.631164290832388" i="189" sparseCutoff="1.0000000000000000" />
      <sparseX alpha="31.036755912378720" i="190" sparseCutoff="1.0000000000000000" />
      <sparseX alpha="-86.686678242013087" i="191" sparseCutoff="1.0000000000000000" />
      <sparseX alpha="36.352993849939786" i="192" sparseCutoff="1.0000000000000000" />
      <sparseX alpha="-101.69526759407657" i="193" sparseCutoff="1.0000000000000000" />
      <sparseX alpha="-27.302441388741347" i="194" sparseCutoff="1.0000000000000000" />
      <sparseX alpha="-150.89766871727565" i="195" sparseCutoff="1.0000000000000000" />
      <sparseX alpha="-21.325079995006529" i="196" sparseCutoff="1.0000000000000000" />
      <sparseX alpha="47.538695856785452" i="197" sparseCutoff="1.0000000000000000" />
      <sparseX alpha="-123.47708005486223" i="198" sparseCutoff="1.0000000000000000" />
      <sparseX alpha="2.3573866596567625" i="199" sparseCutoff="1.0000000000000000" />
      <sparseX alpha="158.24426680204141" i="200" sparseCutoff="1.0000000000000000" />
    </gpCoordinates>
  </gpSparse>
  <command_line> at_file=train.xyz gap={soap l_max=8 n_max=8 atom_sigma=0.5 zeta=4 cutoff=5.0 cutoff_transition_width=0.5 delta=1.0 f0=0.0 n_sparse=200 covariance_type=dot_product sparse_method=cur_points add_species=T} sparse_jitter=1e-08 e0=-0.97 e0_offset=0.0 default_sigma={0.0005 0.1 0.05 0.01} energy_parameter_name=dft_energy force_parameter_name=dft_force gp_file=train.xml</command_line>
  <XYZ_data>
    144
    dft_energy=-1022.58408052 dft_virial={0.0	0.0	0.0	0.0	0.0	0.0	0.0	0.0	0.0} Lattice="12.741439     0.0     0.000661     0.000495     13.423057     0.000955     0.0     0.0     10.083959" Properties=species:S:1:pos:R:3:Z:I:1:dft_force:R:3
    Ni                3.235024        3.762590        0.016590      28       -0.166659        0.630717        0.026309
    Ni                3.097443        3.779275        5.122506      28        0.578888       -0.311124       -0.748212
    Ni                3.256800        8.266482       10.015399      28       -0.471600       -0.098375        0.579393
    Ni                3.199141        8.167715        5.089718      28        0.330188        0.521658       -0.497770
    Ni                3.306836       12.753663        0.179585      28       -0.554896        0.017715       -1.502149
    Ni                3.084598       12.705474        5.101803      28        0.511210        0.112377       -0.345677
    Ni                7.563302        3.706213       10.046296      28       -0.685071        0.297770        0.251495
    Ni                7.322872        3.746134        4.992428      28       -0.064389        0.140896        0.733417
    Ni                7.618117        8.228267       10.038785      28       -1.320848       -0.450700        0.274148
    Ni                7.311787        8.235542        5.049267      28        0.792309       -0.296880       -0.469637
    Ni                7.443480       12.645916       10.055971      28        0.079882       -0.055200       -0.003114
    Ni                7.453953       12.649392        5.108741      28       -0.738075        0.135344       -0.567267
    Ni               11.704513        3.732791        9.977478      28       -0.076585       -0.054893        0.552507
    Ni               11.611490        3.794712        5.029208      28       -0.187373       -0.608284       -0.018217
    Ni               11.690232        8.297221        0.170416      28        0.303813       -0.738206       -1.298072
    Ni               11.709981        8.289006        5.074286      28       -0.571290       -0.458654        0.123594
    Ni               11.717307       12.764710        0.048467      28       -0.147619       -0.059887       -0.174680
    Ni               11.704435       12.684198        5.079479      28       -0.284333       -0.005555       -0.512985
    Ni                1.021243        0.800900        4.890971      28       -0.026242       -0.464910        1.134202
    Ni                1.129443        0.787249        0.037808      28       -0.462974        0.190202       -0.429077
    Ni                1.114393        5.223005        4.979727      28       -0.775770        0.527493        0.440245
    Ni                1.131112        5.266912        0.035828      28       -0.242617       -0.080257        0.053905
    Ni                1.161851        9.596049        5.045697      28       -0.297464        1.530389        0.709593
    Ni                0.986967        9.747247        0.098095      28        0.987733       -0.390424       -0.282886
    Ni                5.257311        0.758899        4.992159      28       -0.063573       -0.619731        0.481338
    Ni                5.374058        0.666106        0.102840      28       -0.176972        0.434373       -0.779693
    Ni                5.224961        5.245153        4.941431      28        0.557548       -0.580353        0.586521
    Ni                5.386828        5.248375       10.029110      28       -0.236110       -0.688877       -0.035207
    Ni                5.326482        9.670011        5.038315      28       -0.560648       -0.071533        0.439642
    Ni                5.423325        9.539095        0.017346      28       -0.301449        0.963994        0.366072
    Ni                9.524530        0.646347        5.016806      28       -0.129907        0.166491        0.026452
    Ni                9.588773        0.666737        9.944508      28       -0.182534        0.326374        0.620679
    Ni                9.474547        5.190763        5.092705      28        0.178455       -0.379667       -0.565294
    Ni                9.641917        5.140333       10.020237      28       -0.070954        0.337057        0.141001
    Ni                9.547006        9.644131        4.960977      28       -0.180138       -0.369713        0.557168
    Ni                9.591869        9.639044        0.029923      28        0.440490        0.442080       -0.167190
    Ni                3.251461        1.685251        1.217654      28       -0.332727       -1.506962        0.412953
    Ni                3.091650        1.485906        6.213437      28        0.356870        0.354597        0.603779
    Ni                3.293523        5.905018        1.256054      28       -0.661804        0.471282        0.031235
    Ni                3.250662        5.933031        6.263012      28       -0.656140        0.534896        0.658451
    Ni                3.230644       10.393272        1.283375      28       -0.211019        0.118181        0.284242
    Ni                3.208059       10.548389        6.398967      28       -0.386710       -0.407290       -0.476573
    Ni                7.441409        1.414025        1.244000      28        0.351466        0.547051       -0.044185
    Ni                7.257132        1.461677        6.248824      28        0.525253        0.204588        0.333466
    Ni                7.386880        6.021583        1.286829      28        0.402939       -0.865141       -0.525077
    Ni                7.460577        6.019006        6.325858      28       -0.284549       -0.635579       -0.178353
    Ni                7.505613       10.393956        1.280753      28       -0.454811        0.035988       -0.115727
    Ni                7.428743       10.368721        6.316939      28       -0.174104        0.390506        0.003597
    Ni               11.485637        1.580672        1.320174      28        1.641650       -0.627579       -1.040377
    Ni               11.610906        1.443784        6.236575      28        0.378266        0.240557        0.492822
    Ni               11.714952        5.920736        1.287056      28        0.108435        0.268718       -0.696724
    Ni               11.669251        5.984563        6.249324      28        0.608598        0.153679        0.282883
    Ni               11.750668       10.450185        1.344506      28       -0.664019        0.340980       -0.020096
    Ni               11.707449       10.447595        6.298531      28       -0.162701       -0.178845        0.539914
    Ni                0.972422        2.975596        3.770896      28        0.021910        0.265417       -0.523757
    Ni                1.097751        3.099760        8.790344      28       -0.351737       -0.519192        0.549049
    Ni                0.917062        7.520644        3.918826      28        0.595287       -0.797557       -1.414677
    Ni                1.027416        7.534107        8.808080      28        0.545371       -0.283537        0.715441
    Ni                1.128031       11.908198        3.761355      28       -0.375345        0.109739        0.554152
    Ni                1.007093       12.013126        8.927681      28        0.640589        0.092386       -0.820199
    Ni                5.284468        2.965798        3.731742      28        0.289595        0.241711        0.405304
    Ni                5.380400        3.005610        8.864737      28       -0.023650       -0.217412       -0.714961
    Ni                5.260091        7.389165        3.673709      28        0.245873        0.477456        0.947881
    Ni                5.368304        7.384024        8.805159      28        0.131518        0.380796       -0.157707
    Ni                5.240075       11.880130        3.785466      28        0.497049        0.556103        0.285283
    Ni                5.376944       11.895486        8.814515      28       -0.380113       -0.058665        0.457672
    Ni                9.307783        2.994107        3.844338      28        1.352976       -0.143430       -0.748553
    Ni                9.504725        2.942629        8.683576      28        0.603576       -0.007029        0.949445
    Ni                9.549929        7.357406        3.778732      28       -0.240886        0.705314        0.168216
    Ni                9.587506        7.432280        8.841300      28        0.657246       -0.331637       -0.372996
    Ni                9.482653       11.818465        3.804679      28        0.405418        0.822270       -0.662513
    Ni                9.613381       11.838814        8.815488      28       -0.137233        0.295823       -0.258165
    Ni                0.993500        0.655166        2.532624      28        0.215014        1.086002       -0.383930
    Ni                1.117752        0.948205        7.540880      28       -0.618221       -1.184760        0.040312
    Ni                1.029294        5.239798        2.588565      28        0.242323       -0.192384       -0.653038
    Ni                1.158387        5.167890        7.548816      28       -0.441860        1.173769        0.042689
    Ni                0.986162        9.682266        2.653900      28        0.559300        0.004516       -0.576520
    Ni                1.053769        9.694696        7.647400      28        0.392334        0.556048       -0.300123
    Ni                5.357178        0.747356        2.593391      28       -0.432457       -0.322734       -0.867591
    Ni                5.297648        0.680025        7.584711      28       -0.399326        0.498448        0.079763
    Ni                5.263475        5.161796        2.499304      28        0.383054       -0.000734       -0.046487
    Ni                5.280078        5.190159        7.477092      28        0.335275       -0.138530        0.573162
    Ni                5.281630        9.612197        2.570371      28        0.386505        0.114482       -0.332877
    Ni                5.369878        9.638990        7.722221      28       -0.111761        0.250357       -1.103149
    Ni                9.600001        0.741731        2.543312      28       -1.079968       -0.641249       -0.193564
    Ni                9.439544        0.641005        7.493703      28        0.804379       -0.019967       -0.000663
    Ni                9.545658        5.229623        2.502334      28       -0.453733       -0.680058        0.029547
    Ni                9.714609        5.215140        7.508443      28       -0.762502       -0.294189        0.507812
    Ni                9.517573        9.640091        2.517460      28        0.445107        0.034509        0.114874
    Ni                9.559426        9.568130        7.561131      28        0.504170        0.822270       -0.107537
    Ni                3.213335        3.674038        2.561179      28       -0.626477        1.037563       -0.291041
    Ni                3.174514        3.733207        7.649335      28        0.416288        0.387537       -0.722704
    Ni                3.169415        8.160897        2.566447      28        0.135961        0.643217       -0.169843
    Ni                3.262959        8.394068        7.536328      28       -0.498069       -1.093549        0.343974
    Ni                3.204611       12.756455        2.489926      28        0.027842       -0.097097        0.953800
    Ni                3.127079       12.736857        7.622978      28        0.158934        0.267489        0.140422
    Ni                7.406268        3.817880        2.544637      28       -0.007755       -0.510747       -0.558650
    Ni                7.484600        3.746577        7.506317      28       -0.655825        0.202569       -0.045524
    Ni                7.486162        8.106641        2.490856      28       -0.443952        1.194170        0.227503
    Ni                7.537385        8.167970        7.455993      28       -0.642388        0.114612        0.860309
    Ni                7.408887       12.650265        2.429643      28        0.399477        0.166684        0.771826
    Ni                7.373314       12.668802        7.573813      28        0.380435       -0.345951       -0.220760
    Ni               11.571136        3.763651        2.494944      28        0.567428       -0.287620        0.112924
    Ni               11.717737        3.692240        7.508812      28       -0.402587        0.463552       -0.066893
    Ni               11.609930        8.140024        2.506309      28        0.428925        0.637187        0.838699
    Ni               11.721983        8.286120        7.623178      28       -0.343083       -0.393810       -0.183967
    Ni               11.645734       12.662144        2.515002      28       -0.011846        0.178427        0.386643
    Ni               11.715226       12.644922        7.496773      28       -0.523336        0.807970        0.661902
    Mo                3.214264        1.556417        3.751379      42       -0.887413       -0.230946        0.176996
    Mo                3.188680        1.596350        8.836812      42        0.531615       -0.604300       -0.048079
    Mo                3.170622        5.972549        3.762430      42       -0.355102        0.413552       -0.020378
    Mo                3.164751        6.064873        8.860352      42        0.526600        0.009998       -0.689770
    Mo                3.218682       10.469729        3.801445      42       -0.427463        0.120705        0.118415
    Mo                3.153819       10.554429        8.922838      42        0.471216        0.096383       -0.279454
    Mo                7.421699        1.429072        3.771494      42       -0.266258        0.747802       -0.103334
    Mo                7.468958        1.467503        8.768857      42       -0.844970        0.484187        0.438619
    Mo                7.383363        6.016577        3.804975      42        0.214985       -0.204245       -0.040259
    Mo                7.507679        5.959488        8.841844      42        0.020737        0.181550       -0.533652
    Mo                7.396664       10.472709        3.809396      42       -0.028752       -0.280338       -0.457162
    Mo                7.506415       10.374775        8.814165      42       -0.170617        0.923263        0.124955
    Mo               11.562529        1.489597        3.786859      42        0.814586        0.877862       -0.110579
    Mo               11.656702        1.519436        8.735045      42        0.316801        0.044268        0.548972
    Mo               11.588506        5.914964        3.750692      42        0.663055        1.013006        0.465954
    Mo               11.822785        5.975421        8.790015      42       -0.854289        0.645287        0.246080
    Mo               11.697805       10.479837        3.907424      42       -0.247236        0.188828       -1.290319
    Mo               11.759692       10.528858        8.867962      42       -0.995394       -0.439205        0.296772
    Mo                1.041302        2.968348        1.233796      42       -0.168483        0.038610        0.311486
    Mo                1.014856        3.126284        6.231103      42        0.009506       -1.974125        0.314595
    Mo                1.153837        7.535624        1.399564      42       -0.770131       -1.256442       -1.111373
    Mo                1.091225        7.517462        6.298226      42        0.000790       -1.285289        1.160382
    Mo                1.107125       11.980253        1.280413      42       -0.171107       -0.941535        0.199803
    Mo                1.010990       11.967931        6.338198      42        0.802143       -0.381511       -0.208240
    Mo                5.345462        2.984281        1.215566      42        0.486740       -0.420330        0.215754
    Mo                5.194387        2.976160        6.246052      42        0.564878       -0.489011        0.576975
    Mo                5.322130        7.400346        1.237782      42        0.125872        0.102445       -0.073920
    Mo                5.286289        7.424306        6.320682      42        0.311658       -0.049700       -0.222962
    Mo                5.332972       11.870211        1.316654      42        0.148501       -0.760003       -0.528710
    Mo                5.242331       11.917527        6.303332      42        0.451588       -0.359982        0.244881
    Mo                9.570523        2.960576        1.252883      42       -0.895693       -0.076418       -0.077394
    Mo                9.480411        2.849460        6.287761      42        0.228013        0.426959       -0.457532
    Mo                9.566124        7.379742        1.247459      42        0.358873       -0.277455       -0.188606
    Mo                9.584295        7.425138        6.231974      42        0.128927       -0.246407        0.524803
    Mo                9.546670       11.925299        1.222037      42        0.410644       -0.695511        0.180162
    Mo                9.506392       11.863593        6.241190      42        0.520809       -0.799836        0.829119
    144
    dft_energy=-1021.85653011 dft_virial={0.0	0.0	0.0	0.0	0.0	0.0	0.0	0.0	0.0} Lattice="12.741439     0.0     0.000661     0.000495     13.423057     0.000955     0.0     0.0     10.083959" Properties=species:S:1:pos:R:3:Z:I:1:dft_force:R:3
    Ni                3.185475        3.808470        9.931502      28       -0.273557       -0.375189        0.509139
    Ni                3.283073        3.790752        4.848273      28       -0.718388        0.057080        0.690345
    Ni                3.221278        8.287650        0.106003      28       -0.099880       -0.859813       -0.316179
    Ni                3.029715        8.409263        5.166455      28        0.333017       -1.351874       -1.031242
    Ni                3.130073       12.752683        0.078504      28        0.653914       -0.846077       -0.586461
    Ni                3.236772       12.801462        5.059011      28       -0.456157       -0.444801        0.190971
    Ni                7.338607        3.711005        0.014782      28        0.493025        0.453111       -0.441312
    Ni                7.584937        3.696804        5.062875      28       -1.007770        0.159073       -0.324333
    Ni                7.256259        8.197407        0.004872      28        1.538295        0.045871       -0.548006
    Ni                7.463216        8.143916        5.135809      28       -0.232427        0.536418       -0.648860
    Ni                7.500933       12.691487        0.101234      28       -0.314843        0.358744       -0.096008
    Ni                7.427376       12.694843        5.132037      28       -0.059159       -0.076906       -0.629899
    Ni               11.632779        3.758402        0.117129      28        0.082691       -0.101864       -1.815255
    Ni               11.699942        3.837303        4.911102      28        0.217749       -0.366980        0.535887
    Ni               11.697337        8.165648       10.072219      28       -0.078180        0.537869       -0.227108
    Ni               11.653368        8.207193        5.098015      28       -0.114719        0.438821       -0.572592
    Ni               11.745472       12.594076        0.071649      28       -0.378402        0.498536       -0.855601
    Ni               11.590187       12.810885        5.136244      28        0.724514       -0.605717       -0.773023
    Ni                1.078552        0.750389        5.027881      28       -0.046200        0.109285       -0.525992
    Ni                1.070037        0.639300        9.896730      28       -0.224435        1.015680        0.794780
    Ni                1.024809        5.255181        4.965990      28        0.323674       -0.027195        0.579553
    Ni                0.985497        5.129205        9.986591      28        0.508243        0.735851        0.998215
    Ni                0.921642        9.736602        5.108962      28        0.287366        0.082787        0.057319
    Ni                1.192686        9.622372       10.057892      28       -1.063282        0.468638        1.085072
    Ni                5.329640        0.641783        5.057095      28        0.192114        0.652130       -0.080305
    Ni                5.272244        0.745342       10.000710      28        0.136027       -0.593756        0.878235
    Ni                5.278852        5.112292        5.042819      28        0.485132        0.538311        0.137494
    Ni                5.266138        5.156776        0.008143      28        0.443417        0.214939        0.049686
    Ni                5.114375        9.676118        5.042026      28        1.299118        0.031480        0.588145
    Ni                5.242221        9.632023       10.019189      28        0.837917        0.364342        1.501369
    Ni                9.544664        0.716456        5.030173      28        0.196453        0.167000        0.050505
    Ni                9.584352        0.687395        0.001434      28        0.163219       -0.192168        0.299603
    Ni                9.607631        5.172052        4.948268      28       -0.261713        0.097036        0.643215
    Ni                9.515981        5.150024       10.064621      28        0.046135        0.064828       -0.087651
    Ni                9.526608        9.655688        5.122118      28       -0.043328       -0.479356        0.135914
    Ni                9.550357        9.625620        9.979137      28       -0.125187       -0.160987        1.176464
    Ni                3.141808        1.342051        1.275930      28        0.380902        1.390272       -0.442508
    Ni                3.181507        1.596391        6.300192      28        0.270569       -0.723714       -0.386708
    Ni                3.204287        6.048913        1.203310      28       -0.425448       -0.351317        0.023381
    Ni                3.101146        6.078497        6.174527      28        0.112235       -0.628255        0.476082
    Ni                3.192348       10.533355        1.308583      28        0.050486       -0.384961        0.250897
    Ni                3.170671       10.425849        6.374846      28       -0.406362        0.950300        0.448033
    Ni                7.435427        1.576968        1.253611      28       -0.138354       -0.997550        0.480523
    Ni                7.568122        1.391166        6.412226      28       -0.609529        0.751643       -0.695352
    Ni                7.524841        5.916239        1.257726      28       -0.492951        0.382261       -0.795306
    Ni                7.340586        5.889500        6.241298      28        0.469625        0.245378       -0.234397
    Ni                7.526306       10.419809        1.238413      28       -0.405787        0.001462        0.437524
    Ni                7.323834       10.469877        6.300352      28        0.416114       -0.389048        0.053512
    Ni               11.805682        1.389098        1.214759      28       -0.361516        0.594647       -0.389571
    Ni               11.703222        1.562591        6.291727      28       -0.126168        0.191146       -0.386374
    Ni               11.659313        5.997771        1.265661      28       -0.149499       -0.119653       -0.170750
    Ni               11.627192        6.004080        6.317945      28        0.532005       -0.454729       -0.303201
    Ni               11.676281       10.400520        1.258553      28        0.301753       -0.104761        0.176703
    Ni               11.625792       10.518469        6.379113      28        0.428194       -0.318128       -0.289110
    Ni                1.133605        3.087585        3.740963      28       -0.096781       -0.820938       -0.308825
    Ni                0.999577        3.067195        8.658135      28        0.334018       -0.961492        0.845353
    Ni                1.135781        7.499677        3.731012      28       -0.404980        0.065298        0.625060
    Ni                1.185356        7.456468        8.870664      28       -0.537273       -0.378612        0.141134
    Ni                0.973750       12.034925        3.820690      28       -0.105770       -0.540456        0.260213
    Ni                1.160599       11.936333        8.811698      28       -0.315805       -0.545698        0.228416
    Ni                5.323851        2.931461        3.801825      28        0.447223       -0.074503       -0.412675
    Ni                5.238048        2.879514        8.805769      28        0.513254        1.175327        0.006701
    Ni                5.373927        7.498187        3.836589      28       -0.200718       -0.264332       -0.252253
    Ni                5.319661        7.485019        8.836767      28       -0.503618       -0.619746       -0.275810
    Ni                5.279509       11.876493        3.825521      28        0.443760        0.354654        0.131325
    Ni                5.374026       11.896480        8.896548      28       -0.556565        0.631875        0.040790
    Ni                9.743624        2.856749        3.739115      28       -0.922531        0.807341        0.235513
    Ni                9.576660        2.853836        8.890567      28       -0.308820        0.988633       -0.447875
    Ni                9.542363        7.428628        3.712384      28       -0.173566       -0.003490        0.750451
    Ni                9.569681        7.448857        8.840978      28       -0.489868       -0.261155       -0.413311
    Ni                9.536055       11.887849        3.884875      28        0.031912        0.170135       -0.856767
    Ni                9.506382       11.930655        8.858920      28        0.557888        0.013076       -0.055324
    Ni                1.162694        0.667555        2.446698      28       -0.593194        0.622173        0.404655
    Ni                1.020612        0.629729        7.474742      28        0.359343        1.548882        0.566881
    Ni                1.005070        5.174360        2.492156      28        0.731007        0.632251       -0.204816
    Ni                1.006881        5.229355        7.658213      28        0.402412        0.288876       -1.636462
    Ni                1.026376        9.730361        2.600299      28        0.372994       -0.089382       -0.233852
    Ni                1.074778        9.671500        7.716495      28       -0.144371        0.325719       -1.027678
    Ni                5.294168        0.648065        2.501264      28        0.463975        0.411613        0.215502
    Ni                5.301205        0.740604        7.593327      28        0.323344       -0.369507       -0.166660
    Ni                5.350641        5.200643        2.572249      28       -0.424950       -0.311524       -0.420584
    Ni                5.393553        5.191891        7.603551      28       -0.973380       -0.588969       -0.534357
    Ni                5.298326        9.732186        2.662911      28       -0.055298       -0.393268       -1.135434
    Ni                5.213990        9.720481        7.632159      28        0.612504       -0.605176       -0.743412
    Ni                9.547772        0.685623        2.520616      28        0.223409       -0.148403       -0.082805
    Ni                9.620054        0.697220        7.608049      28       -0.300760        0.019023       -0.216719
    Ni                9.552078        5.163206        2.575479      28        0.612291       -0.123446       -0.790042
    Ni                9.412670        5.067338        7.548753      28        1.021851        0.858341        0.194675
    Ni                9.531803        9.582908        2.668978      28        0.147836        0.566672       -0.989005
    Ni                9.541556        9.722092        7.636034      28       -0.262216       -0.632505       -0.801893
    Ni                3.202995        3.824900        2.364522      28       -0.086603       -0.354255        0.268495
    Ni                3.156182        3.804363        7.312938      28        0.545844        0.343960        0.844249
    Ni                3.221076        8.334859        2.553615      28       -0.220081       -0.289361        0.090761
    Ni                3.133091        8.188159        7.560034      28        0.620401        0.451578        0.511432
    Ni                3.197231       12.668305        2.601710      28        0.083980        0.261619       -0.401004
    Ni                3.254317       12.802281        7.465771      28       -0.564708       -0.535473        1.179714
    Ni                7.465819        3.746322        2.408855      28       -0.220392       -0.263895        0.898617
    Ni                7.429618        3.688414        7.588403      28       -0.239284       -0.231289       -0.138853
    Ni                7.405475        8.236186        2.363864      28        0.245402       -0.229331        1.371355
    Ni                7.314975        8.306698        7.588000      28        0.660504       -0.397341       -0.131308
    Ni                7.481847       12.723877        2.569083      28       -0.204729       -0.296987        0.037275
    Ni                7.451943       12.710145        7.586788      28       -0.018478       -0.087019        0.448800
    Ni               11.776440        3.779933        2.369632      28       -0.643656       -0.290685        1.592220
    Ni               11.628884        3.848901        7.539473      28        0.103387       -0.661734       -0.169087
    Ni               11.741250        8.316859        2.499663      28       -0.671151       -0.606389        0.268102
    Ni               11.687669        8.228965        7.475987      28       -0.463444        0.205196        1.058461
    Ni               11.718148       12.761394        2.510264      28       -0.511024       -0.715682        0.501345
    Ni               11.686942       12.722011        7.550454      28       -0.306778       -0.159041        0.870485
    Mo                3.221564        1.529544        3.752769      42       -0.069546        0.506804       -0.167242
    Mo                3.180959        1.593451        8.796123      42       -0.787830       -0.449402        0.070656
    Mo                3.170167        6.079678        3.711060      42        0.351483        0.104476       -0.133062
    Mo                3.249311        5.933260        8.715047      42       -0.428475        0.989324        0.462453
    Mo                3.083666       10.605772        3.911847      42        0.109313       -0.693350       -0.550567
    Mo                3.260549       10.419514        8.918004      42       -0.984771        1.400304       -0.668744
    Mo                7.460985        1.557007        3.832523      42       -0.066979       -0.422385       -0.203516
    Mo                7.422365        1.535423        8.893588      42        0.303824       -0.421582       -0.461773
    Mo                7.453145        5.928763        3.661195      42       -0.241345        0.831749        1.304475
    Mo                7.396371        5.984616        8.672349      42        0.369670        0.648508        1.577994
    Mo                7.451184       10.444226        3.757626      42       -0.627034        0.185720        0.763078
    Mo                7.413906       10.543167        8.894279      42        0.071531       -0.734425       -0.704668
    Mo               11.762368        1.560095        3.630825      42        0.171721       -0.063780        1.069490
    Mo               11.652984        1.590954        8.757255      42        0.652721       -0.432712        0.478429
    Mo               11.699492        6.130337        3.763197      42        0.034172       -0.802294       -0.126822
    Mo               11.649120        5.993422        8.797964      42       -0.205206        0.287503        0.254423
    Mo               11.595668       10.449702        3.815018      42        0.579366        0.959260        0.277969
    Mo               11.667108       10.414332        8.877721      42        0.448663        0.895979       -0.436109
    Mo                1.084699        2.966026        1.171277      42        0.343312       -0.826830       -0.061830
    Mo                1.139370        2.907260        6.220647      42       -1.203035        1.085322       -0.195126
    Mo                0.953867        7.386467        1.260263      42        1.619427        0.273483        0.303203
    Mo                1.035353        7.507771        6.427014      42       -0.255366       -0.892602       -1.317507
    Mo                1.041147       11.894694        1.331741      42        0.455444       -0.424195       -0.697166
    Mo                1.049891       12.001005        6.369624      42        0.145162       -1.842202       -0.980981
    Mo                5.269036        2.890065        1.255307      42       -0.038148        0.104205        0.176937
    Mo                5.353891        2.829621        6.335767      42        0.224814        0.943929       -0.819470
    Mo                5.359588        7.364413        1.299213      42       -0.956398        0.238728        0.105492
    Mo                5.247248        7.388480        6.307921      42        0.127551        0.219441        0.003182
    Mo                5.341115       11.894775        1.282462      42       -0.063526       -0.346194        0.321939
    Mo                5.320870       11.930131        6.446680      42       -0.241642       -0.688408       -1.421514
    Mo                9.570877        2.895474        1.286488      42        0.098162       -0.121414       -0.195823
    Mo                9.567147        2.988093        6.299987      42        0.620834       -1.102788       -0.076460
    Mo                9.590742        7.414387        1.253130      42       -0.464805       -0.172885       -0.133416
    Mo                9.555851        7.290465        6.337976      42       -0.760120        0.893457       -0.001817
    Mo                9.657949       11.791753        1.277072      42       -0.725921        0.571581        0.345621
    Mo                9.542884       11.869123        6.317689      42       -0.255433        0.226382        0.501639
    144
    dft_energy=-967.38215172 dft_virial={0.0	0.0	0.0	0.0	0.0	0.0	0.0	0.0	0.0} Lattice="12.741439     0.0     0.000661     0.000495     13.423057     0.000955     0.0     0.0     10.083959" Properties=species:S:1:pos:R:3:Z:I:1:dft_force:R:3
    Ni                2.857484        3.793007        9.760168      28        2.927417        2.063837        2.328431
    Ni                3.045242        3.792564        4.828890      28        0.495422       -0.331841        3.145058
    Ni                3.004702        8.372941        9.834618      28        0.107138        0.791905        1.255856
    Ni                3.334157        8.022491        5.311158      28        0.170754        1.369281       -3.435765
    Ni                3.498561       12.879638        0.026923      28       -3.701176       -1.936293       -0.407349
    Ni                3.245265       12.661473        4.862818      28       -0.384174       -0.296939        1.592252
    Ni                7.378255        3.621957        9.914775      28       -2.279525       -0.691567        0.380738
    Ni                7.667797        3.782859        4.923222      28       -2.353291        1.241620        0.383546
    Ni                7.269038        8.177729       10.011708      28        0.374036       -1.140612        1.771939
    Ni                7.373522        8.302120        5.101934      28        0.761324       -0.979451       -0.398394
    Ni                7.492891       12.645124        0.011695      28        0.882390        1.119340       -0.593173
    Ni                7.420639       12.760374        5.340336      28       -1.216608       -0.921421       -2.550406
    Ni               11.604259        3.625111        0.472850      28       -2.448823        0.585618       -5.120552
    Ni               11.604413        4.011467        5.266801      28        0.130413       -2.053341        0.071212
    Ni               11.679717        8.541548        0.408192      28        4.388785       -3.067061        2.432700
    Ni               12.019443        8.221434        5.242800      28       -2.036475        0.226766       -1.501464
    Ni               11.411273       12.830053        0.205937      28        2.810115        0.937780       -1.948878
    Ni               12.338179       12.962619        5.116338      28       -2.962955       -1.417196        1.027285
    Ni                1.037753        1.068126        4.748686      28       -0.688793       -2.048152        3.169312
    Ni                0.900134        0.743503        9.874302      28        0.228675        1.573398        1.092067
    Ni                0.965615        4.978437        4.935464      28        0.599005        1.625578        1.121219
    Ni                0.859113        5.409331        0.232804      28        0.602372       -0.724452       -0.971899
    Ni                1.567221        9.626520        4.806156      28       -3.403532       -1.777998        1.830238
    Ni                0.985369        9.932727        9.966503      28        0.848667       -1.219556        0.411909
    Ni                5.117662        0.679878        5.165650      28        0.710156        0.273099       -0.322151
    Ni                4.827171        1.039683        0.053961      28        3.741921       -0.246060        0.389727
    Ni                5.538614        5.177944        4.732402      28       -1.141241       -0.454884        1.324781
    Ni                5.392508        5.523226       10.014921      28       -1.487539       -2.969838        1.203881
    Ni                5.290060        9.476235        5.123035      28        0.674541        2.931668        1.334799
    Ni                5.420635        9.844953        0.514235      28       -1.268591       -2.776395       -2.142420
    Ni                9.462646        0.330570        4.634588      28        0.176216        1.665965        1.552701
    Ni                9.530673        0.356933        9.642993      28       -0.750555        2.616179       -0.458507
    Ni                9.719449        5.153031        4.795521      28       -3.138747        0.059176        0.021586
    Ni                9.212979        4.879590        0.040153      28        3.100660        3.453054       -1.721214
    Ni                9.969713        9.564559        4.423326      28        0.234133       -0.497444        2.430757
    Ni               10.003254        9.354515        9.706249      28       -8.090265        0.152309        2.344143
    Ni                2.935139        1.602847        1.292919      28       -0.933038       -0.086002       -1.560349
    Ni                2.881932        1.287607        5.855593      28        1.439739        1.919441        4.221360
    Ni                2.910944        5.780801        1.066507      28        1.899866        0.545908        1.098293
    Ni                3.343942        5.922964        6.320575      28       -1.178638       -1.540418        0.212766
    Ni                2.898542       10.493690        1.115679      28        1.428379       -0.130811        0.645363
    Ni                3.330785       10.228651        6.167433      28        0.041000        1.114292        1.762710
    Ni                7.495684        1.307943        1.501338      28       -2.297190        1.225649       -1.971547
    Ni                7.247388        1.561410        6.195386      28        1.202377       -1.819844        0.645636
    Ni                7.530815        5.874816        1.139983      28       -2.890780        1.281187        0.536932
    Ni                7.757318        5.850265        6.245976      28       -2.345181        1.303712       -0.390719
    Ni                7.930733       10.445675        1.706957      28       -0.342230       -0.583958       -2.354913
    Ni                7.472365       10.231000        6.307321      28       -0.818372        1.603607        1.539053
    Ni               11.577496        1.377420        1.335492      28       -2.138014       -1.746960       -0.664305
    Ni               11.966461        1.932799        6.267394      28       -2.232316       -2.400206        0.036270
    Ni               11.575497        5.563347        1.319323      28       -0.745931        1.924033        4.579646
    Ni               11.798503        6.050644        6.430514      28        0.317278       -0.045247       -0.582792
    Ni               11.920042       10.846689        0.946328      28       -2.406117       -2.257787        2.522077
    Ni               11.620900       10.192933        6.421845      28        0.978390       -0.608941       -0.784093
    Ni                0.697278        2.840802        3.735024      28        1.503763        4.192086        0.885486
    Ni                0.915340        3.323334        9.107581      28       -2.803796       -2.083572        0.766855
    Ni                1.253754        7.499771        3.800043      28       -0.836479        0.956216        3.210399
    Ni                0.958134        7.681760        8.704444      28       -0.259913       -0.949555        1.386236
    Ni                1.518544       11.592407        3.836257      28       -2.617136        4.946319       -1.453757
    Ni                1.442194       12.189384        9.030502      28       -0.945325       -1.340690       -2.537233
    Ni                5.178800        2.865917        3.826075      28       -0.885350       -0.036209        0.257798
    Ni                5.340206        2.794721        8.979072      28        0.449942        2.727377       -1.370472
    Ni                5.365599        7.632041        4.005232      28       -0.314999       -1.821576       -3.474392
    Ni                5.134960        7.455354        8.896644      28        1.707829        1.676583       -1.060915
    Ni                5.078601       12.178995        3.740776      28        2.281864       -1.368330        0.265529
    Ni                5.335810       12.135262        9.187748      28        1.158224       -0.440688       -4.025470
    Ni                9.282458        3.128941        3.463848      28       -0.776217       -1.222298       -0.205801
    Ni                9.953000        3.094686        8.772288      28       -3.069705       -1.452529       -1.215021
    Ni                9.302606        7.390064        3.930162      28        1.335685        0.298885       -2.470408
    Ni                9.380615        7.210947        8.748552      28        1.007213       -0.568609        0.278479
    Ni                9.708458       11.850908        3.508205      28        1.894743       -0.136046       -0.487786
    Ni                9.379575       11.473680        8.794001      28        1.296175        1.770782       -1.269267
    Ni                0.952653        0.717422        2.533080      28       -0.425910       -0.984409       -1.258757
    Ni                0.851134        0.507324        7.353676      28        0.452629        1.102488        0.294229
    Ni                1.054550        5.326162        2.595641      28       -0.804171       -1.816869        0.375350
    Ni                1.060024        5.189354        7.910060      28        0.270577        3.592207       -0.466204
    Ni                0.876159        9.852000        2.443848      28        0.698632       -1.003142       -0.933055
    Ni                1.190998        9.810241        7.692652      28        0.253787        0.269852       -1.750706
    Ni                5.238630        0.705945        2.519113      28        0.037338        0.522934       -0.365080
    Ni                5.242550        0.910929        7.530624      28       -0.224621       -0.863399        0.681402
    Ni                4.821064        5.445962        2.515174      28        1.410479       -0.792871       -0.610339
    Ni                5.375813        5.072882        7.410857      28        0.386503       -0.047641        1.458884
    Ni                6.001718       10.112448        2.821585      28       -3.095623       -1.183364        1.570825
    Ni                5.281046        9.661124        7.937087      28        1.279751       -0.149490       -0.904955
    Ni                9.409235        0.725959        2.359793      28        1.665918       -0.605588        0.025785
    Ni               10.026829        0.469713        7.094528      28       -0.843494        0.628467        0.593465
    Ni                9.268573        5.313034        2.361645      28        2.676517       -1.633335        1.206531
    Ni                9.555699        4.881979        7.024663      28        1.236685        1.332676        2.058486
    Ni               10.051044        9.612063        2.239703      28        0.666629       -0.668252       -1.289225
    Ni                9.231237        9.342958        7.547595      28        1.667374        2.724480        0.014234
    Ni                3.022403        3.611836        2.716538      28       -0.961698        1.315568       -2.834906
    Ni                3.448879        3.464357        7.377709      28       -0.274705        1.772283       -0.839357
    Ni                3.132722        8.223421        2.207057      28        0.751466        2.088057        1.953337
    Ni                3.152547        8.199703        7.409139      28        0.726928        0.749418        3.005744
    Ni                3.118119       12.658319        2.201796      28        0.630547        0.075235        2.096041
    Ni                3.206869       12.837892        7.522997      28        0.125352        0.838093        0.307771
    Ni                6.933209        3.966661        2.582982      28        0.883461       -1.424891       -1.100650
    Ni                7.817410        3.505029        7.480946      28       -2.346150        1.790348        0.561438
    Ni                7.160982        8.301771        2.222761      28        1.321964       -2.034218        1.357542
    Ni                7.428210        7.995189        7.777502      28       -1.890061        0.927642       -2.928670
    Ni                7.533357       12.620103        2.793981      28       -0.526400        1.522602       -0.107771
    Ni                7.707546       12.637540        7.425372      28       -0.260146       -0.433546        2.548121
    Ni               11.407878        3.339952        2.676971      28       -1.825204        5.825307       -0.404164
    Ni               11.509991        4.135443        7.764491      28        2.427077        0.139102        0.584157
    Ni               12.011307        8.031901        2.921802      28       -3.513583        1.625673       -1.499494
    Ni               11.516235        7.947282        7.636747      28        0.023546        1.691132        0.391680
    Ni               11.901825       12.672936        2.736944      28       -1.340741        0.852740       -0.659970
    Ni               11.719442       12.270406        7.857914      28        0.713022        1.982251       -1.040140
    Mo                2.959554        1.326507        3.580689      42        2.813097        1.262726        0.314559
    Mo                2.917626        1.772166        8.774562      42        0.034024       -3.127215       -1.124142
    Mo                3.017083        6.193734        3.903190      42        2.517205       -2.985370       -0.570921
    Mo                3.202715        6.270984        8.818661      42       -1.274320       -2.868850       -0.501375
    Mo                3.311859       10.424158        3.712627      42        5.016005       -1.915018       -2.544500
    Mo                3.356946       10.647316        8.782144      42       -0.835168       -0.231973        0.354130
    Mo                7.211521        1.563571        3.943011      42        0.586531       -0.996190       -2.800318
    Mo                7.686848        1.427220        8.437930      42       -0.614311       -0.711102        3.448229
    Mo                7.452357        5.981797        3.644086      42       -1.407811        2.043643        0.923760
    Mo                7.389884        5.946038        8.860603      42       -0.392326       -1.535437       -2.077093
    Mo                7.900378       10.648968        4.070398      42       -2.251605       -1.611156        1.930141
    Mo                7.519434       10.293364        9.270187      42       -1.466080        0.790008       -1.984252
    Mo               11.405546        1.617009        3.829767      42       -0.748913       -4.050106        2.529821
    Mo               11.703595        1.637492        8.839344      42        0.253248       -1.359324       -0.656704
    Mo               11.546178        5.898145        3.887255      42        2.163119        1.572686       -1.227853
    Mo               11.594152        6.303374        9.397626      42       -0.103579        0.090277       -3.484242
    Mo               12.054665       10.773896        4.026172      42       -1.360511       -1.763897        0.226483
    Mo               11.581694       10.195429        8.723336      42        4.306783        1.926102       -1.129406
    Mo                0.512780        2.779526        1.487064      42        7.831639        1.243584       -0.947472
    Mo                0.840508        3.274072        6.844653      42        3.107747       -1.481191       -3.441526
    Mo                1.135601        7.471408        1.650306      42       -2.048147       -0.259322       -6.503050
    Mo                1.100161        7.633196        6.271260      42        0.928390       -2.623502        2.264823
    Mo                0.985754       12.099611        1.176419      42        1.613334        0.223199        0.882693
    Mo                1.327662       11.862304        6.301814      42       -0.565233       -1.144561        0.548340
    Mo                4.933049        3.021356        1.424578      42        1.111372        0.659319       -1.630231
    Mo                5.588113        3.056725        6.210229      42       -2.751472        0.378018        0.209525
    Mo                5.051022        7.527288        1.282660      42        1.607659       -1.084347       -0.163165
    Mo                5.418612        7.148946        6.287019      42        0.721851        1.442659        1.322126
    Mo                5.773607       11.816948        1.250482      42       -2.081725        3.565134        3.375609
    Mo                5.107091       11.838385        6.578158      42        2.528395       -0.095758       -1.521574
    Mo                9.303968        2.868722        0.885141      42        0.247431       -3.469351        3.266415
    Mo                9.420559        2.708196        5.950086      42        3.347382       -1.242585       -0.077963
    Mo                9.562823        7.347916        1.134073      42       -0.028209        0.542174        0.675567
    Mo                9.566885        7.633786        6.210015      42        0.539976       -2.378814       -1.037198
    Mo                9.582129       11.927151        1.131394      42        0.525903       -0.581970       -0.135456
    Mo                9.953523       11.739054        5.979425      42       -1.562942        0.068094        1.179028
    144
    dft_energy=-973.89129707 dft_virial={0.0	0.0	0.0	0.0	0.0	0.0	0.0	0.0	0.0} Lattice="12.741439     0.0     0.000661     0.000495     13.423057     0.000955     0.0     0.0     10.083959" Properties=species:S:1:pos:R:3:Z:I:1:dft_force:R:3
    Ni                2.988629        3.719610        0.145881      28       -0.255531        1.694162       -0.221869
    Ni                3.323311        4.135456        5.076611      28        1.207724       -2.541283        0.644122
    Ni                3.298127        8.444123       10.055881      28        1.202102       -3.905553        1.161869
    Ni                2.724764        8.149500        4.529175      28        4.974012        3.883044        3.211393
    Ni                3.022574       12.745891        9.697345      28        0.638669        1.372103        1.680340
    Ni                3.548230       12.978673        4.989723      28       -0.553664       -0.586497        0.694069
    Ni                7.690670        3.836914        0.240479      28       -2.457554       -0.784089       -1.809192
    Ni                7.488312        3.868324        4.841861      28        1.735370       -1.488405        1.776068
    Ni                7.419197        7.876663        9.468643      28        2.590067        3.726573        3.206284
    Ni                7.280797        8.162507        4.781935      28       -0.123122        0.566969        1.702635
    Ni                6.972725       12.384931        0.241170      28        1.445135        1.544024       -1.927733
    Ni                7.448330       12.538907        4.628626      28       -1.127366        2.276435        2.922002
    Ni               11.737760        3.857236        0.291322      28       -1.753296       -1.231259        0.117175
    Ni               11.838383        3.636830        5.294256      28       -2.106980        1.191221       -0.693951
    Ni               11.784026        8.061901        0.036186      28        0.972921        0.151339       -0.766091
    Ni               11.424569        8.174279        4.911578      28        1.102758       -1.775102       -1.109844
    Ni               11.690672       12.623996        0.136539      28        0.366060       -0.276572       -0.685909
    Ni               11.645060       12.341588        5.138221      28       -0.494250        0.887537       -1.100008
    Ni                1.311693        0.680294        5.335610      28        0.024160        0.143926       -3.249529
    Ni                1.251349        1.012622       10.075232      28       -1.292946       -1.754344       -0.111972
    Ni                1.165718        4.941698        5.034960      28       -1.137469        2.259686        0.127126
    Ni                1.236244        5.677497        0.161731      28       -1.164245       -3.394758       -2.336430
    Ni                0.655055        9.797852        5.142189      28        1.595440       -0.195190       -1.508701
    Ni                1.140974        9.425067        0.085516      28        0.700669        0.323644       -0.349007
    Ni                5.656752        1.004702        4.822151      28       -0.974776       -1.686916        1.245906
    Ni                5.397730        0.637448       10.066214      28       -0.776985        1.126528        1.385390
    Ni                5.818902        5.212522        5.161764      28       -4.137717        0.369953        0.470508
    Ni                4.904597        5.095191        0.153429      28        4.516976       -0.704561       -2.309590
    Ni                5.042532        9.492786        5.407139      28        1.233766       -0.383142       -1.104733
    Ni                5.662981        9.596492       10.003366      28       -2.214514       -0.416691        1.210755
    Ni                9.408525        0.472961        4.647785      28        2.432179       -1.288849        1.876916
    Ni                9.700244        0.570856        0.185453      28        0.577347        0.193639       -1.505469
    Ni                9.523039        5.145850        5.250327      28        1.101046       -1.046564       -0.583244
    Ni                9.630493        5.295020       10.017545      28        0.038172       -2.371058        1.520765
    Ni                9.467970        9.603553        4.656585      28       -0.725568       -0.652149        0.969818
    Ni                9.235875        9.704575        9.897587      28        0.357146       -1.770817       -0.912745
    Ni                3.284676        1.644512        1.115987      28       -1.012477       -1.955136        1.358180
    Ni                3.453676        1.905792        6.494889      28       -1.266013       -1.403372       -1.681538
    Ni                3.368577        6.093289        1.030775      28       -1.839237        1.740100        3.327270
    Ni                3.252519        6.197372        6.155747      28       -0.279722       -0.018498        0.529653
    Ni                2.962291       10.604806        1.510154      28       -0.651911       -0.420190       -0.651325
    Ni                3.168582       10.441192        6.219634      28       -0.765746        3.202899       -0.255704
    Ni                7.652075        1.387783        1.139701      28       -1.819657       -0.085475        0.546504
    Ni                7.742254        1.245391        6.014352      28       -0.886002        0.483638        2.476835
